\data\
ngram 1=1483
ngram 2=3094
ngram 3=2562

\1-grams:
-3.5201755	<unk>	0
0	<s>	-1.1451662
-0.5793791	</s>	0
-3.4393277	sheet	-0.30103
-3.2409327	knew	-0.30103
-3.4393277	left	-0.30103
-3.4393277	air	-0.30103
-3.2409327	chair	-0.30103
-3.4393277	sticks	-0.30103
-3.4393277	storm	-0.30103
-3.4393277	beat	-0.30103
-2.5890958	he	-0.30103
-3.4393277	dressed	-0.30103
-3.2409327	himself	-0.30103
-2.2872324	in	-0.3258536
-2.5377579	an	-0.30103
-3.4393277	ancient	-0.30103
-3.2409327	black	-0.30103
-3.4393277	frock	-0.30103
-3.2409327	coat	-0.30103
-3.4393277	swarm	-0.30103
-2.891798	no	-0.30103
-3.2409327	spark	-0.30103
-3.4393277	dug	-0.30103
-3.017855	two	-0.30103
-3.1961913	dont	-0.30103
-3.4393277	ask	-0.30103
-2.6473262	me	-0.30103
-1.8887929	to	-0.32077405
-3.4393277	carry	-0.30103
-3.4393277	oily	-0.30103
-3.4393277	rag	-0.30103
-3.017855	like	-0.30103
-2.6473262	that	-0.30103
-3.4393277	rake	-0.30103
-2.7145913	well	-0.30103
-2.1487026	is	-0.31527045
-3.4393277	nearly	-0.30103
-3.4393277	ninetythree	-0.30103
-3.017855	years	-0.30103
-3.017855	old	-0.30103
-3.4393277	park	-0.30103
-3.4393277	goat	-0.30103
-3.2409327	dark	-0.30103
-3.4393277	bit	-0.30103
-3.4393277	yes	-0.30103
-3.1961913	warm	-0.30103
-3.4393277	feed	-0.30103
-3.4393277	floor	-0.30103
-3.2409327	right	-0.30103
-3.1961913	know	-0.30103
-3.4393277	feet	-0.30103
-3.4393277	ship	-0.30103
-3.4393277	sip	-0.30103
-3.4393277	pat	-0.30103
-3.2409327	slip	-0.30103
-2.7145913	one	-0.30103
-3.1961913	down	-0.30103
-3.4393277	meat	-0.30103
-3.4393277	bat	-0.30103
-2.6473262	up	-0.30103
-3.4393277	sleep	-0.30103
-3.4393277	pile	-0.30103
-3.4393277	youd	-0.30103
-2.4503384	be	-0.30103
-3.4393277	better	-0.30103
-3.2409327	off	-0.30103
-3.2409327	taking	-0.30103
-1.9226782	a	-0.31654215
-3.2409327	cold	-0.30103
-3.4393277	shower	-0.30103
-3.4393277	sway	-0.30103
-3.4393277	both	-0.30103
-3.4393277	figures	-0.30103
-3.4393277	would	-0.30103
-3.2409327	go	-0.30103
-3.2409327	higher	-0.30103
-3.1961913	later	-0.30103
-3.4393277	charlie	-0.30103
-3.4393277	mut	-0.30103
-3.4393277	troop	-0.30103
-3.1961913	here	-0.30103
-3.4393277	wish	-0.30103
-3.4393277	ate	-0.30103
-3.4393277	hear	-0.30103
-3.4393277	pot	-0.30103
-3.2409327	white	-0.30103
-3.4393277	mother	-0.30103
-3.4393277	sews	-0.30103
-3.2409327	yellow	-0.30103
-3.4393277	gingham	-0.30103
-3.4393277	aprons	-0.30103
-2.891798	i	-0.30103
-3.1961913	just	-0.30103
-3.2409327	try	-0.30103
-2.7942183	do	-0.30103
-2.7145913	my	-0.30103
-3.2409327	best	-0.30103
-3.2409327	bad	-0.30103
-3.1961913	where	-0.30103
-2.4918523	were	-0.30103
-2.3153167	you	-0.30103
-3.2409327	while	-0.30103
-2.7145913	we	-0.30103
-3.2409327	away	-0.30103
-3.2409327	deer	-0.30103
-3.4393277	droop	-0.30103
-3.4393277	group	-0.30103
-3.2409327	near	-0.30103
-3.4393277	cheer	-0.30103
-3.4393277	thigh	-0.30103
-3.4393277	single	-0.30103
-3.017855	if	-0.30103
-3.4393277	destroy	-0.30103
-3.4393277	confidence	-0.30103
-3.4393277	banks	-0.30103
-3.4393277	something	-0.30103
-1.9110868	the	-0.30103
-3.4393277	economy	-0.30103
-2.891798	said	-0.30103
-3.4393277	coupe	-0.30103
-3.2409327	write	-0.30103
-3.4393277	train	-0.30103
-3.4393277	approached	-0.30103
-3.4393277	depot	-0.30103
-3.4393277	slowly	-0.30103
-3.4393277	islands	-0.30103
-2.3153167	are	-0.30103
-3.4393277	sparsely	-0.30103
-3.4393277	populated	-0.30103
-3.4393277	area	-0.30103
-3.4393277	steer	-0.30103
-3.4393277	tile	-0.30103
-3.4393277	select	-0.30103
-3.4393277	sweet	-0.30103
-3.4393277	suit	-0.30103
-2.0760589	of	-0.31626996
-3.4393277	youre	-0.30103
-3.2409327	used	-0.30103
-3.2409327	being	-0.30103
-2.4918523	on	-0.56427145
-3.4393277	field	-0.30103
-3.4393277	forward	-0.30103
-3.4393277	root	-0.30103
-3.4393277	sister	-0.30103
-3.2409327	made	-0.30103
-3.4393277	flowered	-0.30103
-3.4393277	curtains	-0.30103
-3.1961913	three	-0.30103
-3.4393277	bright	-0.30103
-3.4393277	sunshine	-0.30103
-3.4393277	shimmers	-0.30103
-3.4393277	ocean	-0.30103
-3.4393277	pay	-0.30103
-3.4393277	light	-0.30103
-3.1961913	other	-0.30103
-3.4393277	cases	-0.30103
-2.7942183	also	-0.30103
-3.1961913	under	-0.30103
-3.4393277	advisement	-0.30103
-3.1961913	much	-0.30103
-3.4393277	hate	-0.30103
-3.4393277	whoop	-0.30103
-3.4393277	rock	-0.30103
-3.4393277	why	-0.30103
-3.4393277	yell	-0.30103
-2.891798	or	-0.30103
-3.4393277	worry	-0.30103
-3.4393277	over	-0.30103
-3.4393277	silly	-0.30103
-3.2409327	items	-0.30103
-3.4393277	toot	-0.30103
-3.4393277	knot	-0.30103
-3.4393277	fate	-0.30103
-3.2409327	side	-0.30103
-2.891798	got	-0.30103
-3.4393277	wet	-0.30103
-3.4393277	shoot	-0.30103
-3.1961913	looked	-0.30103
-2.1487026	and	-0.30103
-3.4393277	noticed	-0.30103
-3.4393277	men	-0.30103
-3.4393277	slay	-0.30103
-2.7145913	will	-0.30103
-3.4393277	robin	-0.30103
-3.4393277	wear	-0.30103
-3.4393277	lily	-0.30103
-2.4503384	was	-0.30103
-3.4393277	conscious	-0.30103
-2.7145913	all	-0.30103
-3.1961913	time	-0.30103
-3.4393277	prior	-0.30103
-3.2409327	play	-0.30103
-3.4393277	briar	-0.30103
-3.4393277	allow	-0.30103
-3.4393277	rare	-0.30103
-3.4393277	lilyrare	-0.30103
-3.2409327	lie	-0.30103
-3.4393277	shear	-0.30103
-2.891798	big	-0.30103
-3.4393277	baseball	-0.30103
-3.4393277	players	-0.30103
-3.1961913	get	-0.30103
-3.4393277	traded	-0.30103
-3.017855	this	-0.30103
-3.2409327	easy	-0.30103
-2.1689348	for	-0.30103
-3.2409327	us	-0.30103
-3.2409327	fear	-0.30103
-3.4393277	sprinkle	-0.30103
-3.4393277	snoop	-0.30103
-3.4393277	scrubbed	-0.30103
-3.4393277	floors	-0.30103
-3.4393277	thoroughly	-0.30103
-3.4393277	boot	-0.30103
-3.4393277	rocks	-0.30103
-3.4393277	witch	-0.30103
-3.2409327	though	-0.30103
-3.4393277	galore	-0.30103
-3.4393277	tried	-0.30103
-3.1961913	tell	-0.30103
-2.891798	people	-0.30103
-3.4393277	community	-0.30103
-3.4393277	gnaw	-0.30103
-3.4393277	cycle	-0.30103
-3.4393277	delta	-0.30103
-3.4393277	she	-0.30103
-3.4393277	thinner	-0.30103
-3.017855	than	-0.30103
-3.4393277	am	-0.30103
-3.4393277	bear	-0.30103
-3.4393277	error	-0.30103
-3.4393277	jungle	-0.30103
-3.4393277	nothing	-0.30103
-2.6473262	as	-0.30103
-3.2409327	offensive	-0.30103
-3.2409327	innocence	-0.30103
-3.4393277	menu	-0.30103
-3.4393277	peer	-0.30103
-3.4393277	lip	-0.30103
-3.4393277	dot	-0.30103
-3.4393277	gathered	-0.30103
-3.4393277	shells	-0.30103
-3.4393277	beach	-0.30103
-3.2409327	feel	-0.30103
-2.4503384	can	-0.39794
-3.4393277	weekend	-0.30103
-3.4393277	tie	-0.30103
-3.4393277	sigh	-0.30103
-3.4393277	mere	-0.30103
-3.4393277	everything	-0.30103
-3.1961913	went	-0.30103
-3.2409327	real	-0.30103
-3.4393277	smooth	-0.30103
-3.4393277	sheriff	-0.30103
-3.4393277	pad	-0.30103
-3.2409327	their	-0.30103
-3.2409327	house	-0.30103
-3.4393277	grey	-0.30103
-2.7145913	your	-0.30103
-3.4393277	grades	-0.30103
-3.4393277	lower	-0.30103
-3.4393277	nancys	-0.30103
-3.4393277	urgent	-0.30103
-3.4393277	humidity	-0.30103
-3.4393277	overwhelming	-0.30103
-2.891798	there	-0.30103
-3.4393277	explore	-0.30103
-2.7942183	they	-0.30103
-3.4393277	carried	-0.30103
-3.4393277	stretcher	-0.30103
-3.4393277	validated	-0.30103
-3.4393277	acts	-0.30103
-3.4393277	school	-0.30103
-3.4393277	districts	-0.30103
-3.4393277	loop	-0.30103
-3.4393277	jane	-0.30103
-3.1961913	may	-0.30103
-3.4393277	earn	-0.30103
-3.017855	more	-0.30103
-3.1961913	money	-0.30103
-2.7942183	by	-0.30103
-3.1961913	working	-0.30103
-3.1961913	hard	-0.30103
-3.1961913	back	-0.30103
-3.2409327	four	-0.30103
-3.4393277	fruit	-0.30103
-3.017855	him	-0.30103
-3.1961913	night	-0.30103
-3.2409327	after	-0.30103
-3.4393277	received	-0.30103
-3.4393277	annoying	-0.30103
-3.1961913	phone	-0.30103
-3.2409327	calls	-0.30103
-3.4393277	hem	-0.30103
-3.4393277	seeds	-0.30103
-3.4393277	sign	-0.30103
-3.4393277	november	-0.30103
-3.4393277	alfalfa	-0.30103
-3.4393277	healthy	-0.30103
-3.4393277	mush	-0.30103
-3.4393277	oscar	-0.30103
-3.2409327	sell	-0.30103
-3.4393277	misguided	-0.30103
-3.4393277	souls	-0.30103
-2.5377579	have	-0.30103
-3.4393277	lost	-0.30103
-3.1961913	way	-0.30103
-3.2409327	five	-0.30103
-3.4393277	losing	-0.30103
-3.1961913	water	-0.30103
-3.4393277	replace	-0.30103
-2.4503384	it	-0.30103
-3.4393277	immediately	-0.30103
-3.4393277	hill	-0.30103
-3.4393277	fitting	-0.30103
-3.4393277	swing	-0.30103
-3.2409327	arm	-0.30103
-3.4393277	high	-0.30103
-3.4393277	pit	-0.30103
-3.4393277	zero	-0.30103
-3.4393277	fat	-0.30103
-3.2409327	thought	-0.30103
-3.4393277	darn	-0.30103
-3.4393277	golf	-0.30103
-3.2409327	expect	-0.30103
-3.4393277	bounce	-0.30103
-3.4393277	week	-0.30103
-3.4393277	spit	-0.30103
-3.4393277	mitten	-0.30103
-3.4393277	six	-0.30103
-3.2409327	when	-0.30103
-3.4393277	else	-0.30103
-3.4393277	fails	-0.30103
-3.4393277	use	-0.30103
-3.4393277	force	-0.30103
-3.2409327	brought	-0.30103
-3.4393277	alimony	-0.30103
-3.4393277	harms	-0.30103
-3.4393277	divorced	-0.30103
-3.4393277	mans	-0.30103
-3.2409327	wealth	-0.30103
-3.4393277	hat	-0.30103
-3.4393277	seed	-0.30103
-3.4393277	sergeant	-0.30103
-3.4393277	carl	-0.30103
-3.4393277	lives	-0.30103
-3.4393277	lovely	-0.30103
-3.2409327	home	-0.30103
-3.4393277	lively	-0.30103
-3.4393277	dart	-0.30103
-3.4393277	hum	-0.30103
-3.4393277	pitting	-0.30103
-3.4393277	reek	-0.30103
-3.2409327	provides	-0.30103
-3.4393277	funds	-0.30103
-3.4393277	clear	-0.30103
-3.4393277	slums	-0.30103
-3.1961913	help	-0.30103
-3.4393277	colleges	-0.30103
-3.4393277	build	-0.30103
-3.4393277	dormitories	-0.30103
-3.2409327	part	-0.30103
-3.4393277	bloat	-0.30103
-3.1961913	good	-0.30103
-3.1961913	win	-0.30103
-3.2409327	has	-0.30103
-3.4393277	been	-0.30103
-3.2409327	done	-0.30103
-3.1961913	yet	-0.30103
-3.1961913	take	-0.30103
-3.4393277	advantage	-0.30103
-3.4393277	enabling	-0.30103
-3.4393277	legislation	-0.30103
-3.4393277	aluminum	-0.30103
-3.4393277	silverware	-0.30103
-3.2409327	often	-0.30103
-3.4393277	flimsy	-0.30103
-3.4393277	shy	-0.30103
-3.4393277	lair	-0.30103
-3.4393277	cake	-0.30103
-3.4393277	hitting	-0.30103
-3.4393277	city	-0.30103
-3.4393277	period	-0.30103
-3.4393277	transition	-0.30103
-3.4393277	treehouse	-0.30103
-3.1961913	above	-0.30103
-3.4393277	dolphins	-0.30103
-3.2409327	swam	-0.30103
-3.2409327	around	-0.30103
-3.017855	our	-0.30103
-3.2409327	boat	-0.30103
-3.4393277	papa	-0.30103
-3.4393277	bran	-0.30103
-3.4393277	brawn	-0.30103
-3.4393277	pretty	-0.30103
-3.4393277	witty	-0.30103
-3.4393277	nine	-0.30103
-3.4393277	written	-0.30103
-3.2409327	hotel	-0.30103
-3.4393277	cart	-0.30103
-3.4393277	box	-0.30103
-3.4393277	contained	-0.30103
-3.4393277	sweaters	-0.30103
-3.4393277	bitten	-0.30103
-3.4393277	lick	-0.30103
-3.2409327	not	-0.30103
-3.4393277	program	-0.30103
-3.4393277	socialized	-0.30103
-3.4393277	medicine	-0.30103
-3.4393277	league	-0.30103
-3.017855	at	-0.30103
-3.4393277	eventually	-0.30103
-3.4393277	became	-0.30103
-3.4393277	rather	-0.30103
-3.4393277	proud	-0.30103
-3.4393277	claim	-0.30103
-3.2409327	little	-0.30103
-3.4393277	schoolhouse	-0.30103
-3.4393277	stood	-0.30103
-3.2409327	empty	-0.30103
-3.2409327	students	-0.30103
-3.4393277	watched	-0.30103
-3.017855	out	-0.30103
-3.4393277	kitten	-0.30103
-3.4393277	sitting	-0.30103
-3.4393277	rich	-0.30103
-3.4393277	seven	-0.30103
-3.4393277	leak	-0.30103
-3.4393277	injuries	-0.30103
-3.4393277	same	-0.30103
-3.4393277	leg	-0.30103
-3.4393277	hark	-0.30103
-3.2409327	job	-0.30103
-3.4393277	many	-0.30103
-3.4393277	benefits	-0.30103
-3.4393277	museum	-0.30103
-3.4393277	hires	-0.30103
-3.2409327	musicians	-0.30103
-2.891798	every	-0.30103
-3.4393277	evening	-0.30103
-3.4393277	eight	-0.30103
-3.4393277	echo	-0.30103
-3.4393277	top	-0.30103
-3.4393277	quebec	-0.30103
-3.4393277	mike	-0.30103
-3.4393277	lima	-0.30103
-3.2409327	wore	-0.30103
-3.4393277	fleecy	-0.30103
-3.4393277	woolen	-0.30103
-3.4393277	overalls	-0.30103
-3.4393277	vat	-0.30103
-3.4393277	before	-0.30103
-3.4393277	thursdays	-0.30103
-3.4393277	exam	-0.30103
-3.4393277	review	-0.30103
-3.4393277	formula	-0.30103
-3.4393277	blow	-0.30103
-2.7942183	had	-0.30103
-3.4393277	bell	-0.30103
-3.4393277	rung	-0.30103
-2.891798	day	-0.30103
-3.017855	some	-0.30103
-3.1961913	new	-0.30103
-3.4393277	episode	-0.30103
-3.4393277	reported	-0.30103
-3.2409327	heart	-0.30103
-3.4393277	kilo	-0.30103
-3.4393277	knitting	-0.30103
-3.4393277	foxtrot	-0.30103
-3.4393277	further	-0.30103
-3.4393277	proposed	-0.30103
-3.4393277	grants	-0.30103
-3.4393277	unspecified	-0.30103
-3.4393277	sum	-0.30103
-3.4393277	experimental	-0.30103
-3.4393277	hospitals	-0.30103
-3.4393277	spain	-0.30103
-3.4393277	fill	-0.30103
-3.4393277	loyal	-0.30103
-3.4393277	barn	-0.30103
-3.4393277	bite	-0.30103
-3.4393277	roll	-0.30103
-3.4393277	wire	-0.30103
-3.4393277	lay	-0.30103
-3.2409327	wall	-0.30103
-3.4393277	thorn	-0.30103
-3.4393277	harm	-0.30103
-3.4393277	harp	-0.30103
-3.4393277	wrapped	-0.30103
-3.4393277	package	-0.30103
-3.4393277	hastily	-0.30103
-3.4393277	chop	-0.30103
-3.1961913	start	-0.30103
-3.4393277	rode	-0.30103
-3.4393277	horseback	-0.30103
-3.4393277	farm	-0.30103
-3.4393277	juliet	-0.30103
-3.4393277	books	-0.30103
-2.891798	very	-0.30103
-3.4393277	expensive	-0.30103
-3.2409327	did	-0.30103
-3.4393277	dad	-0.30103
-3.2409327	academic	-0.30103
-3.4393277	bidding	-0.30103
-3.2409327	attitude	-0.30103
-3.4393277	unbeatable	-0.30103
-3.4393277	dread	-0.30103
-3.4393277	shell	-0.30103
-3.4393277	sin	-0.30103
-3.4393277	ticker	-0.30103
-3.4393277	prospect	-0.30103
-3.4393277	cutting	-0.30103
-3.4393277	spending	-0.30103
-3.4393277	unpleasant	-0.30103
-2.891798	any	-0.30103
-3.4393277	governor	-0.30103
-3.2409327	each	-0.30103
-3.4393277	volunteered	-0.30103
-3.4393277	jump	-0.30103
-3.1961913	first	-0.30103
-3.4393277	uniform	-0.30103
-3.4393277	owner	-0.30103
-3.4393277	shrugged	-0.30103
-3.4393277	tin	-0.30103
-3.4393277	wicked	-0.30103
-3.4393277	pair	-0.30103
-3.4393277	shoes	-0.30103
-3.4393277	zip	-0.30103
-2.7942183	really	-0.30103
-3.4393277	crucified	-0.30103
-3.4393277	nailed	-0.30103
-3.4393277	yard	-0.30103
-3.4393277	loss	-0.30103
-3.4393277	slicker	-0.30103
-3.2409327	who	-0.30103
-3.4393277	value	-0.30103
-3.4393277	themselves	-0.30103
-3.4393277	lifes	-0.30103
-3.4393277	winners	-0.30103
-3.4393277	owners	-0.30103
-3.4393277	regularly	-0.30103
-3.1961913	look	-0.30103
-3.4393277	plumbing	-0.30103
-3.2409327	leaks	-0.30103
-3.4393277	nest	-0.30103
-3.4393277	xray	-0.30103
-3.4393277	lock	-0.30103
-3.2409327	sand	-0.30103
-3.4393277	bitter	-0.30103
-3.4393277	ham	-0.30103
-3.1961913	im	-0.30103
-3.4393277	willing	-0.30103
-3.4393277	experiment	-0.30103
-3.4393277	although	-0.30103
-3.4393277	always	-0.30103
-3.2409327	alone	-0.30103
-3.4393277	survive	-0.30103
-3.4393277	excellent	-0.30103
-3.4393277	team	-0.30103
-3.4393277	nut	-0.30103
-3.2409327	please	-0.30103
-3.4393277	open	-0.30103
-3.4393277	window	-0.30103
-3.4393277	quickly	-0.30103
-3.4393277	definitely	-0.30103
-3.4393277	notch	-0.30103
-3.4393277	victor	-0.30103
-3.4393277	zulu	-0.30103
-3.1961913	its	-0.30103
-3.4393277	fun	-0.30103
-3.4393277	roast	-0.30103
-3.4393277	marshmallows	-0.30103
-3.017855	gas	-0.30103
-3.4393277	burner	-0.30103
-3.4393277	wait	-0.30103
-3.2409327	work	-0.30103
-3.4393277	long	-0.30103
-3.4393277	whitecapped	-0.30103
-3.4393277	waves	-0.30103
-3.4393277	covered	-0.30103
-3.4393277	entire	-0.30103
-3.4393277	bay	-0.30103
-3.4393277	then	-0.30103
-3.4393277	wed	-0.30103
-3.4393277	someplace	-0.30103
-3.4393277	bed	-0.30103
-3.4393277	flicker	-0.30103
-3.4393277	bread	-0.30103
-3.4393277	want	-0.30103
-3.4393277	sicker	-0.30103
-3.4393277	nobody	-0.30103
-3.4393277	expects	-0.30103
-3.4393277	evacuate	-0.30103
-3.4393277	tango	-0.30103
-3.4393277	tread	-0.30103
-3.4393277	dice	-0.30103
-3.4393277	greg	-0.30103
-3.4393277	pick	-0.30103
-3.4393277	peck	-0.30103
-3.4393277	potatoes	-0.30103
-3.4393277	glitter	-0.30103
-3.4393277	fork	-0.30103
-3.4393277	calico	-0.30103
-3.2409327	cat	-0.30103
-3.2409327	keep	-0.30103
-3.4393277	took	-0.30103
-3.1961913	only	-0.30103
-3.4393277	lawyers	-0.30103
-3.4393277	love	-0.30103
-3.4393277	millionaires	-0.30103
-3.4393277	litter	-0.30103
-3.4393277	sink	-0.30103
-3.4393277	red	-0.30103
-3.4393277	ned	-0.30103
-3.4393277	sit	-0.30103
-3.2409327	able	-0.30103
-3.4393277	dance	-0.30103
-3.2409327	too	-0.30103
-3.4393277	hand	-0.30103
-3.4393277	rest	-0.30103
-3.4393277	those	-0.30103
-3.4393277	harmonize	-0.30103
-3.4393277	marvelously	-0.30103
-3.2409327	most	-0.30103
-3.2409327	young	-0.30103
-3.2409327	rise	-0.30103
-3.4393277	early	-0.30103
-3.4393277	morning	-0.30103
-3.4393277	wicker	-0.30103
-3.4393277	sing	-0.30103
-3.2409327	bought	-0.30103
-3.4393277	brown	-0.30103
-3.2409327	quicker	-0.30103
-3.4393277	sierra	-0.30103
-3.4393277	romeo	-0.30103
-3.4393277	travel	-0.30103
-2.891798	about	-0.30103
-3.4393277	leisure	-0.30103
-3.4393277	nod	-0.30103
-3.1961913	place	-0.30103
-3.4393277	small	-0.30103
-3.2409327	nice	-0.30103
-3.4393277	liquor	-0.30103
-3.4393277	beg	-0.30103
-3.4393277	guard	-0.30103
-3.4393277	gallon	-0.30103
-3.4393277	chip	-0.30103
-3.4393277	yankee	-0.30103
-3.1961913	ride	-0.30103
-3.4393277	stagecoach	-0.30103
-3.4393277	dress	-0.30103
-3.4393277	hotels	-0.30103
-3.4393277	available	-0.30103
-3.4393277	nearby	-0.30103
-3.4393277	neat	-0.30103
-3.4393277	dead	-0.30103
-3.2409327	walk	-0.30103
-3.4393277	whisky	-0.30103
-3.4393277	wit	-0.30103
-3.4393277	called	-0.30103
-3.4393277	different	-0.30103
-3.4393277	painters	-0.30103
-3.4393277	stimulating	-0.30103
-3.4393277	discussions	-0.30103
-3.4393277	attention	-0.30103
-3.4393277	celebrate	-0.30103
-3.2409327	brothers	-0.30103
-3.4393277	success	-0.30103
-3.4393277	lake	-0.30103
-3.4393277	thread	-0.30103
-3.4393277	fed	-0.30103
-3.4393277	charlies	-0.30103
-3.4393277	dirty	-0.30103
-3.4393277	dishes	-0.30103
-3.4393277	sew	-0.30103
-3.4393277	sort	-0.30103
-3.4393277	catch	-0.30103
-3.4393277	goose	-0.30103
-3.1961913	played	-0.30103
-3.2409327	basketball	-0.30103
-3.4393277	toward	-0.30103
-3.4393277	law	-0.30103
-3.4393277	degree	-0.30103
-3.4393277	coconut	-0.30103
-3.4393277	cream	-0.30103
-3.4393277	pie	-0.30103
-3.1961913	makes	-0.30103
-3.4393277	dessert	-0.30103
-3.4393277	selected	-0.30103
-3.4393277	places	-0.30103
-3.4393277	families	-0.30103
-3.4393277	welcome	-0.30103
-3.4393277	cakes	-0.30103
-3.4393277	bill	-0.30103
-3.4393277	accomplished	-0.30103
-3.4393277	artists	-0.30103
-3.4393277	obtain	-0.30103
-3.4393277	popularity	-0.30103
-3.2409327	short	-0.30103
-3.4393277	shin	-0.30103
-3.4393277	prefer	-0.30103
-3.4393277	traditional	-0.30103
-3.4393277	steel	-0.30103
-3.4393277	kind	-0.30103
-3.4393277	cork	-0.30103
-3.4393277	weep	-0.30103
-3.4393277	biblical	-0.30103
-3.4393277	scholars	-0.30103
-3.4393277	argue	-0.30103
-3.4393277	history	-0.30103
-3.4393277	rid	-0.30103
-3.4393277	quart	-0.30103
-3.4393277	shot	-0.30103
-3.4393277	ligament	-0.30103
-3.4393277	damage	-0.30103
-3.2409327	his	-0.30103
-3.4393277	knee	-0.30103
-3.4393277	sheep	-0.30103
-3.4393277	snort	-0.30103
-3.4393277	pork	-0.30103
-3.2409327	fact	-0.30103
-3.4393277	whole	-0.30103
-3.4393277	defensive	-0.30103
-3.4393277	unit	-0.30103
-3.4393277	sketch	-0.30103
-3.4393277	knows	-0.30103
-3.1961913	what	-0.30103
-3.4393277	youll	-0.30103
-3.4393277	discover	-0.30103
-3.4393277	yourself	-0.30103
-3.4393277	blend	-0.30103
-3.4393277	shed	-0.30103
-3.4393277	identical	-0.30103
-3.2409327	critical	-0.30103
-3.4393277	equipment	-0.30103
-3.1961913	needs	-0.30103
-3.4393277	proper	-0.30103
-3.4393277	maintenance	-0.30103
-3.4393277	court	-0.30103
-3.4393277	see	-0.30103
-3.4393277	shop	-0.30103
-3.2409327	heat	-0.30103
-3.4393277	suddenly	-0.30103
-3.4393277	reflexes	-0.30103
-3.4393277	gone	-0.30103
-3.4393277	gill	-0.30103
-3.4393277	show	-0.30103
-3.2409327	read	-0.30103
-3.4393277	results	-0.30103
-3.4393277	disappointing	-0.30103
-3.4393277	tug	-0.30103
-3.4393277	cash	-0.30103
-3.4393277	stretch	-0.30103
-3.4393277	steak	-0.30103
-3.4393277	ray	-0.30103
-3.4393277	fort	-0.30103
-3.4393277	lee	-0.30103
-3.4393277	hold	-0.30103
-3.4393277	ive	-0.30103
-3.4393277	kept	-0.30103
-2.5890958	with	-0.30103
-3.4393277	ever	-0.30103
-3.4393277	since	-0.30103
-3.4393277	thats	-0.30103
-3.1961913	life	-0.30103
-3.4393277	decision	-0.30103
-3.4393277	shred	-0.30103
-3.4393277	sight	-0.30103
-3.4393277	fish	-0.30103
-3.4393277	across	-0.30103
-3.4393277	pond	-0.30103
-3.4393277	doesnt	-0.30103
-3.4393277	hanging	-0.30103
-3.4393277	tort	-0.30103
-3.4393277	meats	-0.30103
-3.4393277	precious	-0.30103
-3.2409327	eat	-0.30103
-3.2409327	sport	-0.30103
-3.4393277	participate	-0.30103
-3.4393277	athletic	-0.30103
-3.4393277	activities	-0.30103
-3.4393277	trespassers	-0.30103
-3.4393277	prosecuted	-0.30103
-3.4393277	fined	-0.30103
-3.4393277	etiquette	-0.30103
-3.4393277	mandates	-0.30103
-3.4393277	compliance	-0.30103
-3.4393277	existing	-0.30103
-3.4393277	regulations	-0.30103
-3.4393277	quick	-0.30103
-3.4393277	touchdown	-0.30103
-3.4393277	resulted	-0.30103
-3.4393277	girls	-0.30103
-3.4393277	cut	-0.30103
-3.4393277	lacy	-0.30103
-3.4393277	valentines	-0.30103
-3.4393277	geese	-0.30103
-3.4393277	mill	-0.30103
-3.4393277	barbs	-0.30103
-3.2409327	gold	-0.30103
-3.4393277	bracelet	-0.30103
-3.4393277	graduation	-0.30103
-3.4393277	present	-0.30103
-3.4393277	reap	-0.30103
-3.4393277	dill	-0.30103
-3.4393277	lend	-0.30103
-3.4393277	foe	-0.30103
-3.4393277	asked	-0.30103
-3.4393277	loan	-0.30103
-3.2409327	make	-0.30103
-3.4393277	toe	-0.30103
-3.4393277	threat	-0.30103
-3.4393277	port	-0.30103
-3.4393277	scream	-0.30103
-3.4393277	voice	-0.30103
-3.4393277	rip	-0.30103
-3.4393277	wise	-0.30103
-3.2409327	think	-0.30103
-3.2409327	full	-0.30103
-3.4393277	stuff	-0.30103
-3.4393277	bend	-0.30103
-3.4393277	muck	-0.30103
-3.4393277	snake	-0.30103
-3.4393277	havent	-0.30103
-3.4393277	seen	-0.30103
-3.4393277	friend	-0.30103
-3.4393277	bumper	-0.30103
-3.4393277	entertaining	-0.30103
-3.4393277	ash	-0.30103
-3.2409327	fit	-0.30103
-3.4393277	sheer	-0.30103
-3.4393277	twilight	-0.30103
-3.4393277	twelfth	-0.30103
-3.4393277	chablis	-0.30103
-3.4393277	hash	-0.30103
-3.4393277	worse	-0.30103
-3.4393277	luck	-0.30103
-3.2409327	still	-0.30103
-3.2409327	come	-0.30103
-3.4393277	golfing	-0.30103
-3.4393277	fathers	-0.30103
-3.4393277	ruled	-0.30103
-3.4393277	favor	-0.30103
-3.4393277	hail	-0.30103
-3.4393277	code	-0.30103
-3.4393277	elderly	-0.30103
-3.4393277	excluded	-0.30103
-3.4393277	beam	-0.30103
-3.4393277	remains	-0.30103
-3.4393277	fiercest	-0.30103
-3.4393277	competitors	-0.30103
-3.4393277	knife	-0.30103
-3.4393277	pete	-0.30103
-3.4393277	addition	-0.30103
-3.4393277	subtraction	-0.30103
-3.4393277	learned	-0.30103
-3.4393277	skills	-0.30103
-3.2409327	found	-0.30103
-3.4393277	anywhere	-0.30103
-3.4393277	gash	-0.30103
-3.4393277	pleased	-0.30103
-3.017855	things	-0.30103
-3.4393277	loved	-0.30103
-3.4393277	minute	-0.30103
-3.4393277	idea	-0.30103
-3.4393277	fender	-0.30103
-3.4393277	woe	-0.30103
-3.4393277	member	-0.30103
-3.4393277	beast	-0.30103
-3.4393277	suggested	-0.30103
-3.4393277	dinner	-0.30103
-3.1961913	together	-0.30103
-3.4393277	so	-0.30103
-3.4393277	anybody	-0.30103
-3.4393277	solicits	-0.30103
-3.2409327	sure	-0.30103
-3.4393277	mail	-0.30103
-3.4393277	dough	-0.30103
-3.4393277	ambidextrous	-0.30103
-3.4393277	pickpockets	-0.30103
-3.4393277	accomplish	-0.30103
-3.4393277	guess	-0.30103
-3.4393277	wedding	-0.30103
-3.4393277	trip	-0.30103
-3.1961913	her	-0.30103
-3.4393277	hair	-0.30103
-3.4393277	combed	-0.30103
-3.4393277	casually	-0.30103
-3.4393277	seam	-0.30103
-3.4393277	beep	-0.30103
-3.2409327	quite	-0.30103
-3.4393277	vocal	-0.30103
-3.4393277	requires	-0.30103
-3.4393277	investment	-0.30103
-3.4393277	pickpocket	-0.30103
-3.4393277	caught	-0.30103
-3.4393277	redhanded	-0.30103
-3.4393277	mock	-0.30103
-3.4393277	dock	-0.30103
-3.2409327	sea	-0.30103
-3.4393277	grandmother	-0.30103
-3.4393277	outgrew	-0.30103
-3.4393277	upbringing	-0.30103
-3.4393277	petticoats	-0.30103
-3.4393277	sun	-0.30103
-3.4393277	died	-0.30103
-3.4393277	ember	-0.30103
-3.4393277	seat	-0.30103
-3.4393277	food	-0.30103
-3.4393277	reef	-0.30103
-3.4393277	fire	-0.30103
-3.4393277	straw	-0.30103
-3.4393277	blaze	-0.30103
-3.4393277	sender	-0.30103
-3.4393277	classical	-0.30103
-3.4393277	performance	-0.30103
-3.4393277	gained	-0.30103
-3.4393277	acclaim	-0.30103
-3.4393277	position	-0.30103
-3.2409327	covers	-0.30103
-3.4393277	number	-0.30103
-3.4393277	daily	-0.30103
-3.4393277	tasks	-0.30103
-3.4393277	common	-0.30103
-3.4393277	social	-0.30103
-3.4393277	director	-0.30103
-3.4393277	marriage	-0.30103
-2.7942183	from	-0.30103
-3.4393277	wonderful	-0.30103
-3.4393277	renter	-0.30103
-3.4393277	row	-0.30103
-3.4393277	lender	-0.30103
-3.4393277	ape	-0.30103
-3.2409327	didnt	-0.30103
-3.4393277	forks	-0.30103
-3.4393277	tender	-0.30103
-3.4393277	tea	-0.30103
-3.4393277	popular	-0.30103
-3.4393277	fans	-0.30103
-3.4393277	timber	-0.30103
-3.4393277	leap	-0.30103
-3.4393277	catastrophic	-0.30103
-3.4393277	economic	-0.30103
-3.4393277	cutbacks	-0.30103
-3.4393277	neglect	-0.30103
-3.4393277	poor	-0.30103
-3.4393277	tail	-0.30103
-3.4393277	bender	-0.30103
-3.4393277	ache	-0.30103
-3.4393277	center	-0.30103
-3.4393277	mom	-0.30103
-3.4393277	strongly	-0.30103
-3.4393277	dislikes	-0.30103
-3.4393277	appetizers	-0.30103
-3.4393277	beef	-0.30103
-3.4393277	temper	-0.30103
-3.4393277	desire	-0.30103
-3.4393277	change	-0.30103
-3.4393277	ways	-0.30103
-3.4393277	wax	-0.30103
-3.4393277	pet	-0.30103
-3.4393277	aid	-0.30103
-3.4393277	knock	-0.30103
-3.4393277	lies	-0.30103
-3.4393277	cheese	-0.30103
-3.4393277	hatch	-0.30103
-3.4393277	lack	-0.30103
-3.4393277	compounded	-0.30103
-3.4393277	tenants	-0.30103
-3.2409327	grievances	-0.30103
-3.4393277	bunch	-0.30103
-3.4393277	contributions	-0.30103
-3.4393277	greatly	-0.30103
-3.4393277	appreciated	-0.30103
-3.4393277	ease	-0.30103
-3.4393277	add	-0.30103
-3.4393277	chocolate	-0.30103
-3.4393277	roses	-0.30103
-3.2409327	never	-0.30103
-3.4393277	fail	-0.30103
-3.4393277	romantic	-0.30103
-3.4393277	gift	-0.30103
-3.4393277	legislature	-0.30103
-3.4393277	met	-0.30103
-3.2409327	judge	-0.30103
-3.4393277	state	-0.30103
-3.4393277	public	-0.30103
-3.4393277	education	-0.30103
-3.4393277	largest	-0.30103
-3.4393277	states	-0.30103
-3.4393277	peas	-0.30103
-3.4393277	bun	-0.30103
-3.4393277	punch	-0.30103
-3.4393277	ail	-0.30103
-3.4393277	begin	-0.30103
-3.4393277	trying	-0.30103
-3.4393277	speak	-0.30103
-3.4393277	tall	-0.30103
-3.4393277	range	-0.30103
-3.4393277	vital	-0.30103
-3.4393277	detail	-0.30103
-3.4393277	pill	-0.30103
-3.4393277	racks	-0.30103
-3.4393277	structures	-0.30103
-3.4393277	housing	-0.30103
-3.4393277	apartments	-0.30103
-3.4393277	masonry	-0.30103
-3.4393277	frame	-0.30103
-3.4393277	construction	-0.30103
-3.4393277	aches	-0.30103
-3.4393277	lit	-0.30103
-3.4393277	singers	-0.30103
-3.4393277	finger	-0.30103
-3.4393277	splinter	-0.30103
-3.4393277	now	-0.30103
-3.4393277	living	-0.30103
-3.4393277	exactly	-0.30103
-3.4393277	choose	-0.30103
-3.4393277	duck	-0.30103
-3.4393277	wanted	-0.30103
-3.4393277	actress	-0.30103
-3.2409327	fell	-0.30103
-3.4393277	aptitude	-0.30103
-3.4393277	guarantees	-0.30103
-3.4393277	diploma	-0.30103
-3.4393277	charm	-0.30103
-3.4393277	great	-0.30103
-3.4393277	meeting	-0.30103
-3.4393277	prepared	-0.30103
-3.4393277	odd	-0.30103
-3.4393277	behavior	-0.30103
-3.4393277	friends	-0.30103
-3.4393277	mile	-0.30103
-3.4393277	rakes	-0.30103
-3.4393277	talked	-0.30103
-3.4393277	situation	-0.30103
-3.1961913	sat	-0.30103
-3.4393277	relaxed	-0.30103
-3.4393277	hall	-0.30103
-3.4393277	sake	-0.30103
-3.4393277	coming	-0.30103
-3.4393277	pockets	-0.30103
-3.4393277	hell	-0.30103
-3.2409327	them	-0.30103
-3.4393277	plot	-0.30103
-3.4393277	laced	-0.30103
-3.4393277	mysterious	-0.30103
-3.4393277	incidents	-0.30103
-3.4393277	shelled	-0.30103
-3.4393277	clams	-0.30103
-3.4393277	chowder	-0.30103
-3.4393277	experience	-0.30103
-3.4393277	distress	-0.30103
-3.4393277	frustration	-0.30103
-3.4393277	obtaining	-0.30103
-3.4393277	degrees	-0.30103
-3.4393277	ticks	-0.30103
-3.4393277	prowler	-0.30103
-3.4393277	ski	-0.30103
-3.4393277	mask	-0.30103
-3.4393277	disguise	-0.30103
-3.2409327	confirmation	-0.30103
-3.2409327	such	-0.30103
-3.4393277	massive	-0.30103
-3.4393277	assaults	-0.30103
-3.4393277	independent	-0.30103
-3.4393277	sources	-0.30103
-3.4393277	chap	-0.30103
-3.4393277	lax	-0.30103
-3.2409327	score	-0.30103
-3.4393277	munch	-0.30103
-3.4393277	added	-0.30103
-3.2409327	petty	-0.30103
-3.4393277	jealousies	-0.30103
-3.4393277	personal	-0.30103
-3.4393277	even	-0.30103
-3.4393277	simple	-0.30103
-3.4393277	vocabulary	-0.30103
-3.4393277	contains	-0.30103
-3.4393277	symbols	-0.30103
-3.4393277	end	-0.30103
-3.4393277	eastern	-0.30103
-3.4393277	coast	-0.30103
-3.4393277	pure	-0.30103
-3.2409327	pleasure	-0.30103
-3.4393277	excitement	-0.30103
-3.4393277	dial	-0.30103
-3.4393277	low	-0.30103
-3.4393277	whip	-0.30103
-3.4393277	few	-0.30103
-3.4393277	ink	-0.30103
-3.4393277	handle	-0.30103
-3.4393277	theyll	-0.30103
-3.017855	again	-0.30103
-3.4393277	term	-0.30103
-3.4393277	wide	-0.30103
-3.4393277	drenched	-0.30103
-3.4393277	uninterrupted	-0.30103
-3.4393277	rain	-0.30103
-3.4393277	pant	-0.30103
-3.2409327	find	-0.30103
-3.4393277	cable	-0.30103
-3.4393277	translated	-0.30103
-3.4393277	weve	-0.30103
-3.4393277	past	-0.30103
-3.4393277	burn	-0.30103
-3.4393277	werent	-0.30103
-3.4393277	doing	-0.30103
-3.4393277	upgrade	-0.30103
-3.4393277	status	-0.30103
-3.4393277	reflect	-0.30103
-3.2409327	spring	-0.30103
-3.2409327	street	-0.30103
-3.4393277	straight	-0.30103
-3.4393277	ahead	-0.30103
-3.4393277	store	-0.30103
-3.4393277	serves	-0.30103
-3.4393277	meals	-0.30103
-3.4393277	disappointed	-0.30103
-3.4393277	order	-0.30103
-3.2409327	wine	-0.30103
-3.4393277	eyes	-0.30103
-3.4393277	weave	-0.30103
-3.4393277	family	-0.30103
-3.4393277	requests	-0.30103
-3.4393277	flowers	-0.30103
-3.4393277	omitted	-0.30103
-3.4393277	wart	-0.30103
-3.4393277	wack	-0.30103
-3.2409327	needed	-0.30103
-3.4393277	dash	-0.30103
-3.4393277	snow	-0.30103
-3.4393277	blew	-0.30103
-3.2409327	into	-0.30103
-3.2409327	large	-0.30103
-3.4393277	drifts	-0.30103
-3.4393277	regular	-0.30103
-3.4393277	attendance	-0.30103
-3.4393277	seldom	-0.30103
-3.4393277	required	-0.30103
-3.4393277	ball	-0.30103
-3.2409327	myself	-0.30103
-3.4393277	last	-0.30103
-3.4393277	shortage	-0.30103
-3.4393277	caused	-0.30103
-3.4393277	steep	-0.30103
-3.4393277	price	-0.30103
-3.4393277	increases	-0.30103
-3.4393277	cars	-0.30103
-3.4393277	slightly	-0.30103
-3.4393277	damaged	-0.30103
-3.4393277	highway	-0.30103
-3.4393277	staff	-0.30103
-3.4393277	deserves	-0.30103
-3.4393277	lot	-0.30103
-3.4393277	credit	-0.30103
-3.4393277	obstacles	-0.30103
-3.4393277	hid	-0.30103
-3.4393277	luke	-0.30103
-3.4393277	fold	-0.30103
-3.4393277	pink	-0.30103
-3.4393277	waste	-0.30103
-3.4393277	raisins	-0.30103
-3.4393277	outdoors	-0.30103
-3.2409327	porch	-0.30103
-3.4393277	steps	-0.30103
-3.4393277	noted	-0.30103
-3.4393277	carefully	-0.30103
-3.1961913	through	-0.30103
-3.4393277	clean	-0.30103
-3.4393277	report	-0.30103
-3.4393277	sail	-0.30103
-3.4393277	wipe	-0.30103
-3.4393277	continental	-0.30103
-3.4393277	drift	-0.30103
-3.4393277	geological	-0.30103
-3.4393277	theory	-0.30103
-3.4393277	huge	-0.30103
-3.4393277	porcupines	-0.30103
-3.4393277	resemble	-0.30103
-3.4393277	urchins	-0.30103
-3.4393277	challenge	-0.30103
-3.4393277	generals	-0.30103
-3.4393277	intelligence	-0.30103
-3.4393277	wives	-0.30103
-3.4393277	cant	-0.30103
-3.4393277	abide	-0.30103
-3.4393277	mistakes	-0.30103
-3.4393277	own	-0.30103
-3.2409327	game	-0.30103
-3.4393277	docks	-0.30103
-3.4393277	pole	-0.30103
-3.4393277	stable	-0.30103
-3.4393277	hiring	-0.30103
-3.4393277	wife	-0.30103
-3.4393277	ones	-0.30103
-3.4393277	company	-0.30103
-3.4393277	taxaided	-0.30103
-3.4393277	retirement	-0.30103
-3.4393277	income	-0.30103
-3.4393277	must	-0.30103
-3.4393277	ready	-0.30103
-3.4393277	sacrifice	-0.30103
-3.4393277	ban	-0.30103
-3.4393277	trips	-0.30103
-3.4393277	page	-0.30103
-3.4393277	accordion	-0.30103
-3.4393277	paid	-0.30103
-3.4393277	sprain	-0.30103
-3.4393277	fool	-0.30103
-3.4393277	ramp	-0.30103
-3.4393277	service	-0.30103
-3.4393277	should	-0.30103
-3.4393277	rewarded	-0.30103
-3.4393277	tips	-0.30103
-3.2409327	paint	-0.30103
-3.4393277	canteen	-0.30103
-3.4393277	fresh	-0.30103
-3.4393277	shook	-0.30103
-3.4393277	mat	-0.30103
-3.4393277	sap	-0.30103
-3.4393277	pain	-0.30103
-3.4393277	hides	-0.30103
-3.4393277	mayonnaise	-0.30103
-3.4393277	fall	-0.30103
-3.4393277	mall	-0.30103
-3.4393277	seemed	-0.30103
-3.4393277	appealing	-0.30103
-3.4393277	panel	-0.30103
-3.4393277	doctors	-0.30103
-3.4393277	prescribe	-0.30103
-3.4393277	drugs	-0.30103
-3.4393277	freely	-0.30103
-3.4393277	vamp	-0.30103
-3.4393277	bag	-0.30103
-3.4393277	rat	-0.30103
-3.2409327	saw	-0.30103
-3.4393277	weeks	-0.30103
-3.4393277	illegal	-0.30103
-3.4393277	postdate	-0.30103
-3.4393277	check	-0.30103
-3.4393277	space	-0.30103
-3.4393277	naval	-0.30103
-3.4393277	stall	-0.30103
-3.4393277	spade	-0.30103
-3.4393277	acting	-0.30103
-3.4393277	accident	-0.30103
-3.4393277	damp	-0.30103
-3.4393277	spray	-0.30103
-3.4393277	peach	-0.30103
-3.4393277	mabel	-0.30103
-3.4393277	told	-0.30103
-3.4393277	seriously	-0.30103
-3.4393277	injured	-0.30103
-3.4393277	because	-0.30103
-3.2409327	practical	-0.30103
-3.4393277	funnel	-0.30103
-3.4393277	tap	-0.30103
-3.4393277	name	-0.30103
-3.4393277	gently	-0.30103
-3.4393277	jims	-0.30103
-3.4393277	foam	-0.30103
-3.4393277	sculpture	-0.30103
-3.4393277	maybe	-0.30103
-3.4393277	longer	-0.30103
-3.4393277	squared	-0.30103
-3.4393277	bankers	-0.30103
-3.4393277	expected	-0.30103
-3.4393277	reach	-0.30103
-3.4393277	file	-0.30103
-3.4393277	soon	-0.30103
-3.4393277	muttering	-0.30103
-3.4393277	walls	-0.30103
-3.4393277	telephone	-0.30103
-3.4393277	booths	-0.30103
-3.4393277	arent	-0.30103
-3.4393277	paste	-0.30103
-3.4393277	foil	-0.30103
-3.4393277	map	-0.30103
-3.4393277	gable	-0.30103
-3.4393277	bull	-0.30103
-3.4393277	crawl	-0.30103
-3.4393277	pale	-0.30103
-3.4393277	creature	-0.30103
-3.4393277	pocket	-0.30103
-3.4393277	married	-0.30103
-3.4393277	saddle	-0.30103
-3.4393277	bowl	-0.30103
-3.4393277	nap	-0.30103
-3.4393277	table	-0.30103
-3.4393277	sable	-0.30103
-3.4393277	fable	-0.30103
-3.4393277	mold	-0.30103
-3.4393277	mole	-0.30103
-3.4393277	impossible	-0.30103
-3.2409327	deal	-0.30103
-3.4393277	bureaucracy	-0.30103
-3.4393277	pace	-0.30103
-3.4393277	call	-0.30103
-3.4393277	describe	-0.30103
-3.4393277	idiotic	-0.30103
-3.4393277	predicament	-0.30103
-3.4393277	screech	-0.30103
-3.4393277	ladle	-0.30103
-3.4393277	bash	-0.30103
-3.4393277	room	-0.30103
-3.4393277	portrait	-0.30103
-3.4393277	bagpipes	-0.30103
-3.4393277	bongos	-0.30103
-3.4393277	musical	-0.30103
-3.4393277	instruments	-0.30103
-3.2409327	gin	-0.30103
-3.4393277	saws	-0.30103
-3.4393277	parts	-0.30103
-3.4393277	supplies	-0.30103
-3.4393277	machinery	-0.30103
-3.4393277	final	-0.30103
-3.4393277	giggling	-0.30103
-3.4393277	owl	-0.30103
-3.4393277	cliffs	-0.30103
-3.4393277	display	-0.30103
-3.4393277	misplaced	-0.30103
-3.4393277	screen	-0.30103
-3.4393277	teach	-0.30103
-3.4393277	official	-0.30103
-3.4393277	deadline	-0.30103
-3.4393277	cannot	-0.30103
-3.4393277	postponed	-0.30103
-3.4393277	bog	-0.30103
-3.4393277	rattle	-0.30103
-3.2409327	sold	-0.30103
-3.4393277	bank	-0.30103
-3.4393277	shawl	-0.30103
-3.4393277	soul	-0.30103
-3.4393277	preach	-0.30103
-3.4393277	pull	-0.30103
-3.4393277	boone	-0.30103
-3.4393277	suppress	-0.30103
-3.4393277	wages	-0.30103
-3.4393277	key	-0.30103
-3.4393277	issue	-0.30103
-3.4393277	unfortunately	-0.30103
-3.4393277	demand	-0.30103
-3.4393277	broccoli	-0.30103
-3.4393277	cauliflower	-0.30103
-3.4393277	badger	-0.30103
-3.4393277	contrast	-0.30103
-3.4393277	household	-0.30103
-3.4393277	lots	-0.30103
-3.4393277	appliances	-0.30103
-3.4393277	grain	-0.30103
-3.4393277	several	-0.30103
-3.4393277	paintings	-0.30103
-3.4393277	auction	-0.30103
-3.4393277	impress	-0.30103
-3.4393277	occur	-0.30103
-3.4393277	shore	-0.30103
-3.4393277	book	-0.30103
-3.4393277	bin	-0.30103
-3.4393277	weeds	-0.30103
-3.4393277	grow	-0.30103
-3.4393277	strong	-0.30103
-3.4393277	fast	-0.30103
-3.4393277	fudge	-0.30103
-3.4393277	rust	-0.30103
-3.4393277	misprint	-0.30103
-3.4393277	provoked	-0.30103
-3.4393277	immediate	-0.30103
-3.4393277	disclaimer	-0.30103
-3.4393277	contract	-0.30103
-3.4393277	limb	-0.30103
-3.4393277	musk	-0.30103
-3.4393277	rut	-0.30103
-3.4393277	serve	-0.30103
-3.4393277	grape	-0.30103
-3.4393277	intact	-0.30103
-3.4393277	picnic	-0.30103
-3.4393277	subtract	-0.30103
-3.4393277	plant	-0.30103
-3.4393277	original	-0.30103
-3.4393277	forgery	-0.30103
-3.4393277	either	-0.30103
-3.4393277	walked	-0.30103
-3.2409327	driven	-0.30103
-3.4393277	primitive	-0.30103
-3.4393277	tribes	-0.30103
-3.4393277	upbeat	-0.30103
-3.4393277	shut	-0.30103
-3.4393277	retract	-0.30103
-3.4393277	displayed	-0.30103
-3.4393277	lamps	-0.30103
-3.4393277	puppets	-0.30103
-3.4393277	delight	-0.30103
-3.4393277	children	-0.30103
-3.4393277	decorative	-0.30103
-3.4393277	accent	-0.30103
-3.4393277	globe	-0.30103
-3.4393277	grave	-0.30103
-3.4393277	bust	-0.30103
-3.4393277	depress	-0.30103
-3.4393277	dusk	-0.30103
-3.4393277	slim	-0.30103
-3.4393277	flying	-0.30103
-3.4393277	standby	-0.30103
-3.4393277	save	-0.30103
-3.4393277	instructions	-0.30103
-3.4393277	desperately	-0.30103
-3.4393277	need	-0.30103
-3.4393277	updating	-0.30103
-3.4393277	preserve	-0.30103
-3.4393277	converge	-0.30103
-3.4393277	booth	-0.30103
-3.4393277	railroads	-0.30103
-3.4393277	future	-0.30103
-3.4393277	west	-0.30103
-3.4393277	beauty	-0.30103
-3.4393277	surrounds	-0.30103
-3.4393277	id	-0.30103
-3.4393277	put	-0.30103
-3.4393277	weight	-0.30103
-3.4393277	lisp	-0.30103
-3.4393277	hispanic	-0.30103
-3.4393277	costumes	-0.30103
-3.4393277	colorful	-0.30103
-3.4393277	tore	-0.30103
-3.4393277	strange	-0.30103
-3.4393277	refer	-0.30103
-3.4393277	deserve	-0.30103
-3.4393277	glib	-0.30103
-3.4393277	grope	-0.30103
-3.4393277	but	-0.30103
-3.4393277	absurd	-0.30103
-3.4393277	kat	-0.30103
-3.4393277	kittens	-0.30103
-3.4393277	cement	-0.30103
-3.4393277	measured	-0.30103
-3.4393277	cubic	-0.30103
-3.4393277	yards	-0.30103
-3.4393277	grange	-0.30103
-3.4393277	lid	-0.30103
-3.4393277	could	-0.30103
-3.4393277	bus	-0.30103
-3.4393277	brain	-0.30103
-3.4393277	boast	-0.30103
-3.4393277	observe	-0.30103
-3.4393277	reserve	-0.30103
-3.4393277	slid	-0.30103
-3.4393277	list	-0.30103
-3.4393277	conserve	-0.30103
-3.4393277	repress	-0.30103
-3.4393277	scorch	-0.30103
-3.4393277	strike	-0.30103
-3.4393277	spread	-0.30103
-3.4393277	super	-0.30103
-3.4393277	split	-0.30103
-3.4393277	struggled	-0.30103
-3.4393277	sitter	-0.30103
-3.4393277	ok	-0.30103
-3.4393277	actually	-0.30103
-3.4393277	owe	-0.30103
-3.4393277	lead	-0.30103
-3.4393277	jaw	-0.30103
-3.4393277	cope	-0.30103
-3.4393277	drop	-0.30103
-3.4393277	shout	-0.30103
-3.4393277	ignorance	-0.30103
-3.4393277	relax	-0.30103
-3.4393277	oh	-0.30103
-3.4393277	liar	-0.30103
-3.4393277	usually	-0.30103
-3.2409327	min	-0.30103
-3.4393277	tear	-0.30103
-3.4393277	paper	-0.30103
-3.4393277	todays	-0.30103
-3.4393277	date	-0.30103
-3.4393277	february	-0.30103
-3.4393277	13th	-0.30103
-3.4393277	man	-0.30103
-3.4393277	skip	-0.30103
-3.4393277	ah	-0.30103
-3.4393277	chose	-0.30103
-3.4393277	innocense	-0.30103

\2-grams:
-0.19948803	sheet </s>	0
-0.41827604	knew </s>	0
-0.19948803	left </s>	0
-0.19948803	air </s>	0
-0.19948803	chair </s>	0
-0.19948803	sticks </s>	0
-0.19948803	storm </s>	0
-0.19948803	beat </s>	0
-0.8082386	he </s>	0
-0.8176921	in </s>	0
-0.19948803	coat </s>	0
-0.19948803	swarm </s>	0
-0.635071	no </s>	0
-0.41827604	spark </s>	0
-0.19948803	dug </s>	0
-0.635071	two </s>	0
-0.59057146	dont </s>	0
-0.49593496	me </s>	0
-0.7981074	to </s>	0
-0.635071	that </s>	0
-0.19948803	rake </s>	0
-0.46093985	well </s>	0
-0.8428995	is </s>	0
-0.41827604	years </s>	0
-0.47925246	old </s>	0
-0.19948803	park </s>	0
-0.19948803	goat </s>	0
-0.41827604	dark </s>	0
-0.19948803	bit </s>	0
-0.19948803	yes </s>	0
-0.5252474	warm </s>	0
-0.19948803	feed </s>	0
-0.19948803	floor </s>	0
-0.41827604	right </s>	0
-0.5252474	know </s>	0
-0.19948803	feet </s>	0
-0.19948803	ship </s>	0
-0.19948803	sip </s>	0
-0.19948803	pat </s>	0
-0.19948803	slip </s>	0
-0.7117472	one </s>	0
-0.5252474	down </s>	0
-0.19948803	meat </s>	0
-0.19948803	bat </s>	0
-0.59057146	up </s>	0
-0.19948803	sleep </s>	0
-0.19948803	pile </s>	0
-0.86693275	a </s>	0
-0.41827604	cold </s>	0
-0.19948803	shower </s>	0
-0.19948803	sway </s>	0
-0.59057146	both </s>	0
-0.5252474	go </s>	0
-0.33251446	later </s>	0
-0.19948803	charlie </s>	0
-0.19948803	mut </s>	0
-0.19948803	troop </s>	0
-0.33251446	here </s>	0
-0.19948803	wish </s>	0
-0.19948803	ate </s>	0
-0.19948803	hear </s>	0
-0.19948803	pot </s>	0
-0.19948803	white </s>	0
-0.19948803	aprons </s>	0
-0.19948803	best </s>	0
-0.41827604	bad </s>	0
-0.76103044	were </s>	0
-0.6922256	you </s>	0
-0.41827604	away </s>	0
-0.41827604	deer </s>	0
-0.19948803	droop </s>	0
-0.19948803	group </s>	0
-0.41827604	near </s>	0
-0.19948803	cheer </s>	0
-0.19948803	thigh </s>	0
-0.19948803	single </s>	0
-0.36481634	said </s>	0
-0.19948803	coupe </s>	0
-0.41827604	write </s>	0
-0.19948803	slowly </s>	0
-0.80129516	are </s>	0
-0.19948803	populated </s>	0
-0.19948803	area </s>	0
-0.19948803	steer </s>	0
-0.19948803	tile </s>	0
-0.19948803	select </s>	0
-0.19948803	sweet </s>	0
-0.19948803	suit </s>	0
-0.79144335	of </s>	0
-0.19948803	field </s>	0
-0.19948803	forward </s>	0
-0.19948803	root </s>	0
-0.41827604	made </s>	0
-0.19948803	curtains </s>	0
-0.5252474	three </s>	0
-0.19948803	ocean </s>	0
-0.19948803	pay </s>	0
-0.19948803	light </s>	0
-0.19948803	advisement </s>	0
-0.5252474	much </s>	0
-0.19948803	hate </s>	0
-0.19948803	whoop </s>	0
-0.19948803	rock </s>	0
-0.41827604	why </s>	0
-0.19948803	items </s>	0
-0.19948803	toot </s>	0
-0.19948803	knot </s>	0
-0.19948803	fate </s>	0
-0.41827604	side </s>	0
-0.19948803	wet </s>	0
-0.19948803	shoot </s>	0
-0.81405944	and </s>	0
-0.19948803	men </s>	0
-0.19948803	slay </s>	0
-0.19948803	lily </s>	0
-0.80129516	was </s>	0
-0.72756165	all </s>	0
-0.33251446	time </s>	0
-0.19948803	prior </s>	0
-0.41827604	play </s>	0
-0.19948803	briar </s>	0
-0.19948803	lie </s>	0
-0.19948803	shear </s>	0
-0.635071	big </s>	0
-0.19948803	traded </s>	0
-0.19948803	us </s>	0
-0.41827604	fear </s>	0
-0.19948803	sprinkle </s>	0
-0.19948803	snoop </s>	0
-0.19948803	thoroughly </s>	0
-0.19948803	boot </s>	0
-0.19948803	rocks </s>	0
-0.19948803	witch </s>	0
-0.41827604	though </s>	0
-0.19948803	galore </s>	0
-0.59057146	tell </s>	0
-0.19948803	community </s>	0
-0.19948803	gnaw </s>	0
-0.19948803	cycle </s>	0
-0.19948803	delta </s>	0
-0.7117472	she </s>	0
-0.19948803	am </s>	0
-0.19948803	bear </s>	0
-0.19948803	error </s>	0
-0.19948803	jungle </s>	0
-0.19948803	innocence </s>	0
-0.19948803	menu </s>	0
-0.19948803	peer </s>	0
-0.19948803	lip </s>	0
-0.19948803	dot </s>	0
-0.19948803	beach </s>	0
-0.41827604	feel </s>	0
-0.764401	can </s>	0
-0.19948803	weekend </s>	0
-0.19948803	tie </s>	0
-0.19948803	sigh </s>	0
-0.19948803	mere </s>	0
-0.5252474	went </s>	0
-0.19948803	pad </s>	0
-0.41827604	house </s>	0
-0.19948803	nancys </s>	0
-0.19948803	urgent </s>	0
-0.6674911	there </s>	0
-0.19948803	explore </s>	0
-0.19948803	stretcher </s>	0
-0.19948803	districts </s>	0
-0.19948803	loop </s>	0
-0.41827604	more </s>	0
-0.33251446	money </s>	0
-0.5252474	hard </s>	0
-0.5252474	back </s>	0
-0.5252474	four </s>	0
-0.19948803	fruit </s>	0
-0.59057146	him </s>	0
-0.41827604	night </s>	0
-0.5252474	phone </s>	0
-0.19948803	calls </s>	0
-0.19948803	hem </s>	0
-0.19948803	seeds </s>	0
-0.19948803	sign </s>	0
-0.19948803	november </s>	0
-0.19948803	mush </s>	0
-0.19948803	oscar </s>	0
-0.41827604	sell </s>	0
-0.76103044	have </s>	0
-0.5252474	way </s>	0
-0.41827604	five </s>	0
-0.33251446	water </s>	0
-0.72756165	it </s>	0
-0.19948803	immediately </s>	0
-0.19948803	hill </s>	0
-0.19948803	fitting </s>	0
-0.41827604	arm </s>	0
-0.19948803	pit </s>	0
-0.19948803	zero </s>	0
-0.19948803	fat </s>	0
-0.41827604	thought </s>	0
-0.19948803	darn </s>	0
-0.19948803	golf </s>	0
-0.5252474	expect </s>	0
-0.19948803	week </s>	0
-0.19948803	spit </s>	0
-0.19948803	mitten </s>	0
-0.19948803	six </s>	0
-0.59057146	when </s>	0
-0.19948803	force </s>	0
-0.41827604	brought </s>	0
-0.19948803	wealth </s>	0
-0.19948803	hat </s>	0
-0.19948803	seed </s>	0
-0.19948803	sergeant </s>	0
-0.19948803	home </s>	0
-0.19948803	dart </s>	0
-0.19948803	hum </s>	0
-0.19948803	pitting </s>	0
-0.19948803	reek </s>	0
-0.19948803	dormitories </s>	0
-0.41827604	part </s>	0
-0.19948803	bloat </s>	0
-0.6922256	good </s>	0
-0.5252474	win </s>	0
-0.5252474	yet </s>	0
-0.5252474	take </s>	0
-0.19948803	legislation </s>	0
-0.19948803	flimsy </s>	0
-0.19948803	shy </s>	0
-0.19948803	lair </s>	0
-0.19948803	cake </s>	0
-0.19948803	hitting </s>	0
-0.19948803	city </s>	0
-0.33251446	above </s>	0
-0.41827604	around </s>	0
-0.19948803	boat </s>	0
-0.19948803	papa </s>	0
-0.19948803	bran </s>	0
-0.19948803	brawn </s>	0
-0.19948803	pretty </s>	0
-0.19948803	witty </s>	0
-0.19948803	nine </s>	0
-0.19948803	written </s>	0
-0.5252474	hotel </s>	0
-0.19948803	cart </s>	0
-0.41827604	box </s>	0
-0.19948803	sweaters </s>	0
-0.19948803	bitten </s>	0
-0.19948803	lick </s>	0
-0.41827604	program </s>	0
-0.19948803	medicine </s>	0
-0.19948803	league </s>	0
-0.635071	at </s>	0
-0.19948803	claim </s>	0
-0.19948803	empty </s>	0
-0.41827604	out </s>	0
-0.19948803	kitten </s>	0
-0.19948803	sitting </s>	0
-0.19948803	rich </s>	0
-0.19948803	seven </s>	0
-0.19948803	leak </s>	0
-0.19948803	leg </s>	0
-0.19948803	hark </s>	0
-0.5252474	job </s>	0
-0.19948803	benefits </s>	0
-0.19948803	evening </s>	0
-0.19948803	eight </s>	0
-0.19948803	echo </s>	0
-0.19948803	top </s>	0
-0.19948803	quebec </s>	0
-0.19948803	mike </s>	0
-0.19948803	lima </s>	0
-0.19948803	overalls </s>	0
-0.19948803	vat </s>	0
-0.19948803	formula </s>	0
-0.19948803	blow </s>	0
-0.6674911	had </s>	0
-0.19948803	rung </s>	0
-0.47925246	day </s>	0
-0.5252474	new </s>	0
-0.19948803	reported </s>	0
-0.41827604	heart </s>	0
-0.19948803	kilo </s>	0
-0.19948803	knitting </s>	0
-0.19948803	foxtrot </s>	0
-0.19948803	hospitals </s>	0
-0.19948803	spain </s>	0
-0.41827604	fill </s>	0
-0.19948803	loyal </s>	0
-0.19948803	barn </s>	0
-0.19948803	bite </s>	0
-0.19948803	wall </s>	0
-0.19948803	thorn </s>	0
-0.19948803	harm </s>	0
-0.19948803	harp </s>	0
-0.19948803	hastily </s>	0
-0.19948803	chop </s>	0
-0.19948803	start </s>	0
-0.19948803	farm </s>	0
-0.19948803	juliet </s>	0
-0.19948803	expensive </s>	0
-0.19948803	bidding </s>	0
-0.41827604	attitude </s>	0
-0.19948803	unbeatable </s>	0
-0.19948803	dread </s>	0
-0.19948803	shell </s>	0
-0.19948803	sin </s>	0
-0.19948803	ticker </s>	0
-0.19948803	governor </s>	0
-0.5252474	each </s>	0
-0.33251446	first </s>	0
-0.19948803	uniform </s>	0
-0.19948803	shrugged </s>	0
-0.19948803	tin </s>	0
-0.19948803	wicked </s>	0
-0.19948803	zip </s>	0
-0.19948803	loss </s>	0
-0.19948803	slicker </s>	0
-0.19948803	winners </s>	0
-0.19948803	leaks </s>	0
-0.19948803	nest </s>	0
-0.19948803	xray </s>	0
-0.19948803	lock </s>	0
-0.19948803	sand </s>	0
-0.19948803	bitter </s>	0
-0.19948803	ham </s>	0
-0.41827604	alone </s>	0
-0.19948803	survive </s>	0
-0.19948803	team </s>	0
-0.19948803	nut </s>	0
-0.19948803	quickly </s>	0
-0.19948803	victor </s>	0
-0.19948803	zulu </s>	0
-0.41827604	gas </s>	0
-0.19948803	burner </s>	0
-0.19948803	long </s>	0
-0.19948803	bay </s>	0
-0.19948803	bed </s>	0
-0.19948803	flicker </s>	0
-0.19948803	bread </s>	0
-0.19948803	sicker </s>	0
-0.19948803	evacuate </s>	0
-0.19948803	tango </s>	0
-0.19948803	tread </s>	0
-0.19948803	dice </s>	0
-0.19948803	potatoes </s>	0
-0.19948803	glitter </s>	0
-0.19948803	fork </s>	0
-0.41827604	cat </s>	0
-0.41827604	keep </s>	0
-0.19948803	millionaires </s>	0
-0.19948803	litter </s>	0
-0.19948803	sink </s>	0
-0.19948803	red </s>	0
-0.19948803	ned </s>	0
-0.19948803	sit </s>	0
-0.41827604	able </s>	0
-0.41827604	too </s>	0
-0.19948803	hand </s>	0
-0.19948803	rest </s>	0
-0.19948803	marvelously </s>	0
-0.41827604	rise </s>	0
-0.19948803	morning </s>	0
-0.19948803	wicker </s>	0
-0.19948803	sing </s>	0
-0.41827604	bought </s>	0
-0.41827604	quicker </s>	0
-0.19948803	sierra </s>	0
-0.19948803	romeo </s>	0
-0.635071	about </s>	0
-0.19948803	nod </s>	0
-0.19948803	small </s>	0
-0.41827604	nice </s>	0
-0.19948803	liquor </s>	0
-0.41827604	beg </s>	0
-0.19948803	chip </s>	0
-0.19948803	yankee </s>	0
-0.5252474	ride </s>	0
-0.19948803	stagecoach </s>	0
-0.19948803	dress </s>	0
-0.19948803	nearby </s>	0
-0.19948803	neat </s>	0
-0.19948803	dead </s>	0
-0.41827604	walk </s>	0
-0.19948803	whisky </s>	0
-0.19948803	wit </s>	0
-0.19948803	painters </s>	0
-0.19948803	attention </s>	0
-0.19948803	success </s>	0
-0.19948803	lake </s>	0
-0.19948803	thread </s>	0
-0.19948803	fed </s>	0
-0.19948803	dishes </s>	0
-0.19948803	sew </s>	0
-0.19948803	sort </s>	0
-0.19948803	catch </s>	0
-0.19948803	goose </s>	0
-0.5252474	played </s>	0
-0.19948803	degree </s>	0
-0.19948803	dessert </s>	0
-0.19948803	welcome </s>	0
-0.19948803	cakes </s>	0
-0.19948803	bill </s>	0
-0.19948803	popularity </s>	0
-0.41827604	short </s>	0
-0.19948803	shin </s>	0
-0.19948803	kind </s>	0
-0.19948803	cork </s>	0
-0.19948803	weep </s>	0
-0.19948803	history </s>	0
-0.19948803	rid </s>	0
-0.19948803	quart </s>	0
-0.19948803	shot </s>	0
-0.19948803	knee </s>	0
-0.19948803	sheep </s>	0
-0.19948803	snort </s>	0
-0.19948803	pork </s>	0
-0.19948803	sketch </s>	0
-0.19948803	yourself </s>	0
-0.19948803	blend </s>	0
-0.19948803	shed </s>	0
-0.19948803	identical </s>	0
-0.19948803	maintenance </s>	0
-0.19948803	court </s>	0
-0.19948803	see </s>	0
-0.19948803	shop </s>	0
-0.41827604	heat </s>	0
-0.19948803	gone </s>	0
-0.19948803	gill </s>	0
-0.19948803	show </s>	0
-0.19948803	read </s>	0
-0.19948803	disappointing </s>	0
-0.19948803	tug </s>	0
-0.19948803	cash </s>	0
-0.19948803	stretch </s>	0
-0.19948803	steak </s>	0
-0.19948803	ray </s>	0
-0.19948803	fort </s>	0
-0.19948803	lee </s>	0
-0.19948803	hold </s>	0
-0.72756165	with </s>	0
-0.19948803	since </s>	0
-0.5252474	life </s>	0
-0.19948803	shred </s>	0
-0.19948803	sight </s>	0
-0.19948803	pond </s>	0
-0.19948803	tort </s>	0
-0.19948803	meats </s>	0
-0.19948803	precious </s>	0
-0.5252474	eat </s>	0
-0.19948803	sport </s>	0
-0.19948803	activities </s>	0
-0.19948803	fined </s>	0
-0.19948803	regulations </s>	0
-0.19948803	resulted </s>	0
-0.19948803	valentines </s>	0
-0.19948803	geese </s>	0
-0.19948803	mill </s>	0
-0.19948803	present </s>	0
-0.19948803	reap </s>	0
-0.19948803	dill </s>	0
-0.19948803	lend </s>	0
-0.19948803	foe </s>	0
-0.19948803	loan </s>	0
-0.19948803	toe </s>	0
-0.19948803	threat </s>	0
-0.19948803	port </s>	0
-0.19948803	voice </s>	0
-0.19948803	rip </s>	0
-0.19948803	wise </s>	0
-0.41827604	full </s>	0
-0.19948803	stuff </s>	0
-0.19948803	bend </s>	0
-0.19948803	muck </s>	0
-0.19948803	snake </s>	0
-0.19948803	bumper </s>	0
-0.19948803	ash </s>	0
-0.41827604	fit </s>	0
-0.19948803	sheer </s>	0
-0.19948803	chablis </s>	0
-0.19948803	hash </s>	0
-0.41827604	come </s>	0
-0.19948803	favor </s>	0
-0.19948803	hail </s>	0
-0.19948803	code </s>	0
-0.19948803	excluded </s>	0
-0.19948803	beam </s>	0
-0.19948803	competitors </s>	0
-0.19948803	knife </s>	0
-0.19948803	pete </s>	0
-0.19948803	skills </s>	0
-0.19948803	anywhere </s>	0
-0.19948803	gash </s>	0
-0.19948803	idea </s>	0
-0.19948803	fender </s>	0
-0.19948803	woe </s>	0
-0.19948803	member </s>	0
-0.19948803	beast </s>	0
-0.19948803	together </s>	0
-0.19948803	guess </s>	0
-0.19948803	casually </s>	0
-0.19948803	seam </s>	0
-0.19948803	beep </s>	0
-0.19948803	vocal </s>	0
-0.19948803	investment </s>	0
-0.19948803	redhanded </s>	0
-0.19948803	mock </s>	0
-0.19948803	dock </s>	0
-0.41827604	sea </s>	0
-0.19948803	petticoats </s>	0
-0.19948803	ember </s>	0
-0.19948803	seat </s>	0
-0.19948803	food </s>	0
-0.19948803	reef </s>	0
-0.19948803	blaze </s>	0
-0.19948803	sender </s>	0
-0.19948803	acclaim </s>	0
-0.19948803	director </s>	0
-0.6674911	from </s>	0
-0.19948803	wonderful </s>	0
-0.19948803	renter </s>	0
-0.19948803	row </s>	0
-0.19948803	lender </s>	0
-0.19948803	ape </s>	0
-0.19948803	forks </s>	0
-0.19948803	tender </s>	0
-0.19948803	tea </s>	0
-0.19948803	fans </s>	0
-0.19948803	timber </s>	0
-0.19948803	leap </s>	0
-0.19948803	poor </s>	0
-0.19948803	tail </s>	0
-0.19948803	bender </s>	0
-0.19948803	ache </s>	0
-0.19948803	center </s>	0
-0.19948803	appetizers </s>	0
-0.19948803	beef </s>	0
-0.19948803	temper </s>	0
-0.19948803	ways </s>	0
-0.19948803	wax </s>	0
-0.19948803	pet </s>	0
-0.19948803	aid </s>	0
-0.19948803	knock </s>	0
-0.19948803	lies </s>	0
-0.19948803	cheese </s>	0
-0.19948803	hatch </s>	0
-0.19948803	grievances </s>	0
-0.19948803	bunch </s>	0
-0.19948803	appreciated </s>	0
-0.19948803	ease </s>	0
-0.19948803	add </s>	0
-0.19948803	gift </s>	0
-0.41827604	judge </s>	0
-0.41827604	state </s>	0
-0.19948803	education </s>	0
-0.19948803	states </s>	0
-0.19948803	peas </s>	0
-0.19948803	bun </s>	0
-0.19948803	punch </s>	0
-0.19948803	ail </s>	0
-0.19948803	tall </s>	0
-0.19948803	detail </s>	0
-0.19948803	pill </s>	0
-0.19948803	racks </s>	0
-0.19948803	construction </s>	0
-0.19948803	aches </s>	0
-0.19948803	lit </s>	0
-0.19948803	splinter </s>	0
-0.41827604	now </s>	0
-0.19948803	choose </s>	0
-0.19948803	duck </s>	0
-0.19948803	actress </s>	0
-0.41827604	fell </s>	0
-0.19948803	diploma </s>	0
-0.19948803	charm </s>	0
-0.19948803	meeting </s>	0
-0.19948803	friends </s>	0
-0.19948803	mile </s>	0
-0.19948803	rakes </s>	0
-0.19948803	situation </s>	0
-0.5252474	sat </s>	0
-0.19948803	relaxed </s>	0
-0.19948803	hall </s>	0
-0.19948803	sake </s>	0
-0.19948803	incidents </s>	0
-0.19948803	chowder </s>	0
-0.19948803	degrees </s>	0
-0.19948803	ticks </s>	0
-0.19948803	disguise </s>	0
-0.19948803	sources </s>	0
-0.19948803	chap </s>	0
-0.19948803	lax </s>	0
-0.19948803	score </s>	0
-0.19948803	munch </s>	0
-0.19948803	symbols </s>	0
-0.19948803	end </s>	0
-0.41827604	pleasure </s>	0
-0.19948803	excitement </s>	0
-0.19948803	dial </s>	0
-0.19948803	low </s>	0
-0.19948803	whip </s>	0
-0.19948803	ink </s>	0
-0.29524776	again </s>	0
-0.19948803	term </s>	0
-0.19948803	wide </s>	0
-0.19948803	rain </s>	0
-0.19948803	pant </s>	0
-0.19948803	find </s>	0
-0.41827604	cable </s>	0
-0.19948803	translated </s>	0
-0.19948803	past </s>	0
-0.19948803	burn </s>	0
-0.41827604	street </s>	0
-0.19948803	ahead </s>	0
-0.19948803	wine </s>	0
-0.19948803	eyes </s>	0
-0.19948803	weave </s>	0
-0.19948803	omitted </s>	0
-0.19948803	wart </s>	0
-0.19948803	wack </s>	0
-0.41827604	needed </s>	0
-0.19948803	dash </s>	0
-0.19948803	drifts </s>	0
-0.19948803	required </s>	0
-0.19948803	ball </s>	0
-0.41827604	myself </s>	0
-0.41827604	steep </s>	0
-0.19948803	increases </s>	0
-0.19948803	damaged </s>	0
-0.19948803	obstacles </s>	0
-0.19948803	hid </s>	0
-0.19948803	luke </s>	0
-0.19948803	fold </s>	0
-0.19948803	pink </s>	0
-0.19948803	waste </s>	0
-0.41827604	porch </s>	0
-0.19948803	steps </s>	0
-0.19948803	carefully </s>	0
-0.5252474	through </s>	0
-0.19948803	report </s>	0
-0.19948803	sail </s>	0
-0.19948803	wipe </s>	0
-0.19948803	theory </s>	0
-0.19948803	urchins </s>	0
-0.19948803	intelligence </s>	0
-0.19948803	wives </s>	0
-0.19948803	game </s>	0
-0.19948803	docks </s>	0
-0.19948803	pole </s>	0
-0.19948803	stable </s>	0
-0.19948803	income </s>	0
-0.19948803	sacrifice </s>	0
-0.19948803	ban </s>	0
-0.19948803	page </s>	0
-0.19948803	accordion </s>	0
-0.19948803	paid </s>	0
-0.19948803	sprain </s>	0
-0.19948803	fool </s>	0
-0.19948803	ramp </s>	0
-0.19948803	tips </s>	0
-0.41827604	paint </s>	0
-0.19948803	mat </s>	0
-0.19948803	sap </s>	0
-0.19948803	pain </s>	0
-0.19948803	mayonnaise </s>	0
-0.19948803	fall </s>	0
-0.19948803	mall </s>	0
-0.19948803	panel </s>	0
-0.19948803	freely </s>	0
-0.19948803	vamp </s>	0
-0.19948803	bag </s>	0
-0.19948803	rat </s>	0
-0.19948803	check </s>	0
-0.19948803	space </s>	0
-0.19948803	naval </s>	0
-0.19948803	stall </s>	0
-0.19948803	spade </s>	0
-0.19948803	accident </s>	0
-0.19948803	damp </s>	0
-0.19948803	spray </s>	0
-0.19948803	peach </s>	0
-0.19948803	mabel </s>	0
-0.19948803	told </s>	0
-0.19948803	injured </s>	0
-0.41827604	practical </s>	0
-0.19948803	funnel </s>	0
-0.19948803	tap </s>	0
-0.19948803	expected </s>	0
-0.19948803	reach </s>	0
-0.19948803	file </s>	0
-0.19948803	walls </s>	0
-0.19948803	paste </s>	0
-0.19948803	foil </s>	0
-0.19948803	map </s>	0
-0.19948803	gable </s>	0
-0.19948803	bull </s>	0
-0.19948803	crawl </s>	0
-0.19948803	pale </s>	0
-0.19948803	creature </s>	0
-0.19948803	pocket </s>	0
-0.19948803	saddle </s>	0
-0.19948803	bowl </s>	0
-0.19948803	nap </s>	0
-0.19948803	table </s>	0
-0.19948803	sable </s>	0
-0.19948803	fable </s>	0
-0.19948803	mold </s>	0
-0.19948803	mole </s>	0
-0.19948803	bureaucracy </s>	0
-0.19948803	pace </s>	0
-0.19948803	call </s>	0
-0.19948803	predicament </s>	0
-0.19948803	screech </s>	0
-0.19948803	ladle </s>	0
-0.19948803	bash </s>	0
-0.19948803	portrait </s>	0
-0.19948803	instruments </s>	0
-0.19948803	machinery </s>	0
-0.19948803	final </s>	0
-0.19948803	giggling </s>	0
-0.19948803	owl </s>	0
-0.19948803	screen </s>	0
-0.19948803	teach </s>	0
-0.19948803	postponed </s>	0
-0.19948803	bog </s>	0
-0.19948803	rattle </s>	0
-0.41827604	sold </s>	0
-0.19948803	bank </s>	0
-0.19948803	shawl </s>	0
-0.19948803	soul </s>	0
-0.19948803	preach </s>	0
-0.19948803	pull </s>	0
-0.19948803	boone </s>	0
-0.19948803	suppress </s>	0
-0.19948803	issue </s>	0
-0.19948803	cauliflower </s>	0
-0.19948803	badger </s>	0
-0.19948803	contrast </s>	0
-0.19948803	appliances </s>	0
-0.19948803	grain </s>	0
-0.19948803	auction </s>	0
-0.19948803	impress </s>	0
-0.19948803	occur </s>	0
-0.19948803	shore </s>	0
-0.19948803	book </s>	0
-0.19948803	bin </s>	0
-0.19948803	fast </s>	0
-0.19948803	fudge </s>	0
-0.19948803	rust </s>	0
-0.19948803	disclaimer </s>	0
-0.19948803	contract </s>	0
-0.19948803	limb </s>	0
-0.19948803	musk </s>	0
-0.19948803	rut </s>	0
-0.19948803	serve </s>	0
-0.19948803	grape </s>	0
-0.19948803	intact </s>	0
-0.19948803	subtract </s>	0
-0.19948803	forgery </s>	0
-0.19948803	driven </s>	0
-0.19948803	shut </s>	0
-0.19948803	retract </s>	0
-0.19948803	accent </s>	0
-0.19948803	globe </s>	0
-0.19948803	grave </s>	0
-0.19948803	bust </s>	0
-0.19948803	depress </s>	0
-0.19948803	dusk </s>	0
-0.19948803	slim </s>	0
-0.19948803	updating </s>	0
-0.19948803	preserve </s>	0
-0.19948803	converge </s>	0
-0.19948803	booth </s>	0
-0.19948803	west </s>	0
-0.19948803	weight </s>	0
-0.19948803	lisp </s>	0
-0.19948803	colorful </s>	0
-0.19948803	tore </s>	0
-0.19948803	strange </s>	0
-0.19948803	refer </s>	0
-0.19948803	deserve </s>	0
-0.19948803	glib </s>	0
-0.19948803	grope </s>	0
-0.19948803	but </s>	0
-0.19948803	absurd </s>	0
-0.19948803	kittens </s>	0
-0.19948803	yards </s>	0
-0.19948803	grange </s>	0
-0.19948803	lid </s>	0
-0.19948803	brain </s>	0
-0.19948803	boast </s>	0
-0.19948803	observe </s>	0
-0.19948803	reserve </s>	0
-0.19948803	slid </s>	0
-0.19948803	list </s>	0
-0.19948803	conserve </s>	0
-0.19948803	repress </s>	0
-0.19948803	scorch </s>	0
-0.19948803	super </s>	0
-0.19948803	split </s>	0
-0.19948803	struggled </s>	0
-0.19948803	sitter </s>	0
-0.19948803	ok </s>	0
-0.19948803	actually </s>	0
-0.19948803	owe </s>	0
-0.19948803	jaw </s>	0
-0.19948803	cope </s>	0
-0.19948803	drop </s>	0
-0.19948803	shout </s>	0
-0.19948803	ignorance </s>	0
-0.19948803	relax </s>	0
-0.19948803	oh </s>	0
-0.19948803	liar </s>	0
-0.41827604	min </s>	0
-0.19948803	paper </s>	0
-0.19948803	13th </s>	0
-0.19948803	man </s>	0
-0.19948803	chose </s>	0
-0.19948803	innocense </s>	0
-2.3615031	<s> sheet	-1.60206
-2.2858195	<s> knew	-1.6751671
-1.6570598	we knew	-0.66900676
-2.4992929	<s> left	-1.4673615
-2.1634736	<s> air	-1.7970366
-2.3455365	<s> chair	-1.6163005
-0.30078068	brown chair	-0.97003675
-2.5095475	<s> sticks	-1.4573772
-2.424956	<s> storm	-1.5399121
-2.223574	<s> beat	-1.7377226
-1.8688273	<s> he	-0.99289966
-0.5998285	himself he	-0.30103
-1.1383673	well he	-1.2552725
-0.2999128	economy he	-1.2218487
-1.1383673	this he	-0.90309
-1.2899853	as he	-1.146128
-0.89863837	him he	-1.0543576
-0.7748082	yet he	-0.86530143
-0.5998285	so he	-0.42596874
-1.6199454	he dressed	-0.30103
-0.30078068	dressed himself	-0.30103
-0.60156155	crucified himself	-0.30103
-2.557248	<s> in	-1.0543576
-0.59759986	himself in	-0.30103
-1.7298691	is in	-0.30103
-0.59759986	higher in	-1.1663314
-0.2987942	confidence in	-1.2218487
-0.98893434	people in	-1.1663314
-1.51772	it in	-0.66900676
-0.2987942	lives in	-1.2218487
-0.2987942	damage in	-0.86530143
-0.2987942	participate in	-0.86530143
-0.2987942	ruled in	-0.7781512
-0.2987942	upbringing in	-0.8239087
-0.2987942	fire in	-0.8239087
-0.2987942	mistakes in	-0.66900676
-0.2987942	sculpture in	-0.30103
-0.59759986	deal in	-0.42596874
-0.2987942	measured in	-0.30103
-3.5506096	<s> an	-0.30103
-1.5354102	in an	-0.30103
-0.29977283	carry an	-1.2218487
-0.898083	like an	-0.42596874
-1.7561747	is an	-1.0543576
-1.2669548	be an	-0.75332767
-1.7295337	of an	-1.20412
-0.898083	tell an	-0.30103
-1.0716921	have an	-0.8808136
-0.29977283	provoked an	-0.30103
-1.3783202	an ancient	-0.30103
-0.30078068	ancient black	-0.30103
-1.7565011	of black	-0.8239087
-0.6017443	black frock	-0.30103
-2.8512313	<s> coat	-1.1249387
-0.30078068	frock coat	-0.30103
-2.4164987	<s> swarm	-1.5481846
-2.168695	<s> no	-1.7876966
-1.5693244	was no	-0.7781512
-1.3735762	have no	-0.72699875
-1.075851	had no	-0.72699875
-0.30047318	requires no	-0.7781512
-2.414794	<s> spark	-1.3263359
-0.60156155	spark spark	-0.30103
-2.4892745	<s> dug	-1.4771212
-2.2595205	<s> two	-1.39794
-0.3006134	noticed two	-1.1663314
-0.997921	only two	-0.42596874
-0.3006134	called two	-0.86530143
-2.5857549	<s> dont	-1.0791812
-1.7839057	i dont	-0.8239087
-0.99862003	just dont	-0.30103
-0.9024587	dont ask	-1.2218487
-3.1026297	<s> me	-0.8239087
-0.30005282	ask me	-1.2218487
-1.9140915	to me	-0.42596874
-1.6408211	for me	-1.1856365
-0.30005282	carried me	-1.1663314
-0.6001079	took me	-0.90309
-1.2465562	with me	-0.9378521
-0.6001079	fit me	-0.5228787
-2.8299878	<s> to	-0.7781512
-1.161408	me to	-1.2218487
-0.88120914	like to	-0.86530143
-0.29545557	try to	-1.0280287
-1.3176217	were to	-1.2552725
-0.29545557	something to	-1.2218487
-0.5909818	used to	-1.146128
-0.7616381	time to	-0.66900676
-0.5909818	easy to	-0.42596874
-0.29545557	tried to	-1.1663314
-0.46878618	hard to	-0.5563025
-0.88120914	him to	-0.90309
-1.3176217	have to	-0.72699875
-0.29545557	funds to	-1.2218487
-0.7616381	yet to	-1.1663314
-0.29545557	horseback to	-1.146128
-0.29545557	volunteered to	-1.0543576
-0.29545557	willing to	-0.97003675
-0.29545557	fun to	-0.9378521
-0.29545557	someplace to	-0.90309
-0.5909818	want to	-0.30103
-0.29545557	expects to	-1.0280287
-0.29545557	greg to	-0.90309
-0.5909818	cat to	-0.90309
-0.5909818	able to	-1
-0.88120914	what to	-0.30103
-0.29545557	decision to	-0.86530143
-0.29545557	scream to	-0.86530143
-0.5909818	still to	-0.7781512
-0.29545557	dough to	-0.69897
-0.29545557	common to	-0.86530143
-0.29545557	desire to	-0.72699875
-0.29545557	met to	-0.9378521
-0.29545557	trying to	-0.86530143
-0.29545557	wanted to	-0.72699875
-0.29545557	status to	-0.5228787
-0.29545557	appealing to	-0.42596874
-0.29545557	illegal to	-0.30103
-0.29545557	longer to	-0.30103
-0.29545557	muttering to	-0.42596874
-0.29545557	impossible to	-0.42596874
-1.9475042	to carry	-1.2218487
-1.3783202	an oily	-1.2218487
-0.30087212	oily rag	-1.2218487
-0.3006134	rag like	-1.2218487
-1.7796594	i like	-0.42596874
-0.7769026	looked like	-0.42596874
-0.3006134	doesnt like	-0.86530143
-2.775592	<s> that	-0.74036264
-0.8991945	like that	-1.2218487
-1.1963636	up that	-0.30103
-0.6001079	fill that	-0.42596874
-0.6001079	beg that	-0.97003675
-0.30005282	seen that	-0.8239087
-0.30005282	requests that	-0.66900676
-0.30005282	beauty that	-0.30103
-2.3842256	<s> rake	-1.5797836
-2.6940136	<s> well	-1.2552725
-1.140302	do well	-0.90309
-0.7756448	went well	-0.86530143
-0.7756448	expect well	-1.1856365
-0.99583054	day well	-0.86530143
-1.0741827	very well	-0.8239087
-0.30019292	doing well	-0.66900676
-2.7814643	<s> is	-1.0543576
-1.2909899	he is	-1.146128
-1.125061	this is	-1.3290588
-1.1801251	she is	-1.0170333
-0.5959358	nothing is	-1.0791812
-0.5959358	house is	-1.2388821
-0.29795715	humidity is	-1.1663314
-0.7689971	there is	-0.87242115
-0.29795715	alfalfa is	-1.146128
-0.29795715	episode is	-1.146128
-0.5959358	attitude is	-1.0280287
-0.29795715	spending is	-1.0543576
-0.29795715	travel is	-0.90309
-0.47252005	life is	-0.86530143
-0.29795715	hair is	-0.8239087
-0.29795715	plot is	-0.86530143
-0.29795715	coast is	-0.7781512
-0.5959358	street is	-0.5228787
-0.29795715	attendance is	-0.66900676
-0.29795715	highway is	-0.66900676
-0.29795715	drift is	-0.66900676
-0.29795715	future is	-0.30103
-0.29795715	cement is	-0.30103
-1.7876796	is nearly	-1.2552725
-0.30087212	nearly ninetythree	-1.2552725
-0.3006134	ninetythree years	-1.2552725
-0.7769026	later years	-1.1663314
-1.6532757	for years	-0.8239087
-0.3006134	last years	-0.72699875
-2.9156415	<s> old	-0.75332767
-0.997921	two old	-1.1663314
-0.90142596	years old	-1.2552725
-1.6532757	and old	-0.42596874
-2.4605358	<s> park	-1.50515
-2.5890357	<s> goat	-1.3802112
-2.477512	<s> dark	-1.4866666
-0.9987549	her dark	-0.8239087
-2.4423816	<s> bit	-1.5228788
-2.1634736	<s> yes	-1.7970366
-2.4312854	<s> warm	-1.5314789
-1.9425155	to warm	-0.86530143
-0.60150754	wore warm	-1.1856365
-2.3329453	<s> feed	-1.6300887
-2.451364	<s> floor	-1.5141048
-2.5285969	<s> right	-1.4366926
-0.30078068	married right	-0.42596874
-2.4312854	<s> know	-1.5314789
-1.656446	we know	-0.90309
-0.60150754	didnt know	-0.72699875
-2.2456095	<s> feet	-1.7160033
-2.3920717	<s> ship	-1.5720967
-2.1825976	<s> sip	-1.7781513
-2.2870858	<s> pat	-1.6751671
-2.2676091	<s> slip	-1.6931405
-0.30078068	ah slip	-0.30103
-2.283887	<s> one	-1.3679768
-0.99583054	just one	-1.146128
-1.6439015	for one	-0.97003675
-0.89975125	out one	-0.90309
-0.30019292	unpleasant one	-1.0543576
-0.7756448	each one	-1.0543576
-0.99583054	only one	-0.86530143
-2.550153	<s> down	-1.4149734
-0.7773227	working down	-0.5228787
-0.7773227	sat down	-0.7781512
-2.3061502	<s> meat	-1.6564176
-2.424956	<s> bat	-1.5399121
-2.5010252	<s> up	-1.447158
-0.7752263	warm up	-0.86530143
-0.7752263	go up	-0.66900676
-0.7752263	looked up	-1.1663314
-0.30005282	treehouse up	-1.1856365
-0.30005282	speak up	-0.86530143
-0.30005282	shook up	-0.30103
-0.30005282	tear up	-0.30103
-2.7917707	<s> sleep	-1.1856365
-2.8334572	<s> pile	-1.146128
-2.772338	<s> youd	-1.20412
-3.134155	<s> be	-0.72699875
-1.6213093	to be	-0.8016324
-0.29949299	youd be	-1.20412
-0.99236876	or be	-0.30103
-0.8969743	will be	-0.8016324
-0.52083063	can be	-0.8187691
-0.7735564	may be	-0.66900676
-0.59899145	often be	-1.2552725
-0.29949299	flowers be	-0.66900676
-0.29949299	must be	-0.42596874
-0.29949299	should be	-0.30103
-0.29949299	cannot be	-0.30103
-1.5767933	be better	-1.20412
-1.2021296	me off	-1.1663314
-0.30078068	better off	-1.20412
-0.60156155	off taking	-1.20412
-1.1443859	its taking	-0.30103
-2.1578038	<s> a	-0.9242793
-1.4759905	in a	-0.92081875
-1.0633515	is a	-0.9941704
-0.59180355	taking a	-1.20412
-0.59180355	write a	-0.66900676
-1.4909298	are a	-0.30103
-1.0260974	on a	-0.7781512
-0.97479916	or a	-0.42596874
-1.5573087	and a	-0.30103
-0.2958715	wear a	-1.1663314
-1.0709811	was a	-0.89579076
-0.2958715	allow a	-1.2388821
-0.76285595	get a	-0.90309
-1.3058106	for a	-1
-1.2520108	as a	-0.7781512
-0.8828137	him a	-0.42596874
-1.3220189	have a	-0.7781512
-0.76285595	expect a	-0.7781512
-0.2958715	harms a	-1.146128
-0.76285595	take a	-0.86530143
-0.76285595	not a	-1.2863067
-0.2958715	became a	-1.1856365
-0.59180355	wore a	-0.7781512
-0.76285595	had a	-0.60206
-0.76285595	did a	-0.86530143
-0.59180355	definitely a	-1
-1.1112425	its a	-0.8239087
-0.2958715	pick a	-0.90309
-0.59180355	bought a	-0.97003675
-0.2958715	toward a	-0.86530143
-0.4694063	makes a	-0.845098
-0.2958715	covers a	-1.1249387
-1.0491111	from a	-0.30103
-0.59180355	such a	-0.5228787
-0.2958715	even a	-0.8239087
-0.2958715	deserves a	-0.5228787
-0.59180355	paint a	-0.42596874
-0.2958715	postdate a	-0.30103
-3.3490713	<s> cold	-0.66900676
-2.0434015	a cold	-1.20412
-0.6017443	cold shower	-1.20412
-2.8334572	<s> sway	-1.146128
-2.3920717	<s> both	-1.0078254
-0.9024587	both figures	-1.1663314
-0.30087212	figures would	-1.1663314
-1.6478838	to go	-0.8016324
-0.30078068	would go	-1.1663314
-0.7774038	go higher	-1.1663314
-0.30078068	grades higher	-1.1663314
-1.5516284	in later	-1.1663314
-0.60150754	trip later	-0.7781512
-0.30075368	weeks later	-0.42596874
-2.8334572	<s> charlie	-1.146128
-2.8334572	<s> mut	-1.146128
-2.7917707	<s> troop	-1.1856365
-2.827714	<s> here	-1.146128
-0.60150754	right here	-0.42596874
-0.7773227	down here	-0.5228787
-2.7917707	<s> wish	-1.1856365
-2.3469896	<s> ate	-1.6163005
-2.7917707	<s> hear	-1.1856365
-2.7537374	<s> pot	-1.2218487
-2.8078873	<s> white	-1.1663314
-1.6570598	and white	-1.2388821
-2.671087	<s> mother	-1.30103
-0.30087212	mother sews	-1.30103
-2.0434015	a yellow	-1.1663314
-0.30078068	sews yellow	-1.30103
-0.6017443	yellow gingham	-1.30103
-0.30087212	gingham aprons	-1.30103
-1.6144098	<s> i	-0.94316465
-0.60094714	than i	-1.3424227
-1.2954937	as i	-0.64345264
-0.60094714	feel i	-1.1663314
-0.900867	what i	-0.30103
-2.827714	<s> just	-1.146128
-1.7839057	i just	-1.20412
-1.656446	we just	-0.60206
-3.2826998	<s> try	-0.72699875
-0.9987549	just try	-1.20412
-3.0876858	<s> do	-0.86530143
-0.9003088	dont do	-0.86530143
-1.6384686	to do	-1.0791812
-1.6088426	you do	-1.2218487
-1.075016	very do	-0.30103
-0.30033305	dad do	-1.0280287
-2.7626336	<s> my	-0.96378785
-1.197468	up my	-0.86530143
-1.140302	do my	-1.20412
-1.7405785	of my	-0.66900676
-1.0741827	had my	-1.146128
-0.30019292	suddenly my	-0.9378521
-0.30019292	change my	-0.72699875
-3.0500581	<s> best	-0.9378521
-1.2021296	my best	-1.20412
-2.477512	<s> bad	-1.4866666
-0.7774038	few bad	-0.7781512
-2.827714	<s> where	-1.146128
-0.7773227	know where	-0.72699875
-0.30075368	places where	-0.86530143
-2.533344	<s> were	-1.1026623
-0.7739733	where were	-1.146128
-1.6317091	we were	-1.146128
-0.5992702	cases were	-0.30103
-1.0708652	also were	-1.2218487
-0.9930589	or were	-0.30103
-1.3272961	they were	-0.72699875
-0.2996329	injuries were	-1.2552725
-0.2996329	results were	-0.9378521
-0.2996329	cars were	-0.5228787
-0.2996329	paintings were	-0.30103
-2.5608888	<s> you	-0.8782664
-1.3557016	were you	-1.146128
-0.42317614	if you	-1.0078254
-0.29893386	banks you	-1.2218487
-1.1876276	will you	-0.30103
-1.6169349	for you	-1.146128
-0.8947655	tell you	-0.7781512
-1.2805104	as you	-1.146128
-1.4526117	can you	-0.42596874
-0.7718929	way you	-0.66900676
-0.8947655	when you	-0.66900676
-0.7718929	did you	-0.66900676
-0.29893386	asked you	-0.86530143
-0.59787786	sure you	-0.8239087
-0.29893386	surrounds you	-0.30103
-0.29893386	lead you	-0.30103
-1.6180438	you while	-1.146128
-1.0776876	there while	-0.86530143
-1.8337928	<s> we	-0.90749913
-0.60038745	knew we	-0.66900676
-0.7756448	know we	-0.90309
-0.60038745	while we	-1.146128
-0.60038745	alone we	-1.0543576
-0.30019292	leisure we	-0.90309
-0.30019292	suggested we	-0.8239087
-1.377229	were away	-1.146128
-0.30078068	squared away	-0.30103
-2.7877367	<s> deer	-1.1856365
-0.7774038	three deer	-0.30103
-2.8334572	<s> droop	-1.146128
-2.7917707	<s> group	-1.1856365
-2.8290188	<s> near	-1.146128
-0.30078068	lay near	-1.1856365
-2.5200503	<s> cheer	-1.447158
-2.7917707	<s> thigh	-1.1856365
-2.8334572	<s> single	-1.146128
-2.4739277	<s> if	-1.4866666
-0.6012272	fear if	-0.72699875
-0.6012272	so if	-0.8239087
-0.6012272	practical if	-0.30103
-1.6199454	you destroy	-1.2218487
-0.30087212	destroy confidence	-1.2218487
-1.5536261	in banks	-1.2218487
-1.145024	do something	-1.2218487
-1.4363226	<s> the	-0.96558243
-0.8395796	in the	-0.81954396
-1.0775806	to the	-1.0594372
-0.5915295	near the	-1.1856365
-0.29573283	approached the	-1.146128
-1.4887618	are the	-0.8239087
-1.0355929	of the	-0.85733247
-0.22602645	on the	-1.0280287
-0.5915295	made the	-1.146128
-0.7624496	all the	-1.0710634
-1.3043938	for the	-0.86530143
-0.29573283	scrubbed the	-1.1856365
-0.8822782	than the	-0.30103
-0.29573283	smooth the	-1.1663314
-1.0483259	by the	-0.72699875
-0.9741374	at the	-0.30103
-0.29573283	wrapped the	-1.1856365
-0.29573283	open the	-0.97003675
-0.29573283	covered the	-0.9378521
-0.9741374	only the	-0.86530143
-0.6858462	about the	-0.8239087
-0.29573283	prefer the	-0.86530143
-1.2097745	with the	-0.7781512
-0.5915295	thats the	-0.30103
-0.29573283	across the	-0.86530143
-0.29573283	remains the	-0.86530143
-0.29573283	mail the	-0.8239087
-0.7624496	from the	-0.86530143
-0.29573283	neglect the	-0.7781512
-0.29573283	compounded the	-0.66900676
-0.5915295	judge the	-0.9378521
-0.29573283	housing the	-0.8239087
-0.29573283	order the	-0.66900676
-0.29573283	noted the	-0.5228787
-0.29573283	hiring the	-0.42596874
-0.29573283	hides the	-0.42596874
-0.29573283	describe the	-0.30103
-0.29573283	lamps the	-0.30103
-0.29573283	delight the	-0.30103
-2.2640038	the economy	-1.2218487
-2.68812	<s> said	-1.2710668
-1.6117036	he said	-1.2218487
-1.7754542	i said	-0.30103
-0.30047318	sheriff said	-1.1663314
-1.5463876	it said	-0.66900676
-2.7917707	<s> coupe	-1.1856365
-2.3455365	<s> write	-1.6163005
-0.7774038	through write	-0.66900676
-2.2640038	the train	-1.146128
-0.30087212	train approached	-1.146128
-2.2640038	the depot	-1.146128
-0.30087212	depot slowly	-1.146128
-2.2640038	the islands	-1.146128
-2.59742	<s> are	-1.0142405
-1.3006988	you are	-0.97003675
-1.6169349	we are	-0.8239087
-0.29893386	islands are	-1.146128
-1.6169349	and are	-0.30103
-0.6937485	people are	-0.7781512
-1.3199035	they are	-0.42596874
-0.29893386	books are	-1.1856365
-0.29893386	themselves are	-1.0280287
-0.29893386	hotels are	-0.9378521
-0.29893386	reflexes are	-0.9378521
-0.29893386	subtraction are	-0.86530143
-0.29893386	apartments are	-0.8239087
-0.29893386	bongos are	-0.42596874
-0.29893386	wages are	-0.30103
-0.29893386	costumes are	-0.30103
-1.5767933	are sparsely	-1.146128
-0.30087212	sparsely populated	-1.146128
-2.812114	<s> area	-1.1663314
-2.7917707	<s> steer	-1.1856365
-2.5418503	<s> tile	-1.4259686
-2.6419797	<s> select	-1.3290588
-4.2007313	<s> sweet	-0.30103
-2.4892745	<s> suit	-1.4771212
-2.6898994	<s> of	-1.146128
-1.5155219	are of	-0.60206
-0.7673509	much of	-0.30103
-0.29740003	acts of	-1.1663314
-0.59483004	part of	-0.66900676
-0.29740003	advantage of	-1.1663314
-0.29740003	period of	-1.1856365
-0.59483004	program of	-1.2863067
-0.88874847	out of	-0.42596874
-0.29740003	grants of	-1.20412
-0.29740003	roll of	-1.1856365
-0.29740003	prospect of	-1.0543576
-0.29740003	pair of	-1
-0.29740003	peck of	-0.90309
-0.29740003	gallon of	-0.97003675
-0.59483004	full of	-0.86530143
-0.29740003	fiercest of	-0.86530143
-0.29740003	minute of	-0.8239087
-0.29740003	number of	-0.8239087
-0.29740003	lack of	-0.66900676
-0.59483004	state of	-0.9378521
-0.29740003	largest of	-0.8239087
-0.29740003	pockets of	-0.8239087
-0.59483004	confirmation of	-0.7781512
-0.29740003	lot of	-0.5228787
-0.29740003	name of	-0.30103
-0.29740003	lots of	-0.30103
-2.8334572	<s> youre	-1.146128
-0.30078068	youre used	-1.146128
-0.9987549	some used	-0.42596874
-2.9834003	<s> being	-1
-1.9436496	to being	-1.146128
-0.5992702	off on	-1.1663314
-0.5992702	being on	-1.146128
-0.2996329	shimmers on	-1.146128
-0.2996329	shells on	-1.20412
-0.2996329	marshmallows on	-0.9378521
-0.7739733	ride on	-0.30103
-0.2996329	twilight on	-0.86530143
-0.2996329	outdoors on	-0.66900676
-0.2996329	misplaced on	-0.42596874
-0.2996329	picnic on	-0.30103
-0.2996329	put on	-0.30103
-2.2640038	the field	-1.146128
-2.6419797	<s> forward	-1.3290588
-2.8334572	<s> root	-1.146128
-1.2028584	my sister	-1.146128
-1.5750711	be made	-0.86530143
-0.30078068	sister made	-1.146128
-2.2640038	the flowered	-1.146128
-0.30087212	flowered curtains	-1.146128
-2.5279431	<s> three	-1.4366926
-0.30075368	contained three	-1.146128
-0.60150754	saw three	-0.30103
-2.8334572	<s> bright	-1.146128
-0.30087212	bright sunshine	-1.146128
-0.30087212	sunshine shimmers	-1.146128
-2.2640038	the ocean	-1.146128
-2.8334572	<s> pay	-1.146128
-2.8334572	<s> light	-1.146128
-0.99862003	two other	-1.2552725
-1.755756	of other	-0.7781512
-0.7773227	makes other	-0.42596874
-0.7776777	other cases	-1.0334238
-0.99652624	old also	-0.42596874
-1.7712892	i also	-0.7781512
-1.3719205	were also	-0.30103
-0.6006672	cases also	-1.2218487
-1.5439249	it also	-1.2218487
-0.7760637	job also	-0.7781512
-0.7773227	here under	-0.5228787
-1.3769066	were under	-1.2218487
-1.0775257	also under	-0.30103
-0.47688442	under advisement	-1.2552725
-2.448972	<s> much	-1.5141048
-1.5745628	are much	-0.7781512
-0.7773227	through much	-0.30103
-2.735901	<s> hate	-1.2388821
-2.772338	<s> whoop	-1.20412
-2.4423816	<s> rock	-1.5228788
-2.7187684	<s> why	-0.9542425
-0.6017443	why yell	-1.1663314
-0.60094714	higher or	-1.1663314
-0.30047318	yell or	-1.1663314
-0.30047318	room or	-0.42596874
-0.30047318	walked or	-0.30103
-0.30047318	bus or	-0.30103
-0.9992111	or worry	-1.1663314
-0.30087212	worry over	-1.1663314
-0.30087212	over silly	-1.1663314
-0.7774038	other items	-0.7781512
-0.30078068	silly items	-1.1663314
-2.8334572	<s> toot	-1.146128
-2.4164987	<s> knot	-1.5481846
-2.8334572	<s> fate	-1.146128
-2.39046	<s> side	-1.5720967
-1.2021296	one side	-1.146128
-1.6117036	he got	-1.146128
-1.7754542	i got	-0.30103
-1.6501284	we got	-0.69897
-1.075851	also got	-0.42596874
-0.60094714	side got	-1.146128
-1.0782347	got wet	-1.146128
-2.4892745	<s> shoot	-1.4771212
-1.7839057	i looked	-1.1663314
-1.551355	it looked	-0.42596874
-0.60150754	brothers looked	-0.86530143
-2.525132	<s> and	-1.3679768
-0.7689971	down and	-0.7781512
-1.1801251	up and	-1.1663314
-0.5959358	deer and	-0.30103
-0.29795715	grey and	-1.2388821
-0.29795715	slums and	-1.2218487
-0.5959358	heart and	-0.66900676
-0.7689971	young and	-0.42596874
-0.5959358	short and	-0.86530143
-0.29795715	prosecuted and	-0.86530143
-0.29795715	addition and	-0.86530143
-0.29795715	chocolate and	-0.86530143
-0.29795715	masonry and	-0.72699875
-0.29795715	distress and	-0.7781512
-0.29795715	jealousies and	-0.90309
-0.5959358	pleasure and	-0.7781512
-0.5959358	straight and	-0.66900676
-0.29795715	bagpipes and	-0.42596874
-0.29795715	saws and	-0.42596874
-0.29795715	supplies and	-0.42596874
-0.29795715	broccoli and	-0.30103
-0.29795715	strong and	-0.30103
-0.29795715	children and	-0.30103
-1.6591406	and noticed	-1.1663314
-0.9992111	old men	-1.1663314
-2.772338	<s> slay	-1.20412
-2.7444358	<s> will	-0.98227125
-1.6060004	he will	-1.2388821
-1.7671639	i will	-0.30103
-1.197468	she will	-0.66900676
-1.3333021	they will	-0.86530143
-0.30019292	families will	-0.86530143
-0.30019292	contributions will	-0.72699875
-1.2028584	will robin	-1.1663314
-0.30087212	robin wear	-1.1663314
-0.6017443	yellow lily	-1.1663314
-3.0924988	<s> was	-0.7781512
-1.7471054	i was	-1.0413927
-1.1354815	this was	-1.1663314
-1.1919736	she was	-0.38021123
-1.0700397	there was	-0.8239087
-1.0700397	it was	-0.98097676
-0.29949299	shoes was	-1
-0.29949299	bracelet was	-0.86530143
-0.29949299	luck was	-0.7781512
-0.29949299	pickpocket was	-0.9378521
-0.29949299	range was	-0.72699875
-0.29949299	display was	-0.42596874
-1.5767933	was conscious	-1.20412
-2.607928	<s> all	-1.0413927
-1.370271	were all	-0.66900676
-1.3521973	we all	-0.8016324
-0.30019292	conscious all	-1.20412
-0.60038745	received all	-0.5228787
-0.89975125	when all	-1.1856365
-1.0741827	really all	-0.86530143
-2.2532556	the time	-1.20412
-1.5745628	was time	-0.66900676
-0.7773227	first time	-0.97003675
-2.7537374	<s> prior	-1.2218487
-2.7684796	<s> play	-1.20412
-1.474139	can play	-1.20412
-2.772338	<s> briar	-1.20412
-1.2028584	will allow	-1.2388821
-2.0483046	a rare	-1.0170333
-0.6017443	rare lilyrare	-0.30103
-0.60156155	rare lie	-1.20412
-0.30078068	lilyrare lie	-0.30103
-2.812114	<s> shear	-1.1663314
-3.5581021	<s> big	-0.42596874
-0.997223	no big	-0.7781512
-2.0272934	a big	-0.7781512
-2.228808	the big	-1.20412
-1.075851	by big	-0.30103
-0.9992111	big baseball	-1.20412
-0.30087212	baseball players	-1.20412
-3.085299	<s> get	-0.90309
-1.9425155	to get	-0.30103
-0.30075368	players get	-1.20412
-0.7776777	get traded	-1.20412
-2.1337504	<s> this	-1.2596374
-1.7519116	of this	-0.86530143
-0.6012272	play this	-1.20412
-0.7769026	back this	-1.1856365
-1.5750711	was easy	-1.1663314
-0.30078068	arent easy	-0.42596874
-1.181189	one for	-1.0543576
-1.5654593	you for	-0.86530143
-0.59621274	easy for	-1.1663314
-0.29809657	healthy for	-1.146128
-1.506312	it for	-1.1026623
-0.59621274	provides for	-1.2218487
-0.7694096	win for	-1.2218487
-0.29809657	transition for	-1.1856365
-0.29809657	sum for	-1.20412
-0.47272846	look for	-0.90309
-0.29809657	experiment for	-0.97003675
-0.29809657	wait for	-1.0280287
-0.7694096	place for	-0.7781512
-0.29809657	guard for	-0.97003675
-0.29809657	friend for	-0.8239087
-0.29809657	prepared for	-0.72699875
-0.29809657	clams for	-0.72699875
-0.29809657	mask for	-0.7781512
-0.29809657	wife for	-0.42596874
-0.29809657	ready for	-0.42596874
-0.29809657	trips for	-0.42596874
-0.29809657	demand for	-0.30103
-1.3588694	for us	-1.4960066
-0.7774038	above us	-1
-2.7684796	<s> fear	-1.20412
-0.9987549	no fear	-0.72699875
-2.812114	<s> sprinkle	-1.1663314
-2.812114	<s> snoop	-1.1663314
-1.7875234	i scrubbed	-1.1856365
-2.2640038	the floors	-1.1856365
-0.30087212	floors thoroughly	-1.1856365
-2.5308135	<s> boot	-1.4366926
-2.702286	<s> rocks	-1.2710668
-2.3541856	<s> witch	-1.6092386
-2.7877367	<s> though	-1.1856365
-0.7774038	place though	-0.90309
-2.772338	<s> galore	-1.20412
-1.7875234	i tried	-1.1663314
-2.827714	<s> tell	-1.146128
-1.6473094	to tell	-0.98227125
-1.7839057	i tell	-0.7781512
-2.9341917	<s> people	-1.0280287
-0.900867	tell people	-1.1663314
-0.60094714	those people	-0.7781512
-0.77648294	young people	-0.86530143
-0.30047318	elderly people	-0.7781512
-2.2640038	the community	-1.1663314
-2.812114	<s> gnaw	-1.1663314
-2.812114	<s> cycle	-1.1663314
-2.772338	<s> delta	-1.20412
-2.1542184	<s> she	-0.90309
-1.7876796	is thinner	-1.20412
-0.6012272	away than	-0.30103
-0.3006134	thinner than	-1.20412
-0.3006134	lower than	-1.1663314
-0.6012272	quicker than	-0.7781512
-1.7875234	i am	-1.3424227
-2.772338	<s> bear	-1.20412
-2.812114	<s> error	-1.1663314
-2.735901	<s> jungle	-1.2388821
-2.424956	<s> nothing	-1.2388821
-1.7639928	is as	-1.2710668
-0.30005282	offensive as	-0.9330532
-0.6001079	arm as	-1.146128
-0.30005282	high as	-1.146128
-0.30005282	watched as	-1.146128
-0.6001079	fail as	-0.7781512
-0.30005282	exactly as	-0.86530143
-0.30005282	displayed as	-0.30103
-1.7849742	is offensive	-0.30103
-1.2985433	as offensive	-1.2710668
-3.9392233	<s> innocence	-0.30103
-1.2985433	as innocence	-1.2388821
-2.6281264	<s> menu	-1.3424227
-2.812114	<s> peer	-1.1663314
-2.4164987	<s> lip	-1.5481846
-2.812114	<s> dot	-1.1663314
-1.6591406	we gathered	-1.20412
-0.30087212	gathered shells	-1.20412
-2.2640038	the beach	-1.2388821
-3.6460955	<s> feel	-0.42596874
-1.7847291	i feel	-1.1663314
-3.3579407	<s> can	-0.42596874
-1.4681284	i can	-0.9265711
-1.3063457	you can	-1.0543576
-1.6287138	we can	-0.90309
-1.0700397	also can	-0.7781512
-0.29949299	silverware can	-1.2552725
-0.59899145	work can	-1.0280287
-0.29949299	dance can	-1
-0.59899145	basketball can	-0.7781512
-0.29949299	trespassers can	-0.86530143
-0.59899145	gold can	-0.7781512
-0.29949299	standby can	-0.30103
-1.145024	this weekend	-1.20412
-2.772338	<s> tie	-1.20412
-2.1681762	<s> sigh	-1.7923918
-2.772338	<s> mere	-1.20412
-2.812114	<s> everything	-1.1663314
-0.30075368	everything went	-1.1663314
-0.90198565	things went	-0.7781512
-0.30075368	marriage went	-0.86530143
-0.7774038	under real	-0.5228787
-0.7774038	went real	-1.1663314
-0.6017443	real smooth	-1.1663314
-2.2640038	the sheriff	-1.1663314
-2.5648024	<s> pad	-1.4036924
-2.7323518	<s> their	-1.2388821
-0.30078068	lost their	-1.146128
-0.9987549	big house	-0.7781512
-0.60156155	their house	-1.2388821
-1.7876796	is grey	-1.2388821
-1.5641483	are your	-1.1663314
-0.30019292	swing your	-1.146128
-0.30019292	celebrate your	-0.86530143
-0.7756448	eat your	-0.66900676
-0.30019292	guarantees your	-0.7781512
-0.30019292	upgrade your	-0.5228787
-0.30019292	reflect your	-0.5228787
-1.145024	your grades	-1.1663314
-0.9992111	or lower	-1.1663314
-0.9024587	than nancys	-1.1663314
-2.735901	<s> urgent	-1.2388821
-2.2640038	the humidity	-1.1663314
-1.7876796	is overwhelming	-1.1663314
-2.3623133	<s> there	-1.2937307
-0.30047318	overwhelming there	-1.1663314
-0.60094714	basketball there	-0.86530143
-0.77648294	sat there	-0.42596874
-0.30047318	unfortunately there	-0.30103
-2.812114	<s> explore	-1.1663314
-2.4679837	<s> they	-0.7596679
-1.1412725	do they	-0.86530143
-0.7760637	where they	-0.72699875
-0.9003088	night they	-1.146128
-0.9003088	things they	-0.5228787
-0.30033305	because they	-0.42596874
-1.340689	they carried	-1.1663314
-2.2640038	the stretcher	-1.1663314
-1.2028584	one validated	-1.1663314
-0.30087212	validated acts	-1.1663314
-1.7590284	of school	-1.1663314
-0.30087212	school districts	-1.1663314
-2.812114	<s> loop	-1.1663314
-2.812114	<s> jane	-1.1663314
-0.30075368	jane may	-1.1663314
-0.7773227	few may	-0.66900676
-0.30075368	company may	-0.42596874
-0.7776777	may earn	-1.1663314
-1.2007983	up more	-0.86530143
-0.3006134	earn more	-1.1663314
-0.7769026	needs more	-0.30103
-0.3006134	accomplish more	-0.7781512
-0.90198565	more money	-1.1663314
-1.0775257	any money	-0.86530143
-0.30075368	save money	-0.30103
-0.7760637	money by	-1.1663314
-0.30033305	solicits by	-0.8239087
-0.30033305	begin by	-0.86530143
-0.6006672	them by	-0.72699875
-0.30033305	rewarded by	-0.30103
-0.30033305	acting by	-0.30103
-0.60150754	while working	-0.86530143
-1.0775257	by working	-1.1663314
-0.30075368	credit working	-0.5228787
-1.5745628	be hard	-0.66900676
-0.7773227	working hard	-1.1663314
-1.1441972	its hard	-0.30103
-2.5983016	<s> back	-1.3679768
-0.30075368	bounce back	-1.1856365
-0.30075368	cutting back	-1.0543576
-2.414794	<s> four	-1.5481846
-1.966037	the four	-0.845098
-2.812114	<s> fruit	-1.1663314
-2.3646336	<s> him	-1.5947608
-0.6012272	crucified him	-1.0543576
-0.6012272	want him	-0.90309
-0.6012272	saw him	-0.42596874
-2.6382754	<s> night	-1.0280287
-0.60150754	after night	-1.146128
-0.99862003	at night	-0.8239087
-0.90209365	night after	-1.146128
-0.9987549	day after	-1.146128
-1.040525	they received	-0.9378521
-0.6017443	received annoying	-1.146128
-3.6376035	<s> phone	-0.42596874
-1.0775257	by phone	-0.8239087
-0.30075368	annoying phone	-1.146128
-0.60156155	bad calls	-0.7781512
-0.7774038	phone calls	-1.146128
-2.8334572	<s> hem	-1.146128
-2.7917707	<s> seeds	-1.1856365
-2.8334572	<s> sign	-1.146128
-2.7917707	<s> november	-1.1856365
-2.8334572	<s> alfalfa	-1.146128
-1.7876796	is healthy	-1.146128
-2.8334572	<s> mush	-1.146128
-2.7917707	<s> oscar	-1.1856365
-2.4872594	<s> sell	-1.4771212
-0.30078068	hell sell	-0.72699875
-2.2640038	the misguided	-1.146128
-0.30087212	misguided souls	-1.146128
-3.162426	<s> have	-0.72699875
-1.903223	to have	-0.86530143
-1.1374032	well have	-0.86530143
-1.7550179	i have	-1.146128
-1.309197	you have	-1.0280287
-1.3474854	we have	-0.9265711
-1.2440867	all have	-0.8239087
-0.29977283	souls have	-1.146128
-1.0716921	really have	-0.90309
-0.29977283	tribes have	-0.30103
-1.3783202	have lost	-1.146128
-2.2532556	the way	-0.7781512
-0.60150754	their way	-1.146128
-1.0775257	any way	-0.66900676
-2.5285969	<s> five	-1.4366926
-1.0776876	had five	-0.30103
-1.5767933	are losing	-1.146128
-0.90198565	more water	-0.30103
-0.30075368	losing water	-1.146128
-0.60150754	spring water	-0.42596874
-0.7776777	water replace	-1.146128
-1.9947554	<s> it	-1.1091444
-1.1354815	do it	-0.30103
-1.592062	you it	-0.7781512
-1.7223234	of it	-0.8239087
-1.3621166	have it	-0.86530143
-0.29949299	replace it	-1.146128
-0.59899145	thought it	-0.30103
-0.59899145	done it	-0.66900676
-0.29949299	nailed it	-1.1026623
-0.29949299	kept it	-0.9378521
-0.59899145	confirmation it	-0.66900676
-0.29949299	handle it	-0.66900676
-1.5534691	it immediately	-1.146128
-2.7917707	<s> hill	-1.1856365
-2.8334572	<s> fitting	-1.146128
-2.8334572	<s> swing	-1.146128
-3.2826998	<s> arm	-0.72699875
-1.1443859	your arm	-1.146128
-1.2994536	as high	-1.146128
-2.3469896	<s> pit	-1.6163005
-2.5418503	<s> zero	-1.4259686
-2.3329453	<s> fat	-1.6300887
-2.7877367	<s> thought	-1.1856365
-1.7847291	i thought	-0.30103
-2.8334572	<s> darn	-1.146128
-2.8334572	<s> golf	-1.146128
-1.6478838	to expect	-0.64345264
-1.7847291	i expect	-1.1856365
-1.145024	well bounce	-1.1856365
-1.145024	this week	-1.1856365
-2.4699056	<s> spit	-1.4960066
-2.8334572	<s> mitten	-1.146128
-2.4423816	<s> six	-1.5228788
-2.6533327	<s> when	-0.94729364
-0.90209365	when when	-0.30103
-1.2538534	all else	-1.1856365
-0.30087212	else fails	-1.1856365
-0.30087212	fails use	-1.1856365
-0.30087212	use force	-1.1856365
-2.8290188	<s> brought	-1.146128
-0.30078068	added brought	-0.90309
-2.8334572	<s> alimony	-1.146128
-0.30087212	alimony harms	-1.146128
-2.0483046	a divorced	-1.146128
-0.30087212	divorced mans	-1.146128
-1.1443859	your wealth	-0.5228787
-0.30078068	mans wealth	-1.146128
-2.4699056	<s> hat	-1.4960066
-2.57675	<s> seed	-1.3921105
-2.8334572	<s> sergeant	-1.146128
-2.7537374	<s> carl	-1.2218487
-0.30087212	carl lives	-1.2218487
-2.0483046	a lovely	-0.42596874
-0.30078068	lovely home	-0.42596874
-0.30078068	lively home	-1.146128
-2.0483046	a lively	-1.146128
-2.8334572	<s> dart	-1.146128
-2.8334572	<s> hum	-1.146128
-2.7187684	<s> pitting	-1.2552725
-2.8334572	<s> reek	-1.146128
-1.0776876	also provides	-1.2218487
-0.7774038	job provides	-1.1856365
-1.6591406	for funds	-1.2218487
-1.9475042	to clear	-1.2218487
-0.30087212	clear slums	-1.2218487
-2.78655	<s> help	-0.8846066
-1.656446	and help	-1.2218487
-1.4738166	can help	-1
-0.9024587	help colleges	-1.2218487
-0.30087212	colleges build	-1.2218487
-0.30087212	build dormitories	-1.2218487
-2.8290188	<s> part	-1.146128
-0.30078068	huge part	-0.66900676
-2.8334572	<s> bloat	-1.146128
-3.9226995	<s> good	-0.30103
-1.2096403	a good	-0.9941704
-0.7773227	look good	-0.8239087
-3.3447652	<s> win	-0.66900676
-0.7773227	may win	-0.42596874
-1.1441972	good win	-1.2218487
-1.6180438	he has	-0.8239087
-0.60156155	nothing has	-1.1663314
-0.6017443	has been	-1.1663314
-0.30078068	been done	-1.1663314
-0.30078068	weve done	-0.66900676
-3.126237	<s> yet	-0.86530143
-0.60150754	done yet	-1.1663314
-0.7773227	eat yet	-0.66900676
-2.6823049	<s> take	-1.2863067
-1.9425155	to take	-1.1663314
-1.2019141	will take	-0.86530143
-0.7776777	take advantage	-1.1663314
-2.2640038	the enabling	-1.1663314
-0.30087212	enabling legislation	-1.1663314
-2.7187684	<s> aluminum	-1.2552725
-0.30087212	aluminum silverware	-1.2552725
-1.5750711	are often	-0.7781512
-1.474139	can often	-1.2552725
-1.5767933	be flimsy	-1.2552725
-2.7917707	<s> shy	-1.1856365
-2.8334572	<s> lair	-1.146128
-2.5531747	<s> cake	-1.4149734
-2.8334572	<s> hitting	-1.146128
-2.8334572	<s> city	-1.146128
-2.0483046	a period	-1.1856365
-1.7590284	of transition	-1.1856365
-2.0483046	a treehouse	-1.1856365
-1.2019141	up above	-1.1856365
-2.2532556	the above	-0.7781512
-0.30075368	notch above	-1
-2.2640038	the dolphins	-1.146128
-0.30078068	dolphins swam	-1.146128
-0.30078068	fish swam	-0.86530143
-0.60156155	swam around	-1.146128
-0.30078068	hanging around	-0.86530143
-0.6012272	around our	-1.146128
-0.6012272	fact our	-0.86530143
-0.95237094	with our	-0.72699875
-0.3006134	obtaining our	-0.7781512
-3.6460955	<s> boat	-0.42596874
-0.9987549	our boat	-1.146128
-2.7917707	<s> papa	-1.1856365
-4.0002294	<s> bran	-0.30103
-2.772338	<s> brawn	-1.20412
-2.8334572	<s> pretty	-1.146128
-2.7917707	<s> witty	-1.1856365
-2.5531747	<s> nine	-1.4149734
-2.8334572	<s> written	-1.146128
-2.7877367	<s> hotel	-1.1856365
-2.2556865	the hotel	-0.9294189
-2.8334572	<s> cart	-1.146128
-1.79666	the box	-1.0142405
-0.6017443	box contained	-1.146128
-0.7776777	three sweaters	-1.146128
-2.8334572	<s> bitten	-1.146128
-2.7917707	<s> lick	-1.1856365
-1.4876372	is not	-1.0934217
-1.5750711	was not	-0.42596874
-1.7515534	a program	-1.0543576
-1.7590284	of socialized	-1.2863067
-0.30087212	socialized medicine	-1.2863067
-2.8334572	<s> league	-1.146128
-2.3289745	<s> at	-1.3290588
-1.5719357	was at	-0.30103
-0.3006134	died at	-0.8239087
-0.6012272	sold at	-0.30103
-1.5534691	it eventually	-1.1856365
-0.30087212	eventually became	-1.1856365
-2.0483046	a rather	-1.1856365
-0.30087212	rather proud	-1.1856365
-0.30087212	proud claim	-1.1856365
-2.2556865	the little	-1.0280287
-0.60156155	still little	-0.30103
-0.7776777	little schoolhouse	-1.146128
-0.30087212	schoolhouse stood	-1.146128
-1.6570598	and empty	-0.66900676
-0.30078068	stood empty	-1.146128
-2.8290188	<s> students	-1.146128
-0.60156155	keep students	-0.86530143
-0.6017443	students watched	-1.146128
-1.2007983	me out	-0.90309
-1.0766876	got out	-1.146128
-0.90142596	things out	-0.72699875
-0.6012272	fell out	-0.42596874
-2.7917707	<s> kitten	-1.1856365
-2.8334572	<s> sitting	-1.146128
-2.8334572	<s> rich	-1.146128
-2.5200503	<s> seven	-1.447158
-2.187513	<s> leak	-1.7732987
-0.9024587	both injuries	-1.2552725
-2.2640038	the same	-1.2552725
-0.30087212	same leg	-1.2552725
-2.8334572	<s> hark	-1.146128
-2.2556865	the job	-1.0280287
-1.1443859	good job	-0.86530143
-0.6017443	provides many	-1.1856365
-0.30087212	many benefits	-1.1856365
-2.2640038	the museum	-1.146128
-0.30087212	museum hires	-1.146128
-0.30078068	hires musicians	-1.146128
-0.60156155	those musicians	-1
-0.60094714	musicians every	-1.146128
-0.30047318	review every	-1.146128
-0.30047318	early every	-0.86530143
-0.30047318	loved every	-0.8239087
-0.30047318	meals every	-0.66900676
-0.9992111	every evening	-1.146128
-2.5418503	<s> eight	-1.4259686
-2.8334572	<s> echo	-1.146128
-2.8334572	<s> top	-1.146128
-2.8334572	<s> quebec	-1.146128
-2.8334572	<s> mike	-1.146128
-2.8334572	<s> lima	-1.146128
-1.2021296	she wore	-1.1856365
-0.30078068	prowler wore	-0.7781512
-0.7776777	warm fleecy	-1.1856365
-0.30087212	fleecy woolen	-1.1856365
-0.30087212	woolen overalls	-1.1856365
-2.7537374	<s> vat	-1.2218487
-2.8334572	<s> before	-1.146128
-0.30087212	before thursdays	-1.146128
-0.30087212	thursdays exam	-1.146128
-0.30087212	exam review	-1.146128
-0.9992111	every formula	-1.146128
-2.6281264	<s> blow	-1.3424227
-2.8512444	<s> had	-1.1026623
-1.7712892	i had	-0.72699875
-1.6470038	we had	-0.30103
-1.3719205	have had	-1.146128
-0.30033305	finger had	-0.72699875
-0.30033305	kat had	-0.30103
-1.2028584	my bell	-1.146128
-0.30087212	bell rung	-1.146128
-2.8144042	<s> day	-1.146128
-1.1996853	one day	-0.90309
-0.60094714	after day	-1.146128
-0.997223	every day	-0.66900676
-0.30047318	twelfth day	-0.86530143
-2.761503	<s> some	-0.90309
-1.6532757	and some	-0.42596874
-0.997921	day some	-1.146128
-0.6012272	definitely some	-0.86530143
-2.2532556	the new	-0.66900676
-1.5745628	was new	-1
-0.99862003	some new	-1.146128
-0.7776777	new episode	-1.146128
-1.7876796	is reported	-1.146128
-2.8290188	<s> heart	-1.146128
-0.60156155	took heart	-0.66900676
-2.812114	<s> kilo	-1.1663314
-2.8334572	<s> knitting	-1.146128
-2.8334572	<s> foxtrot	-1.146128
-1.6199454	he further	-1.20412
-0.30087212	further proposed	-1.20412
-0.30087212	proposed grants	-1.20412
-1.3783202	an unspecified	-1.20412
-0.30087212	unspecified sum	-1.20412
-1.6591406	for experimental	-1.20412
-0.30087212	experimental hospitals	-1.20412
-2.7917707	<s> spain	-1.1856365
-2.4892745	<s> fill	-1.1760912
-2.7537374	<s> loyal	-1.2218487
-2.8334572	<s> barn	-1.146128
-4.0002294	<s> bite	-0.30103
-2.0483046	a roll	-1.1856365
-1.7590284	of wire	-1.1856365
-0.30087212	wire lay	-1.1856365
-3.6460955	<s> wall	-0.42596874
-2.2556865	the wall	-1.1856365
-2.7917707	<s> thorn	-1.1856365
-2.7537374	<s> harm	-1.2218487
-2.8334572	<s> harp	-1.146128
-1.6199454	he wrapped	-1.1856365
-2.2640038	the package	-1.1856365
-0.30087212	package hastily	-1.1856365
-2.5418503	<s> chop	-1.4259686
-2.827714	<s> start	-1.146128
-2.2532556	the start	-0.86530143
-0.99862003	our start	-0.66900676
-1.6591406	we rode	-1.146128
-0.30087212	rode horseback	-1.146128
-2.2640038	the farm	-1.146128
-2.7917707	<s> juliet	-1.1856365
-2.2640038	the books	-1.1856365
-1.5693244	be very	-0.90309
-1.3735762	were very	-0.9378521
-1.5693244	are very	-1.1856365
-1.5693244	was very	-0.7781512
-0.77648294	played very	-0.8239087
-1.0782347	very expensive	-1.1856365
-2.7877367	<s> did	-0.8846066
-0.30078068	unit did	-0.86530143
-0.7776777	did dad	-1.0280287
-3.2251399	<s> academic	-0.7781512
-1.1443859	do academic	-1.0280287
-0.6017443	academic bidding	-1.0280287
-1.1443859	good attitude	-1.0280287
-0.30078068	upbeat attitude	-0.30103
-1.7876796	is unbeatable	-1.0280287
-2.702286	<s> dread	-1.2710668
-3.0222888	<s> shell	-0.97003675
-2.5418503	<s> sin	-1.4259686
-2.9311764	<s> ticker	-1.0543576
-2.2640038	the prospect	-1.0543576
-1.7590284	of cutting	-1.0543576
-0.7776777	back spending	-1.0543576
-1.3783202	an unpleasant	-1.0543576
-3.2423837	<s> any	-0.72699875
-1.9309218	to any	-0.86530143
-1.3553672	for any	-0.845098
-1.5463876	it any	-0.66900676
-0.77648294	make any	-0.86530143
-1.0782347	any governor	-1.0543576
-2.8290188	<s> each	-0.845098
-0.30078068	challenge each	-0.66900676
-1.2028584	one volunteered	-1.0543576
-1.9475042	to jump	-1.0543576
-2.2532556	the first	-0.97003675
-0.99862003	at first	-0.30103
-0.30075368	jump first	-1.0543576
-2.9311764	<s> uniform	-1.0543576
-0.7776777	hotel owner	-0.80618
-0.6017443	owner shrugged	-0.97003675
-2.9046094	<s> tin	-1.0791812
-2.8795743	<s> wicked	-1.1026623
-2.2640038	the pair	-1
-1.7590284	of shoes	-1
-2.9897473	<s> zip	-1
-1.6088426	he really	-1.1026623
-1.7719542	is really	-0.86530143
-1.5667286	was really	-0.30103
-0.30033305	wed really	-0.90309
-0.30033305	nobody really	-1.0280287
-0.30033305	seemed really	-0.42596874
-1.0782347	really crucified	-0.8808136
-1.3205642	he nailed	-1.1026623
-2.0483046	a yard	-1.1026623
-0.30087212	yard loss	-1.1026623
-2.9311764	<s> slicker	-1.0543576
-3.1288354	<s> who	-0.86530143
-0.9987549	people who	-1.0280287
-0.6017443	who value	-1.0280287
-0.30087212	value themselves	-1.0280287
-1.5767933	are lifes	-1.0280287
-0.30087212	lifes winners	-1.0280287
-2.2640038	the owners	-0.97003675
-0.30087212	owners regularly	-0.97003675
-3.1714392	<s> look	-0.8239087
-0.30075368	regularly look	-0.97003675
-0.60150754	didnt look	-0.8239087
-1.6591406	for plumbing	-0.97003675
-3.2826998	<s> leaks	-0.72699875
-0.30078068	plumbing leaks	-0.97003675
-2.9897473	<s> nest	-1
-3.0222888	<s> xray	-0.97003675
-3.0222888	<s> lock	-0.97003675
-2.9535527	<s> sand	-1.0280287
-0.60156155	black sand	-0.8239087
-2.9897473	<s> bitter	-1
-2.9311764	<s> ham	-1.0543576
-3.013449	<s> im	-0.97003675
-0.60150754	think im	-0.86530143
-0.60150754	now im	-0.86530143
-0.7776777	im willing	-0.97003675
-1.9475042	to experiment	-0.97003675
-2.9046094	<s> although	-1.0791812
-0.30087212	although always	-0.9542425
-0.60156155	always alone	-1.0543576
-0.60156155	come alone	-0.72699875
-1.6591406	we survive	-1.0543576
-1.3783202	an excellent	-1.0543576
-0.30087212	excellent team	-1.0543576
-3.0222888	<s> nut	-0.97003675
-3.0154517	<s> please	-0.97003675
-1.6180438	you please	-0.30103
-0.6017443	please open	-0.97003675
-2.2640038	the window	-0.97003675
-0.30087212	window quickly	-0.97003675
-1.4889992	is definitely	-0.9378521
-2.0483046	a notch	-1
-2.9594753	<s> victor	-1.0280287
-3.0957484	<s> zulu	-0.90309
