\data\
ngram 1=1275
ngram 2=2576
ngram 3=2134

\1-grams:
-3.4418013	<unk>	0
0	<s>	-1.0990983
-0.58421737	</s>	0
-3.3605704	sheet	-0.30103
-3.3605704	left	-0.30103
-3.3605704	air	-0.30103
-3.3605704	torn	-0.30103
-3.3605704	born	-0.30103
-3.3605704	sticks	-0.30103
-3.3605704	storm	-0.30103
-3.3605704	rage	-0.30103
-3.3605704	beat	-0.30103
-3.3605704	swarm	-0.30103
-3.3605704	usually	-0.30103
-3.3605704	minus	-0.30103
-3.1835458	several	-0.30103
-3.3605704	buttons	-0.30103
-3.1835458	store	-0.30103
-2.8078747	no	-0.30103
-3.3605704	grandfather	-0.30103
-3.3605704	likes	-0.30103
-1.8923092	to	-0.30103
-2.410541	be	-0.30103
-3.3605704	modern	-0.30103
-2.2645288	in	-0.3290587
-3.1835458	his	-0.30103
-3.3605704	language	-0.30103
-3.3605704	tip	-0.30103
-3.3605704	dug	-0.30103
-3.1835458	grow	-0.30103
-3.107896	two	-0.30103
-3.3605704	but	-0.30103
-2.6321204	he	-0.30103
-3.1835458	always	-0.30103
-3.3605704	answers	-0.30103
-3.3605704	banana	-0.30103
-3.3605704	oil	-0.30103
-3.3605704	rake	-0.30103
-3.3605704	glow	-0.30103
-3.3605704	horn	-0.30103
-3.3605704	yes	-0.30103
-1.8426347	the	-0.30103
-3.1835458	quick	-0.30103
-3.1835458	brown	-0.30103
-3.3605704	fox	-0.30103
-3.3605704	jumps	-0.30103
-3.3605704	over	-0.30103
-3.3605704	lazy	-0.30103
-3.3605704	dog	-0.30103
-3.3605704	feed	-0.30103
-3.1835458	rain	-0.30103
-3.3605704	corn	-0.30103
-3.1835458	right	-0.30103
-3.3605704	feet	-0.30103
-3.3605704	ship	-0.30103
-3.3605704	form	-0.30103
-2.1319792	for	-0.30103
-3.3605704	train	-0.30103
-3.3605704	pat	-0.30103
-2.7111669	we	-0.30103
-2.5652697	have	-0.30103
-3.107896	often	-0.30103
-3.3605704	urged	-0.30103
-2.932477	him	-0.30103
-3.1835458	walk	-0.30103
-2.932477	more	-0.30103
-2.068339	and	-0.30103
-3.3605704	smoke	-0.30103
-3.3605704	less	-0.30103
-2.932477	one	-0.30103
-3.107896	down	-0.30103
-3.3605704	meat	-0.30103
-3.3605704	farm	-0.30103
-3.3605704	sleep	-0.30103
-3.3605704	both	-0.30103
-3.3605704	figures	-0.30103
-3.3605704	would	-0.30103
-3.1835458	go	-0.30103
-3.3605704	higher	-0.30103
-3.107896	later	-0.30103
-3.107896	years	-0.30103
-3.3605704	troop	-0.30103
-3.3605704	wish	-0.30103
-3.3605704	ate	-0.30103
-3.3605704	hear	-0.30103
-3.3605704	pot	-0.30103
-3.1835458	white	-0.30103
-3.3605704	mother	-0.30103
-3.3605704	sews	-0.30103
-3.3605704	yellow	-0.30103
-3.3605704	gingham	-0.30103
-3.3605704	aprons	-0.30103
-2.932477	i	-0.30103
-3.107896	just	-0.30103
-3.1835458	try	-0.30103
-2.932477	do	-0.30103
-2.7111669	my	-0.30103
-3.3605704	best	-0.30103
-3.1835458	deer	-0.30103
-3.3605704	group	-0.30103
-3.3605704	cheer	-0.30103
-3.3605704	thigh	-0.30103
-3.3605704	coupe	-0.30103
-3.1835458	write	-0.30103
-3.3605704	area	-0.30103
-3.3605704	steer	-0.30103
-3.3605704	tile	-0.30103
-3.3605704	select	-0.30103
-3.3605704	forward	-0.30103
-3.3605704	sister	-0.30103
-3.3605704	made	-0.30103
-3.3605704	flowered	-0.30103
-3.3605704	curtains	-0.30103
-3.1835458	three	-0.30103
-3.107896	much	-0.30103
-3.3605704	hate	-0.30103
-3.3605704	whoop	-0.30103
-3.3605704	side	-0.30103
-2.932477	got	-0.30103
-3.3605704	wet	-0.30103
-3.3605704	shoot	-0.30103
-3.3605704	slay	-0.30103
-3.1835458	play	-0.30103
-2.7111669	all	-0.30103
-2.8078747	big	-0.30103
-3.3605704	baseball	-0.30103
-3.3605704	players	-0.30103
-3.107896	get	-0.30103
-3.3605704	traded	-0.30103
-3.3605704	scrubbed	-0.30103
-3.3605704	floors	-0.30103
-3.3605704	thoroughly	-0.30103
-3.3605704	boot	-0.30103
-3.3605704	rocks	-0.30103
-3.3605704	witch	-0.30103
-3.3605704	galore	-0.30103
-3.3605704	delta	-0.30103
-3.3605704	she	-0.30103
-2.1802588	is	-0.3187588
-3.3605704	thinner	-0.30103
-3.107896	than	-0.30103
-3.3605704	am	-0.30103
-3.3605704	nothing	-0.30103
-2.8078747	as	-0.30103
-3.1835458	offensive	-0.30103
-3.3605704	innocence	-0.30103
-3.3605704	menu	-0.30103
-3.3605704	peer	-0.30103
-3.3605704	lip	-0.30103
-3.3605704	gathered	-0.30103
-3.3605704	shells	-0.30103
-2.5652697	on	-0.42596874
-3.3605704	beach	-0.30103
-3.3605704	mere	-0.30103
-3.3605704	pad	-0.30103
-3.3605704	their	-0.30103
-3.1835458	house	-0.30103
-3.3605704	grey	-0.30103
-3.3605704	urgent	-0.30103
-3.1835458	four	-0.30103
-3.107896	night	-0.30103
-3.3605704	after	-0.30103
-2.7111669	they	-0.30103
-3.3605704	received	-0.30103
-3.3605704	annoying	-0.30103
-3.107896	phone	-0.30103
-3.1835458	calls	-0.30103
-3.3605704	november	-0.30103
-3.3605704	alfalfa	-0.30103
-3.3605704	healthy	-0.30103
-2.3314273	you	-0.30103
-3.3605704	mush	-0.30103
-3.3605704	oscar	-0.30103
-3.1835458	sell	-0.30103
-3.1835458	five	-0.30103
-3.3605704	pit	-0.30103
-3.3605704	zero	-0.30103
-3.3605704	fat	-0.30103
-3.3605704	darn	-0.30103
-3.1835458	expect	-0.30103
-2.7111669	well	-0.30103
-3.3605704	bounce	-0.30103
-3.3605704	back	-0.30103
-2.932477	this	-0.30103
-3.3605704	week	-0.30103
-3.3605704	six	-0.30103
-3.1835458	when	-0.30103
-3.3605704	else	-0.30103
-3.3605704	fails	-0.30103
-3.3605704	use	-0.30103
-3.3605704	force	-0.30103
-3.3605704	hat	-0.30103
-3.3605704	seed	-0.30103
-3.3605704	pitting	-0.30103
-2.4562538	it	-0.30103
-2.932477	also	-0.30103
-3.1835458	provides	-0.30103
-3.3605704	funds	-0.30103
-3.3605704	clear	-0.30103
-3.3605704	slums	-0.30103
-3.107896	help	-0.30103
-3.3605704	colleges	-0.30103
-3.3605704	build	-0.30103
-3.3605704	dormitories	-0.30103
-3.3605704	bloat	-0.30103
-2.410541	was	-0.30103
-1.9056693	a	-0.3098039
-3.107896	good	-0.30103
-3.107896	win	-0.30103
-3.3605704	us	-0.30103
-3.1835458	has	-0.30103
-3.3605704	been	-0.30103
-3.1835458	done	-0.30103
-3.107896	yet	-0.30103
-3.107896	take	-0.30103
-3.3605704	advantage	-0.30103
-2.068339	of	-0.3187588
-3.3605704	enabling	-0.30103
-3.3605704	legislation	-0.30103
-3.3605704	aluminum	-0.30103
-3.3605704	silverware	-0.30103
-2.3691852	can	-0.41497335
-3.3605704	flimsy	-0.30103
-3.3605704	shy	-0.30103
-3.3605704	cake	-0.30103
-3.3605704	period	-0.30103
-3.3605704	transition	-0.30103
-2.7111669	me	-0.30103
-2.932477	there	-0.30103
-3.3605704	treehouse	-0.30103
-2.8078747	up	-0.30103
-3.1835458	above	-0.30103
-3.3605704	nine	-0.30103
-3.1835458	not	-0.30103
-3.3605704	program	-0.30103
-3.3605704	socialized	-0.30103
-3.3605704	medicine	-0.30103
-3.3605704	league	-0.30103
-2.932477	at	-0.30103
-3.3605704	eventually	-0.30103
-3.3605704	became	-0.30103
-3.3605704	rather	-0.30103
-3.3605704	proud	-0.30103
-3.3605704	claim	-0.30103
-3.3605704	seven	-0.30103
-3.3605704	leak	-0.30103
-3.3605704	injuries	-0.30103
-2.6321204	were	-0.30103
-3.3605704	same	-0.30103
-3.3605704	leg	-0.30103
-3.1835458	job	-0.30103
-3.3605704	many	-0.30103
-3.3605704	benefits	-0.30103
-3.3605704	eight	-0.30103
-3.3605704	top	-0.30103
-3.3605704	lima	-0.30103
-3.3605704	vat	-0.30103
-3.3605704	blow	-0.30103
-3.3605704	spain	-0.30103
-3.3605704	fill	-0.30103
-3.3605704	roll	-0.30103
-3.3605704	wire	-0.30103
-3.3605704	lay	-0.30103
-3.3605704	near	-0.30103
-3.1835458	wall	-0.30103
-3.3605704	harm	-0.30103
-3.3605704	wrapped	-0.30103
-3.3605704	package	-0.30103
-3.3605704	hastily	-0.30103
-3.3605704	chop	-0.30103
-3.3605704	books	-0.30103
-2.2966912	are	-0.30103
-2.8078747	very	-0.30103
-3.3605704	expensive	-0.30103
-3.1835458	did	-0.30103
-3.3605704	dad	-0.30103
-3.1835458	academic	-0.30103
-3.3605704	bidding	-0.30103
-3.3605704	shell	-0.30103
-3.3605704	sin	-0.30103
-3.3605704	ticker	-0.30103
-3.3605704	tin	-0.30103
-3.3605704	pair	-0.30103
-3.3605704	shoes	-0.30103
-3.1835458	new	-0.30103
-2.8078747	really	-0.30103
-3.3605704	crucified	-0.30103
-3.3605704	nailed	-0.30103
-3.3605704	yard	-0.30103
-3.3605704	loss	-0.30103
-2.932477	people	-0.30103
-3.1835458	who	-0.30103
-3.3605704	value	-0.30103
-3.3605704	themselves	-0.30103
-3.3605704	lifes	-0.30103
-3.3605704	winners	-0.30103
-3.3605704	owners	-0.30103
-3.3605704	regularly	-0.30103
-3.107896	look	-0.30103
-3.3605704	plumbing	-0.30103
-3.1835458	leaks	-0.30103
-3.3605704	xray	-0.30103
-3.3605704	lock	-0.30103
-3.1835458	sand	-0.30103
-3.3605704	ham	-0.30103
-3.107896	im	-0.30103
-3.3605704	willing	-0.30103
-3.3605704	experiment	-0.30103
-3.1835458	first	-0.30103
-3.1835458	time	-0.30103
-3.3605704	although	-0.30103
-3.1835458	alone	-0.30103
-3.3605704	survive	-0.30103
-2.6321204	an	-0.30103
-3.3605704	excellent	-0.30103
-3.3605704	team	-0.30103
-3.3605704	nut	-0.30103
-3.1835458	please	-0.30103
-3.3605704	open	-0.30103
-3.3605704	window	-0.30103
-3.3605704	quickly	-0.30103
-3.3605704	dresses	-0.30103
-3.1835458	himself	-0.30103
-3.3605704	ancient	-0.30103
-3.1835458	black	-0.30103
-3.3605704	frock	-0.30103
-3.1835458	coat	-0.30103
-2.6321204	will	-0.30103
-3.3605704	allow	-0.30103
-3.3605704	rare	-0.30103
-3.3605704	lie	-0.30103
-3.3605704	zulu	-0.30103
-3.107896	its	-0.30103
-3.3605704	fun	-0.30103
-3.3605704	roast	-0.30103
-3.3605704	marshmallows	-0.30103
-2.932477	gas	-0.30103
-3.3605704	burner	-0.30103
-3.3605704	wait	-0.30103
-3.1835458	work	-0.30103
-3.3605704	long	-0.30103
-3.3605704	whitecapped	-0.30103
-3.3605704	waves	-0.30103
-3.3605704	covered	-0.30103
-3.3605704	entire	-0.30103
-3.3605704	bay	-0.30103
-3.3605704	then	-0.30103
-3.3605704	wed	-0.30103
-3.3605704	someplace	-0.30103
-3.3605704	bed	-0.30103
-3.3605704	flicker	-0.30103
-3.3605704	bread	-0.30103
-3.3605704	want	-0.30103
-3.3605704	sicker	-0.30103
-3.3605704	greg	-0.30103
-3.3605704	pick	-0.30103
-3.3605704	peck	-0.30103
-3.3605704	potatoes	-0.30103
-3.3605704	fork	-0.30103
-3.107896	said	-0.30103
-3.3605704	calico	-0.30103
-3.1835458	cat	-0.30103
-3.1835458	keep	-0.30103
-3.3605704	took	-0.30103
-3.107896	out	-0.30103
-3.107896	day	-0.30103
-3.1835458	only	-0.30103
-3.3605704	lawyers	-0.30103
-3.3605704	love	-0.30103
-3.3605704	millionaires	-0.30103
-3.3605704	litter	-0.30103
-3.3605704	sink	-0.30103
-3.3605704	red	-0.30103
-3.3605704	ned	-0.30103
-3.3605704	sit	-0.30103
-3.3605704	being	-0.30103
-3.1835458	able	-0.30103
-3.3605704	dance	-0.30103
-3.1835458	too	-0.30103
-3.3605704	hand	-0.30103
-3.3605704	rest	-0.30103
-3.3605704	those	-0.30103
-3.3605704	musicians	-0.30103
-3.3605704	harmonize	-0.30103
-3.3605704	marvelously	-0.30103
-3.1835458	most	-0.30103
-3.1835458	young	-0.30103
-3.1835458	rise	-0.30103
-3.3605704	early	-0.30103
-3.107896	every	-0.30103
-3.3605704	morning	-0.30103
-3.1835458	bought	-0.30103
-3.3605704	chair	-0.30103
-3.1835458	quicker	-0.30103
-3.3605704	romeo	-0.30103
-3.3605704	travel	-0.30103
-2.8078747	about	-0.30103
-3.3605704	leisure	-0.30103
-3.3605704	nod	-0.30103
-3.107896	place	-0.30103
-3.3605704	though	-0.30103
-3.3605704	small	-0.30103
-3.3605704	liquor	-0.30103
-3.3605704	beg	-0.30103
-2.7111669	that	-0.30103
-3.3605704	guard	-0.30103
-3.3605704	gallon	-0.30103
-3.107896	ride	-0.30103
-3.3605704	stagecoach	-0.30103
-3.3605704	neat	-0.30103
-3.3605704	dead	-0.30103
-3.3605704	wit	-0.30103
-3.3605704	called	-0.30103
-3.3605704	different	-0.30103
-3.3605704	painters	-0.30103
-3.3605704	stimulating	-0.30103
-3.3605704	discussions	-0.30103
-3.3605704	students	-0.30103
-3.3605704	attention	-0.30103
-3.3605704	celebrate	-0.30103
-2.8078747	your	-0.30103
-3.1835458	brothers	-0.30103
-3.3605704	success	-0.30103
-3.3605704	lake	-0.30103
-3.3605704	thread	-0.30103
-3.107896	dont	-0.30103
-3.3605704	charlies	-0.30103
-3.3605704	dirty	-0.30103
-3.3605704	dishes	-0.30103
-3.3605704	sew	-0.30103
-3.3605704	sort	-0.30103
-3.3605704	catch	-0.30103
-3.107896	played	-0.30103
-3.1835458	basketball	-0.30103
-3.3605704	while	-0.30103
-3.1835458	working	-0.30103
-3.3605704	toward	-0.30103
-3.3605704	law	-0.30103
-3.3605704	degree	-0.30103
-3.3605704	coconut	-0.30103
-3.3605704	cream	-0.30103
-3.3605704	pie	-0.30103
-3.107896	makes	-0.30103
-3.3605704	nice	-0.30103
-3.3605704	dessert	-0.30103
-3.3605704	selected	-0.30103
-3.3605704	places	-0.30103
-3.1835458	where	-0.30103
-3.3605704	families	-0.30103
-3.3605704	welcome	-0.30103
-3.3605704	cakes	-0.30103
-3.3605704	bill	-0.30103
-3.3605704	accomplished	-0.30103
-3.3605704	artists	-0.30103
-3.3605704	obtain	-0.30103
-3.3605704	popularity	-0.30103
-3.1835458	short	-0.30103
-3.3605704	shin	-0.30103
-3.107896	some	-0.30103
-3.3605704	prefer	-0.30103
-3.3605704	traditional	-0.30103
-3.3605704	steel	-0.30103
-3.3605704	kind	-0.30103
-3.3605704	cork	-0.30103
-3.1835458	old	-0.30103
-3.3605704	weep	-0.30103
-3.3605704	biblical	-0.30103
-3.3605704	scholars	-0.30103
-3.3605704	argue	-0.30103
-3.3605704	history	-0.30103
-3.3605704	rid	-0.30103
-3.3605704	quart	-0.30103
-3.3605704	shot	-0.30103
-3.3605704	definitely	-0.30103
-3.3605704	ligament	-0.30103
-3.3605704	damage	-0.30103
-3.3605704	knee	-0.30103
-3.3605704	sheep	-0.30103
-3.3605704	snort	-0.30103
-3.3605704	pork	-0.30103
-3.1835458	fact	-0.30103
-3.107896	our	-0.30103
-3.3605704	whole	-0.30103
-3.3605704	defensive	-0.30103
-3.3605704	unit	-0.30103
-3.3605704	sketch	-0.30103
-3.3605704	knows	-0.30103
-3.107896	what	-0.30103
-3.3605704	youll	-0.30103
-3.3605704	discover	-0.30103
-3.3605704	yourself	-0.30103
-3.3605704	blend	-0.30103
-3.3605704	shed	-0.30103
-3.1835458	looked	-0.30103
-3.3605704	identical	-0.30103
-3.1835458	critical	-0.30103
-3.3605704	equipment	-0.30103
-3.107896	needs	-0.30103
-3.3605704	proper	-0.30103
-3.3605704	maintenance	-0.30103
-3.3605704	see	-0.30103
-3.3605704	shop	-0.30103
-3.1835458	heat	-0.30103
-3.3605704	suddenly	-0.30103
-3.3605704	reflexes	-0.30103
-3.3605704	gone	-0.30103
-3.3605704	gill	-0.30103
-3.3605704	show	-0.30103
-3.1835458	read	-0.30103
-3.3605704	results	-0.30103
-3.3605704	disappointing	-0.30103
-3.3605704	tug	-0.30103
-3.3605704	cash	-0.30103
-3.3605704	stretch	-0.30103
-3.3605704	steak	-0.30103
-3.3605704	ray	-0.30103
-3.3605704	fort	-0.30103
-3.3605704	lee	-0.30103
-3.3605704	hold	-0.30103
-3.3605704	ive	-0.30103
-3.3605704	kept	-0.30103
-2.50735	with	-0.30103
-3.3605704	ever	-0.30103
-3.3605704	since	-0.30103
-3.3605704	thats	-0.30103
-3.107896	life	-0.30103
-3.3605704	shred	-0.30103
-3.3605704	sight	-0.30103
-3.3605704	fish	-0.30103
-3.3605704	swam	-0.30103
-3.3605704	across	-0.30103
-3.3605704	pond	-0.30103
-3.3605704	doesnt	-0.30103
-3.107896	like	-0.30103
-3.3605704	hanging	-0.30103
-3.3605704	around	-0.30103
-3.3605704	tort	-0.30103
-3.3605704	meats	-0.30103
-3.3605704	precious	-0.30103
-3.1835458	eat	-0.30103
-3.1835458	sport	-0.30103
-3.3605704	participate	-0.30103
-3.3605704	athletic	-0.30103
-3.3605704	activities	-0.30103
-3.3605704	trespassers	-0.30103
-3.3605704	prosecuted	-0.30103
-3.3605704	fined	-0.30103
-3.3605704	etiquette	-0.30103
-3.3605704	mandates	-0.30103
-3.3605704	compliance	-0.30103
-3.3605704	existing	-0.30103
-3.3605704	regulations	-0.30103
-3.3605704	touchdown	-0.30103
-3.3605704	resulted	-0.30103
-3.1835458	little	-0.30103
-3.3605704	girls	-0.30103
-3.3605704	cut	-0.30103
-3.3605704	lacy	-0.30103
-3.3605704	valentines	-0.30103
-3.3605704	geese	-0.30103
-3.3605704	mill	-0.30103
-3.3605704	barbs	-0.30103
-3.1835458	gold	-0.30103
-3.3605704	bracelet	-0.30103
-3.3605704	graduation	-0.30103
-3.3605704	present	-0.30103
-3.3605704	reap	-0.30103
-3.3605704	dill	-0.30103
-3.3605704	lend	-0.30103
-3.3605704	foe	-0.30103
-3.3605704	asked	-0.30103
-3.3605704	loan	-0.30103
-3.1835458	make	-0.30103
-2.8078747	any	-0.30103
-3.1835458	money	-0.30103
-3.3605704	toe	-0.30103
-3.3605704	threat	-0.30103
-3.3605704	port	-0.30103
-3.3605704	scream	-0.30103
-3.3605704	warm	-0.30103
-3.3605704	voice	-0.30103
-3.3605704	rip	-0.30103
-3.3605704	wise	-0.30103
-3.1835458	think	-0.30103
-3.1835458	full	-0.30103
-3.3605704	stuff	-0.30103
-3.3605704	bend	-0.30103
-3.3605704	muck	-0.30103
-3.3605704	snake	-0.30103
-3.3605704	havent	-0.30103
-3.3605704	seen	-0.30103
-3.3605704	friend	-0.30103
-3.3605704	bumper	-0.30103
-3.3605704	entertaining	-0.30103
-3.3605704	ash	-0.30103
-3.1835458	fit	-0.30103
-3.3605704	sheer	-0.30103
-3.3605704	twilight	-0.30103
-3.3605704	twelfth	-0.30103
-3.3605704	chablis	-0.30103
-3.3605704	hash	-0.30103
-3.3605704	worse	-0.30103
-3.3605704	luck	-0.30103
-3.1835458	still	-0.30103
-3.1835458	come	-0.30103
-3.3605704	golfing	-0.30103
-3.3605704	fathers	-0.30103
-3.3605704	ruled	-0.30103
-3.3605704	favor	-0.30103
-3.3605704	hail	-0.30103
-3.3605704	code	-0.30103
-3.3605704	elderly	-0.30103
-3.3605704	excluded	-0.30103
-3.3605704	beam	-0.30103
-3.3605704	remains	-0.30103
-3.3605704	fiercest	-0.30103
-3.3605704	competitors	-0.30103
-3.3605704	knife	-0.30103
-3.3605704	pete	-0.30103
-3.3605704	addition	-0.30103
-3.3605704	subtraction	-0.30103
-3.3605704	learned	-0.30103
-3.3605704	skills	-0.30103
-3.1835458	found	-0.30103
-3.3605704	anywhere	-0.30103
-3.3605704	gash	-0.30103
-3.3605704	pleased	-0.30103
-3.1835458	way	-0.30103
-2.932477	things	-0.30103
-3.1835458	went	-0.30103
-3.3605704	loved	-0.30103
-3.3605704	minute	-0.30103
-3.3605704	idea	-0.30103
-3.3605704	fender	-0.30103
-3.3605704	woe	-0.30103
-3.3605704	member	-0.30103
-3.3605704	beast	-0.30103
-3.3605704	suggested	-0.30103
-3.3605704	dinner	-0.30103
-3.107896	together	-0.30103
-3.3605704	so	-0.30103
-3.107896	if	-0.30103
-3.3605704	anybody	-0.30103
-3.3605704	solicits	-0.30103
-2.8078747	by	-0.30103
-3.1835458	sure	-0.30103
-3.3605704	mail	-0.30103
-3.3605704	dough	-0.30103
-3.3605704	ambidextrous	-0.30103
-3.3605704	pickpockets	-0.30103
-3.3605704	accomplish	-0.30103
-3.3605704	guess	-0.30103
-3.3605704	wedding	-0.30103
-3.3605704	trip	-0.30103
-3.107896	her	-0.30103
-3.3605704	dark	-0.30103
-3.3605704	hair	-0.30103
-3.3605704	combed	-0.30103
-3.3605704	casually	-0.30103
-3.3605704	seam	-0.30103
-3.3605704	beep	-0.30103
-3.1835458	quite	-0.30103
-3.3605704	vocal	-0.30103
-3.3605704	requires	-0.30103
-3.3605704	investment	-0.30103
-3.3605704	pickpocket	-0.30103
-3.3605704	caught	-0.30103
-3.3605704	redhanded	-0.30103
-3.3605704	mock	-0.30103
-3.3605704	dock	-0.30103
-3.1835458	sea	-0.30103
-3.3605704	grandmother	-0.30103
-3.3605704	outgrew	-0.30103
-3.3605704	upbringing	-0.30103
-3.3605704	petticoats	-0.30103
-3.3605704	sun	-0.30103
-3.3605704	died	-0.30103
-3.3605704	ember	-0.30103
-3.3605704	seat	-0.30103
-3.3605704	food	-0.30103
-3.3605704	reef	-0.30103
-3.3605704	fire	-0.30103
-3.3605704	straw	-0.30103
-3.3605704	blaze	-0.30103
-3.3605704	sender	-0.30103
-3.3605704	classical	-0.30103
-3.3605704	performance	-0.30103
-3.3605704	gained	-0.30103
-3.3605704	acclaim	-0.30103
-3.3605704	position	-0.30103
-3.1835458	covers	-0.30103
-3.3605704	number	-0.30103
-3.3605704	daily	-0.30103
-3.3605704	tasks	-0.30103
-3.3605704	common	-0.30103
-3.3605704	social	-0.30103
-3.3605704	director	-0.30103
-3.3605704	marriage	-0.30103
-2.7111669	from	-0.30103
-3.1835458	start	-0.30103
-3.1835458	tell	-0.30103
-3.3605704	wonderful	-0.30103
-3.3605704	renter	-0.30103
-3.3605704	row	-0.30103
-3.3605704	lender	-0.30103
-3.3605704	ape	-0.30103
-3.1835458	didnt	-0.30103
-3.3605704	forks	-0.30103
-3.3605704	tender	-0.30103
-3.3605704	tea	-0.30103
-3.3605704	popular	-0.30103
-3.3605704	fans	-0.30103
-3.3605704	timber	-0.30103
-3.3605704	leap	-0.30103
-3.3605704	catastrophic	-0.30103
-3.3605704	economic	-0.30103
-3.3605704	cutbacks	-0.30103
-3.3605704	neglect	-0.30103
-3.3605704	poor	-0.30103
-3.3605704	tail	-0.30103
-3.3605704	bender	-0.30103
-3.3605704	ache	-0.30103
-3.3605704	center	-0.30103
-3.3605704	mom	-0.30103
-3.3605704	strongly	-0.30103
-3.3605704	dislikes	-0.30103
-3.3605704	appetizers	-0.30103
-3.3605704	beef	-0.30103
-3.3605704	temper	-0.30103
-2.8078747	had	-0.30103
-3.3605704	desire	-0.30103
-3.3605704	change	-0.30103
-3.3605704	ways	-0.30103
-3.3605704	wax	-0.30103
-3.3605704	pet	-0.30103
-3.3605704	aid	-0.30103
-3.3605704	knock	-0.30103
-3.3605704	lies	-0.30103
-3.3605704	cheese	-0.30103
-3.3605704	hatch	-0.30103
-3.3605704	lack	-0.30103
-3.3605704	compounded	-0.30103
-3.3605704	tenants	-0.30103
-3.1835458	grievances	-0.30103
-3.3605704	bunch	-0.30103
-3.3605704	contributions	-0.30103
-3.3605704	greatly	-0.30103
-3.3605704	appreciated	-0.30103
-3.3605704	ease	-0.30103
-3.3605704	add	-0.30103
-3.3605704	chocolate	-0.30103
-3.3605704	roses	-0.30103
-3.1835458	never	-0.30103
-3.3605704	fail	-0.30103
-3.3605704	romantic	-0.30103
-3.3605704	gift	-0.30103
-3.3605704	legislature	-0.30103
-3.3605704	met	-0.30103
-3.1835458	judge	-0.30103
-3.3605704	state	-0.30103
-3.3605704	public	-0.30103
-3.3605704	education	-0.30103
-3.3605704	largest	-0.30103
-3.3605704	states	-0.30103
-3.3605704	peas	-0.30103
-3.3605704	bun	-0.30103
-3.3605704	punch	-0.30103
-3.3605704	ail	-0.30103
-3.3605704	begin	-0.30103
-3.3605704	trying	-0.30103
-3.3605704	speak	-0.30103
-3.3605704	tall	-0.30103
-3.3605704	range	-0.30103
-3.3605704	vital	-0.30103
-3.3605704	detail	-0.30103
-3.3605704	pill	-0.30103
-3.3605704	racks	-0.30103
-3.3605704	structures	-0.30103
-3.3605704	housing	-0.30103
-3.3605704	apartments	-0.30103
-3.3605704	masonry	-0.30103
-3.3605704	frame	-0.30103
-3.3605704	construction	-0.30103
-3.3605704	aches	-0.30103
-3.3605704	lit	-0.30103
-3.3605704	singers	-0.30103
-3.3605704	finger	-0.30103
-3.3605704	splinter	-0.30103
-3.3605704	now	-0.30103
-3.3605704	living	-0.30103
-3.3605704	exactly	-0.30103
-3.3605704	choose	-0.30103
-3.3605704	duck	-0.30103
-3.3605704	arm	-0.30103
-3.3605704	wanted	-0.30103
-3.3605704	actress	-0.30103
-3.1835458	fell	-0.30103
-3.3605704	aptitude	-0.30103
-3.3605704	guarantees	-0.30103
-3.3605704	diploma	-0.30103
-3.3605704	charm	-0.30103
-3.3605704	great	-0.30103
-3.3605704	meeting	-0.30103
-3.3605704	prepared	-0.30103
-3.3605704	odd	-0.30103
-3.3605704	behavior	-0.30103
-3.3605704	friends	-0.30103
-3.3605704	mile	-0.30103
-3.3605704	rakes	-0.30103
-3.3605704	talked	-0.30103
-3.3605704	situation	-0.30103
-3.1835458	other	-0.30103
-3.3605704	items	-0.30103
-3.3605704	fear	-0.30103
-3.107896	sat	-0.30103
-3.3605704	relaxed	-0.30103
-3.3605704	hall	-0.30103
-3.3605704	sake	-0.30103
-3.1835458	know	-0.30103
-3.3605704	coming	-0.30103
-3.3605704	pockets	-0.30103
-3.3605704	hell	-0.30103
-3.1835458	them	-0.30103
-3.3605704	box	-0.30103
-3.3605704	plot	-0.30103
-3.3605704	laced	-0.30103
-3.3605704	mysterious	-0.30103
-3.3605704	incidents	-0.30103
-3.3605704	shelled	-0.30103
-3.3605704	clams	-0.30103
-3.3605704	chowder	-0.30103
-3.3605704	experience	-0.30103
-3.3605704	distress	-0.30103
-3.3605704	frustration	-0.30103
-3.3605704	obtaining	-0.30103
-3.3605704	degrees	-0.30103
-3.3605704	ticks	-0.30103
-3.3605704	prowler	-0.30103
-3.3605704	wore	-0.30103
-3.3605704	ski	-0.30103
-3.3605704	mask	-0.30103
-3.3605704	disguise	-0.30103
-3.1835458	confirmation	-0.30103
-3.1835458	such	-0.30103
-3.3605704	massive	-0.30103
-3.3605704	assaults	-0.30103
-3.3605704	independent	-0.30103
-3.3605704	sources	-0.30103
-3.3605704	chap	-0.30103
-3.3605704	lax	-0.30103
-3.1835458	score	-0.30103
-3.3605704	munch	-0.30103
-3.3605704	added	-0.30103
-3.3605704	brought	-0.30103
-3.1835458	petty	-0.30103
-3.3605704	jealousies	-0.30103
-3.3605704	personal	-0.30103
-3.3605704	even	-0.30103
-3.3605704	simple	-0.30103
-3.3605704	vocabulary	-0.30103
-3.3605704	contains	-0.30103
-3.3605704	symbols	-0.30103
-3.3605704	end	-0.30103
-3.3605704	eastern	-0.30103
-3.3605704	coast	-0.30103
-3.3605704	pure	-0.30103
-3.1835458	pleasure	-0.30103
-3.3605704	excitement	-0.30103
-3.3605704	dial	-0.30103
-3.3605704	low	-0.30103
-3.3605704	cold	-0.30103
-3.3605704	whip	-0.30103
-3.3605704	few	-0.30103
-3.3605704	bad	-0.30103
-3.3605704	ink	-0.30103
-3.3605704	handle	-0.30103
-3.3605704	theyll	-0.30103
-3.3605704	again	-0.30103
-3.3605704	term	-0.30103
-3.3605704	wide	-0.30103
-3.3605704	drenched	-0.30103
-3.3605704	uninterrupted	-0.30103
-3.3605704	pant	-0.30103
-3.1835458	may	-0.30103
-3.1835458	hard	-0.30103
-3.1835458	find	-0.30103
-3.3605704	cable	-0.30103
-3.3605704	translated	-0.30103
-3.3605704	weve	-0.30103
-3.3605704	past	-0.30103
-3.3605704	burn	-0.30103
-3.3605704	knew	-0.30103
-3.3605704	werent	-0.30103
-3.3605704	doing	-0.30103
-3.3605704	upgrade	-0.30103
-3.3605704	status	-0.30103
-3.3605704	reflect	-0.30103
-3.3605704	wealth	-0.30103
-3.1835458	spring	-0.30103
-3.1835458	street	-0.30103
-3.3605704	straight	-0.30103
-3.3605704	ahead	-0.30103
-3.3605704	serves	-0.30103
-3.3605704	meals	-0.30103
-3.3605704	disappointed	-0.30103
-3.3605704	order	-0.30103
-3.1835458	wine	-0.30103
-3.3605704	eyes	-0.30103
-3.3605704	weave	-0.30103
-3.3605704	family	-0.30103
-3.3605704	requests	-0.30103
-3.3605704	flowers	-0.30103
-3.3605704	omitted	-0.30103
-3.3605704	wart	-0.30103
-3.3605704	wack	-0.30103
-3.1835458	needed	-0.30103
-3.3605704	dash	-0.30103
-3.3605704	heart	-0.30103
-3.3605704	snow	-0.30103
-3.3605704	blew	-0.30103
-3.1835458	into	-0.30103
-3.1835458	large	-0.30103
-3.3605704	drifts	-0.30103
-3.3605704	regular	-0.30103
-3.3605704	attendance	-0.30103
-3.3605704	seldom	-0.30103
-3.3605704	required	-0.30103
-3.3605704	ball	-0.30103
-3.1835458	myself	-0.30103
-3.3605704	last	-0.30103
-3.3605704	shortage	-0.30103
-3.3605704	caused	-0.30103
-3.3605704	steep	-0.30103
-3.3605704	price	-0.30103
-3.3605704	increases	-0.30103
-3.3605704	cars	-0.30103
-3.3605704	slightly	-0.30103
-3.3605704	damaged	-0.30103
-3.3605704	highway	-0.30103
-3.3605704	empty	-0.30103
-3.3605704	staff	-0.30103
-3.3605704	deserves	-0.30103
-3.3605704	lot	-0.30103
-3.3605704	credit	-0.30103
-3.1835458	here	-0.30103
-3.3605704	under	-0.30103
-3.3605704	real	-0.30103
-3.3605704	obstacles	-0.30103
-3.3605704	hid	-0.30103
-3.3605704	why	-0.30103
-3.3605704	luke	-0.30103
-3.3605704	fold	-0.30103
-3.3605704	pink	-0.30103
-3.3605704	waste	-0.30103
-3.3605704	raisins	-0.30103
-3.3605704	outdoors	-0.30103
-3.1835458	porch	-0.30103
-3.3605704	steps	-0.30103
-3.3605704	noted	-0.30103
-3.3605704	carefully	-0.30103
-3.1835458	through	-0.30103
-3.3605704	clean	-0.30103
-3.3605704	report	-0.30103
-3.3605704	sail	-0.30103
-3.3605704	wipe	-0.30103
-3.3605704	continental	-0.30103
-3.3605704	drift	-0.30103
-3.3605704	geological	-0.30103
-3.3605704	theory	-0.30103
-3.3605704	huge	-0.30103
-3.3605704	part	-0.30103
-3.3605704	porcupines	-0.30103
-3.3605704	resemble	-0.30103
-3.3605704	urchins	-0.30103
-3.3605704	challenge	-0.30103
-3.1835458	each	-0.30103
-3.3605704	generals	-0.30103
-3.3605704	intelligence	-0.30103
-3.3605704	wives	-0.30103
-3.3605704	cant	-0.30103
-3.3605704	abide	-0.30103
-3.3605704	mistakes	-0.30103
-3.3605704	own	-0.30103
-3.1835458	game	-0.30103
-3.3605704	docks	-0.30103
-3.3605704	pole	-0.30103
-3.3605704	stable	-0.30103
-3.3605704	hiring	-0.30103
-3.3605704	wife	-0.30103
-3.3605704	ones	-0.30103
-3.3605704	company	-0.30103
-3.3605704	taxaided	-0.30103
-3.3605704	retirement	-0.30103
-3.3605704	income	-0.30103
-3.3605704	must	-0.30103
-3.3605704	ready	-0.30103
-3.3605704	sacrifice	-0.30103
-3.3605704	ban	-0.30103
-3.3605704	trips	-0.30103
-3.3605704	page	-0.30103
-3.3605704	accordion	-0.30103
-3.3605704	paid	-0.30103
-3.3605704	sprain	-0.30103
-3.3605704	fool	-0.30103
-3.3605704	boat	-0.30103
-3.3605704	ramp	-0.30103
-3.3605704	service	-0.30103
-3.3605704	should	-0.30103
-3.3605704	rewarded	-0.30103
-3.3605704	tips	-0.30103
-3.1835458	paint	-0.30103
-3.3605704	canteen	-0.30103
-3.3605704	fresh	-0.30103
-3.1835458	water	-0.30103
-3.3605704	shook	-0.30103
-3.3605704	mat	-0.30103
-3.3605704	sap	-0.30103
-3.3605704	pain	-0.30103
-3.3605704	hides	-0.30103
-3.3605704	mayonnaise	-0.30103
-3.3605704	fall	-0.30103
-3.3605704	mall	-0.30103
-3.3605704	feel	-0.30103
-3.3605704	seemed	-0.30103
-3.3605704	appealing	-0.30103
-3.3605704	panel	-0.30103
-3.3605704	doctors	-0.30103
-3.3605704	prescribe	-0.30103
-3.3605704	drugs	-0.30103
-3.3605704	freely	-0.30103
-3.3605704	vamp	-0.30103
-3.3605704	rat	-0.30103
-3.1835458	saw	-0.30103
-3.3605704	weeks	-0.30103
-3.3605704	illegal	-0.30103
-3.3605704	postdate	-0.30103
-3.3605704	check	-0.30103
-3.3605704	space	-0.30103
-3.3605704	naval	-0.30103
-3.3605704	stall	-0.30103
-3.3605704	spade	-0.30103
-3.3605704	acting	-0.30103
-3.3605704	accident	-0.30103
-3.3605704	damp	-0.30103
-3.3605704	spray	-0.30103
-3.3605704	peach	-0.30103
-3.3605704	mabel	-0.30103
-3.3605704	told	-0.30103
-3.3605704	seriously	-0.30103
-3.3605704	injured	-0.30103
-3.3605704	because	-0.30103
-3.1835458	practical	-0.30103
-3.3605704	funnel	-0.30103
-3.3605704	tap	-0.30103
-3.3605704	name	-0.30103
-3.3605704	gently	-0.30103
-3.3605704	jims	-0.30103
-3.3605704	foam	-0.30103
-3.3605704	sculpture	-0.30103
-3.3605704	maybe	-0.30103
-3.3605704	taking	-0.30103
-3.3605704	longer	-0.30103
-3.3605704	squared	-0.30103
-3.3605704	away	-0.30103
-3.3605704	bankers	-0.30103
-3.3605704	expected	-0.30103
-3.3605704	reach	-0.30103
-3.3605704	file	-0.30103
-3.3605704	soon	-0.30103
-3.3605704	muttering	-0.30103
-3.3605704	walls	-0.30103
-3.3605704	telephone	-0.30103
-3.3605704	booths	-0.30103
-3.3605704	arent	-0.30103
-3.3605704	easy	-0.30103
-3.3605704	paste	-0.30103
-3.3605704	foil	-0.30103
-3.3605704	map	-0.30103
-3.3605704	gable	-0.30103
-3.3605704	bull	-0.30103
-3.3605704	crawl	-0.30103
-3.3605704	pale	-0.30103
-3.3605704	creature	-0.30103
-3.3605704	pocket	-0.30103
-3.3605704	married	-0.30103
-3.3605704	saddle	-0.30103
-3.3605704	bowl	-0.30103
-3.3605704	nap	-0.30103
-3.3605704	table	-0.30103
-3.3605704	sable	-0.30103
-3.3605704	fable	-0.30103
-3.3605704	mold	-0.30103
-3.3605704	mole	-0.30103
-3.3605704	impossible	-0.30103
-3.1835458	deal	-0.30103
-3.3605704	bureaucracy	-0.30103
-3.3605704	pace	-0.30103
-3.3605704	call	-0.30103
-3.3605704	describe	-0.30103
-3.3605704	idiotic	-0.30103
-3.3605704	predicament	-0.30103
-3.3605704	screech	-0.30103
-3.3605704	ladle	-0.30103
-3.3605704	bash	-0.30103
-3.3605704	room	-0.30103
-3.107896	or	-0.30103
-3.3605704	portrait	-0.30103
-3.3605704	bagpipes	-0.30103
-3.3605704	bongos	-0.30103
-3.3605704	musical	-0.30103
-3.3605704	instruments	-0.30103
-3.3605704	thought	-0.30103
-3.1835458	gin	-0.30103
-3.3605704	saws	-0.30103
-3.3605704	parts	-0.30103
-3.3605704	supplies	-0.30103
-3.3605704	used	-0.30103
-3.3605704	machinery	-0.30103
-3.3605704	final	-0.30103
-3.3605704	giggling	-0.30103
-3.3605704	owl	-0.30103
-3.3605704	cliffs	-0.30103
-3.3605704	display	-0.30103
-3.3605704	misplaced	-0.30103
-3.3605704	screen	-0.30103
-3.3605704	teach	-0.30103
-3.3605704	official	-0.30103
-3.3605704	deadline	-0.30103
-3.3605704	cannot	-0.30103
-3.3605704	postponed	-0.30103
-3.3605704	bog	-0.30103
-3.3605704	rattle	-0.30103
-3.1835458	sold	-0.30103
-3.3605704	bank	-0.30103
-3.3605704	shawl	-0.30103
-3.3605704	soul	-0.30103
-3.3605704	preach	-0.30103
-3.3605704	pull	-0.30103
-3.3605704	boone	-0.30103
-3.3605704	suppress	-0.30103
-3.3605704	wages	-0.30103
-3.3605704	key	-0.30103
-3.3605704	issue	-0.30103
-3.3605704	unfortunately	-0.30103
-3.3605704	demand	-0.30103
-3.3605704	broccoli	-0.30103
-3.3605704	cauliflower	-0.30103
-3.3605704	badger	-0.30103
-3.3605704	contrast	-0.30103
-3.3605704	household	-0.30103
-3.3605704	lots	-0.30103
-3.3605704	appliances	-0.30103
-3.3605704	grain	-0.30103
-3.3605704	paintings	-0.30103
-3.3605704	auction	-0.30103
-3.3605704	impress	-0.30103
-3.3605704	occur	-0.30103
-3.3605704	shore	-0.30103
-3.3605704	book	-0.30103
-3.3605704	bin	-0.30103
-3.3605704	weeds	-0.30103
-3.3605704	strong	-0.30103
-3.3605704	fast	-0.30103
-3.3605704	fudge	-0.30103
-3.3605704	rust	-0.30103
-3.3605704	misprint	-0.30103
-3.3605704	provoked	-0.30103
-3.3605704	immediate	-0.30103
-3.3605704	disclaimer	-0.30103
-3.3605704	contract	-0.30103
-3.3605704	limb	-0.30103
-3.3605704	musk	-0.30103
-3.3605704	rut	-0.30103
-3.3605704	serve	-0.30103
-3.3605704	grape	-0.30103
-3.3605704	intact	-0.30103
-3.3605704	picnic	-0.30103
-3.3605704	subtract	-0.30103
-3.3605704	plant	-0.30103
-3.3605704	original	-0.30103
-3.3605704	forgery	-0.30103
-3.3605704	either	-0.30103
-3.3605704	walked	-0.30103
-3.1835458	driven	-0.30103
-3.3605704	primitive	-0.30103
-3.3605704	tribes	-0.30103
-3.3605704	upbeat	-0.30103
-3.3605704	attitude	-0.30103
-3.3605704	shut	-0.30103
-3.3605704	retract	-0.30103
-3.3605704	displayed	-0.30103
-3.3605704	lamps	-0.30103
-3.3605704	puppets	-0.30103
-3.3605704	delight	-0.30103
-3.3605704	children	-0.30103
-3.3605704	decorative	-0.30103
-3.3605704	accent	-0.30103
-3.3605704	globe	-0.30103
-3.3605704	grave	-0.30103
-3.3605704	bust	-0.30103
-3.3605704	depress	-0.30103
-3.3605704	dusk	-0.30103
-3.3605704	slim	-0.30103
-3.3605704	flying	-0.30103
-3.3605704	standby	-0.30103
-3.3605704	save	-0.30103
-3.3605704	instructions	-0.30103
-3.3605704	desperately	-0.30103
-3.3605704	need	-0.30103
-3.3605704	updating	-0.30103
-3.3605704	preserve	-0.30103
-3.3605704	converge	-0.30103
-3.3605704	booth	-0.30103
-3.3605704	railroads	-0.30103
-3.3605704	future	-0.30103
-3.3605704	west	-0.30103
-3.3605704	beauty	-0.30103
-3.3605704	surrounds	-0.30103
-3.3605704	id	-0.30103
-3.3605704	put	-0.30103
-3.3605704	weight	-0.30103
-3.3605704	lisp	-0.30103
-3.3605704	hispanic	-0.30103
-3.3605704	costumes	-0.30103
-3.3605704	colorful	-0.30103
-3.3605704	tore	-0.30103
-3.3605704	strange	-0.30103
-3.3605704	refer	-0.30103
-3.3605704	deserve	-0.30103
-3.3605704	glib	-0.30103
-3.3605704	grope	-0.30103
-3.3605704	absurd	-0.30103
-3.3605704	kat	-0.30103
-3.3605704	kittens	-0.30103
-3.3605704	cement	-0.30103
-3.3605704	measured	-0.30103
-3.3605704	cubic	-0.30103
-3.3605704	yards	-0.30103
-3.3605704	grange	-0.30103
-3.3605704	lid	-0.30103
-3.3605704	could	-0.30103
-3.3605704	bus	-0.30103
-3.3605704	brain	-0.30103
-3.3605704	boast	-0.30103
-3.3605704	observe	-0.30103
-3.3605704	reserve	-0.30103
-3.3605704	slid	-0.30103
-3.3605704	list	-0.30103
-3.3605704	conserve	-0.30103
-3.3605704	repress	-0.30103
-3.3605704	scorch	-0.30103
-3.3605704	strike	-0.30103
-3.3605704	spread	-0.30103
-3.3605704	super	-0.30103
-3.3605704	split	-0.30103
-3.3605704	hotel	-0.30103
-3.3605704	owner	-0.30103
-3.3605704	struggled	-0.30103
-3.3605704	ok	-0.30103
-3.3605704	actually	-0.30103
-3.3605704	owe	-0.30103
-3.3605704	lead	-0.30103
-3.3605704	jaw	-0.30103
-3.3605704	cope	-0.30103
-3.3605704	drop	-0.30103
-3.3605704	shout	-0.30103
-3.3605704	weekend	-0.30103
-3.3605704	relax	-0.30103
-3.3605704	oh	-0.30103
-3.1835458	spark	-0.30103
-3.3605704	skip	-0.30103
-3.3605704	ah	-0.30103
-3.3605704	slip	-0.30103
-3.3605704	chose	-0.30103
-3.3605704	innocense	-0.30103

\2-grams:
-0.20049234	sheet </s>	0
-0.20049234	left </s>	0
-0.20049234	air </s>	0
-0.20049234	torn </s>	0
-0.20049234	born </s>	0
-0.20049234	sticks </s>	0
-0.20049234	storm </s>	0
-0.20049234	rage </s>	0
-0.20049234	beat </s>	0
-0.20049234	swarm </s>	0
-0.20049234	buttons </s>	0
-0.4199394	store </s>	0
-0.6378145	no </s>	0
-0.7728746	to </s>	0
-0.81430966	in </s>	0
-0.20049234	language </s>	0
-0.20049234	tip </s>	0
-0.20049234	dug </s>	0
-0.4199394	grow </s>	0
-0.5273764	two </s>	0
-0.4199394	but </s>	0
-0.7968195	he </s>	0
-0.20049234	oil </s>	0
-0.20049234	rake </s>	0
-0.20049234	glow </s>	0
-0.20049234	horn </s>	0
-0.20049234	yes </s>	0
-0.20049234	dog </s>	0
-0.20049234	feed </s>	0
-0.20049234	rain </s>	0
-0.20049234	corn </s>	0
-0.4199394	right </s>	0
-0.20049234	feet </s>	0
-0.20049234	ship </s>	0
-0.20049234	form </s>	0
-0.81233263	for </s>	0
-0.20049234	train </s>	0
-0.20049234	pat </s>	0
-0.75523555	have </s>	0
-0.4199394	more </s>	0
-0.81820893	and </s>	0
-0.20049234	less </s>	0
-0.5930471	one </s>	0
-0.5273764	down </s>	0
-0.20049234	meat </s>	0
-0.20049234	farm </s>	0
-0.20049234	sleep </s>	0
-0.5930471	both </s>	0
-0.5273764	go </s>	0
-0.3338792	later </s>	0
-0.3338792	years </s>	0
-0.20049234	troop </s>	0
-0.20049234	wish </s>	0
-0.20049234	ate </s>	0
-0.20049234	hear </s>	0
-0.20049234	pot </s>	0
-0.20049234	white </s>	0
-0.20049234	aprons </s>	0
-0.20049234	best </s>	0
-0.4199394	deer </s>	0
-0.20049234	group </s>	0
-0.20049234	cheer </s>	0
-0.20049234	thigh </s>	0
-0.20049234	coupe </s>	0
-0.4199394	write </s>	0
-0.20049234	area </s>	0
-0.20049234	steer </s>	0
-0.20049234	tile </s>	0
-0.20049234	select </s>	0
-0.20049234	forward </s>	0
-0.20049234	curtains </s>	0
-0.4199394	three </s>	0
-0.5273764	much </s>	0
-0.20049234	hate </s>	0
-0.20049234	whoop </s>	0
-0.20049234	wet </s>	0
-0.20049234	shoot </s>	0
-0.20049234	slay </s>	0
-0.4199394	play </s>	0
-0.71502256	all </s>	0
-0.6378145	big </s>	0
-0.20049234	traded </s>	0
-0.20049234	thoroughly </s>	0
-0.20049234	boot </s>	0
-0.20049234	rocks </s>	0
-0.20049234	witch </s>	0
-0.20049234	galore </s>	0
-0.20049234	delta </s>	0
-0.6953564	she </s>	0
-0.8385338	is </s>	0
-0.20049234	am </s>	0
-0.20049234	innocence </s>	0
-0.20049234	menu </s>	0
-0.20049234	peer </s>	0
-0.20049234	lip </s>	0
-0.20049234	beach </s>	0
-0.20049234	mere </s>	0
-0.20049234	pad </s>	0
-0.4199394	house </s>	0
-0.20049234	urgent </s>	0
-0.5273764	four </s>	0
-0.4199394	night </s>	0
-0.5273764	phone </s>	0
-0.20049234	calls </s>	0
-0.20049234	november </s>	0
-0.64976656	you </s>	0
-0.20049234	mush </s>	0
-0.20049234	oscar </s>	0
-0.4199394	sell </s>	0
-0.4199394	five </s>	0
-0.20049234	pit </s>	0
-0.20049234	zero </s>	0
-0.20049234	fat </s>	0
-0.20049234	darn </s>	0
-0.5273764	expect </s>	0
-0.4199394	well </s>	0
-0.20049234	week </s>	0
-0.20049234	six </s>	0
-0.5930471	when </s>	0
-0.20049234	force </s>	0
-0.20049234	hat </s>	0
-0.20049234	seed </s>	0
-0.20049234	pitting </s>	0
-0.71502256	it </s>	0
-0.20049234	dormitories </s>	0
-0.20049234	bloat </s>	0
-0.7918477	was </s>	0
-0.8612628	a </s>	0
-0.67044795	good </s>	0
-0.5273764	win </s>	0
-0.20049234	us </s>	0
-0.5273764	yet </s>	0
-0.5273764	take </s>	0
-0.8385338	of </s>	0
-0.20049234	legislation </s>	0
-0.20049234	flimsy </s>	0
-0.20049234	shy </s>	0
-0.20049234	cake </s>	0
-0.4199394	me </s>	0
-0.6378145	up </s>	0
-0.20049234	above </s>	0
-0.20049234	nine </s>	0
-0.4199394	program </s>	0
-0.20049234	medicine </s>	0
-0.20049234	league </s>	0
-0.6378145	at </s>	0
-0.20049234	claim </s>	0
-0.20049234	seven </s>	0
-0.20049234	leak </s>	0
-0.20049234	leg </s>	0
-0.5273764	job </s>	0
-0.20049234	benefits </s>	0
-0.20049234	eight </s>	0
-0.20049234	top </s>	0
-0.20049234	lima </s>	0
-0.20049234	vat </s>	0
-0.20049234	blow </s>	0
-0.20049234	spain </s>	0
-0.4199394	fill </s>	0
-0.20049234	wall </s>	0
-0.20049234	harm </s>	0
-0.20049234	hastily </s>	0
-0.20049234	chop </s>	0
-0.78628093	are </s>	0
-0.20049234	expensive </s>	0
-0.20049234	bidding </s>	0
-0.20049234	shell </s>	0
-0.20049234	sin </s>	0
-0.20049234	ticker </s>	0
-0.20049234	tin </s>	0
-0.4199394	new </s>	0
-0.20049234	loss </s>	0
-0.20049234	winners </s>	0
-0.20049234	leaks </s>	0
-0.20049234	xray </s>	0
-0.20049234	lock </s>	0
-0.20049234	sand </s>	0
-0.20049234	ham </s>	0
-0.4199394	first </s>	0
-0.4199394	time </s>	0
-0.4199394	alone </s>	0
-0.20049234	survive </s>	0
-0.20049234	team </s>	0
-0.20049234	nut </s>	0
-0.20049234	quickly </s>	0
-0.20049234	coat </s>	0
-0.20049234	lie </s>	0
-0.20049234	zulu </s>	0
-0.4199394	gas </s>	0
-0.20049234	burner </s>	0
-0.20049234	long </s>	0
-0.20049234	bay </s>	0
-0.20049234	bed </s>	0
-0.20049234	flicker </s>	0
-0.20049234	bread </s>	0
-0.20049234	sicker </s>	0
-0.20049234	potatoes </s>	0
-0.20049234	fork </s>	0
-0.5273764	said </s>	0
-0.4199394	cat </s>	0
-0.4199394	keep </s>	0
-0.5273764	out </s>	0
-0.3338792	day </s>	0
-0.20049234	millionaires </s>	0
-0.20049234	litter </s>	0
-0.20049234	sink </s>	0
-0.20049234	red </s>	0
-0.20049234	ned </s>	0
-0.20049234	sit </s>	0
-0.4199394	able </s>	0
-0.4199394	too </s>	0
-0.20049234	hand </s>	0
-0.20049234	rest </s>	0
-0.20049234	marvelously </s>	0
-0.4199394	rise </s>	0
-0.20049234	morning </s>	0
-0.4199394	bought </s>	0
-0.20049234	chair </s>	0
-0.4199394	quicker </s>	0
-0.20049234	romeo </s>	0
-0.6378145	about </s>	0
-0.20049234	nod </s>	0
-0.20049234	small </s>	0
-0.20049234	liquor </s>	0
-0.4199394	beg </s>	0
-0.71502256	that </s>	0
-0.5273764	ride </s>	0
-0.20049234	stagecoach </s>	0
-0.20049234	neat </s>	0
-0.20049234	dead </s>	0
-0.20049234	wit </s>	0
-0.20049234	painters </s>	0
-0.20049234	attention </s>	0
-0.20049234	success </s>	0
-0.20049234	lake </s>	0
-0.20049234	thread </s>	0
-0.5273764	dont </s>	0
-0.20049234	dishes </s>	0
-0.20049234	sew </s>	0
-0.20049234	sort </s>	0
-0.20049234	catch </s>	0
-0.5273764	played </s>	0
-0.20049234	degree </s>	0
-0.20049234	dessert </s>	0
-0.20049234	welcome </s>	0
-0.20049234	cakes </s>	0
-0.20049234	bill </s>	0
-0.20049234	popularity </s>	0
-0.4199394	short </s>	0
-0.20049234	shin </s>	0
-0.20049234	kind </s>	0
-0.20049234	cork </s>	0
-0.5273764	old </s>	0
-0.20049234	weep </s>	0
-0.20049234	history </s>	0
-0.20049234	rid </s>	0
-0.20049234	quart </s>	0
-0.20049234	shot </s>	0
-0.20049234	knee </s>	0
-0.20049234	sheep </s>	0
-0.20049234	snort </s>	0
-0.20049234	pork </s>	0
-0.20049234	sketch </s>	0
-0.20049234	yourself </s>	0
-0.20049234	blend </s>	0
-0.20049234	shed </s>	0
-0.20049234	identical </s>	0
-0.20049234	maintenance </s>	0
-0.20049234	see </s>	0
-0.20049234	shop </s>	0
-0.4199394	heat </s>	0
-0.20049234	gone </s>	0
-0.20049234	gill </s>	0
-0.20049234	show </s>	0
-0.20049234	read </s>	0
-0.20049234	disappointing </s>	0
-0.20049234	tug </s>	0
-0.20049234	cash </s>	0
-0.20049234	stretch </s>	0
-0.20049234	steak </s>	0
-0.20049234	ray </s>	0
-0.20049234	fort </s>	0
-0.20049234	lee </s>	0
-0.20049234	hold </s>	0
-0.7309589	with </s>	0
-0.20049234	since </s>	0
-0.5273764	life </s>	0
-0.20049234	shred </s>	0
-0.20049234	sight </s>	0
-0.20049234	pond </s>	0
-0.20049234	around </s>	0
-0.20049234	tort </s>	0
-0.20049234	meats </s>	0
-0.20049234	precious </s>	0
-0.5273764	eat </s>	0
-0.20049234	sport </s>	0
-0.20049234	activities </s>	0
-0.20049234	fined </s>	0
-0.20049234	regulations </s>	0
-0.20049234	resulted </s>	0
-0.20049234	valentines </s>	0
-0.20049234	geese </s>	0
-0.20049234	mill </s>	0
-0.20049234	present </s>	0
-0.20049234	reap </s>	0
-0.20049234	dill </s>	0
-0.20049234	lend </s>	0
-0.20049234	foe </s>	0
-0.20049234	loan </s>	0
-0.20049234	money </s>	0
-0.20049234	toe </s>	0
-0.20049234	threat </s>	0
-0.20049234	port </s>	0
-0.20049234	voice </s>	0
-0.20049234	rip </s>	0
-0.20049234	wise </s>	0
-0.4199394	full </s>	0
-0.20049234	stuff </s>	0
-0.20049234	bend </s>	0
-0.20049234	muck </s>	0
-0.20049234	snake </s>	0
-0.20049234	bumper </s>	0
-0.20049234	ash </s>	0
-0.4199394	fit </s>	0
-0.20049234	sheer </s>	0
-0.20049234	chablis </s>	0
-0.20049234	hash </s>	0
-0.4199394	come </s>	0
-0.20049234	favor </s>	0
-0.20049234	hail </s>	0
-0.20049234	code </s>	0
-0.20049234	excluded </s>	0
-0.20049234	beam </s>	0
-0.20049234	competitors </s>	0
-0.20049234	knife </s>	0
-0.20049234	pete </s>	0
-0.20049234	skills </s>	0
-0.20049234	anywhere </s>	0
-0.20049234	gash </s>	0
-0.4199394	went </s>	0
-0.20049234	idea </s>	0
-0.20049234	fender </s>	0
-0.20049234	woe </s>	0
-0.20049234	member </s>	0
-0.20049234	beast </s>	0
-0.20049234	together </s>	0
-0.20049234	guess </s>	0
-0.20049234	casually </s>	0
-0.20049234	seam </s>	0
-0.20049234	beep </s>	0
-0.20049234	vocal </s>	0
-0.20049234	investment </s>	0
-0.20049234	redhanded </s>	0
-0.20049234	mock </s>	0
-0.20049234	dock </s>	0
-0.4199394	sea </s>	0
-0.20049234	petticoats </s>	0
-0.20049234	ember </s>	0
-0.20049234	seat </s>	0
-0.20049234	food </s>	0
-0.20049234	reef </s>	0
-0.20049234	blaze </s>	0
-0.20049234	sender </s>	0
-0.20049234	acclaim </s>	0
-0.20049234	director </s>	0
-0.67044795	from </s>	0
-0.20049234	start </s>	0
-0.20049234	wonderful </s>	0
-0.20049234	renter </s>	0
-0.20049234	row </s>	0
-0.20049234	lender </s>	0
-0.20049234	ape </s>	0
-0.20049234	forks </s>	0
-0.20049234	tender </s>	0
-0.20049234	tea </s>	0
-0.20049234	fans </s>	0
-0.20049234	timber </s>	0
-0.20049234	leap </s>	0
-0.20049234	poor </s>	0
-0.20049234	tail </s>	0
-0.20049234	bender </s>	0
-0.20049234	ache </s>	0
-0.20049234	center </s>	0
-0.20049234	appetizers </s>	0
-0.20049234	beef </s>	0
-0.20049234	temper </s>	0
-0.6378145	had </s>	0
-0.20049234	ways </s>	0
-0.20049234	wax </s>	0
-0.20049234	pet </s>	0
-0.20049234	aid </s>	0
-0.20049234	knock </s>	0
-0.20049234	lies </s>	0
-0.20049234	cheese </s>	0
-0.20049234	hatch </s>	0
-0.20049234	grievances </s>	0
-0.20049234	bunch </s>	0
-0.20049234	appreciated </s>	0
-0.20049234	ease </s>	0
-0.20049234	add </s>	0
-0.20049234	gift </s>	0
-0.4199394	judge </s>	0
-0.4199394	state </s>	0
-0.20049234	education </s>	0
-0.20049234	states </s>	0
-0.20049234	peas </s>	0
-0.20049234	bun </s>	0
-0.20049234	punch </s>	0
-0.20049234	ail </s>	0
-0.20049234	tall </s>	0
-0.20049234	detail </s>	0
-0.20049234	pill </s>	0
-0.20049234	racks </s>	0
-0.20049234	construction </s>	0
-0.20049234	aches </s>	0
-0.20049234	lit </s>	0
-0.20049234	splinter </s>	0
-0.20049234	choose </s>	0
-0.20049234	duck </s>	0
-0.20049234	arm </s>	0
-0.20049234	actress </s>	0
-0.4199394	fell </s>	0
-0.20049234	diploma </s>	0
-0.20049234	charm </s>	0
-0.20049234	meeting </s>	0
-0.20049234	friends </s>	0
-0.20049234	mile </s>	0
-0.20049234	rakes </s>	0
-0.20049234	situation </s>	0
-0.20049234	items </s>	0
-0.5273764	sat </s>	0
-0.20049234	relaxed </s>	0
-0.20049234	hall </s>	0
-0.20049234	sake </s>	0
-0.20049234	box </s>	0
-0.20049234	incidents </s>	0
-0.20049234	chowder </s>	0
-0.20049234	degrees </s>	0
-0.20049234	ticks </s>	0
-0.20049234	disguise </s>	0
-0.20049234	sources </s>	0
-0.20049234	chap </s>	0
-0.20049234	lax </s>	0
-0.20049234	score </s>	0
-0.20049234	munch </s>	0
-0.20049234	symbols </s>	0
-0.20049234	end </s>	0
-0.4199394	pleasure </s>	0
-0.20049234	excitement </s>	0
-0.20049234	dial </s>	0
-0.20049234	low </s>	0
-0.20049234	cold </s>	0
-0.20049234	whip </s>	0
-0.20049234	ink </s>	0
-0.20049234	again </s>	0
-0.20049234	term </s>	0
-0.20049234	wide </s>	0
-0.20049234	pant </s>	0
-0.20049234	find </s>	0
-0.4199394	cable </s>	0
-0.20049234	translated </s>	0
-0.20049234	past </s>	0
-0.20049234	burn </s>	0
-0.20049234	wealth </s>	0
-0.4199394	street </s>	0
-0.20049234	ahead </s>	0
-0.20049234	wine </s>	0
-0.20049234	eyes </s>	0
-0.20049234	weave </s>	0
-0.20049234	omitted </s>	0
-0.20049234	wart </s>	0
-0.20049234	wack </s>	0
-0.4199394	needed </s>	0
-0.20049234	dash </s>	0
-0.20049234	drifts </s>	0
-0.20049234	required </s>	0
-0.20049234	ball </s>	0
-0.4199394	myself </s>	0
-0.4199394	steep </s>	0
-0.20049234	increases </s>	0
-0.20049234	damaged </s>	0
-0.20049234	empty </s>	0
-0.4199394	here </s>	0
-0.20049234	obstacles </s>	0
-0.20049234	hid </s>	0
-0.20049234	why </s>	0
-0.20049234	luke </s>	0
-0.20049234	fold </s>	0
-0.20049234	pink </s>	0
-0.20049234	waste </s>	0
-0.4199394	porch </s>	0
-0.20049234	steps </s>	0
-0.20049234	carefully </s>	0
-0.20049234	report </s>	0
-0.20049234	sail </s>	0
-0.20049234	wipe </s>	0
-0.20049234	theory </s>	0
-0.20049234	urchins </s>	0
-0.4199394	each </s>	0
-0.20049234	intelligence </s>	0
-0.20049234	wives </s>	0
-0.20049234	game </s>	0
-0.20049234	docks </s>	0
-0.20049234	pole </s>	0
-0.20049234	stable </s>	0
-0.20049234	income </s>	0
-0.20049234	sacrifice </s>	0
-0.20049234	ban </s>	0
-0.20049234	page </s>	0
-0.20049234	accordion </s>	0
-0.20049234	paid </s>	0
-0.20049234	sprain </s>	0
-0.20049234	fool </s>	0
-0.20049234	boat </s>	0
-0.20049234	ramp </s>	0
-0.20049234	tips </s>	0
-0.4199394	paint </s>	0
-0.20049234	water </s>	0
-0.20049234	mat </s>	0
-0.20049234	sap </s>	0
-0.20049234	pain </s>	0
-0.20049234	mayonnaise </s>	0
-0.20049234	fall </s>	0
-0.20049234	mall </s>	0
-0.20049234	feel </s>	0
-0.20049234	panel </s>	0
-0.20049234	freely </s>	0
-0.20049234	vamp </s>	0
-0.20049234	rat </s>	0
-0.20049234	check </s>	0
-0.20049234	space </s>	0
-0.20049234	naval </s>	0
-0.20049234	stall </s>	0
-0.20049234	spade </s>	0
-0.20049234	accident </s>	0
-0.20049234	damp </s>	0
-0.20049234	spray </s>	0
-0.20049234	peach </s>	0
-0.20049234	mabel </s>	0
-0.20049234	told </s>	0
-0.20049234	injured </s>	0
-0.4199394	practical </s>	0
-0.20049234	funnel </s>	0
-0.20049234	tap </s>	0
-0.20049234	expected </s>	0
-0.20049234	reach </s>	0
-0.20049234	file </s>	0
-0.20049234	walls </s>	0
-0.20049234	paste </s>	0
-0.20049234	foil </s>	0
-0.20049234	map </s>	0
-0.20049234	gable </s>	0
-0.20049234	bull </s>	0
-0.20049234	crawl </s>	0
-0.20049234	pale </s>	0
-0.20049234	creature </s>	0
-0.20049234	pocket </s>	0
-0.20049234	saddle </s>	0
-0.20049234	bowl </s>	0
-0.20049234	nap </s>	0
-0.20049234	table </s>	0
-0.20049234	sable </s>	0
-0.20049234	fable </s>	0
-0.20049234	mold </s>	0
-0.20049234	mole </s>	0
-0.20049234	bureaucracy </s>	0
-0.20049234	pace </s>	0
-0.20049234	call </s>	0
-0.20049234	predicament </s>	0
-0.20049234	screech </s>	0
-0.20049234	ladle </s>	0
-0.20049234	bash </s>	0
-0.20049234	portrait </s>	0
-0.20049234	instruments </s>	0
-0.20049234	machinery </s>	0
-0.20049234	final </s>	0
-0.20049234	giggling </s>	0
-0.20049234	owl </s>	0
-0.20049234	screen </s>	0
-0.20049234	teach </s>	0
-0.20049234	postponed </s>	0
-0.20049234	bog </s>	0
-0.20049234	rattle </s>	0
-0.4199394	sold </s>	0
-0.20049234	bank </s>	0
-0.20049234	shawl </s>	0
-0.20049234	soul </s>	0
-0.20049234	preach </s>	0
-0.20049234	pull </s>	0
-0.20049234	boone </s>	0
-0.20049234	suppress </s>	0
-0.20049234	issue </s>	0
-0.20049234	cauliflower </s>	0
-0.20049234	badger </s>	0
-0.20049234	contrast </s>	0
-0.20049234	appliances </s>	0
-0.20049234	grain </s>	0
-0.20049234	auction </s>	0
-0.20049234	impress </s>	0
-0.20049234	occur </s>	0
-0.20049234	shore </s>	0
-0.20049234	book </s>	0
-0.20049234	bin </s>	0
-0.20049234	fast </s>	0
-0.20049234	fudge </s>	0
-0.20049234	rust </s>	0
-0.20049234	disclaimer </s>	0
-0.20049234	contract </s>	0
-0.20049234	limb </s>	0
-0.20049234	musk </s>	0
-0.20049234	rut </s>	0
-0.20049234	serve </s>	0
-0.20049234	grape </s>	0
-0.20049234	intact </s>	0
-0.20049234	subtract </s>	0
-0.20049234	forgery </s>	0
-0.20049234	driven </s>	0
-0.20049234	attitude </s>	0
-0.20049234	shut </s>	0
-0.20049234	retract </s>	0
-0.20049234	accent </s>	0
-0.20049234	globe </s>	0
-0.20049234	grave </s>	0
-0.20049234	bust </s>	0
-0.20049234	depress </s>	0
-0.20049234	dusk </s>	0
-0.20049234	slim </s>	0
-0.20049234	updating </s>	0
-0.20049234	preserve </s>	0
-0.20049234	converge </s>	0
-0.20049234	booth </s>	0
-0.20049234	west </s>	0
-0.20049234	weight </s>	0
-0.20049234	lisp </s>	0
-0.20049234	colorful </s>	0
-0.20049234	tore </s>	0
-0.20049234	strange </s>	0
-0.20049234	refer </s>	0
-0.20049234	deserve </s>	0
-0.20049234	glib </s>	0
-0.20049234	grope </s>	0
-0.20049234	absurd </s>	0
-0.20049234	kittens </s>	0
-0.20049234	yards </s>	0
-0.20049234	grange </s>	0
-0.20049234	lid </s>	0
-0.20049234	brain </s>	0
-0.20049234	boast </s>	0
-0.20049234	observe </s>	0
-0.20049234	reserve </s>	0
-0.20049234	slid </s>	0
-0.20049234	list </s>	0
-0.20049234	conserve </s>	0
-0.20049234	repress </s>	0
-0.20049234	scorch </s>	0
-0.20049234	super </s>	0
-0.20049234	split </s>	0
-0.20049234	struggled </s>	0
-0.20049234	ok </s>	0
-0.20049234	actually </s>	0
-0.20049234	owe </s>	0
-0.20049234	jaw </s>	0
-0.20049234	cope </s>	0
-0.20049234	drop </s>	0
-0.20049234	shout </s>	0
-0.20049234	weekend </s>	0
-0.20049234	relax </s>	0
-0.20049234	oh </s>	0
-0.5273764	spark </s>	0
-0.20049234	slip </s>	0
-0.20049234	chose </s>	0
-0.20049234	innocense </s>	0
-2.2193	<s> sheet	-1.60206
-2.357128	<s> left	-1.4673615
-2.0212328	<s> air	-1.7970366
-2.5289905	<s> torn	-1.30103
-2.5289905	<s> born	-1.30103
-2.367386	<s> sticks	-1.4573772
-2.2827692	<s> storm	-1.5399121
-2.5443175	<s> rage	-1.2863067
-2.081343	<s> beat	-1.7377226
-2.2743094	<s> swarm	-1.5481846
-2.5766962	<s> usually	-1.2552725
-0.30084074	usually minus	-1.2552725
-3.8104062	<s> several	-0.30103
-0.30074552	minus several	-1.2552725
-0.6016815	several buttons	-1.2552725
-2.5738442	<s> store	-1.2552725
-2.1819286	the store	-0.66900676
-2.0265539	<s> no	-1.7876966
-1.3350502	have no	-0.72699875
-1.4944674	was no	-0.7781512
-0.3003546	requires no	-0.7781512
-0.99663335	had no	-0.72699875
-2.6302965	<s> grandfather	-1.20412
-0.30084074	grandfather likes	-1.20412
-2.747319	<s> to	-0.7781512
-0.29550025	likes to	-1.20412
-1.2851537	have to	-0.72699875
-0.59107	him to	-1.1356627
-0.29550025	try to	-1.0280287
-0.29550025	funds to	-1.2218487
-0.7617688	yet to	-1.1663314
-1.1088214	were to	-1.2552725
-0.29550025	willing to	-0.97003675
-0.59107	time to	-0.66900676
-0.29550025	fun to	-0.9378521
-0.29550025	someplace to	-0.90309
-0.59107	want to	-0.30103
-0.29550025	greg to	-0.90309
-0.59107	cat to	-0.90309
-0.59107	able to	-1
-0.8813813	what to	-0.30103
-0.7617688	like to	-0.86530143
-0.29550025	scream to	-0.86530143
-0.59107	still to	-0.7781512
-0.29550025	dough to	-0.69897
-0.29550025	common to	-0.86530143
-0.29550025	desire to	-0.72699875
-0.29550025	met to	-0.9378521
-0.29550025	trying to	-0.86530143
-0.29550025	wanted to	-0.72699875
-0.29550025	hard to	-0.5563025
-0.29550025	status to	-0.5228787
-0.29550025	appealing to	-0.42596874
-0.29550025	illegal to	-0.30103
-0.29550025	longer to	-0.30103
-0.29550025	muttering to	-0.42596874
-0.29550025	easy to	-0.42596874
-0.29550025	impossible to	-0.42596874
-3.0105407	<s> be	-0.72699875
-1.5593455	to be	-1.0280287
-0.773118	often be	-1.2552725
-0.45885986	can be	-0.8109438
-0.8392316	will be	-0.8016324
-0.598698	may be	-0.66900676
-0.29934576	flowers be	-0.66900676
-0.29934576	must be	-0.42596874
-0.29934576	should be	-0.30103
-0.773118	or be	-0.30103
-0.29934576	cannot be	-0.30103
-1.552908	be modern	-1.20412
-2.424055	<s> in	-1.0543576
-0.29867452	modern in	-1.20412
-0.29867452	higher in	-1.1663314
-1.6456912	is in	-0.30103
-1.4689147	it in	-0.66900676
-0.5973618	himself in	-1.2863067
-0.29867452	damage in	-0.86530143
-0.29867452	participate in	-0.86530143
-0.29867452	ruled in	-0.7781512
-0.29867452	upbringing in	-0.8239087
-0.29867452	fire in	-0.8239087
-0.29867452	mistakes in	-0.66900676
-0.29867452	sculpture in	-0.30103
-0.5973618	deal in	-0.42596874
-0.29867452	measured in	-0.30103
-0.805327	in his	-0.9294189
-1.6921927	of his	-0.42596874
-0.9990544	his language	-1.20412
-2.4998698	<s> tip	-1.3290588
-2.3471065	<s> dug	-1.4771212
-2.5738442	<s> grow	-1.2552725
-0.30074552	weeds grow	-0.30103
-2.3158903	<s> two	-1.50515
-0.9017371	only two	-0.42596874
-0.3006914	called two	-0.86530143
-2.5141861	<s> but	-1.0934217
-1.7602768	<s> he	-1.0104028
-0.60003847	but he	-1.2863067
-0.8990563	him he	-1.0543576
-1.0731447	this he	-0.90309
-0.77512246	yet he	-0.86530143
-0.60003847	himself he	-0.30103
-0.60003847	so he	-0.42596874
-1.5266675	he always	-1.2863067
-0.30074552	although always	-1.0543576
-0.6016815	always answers	-1.2863067
-0.30084074	answers banana	-1.2863067
-0.30084074	banana oil	-1.2863067
-2.242028	<s> rake	-1.5797836
-2.611685	<s> glow	-1.2218487
-2.4998698	<s> horn	-1.3290588
-2.0212328	<s> yes	-1.7970366
-1.4870129	<s> the	-0.8705026
-1.3406066	to the	-0.9488475
-0.99790084	in the	-0.49732465
-0.29483488	over the	-1.2218487
-1.2611994	for the	-0.86530143
-0.29483488	made the	-1.146128
-0.8788228	all the	-0.98527676
-0.29483488	scrubbed the	-1.1856365
-0.7598249	than the	-0.30103
-0.35370648	on the	-0.90309
-0.9710379	of the	-0.85733247
-0.9698721	at the	-0.30103
-0.29483488	near the	-1.1856365
-0.29483488	wrapped the	-1.1856365
-1.3923646	are the	-0.8239087
-0.29483488	open the	-0.97003675
-0.29483488	covered the	-0.9378521
-0.8788228	only the	-0.86530143
-0.68364483	about the	-0.8239087
-0.29483488	prefer the	-0.86530143
-1.2024621	with the	-0.7781512
-0.58975697	thats the	-0.30103
-0.29483488	across the	-0.86530143
-0.29483488	remains the	-0.86530143
-0.9698721	by the	-0.72699875
-0.29483488	mail the	-0.8239087
-0.7598249	from the	-0.86530143
-0.29483488	neglect the	-0.7781512
-0.29483488	compounded the	-0.66900676
-0.58975697	judge the	-0.9378521
-0.29483488	housing the	-0.8239087
-0.29483488	order the	-0.66900676
-0.29483488	noted the	-0.5228787
-0.29483488	hiring the	-0.42596874
-0.29483488	hides the	-0.42596874
-0.29483488	describe the	-0.30103
-0.29483488	lamps the	-0.30103
-0.29483488	delight the	-0.30103
-2.1819286	the quick	-1.2218487
-1.6920526	a quick	-0.8846066
-0.7772983	quick brown	-1.2218487
-1.9862738	a brown	-0.97003675
-0.6016815	brown fox	-1.2218487
-0.30084074	fox jumps	-1.2218487
-0.30084074	jumps over	-1.2218487
-2.1892319	the lazy	-1.2218487
-0.30084074	lazy dog	-1.2218487
-2.1907358	<s> feed	-1.6300887
-2.5908718	<s> rain	-1.2388821
-0.30074552	uninterrupted rain	-0.86530143
-2.4998698	<s> corn	-1.3290588
-2.3868074	<s> right	-1.4366926
-0.30074552	married right	-0.42596874
-2.1033823	<s> feet	-1.7160033
-2.2498763	<s> ship	-1.5720967
-2.5289905	<s> form	-1.30103
-2.494438	<s> for	-1.2552725
-0.29783693	healthy for	-1.146128
-1.4566808	you for	-0.86530143
-1.4566808	it for	-1.1026623
-0.59569716	provides for	-1.2218487
-0.76864165	win for	-1.2218487
-0.29783693	transition for	-1.1856365
-0.4723404	look for	-0.90309
-0.29783693	experiment for	-0.97003675
-0.29783693	wait for	-1
-0.76864165	place for	-0.7781512
-0.29783693	guard for	-0.97003675
-0.29783693	friend for	-0.8239087
-0.29783693	prepared for	-0.72699875
-0.29783693	clams for	-0.72699875
-0.29783693	mask for	-0.7781512
-0.29783693	wife for	-0.42596874
-0.29783693	ready for	-0.42596874
-0.29783693	trips for	-0.42596874
-0.29783693	demand for	-0.30103
-2.5766962	<s> train	-1.2552725
-2.1448665	<s> pat	-1.6751671
-1.6750739	<s> we	-0.9521394
-0.6003742	alone we	-1.0543576
-0.30018628	leisure we	-0.90309
-0.30018628	suggested we	-0.8239087
-0.6003742	know we	-0.90309
-0.30018628	knew we	-0.66900676
-3.0538812	<s> have	-0.72699875
-1.8482926	to have	-0.86530143
-1.3099852	we have	-1.0479236
-1.1947677	all have	-0.8239087
-1.1947677	you have	-1.0280287
-1.0721482	well have	-0.86530143
-0.9941312	really have	-0.90309
-0.29984993	tribes have	-0.30103
-1.3387122	have often	-1.2863067
-1.4115989	can often	-1.2552725
-1.4720694	are often	-0.7781512
-0.7775836	often urged	-1.2863067
-0.30052292	urged him	-1.2863067
-0.60104656	crucified him	-1.0543576
-0.60104656	want him	-0.90309
-0.60104656	saw him	-0.42596874
-1.8811345	to walk	-1.2863067
-0.30074552	could walk	-0.30103
-0.60104656	walk more	-1.2863067
-0.9974706	up more	-0.86530143
-0.77663183	needs more	-0.30103
-0.30052292	accomplish more	-0.7781512
-2.3854895	<s> and	-1.3679768
-0.88849556	more and	-1.2863067
-0.7671597	down and	-0.7781512
-0.5947015	deer and	-0.30103
-0.29733518	grey and	-1.2388821
-0.29733518	slums and	-1.2218487
-0.7671597	young and	-0.42596874
-0.5947015	short and	-0.86530143
-0.29733518	prosecuted and	-0.86530143
-0.29733518	addition and	-0.86530143
-0.29733518	chocolate and	-0.86530143
-0.29733518	masonry and	-0.72699875
-0.29733518	distress and	-0.7781512
-0.29733518	jealousies and	-0.90309
-0.5947015	pleasure and	-0.7781512
-0.5947015	straight and	-0.66900676
-0.29733518	heart and	-0.66900676
-0.29733518	bagpipes and	-0.42596874
-0.29733518	saws and	-0.42596874
-0.29733518	supplies and	-0.42596874
-0.29733518	broccoli and	-0.30103
-0.29733518	strong and	-0.30103
-0.29733518	children and	-0.30103
-1.658425	and smoke	-1.2863067
-0.30084074	smoke less	-1.2863067
-2.3131218	<s> one	-1.50515
-1.6127235	for one	-0.97003675
-0.9974706	just one	-1.146128
-0.77663183	out one	-0.90309
-2.4079747	<s> down	-1.4149734
-0.601383	working down	-0.5228787
-0.77713615	sat down	-0.7781512
-2.1639347	<s> meat	-1.6564176
-2.5289905	<s> farm	-1.30103
-2.6497414	<s> sleep	-1.1856365
-2.2498763	<s> both	-1.0078254
-0.9023333	both figures	-1.1663314
-0.30084074	figures would	-1.1663314
-1.5855501	to go	-0.8016324
-0.30074552	would go	-1.1663314
-0.7775836	go higher	-1.1663314
-1.5000981	in later	-1.1663314
-0.601383	trip later	-0.7781512
-0.3006914	weeks later	-0.42596874
-1.616193	for years	-0.8239087
-0.77713615	later years	-1.1663314
-0.3006914	last years	-0.72699875
-2.6497414	<s> troop	-1.1856365
-2.6497414	<s> wish	-1.1856365
-2.204783	<s> ate	-1.6163005
-2.6497414	<s> hear	-1.1856365
-2.611685	<s> pot	-1.2218487
-2.6665645	<s> white	-1.1663314
-1.6562608	and white	-1.2388821
-2.5289905	<s> mother	-1.30103
-0.30084074	mother sews	-1.30103
-0.30084074	sews yellow	-1.30103
-0.30084074	yellow gingham	-1.30103
-0.30084074	gingham aprons	-1.30103
-1.6597524	<s> i	-0.8321032
-0.47636092	than i	-1.3424227
-1.0761478	as i	-0.64345264
-0.90106535	what i	-0.30103
-2.6856496	<s> just	-1.146128
-1.616193	we just	-0.60206
-1.7072837	i just	-1.20412
-3.1433332	<s> try	-0.72699875
-0.9985793	just try	-1.20412
-2.971654	<s> do	-0.86530143
-1.5812823	to do	-1.0791812
-0.30052292	dad do	-1.0280287
-0.77663183	dont do	-0.86530143
-2.6270618	<s> my	-0.96378785
-0.9957977	do my	-1.20412
-1.6791599	of my	-0.66900676
-0.9957977	up my	-0.86530143
-0.30018628	suddenly my	-0.9378521
-0.30018628	change my	-0.72699875
-1.1448047	my best	-1.20412
-2.646369	<s> deer	-1.1856365
-0.6014912	three deer	-0.30103
-2.6497414	<s> group	-1.1856365
-2.3778925	<s> cheer	-1.447158
-2.6497414	<s> thigh	-1.1856365
-2.6497414	<s> coupe	-1.1856365
-2.2035697	<s> write	-1.6163005
-0.6014912	through write	-0.66900676
-2.670098	<s> area	-1.1663314
-2.6497414	<s> steer	-1.1856365
-2.3997	<s> tile	-1.4259686
-2.4998698	<s> select	-1.3290588
-2.4998698	<s> forward	-1.3290588
-1.1448047	my sister	-1.146128
-0.30084074	sister made	-1.146128
-2.1892319	the flowered	-1.146128
-0.30084074	flowered curtains	-1.146128
-2.3868074	<s> three	-1.4366926
-0.6014912	saw three	-0.30103
-2.3067672	<s> much	-1.5141048
-1.4720694	are much	-0.7781512
-0.601383	through much	-0.30103
-2.5938385	<s> hate	-1.2388821
-2.6302965	<s> whoop	-1.20412
-0.9023333	one side	-1.146128
-1.6127235	we got	-0.69897
-1.7030085	i got	-0.30103
-0.30052292	side got	-1.146128
-0.90106535	also got	-0.42596874
-0.9990544	got wet	-1.146128
-2.3471065	<s> shoot	-1.4771212
-2.6302965	<s> slay	-1.20412
-2.6270711	<s> play	-1.20412
-1.4121366	can play	-0.30103
-2.4703274	<s> all	-1.0413927
-1.3134409	we all	-0.8016324
-0.6003742	received all	-0.5228787
-0.89972496	when all	-1.1856365
-1.1402562	were all	-0.66900676
-0.9957977	really all	-0.86530143
-3.4198463	<s> big	-0.42596874
-0.99663335	no big	-0.7781512
-2.1531553	the big	-1.20412
-1.968081	a big	-0.7781512
-0.99663335	by big	-0.30103
-0.9990544	big baseball	-1.20412
-0.30084074	baseball players	-1.20412
-2.94343	<s> get	-0.90309
-1.87908	to get	-0.30103
-0.3006914	players get	-1.20412
-0.7775836	get traded	-1.20412
-1.7111084	i scrubbed	-1.1856365
-2.1892319	the floors	-1.1856365
-0.30084074	floors thoroughly	-1.1856365
-2.3886595	<s> boot	-1.4366926
-2.5602052	<s> rocks	-1.2710668
-2.2119808	<s> witch	-1.6092386
-2.6302965	<s> galore	-1.20412
-2.6302965	<s> delta	-1.20412
-2.1326041	<s> she	-0.8421335
-2.6745887	<s> is	-1.0543576
-1.1265045	she is	-1.0170333
-0.59636223	nothing is	-1.049218
-0.59636223	house is	-1.2388821
-0.2981718	alfalfa is	-1.146128
-1.0623075	this is	-1.3290588
-0.6918594	there is	-0.87242115
-0.2981718	travel is	-0.90309
-0.47284093	life is	-0.86530143
-0.2981718	hair is	-0.8239087
-0.2981718	plot is	-0.86530143
-0.2981718	coast is	-0.7781512
-0.59636223	street is	-0.5228787
-0.2981718	attendance is	-0.66900676
-0.2981718	highway is	-0.66900676
-0.2981718	drift is	-0.66900676
-0.2981718	future is	-0.30103
-0.2981718	cement is	-0.30103
-1.6944498	is thinner	-1.20412
-0.3006914	thinner than	-1.20412
-0.601383	quicker than	-0.7781512
-0.3006914	away than	-0.30103
-1.7111084	i am	-1.3424227
-2.3001995	<s> nothing	-1.2218487
-1.683043	is as	-1.2388821
-0.3003546	offensive as	-1.049218
-0.6007103	fail as	-0.7781512
-0.3003546	exactly as	-0.86530143
-0.3003546	displayed as	-0.30103
-1.6921927	is offensive	-0.30103
-1.077477	as offensive	-1.2388821
-1.0780468	as innocence	-1.2388821
-2.4860103	<s> menu	-1.3424227
-2.670098	<s> peer	-1.1663314
-2.2743094	<s> lip	-1.5481846
-1.6192914	we gathered	-1.20412
-0.30084074	gathered shells	-1.20412
-0.29984993	shells on	-1.20412
-0.29984993	marshmallows on	-0.9378521
-0.7746205	ride on	-0.30103
-0.29984993	twilight on	-0.86530143
-0.29984993	outdoors on	-0.66900676
-0.29984993	misplaced on	-0.42596874
-0.29984993	picnic on	-0.30103
-0.29984993	put on	-0.30103
-2.1892319	the beach	-1.2388821
-2.6302965	<s> mere	-1.20412
-2.4226606	<s> pad	-1.4036924
-2.5938385	<s> their	-1.2388821
-0.9985793	big house	-0.7781512
-0.30074552	their house	-1.2388821
-1.6944498	is grey	-1.2388821
-2.5938385	<s> urgent	-1.2388821
-2.2728856	<s> four	-1.5481846
-1.8918525	the four	-0.845098
-2.4961257	<s> night	-1.0280287
-0.3006914	after night	-1.146128
-0.9983095	at night	-0.8239087
-0.9023333	night after	-1.146128
-2.6085856	<s> they	-0.56729794
-0.9957977	do they	-0.86530143
-0.89972496	night they	-1.146128
-0.6003742	where they	-0.72699875
-0.89972496	things they	-0.5228787
-0.30018628	because they	-0.42596874
-0.9990544	they received	-0.9378521
-0.6016815	received annoying	-1.146128
-3.4968574	<s> phone	-0.42596874
-0.3006914	annoying phone	-1.146128
-0.9983095	by phone	-0.8239087
-0.7772983	phone calls	-1.146128
-0.30074552	bad calls	-0.7781512
-2.6497414	<s> november	-1.1856365
-2.6914558	<s> alfalfa	-1.146128
-1.6944498	is healthy	-1.146128
-2.4312398	<s> you	-0.8782664
-1.5826857	for you	-1.146128
-0.89506584	when you	-0.66900676
-1.3951843	can you	-0.42596874
-0.7721193	did you	-0.66900676
-1.1321816	will you	-0.30103
-0.29901	asked you	-0.86530143
-0.59802943	way you	-0.66900676
-0.4740948	if you	-0.60206
-0.59802943	sure you	-0.8239087
-0.59802943	tell you	-0.7781512
-0.29901	surrounds you	-0.30103
-0.29901	lead you	-0.30103
-2.6914558	<s> mush	-1.146128
-2.6497414	<s> oscar	-1.1856365
-2.3454232	<s> sell	-1.4771212
-0.30074552	hell sell	-0.72699875
-2.3868074	<s> five	-1.4366926
-0.9985793	had five	-0.30103
-2.204783	<s> pit	-1.6163005
-2.3997	<s> zero	-1.4259686
-2.1907358	<s> fat	-1.6300887
-2.6914558	<s> darn	-1.146128
-1.5855501	to expect	-0.64345264
-1.7086661	i expect	-1.1856365
-0.9957977	do well	-0.90309
-0.775625	expect well	-1.1856365
-0.9957977	very well	-0.8239087
-0.775625	day well	-0.86530143
-0.6003742	went well	-0.86530143
-0.30018628	doing well	-0.66900676
-1.0780468	well bounce	-1.1856365
-0.30084074	bounce back	-1.1856365
-2.1001825	<s> this	-1.2900347
-0.60104656	play this	-0.30103
-0.30052292	back this	-1.1856365
-1.6869612	of this	-0.86530143
-1.0780468	this week	-1.1856365
-2.3001995	<s> six	-1.5228788
-2.5117154	<s> when	-0.94729364
-0.9019531	when when	-0.30103
-1.202608	all else	-1.1856365
-0.30084074	else fails	-1.1856365
-0.30084074	fails use	-1.1856365
-0.30084074	use force	-1.1856365
-2.3277316	<s> hat	-1.4960066
-2.4346128	<s> seed	-1.3921105
-2.5766962	<s> pitting	-1.2552725
-1.8547384	<s> it	-1.1091444
-1.3260281	have it	-0.86530143
-1.4815031	you it	-0.7781512
-0.59903276	done it	-0.66900676
-1.6639657	of it	-0.8239087
-0.29951376	nailed it	-1.1026623
-0.29951376	kept it	-0.9378521
-0.59903276	confirmation it	-0.66900676
-0.29951376	handle it	-0.66900676
-0.29951376	thought it	-0.30103
-1.7030085	i also	-0.7781512
-1.4971074	it also	-1.2218487
-0.77663183	job also	-0.7781512
-0.77663183	old also	-0.42596874
-0.9019531	also provides	-1.2218487
-0.7772983	job provides	-1.1856365
-1.6192914	for funds	-1.2218487
-1.8847729	to clear	-1.2218487
-0.30084074	clear slums	-1.2218487
-2.6444638	<s> help	-0.8846066
-1.6550355	and help	-1.2218487
-1.4115989	can help	-1
-0.9023333	help colleges	-1.2218487
-0.30084074	colleges build	-1.2218487
-0.30084074	build dormitories	-1.2218487
-2.6914558	<s> bloat	-1.146128
-2.9671412	<s> was	-0.7781512
-1.6742058	i was	-0.7781512
-1.1344733	she was	-0.38021123
-1.0191207	it was	-0.98097676
-0.9916434	there was	-0.7781512
-0.29934576	shoes was	-1
-0.29934576	bracelet was	-0.86530143
-0.29934576	luck was	-0.7781512
-0.29934576	pickpocket was	-0.9378521
-0.29934576	range was	-0.72699875
-0.29934576	display was	-0.42596874
-2.1073325	<s> a	-0.90309
-1.2689592	for a	-1
-1.2867823	have a	-0.7781512
-0.88202316	him a	-0.42596874
-1.5535852	and a	-0.30103
-0.5913989	write a	-0.66900676
-0.7622561	get a	-0.90309
-0.9748397	is a	-0.9941704
-1.0479522	as a	-0.7781512
-0.8871949	on a	-0.7781512
-0.7622561	expect a	-0.7781512
-1.0001608	was a	-0.89579076
-0.7622561	take a	-0.86530143
-0.7622561	not a	-1.2863067
-0.29566672	became a	-1.1856365
-1.4028939	are a	-0.30103
-0.7622561	did a	-0.86530143
-0.29566672	allow a	-1.20412
-1.1099057	its a	-0.8239087
-0.29566672	pick a	-0.90309
-0.5913989	bought a	-0.97003675
-0.29566672	toward a	-0.86530143
-0.46910095	makes a	-0.845098
-0.29566672	covers a	-1.1249387
-1.0479522	from a	-0.30103
-0.68568397	had a	-0.60206
-0.29566672	wore a	-0.7781512
-0.5913989	such a	-0.5228787
-0.29566672	even a	-0.8239087
-0.29566672	deserves a	-0.5228787
-0.5913989	paint a	-0.42596874
-0.29566672	postdate a	-0.30103
-0.7622561	or a	-0.42596874
-3.7834058	<s> good	-0.30103
-1.2977228	a good	-0.98527676
-0.77713615	look good	-0.8239087
-3.2032535	<s> win	-0.66900676
-1.0771534	good win	-1.2218487
-0.601383	may win	-0.42596874
-1.6192914	for us	-1.2218487
-1.5266675	he has	-0.8239087
-0.6014912	nothing has	-1.1663314
-0.6016815	has been	-1.1663314
-0.30074552	been done	-1.1663314
-0.30074552	weve done	-0.66900676
-2.9844112	<s> yet	-0.86530143
-0.601383	done yet	-1.1663314
-0.77713615	eat yet	-0.66900676
-2.5401719	<s> take	-1.2863067
-1.87908	to take	-1.1663314
-1.1437632	will take	-0.86530143
-0.7775836	take advantage	-1.1663314
-0.7671597	much of	-0.30103
-0.29733518	advantage of	-1.1663314
-0.29733518	period of	-1.1856365
-0.5947015	program of	-1.2863067
-0.29733518	roll of	-1.1856365
-1.4247506	are of	-0.60206
-0.29733518	pair of	-1
-0.29733518	peck of	-0.90309
-0.7671597	out of	-0.42596874
-0.29733518	gallon of	-0.97003675
-0.5947015	full of	-0.86530143
-0.29733518	fiercest of	-0.86530143
-0.29733518	minute of	-0.8239087
-0.29733518	number of	-0.8239087
-0.29733518	lack of	-0.66900676
-0.5947015	state of	-0.9378521
-0.29733518	largest of	-0.8239087
-0.29733518	pockets of	-0.8239087
-0.5947015	confirmation of	-0.7781512
-0.29733518	lot of	-0.5228787
-0.29733518	part of	-0.66900676
-0.29733518	name of	-0.30103
-0.29733518	lots of	-0.30103
-2.1892319	the enabling	-1.1663314
-0.30084074	enabling legislation	-1.1663314
-2.5766962	<s> aluminum	-1.2552725
-0.30084074	aluminum silverware	-1.2552725
-3.2243004	<s> can	-0.42596874
-1.5859225	we can	-0.90309
-1.6702428	i can	-0.6812413
-1.4764239	you can	-0.9378521
-0.89572835	also can	-0.7781512
-0.29917789	silverware can	-1.2552725
-0.5983636	work can	-1
-0.29917789	dance can	-1
-0.5983636	basketball can	-0.7781512
-0.29917789	trespassers can	-0.86530143
-0.5983636	gold can	-0.7781512
-0.29917789	standby can	-0.30103
-1.552908	be flimsy	-1.2552725
-2.6497414	<s> shy	-1.1856365
-2.4110286	<s> cake	-1.4149734
-1.9908206	a period	-1.1856365
-1.6944498	of transition	-1.1856365
-2.9885685	<s> me	-0.8239087
-1.8603469	to me	-0.42596874
-1.6058667	for me	-1.1856365
-0.6003742	took me	-0.90309
-1.2477374	with me	-0.9378521
-0.6003742	fit me	-0.5228787
-2.3131218	<s> there	-1.20412
-0.60104656	basketball there	-0.86530143
-0.77663183	sat there	-0.42596874
-0.30052292	unfortunately there	-0.30103
-1.9908206	a treehouse	-1.1856365
-0.7761281	go up	-0.66900676
-0.3003546	treehouse up	-1.1856365
-0.3003546	warm up	-0.86530143
-0.3003546	speak up	-0.86530143
-0.3003546	shook up	-0.30103
-2.1819286	the above	-0.7781512
-0.9985793	up above	-1.1856365
-2.4110286	<s> nine	-1.4149734
-1.3945382	is not	-1.0934217
-1.50062	was not	-0.42596874
-1.6943561	a program	-1.0543576
-1.6944498	of socialized	-1.2863067
-0.30084074	socialized medicine	-1.2863067
-2.6914558	<s> league	-1.146128
-2.186826	<s> at	-1.3290588
-1.4971074	was at	-0.30103
-0.30052292	died at	-0.8239087
-0.60104656	sold at	-0.30103
-1.5021312	it eventually	-1.1856365
-0.30084074	eventually became	-1.1856365
-1.9908206	a rather	-1.1856365
-0.30084074	rather proud	-1.1856365
-0.30084074	proud claim	-1.1856365
-2.3778925	<s> seven	-1.447158
-2.0452762	<s> leak	-1.7732987
-0.9023333	both injuries	-1.2552725
-3.1250272	<s> were	-0.66900676
-1.291015	they were	-0.72699875
-0.30001807	injuries were	-1.2552725
-0.30001807	results were	-0.9378521
-0.30001807	cars were	-0.5228787
-0.77512246	or were	-0.30103
-0.30001807	paintings were	-0.30103
-2.1892319	the same	-1.2552725
-0.30084074	same leg	-1.2552725
-2.1819286	the job	-1.0280287
-1.077477	good job	-0.86530143
-0.6016815	provides many	-1.1856365
-0.30084074	many benefits	-1.1856365
-2.3997	<s> eight	-1.4259686
-2.6914558	<s> top	-1.146128
-2.6914558	<s> lima	-1.146128
-2.611685	<s> vat	-1.2218487
-2.4860103	<s> blow	-1.3424227
-2.6497414	<s> spain	-1.1856365
-2.3471065	<s> fill	-1.1760912
-1.9908206	a roll	-1.1856365
-1.6944498	of wire	-1.1856365
-0.30084074	wire lay	-1.1856365
-0.30084074	lay near	-1.1856365
-3.5106058	<s> wall	-0.42596874
-2.1819286	the wall	-1.1856365
-2.611685	<s> harm	-1.2218487
-1.5282722	he wrapped	-1.1856365
-2.1892319	the package	-1.1856365
-0.30084074	package hastily	-1.1856365
-2.3997	<s> chop	-1.4259686
-2.1892319	the books	-1.1856365
-2.9313335	<s> are	-0.7781512
-1.5794728	we are	-0.8239087
-1.6150334	and are	-0.30103
-1.279633	they are	-0.42596874
-1.4714034	you are	-0.66900676
-0.29884225	books are	-1.1856365
-0.59769547	people are	-0.7781512
-0.29884225	themselves are	-1.0280287
-0.29884225	reflexes are	-0.9378521
-0.29884225	subtraction are	-0.86530143
-0.29884225	apartments are	-0.8239087
-0.29884225	bongos are	-0.42596874
-0.29884225	wages are	-0.30103
-0.29884225	costumes are	-0.30103
-1.5443028	be very	-1
-1.4944674	was very	-0.7781512
-1.141422	were very	-0.9378521
-1.4670987	are very	-1.1856365
-0.7761281	played very	-0.8239087
-0.9990544	very expensive	-1.1856365
-2.646369	<s> did	-0.8846066
-0.30074552	unit did	-0.86530143
-0.7775836	did dad	-1.0280287
-3.0854073	<s> academic	-0.7781512
-0.9985793	do academic	-1.0280287
-0.6016815	academic bidding	-1.0280287
-2.8804529	<s> shell	-0.97003675
-2.3997	<s> sin	-1.4259686
-2.7892518	<s> ticker	-1.0543576
-2.762662	<s> tin	-1.0791812
-2.1892319	the pair	-1
-1.6944498	of shoes	-1
-2.1819286	the new	-0.66900676
-1.50062	was new	-1
-1.5201373	he really	-1.1026623
-1.683043	is really	-0.86530143
-1.4944674	was really	-0.30103
-0.3003546	wed really	-0.90309
-0.3003546	seemed really	-0.42596874
-0.9990544	really crucified	-0.8808136
-1.2288426	he nailed	-1.1026623
-1.9908206	a yard	-1.1026623
-0.30084074	yard loss	-1.1026623
-2.801255	<s> people	-1.0280287
-0.60104656	those people	-0.7781512
-0.77663183	young people	-0.86530143
-0.30052292	elderly people	-0.7781512
-2.9885898	<s> who	-0.86530143
-0.9019531	people who	-1.0280287
-0.6016815	who value	-1.0280287
-0.30084074	value themselves	-1.0280287
-1.4742906	are lifes	-1.0280287
-0.30084074	lifes winners	-1.0280287
-2.1892319	the owners	-0.97003675
-0.30084074	owners regularly	-0.97003675
-3.0296662	<s> look	-0.8239087
-0.3006914	regularly look	-0.97003675
-0.601383	didnt look	-0.8239087
-1.6192914	for plumbing	-0.97003675
-3.1433332	<s> leaks	-0.72699875
-0.30074552	plumbing leaks	-0.97003675
-2.8804529	<s> xray	-0.97003675
-2.8804529	<s> lock	-0.97003675
-2.8126218	<s> sand	-1.0280287
-0.6014912	black sand	-0.8239087
-2.7892518	<s> ham	-1.0543576
-2.8715134	<s> im	-0.97003675
-0.601383	think im	-0.86530143
-0.3006914	now im	-0.86530143
-0.7775836	im willing	-0.97003675
-1.8847729	to experiment	-0.97003675
-2.1819286	the first	-0.97003675
-0.9985793	at first	-0.30103
-1.50062	was time	-0.66900676
-0.6014912	first time	-0.97003675
-2.7892518	<s> although	-1.0543576
-0.6014912	always alone	-1.0543576
-0.6014912	come alone	-0.72699875
-1.6192914	we survive	-1.0543576
-3.5402133	<s> an	-0.30103
-1.2462487	be an	-0.75332767
-1.4902129	in an	-1.2863067
-1.0358559	have an	-0.8808136
-0.77512246	like an	-0.42596874
-0.60003847	tell an	-0.30103
-0.30001807	provoked an	-0.30103
-1.2535719	an excellent	-1.0543576
-0.30084074	excellent team	-1.0543576
-2.8804529	<s> nut	-0.97003675
-2.8747318	<s> please	-0.97003675
-1.50062	you please	-0.30103
-0.6016815	please open	-0.97003675
-2.1892319	the window	-0.97003675
-0.30084074	window quickly	-0.97003675
-1.5282722	he dresses	-1.2863067
-0.6014912	crucified himself	-0.30103
-0.30074552	dresses himself	-1.2863067
-1.2535719	an ancient	-1.2863067
-1.6921927	of black	-0.8239087
-0.30074552	ancient black	-1.2863067
-0.6016815	black frock	-1.2863067
-2.7100115	<s> coat	-1.1249387
-0.30074552	frock coat	-1.2863067
-3.5402133	<s> will	-0.30103
-1.5145885	he will	-1.20412
-1.6904299	i will	-0.30103
-1.1390934	she will	-0.66900676
-1.291015	they will	-0.86530143
-0.30001807	families will	-0.86530143
-0.30001807	contributions will	-0.72699875
-1.1448047	will allow	-1.20412
-1.9908206	a rare	-1.20412
-0.30084074	rare lie	-1.20412
-2.9539993	<s> zulu	-0.90309
-2.6444638	<s> its	-0.58357656
-0.601383	think its	-0.8239087
-0.3006914	maybe its	-0.30103
-1.1448047	its fun	-0.9378521
-1.8847729	to roast	-0.9378521
-0.30084074	roast marshmallows	-0.9378521
-2.971654	<s> gas	-0.86530143
-0.77663183	years gas	-0.72699875
-1.9758253	a gas	-0.9378521
-1.6869612	of gas	-0.97003675
-0.9023333	gas burner	-0.9378521
-2.1892319	the wait	-1
-1.8811345	to work	-0.72699875
-1.6173134	for work	-1
-0.9990544	very long	-1
-2.915671	<s> whitecapped	-0.9378521
-0.30084074	whitecapped waves	-0.9378521
-0.30084074	waves covered	-0.9378521
-2.1892319	the entire	-0.9378521
-0.30084074	entire bay	-0.9378521
-2.9539993	<s> then	-0.90309
-0.30084074	then wed	-0.90309
-1.340345	have someplace	-0.90309
-2.7376068	<s> bed	-1.1026623
-2.9960403	<s> flicker	-0.86530143
-2.5938385	<s> bread	-1.2388821
-1.202608	you want	-0.748188
-2.9539993	<s> sicker	-0.90309
-0.9023333	help greg	-0.90309
-1.8847729	to pick	-0.90309
-1.9908206	a peck	-0.90309
-1.6944498	of potatoes	-0.90309
-2.3886595	<s> fork	-1.4366926
-2.555906	<s> said	-1.2710668
-1.7072837	i said	-0.30103
-1.4997635	it said	-0.66900676
-1.9908206	a calico	-0.90309
-3.1433332	<s> cat	-0.72699875
-0.30074552	calico cat	-0.90309
-1.8811345	to keep	-0.90309
-0.30074552	discussions keep	-0.86530143
-1.5282722	he took	-0.8016324
-1.0771534	me out	-0.90309
-0.9017371	things out	-0.72699875
-0.601383	fell out	-0.42596874
-0.9017371	one day	-0.90309
-0.77713615	every day	-0.66900676
-0.3006914	twelfth day	-0.86530143
-2.5416698	<s> only	-0.8091855
-2.1819286	the only	-0.90309
-0.9023333	only lawyers	-0.97003675
-0.30084074	lawyers love	-0.97003675
-0.30084074	love millionaires	-0.97003675
-2.8804529	<s> litter	-0.97003675
-2.5938385	<s> sink	-1.2388821
-2.6302965	<s> red	-1.20412
-2.8478775	<s> ned	-1
-2.8804529	<s> sit	-0.97003675
-2.8478775	<s> being	-1
-3.5106058	<s> able	-0.42596874
-0.30074552	being able	-1
-1.8847729	to dance	-1
-0.9019531	help too	-1
-0.30074552	drugs too	-0.30103
-2.5141861	<s> hand	-1.3152704
-2.9539993	<s> rest	-0.90309
-2.6302965	<s> those	-0.90309
-0.6016815	those musicians	-1
-0.30084074	musicians harmonize	-1
-0.30084074	harmonize marvelously	-1
-2.9094703	<s> most	-0.71600336
-2.1819286	the most	-0.86530143
-2.8425674	<s> young	-0.69897
-0.7772983	most young	-0.86530143
-2.5416698	<s> rise	-1.2863067
-0.7772983	young rise	-0.86530143
-0.6016815	rise early	-0.86530143
-0.3006914	early every	-0.86530143
-0.3006914	loved every	-0.8239087
-0.3006914	meals every	-0.66900676
-0.7775836	every morning	-0.86530143
-3.8104062	<s> bought	-0.30103
-1.6173134	we bought	-0.97003675
-0.6016815	brown chair	-0.97003675
-2.9094703	<s> quicker	-0.9378521
-0.7772983	much quicker	-0.7781512
-2.915671	<s> romeo	-0.9378521
-2.9539993	<s> travel	-0.90309
-1.1987458	all about	-0.86530143
-1.683043	is about	-0.90309
-0.3003546	discover about	-0.86530143
-0.3003546	talked about	-0.72699875
-0.3003546	brought about	-0.90309
-0.9023333	only leisure	-0.90309
-2.915671	<s> nod	-0.9378521
-1.9837103	a place	-0.7781512
-1.0771534	good place	-0.90309
-0.3006914	gently place	-0.30103
-0.7775836	place though	-0.90309
-0.30084074	though small	-0.90309
-2.9539993	<s> liquor	-0.90309
-2.8175762	<s> beg	-0.80618
-2.6463594	<s> that	-0.74036264
-0.6003742	fill that	-0.42596874
-0.6003742	beg that	-0.97003675
-0.30018628	seen that	-0.8239087
-0.30018628	requests that	-0.66900676
-0.30018628	beauty that	-0.30103
-1.202608	that guard	-0.97003675
-0.9023333	one gallon	-0.97003675
-2.9844112	<s> ride	-0.86530143
-0.601383	walk ride	-0.30103
-1.4115989	can ride	-0.9378521
-0.7775836	ride stagecoach	-0.9378521
-2.6497414	<s> neat	-1.1856365
-2.6302965	<s> dead	-1.20412
-2.8478775	<s> wit	-1
-1.7111084	i called	-0.86530143
-0.7775836	two different	-0.86530143
-0.30084074	different painters	-0.86530143
-2.9960403	<s> stimulating	-0.86530143
-0.30084074	stimulating discussions	-0.86530143
-0.6016815	keep students	-0.86530143
-0.30084074	students attention	-0.86530143
-0.9023333	help celebrate	-0.86530143
-0.3003546	celebrate your	-0.86530143
-0.7761281	eat your	-0.66900676
-0.3003546	guarantees your	-0.7781512
-0.3003546	upgrade your	-0.5228787
-0.3003546	reflect your	-0.5228787
-0.7772983	four brothers	-0.86530143
-0.9985793	your brothers	-0.86530143
-0.6016815	brothers success	-0.86530143
-2.9960403	<s> lake	-0.86530143
-2.915671	<s> thread	-0.9378521
-2.9844112	<s> dont	-0.86530143
-1.7072837	i dont	-0.8239087
-0.9983095	just dont	-0.30103
-0.9990544	do charlies	-0.86530143
-0.30084074	charlies dirty	-0.86530143
-0.30084074	dirty dishes	-0.86530143
-2.4860103	<s> sew	-1.3424227
-2.762662	<s> sort	-1.0791812
-2.9960403	<s> catch	-0.86530143
-1.5257579	he played	-0.86530143
-1.6550355	and played	-0.66900676
-0.601383	has played	-0.8239087
-3.0854073	<s> basketball	-0.7781512
-0.7772983	played basketball	-0.86530143
-0.9990544	there while	-0.86530143
-0.30074552	while working	-0.86530143
-0.30074552	credit working	-0.5228787
-0.6016815	working toward	-0.86530143
-1.9908206	a law	-0.86530143
-0.30084074	law degree	-0.86530143
-2.9960403	<s> coconut	-0.86530143
-0.30084074	coconut cream	-0.86530143
-0.30084074	cream pie	-0.86530143
-1.1437632	she makes	-0.42596874
-0.3006914	pie makes	-0.86530143
-0.3006914	straw makes	-0.8239087
-1.9908206	a nice	-0.86530143
-0.30084074	nice dessert	-0.86530143
-1.6192914	we selected	-0.86530143
-0.30084074	selected places	-0.86530143
-0.30074552	places where	-0.86530143
-0.6014912	know where	-0.72699875
-0.6016815	where families	-0.86530143
-1.552908	be welcome	-0.86530143
-2.9960403	<s> cakes	-0.86530143
-2.4595516	<s> bill	-1.3679768
-0.7775836	most accomplished	-0.86530143
-0.30084074	accomplished artists	-0.86530143
-0.30084074	artists obtain	-0.86530143
-0.30084074	obtain popularity	-0.86530143
-2.7100115	<s> short	-1.1249387
-1.6921927	is short	-0.86530143
-2.9960403	<s> shin	-0.86530143
-2.9844112	<s> some	-0.86530143
-1.6550355	and some	-0.42596874
-0.3006914	definitely some	-0.86530143
-0.7775836	some prefer	-0.86530143
-2.1892319	the traditional	-0.86530143
-0.30084074	traditional steel	-0.86530143
-0.30084074	steel kind	-0.86530143
-2.7139184	<s> cork	-1.1249387
-2.7846086	<s> old	-0.75332767
-1.6562608	and old	-0.42596874
-2.762662	<s> weep	-1.0791812
-2.9960403	<s> biblical	-0.86530143
-0.30084074	biblical scholars	-0.86530143
-0.30084074	scholars argue	-0.86530143
-0.30084074	argue history	-0.86530143
-2.9960403	<s> rid	-0.86530143
-2.9960403	<s> quart	-0.86530143
-2.9960403	<s> shot	-0.86530143
-1.6944498	is definitely	-0.86530143
-0.7775836	some ligament	-0.86530143
-0.30084074	ligament damage	-0.86530143
-0.9990544	his knee	-0.86530143
-2.9960403	<s> sheep	-0.86530143
-2.9960403	<s> snort	-0.86530143
-2.9960403	<s> pork	-0.86530143
-1.5009018	in fact	-0.86530143
-2.1819286	the fact	-0.5228787
-0.601383	fact our	-0.86530143
-0.95272076	with our	-0.72699875
-0.3006914	obtaining our	-0.7781512
-0.9023333	our whole	-0.86530143
-0.30084074	whole defensive	-0.86530143
-0.30084074	defensive unit	-0.86530143
-2.9960403	<s> sketch	-0.86530143
-0.6016815	who knows	-0.86530143
-0.3006914	knows what	-0.86530143
-0.601383	thats what	-0.71600336
-0.601383	sure what	-0.30103
-0.9023333	what youll	-0.86530143
-0.30084074	youll discover	-0.86530143
-0.9990544	about yourself	-0.86530143
-2.5289905	<s> blend	-1.30103
-2.9960403	<s> shed	-0.86530143
-1.50062	it looked	-0.42596874
-0.6014912	brothers looked	-0.86530143
-0.6016815	looked identical	-0.86530143
-2.9885898	<s> critical	-0.86530143
-0.30074552	gained critical	-0.90309
-0.6016815	critical equipment	-0.86530143
-0.3006914	equipment needs	-0.86530143
-0.3006914	household needs	-0.30103
-0.3006914	plant needs	-0.30103
-0.7775836	needs proper	-0.86530143
-0.30084074	proper maintenance	-0.86530143
-2.5602052	<s> see	-1.2710668
-2.9960403	<s> shop	-0.86530143
-2.6085944	<s> heat	-1.2218487
-1.6921927	of heat	-0.66900676
-2.915671	<s> suddenly	-0.9378521
-1.1448047	my reflexes	-0.9378521
-1.4742906	are gone	-0.9378521
-2.915671	<s> gill	-0.9378521
-2.9960403	<s> show	-0.86530143
-2.9094703	<s> read	-0.9378521
-1.4121366	can read	-0.8239087
-2.1892319	the results	-0.9378521
-0.9990544	very disappointing	-0.9378521
-2.9960403	<s> tug	-0.86530143
-2.5443175	<s> cash	-1.2863067
-2.9960403	<s> stretch	-0.86530143
-2.5602052	<s> steak	-1.2710668
-2.9960403	<s> ray	-0.86530143
-2.9960403	<s> fort	-0.86530143
-2.9960403	<s> lee	-0.86530143
-2.611685	<s> hold	-1.2218487
-2.915671	<s> ive	-0.9378521
-0.30084074	ive kept	-0.9378521
-3.2171707	<s> with	-0.5228787
-1.4840652	it with	-0.9378521
-0.29968178	compliance with	-0.9378521
-0.29968178	pleased with	-0.7781512
-0.29968178	popular with	-0.7781512
-0.29968178	laced with	-0.86530143
-0.29968178	disappointed with	-0.66900676
-0.29968178	canteen with	-0.42596874
-0.59936774	deal with	-0.42596874
-1.0780468	me ever	-0.9378521
-0.30084074	ever since	-0.9378521
-2.8478775	<s> thats	-0.7781512
-2.9844112	<s> life	-0.86530143
-1.1437632	my life	-0.66900676
-0.9017371	what life	-0.86530143
-2.9960403	<s> shred	-0.86530143
-2.9960403	<s> sight	-0.86530143
-2.1892319	the fish	-0.86530143
-0.30084074	fish swam	-0.86530143
-0.30084074	swam across	-0.86530143
-2.1892319	the pond	-0.86530143
-1.1448047	she doesnt	-0.86530143
-1.7072837	i like	-0.42596874
-0.601383	looked like	-0.42596874
-0.3006914	doesnt like	-0.86530143
-1.5021312	it hanging	-0.86530143
-0.30084074	hanging around	-0.86530143
-2.762662	<s> tort	-1.0791812
-3.0947387	<s> meats	-0.7781512
-1.658425	and precious	-0.86530143
-2.557459	<s> eat	-0.97003675
-1.50062	you eat	-0.66900676
-2.9885898	<s> sport	-0.86530143
-0.30074552	entertaining sport	-0.7781512
-0.9023333	people participate	-0.86530143
-1.5023193	in athletic	-0.86530143
-0.30084074	athletic activities	-0.86530143
-2.9960403	<s> trespassers	-0.86530143
-1.552908	be prosecuted	-0.86530143
-1.658425	and fined	-0.86530143
-2.915671	<s> etiquette	-0.9378521
-0.30084074	etiquette mandates	-0.9378521
-0.30084074	mandates compliance	-0.9378521
-1.2535719	with existing	-0.9378521
-0.30084074	existing regulations	-0.9378521
-0.7775836	quick touchdown	-0.9378521
-0.30084074	touchdown resulted	-0.9378521
-2.1819286	the little	-0.86530143
-0.6014912	still little	-0.30103
-0.6016815	little girls	-0.86530143
-0.30084074	girls cut	-0.86530143
-0.30084074	cut lacy	-0.86530143
-0.30084074	lacy valentines	-0.86530143
-2.4998698	<s> geese	-1.3290588
-2.9960403	<s> mill	-0.86530143
-2.9960403	<s> barbs	-0.86530143
-3.0854073	<s> gold	-0.7781512
-0.30074552	barbs gold	-0.86530143
-0.6016815	gold bracelet	-0.86530143
-1.9908206	a graduation	-0.86530143
-0.30084074	graduation present	-0.86530143
-2.4226606	<s> reap	-1.4036924
-2.9960403	<s> dill	-0.86530143
-2.9960403	<s> lend	-0.86530143
-2.9960403	<s> foe	-0.86530143
-1.5282722	he asked	-0.86530143
-1.9908206	a loan	-0.86530143
-0.9985793	they make	-0.69897
-0.7772983	phone make	-0.8239087
-3.102031	<s> any	-0.72699875
-1.8665019	to any	-0.86530143
-1.6092815	for any	-0.42596874
-1.4944674	it any	-0.66900676
-0.7761281	make any	-0.86530143
-0.9985793	any money	-0.86530143
-0.30074552	save money	-0.30103
-2.9960403	<s> toe	-0.86530143
-2.9960403	<s> threat	-0.86530143
-2.9960403	<s> port	-0.86530143
-1.7111084	i scream	-0.86530143
-1.8847729	to warm	-0.86530143
-1.1448047	my voice	-0.86530143
-2.7376068	<s> rip	-1.1026623
-2.762662	<s> wise	-1.0791812
-1.7086661	i think	-0.86530143
-0.7772983	dont think	-0.8239087
-2.9472308	<s> full	-0.90309
-0.7772983	im full	-0.86530143
-1.0780468	this stuff	-0.86530143
-2.9960403	<s> bend	-0.86530143
-2.9960403	<s> muck	-0.86530143
-2.9960403	<s> snake	-0.86530143
-1.7111084	i havent	-0.8239087
-0.30084074	havent seen	-0.8239087
-1.202608	that friend	-0.8239087
-3.0425918	<s> bumper	-0.8239087
-1.2535719	an entertaining	-0.7781512
-3.0425918	<s> ash	-0.8239087
-3.0854073	<s> fit	-0.7781512
-0.6014912	never fit	-0.5228787
-3.0425918	<s> sheer	-0.8239087
-0.9990544	at twilight	-0.86530143
-2.1892319	the twelfth	-0.86530143
-1.340345	have chablis	-0.86530143
-2.6302965	<s> hash	-1.20412
-3.0947387	<s> worse	-0.7781512
-0.30084074	worse luck	-0.7781512
-1.6921927	is still	-0.30103
-1.50062	was still	-0.7781512
-1.8811345	to come	-0.7781512
-1.50062	you come	-0.72699875
-2.1892319	the golfing	-0.7781512
-0.30084074	golfing fathers	-0.7781512
-0.30084074	fathers ruled	-0.7781512
-0.9990544	his favor	-0.7781512
-2.5443175	<s> hail	-1.2863067
-3.0947387	<s> code	-0.7781512
-3.0947387	<s> elderly	-0.7781512
-0.7775836	often excluded	-0.7781512
-3.0425918	<s> beam	-0.8239087
-1.5282722	he remains	-0.86530143
-2.1892319	the fiercest	-0.86530143
-1.6944498	of competitors	-0.86530143
-3.0947387	<s> knife	-0.7781512
-3.0425918	<s> pete	-0.8239087
-2.9960403	<s> addition	-0.86530143
-1.658425	and subtraction	-0.86530143
-1.4742906	are learned	-0.86530143
-0.30084074	learned skills	-0.86530143
-1.5512097	be found	-0.7781512
-0.30074552	soon found	-0.42596874
-0.6016815	found anywhere	-0.7781512
-3.0425918	<s> gash	-0.8239087
-1.5021312	was pleased	-0.7781512
-2.1819286	the way	-0.7781512
-0.9985793	any way	-0.66900676
-2.1653183	the things	-0.5228787
-0.77663183	get things	-0.30103
-0.60104656	work things	-0.72699875
-0.60104656	way things	-0.7781512
-0.9019531	things went	-0.7781512
-0.30074552	marriage went	-0.86530143
-1.7111084	i loved	-0.8239087
-0.7775836	every minute	-0.8239087
-1.0780468	good idea	-0.8239087
-2.9960403	<s> fender	-0.86530143
-3.0947387	<s> woe	-0.7781512
-3.0425918	<s> member	-0.8239087
-3.0425918	<s> beast	-0.8239087
-1.1448047	she suggested	-0.8239087
-1.340345	have dinner	-0.8239087
-0.9983095	got together	-0.42596874
-0.3006914	dinner together	-0.8239087
-0.601383	trip together	-0.30103
-2.8804529	<s> so	-0.66900676
-0.601383	so if	-0.8239087
-0.3006914	fear if	-0.72699875
-0.601383	practical if	-0.30103
-0.7775836	if anybody	-0.8239087
-0.30084074	anybody solicits	-0.8239087
-0.3003546	solicits by	-0.8239087
-0.3003546	begin by	-0.86530143
-0.6007103	them by	-0.72699875
-0.3003546	rewarded by	-0.30103
-0.3003546	acting by	-0.30103
-0.7772983	not sure	-0.30103
-0.7772983	make sure	-0.8239087
-1.5021312	you mail	-0.8239087
-2.1892319	the dough	-0.8239087
-3.0947387	<s> ambidextrous	-0.7781512
-0.30084074	ambidextrous pickpockets	-0.7781512
-0.30084074	pickpockets accomplish	-0.7781512
-3.0425918	<s> guess	-0.8239087
-1.9908206	a wedding	-0.86530143
-0.30084074	wedding trip	-0.64345264
-2.4823835	<s> her	-0.86530143
-0.77713615	win her	-0.42596874
-0.3006914	outgrew her	-0.8239087
-0.9990544	her dark	-0.8239087
-0.30084074	dark hair	-0.8239087
-1.6944498	is combed	-0.8239087
-0.30084074	combed casually	-0.8239087
-3.2226744	<s> seam	-0.66900676
-3.0425918	<s> beep	-0.8239087
-1.5512097	be quite	-0.7781512
-1.472873	are quite	-0.30103
-0.6016815	quite vocal	-0.7781512
-1.5021312	it requires	-0.7781512
-0.9990544	big investment	-0.7781512
-1.202608	that pickpocket	-0.9378521
-1.5021312	was caught	-0.9378521
-0.30084074	caught redhanded	-0.9378521
-3.1540124	<s> mock	-0.72699875
-2.6497414	<s> dock	-1.1856365
-2.9472308	<s> sea	-0.90309
-0.30074552	resemble sea	-0.5228787
-3.0425918	<s> grandmother	-0.8239087
-0.30084074	grandmother outgrew	-0.8239087
-0.9990544	her upbringing	-0.8239087
-1.5023193	in petticoats	-0.8239087
-2.1892319	the sun	-0.8239087
-0.30084074	sun died	-0.8239087
-3.0947387	<s> ember	-0.7781512
-2.6497414	<s> seat	-1.1856365
-3.0947387	<s> food	-0.7781512
-3.0947387	<s> reef	-0.7781512
-1.9908206	a fire	-0.8239087
-1.5023193	in straw	-0.8239087
-0.7775836	quick blaze	-0.8239087
-3.0947387	<s> sender	-0.7781512
-0.9990544	her classical	-0.90309
-0.30084074	classical performance	-0.90309
-0.30084074	performance gained	-0.90309
-0.6016815	critical acclaim	-0.90309
-0.9990544	her position	-0.86530143
-0.9019531	also covers	-0.7781512
-0.30074552	position covers	-0.86530143
-1.9908206	a number	-1.1249387
-1.6944498	of daily	-0.86530143
-0.30084074	daily tasks	-0.86530143
-0.30084074	tasks common	-0.86530143
-0.9990544	any social	-0.86530143
-0.30084074	social director	-0.86530143
-2.1892319	the marriage	-0.86530143
-1.0741434	well from	-0.86530143
-0.30018628	behavior from	-0.72699875
-0.30018628	coming from	-0.72699875
-0.30018628	assaults from	-0.7781512
-0.30018628	drenched from	-0.86530143
-0.30018628	original from	-0.30103
-2.1819286	the start	-0.86530143
-0.9019531	our start	-0.66900676
-1.8811345	to tell	-0.30103
-1.7086661	i tell	-0.7781512
-1.5021312	was wonderful	-0.7781512
-3.0947387	<s> renter	-0.7781512
-2.6497414	<s> row	-1.1856365
-3.0947387	<s> lender	-0.7781512
-3.0947387	<s> ape	-0.7781512
-1.7086661	i didnt	-0.72699875
-0.9985793	just didnt	-0.8239087
-3.0425918	<s> forks	-0.8239087
-3.1540124	<s> tender	-0.72699875
-3.0425918	<s> tea	-0.8239087
-0.9990544	very popular	-0.7781512
-0.9023333	our fans	-0.7781512
-3.0947387	<s> timber	-0.7781512
-2.762662	<s> leap	-1.0791812
-3.0947387	<s> catastrophic	-0.7781512
-0.30084074	catastrophic economic	-0.7781512
-0.30084074	economic cutbacks	-0.7781512
-0.30084074	cutbacks neglect	-0.7781512
-2.1892319	the poor	-0.7781512
-2.8804529	<s> tail	-0.97003675
-3.0425918	<s> bender	-0.8239087
-2.4998698	<s> ache	-1.3290588
-3.0425918	<s> center	-0.8239087
-3.0947387	<s> mom	-0.7781512
-0.30084074	mom strongly	-0.7781512
-0.30084074	strongly dislikes	-0.7781512
-0.30084074	dislikes appetizers	-0.7781512
-3.0425918	<s> beef	-0.8239087
-3.0425918	<s> temper	-0.8239087
-2.7169378	<s> had	-1.1026623
-1.6092815	we had	-0.30103
-1.698775	i had	-0.72699875
-0.3003546	finger had	-0.72699875
-0.3003546	kat had	-0.30103
-0.9990544	no desire	-0.72699875
-1.8847729	to change	-0.72699875
-1.1448047	my ways	-0.72699875
-2.6302965	<s> wax	-1.20412
-2.915671	<s> pet	-0.9378521
-3.0947387	<s> aid	-0.7781512
-3.1540124	<s> knock	-0.72699875
-3.1540124	<s> lies	-0.72699875
-3.0947387	<s> cheese	-0.7781512
-3.0425918	<s> hatch	-0.8239087
-2.1892319	the lack	-0.66900676
-0.6016815	heat compounded	-0.66900676
-2.1892319	the tenants	-0.66900676
-0.30074552	tenants grievances	-0.66900676
-0.30074552	personal grievances	-0.90309
-2.5938385	<s> bunch	-1.2388821
-0.9990544	any contributions	-0.72699875
-1.552908	be greatly	-0.72699875
-0.30084074	greatly appreciated	-0.72699875
-2.611685	<s> ease	-1.2218487
-2.7892518	<s> add	-1.0543576
-2.9960403	<s> chocolate	-0.86530143
-1.658425	and roses	-0.86530143
-0.30074552	roses never	-0.86530143
-0.30074552	theyll never	-0.5228787
-0.6016815	never fail	-0.64345264
-1.9908206	a romantic	-0.7781512
-0.30084074	romantic gift	-0.7781512
-2.1892319	the legislature	-0.9378521
-0.30084074	legislature met	-0.9378521
-3.8104062	<s> judge	-0.30103
-1.8811345	to judge	-0.9378521
-1.8955822	the state	-0.7781512
-1.6944498	of public	-0.9378521
-0.30084074	public education	-0.9378521
-2.1892319	the largest	-0.8239087
-0.7775836	four states	-0.8239087
-3.1540124	<s> peas	-0.72699875
-3.1540124	<s> bun	-0.72699875
-3.1540124	<s> punch	-0.72699875
-3.0947387	<s> ail	-0.7781512
-2.9960403	<s> begin	-0.86530143
-0.9990544	by trying	-0.86530143
-1.8847729	to speak	-0.86530143
-2.7892518	<s> tall	-1.0543576
-3.1540124	<s> range	-0.72699875
-1.9908206	a vital	-0.72699875
-0.30084074	vital detail	-0.72699875
-3.1540124	<s> pill	-0.72699875
-3.1540124	<s> racks	-0.72699875
-2.1892319	the structures	-0.8239087
-0.30084074	structures housing	-0.8239087
-2.1892319	the apartments	-0.8239087
-1.6944498	of masonry	-0.72699875
-1.658425	and frame	-0.72699875
-0.30084074	frame construction	-0.72699875
-3.1540124	<s> aches	-0.72699875
-3.0947387	<s> lit	-0.7781512
-2.1892319	the singers	-0.72699875
-0.30084074	singers finger	-0.72699875
-1.9908206	a splinter	-0.72699875
-2.9960403	<s> now	-0.86530143
-0.7775836	im living	-0.86530143
-0.30084074	living exactly	-0.86530143
-1.7111084	i choose	-0.7781512
-3.1540124	<s> duck	-0.72699875
-3.1540124	<s> arm	-0.72699875
-1.7111084	i wanted	-0.72699875
-1.2535719	an actress	-0.72699875
-2.9094703	<s> fell	-0.9378521
-1.50062	it fell	-0.42596874
-0.6016815	academic aptitude	-0.7781512
-0.30084074	aptitude guarantees	-0.7781512
-0.9990544	your diploma	-0.7781512
-3.1540124	<s> charm	-0.72699875
-1.9908206	a great	-0.72699875
-0.30084074	great meeting	-0.72699875
-1.552908	be prepared	-0.72699875
-1.6192914	for odd	-0.72699875
-0.30084074	odd behavior	-0.72699875
-1.0780468	from friends	-0.72699875
-3.0425918	<s> mile	-0.8239087
-3.0947387	<s> rakes	-0.7781512
-1.6192914	we talked	-0.72699875
-2.1892319	the situation	-0.72699875
-1.6921927	of other	-0.7781512
-0.7772983	makes other	-0.42596874
-0.6016815	other items	-0.7781512
-0.9990544	no fear	-0.72699875
-3.4968574	<s> sat	-0.42596874
-0.9983095	just sat	-0.42596874
-1.2014184	all sat	-0.7781512
-1.658425	and relaxed	-0.7781512
-2.5141861	<s> hall	-1.3152704
-3.0947387	<s> sake	-0.7781512
-1.6173134	we know	-0.90309
-0.6014912	didnt know	-0.72699875
-1.1448047	were coming	-0.72699875
-1.6192914	for pockets	-0.8239087
-3.1540124	<s> hell	-0.72699875
-0.6014912	sell them	-0.72699875
-0.7772983	like them	-0.42596874
-1.8955822	the box	-0.8239087
-2.1892319	the plot	-0.86530143
-1.6944498	is laced	-0.86530143
-1.2535719	with mysterious	-0.86530143
-0.30084074	mysterious incidents	-0.86530143
-1.6192914	we shelled	-0.72699875
-0.30084074	shelled clams	-0.72699875
-2.1892319	the chowder	-0.72699875
-1.6192914	we experience	-0.7781512
-0.30084074	experience distress	-0.7781512
-1.658425	and frustration	-0.7781512
-0.30084074	frustration obtaining	-0.7781512
-0.9023333	our degrees	-0.7781512
-3.0947387	<s> ticks	-0.7781512
-2.1892319	the prowler	-0.7781512
-0.30084074	prowler wore	-0.7781512
-1.9908206	a ski	-0.7781512
-0.30084074	ski mask	-0.7781512
-1.6192914	for disguise	-0.7781512
-0.9985793	no confirmation	-0.7781512
-0.6014912	cable confirmation	-0.66900676
-1.6921927	is such	-0.5228787
-1.6921927	of such	-0.7781512
-0.6016815	such massive	-0.7781512
-0.30084074	massive assaults	-0.7781512
-1.0780468	from independent	-0.7781512
-0.30084074	independent sources	-0.7781512
-3.0947387	<s> chap	-0.7781512
-3.1540124	<s> lax	-0.72699875
-3.8104062	<s> score	-0.30103
-1.4121366	can score	-0.90309
-3.1540124	<s> munch	-0.72699875
-1.5282722	he added	-0.90309
-0.30084074	added brought	-0.90309
-1.6562608	and petty	-0.90309
-0.9985793	about petty	-0.90309
-0.6016815	petty jealousies	-0.90309
-0.6016815	petty personal	-0.90309
-3.0425918	<s> even	-0.8239087
-1.9908206	a simple	-0.8239087
-0.30084074	simple vocabulary	-0.8239087
-0.30084074	vocabulary contains	-0.8239087
-0.30084074	contains symbols	-0.8239087
-3.1540124	<s> end	-0.72699875
-2.1892319	the eastern	-0.7781512
-0.30084074	eastern coast	-0.7781512
-1.6192914	for pure	-0.7781512
-1.6173134	for pleasure	-0.42596874
-0.30074552	pure pleasure	-0.7781512
-1.658425	and excitement	-0.7781512
-3.2226744	<s> dial	-0.66900676
-2.8478775	<s> low	-1
-3.2226744	<s> cold	-0.66900676
-3.404822	<s> whip	-0.5228787
-1.5197973	a few	-0.6478175
-0.7775836	few bad	-0.7781512
-3.404822	<s> ink	-0.5228787
-3.2226744	<s> handle	-0.66900676
-3.404822	<s> theyll	-0.5228787
-1.0780468	me again	-0.5228787
-3.404822	<s> term	-0.5228787
-3.404822	<s> wide	-0.5228787
-0.9990544	got drenched	-0.86530143
-2.1892319	the uninterrupted	-0.86530143
-3.2226744	<s> pant	-0.66900676
-0.7772983	few may	-0.66900676
-0.30074552	company may	-0.42596874
-1.5512097	be hard	-0.66900676
-1.1441404	its hard	-0.30103
-3.8104062	<s> find	-0.30103
-1.5855501	to find	-0.86530143
-3.0947387	<s> cable	-0.5563025
-0.7775836	said translated	-0.66900676
-3.2226744	<s> weve	-0.66900676
-2.1892319	the past	-0.66900676
-3.404822	<s> burn	-0.5228787
-1.6192914	we knew	-0.66900676
-1.6192914	we werent	-0.66900676
-0.30084074	werent doing	-0.66900676
-3.404822	<s> upgrade	-0.5228787
-0.9990544	your status	-0.5228787
-1.8847729	to reflect	-0.5228787
-0.9990544	your wealth	-0.5228787
-3.385975	<s> spring	-0.5228787
-0.30074552	fresh spring	-0.42596874
-3.5106058	<s> street	-0.42596874
-0.6014912	spring street	-0.5228787
-1.395674	is straight	-0.60206
