\data\
ngram 1=1560
ngram 2=3299
ngram 3=2738

\1-grams:
-3.5516293	<unk>	0
0	<s>	-1.1503276
-0.58132863	</s>	0
-3.4671159	stick	-0.30103
-3.4671159	except	-0.30103
-2.2157285	in	-0.38818017
-1.9155097	the	-0.30103
-3.4671159	winter	-0.30103
-3.2013814	when	-0.30103
-3.4671159	ooze	-0.30103
-2.7348418	or	-0.30103
-3.2797391	snow	-0.30103
-3.4671159	ice	-0.30103
-3.4671159	prevents	-0.30103
-3.4671159	pat	-0.30103
-2.6686609	up	-0.30103
-3.4671159	meat	-0.30103
-3.0305488	know	-0.30103
-2.474042	he	-0.30103
-3.2797391	slowly	-0.30103
-3.4671159	takes	-0.30103
-1.9155097	a	-0.31527045
-3.2013814	short	-0.30103
-3.0305488	walk	-0.30103
-3.2797391	open	-0.30103
-3.2797391	air	-0.30103
-3.0305488	each	-0.30103
-2.8129532	day	-0.30103
-3.4671159	swarm	-0.30103
-3.4671159	double	-0.30103
-2.9082634	no	-0.30103
-3.4671159	storm	-0.30103
-3.4671159	usually	-0.30103
-3.4671159	minus	-0.30103
-3.2797391	several	-0.30103
-3.4671159	buttons	-0.30103
-3.4671159	dug	-0.30103
-2.3401275	you	-0.30103
-3.4671159	wished	-0.30103
-1.8841579	to	-0.31912822
-2.6112442	all	-0.30103
-2.9082634	about	-0.30103
-2.6686609	my	-0.30103
-3.2797391	grandfather	-0.30103
-3.2797391	knee	-0.30103
-3.4671159	feet	-0.30103
-3.2797391	train	-0.30103
-3.4671159	but	-0.30103
-3.2797391	always	-0.30103
-3.4671159	answers	-0.30103
-3.4671159	banana	-0.30103
-3.4671159	oil	-0.30103
-3.4671159	beat	-0.30103
-3.2797391	quick	-0.30103
-3.2797391	brown	-0.30103
-3.4671159	fox	-0.30103
-3.4671159	jumps	-0.30103
-3.2797391	over	-0.30103
-3.4671159	lazy	-0.30103
-3.4671159	dog	-0.30103
-3.4671159	she	-0.30103
-2.7348418	had	-0.30103
-2.6686609	your	-0.30103
-3.2013814	dark	-0.30103
-3.2797391	suit	-0.30103
-3.4671159	greasy	-0.30103
-3.4671159	wash	-0.30103
-3.0305488	water	-0.30103
-3.4671159	year	-0.30103
-3.4671159	car	-0.30103
-3.4671159	giving	-0.30103
-3.2797391	those	-0.30103
-3.2013814	who	-0.30103
-3.2797391	observe	-0.30103
-2.8129532	him	-0.30103
-3.4671159	pronounced	-0.30103
-3.4671159	feeling	-0.30103
-2.0858152	of	-0.3309932
-3.4671159	utmost	-0.30103
-3.4671159	respect	-0.30103
-2.7348418	we	-0.30103
-2.5605397	have	-0.30103
-3.2013814	often	-0.30103
-3.4671159	urged	-0.30103
-2.9082634	more	-0.30103
-2.1191428	and	-0.30103
-3.4671159	smoke	-0.30103
-3.4671159	less	-0.30103
-3.4671159	rake	-0.30103
-3.4671159	swore	-0.30103
-3.4671159	rave	-0.30103
-2.1744833	for	-0.30103
-3.4671159	sip	-0.30103
-3.2797391	grow	-0.30103
-3.2797391	bit	-0.30103
-3.2797391	chair	-0.30103
-2.7348418	one	-0.30103
-3.4671159	fair	-0.30103
-3.0305488	two	-0.30103
-3.4671159	beta	-0.30103
-3.4671159	rage	-0.30103
-3.2797391	spark	-0.30103
-3.4671159	race	-0.30103
-3.4671159	form	-0.30103
-3.2797391	farm	-0.30103
-3.4671159	raid	-0.30103
-3.4671159	fee	-0.30103
-3.4671159	weed	-0.30103
-3.4671159	bat	-0.30103
-3.4671159	horn	-0.30103
-3.4671159	jagged	-0.30103
-3.4671159	sheet	-0.30103
-3.4671159	bubble	-0.30103
-3.2013814	warm	-0.30103
-3.4671159	ship	-0.30103
-3.2797391	hair	-0.30103
-3.4671159	share	-0.30103
-3.4671159	rate	-0.30103
-3.4671159	goat	-0.30103
-3.4671159	trace	-0.30103
-3.2013814	go	-0.30103
-3.4671159	alpha	-0.30103
-3.4671159	left	-0.30103
-3.4671159	sticks	-0.30103
-3.4671159	trouble	-0.30103
-3.4671159	dagger	-0.30103
-3.2797391	long	-0.30103
-3.4671159	flowing	-0.30103
-3.4671159	beard	-0.30103
-3.4671159	clings	-0.30103
-3.0305488	his	-0.30103
-3.4671159	chin	-0.30103
-3.2797391	slip	-0.30103
-3.4671159	glow	-0.30103
-3.4671159	trade	-0.30103
-3.4671159	range	-0.30103
-3.4671159	stubble	-0.30103
-3.4671159	floor	-0.30103
-3.4671159	bug	-0.30103
-3.2013814	yet	-0.30103
-3.2013814	still	-0.30103
-3.4671159	thinks	-0.30103
-2.5605397	as	-0.30103
-3.4671159	swiftly	-0.30103
-3.2797391	ever	-0.30103
-3.4671159	jacket	-0.30103
-3.4671159	born	-0.30103
-3.4671159	corn	-0.30103
-3.2797391	right	-0.30103
-3.2797391	knew	-0.30103
-2.7348418	well	-0.30103
-2.1552422	is	-0.3148183
-3.4671159	nearly	-0.30103
-3.4671159	ninety	-0.30103
-3.0305488	three	-0.30103
-2.9082634	years	-0.30103
-3.0305488	old	-0.30103
-3.4671159	feed	-0.30103
-3.4671159	twice	-0.30103
-3.4671159	plays	-0.30103
-3.4671159	skillfully	-0.30103
-2.5605397	with	-0.30103
-3.4671159	zest	-0.30103
-3.4671159	upon	-0.30103
-2.9082634	our	-0.30103
-3.2797391	small	-0.30103
-3.4671159	organ	-0.30103
-3.2797391	rain	-0.30103
-3.4671159	park	-0.30103
-3.4671159	tip	-0.30103
-3.2013814	down	-0.30103
-3.4671159	gadget	-0.30103
-3.2797391	store	-0.30103
-3.4671159	dresses	-0.30103
-3.2797391	himself	-0.30103
-2.5605397	an	-0.30103
-3.4671159	ancient	-0.30103
-3.2797391	black	-0.30103
-3.4671159	frock	-0.30103
-3.2797391	coat	-0.30103
-3.4671159	likes	-0.30103
-2.474042	be	-0.30103
-3.4671159	modern	-0.30103
-3.4671159	language	-0.30103
-3.4671159	torn	-0.30103
-3.4671159	speaks	-0.30103
-3.2797391	voice	-0.30103
-3.0305488	just	-0.30103
-3.4671159	cracked	-0.30103
-3.4671159	quivers	-0.30103
-3.4671159	trifle	-0.30103
-3.4671159	trait	-0.30103
-3.4671159	yes	-0.30103
-3.2013814	dont	-0.30103
-3.4671159	ask	-0.30103
-2.6686609	me	-0.30103
-3.4671159	carry	-0.30103
-3.4671159	oily	-0.30103
-3.4671159	rag	-0.30103
-3.0305488	like	-0.30103
-2.6686609	that	-0.30103
-3.4671159	ninetythree	-0.30103
-3.4671159	rock	-0.30103
-3.4671159	thigh	-0.30103
-3.4671159	pot	-0.30103
-3.4671159	steer	-0.30103
-3.4671159	mother	-0.30103
-3.4671159	sews	-0.30103
-3.2797391	yellow	-0.30103
-3.4671159	gingham	-0.30103
-3.4671159	aprons	-0.30103
-3.2797391	write	-0.30103
-2.7348418	will	-0.30103
-3.4671159	allow	-0.30103
-3.4671159	rare	-0.30103
-3.4671159	lie	-0.30103
-3.4671159	wish	-0.30103
-3.4671159	prior	-0.30103
-3.4671159	slay	-0.30103
-3.4671159	boot	-0.30103
-3.4671159	hear	-0.30103
-3.4671159	nothing	-0.30103
-3.2797391	offensive	-0.30103
-3.2797391	innocence	-0.30103
-3.4671159	gathered	-0.30103
-3.4671159	shells	-0.30103
-2.5151408	on	-0.56427145
-3.4671159	beach	-0.30103
-3.4671159	rocks	-0.30103
-3.4671159	delta	-0.30103
-3.2797391	play	-0.30103
-3.4671159	ate	-0.30103
-3.4671159	whoop	-0.30103
-3.4671159	sleep	-0.30103
-3.4671159	galore	-0.30103
-3.2797391	their	-0.30103
-3.2797391	house	-0.30103
-3.4671159	grey	-0.30103
-3.2797391	white	-0.30103
-3.4671159	sigh	-0.30103
-3.4671159	urgent	-0.30103
-3.2797391	deer	-0.30103
-2.9082634	i	-0.30103
-3.2797391	try	-0.30103
-2.8129532	do	-0.30103
-3.2797391	best	-0.30103
-3.4671159	coupe	-0.30103
-3.4671159	troop	-0.30103
-3.2013814	other	-0.30103
-3.4671159	cases	-0.30103
-2.8129532	also	-0.30103
-2.5151408	were	-0.30103
-3.2013814	under	-0.30103
-3.4671159	advisement	-0.30103
-3.4671159	jungle	-0.30103
-3.4671159	group	-0.30103
-3.2797391	fear	-0.30103
-3.4671159	humidity	-0.30103
-3.4671159	overwhelming	-0.30103
-2.9082634	there	-0.30103
-3.4671159	shear	-0.30103
-3.4671159	sprinkle	-0.30103
-3.4671159	pile	-0.30103
-3.4671159	fruit	-0.30103
-3.4671159	everything	-0.30103
-3.2013814	went	-0.30103
-3.2797391	real	-0.30103
-3.4671159	smooth	-0.30103
-3.4671159	sheriff	-0.30103
-2.9082634	said	-0.30103
-3.2013814	where	-0.30103
-3.2797391	while	-0.30103
-3.2797391	away	-0.30103
-2.3401275	are	-0.30103
-3.4671159	grades	-0.30103
-3.2797391	higher	-0.30103
-3.4671159	lower	-0.30103
-3.0305488	than	-0.30103
-3.4671159	nancys	-0.30103
-3.4671159	cheer	-0.30103
-3.4671159	gnaw	-0.30103
-3.4671159	tile	-0.30103
-2.9082634	big	-0.30103
-3.4671159	baseball	-0.30103
-3.4671159	players	-0.30103
-3.2013814	get	-0.30103
-3.4671159	traded	-0.30103
-3.0305488	this	-0.30103
-2.474042	was	-0.30103
-3.2797391	easy	-0.30103
-3.2797391	us	-0.30103
-3.4671159	area	-0.30103
-3.4671159	light	-0.30103
-3.0305488	if	-0.30103
-3.4671159	destroy	-0.30103
-3.4671159	confidence	-0.30103
-3.4671159	banks	-0.30103
-3.4671159	something	-0.30103
-3.4671159	economy	-0.30103
-3.4671159	thinner	-0.30103
-3.4671159	am	-0.30103
-3.4671159	youre	-0.30103
-3.2797391	used	-0.30103
-3.2797391	being	-0.30103
-3.4671159	field	-0.30103
-3.2797391	bad	-0.30103
-3.4671159	knot	-0.30103
-3.4671159	select	-0.30103
-3.4671159	briar	-0.30103
-3.4671159	single	-0.30103
-3.4671159	mere	-0.30103
-3.4671159	droop	-0.30103
-3.2797391	near	-0.30103
-3.2013814	much	-0.30103
-3.4671159	jane	-0.30103
-3.2013814	may	-0.30103
-3.4671159	earn	-0.30103
-3.2013814	money	-0.30103
-2.8129532	by	-0.30103
-3.2013814	working	-0.30103
-3.2013814	hard	-0.30103
-3.4671159	cycle	-0.30103
-3.4671159	pay	-0.30103
-3.4671159	mut	-0.30103
-3.2013814	looked	-0.30103
-3.4671159	noticed	-0.30103
-3.4671159	men	-0.30103
-3.4671159	approached	-0.30103
-3.4671159	depot	-0.30103
-3.4671159	scrubbed	-0.30103
-3.4671159	floors	-0.30103
-3.4671159	thoroughly	-0.30103
-3.4671159	explore	-0.30103
-3.4671159	sway	-0.30103
-3.4671159	conscious	-0.30103
-3.2013814	time	-0.30103
-3.4671159	root	-0.30103
-3.4671159	snoop	-0.30103
-3.2797391	four	-0.30103
-3.4671159	both	-0.30103
-3.4671159	figures	-0.30103
-3.4671159	would	-0.30103
-3.2013814	later	-0.30103
-3.2797391	side	-0.30103
-2.9082634	got	-0.30103
-3.4671159	wet	-0.30103
-3.4671159	validated	-0.30103
-3.4671159	acts	-0.30103
-3.4671159	school	-0.30103
-3.4671159	districts	-0.30103
-3.4671159	tried	-0.30103
-3.2013814	tell	-0.30103
-2.9082634	people	-0.30103
-3.4671159	community	-0.30103
-3.4671159	loop	-0.30103
-3.2797391	though	-0.30103
-3.4671159	islands	-0.30103
-3.4671159	sparsely	-0.30103
-3.4671159	populated	-0.30103
-3.4671159	witch	-0.30103
-3.4671159	forward	-0.30103
-3.4671159	sister	-0.30103
-3.2797391	made	-0.30103
-3.4671159	flowered	-0.30103
-3.4671159	curtains	-0.30103
-3.2013814	here	-0.30103
-3.4671159	pad	-0.30103
-3.4671159	why	-0.30103
-3.4671159	yell	-0.30103
-3.4671159	worry	-0.30103
-3.4671159	silly	-0.30103
-3.2797391	items	-0.30103
-3.4671159	bear	-0.30103
-3.4671159	shoot	-0.30103
-3.4671159	error	-0.30103
-3.4671159	fate	-0.30103
-3.4671159	dot	-0.30103
-3.4671159	tie	-0.30103
-3.4671159	lip	-0.30103
-3.4671159	hate	-0.30103
-3.4671159	charlie	-0.30103
-3.4671159	bright	-0.30103
-3.4671159	sunshine	-0.30103
-3.4671159	shimmers	-0.30103
-3.4671159	ocean	-0.30103
-3.4671159	peer	-0.30103
-3.4671159	youd	-0.30103
-3.4671159	better	-0.30103
-3.2797391	off	-0.30103
-3.2797391	taking	-0.30103
-3.2797391	cold	-0.30103
-3.4671159	shower	-0.30103
-3.4671159	toot	-0.30103
-3.2797391	feel	-0.30103
-2.474042	can	-0.39794
-3.4671159	weekend	-0.30103
-3.4671159	menu	-0.30103
-2.8129532	they	-0.30103
-3.4671159	carried	-0.30103
-3.4671159	stretcher	-0.30103
-3.4671159	robin	-0.30103
-3.4671159	wear	-0.30103
-3.4671159	lily	-0.30103
-3.2013814	back	-0.30103
-3.4671159	foxtrot	-0.30103
-3.4671159	papa	-0.30103
-3.4671159	chop	-0.30103
-3.4671159	injuries	-0.30103
-3.4671159	same	-0.30103
-3.4671159	leg	-0.30103
-3.4671159	hark	-0.30103
-3.4671159	hitting	-0.30103
-3.4671159	cart	-0.30103
-3.4671159	books	-0.30103
-2.9082634	very	-0.30103
-3.4671159	expensive	-0.30103
-3.4671159	rich	-0.30103
-3.4671159	treehouse	-0.30103
-3.2013814	above	-0.30103
-3.2797391	hotel	-0.30103
-3.2797391	expect	-0.30103
-3.4671159	bounce	-0.30103
-3.4671159	week	-0.30103
-3.4671159	reek	-0.30103
-3.4671159	six	-0.30103
-3.2797391	not	-0.30103
-3.4671159	program	-0.30103
-3.4671159	socialized	-0.30103
-3.4671159	medicine	-0.30103
-3.2013814	take	-0.30103
-3.4671159	bloat	-0.30103
-3.4671159	cake	-0.30103
-3.4671159	knitting	-0.30103
-3.4671159	roll	-0.30103
-3.4671159	wire	-0.30103
-3.4671159	lay	-0.30103
-3.2797391	wall	-0.30103
-3.4671159	barn	-0.30103
-3.4671159	rode	-0.30103
-3.4671159	horseback	-0.30103
-3.4671159	seed	-0.30103
-3.4671159	golf	-0.30103
-3.4671159	fill	-0.30103
-3.4671159	box	-0.30103
-3.4671159	contained	-0.30103
-3.4671159	sweaters	-0.30103
-3.4671159	mike	-0.30103
-3.4671159	losing	-0.30103
-3.4671159	replace	-0.30103
-2.474042	it	-0.30103
-3.4671159	immediately	-0.30103
-3.4671159	pit	-0.30103
-3.4671159	hem	-0.30103
-3.4671159	sitting	-0.30103
-3.4671159	hum	-0.30103
-3.4671159	else	-0.30103
-3.4671159	fails	-0.30103
-3.4671159	use	-0.30103
-3.4671159	force	-0.30103
-3.2013814	good	-0.30103
-3.2013814	win	-0.30103
-3.4671159	lick	-0.30103
-3.2797391	job	-0.30103
-3.2797391	provides	-0.30103
-3.4671159	many	-0.30103
-3.4671159	benefits	-0.30103
-3.2797391	wore	-0.30103
-3.4671159	fleecy	-0.30103
-3.4671159	woolen	-0.30103
-3.4671159	overalls	-0.30103
-3.4671159	hill	-0.30103
-3.4671159	lair	-0.30103
-3.4671159	kitten	-0.30103
-3.4671159	fat	-0.30103
-3.4671159	hat	-0.30103
-3.4671159	echo	-0.30103
-3.4671159	witty	-0.30103
-3.0305488	at	-0.30103
-3.4671159	pretty	-0.30103
-3.4671159	nine	-0.30103
-3.4671159	wrapped	-0.30103
-3.4671159	package	-0.30103
-3.4671159	hastily	-0.30103
-3.4671159	leak	-0.30103
-3.2013814	start	-0.30103
-3.4671159	pitting	-0.30103
-3.4671159	bitten	-0.30103
-3.4671159	period	-0.30103
-3.4671159	transition	-0.30103
-3.4671159	spain	-0.30103
-3.4671159	written	-0.30103
-3.4671159	swing	-0.30103
-3.2797391	arm	-0.30103
-3.4671159	high	-0.30103
-3.2797391	five	-0.30103
-3.4671159	shy	-0.30103
-3.4671159	league	-0.30103
-3.4671159	eight	-0.30103
-3.4671159	dart	-0.30103
-3.4671159	misguided	-0.30103
-3.4671159	souls	-0.30103
-3.4671159	lost	-0.30103
-3.2013814	way	-0.30103
-3.4671159	lima	-0.30103
-3.4671159	carl	-0.30103
-3.4671159	lives	-0.30103
-3.4671159	lively	-0.30103
-3.2797391	home	-0.30103
-3.4671159	sign	-0.30103
-3.4671159	sergeant	-0.30103
-3.4671159	dolphins	-0.30103
-3.2797391	swam	-0.30103
-3.2797391	around	-0.30103
-3.2797391	boat	-0.30103
-3.4671159	alimony	-0.30103
-3.4671159	harms	-0.30103
-3.4671159	divorced	-0.30103
-3.4671159	mans	-0.30103
-3.2797391	wealth	-0.30103
-3.2797391	little	-0.30103
-3.4671159	schoolhouse	-0.30103
-3.4671159	stood	-0.30103
-3.2797391	empty	-0.30103
-3.4671159	vat	-0.30103
-3.4671159	mitten	-0.30103
-3.4671159	before	-0.30103
-3.4671159	thursdays	-0.30103
-3.4671159	exam	-0.30103
-3.4671159	review	-0.30103
-2.9082634	every	-0.30103
-3.4671159	formula	-0.30103
-3.4671159	mush	-0.30103
-3.4671159	quebec	-0.30103
-3.4671159	november	-0.30103
-3.4671159	brawn	-0.30103
-3.4671159	museum	-0.30103
-3.4671159	hires	-0.30103
-3.2797391	musicians	-0.30103
-3.4671159	evening	-0.30103
-3.2797391	after	-0.30103
-3.0305488	some	-0.30103
-3.2013814	new	-0.30103
-3.4671159	episode	-0.30103
-3.4671159	reported	-0.30103
-3.2013814	night	-0.30103
-3.4671159	received	-0.30103
-3.4671159	annoying	-0.30103
-3.2013814	phone	-0.30103
-3.2797391	calls	-0.30103
-3.4671159	darn	-0.30103
-3.4671159	kilo	-0.30103
-3.4671159	further	-0.30103
-3.4671159	proposed	-0.30103
-3.4671159	grants	-0.30103
-3.4671159	unspecified	-0.30103
-3.4671159	sum	-0.30103
-3.4671159	experimental	-0.30103
-3.4671159	hospitals	-0.30103
-3.4671159	juliet	-0.30103
-3.4671159	seven	-0.30103
-3.4671159	alfalfa	-0.30103
-3.4671159	healthy	-0.30103
-3.4671159	blow	-0.30103
-3.4671159	oscar	-0.30103
-3.4671159	fitting	-0.30103
-3.4671159	city	-0.30103
-3.2797391	heart	-0.30103
-3.4671159	thorn	-0.30103
-3.4671159	eventually	-0.30103
-3.4671159	became	-0.30103
-3.4671159	rather	-0.30103
-3.4671159	proud	-0.30103
-3.4671159	claim	-0.30103
-3.4671159	top	-0.30103
-3.2797391	brought	-0.30103
-3.4671159	aluminum	-0.30103
-3.4671159	silverware	-0.30103
-3.4671159	flimsy	-0.30103
-3.2797391	has	-0.30103
-3.4671159	been	-0.30103
-3.2797391	done	-0.30103
-3.4671159	advantage	-0.30103
-3.4671159	enabling	-0.30103
-3.4671159	legislation	-0.30103
-3.4671159	zero	-0.30103
-3.2797391	sell	-0.30103
-3.2797391	students	-0.30103
-3.4671159	watched	-0.30103
-3.0305488	out	-0.30103
-3.4671159	bell	-0.30103
-3.4671159	rung	-0.30103
-3.2797391	thought	-0.30103
-3.4671159	loyal	-0.30103
-3.4671159	spit	-0.30103
-3.4671159	harp	-0.30103
-3.2797391	part	-0.30103
-3.4671159	seeds	-0.30103
-3.4671159	ticker	-0.30103
-3.4671159	owners	-0.30103
-3.4671159	regularly	-0.30103
-3.2013814	look	-0.30103
-3.4671159	plumbing	-0.30103
-3.2797391	leaks	-0.30103
-3.4671159	wicked	-0.30103
-3.4671159	zulu	-0.30103
-3.2013814	its	-0.30103
-3.4671159	fun	-0.30103
-3.4671159	roast	-0.30103
-3.4671159	marshmallows	-0.30103
-3.0305488	gas	-0.30103
-3.4671159	burner	-0.30103
-3.4671159	prospect	-0.30103
-3.4671159	cutting	-0.30103
-3.4671159	spending	-0.30103
-3.4671159	unpleasant	-0.30103
-2.9082634	any	-0.30103
-3.4671159	governor	-0.30103
-3.4671159	wait	-0.30103
-3.2797391	work	-0.30103
-3.4671159	whitecapped	-0.30103
-3.4671159	waves	-0.30103
-3.4671159	covered	-0.30103
-3.4671159	entire	-0.30103
-3.4671159	bay	-0.30103
-3.4671159	then	-0.30103
-3.4671159	wed	-0.30103
-2.8129532	really	-0.30103
-3.4671159	someplace	-0.30103
-3.4671159	bed	-0.30103
-3.4671159	nest	-0.30103
-3.4671159	flicker	-0.30103
-3.4671159	bread	-0.30103
-3.4671159	want	-0.30103
-3.4671159	sicker	-0.30103
-3.4671159	value	-0.30103
-3.4671159	themselves	-0.30103
-3.4671159	lifes	-0.30103
-3.4671159	winners	-0.30103
-3.4671159	sin	-0.30103
-3.4671159	nobody	-0.30103
-3.4671159	expects	-0.30103
-3.4671159	evacuate	-0.30103
-3.4671159	slicker	-0.30103
-3.4671159	tango	-0.30103
-3.4671159	crucified	-0.30103
-3.4671159	nailed	-0.30103
-3.4671159	yard	-0.30103
-3.4671159	loss	-0.30103
-3.4671159	tread	-0.30103
-3.4671159	shell	-0.30103
-3.4671159	xray	-0.30103
-3.4671159	pair	-0.30103
-3.4671159	shoes	-0.30103
-3.4671159	dice	-0.30103
-3.4671159	owner	-0.30103
-3.4671159	shrugged	-0.30103
-3.2013814	help	-0.30103
-3.4671159	greg	-0.30103
-3.4671159	pick	-0.30103
-3.4671159	peck	-0.30103
-3.4671159	potatoes	-0.30103
-3.4671159	glitter	-0.30103
-3.4671159	fork	-0.30103
-3.4671159	bitter	-0.30103
-3.4671159	ham	-0.30103
-3.2013814	im	-0.30103
-3.4671159	willing	-0.30103
-3.4671159	experiment	-0.30103
-3.2013814	first	-0.30103
-3.4671159	calico	-0.30103
-3.2797391	cat	-0.30103
-3.2797391	keep	-0.30103
-3.4671159	took	-0.30103
-3.2013814	only	-0.30103
-3.4671159	lawyers	-0.30103
-3.4671159	love	-0.30103
-3.4671159	millionaires	-0.30103
-3.4671159	litter	-0.30103
-3.4671159	sink	-0.30103
-3.4671159	red	-0.30103
-3.4671159	nut	-0.30103
-3.4671159	ned	-0.30103
-3.4671159	dread	-0.30103
-3.4671159	sit	-0.30103
-3.2797391	able	-0.30103
-3.4671159	dance	-0.30103
-3.2797391	too	-0.30103
-3.4671159	zip	-0.30103
-3.4671159	hand	-0.30103
-3.4671159	rest	-0.30103
-3.2797391	attitude	-0.30103
-3.4671159	unbeatable	-0.30103
-3.2797391	please	-0.30103
-3.4671159	window	-0.30103
-3.4671159	quickly	-0.30103
-3.4671159	definitely	-0.30103
-3.4671159	notch	-0.30103
-3.4671159	harmonize	-0.30103
-3.4671159	marvelously	-0.30103
-3.2797391	most	-0.30103
-3.2797391	young	-0.30103
-3.2797391	rise	-0.30103
-3.4671159	early	-0.30103
-3.4671159	morning	-0.30103
-3.4671159	wicker	-0.30103
-3.4671159	sing	-0.30103
-3.2797391	bought	-0.30103
-3.2797391	quicker	-0.30103
-3.4671159	sierra	-0.30103
-3.4671159	excellent	-0.30103
-3.4671159	team	-0.30103
-3.4671159	uniform	-0.30103
-3.4671159	romeo	-0.30103
-3.4671159	travel	-0.30103
-3.4671159	leisure	-0.30103
-3.4671159	nod	-0.30103
-3.2013814	place	-0.30103
-3.2797391	nice	-0.30103
-3.4671159	liquor	-0.30103
-3.4671159	volunteered	-0.30103
-3.4671159	jump	-0.30103
-3.4671159	beg	-0.30103
-3.4671159	guard	-0.30103
-3.4671159	gallon	-0.30103
-3.4671159	chip	-0.30103
-3.4671159	lock	-0.30103
-3.4671159	yankee	-0.30103
-3.2013814	ride	-0.30103
-3.4671159	stagecoach	-0.30103
-3.2797391	did	-0.30103
-3.4671159	dad	-0.30103
-3.2797391	academic	-0.30103
-3.4671159	bidding	-0.30103
-3.4671159	victor	-0.30103
-3.2797391	sand	-0.30103
-3.4671159	tin	-0.30103
-3.4671159	dress	-0.30103
-3.4671159	hotels	-0.30103
-3.4671159	available	-0.30103
-3.4671159	nearby	-0.30103
-3.4671159	neat	-0.30103
-3.4671159	although	-0.30103
-3.2797391	alone	-0.30103
-3.4671159	survive	-0.30103
-3.4671159	dead	-0.30103
-3.4671159	whisky	-0.30103
-3.4671159	wit	-0.30103
-3.4671159	called	-0.30103
-3.4671159	different	-0.30103
-3.4671159	painters	-0.30103
-3.4671159	stimulating	-0.30103
-3.4671159	discussions	-0.30103
-3.4671159	attention	-0.30103
-3.4671159	celebrate	-0.30103
-3.2797391	brothers	-0.30103
-3.4671159	success	-0.30103
-3.4671159	lake	-0.30103
-3.4671159	thread	-0.30103
-3.4671159	fed	-0.30103
-3.4671159	charlies	-0.30103
-3.4671159	dirty	-0.30103
-3.4671159	dishes	-0.30103
-3.4671159	sew	-0.30103
-3.4671159	sort	-0.30103
-3.4671159	catch	-0.30103
-3.4671159	goose	-0.30103
-3.2013814	played	-0.30103
-3.2797391	basketball	-0.30103
-3.4671159	toward	-0.30103
-3.4671159	law	-0.30103
-3.4671159	degree	-0.30103
-3.4671159	coconut	-0.30103
-3.4671159	cream	-0.30103
-3.4671159	pie	-0.30103
-3.2013814	makes	-0.30103
-3.4671159	dessert	-0.30103
-3.4671159	selected	-0.30103
-3.4671159	places	-0.30103
-3.4671159	families	-0.30103
-3.4671159	welcome	-0.30103
-3.4671159	cakes	-0.30103
-3.4671159	bill	-0.30103
-3.4671159	accomplished	-0.30103
-3.4671159	artists	-0.30103
-3.4671159	obtain	-0.30103
-3.4671159	popularity	-0.30103
-3.4671159	shin	-0.30103
-3.4671159	prefer	-0.30103
-3.4671159	traditional	-0.30103
-3.4671159	steel	-0.30103
-3.4671159	kind	-0.30103
-3.4671159	cork	-0.30103
-3.4671159	weep	-0.30103
-3.4671159	biblical	-0.30103
-3.4671159	scholars	-0.30103
-3.4671159	argue	-0.30103
-3.4671159	history	-0.30103
-3.4671159	rid	-0.30103
-3.4671159	quart	-0.30103
-3.4671159	shot	-0.30103
-3.4671159	ligament	-0.30103
-3.4671159	damage	-0.30103
-3.4671159	sheep	-0.30103
-3.4671159	snort	-0.30103
-3.4671159	pork	-0.30103
-3.2797391	fact	-0.30103
-3.4671159	whole	-0.30103
-3.4671159	defensive	-0.30103
-3.4671159	unit	-0.30103
-3.4671159	sketch	-0.30103
-3.4671159	knows	-0.30103
-3.2013814	what	-0.30103
-3.4671159	youll	-0.30103
-3.4671159	discover	-0.30103
-3.4671159	yourself	-0.30103
-3.4671159	blend	-0.30103
-3.4671159	shed	-0.30103
-3.4671159	identical	-0.30103
-3.2797391	critical	-0.30103
-3.4671159	equipment	-0.30103
-3.2013814	needs	-0.30103
-3.4671159	proper	-0.30103
-3.4671159	maintenance	-0.30103
-3.4671159	court	-0.30103
-3.4671159	see	-0.30103
-3.4671159	shop	-0.30103
-3.2797391	heat	-0.30103
-3.4671159	suddenly	-0.30103
-3.4671159	reflexes	-0.30103
-3.4671159	gone	-0.30103
-3.4671159	gill	-0.30103
-3.4671159	show	-0.30103
-3.2797391	read	-0.30103
-3.4671159	results	-0.30103
-3.4671159	disappointing	-0.30103
-3.4671159	tug	-0.30103
-3.4671159	cash	-0.30103
-3.4671159	stretch	-0.30103
-3.4671159	steak	-0.30103
-3.4671159	ray	-0.30103
-3.4671159	fort	-0.30103
-3.4671159	lee	-0.30103
-3.4671159	hold	-0.30103
-3.4671159	ive	-0.30103
-3.4671159	kept	-0.30103
-3.4671159	since	-0.30103
-3.4671159	thats	-0.30103
-3.2013814	life	-0.30103
-3.4671159	decision	-0.30103
-3.4671159	shred	-0.30103
-3.4671159	sight	-0.30103
-3.4671159	fish	-0.30103
-3.4671159	across	-0.30103
-3.4671159	pond	-0.30103
-3.4671159	doesnt	-0.30103
-3.4671159	hanging	-0.30103
-3.4671159	tort	-0.30103
-3.4671159	meats	-0.30103
-3.4671159	precious	-0.30103
-3.2797391	eat	-0.30103
-3.2797391	sport	-0.30103
-3.4671159	participate	-0.30103
-3.4671159	athletic	-0.30103
-3.4671159	activities	-0.30103
-3.4671159	trespassers	-0.30103
-3.4671159	prosecuted	-0.30103
-3.4671159	fined	-0.30103
-3.4671159	etiquette	-0.30103
-3.4671159	mandates	-0.30103
-3.4671159	compliance	-0.30103
-3.4671159	existing	-0.30103
-3.4671159	regulations	-0.30103
-3.4671159	touchdown	-0.30103
-3.4671159	resulted	-0.30103
-3.4671159	girls	-0.30103
-3.4671159	cut	-0.30103
-3.4671159	lacy	-0.30103
-3.4671159	valentines	-0.30103
-3.4671159	geese	-0.30103
-3.4671159	mill	-0.30103
-3.4671159	barbs	-0.30103
-3.2797391	gold	-0.30103
-3.4671159	bracelet	-0.30103
-3.4671159	graduation	-0.30103
-3.4671159	present	-0.30103
-3.4671159	reap	-0.30103
-3.4671159	dill	-0.30103
-3.4671159	lend	-0.30103
-3.4671159	foe	-0.30103
-3.4671159	asked	-0.30103
-3.4671159	loan	-0.30103
-3.2797391	make	-0.30103
-3.4671159	toe	-0.30103
-3.4671159	threat	-0.30103
-3.4671159	port	-0.30103
-3.4671159	scream	-0.30103
-3.4671159	rip	-0.30103
-3.4671159	wise	-0.30103
-3.2797391	think	-0.30103
-3.2797391	full	-0.30103
-3.4671159	stuff	-0.30103
-3.4671159	bend	-0.30103
-3.4671159	muck	-0.30103
-3.4671159	snake	-0.30103
-3.4671159	havent	-0.30103
-3.4671159	seen	-0.30103
-3.4671159	friend	-0.30103
-3.4671159	bumper	-0.30103
-3.4671159	entertaining	-0.30103
-3.4671159	ash	-0.30103
-3.2797391	fit	-0.30103
-3.4671159	sheer	-0.30103
-3.4671159	twilight	-0.30103
-3.4671159	twelfth	-0.30103
-3.4671159	chablis	-0.30103
-3.4671159	hash	-0.30103
-3.4671159	worse	-0.30103
-3.4671159	luck	-0.30103
-3.2797391	come	-0.30103
-3.4671159	golfing	-0.30103
-3.4671159	fathers	-0.30103
-3.4671159	ruled	-0.30103
-3.4671159	favor	-0.30103
-3.4671159	hail	-0.30103
-3.4671159	code	-0.30103
-3.4671159	elderly	-0.30103
-3.4671159	excluded	-0.30103
-3.4671159	beam	-0.30103
-3.4671159	remains	-0.30103
-3.4671159	fiercest	-0.30103
-3.4671159	competitors	-0.30103
-3.4671159	knife	-0.30103
-3.4671159	pete	-0.30103
-3.4671159	addition	-0.30103
-3.4671159	subtraction	-0.30103
-3.4671159	learned	-0.30103
-3.4671159	skills	-0.30103
-3.2797391	found	-0.30103
-3.4671159	anywhere	-0.30103
-3.4671159	gash	-0.30103
-3.4671159	pleased	-0.30103
-3.0305488	things	-0.30103
-3.4671159	loved	-0.30103
-3.4671159	minute	-0.30103
-3.4671159	idea	-0.30103
-3.4671159	fender	-0.30103
-3.4671159	woe	-0.30103
-3.4671159	member	-0.30103
-3.4671159	beast	-0.30103
-3.4671159	suggested	-0.30103
-3.4671159	dinner	-0.30103
-3.2013814	together	-0.30103
-3.4671159	so	-0.30103
-3.4671159	anybody	-0.30103
-3.4671159	solicits	-0.30103
-3.2797391	sure	-0.30103
-3.4671159	mail	-0.30103
-3.4671159	dough	-0.30103
-3.4671159	ambidextrous	-0.30103
-3.4671159	pickpockets	-0.30103
-3.4671159	accomplish	-0.30103
-3.4671159	guess	-0.30103
-3.4671159	wedding	-0.30103
-3.4671159	trip	-0.30103
-3.2013814	her	-0.30103
-3.4671159	combed	-0.30103
-3.4671159	casually	-0.30103
-3.4671159	seam	-0.30103
-3.4671159	beep	-0.30103
-3.2797391	quite	-0.30103
-3.4671159	vocal	-0.30103
-3.4671159	requires	-0.30103
-3.4671159	investment	-0.30103
-3.4671159	pickpocket	-0.30103
-3.4671159	caught	-0.30103
-3.4671159	redhanded	-0.30103
-3.4671159	mock	-0.30103
-3.4671159	dock	-0.30103
-3.2797391	sea	-0.30103
-3.4671159	grandmother	-0.30103
-3.4671159	outgrew	-0.30103
-3.4671159	upbringing	-0.30103
-3.4671159	petticoats	-0.30103
-3.4671159	sun	-0.30103
-3.4671159	died	-0.30103
-3.4671159	ember	-0.30103
-3.4671159	seat	-0.30103
-3.4671159	food	-0.30103
-3.4671159	reef	-0.30103
-3.4671159	fire	-0.30103
-3.4671159	straw	-0.30103
-3.4671159	blaze	-0.30103
-3.4671159	sender	-0.30103
-3.4671159	classical	-0.30103
-3.4671159	performance	-0.30103
-3.4671159	gained	-0.30103
-3.4671159	acclaim	-0.30103
-3.4671159	position	-0.30103
-3.2797391	covers	-0.30103
-3.4671159	number	-0.30103
-3.4671159	daily	-0.30103
-3.4671159	tasks	-0.30103
-3.4671159	common	-0.30103
-3.4671159	social	-0.30103
-3.4671159	director	-0.30103
-3.4671159	marriage	-0.30103
-2.8129532	from	-0.30103
-3.4671159	wonderful	-0.30103
-3.4671159	renter	-0.30103
-3.4671159	row	-0.30103
-3.4671159	lender	-0.30103
-3.4671159	ape	-0.30103
-3.2797391	didnt	-0.30103
-3.4671159	forks	-0.30103
-3.4671159	tender	-0.30103
-3.4671159	tea	-0.30103
-3.4671159	popular	-0.30103
-3.4671159	fans	-0.30103
-3.4671159	timber	-0.30103
-3.4671159	leap	-0.30103
-3.4671159	catastrophic	-0.30103
-3.4671159	economic	-0.30103
-3.4671159	cutbacks	-0.30103
-3.4671159	neglect	-0.30103
-3.4671159	poor	-0.30103
-3.4671159	tail	-0.30103
-3.4671159	bender	-0.30103
-3.4671159	ache	-0.30103
-3.4671159	center	-0.30103
-3.4671159	mom	-0.30103
-3.4671159	strongly	-0.30103
-3.4671159	dislikes	-0.30103
-3.4671159	appetizers	-0.30103
-3.4671159	beef	-0.30103
-3.4671159	temper	-0.30103
-3.4671159	desire	-0.30103
-3.4671159	change	-0.30103
-3.4671159	ways	-0.30103
-3.4671159	wax	-0.30103
-3.4671159	pet	-0.30103
-3.4671159	aid	-0.30103
-3.4671159	knock	-0.30103
-3.4671159	lies	-0.30103
-3.4671159	cheese	-0.30103
-3.4671159	hatch	-0.30103
-3.4671159	lack	-0.30103
-3.4671159	compounded	-0.30103
-3.4671159	tenants	-0.30103
-3.2797391	grievances	-0.30103
-3.4671159	bunch	-0.30103
-3.4671159	contributions	-0.30103
-3.4671159	greatly	-0.30103
-3.4671159	appreciated	-0.30103
-3.4671159	ease	-0.30103
-3.4671159	add	-0.30103
-3.4671159	chocolate	-0.30103
-3.4671159	roses	-0.30103
-3.2797391	never	-0.30103
-3.4671159	fail	-0.30103
-3.4671159	romantic	-0.30103
-3.4671159	gift	-0.30103
-3.4671159	legislature	-0.30103
-3.4671159	met	-0.30103
-3.2797391	judge	-0.30103
-3.4671159	state	-0.30103
-3.4671159	public	-0.30103
-3.4671159	education	-0.30103
-3.4671159	largest	-0.30103
-3.4671159	states	-0.30103
-3.4671159	peas	-0.30103
-3.4671159	bun	-0.30103
-3.4671159	punch	-0.30103
-3.4671159	ail	-0.30103
-3.4671159	begin	-0.30103
-3.4671159	trying	-0.30103
-3.4671159	speak	-0.30103
-3.4671159	tall	-0.30103
-3.4671159	vital	-0.30103
-3.4671159	detail	-0.30103
-3.4671159	pill	-0.30103
-3.4671159	racks	-0.30103
-3.4671159	structures	-0.30103
-3.4671159	housing	-0.30103
-3.4671159	apartments	-0.30103
-3.4671159	masonry	-0.30103
-3.4671159	frame	-0.30103
-3.4671159	construction	-0.30103
-3.4671159	aches	-0.30103
-3.4671159	lit	-0.30103
-3.4671159	singers	-0.30103
-3.4671159	finger	-0.30103
-3.4671159	splinter	-0.30103
-3.4671159	now	-0.30103
-3.4671159	living	-0.30103
-3.4671159	exactly	-0.30103
-3.4671159	choose	-0.30103
-3.4671159	duck	-0.30103
-3.4671159	harm	-0.30103
-3.4671159	wanted	-0.30103
-3.4671159	actress	-0.30103
-3.2797391	fell	-0.30103
-3.4671159	aptitude	-0.30103
-3.4671159	guarantees	-0.30103
-3.4671159	diploma	-0.30103
-3.4671159	charm	-0.30103
-3.4671159	great	-0.30103
-3.4671159	meeting	-0.30103
-3.4671159	prepared	-0.30103
-3.4671159	odd	-0.30103
-3.4671159	behavior	-0.30103
-3.4671159	friends	-0.30103
-3.4671159	mile	-0.30103
-3.4671159	rakes	-0.30103
-3.4671159	talked	-0.30103
-3.4671159	situation	-0.30103
-3.2013814	sat	-0.30103
-3.4671159	relaxed	-0.30103
-3.4671159	hall	-0.30103
-3.4671159	sake	-0.30103
-3.4671159	coming	-0.30103
-3.4671159	pockets	-0.30103
-3.4671159	hell	-0.30103
-3.2797391	them	-0.30103
-3.4671159	plot	-0.30103
-3.4671159	laced	-0.30103
-3.4671159	mysterious	-0.30103
-3.4671159	incidents	-0.30103
-3.4671159	shelled	-0.30103
-3.4671159	clams	-0.30103
-3.4671159	chowder	-0.30103
-3.4671159	experience	-0.30103
-3.4671159	distress	-0.30103
-3.4671159	frustration	-0.30103
-3.4671159	obtaining	-0.30103
-3.4671159	degrees	-0.30103
-3.4671159	ticks	-0.30103
-3.4671159	prowler	-0.30103
-3.4671159	ski	-0.30103
-3.4671159	mask	-0.30103
-3.4671159	disguise	-0.30103
-3.2797391	confirmation	-0.30103
-3.2797391	such	-0.30103
-3.4671159	massive	-0.30103
-3.4671159	assaults	-0.30103
-3.4671159	independent	-0.30103
-3.4671159	sources	-0.30103
-3.4671159	chap	-0.30103
-3.4671159	lax	-0.30103
-3.2797391	score	-0.30103
-3.4671159	munch	-0.30103
-3.4671159	added	-0.30103
-3.2797391	petty	-0.30103
-3.4671159	jealousies	-0.30103
-3.4671159	personal	-0.30103
-3.4671159	even	-0.30103
-3.4671159	simple	-0.30103
-3.4671159	vocabulary	-0.30103
-3.4671159	contains	-0.30103
-3.4671159	symbols	-0.30103
-3.4671159	end	-0.30103
-3.4671159	eastern	-0.30103
-3.4671159	coast	-0.30103
-3.4671159	pure	-0.30103
-3.2797391	pleasure	-0.30103
-3.4671159	excitement	-0.30103
-3.4671159	dial	-0.30103
-3.4671159	low	-0.30103
-3.4671159	whip	-0.30103
-3.4671159	few	-0.30103
-3.4671159	ink	-0.30103
-3.4671159	handle	-0.30103
-3.4671159	theyll	-0.30103
-3.0305488	again	-0.30103
-3.4671159	term	-0.30103
-3.4671159	wide	-0.30103
-3.4671159	drenched	-0.30103
-3.4671159	uninterrupted	-0.30103
-3.4671159	pant	-0.30103
-3.2797391	find	-0.30103
-3.4671159	cable	-0.30103
-3.4671159	translated	-0.30103
-3.4671159	weve	-0.30103
-3.4671159	past	-0.30103
-3.4671159	burn	-0.30103
-3.4671159	werent	-0.30103
-3.4671159	doing	-0.30103
-3.4671159	upgrade	-0.30103
-3.4671159	status	-0.30103
-3.4671159	reflect	-0.30103
-3.2797391	spring	-0.30103
-3.2797391	street	-0.30103
-3.4671159	straight	-0.30103
-3.4671159	ahead	-0.30103
-3.4671159	serves	-0.30103
-3.4671159	meals	-0.30103
-3.4671159	disappointed	-0.30103
-3.4671159	order	-0.30103
-3.2797391	wine	-0.30103
-3.4671159	eyes	-0.30103
-3.4671159	weave	-0.30103
-3.4671159	family	-0.30103
-3.4671159	requests	-0.30103
-3.4671159	flowers	-0.30103
-3.4671159	omitted	-0.30103
-3.4671159	wart	-0.30103
-3.4671159	wack	-0.30103
-3.2797391	needed	-0.30103
-3.4671159	dash	-0.30103
-3.4671159	blew	-0.30103
-3.2797391	into	-0.30103
-3.2797391	large	-0.30103
-3.4671159	drifts	-0.30103
-3.4671159	regular	-0.30103
-3.4671159	attendance	-0.30103
-3.4671159	seldom	-0.30103
-3.4671159	required	-0.30103
-3.4671159	ball	-0.30103
-3.2797391	myself	-0.30103
-3.4671159	last	-0.30103
-3.4671159	shortage	-0.30103
-3.4671159	caused	-0.30103
-3.4671159	steep	-0.30103
-3.4671159	price	-0.30103
-3.4671159	increases	-0.30103
-3.4671159	cars	-0.30103
-3.4671159	slightly	-0.30103
-3.4671159	damaged	-0.30103
-3.4671159	highway	-0.30103
-3.4671159	staff	-0.30103
-3.4671159	deserves	-0.30103
-3.4671159	lot	-0.30103
-3.4671159	credit	-0.30103
-3.4671159	obstacles	-0.30103
-3.4671159	hid	-0.30103
-3.4671159	luke	-0.30103
-3.4671159	fold	-0.30103
-3.4671159	pink	-0.30103
-3.4671159	waste	-0.30103
-3.4671159	raisins	-0.30103
-3.4671159	outdoors	-0.30103
-3.2797391	porch	-0.30103
-3.4671159	steps	-0.30103
-3.4671159	noted	-0.30103
-3.4671159	carefully	-0.30103
-3.2013814	through	-0.30103
-3.4671159	clean	-0.30103
-3.4671159	report	-0.30103
-3.4671159	sail	-0.30103
-3.4671159	wipe	-0.30103
-3.4671159	continental	-0.30103
-3.4671159	drift	-0.30103
-3.4671159	geological	-0.30103
-3.4671159	theory	-0.30103
-3.4671159	huge	-0.30103
-3.4671159	porcupines	-0.30103
-3.4671159	resemble	-0.30103
-3.4671159	urchins	-0.30103
-3.4671159	challenge	-0.30103
-3.4671159	generals	-0.30103
-3.4671159	intelligence	-0.30103
-3.4671159	wives	-0.30103
-3.4671159	cant	-0.30103
-3.4671159	abide	-0.30103
-3.4671159	mistakes	-0.30103
-3.4671159	own	-0.30103
-3.2797391	game	-0.30103
-3.4671159	docks	-0.30103
-3.4671159	pole	-0.30103
-3.4671159	stable	-0.30103
-3.4671159	hiring	-0.30103
-3.4671159	wife	-0.30103
-3.4671159	ones	-0.30103
-3.4671159	company	-0.30103
-3.4671159	taxaided	-0.30103
-3.4671159	retirement	-0.30103
-3.4671159	income	-0.30103
-3.4671159	must	-0.30103
-3.4671159	ready	-0.30103
-3.4671159	sacrifice	-0.30103
-3.4671159	ban	-0.30103
-3.4671159	trips	-0.30103
-3.4671159	page	-0.30103
-3.4671159	accordion	-0.30103
-3.4671159	paid	-0.30103
-3.4671159	sprain	-0.30103
-3.4671159	fool	-0.30103
-3.4671159	ramp	-0.30103
-3.4671159	service	-0.30103
-3.4671159	should	-0.30103
-3.4671159	rewarded	-0.30103
-3.4671159	tips	-0.30103
-3.2797391	paint	-0.30103
-3.4671159	canteen	-0.30103
-3.4671159	fresh	-0.30103
-3.4671159	shook	-0.30103
-3.4671159	mat	-0.30103
-3.4671159	sap	-0.30103
-3.4671159	pain	-0.30103
-3.4671159	hides	-0.30103
-3.4671159	mayonnaise	-0.30103
-3.4671159	fall	-0.30103
-3.4671159	mall	-0.30103
-3.4671159	seemed	-0.30103
-3.4671159	appealing	-0.30103
-3.4671159	panel	-0.30103
-3.4671159	doctors	-0.30103
-3.4671159	prescribe	-0.30103
-3.4671159	drugs	-0.30103
-3.4671159	freely	-0.30103
-3.4671159	vamp	-0.30103
-3.4671159	bag	-0.30103
-3.4671159	rat	-0.30103
-3.2797391	saw	-0.30103
-3.4671159	weeks	-0.30103
-3.4671159	illegal	-0.30103
-3.4671159	postdate	-0.30103
-3.4671159	check	-0.30103
-3.4671159	space	-0.30103
-3.4671159	naval	-0.30103
-3.4671159	stall	-0.30103
-3.4671159	spade	-0.30103
-3.4671159	acting	-0.30103
-3.4671159	accident	-0.30103
-3.4671159	damp	-0.30103
-3.4671159	spray	-0.30103
-3.4671159	peach	-0.30103
-3.4671159	mabel	-0.30103
-3.4671159	told	-0.30103
-3.4671159	seriously	-0.30103
-3.4671159	injured	-0.30103
-3.4671159	because	-0.30103
-3.2797391	practical	-0.30103
-3.4671159	funnel	-0.30103
-3.4671159	tap	-0.30103
-3.4671159	name	-0.30103
-3.4671159	gently	-0.30103
-3.4671159	jims	-0.30103
-3.4671159	foam	-0.30103
-3.4671159	sculpture	-0.30103
-3.4671159	maybe	-0.30103
-3.4671159	longer	-0.30103
-3.4671159	squared	-0.30103
-3.4671159	bankers	-0.30103
-3.4671159	expected	-0.30103
-3.4671159	reach	-0.30103
-3.4671159	file	-0.30103
-3.4671159	soon	-0.30103
-3.4671159	muttering	-0.30103
-3.4671159	walls	-0.30103
-3.4671159	telephone	-0.30103
-3.4671159	booths	-0.30103
-3.4671159	arent	-0.30103
-3.4671159	paste	-0.30103
-3.4671159	foil	-0.30103
-3.4671159	map	-0.30103
-3.4671159	gable	-0.30103
-3.4671159	bull	-0.30103
-3.4671159	crawl	-0.30103
-3.4671159	pale	-0.30103
-3.4671159	creature	-0.30103
-3.4671159	pocket	-0.30103
-3.4671159	married	-0.30103
-3.4671159	saddle	-0.30103
-3.4671159	bowl	-0.30103
-3.4671159	nap	-0.30103
-3.4671159	table	-0.30103
-3.4671159	sable	-0.30103
-3.4671159	fable	-0.30103
-3.4671159	mold	-0.30103
-3.4671159	mole	-0.30103
-3.4671159	impossible	-0.30103
-3.2797391	deal	-0.30103
-3.4671159	bureaucracy	-0.30103
-3.4671159	pace	-0.30103
-3.4671159	call	-0.30103
-3.4671159	describe	-0.30103
-3.4671159	idiotic	-0.30103
-3.4671159	predicament	-0.30103
-3.4671159	screech	-0.30103
-3.4671159	ladle	-0.30103
-3.4671159	bash	-0.30103
-3.4671159	room	-0.30103
-3.4671159	portrait	-0.30103
-3.4671159	bagpipes	-0.30103
-3.4671159	bongos	-0.30103
-3.4671159	musical	-0.30103
-3.4671159	instruments	-0.30103
-3.2797391	gin	-0.30103
-3.4671159	saws	-0.30103
-3.4671159	parts	-0.30103
-3.4671159	supplies	-0.30103
-3.4671159	machinery	-0.30103
-3.4671159	final	-0.30103
-3.4671159	giggling	-0.30103
-3.4671159	owl	-0.30103
-3.4671159	cliffs	-0.30103
-3.4671159	display	-0.30103
-3.4671159	misplaced	-0.30103
-3.4671159	screen	-0.30103
-3.4671159	teach	-0.30103
-3.4671159	official	-0.30103
-3.4671159	deadline	-0.30103
-3.4671159	cannot	-0.30103
-3.4671159	postponed	-0.30103
-3.4671159	bog	-0.30103
-3.4671159	rattle	-0.30103
-3.2797391	sold	-0.30103
-3.4671159	bank	-0.30103
-3.4671159	shawl	-0.30103
-3.4671159	soul	-0.30103
-3.4671159	preach	-0.30103
-3.4671159	pull	-0.30103
-3.4671159	boone	-0.30103
-3.4671159	suppress	-0.30103
-3.4671159	wages	-0.30103
-3.4671159	key	-0.30103
-3.4671159	issue	-0.30103
-3.4671159	unfortunately	-0.30103
-3.4671159	demand	-0.30103
-3.4671159	broccoli	-0.30103
-3.4671159	cauliflower	-0.30103
-3.4671159	badger	-0.30103
-3.4671159	contrast	-0.30103
-3.4671159	household	-0.30103
-3.4671159	lots	-0.30103
-3.4671159	appliances	-0.30103
-3.4671159	grain	-0.30103
-3.4671159	paintings	-0.30103
-3.4671159	auction	-0.30103
-3.4671159	impress	-0.30103
-3.4671159	occur	-0.30103
-3.4671159	shore	-0.30103
-3.4671159	book	-0.30103
-3.4671159	bin	-0.30103
-3.4671159	weeds	-0.30103
-3.4671159	strong	-0.30103
-3.4671159	fast	-0.30103
-3.4671159	fudge	-0.30103
-3.4671159	rust	-0.30103
-3.4671159	misprint	-0.30103
-3.4671159	provoked	-0.30103
-3.4671159	immediate	-0.30103
-3.4671159	disclaimer	-0.30103
-3.4671159	contract	-0.30103
-3.4671159	limb	-0.30103
-3.4671159	musk	-0.30103
-3.4671159	rut	-0.30103
-3.4671159	serve	-0.30103
-3.4671159	grape	-0.30103
-3.4671159	intact	-0.30103
-3.4671159	picnic	-0.30103
-3.4671159	subtract	-0.30103
-3.4671159	plant	-0.30103
-3.4671159	original	-0.30103
-3.4671159	forgery	-0.30103
-3.4671159	either	-0.30103
-3.4671159	walked	-0.30103
-3.2797391	driven	-0.30103
-3.4671159	primitive	-0.30103
-3.4671159	tribes	-0.30103
-3.4671159	upbeat	-0.30103
-3.4671159	shut	-0.30103
-3.4671159	retract	-0.30103
-3.4671159	displayed	-0.30103
-3.4671159	lamps	-0.30103
-3.4671159	puppets	-0.30103
-3.4671159	delight	-0.30103
-3.4671159	children	-0.30103
-3.4671159	decorative	-0.30103
-3.4671159	accent	-0.30103
-3.4671159	globe	-0.30103
-3.4671159	grave	-0.30103
-3.4671159	bust	-0.30103
-3.4671159	depress	-0.30103
-3.4671159	dusk	-0.30103
-3.4671159	slim	-0.30103
-3.4671159	flying	-0.30103
-3.4671159	standby	-0.30103
-3.4671159	save	-0.30103
-3.4671159	instructions	-0.30103
-3.4671159	desperately	-0.30103
-3.4671159	need	-0.30103
-3.4671159	updating	-0.30103
-3.4671159	preserve	-0.30103
-3.4671159	converge	-0.30103
-3.4671159	booth	-0.30103
-3.4671159	railroads	-0.30103
-3.4671159	future	-0.30103
-3.4671159	west	-0.30103
-3.4671159	beauty	-0.30103
-3.4671159	surrounds	-0.30103
-3.4671159	id	-0.30103
-3.4671159	put	-0.30103
-3.4671159	weight	-0.30103
-3.4671159	lisp	-0.30103
-3.4671159	hispanic	-0.30103
-3.4671159	costumes	-0.30103
-3.4671159	colorful	-0.30103
-3.4671159	tore	-0.30103
-3.4671159	strange	-0.30103
-3.4671159	refer	-0.30103
-3.4671159	deserve	-0.30103
-3.4671159	glib	-0.30103
-3.4671159	grope	-0.30103
-3.4671159	absurd	-0.30103
-3.4671159	kat	-0.30103
-3.4671159	kittens	-0.30103
-3.4671159	cement	-0.30103
-3.4671159	measured	-0.30103
-3.4671159	cubic	-0.30103
-3.4671159	yards	-0.30103
-3.4671159	grange	-0.30103
-3.4671159	lid	-0.30103
-3.4671159	could	-0.30103
-3.4671159	bus	-0.30103
-3.4671159	brain	-0.30103
-3.4671159	boast	-0.30103
-3.4671159	reserve	-0.30103
-3.4671159	slid	-0.30103
-3.4671159	list	-0.30103
-3.4671159	conserve	-0.30103
-3.4671159	repress	-0.30103
-3.4671159	scorch	-0.30103
-3.4671159	strike	-0.30103
-3.4671159	spread	-0.30103
-3.4671159	super	-0.30103
-3.4671159	split	-0.30103
-3.4671159	funds	-0.30103
-3.4671159	clear	-0.30103
-3.4671159	slums	-0.30103
-3.4671159	colleges	-0.30103
-3.4671159	build	-0.30103
-3.4671159	dormitories	-0.30103
-3.4671159	struggled	-0.30103
-3.4671159	sitter	-0.30103
-3.4671159	ok	-0.30103
-3.4671159	actually	-0.30103
-3.4671159	owe	-0.30103
-3.4671159	lead	-0.30103
-3.4671159	jaw	-0.30103
-3.4671159	cope	-0.30103
-3.4671159	drop	-0.30103
-3.4671159	shout	-0.30103
-3.4671159	ignorance	-0.30103
-3.4671159	relax	-0.30103
-3.4671159	oh	-0.30103
-3.4671159	liar	-0.30103
-3.4671159	lovely	-0.30103
-3.2797391	min	-0.30103
-3.4671159	tear	-0.30103
-3.4671159	paper	-0.30103
-3.4671159	todays	-0.30103
-3.4671159	date	-0.30103
-3.4671159	february	-0.30103
-3.4671159	13th	-0.30103
-3.4671159	man	-0.30103
-3.4671159	skip	-0.30103
-3.4671159	ah	-0.30103
-3.4671159	chose	-0.30103
-3.4671159	innocense	-0.30103

\2-grams:
-0.19989379	stick </s>	0
-0.8860551	in </s>	0
-0.8664175	the </s>	0
-0.668684	when </s>	0
-0.19989379	prevents </s>	0
-0.19989379	pat </s>	0
-0.5915706	up </s>	0
-0.19989379	meat </s>	0
-0.5915706	know </s>	0
-0.82291836	he </s>	0
-0.41894776	slowly </s>	0
-0.8698374	a </s>	0
-0.52610683	short </s>	0
-0.5915706	walk </s>	0
-0.41894776	air </s>	0
-0.6361781	each </s>	0
-0.46168092	day </s>	0
-0.19989379	swarm </s>	0
-0.19989379	double </s>	0
-0.6361781	no </s>	0
-0.19989379	storm </s>	0
-0.19989379	buttons </s>	0
-0.19989379	dug </s>	0
-0.7005068	you </s>	0
-0.8058398	to </s>	0
-0.7530923	all </s>	0
-0.668684	about </s>	0
-0.41894776	grandfather </s>	0
-0.19989379	knee </s>	0
-0.19989379	feet </s>	0
-0.41894776	train </s>	0
-0.41894776	but </s>	0
-0.19989379	oil </s>	0
-0.19989379	beat </s>	0
-0.19989379	dog </s>	0
-0.7289319	she </s>	0
-0.6934886	had </s>	0
-0.52610683	dark </s>	0
-0.41894776	suit </s>	0
-0.41894776	water </s>	0
-0.19989379	year </s>	0
-0.19989379	car </s>	0
-0.41894776	observe </s>	0
-0.668684	him </s>	0
-0.80769956	of </s>	0
-0.19989379	respect </s>	0
-0.7706427	have </s>	0
-0.48002547	more </s>	0
-0.82291836	and </s>	0
-0.19989379	less </s>	0
-0.19989379	rake </s>	0
-0.19989379	swore </s>	0
-0.19989379	rave </s>	0
-0.81831354	for </s>	0
-0.19989379	sip </s>	0
-0.41894776	grow </s>	0
-0.41894776	bit </s>	0
-0.19989379	chair </s>	0
-0.7130684	one </s>	0
-0.19989379	fair </s>	0
-0.6361781	two </s>	0
-0.19989379	beta </s>	0
-0.19989379	rage </s>	0
-0.41894776	spark </s>	0
-0.19989379	race </s>	0
-0.19989379	form </s>	0
-0.19989379	farm </s>	0
-0.19989379	raid </s>	0
-0.19989379	fee </s>	0
-0.19989379	weed </s>	0
-0.19989379	bat </s>	0
-0.19989379	horn </s>	0
-0.19989379	jagged </s>	0
-0.19989379	sheet </s>	0
-0.19989379	bubble </s>	0
-0.52610683	warm </s>	0
-0.19989379	ship </s>	0
-0.41894776	hair </s>	0
-0.19989379	share </s>	0
-0.19989379	rate </s>	0
-0.19989379	goat </s>	0
-0.19989379	trace </s>	0
-0.41894776	go </s>	0
-0.19989379	alpha </s>	0
-0.19989379	left </s>	0
-0.19989379	sticks </s>	0
-0.19989379	trouble </s>	0
-0.19989379	dagger </s>	0
-0.41894776	long </s>	0
-0.19989379	chin </s>	0
-0.19989379	slip </s>	0
-0.19989379	glow </s>	0
-0.19989379	trade </s>	0
-0.41894776	range </s>	0
-0.19989379	stubble </s>	0
-0.19989379	floor </s>	0
-0.19989379	bug </s>	0
-0.52610683	yet </s>	0
-0.41894776	ever </s>	0
-0.19989379	jacket </s>	0
-0.19989379	born </s>	0
-0.19989379	corn </s>	0
-0.41894776	right </s>	0
-0.41894776	knew </s>	0
-0.46168092	well </s>	0
-0.84576035	is </s>	0
-0.5915706	three </s>	0
-0.48002547	years </s>	0
-0.48002547	old </s>	0
-0.19989379	feed </s>	0
-0.7420535	with </s>	0
-0.41894776	small </s>	0
-0.19989379	organ </s>	0
-0.19989379	rain </s>	0
-0.19989379	park </s>	0
-0.19989379	tip </s>	0
-0.52610683	down </s>	0
-0.19989379	gadget </s>	0
-0.41894776	store </s>	0
-0.19989379	coat </s>	0
-0.19989379	language </s>	0
-0.19989379	torn </s>	0
-0.41894776	voice </s>	0
-0.19989379	trifle </s>	0
-0.19989379	trait </s>	0
-0.19989379	yes </s>	0
-0.5915706	dont </s>	0
-0.4967383	me </s>	0
-0.6361781	that </s>	0
-0.19989379	rock </s>	0
-0.19989379	thigh </s>	0
-0.19989379	pot </s>	0
-0.19989379	steer </s>	0
-0.19989379	aprons </s>	0
-0.41894776	write </s>	0
-0.19989379	lie </s>	0
-0.19989379	wish </s>	0
-0.19989379	prior </s>	0
-0.19989379	slay </s>	0
-0.19989379	boot </s>	0
-0.19989379	hear </s>	0
-0.19989379	innocence </s>	0
-0.19989379	beach </s>	0
-0.19989379	rocks </s>	0
-0.19989379	delta </s>	0
-0.41894776	play </s>	0
-0.19989379	ate </s>	0
-0.19989379	whoop </s>	0
-0.19989379	sleep </s>	0
-0.19989379	galore </s>	0
-0.41894776	house </s>	0
-0.19989379	white </s>	0
-0.19989379	sigh </s>	0
-0.19989379	urgent </s>	0
-0.41894776	deer </s>	0
-0.19989379	best </s>	0
-0.19989379	coupe </s>	0
-0.19989379	troop </s>	0
-0.76251066	were </s>	0
-0.19989379	advisement </s>	0
-0.19989379	jungle </s>	0
-0.19989379	group </s>	0
-0.41894776	fear </s>	0
-0.668684	there </s>	0
-0.19989379	shear </s>	0
-0.19989379	sprinkle </s>	0
-0.19989379	pile </s>	0
-0.19989379	fruit </s>	0
-0.52610683	went </s>	0
-0.3654102	said </s>	0
-0.41894776	away </s>	0
-0.80291945	are </s>	0
-0.19989379	nancys </s>	0
-0.19989379	cheer </s>	0
-0.19989379	gnaw </s>	0
-0.19989379	tile </s>	0
-0.6361781	big </s>	0
-0.19989379	traded </s>	0
-0.80291945	was </s>	0
-0.19989379	us </s>	0
-0.19989379	area </s>	0
-0.19989379	light </s>	0
-0.19989379	am </s>	0
-0.19989379	field </s>	0
-0.41894776	bad </s>	0
-0.19989379	knot </s>	0
-0.19989379	select </s>	0
-0.19989379	briar </s>	0
-0.19989379	single </s>	0
-0.19989379	mere </s>	0
-0.19989379	droop </s>	0
-0.41894776	near </s>	0
-0.52610683	much </s>	0
-0.33306566	money </s>	0
-0.52610683	hard </s>	0
-0.19989379	cycle </s>	0
-0.19989379	pay </s>	0
-0.19989379	mut </s>	0
-0.19989379	men </s>	0
-0.19989379	thoroughly </s>	0
-0.19989379	explore </s>	0
-0.19989379	sway </s>	0
-0.33306566	time </s>	0
-0.19989379	root </s>	0
-0.19989379	snoop </s>	0
-0.52610683	four </s>	0
-0.5915706	both </s>	0
-0.33306566	later </s>	0
-0.41894776	side </s>	0
-0.19989379	wet </s>	0
-0.19989379	districts </s>	0
-0.5915706	tell </s>	0
-0.19989379	community </s>	0
-0.19989379	loop </s>	0
-0.41894776	though </s>	0
-0.19989379	populated </s>	0
-0.19989379	witch </s>	0
-0.19989379	forward </s>	0
-0.41894776	made </s>	0
-0.19989379	curtains </s>	0
-0.33306566	here </s>	0
-0.19989379	pad </s>	0
-0.41894776	why </s>	0
-0.19989379	items </s>	0
-0.19989379	bear </s>	0
-0.19989379	shoot </s>	0
-0.19989379	error </s>	0
-0.19989379	fate </s>	0
-0.19989379	dot </s>	0
-0.19989379	tie </s>	0
-0.19989379	lip </s>	0
-0.19989379	hate </s>	0
-0.19989379	charlie </s>	0
-0.19989379	ocean </s>	0
-0.19989379	peer </s>	0
-0.41894776	cold </s>	0
-0.19989379	shower </s>	0
-0.19989379	toot </s>	0
-0.41894776	feel </s>	0
-0.765594	can </s>	0
-0.19989379	weekend </s>	0
-0.19989379	menu </s>	0
-0.19989379	stretcher </s>	0
-0.19989379	lily </s>	0
-0.52610683	back </s>	0
-0.19989379	foxtrot </s>	0
-0.19989379	papa </s>	0
-0.19989379	chop </s>	0
-0.19989379	leg </s>	0
-0.19989379	hark </s>	0
-0.19989379	hitting </s>	0
-0.19989379	cart </s>	0
-0.19989379	expensive </s>	0
-0.19989379	rich </s>	0
-0.33306566	above </s>	0
-0.52610683	hotel </s>	0
-0.52610683	expect </s>	0
-0.19989379	week </s>	0
-0.19989379	reek </s>	0
-0.19989379	six </s>	0
-0.41894776	program </s>	0
-0.19989379	medicine </s>	0
-0.52610683	take </s>	0
-0.19989379	bloat </s>	0
-0.19989379	cake </s>	0
-0.19989379	knitting </s>	0
-0.19989379	wall </s>	0
-0.19989379	barn </s>	0
-0.19989379	seed </s>	0
-0.19989379	golf </s>	0
-0.41894776	fill </s>	0
-0.41894776	box </s>	0
-0.19989379	sweaters </s>	0
-0.19989379	mike </s>	0
-0.7289319	it </s>	0
-0.19989379	immediately </s>	0
-0.19989379	pit </s>	0
-0.19989379	hem </s>	0
-0.19989379	sitting </s>	0
-0.19989379	hum </s>	0
-0.19989379	force </s>	0
-0.6934886	good </s>	0
-0.52610683	win </s>	0
-0.19989379	lick </s>	0
-0.52610683	job </s>	0
-0.19989379	benefits </s>	0
-0.19989379	overalls </s>	0
-0.19989379	hill </s>	0
-0.19989379	lair </s>	0
-0.19989379	kitten </s>	0
-0.19989379	fat </s>	0
-0.19989379	hat </s>	0
-0.19989379	echo </s>	0
-0.19989379	witty </s>	0
-0.6361781	at </s>	0
-0.19989379	pretty </s>	0
-0.19989379	nine </s>	0
-0.19989379	hastily </s>	0
-0.19989379	leak </s>	0
-0.19989379	start </s>	0
-0.19989379	pitting </s>	0
-0.19989379	bitten </s>	0
-0.19989379	spain </s>	0
-0.19989379	written </s>	0
-0.41894776	arm </s>	0
-0.41894776	five </s>	0
-0.19989379	shy </s>	0
-0.19989379	league </s>	0
-0.19989379	eight </s>	0
-0.19989379	dart </s>	0
-0.52610683	way </s>	0
-0.19989379	lima </s>	0
-0.19989379	home </s>	0
-0.19989379	sign </s>	0
-0.19989379	sergeant </s>	0
-0.41894776	around </s>	0
-0.19989379	boat </s>	0
-0.19989379	wealth </s>	0
-0.19989379	empty </s>	0
-0.19989379	vat </s>	0
-0.19989379	mitten </s>	0
-0.19989379	formula </s>	0
-0.19989379	mush </s>	0
-0.19989379	quebec </s>	0
-0.19989379	november </s>	0
-0.19989379	brawn </s>	0
-0.19989379	evening </s>	0
-0.52610683	new </s>	0
-0.19989379	reported </s>	0
-0.41894776	night </s>	0
-0.52610683	phone </s>	0
-0.19989379	calls </s>	0
-0.19989379	darn </s>	0
-0.19989379	kilo </s>	0
-0.19989379	hospitals </s>	0
-0.19989379	juliet </s>	0
-0.19989379	seven </s>	0
-0.19989379	blow </s>	0
-0.19989379	oscar </s>	0
-0.19989379	fitting </s>	0
-0.19989379	city </s>	0
-0.41894776	heart </s>	0
-0.19989379	thorn </s>	0
-0.19989379	claim </s>	0
-0.19989379	top </s>	0
-0.41894776	brought </s>	0
-0.19989379	flimsy </s>	0
-0.19989379	legislation </s>	0
-0.19989379	zero </s>	0
-0.41894776	sell </s>	0
-0.41894776	out </s>	0
-0.19989379	rung </s>	0
-0.41894776	thought </s>	0
-0.19989379	loyal </s>	0
-0.19989379	spit </s>	0
-0.19989379	harp </s>	0
-0.41894776	part </s>	0
-0.19989379	seeds </s>	0
-0.19989379	ticker </s>	0
-0.19989379	leaks </s>	0
-0.19989379	wicked </s>	0
-0.19989379	zulu </s>	0
-0.41894776	gas </s>	0
-0.19989379	burner </s>	0
-0.19989379	governor </s>	0
-0.19989379	bay </s>	0
-0.19989379	bed </s>	0
-0.19989379	nest </s>	0
-0.19989379	flicker </s>	0
-0.19989379	bread </s>	0
-0.19989379	sicker </s>	0
-0.19989379	winners </s>	0
-0.19989379	sin </s>	0
-0.19989379	evacuate </s>	0
-0.19989379	slicker </s>	0
-0.19989379	tango </s>	0
-0.19989379	loss </s>	0
-0.19989379	tread </s>	0
-0.19989379	shell </s>	0
-0.19989379	xray </s>	0
-0.19989379	dice </s>	0
-0.19989379	shrugged </s>	0
-0.19989379	potatoes </s>	0
-0.19989379	glitter </s>	0
-0.19989379	fork </s>	0
-0.19989379	bitter </s>	0
-0.19989379	ham </s>	0
-0.33306566	first </s>	0
-0.41894776	cat </s>	0
-0.41894776	keep </s>	0
-0.19989379	millionaires </s>	0
-0.19989379	litter </s>	0
-0.19989379	sink </s>	0
-0.19989379	red </s>	0
-0.19989379	nut </s>	0
-0.19989379	ned </s>	0
-0.19989379	dread </s>	0
-0.19989379	sit </s>	0
-0.41894776	able </s>	0
-0.41894776	too </s>	0
-0.19989379	zip </s>	0
-0.19989379	hand </s>	0
-0.19989379	rest </s>	0
-0.41894776	attitude </s>	0
-0.19989379	unbeatable </s>	0
-0.19989379	quickly </s>	0
-0.19989379	marvelously </s>	0
-0.41894776	rise </s>	0
-0.19989379	morning </s>	0
-0.19989379	wicker </s>	0
-0.19989379	sing </s>	0
-0.41894776	bought </s>	0
-0.41894776	quicker </s>	0
-0.19989379	sierra </s>	0
-0.19989379	team </s>	0
-0.19989379	uniform </s>	0
-0.19989379	romeo </s>	0
-0.19989379	nod </s>	0
-0.41894776	nice </s>	0
-0.19989379	liquor </s>	0
-0.41894776	beg </s>	0
-0.19989379	chip </s>	0
-0.19989379	lock </s>	0
-0.19989379	yankee </s>	0
-0.52610683	ride </s>	0
-0.19989379	stagecoach </s>	0
-0.19989379	bidding </s>	0
-0.19989379	victor </s>	0
-0.19989379	sand </s>	0
-0.19989379	tin </s>	0
-0.19989379	dress </s>	0
-0.19989379	nearby </s>	0
-0.19989379	neat </s>	0
-0.41894776	alone </s>	0
-0.19989379	survive </s>	0
-0.19989379	dead </s>	0
-0.19989379	whisky </s>	0
-0.19989379	wit </s>	0
-0.19989379	painters </s>	0
-0.19989379	attention </s>	0
-0.19989379	success </s>	0
-0.19989379	lake </s>	0
-0.19989379	thread </s>	0
-0.19989379	fed </s>	0
-0.19989379	dishes </s>	0
-0.19989379	sew </s>	0
-0.19989379	sort </s>	0
-0.19989379	catch </s>	0
-0.19989379	goose </s>	0
-0.52610683	played </s>	0
-0.19989379	degree </s>	0
-0.19989379	dessert </s>	0
-0.19989379	welcome </s>	0
-0.19989379	cakes </s>	0
-0.19989379	bill </s>	0
-0.19989379	popularity </s>	0
-0.19989379	shin </s>	0
-0.19989379	kind </s>	0
-0.19989379	cork </s>	0
-0.19989379	weep </s>	0
-0.19989379	history </s>	0
-0.19989379	rid </s>	0
-0.19989379	quart </s>	0
-0.19989379	shot </s>	0
-0.19989379	sheep </s>	0
-0.19989379	snort </s>	0
-0.19989379	pork </s>	0
-0.19989379	sketch </s>	0
-0.19989379	yourself </s>	0
-0.19989379	blend </s>	0
-0.19989379	shed </s>	0
-0.19989379	identical </s>	0
-0.19989379	maintenance </s>	0
-0.19989379	court </s>	0
-0.19989379	see </s>	0
-0.19989379	shop </s>	0
-0.41894776	heat </s>	0
-0.19989379	gone </s>	0
-0.19989379	gill </s>	0
-0.19989379	show </s>	0
-0.19989379	read </s>	0
-0.19989379	disappointing </s>	0
-0.19989379	tug </s>	0
-0.19989379	cash </s>	0
-0.19989379	stretch </s>	0
-0.19989379	steak </s>	0
-0.19989379	ray </s>	0
-0.19989379	fort </s>	0
-0.19989379	lee </s>	0
-0.19989379	hold </s>	0
-0.19989379	since </s>	0
-0.52610683	life </s>	0
-0.19989379	shred </s>	0
-0.19989379	sight </s>	0
-0.19989379	pond </s>	0
-0.19989379	tort </s>	0
-0.19989379	meats </s>	0
-0.19989379	precious </s>	0
-0.52610683	eat </s>	0
-0.19989379	sport </s>	0
-0.19989379	activities </s>	0
-0.19989379	fined </s>	0
-0.19989379	regulations </s>	0
-0.19989379	resulted </s>	0
-0.19989379	valentines </s>	0
-0.19989379	geese </s>	0
-0.19989379	mill </s>	0
-0.19989379	present </s>	0
-0.19989379	reap </s>	0
-0.19989379	dill </s>	0
-0.19989379	lend </s>	0
-0.19989379	foe </s>	0
-0.19989379	loan </s>	0
-0.19989379	toe </s>	0
-0.19989379	threat </s>	0
-0.19989379	port </s>	0
-0.19989379	rip </s>	0
-0.19989379	wise </s>	0
-0.41894776	full </s>	0
-0.19989379	stuff </s>	0
-0.19989379	bend </s>	0
-0.19989379	muck </s>	0
-0.19989379	snake </s>	0
-0.19989379	bumper </s>	0
-0.19989379	ash </s>	0
-0.41894776	fit </s>	0
-0.19989379	sheer </s>	0
-0.19989379	chablis </s>	0
-0.19989379	hash </s>	0
-0.41894776	come </s>	0
-0.19989379	favor </s>	0
-0.19989379	hail </s>	0
-0.19989379	code </s>	0
-0.19989379	excluded </s>	0
-0.19989379	beam </s>	0
-0.19989379	competitors </s>	0
-0.19989379	knife </s>	0
-0.19989379	pete </s>	0
-0.19989379	skills </s>	0
-0.19989379	anywhere </s>	0
-0.19989379	gash </s>	0
-0.19989379	idea </s>	0
-0.19989379	fender </s>	0
-0.19989379	woe </s>	0
-0.19989379	member </s>	0
-0.19989379	beast </s>	0
-0.19989379	together </s>	0
-0.19989379	guess </s>	0
-0.19989379	casually </s>	0
-0.19989379	seam </s>	0
-0.19989379	beep </s>	0
-0.19989379	vocal </s>	0
-0.19989379	investment </s>	0
-0.19989379	redhanded </s>	0
-0.19989379	mock </s>	0
-0.19989379	dock </s>	0
-0.41894776	sea </s>	0
-0.19989379	petticoats </s>	0
-0.19989379	ember </s>	0
-0.19989379	seat </s>	0
-0.19989379	food </s>	0
-0.19989379	reef </s>	0
-0.19989379	blaze </s>	0
-0.19989379	sender </s>	0
-0.19989379	acclaim </s>	0
-0.19989379	director </s>	0
-0.668684	from </s>	0
-0.19989379	wonderful </s>	0
-0.19989379	renter </s>	0
-0.19989379	row </s>	0
-0.19989379	lender </s>	0
-0.19989379	ape </s>	0
-0.19989379	forks </s>	0
-0.19989379	tender </s>	0
-0.19989379	tea </s>	0
-0.19989379	fans </s>	0
-0.19989379	timber </s>	0
-0.19989379	leap </s>	0
-0.19989379	poor </s>	0
-0.19989379	tail </s>	0
-0.19989379	bender </s>	0
-0.19989379	ache </s>	0
-0.19989379	center </s>	0
-0.19989379	appetizers </s>	0
-0.19989379	beef </s>	0
-0.19989379	temper </s>	0
-0.19989379	ways </s>	0
-0.19989379	wax </s>	0
-0.19989379	pet </s>	0
-0.19989379	aid </s>	0
-0.19989379	knock </s>	0
-0.19989379	lies </s>	0
-0.19989379	cheese </s>	0
-0.19989379	hatch </s>	0
-0.19989379	grievances </s>	0
-0.19989379	bunch </s>	0
-0.19989379	appreciated </s>	0
-0.19989379	ease </s>	0
-0.19989379	add </s>	0
-0.19989379	gift </s>	0
-0.41894776	judge </s>	0
-0.41894776	state </s>	0
-0.19989379	education </s>	0
-0.19989379	states </s>	0
-0.19989379	peas </s>	0
-0.19989379	bun </s>	0
-0.19989379	punch </s>	0
-0.19989379	ail </s>	0
-0.19989379	tall </s>	0
-0.19989379	detail </s>	0
-0.19989379	pill </s>	0
-0.19989379	racks </s>	0
-0.19989379	construction </s>	0
-0.19989379	aches </s>	0
-0.19989379	lit </s>	0
-0.19989379	splinter </s>	0
-0.41894776	now </s>	0
-0.19989379	choose </s>	0
-0.19989379	duck </s>	0
-0.19989379	harm </s>	0
-0.19989379	actress </s>	0
-0.41894776	fell </s>	0
-0.19989379	diploma </s>	0
-0.19989379	charm </s>	0
-0.19989379	meeting </s>	0
-0.19989379	friends </s>	0
-0.19989379	mile </s>	0
-0.19989379	rakes </s>	0
-0.19989379	situation </s>	0
-0.52610683	sat </s>	0
-0.19989379	relaxed </s>	0
-0.19989379	hall </s>	0
-0.19989379	sake </s>	0
-0.19989379	incidents </s>	0
-0.19989379	chowder </s>	0
-0.19989379	degrees </s>	0
-0.19989379	ticks </s>	0
-0.19989379	disguise </s>	0
-0.19989379	sources </s>	0
-0.19989379	chap </s>	0
-0.19989379	lax </s>	0
-0.19989379	score </s>	0
-0.19989379	munch </s>	0
-0.19989379	symbols </s>	0
-0.19989379	end </s>	0
-0.41894776	pleasure </s>	0
-0.19989379	excitement </s>	0
-0.19989379	dial </s>	0
-0.19989379	low </s>	0
-0.19989379	whip </s>	0
-0.19989379	ink </s>	0
-0.29575363	again </s>	0
-0.19989379	term </s>	0
-0.19989379	wide </s>	0
-0.19989379	pant </s>	0
-0.19989379	find </s>	0
-0.41894776	cable </s>	0
-0.19989379	translated </s>	0
-0.19989379	past </s>	0
-0.19989379	burn </s>	0
-0.41894776	street </s>	0
-0.19989379	ahead </s>	0
-0.19989379	wine </s>	0
-0.19989379	eyes </s>	0
-0.19989379	weave </s>	0
-0.19989379	omitted </s>	0
-0.19989379	wart </s>	0
-0.19989379	wack </s>	0
-0.41894776	needed </s>	0
-0.19989379	dash </s>	0
-0.19989379	drifts </s>	0
-0.19989379	required </s>	0
-0.19989379	ball </s>	0
-0.41894776	myself </s>	0
-0.41894776	steep </s>	0
-0.19989379	increases </s>	0
-0.19989379	damaged </s>	0
-0.19989379	obstacles </s>	0
-0.19989379	hid </s>	0
-0.19989379	luke </s>	0
-0.19989379	fold </s>	0
-0.19989379	pink </s>	0
-0.19989379	waste </s>	0
-0.41894776	porch </s>	0
-0.19989379	steps </s>	0
-0.19989379	carefully </s>	0
-0.52610683	through </s>	0
-0.19989379	report </s>	0
-0.19989379	sail </s>	0
-0.19989379	wipe </s>	0
-0.19989379	theory </s>	0
-0.19989379	urchins </s>	0
-0.19989379	intelligence </s>	0
-0.19989379	wives </s>	0
-0.19989379	game </s>	0
-0.19989379	docks </s>	0
-0.19989379	pole </s>	0
-0.19989379	stable </s>	0
-0.19989379	income </s>	0
-0.19989379	sacrifice </s>	0
-0.19989379	ban </s>	0
-0.19989379	page </s>	0
-0.19989379	accordion </s>	0
-0.19989379	paid </s>	0
-0.19989379	sprain </s>	0
-0.19989379	fool </s>	0
-0.19989379	ramp </s>	0
-0.19989379	tips </s>	0
-0.41894776	paint </s>	0
-0.19989379	mat </s>	0
-0.19989379	sap </s>	0
-0.19989379	pain </s>	0
-0.19989379	mayonnaise </s>	0
-0.19989379	fall </s>	0
-0.19989379	mall </s>	0
-0.19989379	panel </s>	0
-0.19989379	freely </s>	0
-0.19989379	vamp </s>	0
-0.19989379	bag </s>	0
-0.19989379	rat </s>	0
-0.19989379	check </s>	0
-0.19989379	space </s>	0
-0.19989379	naval </s>	0
-0.19989379	stall </s>	0
-0.19989379	spade </s>	0
-0.19989379	accident </s>	0
-0.19989379	damp </s>	0
-0.19989379	spray </s>	0
-0.19989379	peach </s>	0
-0.19989379	mabel </s>	0
-0.19989379	told </s>	0
-0.19989379	injured </s>	0
-0.41894776	practical </s>	0
-0.19989379	funnel </s>	0
-0.19989379	tap </s>	0
-0.19989379	expected </s>	0
-0.19989379	reach </s>	0
-0.19989379	file </s>	0
-0.19989379	walls </s>	0
-0.19989379	paste </s>	0
-0.19989379	foil </s>	0
-0.19989379	map </s>	0
-0.19989379	gable </s>	0
-0.19989379	bull </s>	0
-0.19989379	crawl </s>	0
-0.19989379	pale </s>	0
-0.19989379	creature </s>	0
-0.19989379	pocket </s>	0
-0.19989379	saddle </s>	0
-0.19989379	bowl </s>	0
-0.19989379	nap </s>	0
-0.19989379	table </s>	0
-0.19989379	sable </s>	0
-0.19989379	fable </s>	0
-0.19989379	mold </s>	0
-0.19989379	mole </s>	0
-0.19989379	bureaucracy </s>	0
-0.19989379	pace </s>	0
-0.19989379	call </s>	0
-0.19989379	predicament </s>	0
-0.19989379	screech </s>	0
-0.19989379	ladle </s>	0
-0.19989379	bash </s>	0
-0.19989379	portrait </s>	0
-0.19989379	instruments </s>	0
-0.19989379	machinery </s>	0
-0.19989379	final </s>	0
-0.19989379	giggling </s>	0
-0.19989379	owl </s>	0
-0.19989379	screen </s>	0
-0.19989379	teach </s>	0
-0.19989379	postponed </s>	0
-0.19989379	bog </s>	0
-0.19989379	rattle </s>	0
-0.41894776	sold </s>	0
-0.19989379	bank </s>	0
-0.19989379	shawl </s>	0
-0.19989379	soul </s>	0
-0.19989379	preach </s>	0
-0.19989379	pull </s>	0
-0.19989379	boone </s>	0
-0.19989379	suppress </s>	0
-0.19989379	issue </s>	0
-0.19989379	cauliflower </s>	0
-0.19989379	badger </s>	0
-0.19989379	contrast </s>	0
-0.19989379	appliances </s>	0
-0.19989379	grain </s>	0
-0.19989379	auction </s>	0
-0.19989379	impress </s>	0
-0.19989379	occur </s>	0
-0.19989379	shore </s>	0
-0.19989379	book </s>	0
-0.19989379	bin </s>	0
-0.19989379	fast </s>	0
-0.19989379	fudge </s>	0
-0.19989379	rust </s>	0
-0.19989379	disclaimer </s>	0
-0.19989379	contract </s>	0
-0.19989379	limb </s>	0
-0.19989379	musk </s>	0
-0.19989379	rut </s>	0
-0.19989379	serve </s>	0
-0.19989379	grape </s>	0
-0.19989379	intact </s>	0
-0.19989379	subtract </s>	0
-0.19989379	forgery </s>	0
-0.19989379	driven </s>	0
-0.19989379	shut </s>	0
-0.19989379	retract </s>	0
-0.19989379	accent </s>	0
-0.19989379	globe </s>	0
-0.19989379	grave </s>	0
-0.19989379	bust </s>	0
-0.19989379	depress </s>	0
-0.19989379	dusk </s>	0
-0.19989379	slim </s>	0
-0.19989379	updating </s>	0
-0.19989379	preserve </s>	0
-0.19989379	converge </s>	0
-0.19989379	booth </s>	0
-0.19989379	west </s>	0
-0.19989379	weight </s>	0
-0.19989379	lisp </s>	0
-0.19989379	colorful </s>	0
-0.19989379	tore </s>	0
-0.19989379	strange </s>	0
-0.19989379	refer </s>	0
-0.19989379	deserve </s>	0
-0.19989379	glib </s>	0
-0.19989379	grope </s>	0
-0.19989379	absurd </s>	0
-0.19989379	kittens </s>	0
-0.19989379	yards </s>	0
-0.19989379	grange </s>	0
-0.19989379	lid </s>	0
-0.19989379	brain </s>	0
-0.19989379	boast </s>	0
-0.19989379	reserve </s>	0
-0.19989379	slid </s>	0
-0.19989379	list </s>	0
-0.19989379	conserve </s>	0
-0.19989379	repress </s>	0
-0.19989379	scorch </s>	0
-0.19989379	super </s>	0
-0.19989379	split </s>	0
-0.19989379	dormitories </s>	0
-0.19989379	struggled </s>	0
-0.19989379	sitter </s>	0
-0.19989379	ok </s>	0
-0.19989379	actually </s>	0
-0.19989379	owe </s>	0
-0.19989379	jaw </s>	0
-0.19989379	cope </s>	0
-0.19989379	drop </s>	0
-0.19989379	shout </s>	0
-0.19989379	ignorance </s>	0
-0.19989379	relax </s>	0
-0.19989379	oh </s>	0
-0.19989379	liar </s>	0
-0.41894776	min </s>	0
-0.19989379	paper </s>	0
-0.19989379	13th </s>	0
-0.19989379	man </s>	0
-0.19989379	chose </s>	0
-0.19989379	innocense </s>	0
-2.7705085	<s> stick	-1.2388821
-2.7705085	<s> except	-1.2388821
-2.576984	<s> in	-1.0543576
-0.29839525	except in	-1.2388821
-0.8926456	walk in	-1.20412
-0.5968064	suit in	-1.2388821
-1.7311298	is in	-0.30103
-0.5968064	himself in	-1.3152704
-0.29839525	modern in	-1.2218487
-0.5968064	higher in	-1.146128
-0.29839525	confidence in	-1.20412
-0.9869833	people in	-1.1249387
-1.5111624	it in	-0.66900676
-0.29839525	lives in	-1.146128
-0.29839525	damage in	-0.86530143
-0.29839525	participate in	-0.86530143
-0.29839525	ruled in	-0.7781512
-0.29839525	upbringing in	-0.8239087
-0.29839525	fire in	-0.8239087
-0.29839525	mistakes in	-0.66900676
-0.29839525	sculpture in	-0.30103
-0.5968064	deal in	-0.42596874
-0.29839525	measured in	-0.30103
-1.4423666	<s> the	-0.97003675
-0.678785	in the	-1.005395
-1.0486279	when the	-1.2388821
-0.59163487	open the	-0.90309
-1.1120764	to the	-1.0334238
-0.8463758	all the	-1.0369836
-0.7626059	about the	-0.8239087
-0.59163487	over the	-1.2710668
-0.91244733	of the	-0.96523786
-1.3211133	for the	-0.8239087
-1.25124	with the	-0.7781512
-0.22605124	on the	-1.0041165
-0.29578617	smooth the	-1.1249387
-1.4895946	are the	-0.8239087
-0.8824841	than the	-0.30103
-0.59163487	near the	-1.146128
-1.0486279	by the	-0.72699875
-0.29578617	approached the	-1.1249387
-0.29578617	scrubbed the	-1.146128
-0.59163487	made the	-1.1249387
-0.9743919	at the	-0.30103
-0.29578617	wrapped the	-1.146128
-0.29578617	covered the	-0.9378521
-0.9743919	only the	-0.86530143
-0.29578617	prefer the	-0.86530143
-0.59163487	thats the	-0.30103
-0.29578617	across the	-0.86530143
-0.29578617	remains the	-0.86530143
-0.29578617	mail the	-0.8239087
-0.7626059	from the	-0.86530143
-0.29578617	neglect the	-0.7781512
-0.29578617	compounded the	-0.66900676
-0.59163487	judge the	-0.9378521
-0.29578617	housing the	-0.8239087
-0.29578617	order the	-0.66900676
-0.29578617	noted the	-0.5228787
-0.29578617	hiring the	-0.42596874
-0.29578617	hides the	-0.42596874
-0.29578617	describe the	-0.30103
-0.29578617	lamps the	-0.30103
-0.29578617	delight the	-0.30103
-2.294777	the winter	-1.2388821
-2.3866475	<s> when	-1.0863599
-0.30075693	winter when	-1.2388821
-1.0775454	when when	-0.30103
-2.294777	the ooze	-1.2388821
-0.300231	ooze or	-1.2388821
-0.6004635	snow or	-1.2388821
-0.6004635	higher or	-1.1249387
-0.300231	yell or	-1.146128
-0.300231	room or	-0.42596874
-0.300231	walked or	-0.30103
-0.300231	bus or	-0.30103
-2.28697	the snow	-0.66900676
-1.1445346	or snow	-1.2388821
-1.1450922	or ice	-1.2388821
-0.30088192	ice prevents	-1.2388821
-2.3217084	<s> pat	-1.6751671
-2.5251884	<s> up	-1.4573772
-0.77536607	warm up	-0.86530143
-0.8993804	go up	-0.66900676
-0.77536607	looked up	-1.1249387
-0.3000996	treehouse up	-1.146128
-0.3000996	speak up	-0.86530143
-0.3000996	shook up	-0.30103
-0.3000996	tear up	-0.30103
-2.3217084	<s> meat	-1.6751671
-2.462897	<s> know	-1.5314789
-1.9726056	to know	-1.2388821
-1.653546	we know	-0.90309
-0.6012511	didnt know	-0.72699875
-1.8080009	<s> he	-1.0318892
-1.0705205	when he	-1.3290588
-1.1360404	day he	-1.2388821
-0.5991539	but he	-1.3290588
-1.0705205	him he	-1
-0.77379924	yet he	-1.1356627
-1.363059	as he	-1.1026623
-1.1360404	well he	-1.2710668
-0.5991539	himself he	-0.30103
-1.1360404	this he	-0.90309
-0.2995745	economy he	-1.20412
-0.5991539	so he	-0.42596874
-1.7101139	he slowly	-1.20412
-0.300802	depot slowly	-1.1249387
-0.60176384	slowly takes	-1.20412
-2.090018	<s> a	-0.97272587
-1.5575713	in a	-0.9242793
-1.110685	or a	-0.42596874
-0.29578617	takes a	-1.20412
-0.82701504	had a	-0.60206
-0.7626059	him a	-1
-1.3512952	have a	-0.7781512
-1.596801	and a	-0.30103
-1.3211133	for a	-0.97003675
-1.3211133	as a	-0.7781512
-1.0756742	is a	-0.97003675
-1.0486279	just a	-1.3290588
-0.29578617	quivers a	-1.3290588
-0.59163487	write a	-0.66900676
-0.29578617	allow a	-1.20412
-1.0258473	on a	-0.7781512
-1.4895946	are a	-0.30103
-0.7626059	get a	-0.90309
-1.070473	was a	-0.8808136
-0.59163487	taking a	-1.1663314
-0.29578617	wear a	-1.1249387
-0.7626059	expect a	-0.7781512
-0.7626059	not a	-1.2218487
-0.7626059	take a	-0.86530143
-0.59163487	wore a	-0.7781512
-0.29578617	harms a	-1.1026623
-0.29578617	became a	-1.146128
-1.110685	its a	-0.8239087
-0.29578617	pick a	-0.90309
-0.59163487	definitely a	-0.9378521
-0.59163487	bought a	-0.97003675
-0.7626059	did a	-0.86530143
-0.29578617	toward a	-0.86530143
-0.46927902	makes a	-0.845098
-0.29578617	covers a	-1.1249387
-1.0486279	from a	-0.30103
-0.59163487	such a	-0.5228787
-0.29578617	even a	-0.8239087
-0.29578617	deserves a	-0.5228787
-0.59163487	paint a	-0.42596874
-0.29578617	postdate a	-0.30103
-2.8836849	<s> short	-1.1249387
-2.0773344	a short	-1.20412
-1.7977939	is short	-0.86530143
-3.0701663	<s> walk	-0.9378521
-0.77693856	short walk	-1.20412
-1.9726056	to walk	-1.30103
-0.30062538	could walk	-0.30103
-2.28697	the open	-1.20412
-0.6016041	please open	-0.90309
-2.1925645	<s> air	-1.8016324
-0.6016041	open air	-1.20412
-2.8995218	<s> each	-0.8016324
-0.6012511	air each	-1.20412
-0.30062538	twice each	-1.2388821
-0.30062538	challenge each	-0.66900676
-2.8849893	<s> day	-1.1026623
-0.697303	each day	-1.2218487
-1.198808	one day	-0.90309
-0.99667233	every day	-0.66900676
-0.6007259	after day	-1.1026623
-0.30036247	twelfth day	-0.86530143
-2.4346826	<s> swarm	-1.5642715
-2.7705085	<s> double	-1.2388821
-2.2224998	<s> no	-1.7683914
-1.142389	had no	-0.72699875
-1.4080551	have no	-0.72699875
-1.5697091	was no	-0.7781512
-0.30049387	requires no	-0.7781512
-2.4266922	<s> storm	-1.5720967
-2.7210164	<s> usually	-1.161368
-0.60176384	usually minus	-1.2710668
-3.977168	<s> several	-0.30103
-0.300802	minus several	-1.2710668
-0.60176384	several buttons	-1.2710668
-2.5141	<s> dug	-1.4866666
-2.3649302	<s> you	-1
-1.0674343	when you	-0.66900676
-1.6360478	for you	-1.1026623
-1.3570269	as you	-1.1026623
-1.1885271	will you	-0.30103
-1.3570269	were you	-1.1249387
-0.42333072	if you	-0.9839132
-0.29905	banks you	-1.20412
-0.8952236	tell you	-0.7781512
-1.4539369	can you	-0.42596874
-0.77223814	way you	-0.66900676
-0.77223814	did you	-0.66900676
-0.29905	asked you	-0.86530143
-0.598109	sure you	-0.8239087
-0.29905	surrounds you	-0.30103
-0.29905	lead you	-0.30103
-1.6402057	you wished	-1.2388821
-2.8429844	<s> to	-0.7781512
-0.29539612	wished to	-1.2388821
-0.76146424	him to	-1.146128
-1.3468838	have to	-0.72699875
-0.29539612	clings to	-1.2710668
-0.76146424	yet to	-1.1249387
-0.76146424	still to	-0.7781512
-0.29539612	likes to	-1.2218487
-1.1609716	me to	-1.20412
-0.8809802	like to	-0.86530143
-0.29539612	try to	-1.0142405
-1.3169967	were to	-1.2218487
-0.5908644	easy to	-0.42596874
-0.29539612	something to	-1.20412
-0.5908644	used to	-1.1249387
-0.46869764	hard to	-0.5563025
-0.76146424	time to	-0.66900676
-0.29539612	tried to	-1.1249387
-0.29539612	horseback to	-1.1026623
-0.29539612	fun to	-0.9378521
-0.29539612	someplace to	-0.90309
-0.5908644	want to	-0.30103
-0.29539612	expects to	-1.0280287
-0.29539612	greg to	-0.90309
-0.29539612	willing to	-0.90309
-0.5908644	cat to	-0.90309
-0.5908644	able to	-1
-0.29539612	volunteered to	-1
-0.8809802	what to	-0.30103
-0.29539612	decision to	-0.86530143
-0.29539612	scream to	-0.86530143
-0.29539612	dough to	-0.69897
-0.29539612	common to	-0.86530143
-0.29539612	desire to	-0.72699875
-0.29539612	met to	-0.9378521
-0.29539612	trying to	-0.86530143
-0.29539612	wanted to	-0.72699875
-0.29539612	status to	-0.5228787
-0.29539612	appealing to	-0.42596874
-0.29539612	illegal to	-0.30103
-0.29539612	longer to	-0.30103
-0.29539612	muttering to	-0.42596874
-0.29539612	impossible to	-0.42596874
-0.29539612	funds to	-1.1856365
-2.6602447	<s> all	-1.0142405
-1.0728495	when all	-1.146128
-0.8988586	know all	-1.2388821
-0.8988586	water all	-1.2388821
-1.3496721	we all	-0.8016324
-1.3676388	were all	-0.66900676
-0.29996827	conscious all	-1.1663314
-0.59993917	received all	-0.5228787
-1.0728495	really all	-0.86530143
-1.0384523	all about	-1.0910804
-1.7898608	is about	-0.90309
-0.6009885	brought about	-0.90309
-0.30049387	discover about	-0.86530143
-0.30049387	talked about	-0.72699875
-2.8094342	<s> my	-0.9444827
-1.1967323	up my	-0.86530143
-1.0736287	about my	-1.2388821
-1.1396569	had my	-1.1026623
-1.7528257	of my	-0.66900676
-1.1396569	do my	-1.1856365
-0.3000996	suddenly my	-0.9378521
-0.3000996	change my	-0.72699875
-2.784885	<s> grandfather	-1.2218487
-1.2532248	my grandfather	-1.2388821
-2.767188	<s> knee	-1.2388821
-1.1445346	his knee	-0.86530143
-2.2690756	<s> feet	-1.7269987
-2.7338214	<s> train	-1.2710668
-2.28697	the train	-1.1249387
-2.6493146	<s> but	-1.1335388
-1.7101139	he always	-1.3290588
-0.300802	although always	-0.90309
-0.7777071	always answers	-1.3290588
-0.30088192	answers banana	-1.3290588
-0.30088192	banana oil	-1.3290588
-2.2475858	<s> beat	-1.748188
-2.28697	the quick	-1.2710668
-1.7856033	a quick	-0.8846066
-2.0799494	a brown	-0.97003675
-0.7774676	quick brown	-1.2710668
-0.60176384	brown fox	-1.2710668
-0.30088192	fox jumps	-1.2710668
-0.300802	jumps over	-1.2710668
-0.300802	worry over	-1.146128
-2.294777	the lazy	-1.2710668
-0.30088192	lazy dog	-1.2710668
-2.098255	<s> she	-0.9415482
-2.8779016	<s> had	-1.1026623
-1.2481339	she had	-1.2388821
-1.644743	we had	-0.30103
-1.4046993	have had	-1.1026623
-1.7682819	i had	-0.72699875
-0.300231	finger had	-0.72699875
-0.300231	kat had	-0.30103
-1.1396569	had your	-1.2388821
-1.5624385	are your	-1.1249387
-0.3000996	swing your	-1.1026623
-0.3000996	celebrate your	-0.86530143
-0.77536607	eat your	-0.66900676
-0.3000996	guarantees your	-0.7781512
-0.3000996	upgrade your	-0.5228787
-0.3000996	reflect your	-0.5228787
-2.5209475	<s> dark	-1.4771212
-1.2019403	your dark	-1.2388821
-0.99863636	her dark	-0.8239087
-2.5526443	<s> suit	-1.447158
-0.7774676	dark suit	-1.2388821
-1.6407943	in greasy	-1.2388821
-0.30088192	greasy wash	-1.2388821
-0.30062538	wash water	-1.2388821
-0.9979807	more water	-0.30103
-0.30062538	losing water	-1.1026623
-0.6012511	spring water	-0.42596874
-1.3407962	all year	-1.2388821
-2.7705085	<s> car	-1.2388821
-2.7705085	<s> giving	-1.2388821
-2.8033335	<s> those	-0.90309
-0.300802	giving those	-1.2388821
-3.1593492	<s> who	-0.86530143
-0.77733254	those who	-1.2388821
-0.99863636	people who	-0.97003675
-3.977168	<s> observe	-0.30103
-0.7774676	who observe	-1.2388821
-2.457523	<s> him	-1.5314789
-0.6007259	observe him	-1.2388821
-0.30036247	urged him	-1.30103
-0.6007259	want him	-0.90309
-0.6007259	crucified him	-1
-0.6007259	saw him	-0.42596874
-2.084623	a pronounced	-1.2388821
-0.30088192	pronounced feeling	-1.2388821
-2.7344277	<s> of	-1.1249387
-0.29748031	feeling of	-1.2388821
-1.5168508	are of	-0.60206
-0.767588	much of	-0.30103
-0.29748031	acts of	-1.1249387
-0.59498936	program of	-1.2218487
-0.29748031	roll of	-1.146128
-0.29748031	period of	-1.146128
-0.29748031	grants of	-1.1663314
-0.29748031	advantage of	-1.1249387
-0.889062	out of	-0.42596874
-0.59498936	part of	-0.66900676
-0.29748031	prospect of	-1
-0.29748031	pair of	-0.9378521
-0.29748031	peck of	-0.90309
-0.29748031	gallon of	-0.97003675
-0.59498936	full of	-0.86530143
-0.29748031	fiercest of	-0.86530143
-0.29748031	minute of	-0.8239087
-0.29748031	number of	-0.8239087
-0.29748031	lack of	-0.66900676
-0.59498936	state of	-0.9378521
-0.29748031	largest of	-0.8239087
-0.29748031	pockets of	-0.8239087
-0.59498936	confirmation of	-0.7781512
-0.29748031	lot of	-0.5228787
-0.29748031	name of	-0.30103
-0.29748031	lots of	-0.30103
-2.294777	the utmost	-1.2388821
-0.30088192	utmost respect	-1.2388821
-1.8187453	<s> we	-0.9571869
-0.8999028	know we	-0.90309
-0.6004635	knew we	-0.66900676
-0.6004635	while we	-1.1249387
-0.300231	leisure we	-0.90309
-0.6004635	alone we	-1
-0.300231	suggested we	-0.8239087
-3.195029	<s> have	-0.72699875
-1.3294764	you have	-1.0280287
-1.9384214	to have	-0.86530143
-1.3294764	all have	-0.8239087
-1.3482021	we have	-1.0413927
-1.1378448	well have	-0.86530143
-1.7568519	i have	-1.1026623
-0.299837	souls have	-1.1026623
-1.0720718	really have	-0.90309
-0.299837	tribes have	-0.30103
-1.4114368	have often	-1.30103
-1.5746245	are often	-0.7781512
-1.4738557	can often	-1.2218487
-0.7777071	often urged	-1.30103
-1.1998496	up more	-0.86530143
-0.90094954	walk more	-1.30103
-0.30049387	earn more	-1.1249387
-0.7765449	needs more	-0.30103
-0.30049387	accomplish more	-0.7781512
-2.5932786	<s> and	-1.3152704
-1.178484	up and	-1.1249387
-0.76835954	short and	-0.86530143
-0.983801	more and	-1.30103
-0.2977415	skillfully and	-1.2388821
-0.76835954	down and	-0.7781512
-0.2977415	cracked and	-1.3290588
-0.2977415	grey and	-1.20412
-0.59550774	deer and	-0.30103
-0.59550774	heart and	-0.66900676
-0.76835954	young and	-0.42596874
-0.2977415	prosecuted and	-0.86530143
-0.2977415	addition and	-0.86530143
-0.2977415	chocolate and	-0.86530143
-0.2977415	masonry and	-0.72699875
-0.2977415	distress and	-0.7781512
-0.2977415	jealousies and	-0.90309
-0.59550774	pleasure and	-0.7781512
-0.59550774	straight and	-0.66900676
-0.2977415	bagpipes and	-0.42596874
-0.2977415	saws and	-0.42596874
-0.2977415	supplies and	-0.42596874
-0.2977415	broccoli and	-0.30103
-0.2977415	strong and	-0.30103
-0.2977415	children and	-0.30103
-0.2977415	slums and	-1.1856365
-1.7121687	and smoke	-1.30103
-0.30088192	smoke less	-1.30103
-2.4111392	<s> rake	-1.5873368
-2.7705085	<s> swore	-1.2388821
-2.736895	<s> rave	-1.2710668
-2.6416874	<s> for	-1.2710668
-1.5838095	you for	-0.86530143
-1.1814725	one for	-1
-0.5962865	easy for	-1.1249387
-1.5069119	it for	-1.0543576
-0.76951945	win for	-1.1856365
-0.5962865	provides for	-1.1856365
-0.2981336	transition for	-1.146128
-0.2981336	sum for	-1.1663314
-0.2981336	healthy for	-1.1026623
-0.47278392	look for	-0.86530143
-0.2981336	wait for	-1.0280287
-0.2981336	experiment for	-0.90309
-0.76951945	place for	-0.7781512
-0.2981336	guard for	-0.97003675
-0.2981336	friend for	-0.8239087
-0.2981336	prepared for	-0.72699875
-0.2981336	clams for	-0.72699875
-0.2981336	mask for	-0.7781512
-0.2981336	wife for	-0.42596874
-0.2981336	ready for	-0.42596874
-0.2981336	trips for	-0.42596874
-0.2981336	demand for	-0.30103
-2.2123616	<s> sip	-1.7829502
-2.7338214	<s> grow	-1.2710668
-0.300802	weeds grow	-0.30103
-2.484255	<s> bit	-1.5141048
-2.0799494	a bit	-1.3290588
-2.3731952	<s> chair	-1.6232493
-0.6016041	brown chair	-0.97003675
-2.3244832	<s> one	-1.3617278
-0.99601966	each one	-1
-1.6624599	for one	-0.97003675
-1.0744091	just one	-1.1249387
-0.8999028	out one	-0.90309
-0.300231	unpleasant one	-1
-0.99601966	only one	-0.86530143
-2.7705085	<s> fair	-1.2388821
-2.311797	<s> two	-1.3802112
-0.30062538	noticed two	-1.1249387
-0.9979807	only two	-0.42596874
-0.30062538	called two	-0.86530143
-2.7705085	<s> beta	-1.2388821
-2.7056975	<s> rage	-1.30103
-2.4579496	<s> spark	-1.3180634
-0.6016041	spark spark	-0.30103
-2.7705085	<s> race	-1.2388821
-2.690901	<s> form	-1.3152704
-2.688135	<s> farm	-1.3152704
-2.28697	the farm	-1.1026623
-2.7705085	<s> raid	-1.2388821
-2.7705085	<s> fee	-1.2388821
-2.736895	<s> weed	-1.2710668
-2.4595757	<s> bat	-1.5399121
-2.662739	<s> horn	-1.3424227
-2.7705085	<s> jagged	-1.2388821
-2.4035668	<s> sheet	-1.5947608
-2.7705085	<s> bubble	-1.2388821
-2.4486268	<s> warm	-1.5481846
-1.978574	to warm	-0.86530143
-0.60151404	wore warm	-1.146128
-2.4188461	<s> ship	-1.5797836
-2.767188	<s> hair	-1.2388821
-0.7774676	dark hair	-0.8239087
-2.7705085	<s> share	-1.2388821
-2.7705085	<s> rate	-1.2388821
-2.6113648	<s> goat	-1.3921105
-2.7705085	<s> trace	-1.2388821
-2.765326	<s> go	-1.2388821
-1.6838241	to go	-0.8016324
-0.30075693	would go	-1.146128
-2.7705085	<s> alpha	-1.2388821
-2.5238922	<s> left	-1.4771212
-2.53391	<s> sticks	-1.4673615
-2.736895	<s> trouble	-1.2710668
-2.7705085	<s> dagger	-1.2388821
-2.0799494	a long	-1.2710668
-1.077815	very long	-1
-0.60176384	long flowing	-1.2710668
-0.30088192	flowing beard	-1.2710668
-0.30088192	beard clings	-1.2710668
-0.94302785	in his	-0.9378521
-1.9726056	to his	-1.2710668
-1.7669623	of his	-0.42596874
-0.30062538	speaks his	-1.3290588
-1.1450922	his chin	-1.2710668
-2.3143678	<s> slip	-1.6812413
-0.300802	ah slip	-0.30103
-2.7705085	<s> glow	-1.2388821
-2.7705085	<s> trade	-1.2388821
-2.6493146	<s> range	-1.0543576
-2.7705085	<s> stubble	-1.2388821
-2.4951544	<s> floor	-1.50515
-2.7056975	<s> bug	-1.30103
-2.5621908	<s> yet	-1.4366926
-0.60151404	done yet	-1.1249387
-0.77733254	eat yet	-0.66900676
-1.7089589	he still	-1.30103
-1.7977939	is still	-0.30103
-1.5746245	was still	-0.7781512
-0.7777071	still thinks	-1.30103
-0.299837	thinks as	-1.30103
-0.299837	swiftly as	-1.30103
-1.7706401	is as	-1.2388821
-0.299837	offensive as	-0.90309
-0.5996772	arm as	-1.1026623
-0.299837	high as	-1.1026623
-0.299837	watched as	-1.1026623
-0.5996772	fail as	-0.7781512
-0.299837	exactly as	-0.86530143
-0.299837	displayed as	-0.30103
-1.3784372	as swiftly	-1.30103
-1.3774831	as ever	-1.30103
-1.2022994	me ever	-0.9378521
-2.7533767	<s> jacket	-1.2552725
-2.690901	<s> born	-1.3152704
-2.662739	<s> corn	-1.3424227
-2.5743394	<s> right	-1.4259686
-0.300802	married right	-0.42596874
-2.3143678	<s> knew	-1.6812413
-1.6575439	we knew	-0.66900676
-2.7124462	<s> well	-1.2710668
-1.1405656	day well	-0.86530143
-1.1405656	do well	-0.90309
-0.7757586	went well	-0.86530143
-1.0744091	very well	-0.8239087
-0.7757586	expect well	-1.146128
-0.300231	doing well	-0.66900676
-2.808919	<s> is	-1.0543576
-1.377177	he is	-1.1356627
-1.2287594	she is	-0.98227125
-0.5960267	hair is	-0.8239087
-0.5960267	voice is	-1.3290588
-0.5960267	nothing is	-1.049218
-0.5960267	house is	-1.20412
-0.2980029	humidity is	-1.1249387
-0.7691325	there is	-0.8507019
-1.1253685	this is	-1.2863067
-0.2980029	episode is	-1.1026623
-0.2980029	alfalfa is	-1.1026623
-0.2980029	spending is	-1
-0.5960267	attitude is	-0.97003675
-0.2980029	travel is	-0.90309
-0.47258842	life is	-0.86530143
-0.2980029	plot is	-0.86530143
-0.2980029	coast is	-0.7781512
-0.5960267	street is	-0.5228787
-0.2980029	attendance is	-0.66900676
-0.2980029	highway is	-0.66900676
-0.2980029	drift is	-0.66900676
-0.2980029	future is	-0.30103
-0.2980029	cement is	-0.30103
-1.8016118	is nearly	-1.049218
-0.60176384	nearly ninety	-0.30103
-2.5696726	<s> three	-1.4259686
-0.30062538	ninety three	-0.30103
-0.30062538	contained three	-1.1026623
-0.6012511	saw three	-0.30103
-1.6685538	for years	-0.8239087
-0.90094954	three years	-0.30103
-0.30049387	ninetythree years	-1.2388821
-0.7765449	later years	-1.146128
-0.30049387	last years	-0.72699875
-2.9493062	<s> old	-0.75332767
-1.7056042	and old	-0.42596874
-0.9979807	two old	-1.1249387
-0.6979592	years old	-1.2710668
-2.3539631	<s> feed	-1.6434526
-2.7705085	<s> twice	-1.2388821
-1.7121687	he plays	-1.2388821
-0.30088192	plays skillfully	-1.2388821
-3.3630402	<s> with	-0.5228787
-1.6860026	and with	-1.2388821
-1.535314	it with	-0.9378521
-0.299837	compliance with	-0.9378521
-0.299837	pleased with	-0.7781512
-0.299837	popular with	-0.7781512
-0.299837	laced with	-0.86530143
-0.299837	disappointed with	-0.66900676
-0.299837	canteen with	-0.42596874
-0.5996772	deal with	-0.42596874
-1.2995511	with zest	-1.2388821
-0.30088192	zest upon	-1.2388821
-0.997326	with our	-0.72699875
-0.30049387	upon our	-1.2388821
-0.6009885	around our	-1.1026623
-0.6009885	fact our	-0.86530143
-0.30049387	obtaining our	-0.7781512
-1.077815	our small	-1.2388821
-0.6016041	though small	-0.90309
-0.60176384	small organ	-1.2388821
-2.7501843	<s> rain	-1.2552725
-0.300802	uninterrupted rain	-0.86530143
-2.504524	<s> park	-1.4960066
-2.662739	<s> tip	-1.3424227
-2.573144	<s> down	-1.4259686
-0.77733254	working down	-0.5228787
-0.77733254	sat down	-0.7781512
-2.7705085	<s> gadget	-1.2388821
-2.7338214	<s> store	-1.2710668
-2.28697	the store	-0.66900676
-1.7121687	he dresses	-1.3152704
-0.300802	dresses himself	-1.3152704
-0.6016041	crucified himself	-0.30103
-3.5802994	<s> an	-0.30103
-1.6224642	in an	-1.3152704
-1.7459264	of an	-1.1663314
-1.1062466	have an	-0.8325089
-1.7706401	is an	-1
-1.2892448	be an	-0.75332767
-0.299837	carry an	-1.20412
-0.8983374	like an	-0.42596874
-0.8983374	tell an	-0.30103
-0.299837	provoked an	-0.30103
-1.3784372	an ancient	-1.3152704
-1.7718121	of black	-0.8239087
-0.300802	ancient black	-1.3152704
-0.60176384	black frock	-1.3152704
-2.8861322	<s> coat	-1.1249387
-0.300802	frock coat	-1.3152704
-0.60176384	grandfather likes	-1.2218487
-3.1667843	<s> be	-0.72699875
-1.1360404	or be	-0.30103
-1.4918439	to be	-0.99024016
-0.77379924	often be	-1.2218487
-0.897297	will be	-0.8016324
-0.77379924	may be	-0.66900676
-0.2995745	youd be	-1.1663314
-0.5209391	can be	-0.8187691
-0.2995745	flowers be	-0.66900676
-0.2995745	must be	-0.42596874
-0.2995745	should be	-0.30103
-0.2995745	cannot be	-0.30103
-1.5991073	be modern	-1.2218487
-1.1450922	his language	-1.2218487
-2.690901	<s> torn	-1.3152704
-1.7121687	he speaks	-1.3290588
-1.2532248	my voice	-0.86530143
-1.1445346	his voice	-1.3290588
-2.8766181	<s> just	-1.1249387
-1.653546	we just	-0.60206
-1.7938092	is just	-1.3290588
-1.780021	i just	-1.1856365
-0.60176384	bit cracked	-1.3290588
-1.7121687	and quivers	-1.3290588
-2.084623	a trifle	-1.3290588
-2.736895	<s> trait	-1.2710668
-2.2123616	<s> yes	-1.7829502
-2.6324818	<s> dont	-1.0669467
-1.0775454	just dont	-0.30103
-1.7840055	i dont	-0.8239087
-0.9024979	dont ask	-1.20412
-3.135587	<s> me	-0.8239087
-1.9495199	to me	-0.42596874
-1.6594446	for me	-1.146128
-1.2918147	with me	-0.9378521
-0.3000996	ask me	-1.20412
-0.3000996	carried me	-1.1249387
-0.60020125	took me	-0.90309
-0.60020125	fit me	-0.5228787
-1.9843187	to carry	-1.20412
-1.3784372	an oily	-1.20412
-0.30088192	oily rag	-1.20412
-0.30062538	rag like	-1.20412
-1.780021	i like	-0.42596874
-0.77693856	looked like	-0.42596874
-0.30062538	doesnt like	-0.86530143
-2.8094342	<s> that	-0.74036264
-1.1967323	up that	-0.30103
-0.8993804	like that	-1.20412
-0.60020125	fill that	-0.42596874
-0.60020125	beg that	-0.97003675
-0.3000996	seen that	-0.8239087
-0.3000996	requests that	-0.66900676
-0.3000996	beauty that	-0.30103
-0.60176384	nearly ninetythree	-1.2388821
-2.4859827	<s> rock	-1.5141048
-2.846717	<s> thigh	-1.1663314
-2.8069432	<s> pot	-1.20412
-2.846717	<s> steer	-1.1663314
-2.7210164	<s> mother	-1.2863067
-0.30088192	mother sews	-1.2863067
-2.0799494	a yellow	-1.1249387
-0.300802	sews yellow	-1.2863067
-0.60176384	yellow gingham	-1.2863067
-0.30088192	gingham aprons	-1.2863067
-2.4173656	<s> write	-1.5797836
-0.7774676	through write	-0.66900676
-2.8154812	<s> will	-0.9444827
-1.6956928	he will	-1.20412
-1.2481339	she will	-0.66900676
-1.7682819	i will	-0.30103
-1.3337135	they will	-0.86530143
-0.300231	families will	-0.86530143
-0.300231	contributions will	-0.72699875
-1.2029365	will allow	-1.20412
-2.084623	a rare	-1.20412
-0.30088192	rare lie	-1.20412
-2.846717	<s> wish	-1.1663314
-2.8263748	<s> prior	-1.1856365
-2.846717	<s> slay	-1.1663314
-2.6113648	<s> boot	-1.3921105
-2.846717	<s> hear	-1.1663314
-2.4951544	<s> nothing	-1.20412
-1.3774831	as offensive	-1.2388821
-1.7991672	is offensive	-0.30103
-3.977168	<s> innocence	-0.30103
-1.3774831	as innocence	-1.20412
-1.659364	we gathered	-1.1663314
-0.30088192	gathered shells	-1.1663314
-0.29970574	shells on	-1.1663314
-0.59941554	being on	-1.1249387
-0.29970574	shimmers on	-1.1249387
-0.59941554	off on	-1.1249387
-0.29970574	marshmallows on	-0.9378521
-0.7741904	ride on	-0.30103
-0.29970574	twilight on	-0.86530143
-0.29970574	outdoors on	-0.66900676
-0.29970574	misplaced on	-0.42596874
-0.29970574	picnic on	-0.30103
-0.29970574	put on	-0.30103
-2.294777	the beach	-1.20412
-2.7705085	<s> rocks	-1.2388821
-2.846717	<s> delta	-1.1663314
-2.8427627	<s> play	-1.1663314
-1.4743931	can play	-1.1663314
-2.3961244	<s> ate	-1.60206
-2.846717	<s> whoop	-1.1663314
-2.846717	<s> sleep	-1.1663314
-2.846717	<s> galore	-1.1663314
-2.8033335	<s> their	-1.20412
-0.300802	lost their	-1.1026623
-0.6016041	their house	-1.20412
-0.9988612	big house	-0.7781512
-1.8016118	is grey	-1.20412
-2.8639061	<s> white	-1.146128
-1.7101139	and white	-1.20412
-2.2528594	<s> sigh	-1.7429868
-2.8069432	<s> urgent	-1.20412
-2.8427627	<s> deer	-1.1663314
-0.90217876	three deer	-0.30103
-1.6692712	<s> i	-0.9228984
-1.3738213	as i	-0.64345264
-0.6009885	than i	-1.3152704
-0.6009885	feel i	-1.1249387
-0.90094954	what i	-0.30103
-3.3180597	<s> try	-0.72699875
-1.077815	just try	-1.1856365
-3.1207905	<s> do	-0.86530143
-1.628998	you do	-1.20412
-1.6747732	to do	-1.0669467
-0.90042585	dont do	-0.86530143
-1.0751911	very do	-0.30103
-0.30036247	dad do	-0.97003675
-3.0851157	<s> best	-0.9378521
-1.2532248	my best	-1.1856365
-2.846717	<s> coupe	-1.1663314
-2.846717	<s> troop	-1.1663314
-1.7705696	of other	-0.7781512
-0.99863636	two other	-1.2388821
-0.77733254	makes other	-0.42596874
-0.7777071	other cases	-1.0170333
-0.99667233	old also	-0.42596874
-1.7721598	i also	-0.7781512
-0.6007259	cases also	-1.20412
-1.3722674	were also	-0.30103
-1.5444405	it also	-1.1856365
-0.77615166	job also	-0.7781512
-2.5899544	<s> were	-1.0791812
-1.1369417	or were	-0.30103
-1.6332765	we were	-1.1249387
-0.59941554	cases were	-0.30103
-1.0712954	also were	-1.20412
-0.7741904	where were	-1.1249387
-1.328073	they were	-0.72699875
-0.29970574	injuries were	-1.2218487
-0.29970574	results were	-0.9378521
-0.29970574	cars were	-0.5228787
-0.29970574	paintings were	-0.30103
-1.0775454	also under	-0.30103
-1.3769457	were under	-1.20412
-0.77733254	here under	-0.5228787
-0.4768991	under advisement	-1.2388821
-2.8069432	<s> jungle	-1.20412
-2.846717	<s> group	-1.1663314
-2.8861322	<s> fear	-1.1249387
-0.9988612	no fear	-0.72699875
-2.294777	the humidity	-1.1249387
-1.8016118	is overwhelming	-1.1249387
-2.4116993	<s> there	-1.2787536
-0.30049387	overwhelming there	-1.1249387
-0.6009885	basketball there	-0.86530143
-0.7765449	sat there	-0.42596874
-0.30049387	unfortunately there	-0.30103
-2.8905036	<s> shear	-1.1249387
-2.8905036	<s> sprinkle	-1.1249387
-2.8905036	<s> pile	-1.1249387
-2.8905036	<s> fruit	-1.1249387
-2.8905036	<s> everything	-1.1249387
-0.30075693	everything went	-1.1249387
-0.90199876	things went	-0.7781512
-0.30075693	marriage went	-0.86530143
-0.7774676	under real	-0.5228787
-0.7774676	went real	-1.1249387
-0.60176384	real smooth	-1.1249387
-2.294777	the sheriff	-1.1249387
-2.7221603	<s> said	-1.2710668
-1.7022752	he said	-1.20412
-1.7760725	i said	-0.30103
-0.30049387	sheriff said	-1.1249387
-1.5467523	it said	-0.66900676
-2.8836849	<s> where	-1.1249387
-0.90199876	know where	-0.72699875
-0.30075693	places where	-0.86530143
-1.6384641	you while	-1.1249387
-1.077815	there while	-0.86530143
-1.3774831	were away	-1.1249387
-0.300802	squared away	-0.30103
-2.6575513	<s> are	-0.98527676
-1.3211238	you are	-0.9378521
-1.6193565	we are	-0.8239087
-1.6672478	and are	-0.30103
-0.69403684	people are	-0.7781512
-0.29905	islands are	-1.1249387
-1.3211238	they are	-0.42596874
-0.29905	books are	-1.146128
-0.29905	themselves are	-0.97003675
-0.29905	hotels are	-0.9378521
-0.29905	reflexes are	-0.9378521
-0.29905	subtraction are	-0.86530143
-0.29905	apartments are	-0.8239087
-0.29905	bongos are	-0.42596874
-0.29905	wages are	-0.30103
-0.29905	costumes are	-0.30103
-1.2029365	your grades	-1.1249387
-0.90217876	go higher	-1.146128
-0.300802	grades higher	-1.1249387
-1.1450922	or lower	-1.1249387
-0.6012511	away than	-0.30103
-0.30062538	lower than	-1.1249387
-0.30062538	thinner than	-1.1663314
-0.6012511	quicker than	-0.7781512
-0.9024979	than nancys	-1.1249387
-2.56543	<s> cheer	-1.4366926
-2.8905036	<s> gnaw	-1.1249387
-2.5877903	<s> tile	-1.4149734
-3.5883727	<s> big	-0.42596874
-2.2580955	the big	-1.1663314
-2.0623722	a big	-0.7781512
-0.997326	no big	-0.7781512
-1.0759745	by big	-0.30103
-0.99925995	big baseball	-1.1663314
-0.30088192	baseball players	-1.1663314
-3.1185477	<s> get	-0.90309
-1.978574	to get	-0.30103
-0.30075693	players get	-1.1663314
-0.7777071	get traded	-1.1663314
-2.2046368	<s> this	-1.2234251
-1.7669623	of this	-0.86530143
-0.6012511	play this	-1.1663314
-0.77693856	back this	-1.146128
-3.125311	<s> was	-0.7781512
-1.2423453	she was	-0.38021123
-0.5991539	range was	-0.72699875
-1.7493956	i was	-1.0142405
-1.0705205	there was	-0.8239087
-1.1360404	this was	-1.1249387
-1.0705205	it was	-0.96781534
-0.2995745	shoes was	-0.9378521
-0.2995745	bracelet was	-0.86530143
-0.2995745	luck was	-0.7781512
-0.2995745	pickpocket was	-0.9378521
-0.2995745	display was	-0.42596874
-1.575472	was easy	-1.1249387
-0.300802	arent easy	-0.42596874
-1.3774831	for us	-1.4573772
-0.7774676	above us	-0.9378521
-2.8680587	<s> area	-1.146128
-2.8905036	<s> light	-1.1249387
-2.5378547	<s> if	-1.4573772
-0.6012511	fear if	-0.72699875
-0.6012511	so if	-0.8239087
-0.6012511	practical if	-0.30103
-1.6402057	you destroy	-1.20412
-0.30088192	destroy confidence	-1.20412
-1.6407943	in banks	-1.20412
-1.1450922	do something	-1.20412
-2.294777	the economy	-1.20412
-1.8016118	is thinner	-1.1663314
-1.7878236	i am	-1.3152704
-2.8905036	<s> youre	-1.1249387
-0.300802	youre used	-1.1249387
-0.9988612	some used	-0.42596874
-3.018397	<s> being	-1
-1.9806376	to being	-1.1249387
-2.294777	the field	-1.1249387
-2.5319815	<s> bad	-1.4673615
-0.7774676	few bad	-0.7781512
-2.4951544	<s> knot	-1.50515
-2.690901	<s> select	-1.3152704
-2.846717	<s> briar	-1.1663314
-2.8905036	<s> single	-1.1249387
-2.846717	<s> mere	-1.1663314
-2.8905036	<s> droop	-1.1249387
-2.8861322	<s> near	-1.1249387
-0.300802	lay near	-1.146128
-2.5112207	<s> much	-1.4866666
-1.5746245	are much	-0.7781512
-0.77733254	through much	-0.30103
-2.8905036	<s> jane	-1.1249387
-0.30075693	jane may	-1.1249387
-0.77733254	few may	-0.66900676
-0.30075693	company may	-0.42596874
-0.7777071	may earn	-1.1249387
-0.99863636	more money	-1.1249387
-1.0775454	any money	-0.86530143
-0.30075693	save money	-0.30103
-0.77615166	money by	-1.1249387
-0.30036247	solicits by	-0.8239087
-0.30036247	begin by	-0.86530143
-0.6007259	them by	-0.72699875
-0.30036247	rewarded by	-0.30103
-0.30036247	acting by	-0.30103
-0.60151404	while working	-0.86530143
-1.0775454	by working	-1.1249387
-0.30075693	credit working	-0.5228787
-1.596631	be hard	-0.66900676
-0.77733254	working hard	-1.1249387
-1.1442201	its hard	-0.30103
-2.8905036	<s> cycle	-1.1249387
-2.8905036	<s> pay	-1.1249387
-2.8905036	<s> mut	-1.1249387
-1.7840055	i looked	-1.1249387
-1.5514134	it looked	-0.42596874
-0.60151404	brothers looked	-0.86530143
-1.7121687	and noticed	-1.1249387
-0.99925995	old men	-1.1249387
-0.60176384	train approached	-1.1249387
-2.294777	the depot	-1.1249387
-1.7878236	i scrubbed	-1.146128
-2.294777	the floors	-1.146128
-0.30088192	floors thoroughly	-1.146128
-2.8905036	<s> explore	-1.1249387
-2.8905036	<s> sway	-1.1249387
-1.5769781	was conscious	-1.1663314
-2.282626	the time	-1.1663314
-1.5746245	was time	-0.66900676
-0.77733254	first time	-0.90309
-2.8905036	<s> root	-1.1249387
-2.8905036	<s> snoop	-1.1249387
-2.4665422	<s> four	-1.5314789
-1.9971223	the four	-0.845098
-2.4511185	<s> both	-0.9839132
-0.9024979	both figures	-1.146128
-0.30088192	figures would	-1.146128
-1.6385636	in later	-1.146128
-0.60151404	trip later	-0.7781512
-0.30075693	weeks later	-0.42596874
-2.4579496	<s> side	-1.5399121
-1.2022994	one side	-1.1249387
-1.7022752	he got	-1.1026623
-1.6505917	we got	-0.69897
-1.7760725	i got	-0.30103
-1.0759745	also got	-0.42596874
-0.6009885	side got	-1.1249387
-1.0782933	got wet	-1.1249387
-1.2029365	one validated	-1.1249387
-0.30088192	validated acts	-1.1249387
-1.774023	of school	-1.1249387
-0.30088192	school districts	-1.1249387
-1.7878236	i tried	-1.1249387
-2.9069746	<s> tell	-1.1026623
-1.6838241	to tell	-0.9444827
-1.7840055	i tell	-0.7781512
-3.0266387	<s> people	-0.97003675
-0.7765449	those people	-0.7781512
-0.90094954	tell people	-1.1249387
-0.7765449	young people	-0.86530143
-0.30049387	elderly people	-0.7781512
-2.294777	the community	-1.1249387
-2.8905036	<s> loop	-1.1249387
-2.8861322	<s> though	-1.1249387
-0.7774676	place though	-0.90309
-2.294777	the islands	-1.1249387
-1.5769781	are sparsely	-1.1249387
-0.30088192	sparsely populated	-1.1249387
-2.4346826	<s> witch	-1.5642715
-2.690901	<s> forward	-1.3152704
-1.2539413	my sister	-1.1249387
-1.5975226	be made	-0.86530143
-0.300802	sister made	-1.1249387
-2.294777	the flowered	-1.1249387
-0.30088192	flowered curtains	-1.1249387
-2.8836849	<s> here	-1.1249387
-0.60151404	right here	-0.42596874
-0.77733254	down here	-0.5228787
-2.6236498	<s> pad	-1.3802112
-2.7705085	<s> why	-0.9378521
-0.60176384	why yell	-1.146128
-1.1450922	or worry	-1.146128
-0.60176384	over silly	-1.146128
-0.7774676	other items	-0.7781512
-0.300802	silly items	-1.146128
-2.846717	<s> bear	-1.1663314
-2.5441647	<s> shoot	-1.4573772
-2.8905036	<s> error	-1.1249387
-2.8905036	<s> fate	-1.1249387
-2.8905036	<s> dot	-1.1249387
-2.8905036	<s> tie	-1.1249387
-2.468201	<s> lip	-1.5314789
-2.788344	<s> hate	-1.2218487
-2.8905036	<s> charlie	-1.1249387
-2.8905036	<s> bright	-1.1249387
-0.30088192	bright sunshine	-1.1249387
-0.30088192	sunshine shimmers	-1.1249387
-2.294777	the ocean	-1.1249387
-2.8905036	<s> peer	-1.1249387
-2.846717	<s> youd	-1.1663314
-1.5991073	be better	-1.1663314
-1.2022994	me off	-1.1249387
-0.300802	better off	-1.1663314
-0.6016041	off taking	-1.1663314
-1.1445346	its taking	-0.30103
-3.3845515	<s> cold	-0.66900676
-2.0799494	a cold	-1.1663314
-0.60176384	cold shower	-1.1663314
-2.8905036	<s> toot	-1.1249387
-3.682411	<s> feel	-0.42596874
-1.7853788	i feel	-1.1249387
-3.3892257	<s> can	-0.42596874
-1.3266742	you can	-1.0280287
-1.6304566	we can	-0.90309
-1.4693317	i can	-0.90309
-1.0705205	also can	-0.7781512
-0.2995745	silverware can	-1.2218487
-0.5991539	work can	-1.0280287
-0.2995745	dance can	-1
-0.5991539	basketball can	-0.7781512
-0.2995745	trespassers can	-0.86530143
-0.5991539	gold can	-0.7781512
-0.2995745	standby can	-0.30103
-1.1450922	this weekend	-1.1663314
-2.690901	<s> menu	-1.3152704
-2.5215127	<s> they	-0.74036264
-1.1414764	do they	-0.86530143
-0.77615166	where they	-0.72699875
-0.90042585	night they	-1.1026623
-0.90042585	things they	-0.5228787
-0.30036247	because they	-0.42596874
-1.3407962	they carried	-1.1249387
-2.294777	the stretcher	-1.1249387
-1.2029365	will robin	-1.1249387
-0.30088192	robin wear	-1.1249387
-0.60176384	yellow lily	-1.1249387
-2.6586902	<s> back	-1.3424227
-0.30075693	bounce back	-1.146128
-0.30075693	cutting back	-1
-2.9141722	<s> foxtrot	-1.1026623
-2.8680587	<s> papa	-1.146128
-2.5994177	<s> chop	-1.4036924
-0.9024979	both injuries	-1.2218487
-2.294777	the same	-1.2218487
-0.30088192	same leg	-1.2218487
-2.9141722	<s> hark	-1.1026623
-2.9141722	<s> hitting	-1.1026623
-2.9141722	<s> cart	-1.1026623
-2.294777	the books	-1.146128
-1.5914615	be very	-0.90309
-1.3738213	were very	-0.9378521
-1.5697091	are very	-1.146128
-1.5697091	was very	-0.7781512
-0.7765449	played very	-0.8239087
-1.0782933	very expensive	-1.146128
-2.9141722	<s> rich	-1.1026623
-2.084623	a treehouse	-1.146128
-2.282626	the above	-0.7781512
-1.2019403	up above	-1.146128
-0.30075693	notch above	-0.9378521
-2.8639061	<s> hotel	-1.146128
-2.28697	the hotel	-0.8750613
-1.6848695	to expect	-0.64345264
-1.7853788	i expect	-1.146128
-1.1450922	well bounce	-1.146128
-1.1450922	this week	-1.146128
-2.9141722	<s> reek	-1.1026623
-2.4951544	<s> six	-1.50515
-1.5016294	is not	-1.0334238
-1.575472	was not	-0.42596874
-1.7879702	a program	-1
-1.774023	of socialized	-1.2218487
-0.30088192	socialized medicine	-1.2218487
-2.7483935	<s> take	-1.2552725
-1.978574	to take	-1.1249387
-1.2019403	will take	-0.86530143
-2.9141722	<s> bloat	-1.1026623
-2.6113648	<s> cake	-1.3921105
-2.9141722	<s> knitting	-1.1026623
-2.084623	a roll	-1.146128
-1.774023	of wire	-1.146128
-0.30088192	wire lay	-1.146128
-3.682411	<s> wall	-0.42596874
-2.28697	the wall	-1.146128
-2.9141722	<s> barn	-1.1026623
-1.659364	we rode	-1.1026623
-0.30088192	rode horseback	-1.1026623
-2.6362927	<s> seed	-1.3679768
-2.9141722	<s> golf	-1.1026623
-2.5441647	<s> fill	-1.1563472
-1.8275012	the box	-0.98527676
-0.60176384	box contained	-1.1026623
-0.9024979	three sweaters	-1.1026623
-2.9141722	<s> mike	-1.1026623
-1.5769781	are losing	-1.1026623
-0.9024979	water replace	-1.1026623
-2.0486934	<s> it	-1.0894004
-1.612507	you it	-0.7781512
-1.7391349	of it	-0.8239087
-1.3964219	have it	-0.86530143
-1.1360404	do it	-0.30103
-0.2995745	replace it	-1.1026623
-0.5991539	done it	-0.66900676
-0.5991539	thought it	-0.30103
-0.2995745	nailed it	-1.0543576
-0.2995745	kept it	-0.9378521
-0.5991539	confirmation it	-0.66900676
-0.2995745	handle it	-0.66900676
-1.5536442	it immediately	-1.1026623
-2.4111392	<s> pit	-1.5873368
-2.9141722	<s> hem	-1.1026623
-2.9141722	<s> sitting	-1.1026623
-2.9141722	<s> hum	-1.1026623
-1.3407962	all else	-1.146128
-0.30088192	else fails	-1.146128
-0.30088192	fails use	-1.146128
-0.30088192	use force	-1.146128
