\data\
ngram 1=1274
ngram 2=2577
ngram 3=2136

\1-grams:
-3.4440506	<unk>	0
0	<s>	-1.0892897
-0.58564806	</s>	0
-3.3633735	pat	-0.30103
-3.3633735	meat	-0.30103
-3.3633735	air	-0.30103
-3.3633735	swarm	-0.30103
-2.8023698	no	-0.30103
-3.3633735	storm	-0.30103
-3.3633735	usually	-0.30103
-3.3633735	minus	-0.30103
-3.1761012	several	-0.30103
-3.3633735	buttons	-0.30103
-3.3633735	dug	-0.30103
-3.3633735	feet	-0.30103
-3.3633735	train	-0.30103
-3.3633735	but	-0.30103
-2.562184	he	-0.30103
-3.1761012	always	-0.30103
-3.3633735	answers	-0.30103
-3.3633735	banana	-0.30103
-3.3633735	oil	-0.30103
-3.3633735	beat	-0.30103
-1.842185	the	-0.30103
-3.1761012	quick	-0.30103
-3.1761012	brown	-0.30103
-3.3633735	fox	-0.30103
-3.3633735	jumps	-0.30103
-3.3633735	over	-0.30103
-3.3633735	lazy	-0.30103
-3.3633735	dog	-0.30103
-2.7067885	we	-0.30103
-2.562184	have	-0.30103
-3.0968168	often	-0.30103
-3.3633735	urged	-0.30103
-2.9251032	him	-0.30103
-1.8917847	to	-0.30103
-3.1761012	walk	-0.30103
-2.9251032	more	-0.30103
-2.0674686	and	-0.30103
-3.3633735	smoke	-0.30103
-3.3633735	less	-0.30103
-3.3633735	rake	-0.30103
-2.130945	for	-0.30103
-3.1761012	grow	-0.30103
-2.9251032	one	-0.30103
-3.0968168	two	-0.30103
-3.3633735	rage	-0.30103
-3.3633735	form	-0.30103
-3.3633735	farm	-0.30103
-3.3633735	horn	-0.30103
-3.3633735	sheet	-0.30103
-3.3633735	ship	-0.30103
-3.3633735	left	-0.30103
-3.3633735	sticks	-0.30103
-3.3633735	glow	-0.30103
-3.3633735	born	-0.30103
-3.3633735	corn	-0.30103
-3.1761012	right	-0.30103
-2.6284955	well	-0.30103
-2.1543477	is	-0.31806335
-3.3633735	nearly	-0.30103
-3.3633735	ninety	-0.30103
-3.0968168	three	-0.30103
-2.9251032	years	-0.30103
-3.0968168	old	-0.30103
-3.3633735	feed	-0.30103
-3.1761012	rain	-0.30103
-3.3633735	tip	-0.30103
-3.0968168	down	-0.30103
-3.1761012	store	-0.30103
-3.3633735	dresses	-0.30103
-3.1761012	himself	-0.30103
-2.263066	in	-0.3290587
-2.6284955	an	-0.30103
-3.3633735	ancient	-0.30103
-3.1761012	black	-0.30103
-3.3633735	frock	-0.30103
-3.1761012	coat	-0.30103
-3.3633735	grandfather	-0.30103
-3.3633735	likes	-0.30103
-2.4084282	be	-0.30103
-3.3633735	modern	-0.30103
-3.1761012	his	-0.30103
-3.3633735	language	-0.30103
-3.3633735	torn	-0.30103
-3.3633735	yes	-0.30103
-3.3633735	sleep	-0.30103
-3.3633735	both	-0.30103
-3.3633735	figures	-0.30103
-3.3633735	would	-0.30103
-3.1761012	go	-0.30103
-3.3633735	higher	-0.30103
-3.0968168	later	-0.30103
-3.3633735	troop	-0.30103
-3.3633735	wish	-0.30103
-3.3633735	ate	-0.30103
-3.3633735	hear	-0.30103
-3.3633735	pot	-0.30103
-3.1761012	white	-0.30103
-3.3633735	mother	-0.30103
-3.3633735	sews	-0.30103
-3.3633735	yellow	-0.30103
-3.3633735	gingham	-0.30103
-3.3633735	aprons	-0.30103
-2.9251032	i	-0.30103
-3.0968168	just	-0.30103
-3.1761012	try	-0.30103
-2.9251032	do	-0.30103
-2.7067885	my	-0.30103
-3.3633735	best	-0.30103
-3.1761012	deer	-0.30103
-3.3633735	group	-0.30103
-3.3633735	cheer	-0.30103
-3.3633735	thigh	-0.30103
-3.3633735	coupe	-0.30103
-3.1761012	write	-0.30103
-3.3633735	area	-0.30103
-3.3633735	steer	-0.30103
-3.3633735	tile	-0.30103
-3.3633735	select	-0.30103
-3.3633735	forward	-0.30103
-3.3633735	sister	-0.30103
-3.3633735	made	-0.30103
-3.3633735	flowered	-0.30103
-3.3633735	curtains	-0.30103
-3.0968168	much	-0.30103
-3.3633735	hate	-0.30103
-3.3633735	whoop	-0.30103
-3.3633735	side	-0.30103
-2.9251032	got	-0.30103
-3.3633735	wet	-0.30103
-3.3633735	shoot	-0.30103
-3.3633735	slay	-0.30103
-3.1761012	play	-0.30103
-2.7067885	all	-0.30103
-2.8023698	big	-0.30103
-3.3633735	baseball	-0.30103
-3.3633735	players	-0.30103
-3.0968168	get	-0.30103
-3.3633735	traded	-0.30103
-3.3633735	scrubbed	-0.30103
-3.3633735	floors	-0.30103
-3.3633735	thoroughly	-0.30103
-3.3633735	boot	-0.30103
-3.3633735	rocks	-0.30103
-3.3633735	witch	-0.30103
-3.3633735	galore	-0.30103
-3.3633735	delta	-0.30103
-3.3633735	she	-0.30103
-3.3633735	thinner	-0.30103
-3.0968168	than	-0.30103
-3.3633735	am	-0.30103
-3.3633735	nothing	-0.30103
-2.8023698	as	-0.30103
-3.1761012	offensive	-0.30103
-3.3633735	innocence	-0.30103
-3.3633735	menu	-0.30103
-3.3633735	peer	-0.30103
-3.3633735	lip	-0.30103
-3.3633735	gathered	-0.30103
-3.3633735	shells	-0.30103
-2.562184	on	-0.42596874
-3.3633735	beach	-0.30103
-3.3633735	mere	-0.30103
-3.3633735	pad	-0.30103
-3.3633735	their	-0.30103
-3.1761012	house	-0.30103
-3.3633735	grey	-0.30103
-3.3633735	urgent	-0.30103
-3.1761012	four	-0.30103
-3.0968168	night	-0.30103
-3.3633735	after	-0.30103
-2.7067885	they	-0.30103
-3.3633735	received	-0.30103
-3.3633735	annoying	-0.30103
-3.0968168	phone	-0.30103
-3.1761012	calls	-0.30103
-3.3633735	november	-0.30103
-3.3633735	alfalfa	-0.30103
-3.3633735	healthy	-0.30103
-2.367279	you	-0.30103
-3.3633735	mush	-0.30103
-3.3633735	oscar	-0.30103
-3.1761012	sell	-0.30103
-3.1761012	five	-0.30103
-3.3633735	pit	-0.30103
-3.3633735	zero	-0.30103
-3.3633735	fat	-0.30103
-3.3633735	darn	-0.30103
-3.1761012	expect	-0.30103
-3.3633735	bounce	-0.30103
-3.3633735	back	-0.30103
-2.9251032	this	-0.30103
-3.3633735	week	-0.30103
-3.3633735	six	-0.30103
-3.1761012	when	-0.30103
-3.3633735	else	-0.30103
-3.3633735	fails	-0.30103
-3.3633735	use	-0.30103
-3.3633735	force	-0.30103
-3.3633735	hat	-0.30103
-3.3633735	seed	-0.30103
-3.3633735	pitting	-0.30103
-2.4538884	it	-0.30103
-2.9251032	also	-0.30103
-3.1761012	provides	-0.30103
-3.3633735	funds	-0.30103
-3.3633735	clear	-0.30103
-3.3633735	slums	-0.30103
-3.0968168	help	-0.30103
-3.3633735	colleges	-0.30103
-3.3633735	build	-0.30103
-3.3633735	dormitories	-0.30103
-3.3633735	bloat	-0.30103
-2.4084282	was	-0.30103
-1.9051232	a	-0.3098039
-3.0968168	good	-0.30103
-3.0968168	win	-0.30103
-3.3633735	us	-0.30103
-3.1761012	has	-0.30103
-3.3633735	been	-0.30103
-3.1761012	done	-0.30103
-3.0968168	yet	-0.30103
-3.0968168	take	-0.30103
-3.3633735	advantage	-0.30103
-2.0674686	of	-0.3187588
-3.3633735	enabling	-0.30103
-3.3633735	legislation	-0.30103
-3.3633735	aluminum	-0.30103
-3.3633735	silverware	-0.30103
-2.367279	can	-0.41497335
-3.3633735	flimsy	-0.30103
-3.3633735	shy	-0.30103
-3.3633735	cake	-0.30103
-3.3633735	period	-0.30103
-3.3633735	transition	-0.30103
-2.7067885	me	-0.30103
-2.9251032	there	-0.30103
-3.3633735	treehouse	-0.30103
-2.8023698	up	-0.30103
-3.1761012	above	-0.30103
-3.3633735	nine	-0.30103
-3.1761012	not	-0.30103
-3.3633735	program	-0.30103
-3.3633735	socialized	-0.30103
-3.3633735	medicine	-0.30103
-3.3633735	league	-0.30103
-2.9251032	at	-0.30103
-3.3633735	eventually	-0.30103
-3.3633735	became	-0.30103
-3.3633735	rather	-0.30103
-3.3633735	proud	-0.30103
-3.3633735	claim	-0.30103
-3.3633735	seven	-0.30103
-3.3633735	leak	-0.30103
-3.3633735	injuries	-0.30103
-2.6284955	were	-0.30103
-3.3633735	same	-0.30103
-3.3633735	leg	-0.30103
-3.1761012	job	-0.30103
-3.3633735	many	-0.30103
-3.3633735	benefits	-0.30103
-3.3633735	eight	-0.30103
-3.3633735	top	-0.30103
-3.3633735	lima	-0.30103
-3.3633735	vat	-0.30103
-3.3633735	blow	-0.30103
-3.3633735	spain	-0.30103
-3.3633735	fill	-0.30103
-3.3633735	roll	-0.30103
-3.3633735	wire	-0.30103
-3.3633735	lay	-0.30103
-3.3633735	near	-0.30103
-3.1761012	wall	-0.30103
-3.3633735	harm	-0.30103
-3.3633735	wrapped	-0.30103
-3.3633735	package	-0.30103
-3.3633735	hastily	-0.30103
-3.3633735	chop	-0.30103
-3.3633735	books	-0.30103
-2.2951033	are	-0.30103
-2.8023698	very	-0.30103
-3.3633735	expensive	-0.30103
-3.1761012	did	-0.30103
-3.3633735	dad	-0.30103
-3.1761012	academic	-0.30103
-3.3633735	bidding	-0.30103
-3.3633735	shell	-0.30103
-3.3633735	sin	-0.30103
-3.3633735	ticker	-0.30103
-3.3633735	tin	-0.30103
-3.3633735	pair	-0.30103
-3.3633735	shoes	-0.30103
-3.1761012	new	-0.30103
-2.8023698	really	-0.30103
-3.3633735	crucified	-0.30103
-3.3633735	nailed	-0.30103
-3.3633735	yard	-0.30103
-3.3633735	loss	-0.30103
-2.9251032	people	-0.30103
-3.1761012	who	-0.30103
-3.3633735	value	-0.30103
-3.3633735	themselves	-0.30103
-3.3633735	lifes	-0.30103
-3.3633735	winners	-0.30103
-3.3633735	owners	-0.30103
-3.3633735	regularly	-0.30103
-3.0968168	look	-0.30103
-3.3633735	plumbing	-0.30103
-3.1761012	leaks	-0.30103
-3.3633735	xray	-0.30103
-3.3633735	lock	-0.30103
-3.1761012	sand	-0.30103
-3.3633735	ham	-0.30103
-3.0968168	im	-0.30103
-3.3633735	willing	-0.30103
-3.3633735	experiment	-0.30103
-3.1761012	first	-0.30103
-3.1761012	time	-0.30103
-3.3633735	although	-0.30103
-3.1761012	alone	-0.30103
-3.3633735	survive	-0.30103
-3.3633735	excellent	-0.30103
-3.3633735	team	-0.30103
-3.3633735	nut	-0.30103
-3.1761012	please	-0.30103
-3.3633735	open	-0.30103
-3.3633735	window	-0.30103
-3.3633735	quickly	-0.30103
-2.7067885	will	-0.30103
-3.3633735	allow	-0.30103
-3.3633735	rare	-0.30103
-3.3633735	lie	-0.30103
-3.3633735	zulu	-0.30103
-3.0968168	its	-0.30103
-3.3633735	fun	-0.30103
-3.3633735	roast	-0.30103
-3.3633735	marshmallows	-0.30103
-2.9251032	gas	-0.30103
-3.3633735	burner	-0.30103
-3.3633735	wait	-0.30103
-3.1761012	work	-0.30103
-3.3633735	long	-0.30103
-3.3633735	whitecapped	-0.30103
-3.3633735	waves	-0.30103
-3.3633735	covered	-0.30103
-3.3633735	entire	-0.30103
-3.3633735	bay	-0.30103
-3.3633735	then	-0.30103
-3.3633735	wed	-0.30103
-3.3633735	someplace	-0.30103
-3.3633735	bed	-0.30103
-3.3633735	flicker	-0.30103
-3.3633735	bread	-0.30103
-3.3633735	want	-0.30103
-3.3633735	sicker	-0.30103
-3.3633735	greg	-0.30103
-3.3633735	pick	-0.30103
-3.3633735	peck	-0.30103
-3.3633735	potatoes	-0.30103
-3.3633735	fork	-0.30103
-3.0968168	said	-0.30103
-3.3633735	calico	-0.30103
-3.1761012	cat	-0.30103
-3.1761012	keep	-0.30103
-3.3633735	took	-0.30103
-3.0968168	out	-0.30103
-3.0968168	day	-0.30103
-3.1761012	only	-0.30103
-3.3633735	lawyers	-0.30103
-3.3633735	love	-0.30103
-3.3633735	millionaires	-0.30103
-3.3633735	litter	-0.30103
-3.3633735	sink	-0.30103
-3.3633735	red	-0.30103
-3.3633735	ned	-0.30103
-3.3633735	sit	-0.30103
-3.3633735	being	-0.30103
-3.1761012	able	-0.30103
-3.3633735	dance	-0.30103
-3.1761012	too	-0.30103
-3.3633735	hand	-0.30103
-3.3633735	rest	-0.30103
-3.3633735	those	-0.30103
-3.3633735	musicians	-0.30103
-3.3633735	harmonize	-0.30103
-3.3633735	marvelously	-0.30103
-3.1761012	most	-0.30103
-3.1761012	young	-0.30103
-3.1761012	rise	-0.30103
-3.3633735	early	-0.30103
-3.0968168	every	-0.30103
-3.3633735	morning	-0.30103
-3.1761012	bought	-0.30103
-3.3633735	chair	-0.30103
-3.1761012	quicker	-0.30103
-3.3633735	romeo	-0.30103
-3.3633735	travel	-0.30103
-2.8023698	about	-0.30103
-3.3633735	leisure	-0.30103
-3.3633735	nod	-0.30103
-3.0968168	place	-0.30103
-3.3633735	though	-0.30103
-3.3633735	small	-0.30103
-3.3633735	liquor	-0.30103
-3.3633735	beg	-0.30103
-2.7067885	that	-0.30103
-3.3633735	guard	-0.30103
-3.3633735	gallon	-0.30103
-3.0968168	ride	-0.30103
-3.3633735	stagecoach	-0.30103
-3.3633735	neat	-0.30103
-3.3633735	dead	-0.30103
-3.3633735	wit	-0.30103
-3.3633735	called	-0.30103
-3.3633735	different	-0.30103
-3.3633735	painters	-0.30103
-3.3633735	stimulating	-0.30103
-3.3633735	discussions	-0.30103
-3.3633735	students	-0.30103
-3.3633735	attention	-0.30103
-3.3633735	celebrate	-0.30103
-2.8023698	your	-0.30103
-3.1761012	brothers	-0.30103
-3.3633735	success	-0.30103
-3.3633735	lake	-0.30103
-3.3633735	thread	-0.30103
-3.0968168	dont	-0.30103
-3.3633735	charlies	-0.30103
-3.3633735	dirty	-0.30103
-3.3633735	dishes	-0.30103
-3.3633735	sew	-0.30103
-3.3633735	sort	-0.30103
-3.3633735	catch	-0.30103
-3.0968168	played	-0.30103
-3.1761012	basketball	-0.30103
-3.3633735	while	-0.30103
-3.1761012	working	-0.30103
-3.3633735	toward	-0.30103
-3.3633735	law	-0.30103
-3.3633735	degree	-0.30103
-3.3633735	coconut	-0.30103
-3.3633735	cream	-0.30103
-3.3633735	pie	-0.30103
-3.0968168	makes	-0.30103
-3.3633735	nice	-0.30103
-3.3633735	dessert	-0.30103
-3.3633735	selected	-0.30103
-3.3633735	places	-0.30103
-3.1761012	where	-0.30103
-3.3633735	families	-0.30103
-3.3633735	welcome	-0.30103
-3.3633735	cakes	-0.30103
-3.3633735	bill	-0.30103
-3.3633735	accomplished	-0.30103
-3.3633735	artists	-0.30103
-3.3633735	obtain	-0.30103
-3.3633735	popularity	-0.30103
-3.1761012	short	-0.30103
-3.3633735	shin	-0.30103
-3.0968168	some	-0.30103
-3.3633735	prefer	-0.30103
-3.3633735	traditional	-0.30103
-3.3633735	steel	-0.30103
-3.3633735	kind	-0.30103
-3.3633735	cork	-0.30103
-3.3633735	weep	-0.30103
-3.3633735	biblical	-0.30103
-3.3633735	scholars	-0.30103
-3.3633735	argue	-0.30103
-3.3633735	history	-0.30103
-3.3633735	rid	-0.30103
-3.3633735	quart	-0.30103
-3.3633735	shot	-0.30103
-3.3633735	definitely	-0.30103
-3.3633735	ligament	-0.30103
-3.3633735	damage	-0.30103
-3.3633735	knee	-0.30103
-3.3633735	sheep	-0.30103
-3.3633735	snort	-0.30103
-3.3633735	pork	-0.30103
-3.1761012	fact	-0.30103
-3.0968168	our	-0.30103
-3.3633735	whole	-0.30103
-3.3633735	defensive	-0.30103
-3.3633735	unit	-0.30103
-3.3633735	sketch	-0.30103
-3.3633735	knows	-0.30103
-3.0968168	what	-0.30103
-3.3633735	youll	-0.30103
-3.3633735	discover	-0.30103
-3.3633735	yourself	-0.30103
-3.3633735	blend	-0.30103
-3.3633735	shed	-0.30103
-3.1761012	looked	-0.30103
-3.3633735	identical	-0.30103
-3.1761012	critical	-0.30103
-3.3633735	equipment	-0.30103
-3.0968168	needs	-0.30103
-3.3633735	proper	-0.30103
-3.3633735	maintenance	-0.30103
-3.3633735	see	-0.30103
-3.3633735	shop	-0.30103
-3.1761012	heat	-0.30103
-3.3633735	suddenly	-0.30103
-3.3633735	reflexes	-0.30103
-3.3633735	gone	-0.30103
-3.3633735	gill	-0.30103
-3.3633735	show	-0.30103
-3.1761012	read	-0.30103
-3.3633735	results	-0.30103
-3.3633735	disappointing	-0.30103
-3.3633735	tug	-0.30103
-3.3633735	cash	-0.30103
-3.3633735	stretch	-0.30103
-3.3633735	steak	-0.30103
-3.3633735	ray	-0.30103
-3.3633735	fort	-0.30103
-3.3633735	lee	-0.30103
-3.3633735	hold	-0.30103
-3.3633735	ive	-0.30103
-3.3633735	kept	-0.30103
-2.5046692	with	-0.30103
-3.3633735	ever	-0.30103
-3.3633735	since	-0.30103
-3.3633735	thats	-0.30103
-3.0968168	life	-0.30103
-3.3633735	shred	-0.30103
-3.3633735	sight	-0.30103
-3.3633735	fish	-0.30103
-3.3633735	swam	-0.30103
-3.3633735	across	-0.30103
-3.3633735	pond	-0.30103
-3.3633735	doesnt	-0.30103
-3.0968168	like	-0.30103
-3.3633735	hanging	-0.30103
-3.3633735	around	-0.30103
-3.3633735	tort	-0.30103
-3.3633735	meats	-0.30103
-3.3633735	precious	-0.30103
-3.1761012	eat	-0.30103
-3.1761012	sport	-0.30103
-3.3633735	participate	-0.30103
-3.3633735	athletic	-0.30103
-3.3633735	activities	-0.30103
-3.3633735	trespassers	-0.30103
-3.3633735	prosecuted	-0.30103
-3.3633735	fined	-0.30103
-3.3633735	etiquette	-0.30103
-3.3633735	mandates	-0.30103
-3.3633735	compliance	-0.30103
-3.3633735	existing	-0.30103
-3.3633735	regulations	-0.30103
-3.3633735	touchdown	-0.30103
-3.3633735	resulted	-0.30103
-3.1761012	little	-0.30103
-3.3633735	girls	-0.30103
-3.3633735	cut	-0.30103
-3.3633735	lacy	-0.30103
-3.3633735	valentines	-0.30103
-3.3633735	geese	-0.30103
-3.3633735	mill	-0.30103
-3.3633735	barbs	-0.30103
-3.1761012	gold	-0.30103
-3.3633735	bracelet	-0.30103
-3.3633735	graduation	-0.30103
-3.3633735	present	-0.30103
-3.3633735	reap	-0.30103
-3.3633735	dill	-0.30103
-3.3633735	lend	-0.30103
-3.3633735	foe	-0.30103
-3.3633735	asked	-0.30103
-3.3633735	loan	-0.30103
-3.1761012	make	-0.30103
-2.8023698	any	-0.30103
-3.1761012	money	-0.30103
-3.3633735	toe	-0.30103
-3.3633735	threat	-0.30103
-3.3633735	port	-0.30103
-3.3633735	scream	-0.30103
-3.3633735	warm	-0.30103
-3.3633735	voice	-0.30103
-3.3633735	rip	-0.30103
-3.3633735	wise	-0.30103
-3.1761012	think	-0.30103
-3.1761012	full	-0.30103
-3.3633735	stuff	-0.30103
-3.3633735	bend	-0.30103
-3.3633735	muck	-0.30103
-3.3633735	snake	-0.30103
-3.3633735	havent	-0.30103
-3.3633735	seen	-0.30103
-3.3633735	friend	-0.30103
-3.3633735	bumper	-0.30103
-3.3633735	entertaining	-0.30103
-3.3633735	ash	-0.30103
-3.1761012	fit	-0.30103
-3.3633735	sheer	-0.30103
-3.3633735	twilight	-0.30103
-3.3633735	twelfth	-0.30103
-3.3633735	chablis	-0.30103
-3.3633735	hash	-0.30103
-3.3633735	worse	-0.30103
-3.3633735	luck	-0.30103
-3.1761012	still	-0.30103
-3.1761012	come	-0.30103
-3.3633735	golfing	-0.30103
-3.3633735	fathers	-0.30103
-3.3633735	ruled	-0.30103
-3.3633735	favor	-0.30103
-3.3633735	hail	-0.30103
-3.3633735	code	-0.30103
-3.3633735	elderly	-0.30103
-3.3633735	excluded	-0.30103
-3.3633735	beam	-0.30103
-3.3633735	remains	-0.30103
-3.3633735	fiercest	-0.30103
-3.3633735	competitors	-0.30103
-3.3633735	knife	-0.30103
-3.3633735	pete	-0.30103
-3.3633735	addition	-0.30103
-3.3633735	subtraction	-0.30103
-3.3633735	learned	-0.30103
-3.3633735	skills	-0.30103
-3.1761012	found	-0.30103
-3.3633735	anywhere	-0.30103
-3.3633735	gash	-0.30103
-3.3633735	pleased	-0.30103
-3.1761012	way	-0.30103
-2.9251032	things	-0.30103
-3.1761012	went	-0.30103
-3.3633735	loved	-0.30103
-3.3633735	minute	-0.30103
-3.3633735	idea	-0.30103
-3.3633735	fender	-0.30103
-3.3633735	woe	-0.30103
-3.3633735	member	-0.30103
-3.3633735	beast	-0.30103
-3.3633735	suggested	-0.30103
-3.3633735	dinner	-0.30103
-3.0968168	together	-0.30103
-3.3633735	so	-0.30103
-3.0968168	if	-0.30103
-3.3633735	anybody	-0.30103
-3.3633735	solicits	-0.30103
-2.8023698	by	-0.30103
-3.1761012	sure	-0.30103
-3.3633735	mail	-0.30103
-3.3633735	dough	-0.30103
-3.3633735	ambidextrous	-0.30103
-3.3633735	pickpockets	-0.30103
-3.3633735	accomplish	-0.30103
-3.3633735	guess	-0.30103
-3.3633735	wedding	-0.30103
-3.3633735	trip	-0.30103
-3.0968168	her	-0.30103
-3.3633735	dark	-0.30103
-3.3633735	hair	-0.30103
-3.3633735	combed	-0.30103
-3.3633735	casually	-0.30103
-3.3633735	seam	-0.30103
-3.3633735	beep	-0.30103
-3.1761012	quite	-0.30103
-3.3633735	vocal	-0.30103
-3.3633735	requires	-0.30103
-3.3633735	investment	-0.30103
-3.3633735	pickpocket	-0.30103
-3.3633735	caught	-0.30103
-3.3633735	redhanded	-0.30103
-3.3633735	mock	-0.30103
-3.3633735	dock	-0.30103
-3.1761012	sea	-0.30103
-3.3633735	grandmother	-0.30103
-3.3633735	outgrew	-0.30103
-3.3633735	upbringing	-0.30103
-3.3633735	petticoats	-0.30103
-3.3633735	sun	-0.30103
-3.3633735	died	-0.30103
-3.3633735	ember	-0.30103
-3.3633735	seat	-0.30103
-3.3633735	food	-0.30103
-3.3633735	reef	-0.30103
-3.3633735	fire	-0.30103
-3.3633735	straw	-0.30103
-3.3633735	blaze	-0.30103
-3.3633735	sender	-0.30103
-3.3633735	classical	-0.30103
-3.3633735	performance	-0.30103
-3.3633735	gained	-0.30103
-3.3633735	acclaim	-0.30103
-3.3633735	position	-0.30103
-3.1761012	covers	-0.30103
-3.3633735	number	-0.30103
-3.3633735	daily	-0.30103
-3.3633735	tasks	-0.30103
-3.3633735	common	-0.30103
-3.3633735	social	-0.30103
-3.3633735	director	-0.30103
-3.3633735	marriage	-0.30103
-2.7067885	from	-0.30103
-3.1761012	start	-0.30103
-3.1761012	tell	-0.30103
-3.3633735	wonderful	-0.30103
-3.3633735	renter	-0.30103
-3.3633735	row	-0.30103
-3.3633735	lender	-0.30103
-3.3633735	ape	-0.30103
-3.1761012	didnt	-0.30103
-3.3633735	forks	-0.30103
-3.3633735	tender	-0.30103
-3.3633735	tea	-0.30103
-3.3633735	popular	-0.30103
-3.3633735	fans	-0.30103
-3.3633735	timber	-0.30103
-3.3633735	leap	-0.30103
-3.3633735	catastrophic	-0.30103
-3.3633735	economic	-0.30103
-3.3633735	cutbacks	-0.30103
-3.3633735	neglect	-0.30103
-3.3633735	poor	-0.30103
-3.3633735	tail	-0.30103
-3.3633735	bender	-0.30103
-3.3633735	ache	-0.30103
-3.3633735	center	-0.30103
-3.3633735	mom	-0.30103
-3.3633735	strongly	-0.30103
-3.3633735	dislikes	-0.30103
-3.3633735	appetizers	-0.30103
-3.3633735	beef	-0.30103
-3.3633735	temper	-0.30103
-2.8023698	had	-0.30103
-3.3633735	desire	-0.30103
-3.3633735	change	-0.30103
-3.3633735	ways	-0.30103
-3.3633735	wax	-0.30103
-3.3633735	pet	-0.30103
-3.3633735	aid	-0.30103
-3.3633735	knock	-0.30103
-3.3633735	lies	-0.30103
-3.3633735	cheese	-0.30103
-3.3633735	hatch	-0.30103
-3.3633735	lack	-0.30103
-3.3633735	compounded	-0.30103
-3.3633735	tenants	-0.30103
-3.1761012	grievances	-0.30103
-3.3633735	bunch	-0.30103
-3.3633735	contributions	-0.30103
-3.3633735	greatly	-0.30103
-3.3633735	appreciated	-0.30103
-3.3633735	ease	-0.30103
-3.3633735	add	-0.30103
-3.3633735	chocolate	-0.30103
-3.3633735	roses	-0.30103
-3.1761012	never	-0.30103
-3.3633735	fail	-0.30103
-3.3633735	romantic	-0.30103
-3.3633735	gift	-0.30103
-3.3633735	legislature	-0.30103
-3.3633735	met	-0.30103
-3.1761012	judge	-0.30103
-3.3633735	state	-0.30103
-3.3633735	public	-0.30103
-3.3633735	education	-0.30103
-3.3633735	largest	-0.30103
-3.3633735	states	-0.30103
-3.3633735	peas	-0.30103
-3.3633735	bun	-0.30103
-3.3633735	punch	-0.30103
-3.3633735	ail	-0.30103
-3.3633735	begin	-0.30103
-3.3633735	trying	-0.30103
-3.3633735	speak	-0.30103
-3.3633735	tall	-0.30103
-3.3633735	range	-0.30103
-3.3633735	vital	-0.30103
-3.3633735	detail	-0.30103
-3.3633735	pill	-0.30103
-3.3633735	racks	-0.30103
-3.3633735	structures	-0.30103
-3.3633735	housing	-0.30103
-3.3633735	apartments	-0.30103
-3.3633735	masonry	-0.30103
-3.3633735	frame	-0.30103
-3.3633735	construction	-0.30103
-3.3633735	aches	-0.30103
-3.3633735	lit	-0.30103
-3.3633735	singers	-0.30103
-3.3633735	finger	-0.30103
-3.3633735	splinter	-0.30103
-3.3633735	now	-0.30103
-3.3633735	living	-0.30103
-3.3633735	exactly	-0.30103
-3.3633735	choose	-0.30103
-3.3633735	duck	-0.30103
-3.3633735	arm	-0.30103
-3.3633735	wanted	-0.30103
-3.3633735	actress	-0.30103
-3.1761012	fell	-0.30103
-3.3633735	aptitude	-0.30103
-3.3633735	guarantees	-0.30103
-3.3633735	diploma	-0.30103
-3.3633735	charm	-0.30103
-3.3633735	great	-0.30103
-3.3633735	meeting	-0.30103
-3.3633735	prepared	-0.30103
-3.3633735	odd	-0.30103
-3.3633735	behavior	-0.30103
-3.3633735	friends	-0.30103
-3.3633735	mile	-0.30103
-3.3633735	rakes	-0.30103
-3.3633735	talked	-0.30103
-3.3633735	situation	-0.30103
-3.1761012	other	-0.30103
-3.3633735	items	-0.30103
-3.3633735	fear	-0.30103
-3.0968168	sat	-0.30103
-3.3633735	relaxed	-0.30103
-3.3633735	hall	-0.30103
-3.3633735	sake	-0.30103
-3.1761012	know	-0.30103
-3.3633735	coming	-0.30103
-3.3633735	pockets	-0.30103
-3.3633735	hell	-0.30103
-3.1761012	them	-0.30103
-3.3633735	box	-0.30103
-3.3633735	plot	-0.30103
-3.3633735	laced	-0.30103
-3.3633735	mysterious	-0.30103
-3.3633735	incidents	-0.30103
-3.3633735	shelled	-0.30103
-3.3633735	clams	-0.30103
-3.3633735	chowder	-0.30103
-3.3633735	experience	-0.30103
-3.3633735	distress	-0.30103
-3.3633735	frustration	-0.30103
-3.3633735	obtaining	-0.30103
-3.3633735	degrees	-0.30103
-3.3633735	ticks	-0.30103
-3.3633735	prowler	-0.30103
-3.3633735	wore	-0.30103
-3.3633735	ski	-0.30103
-3.3633735	mask	-0.30103
-3.3633735	disguise	-0.30103
-3.1761012	confirmation	-0.30103
-3.1761012	such	-0.30103
-3.3633735	massive	-0.30103
-3.3633735	assaults	-0.30103
-3.3633735	independent	-0.30103
-3.3633735	sources	-0.30103
-3.3633735	chap	-0.30103
-3.3633735	lax	-0.30103
-3.1761012	score	-0.30103
-3.3633735	munch	-0.30103
-3.3633735	added	-0.30103
-3.3633735	brought	-0.30103
-3.1761012	petty	-0.30103
-3.3633735	jealousies	-0.30103
-3.3633735	personal	-0.30103
-3.3633735	even	-0.30103
-3.3633735	simple	-0.30103
-3.3633735	vocabulary	-0.30103
-3.3633735	contains	-0.30103
-3.3633735	symbols	-0.30103
-3.3633735	end	-0.30103
-3.3633735	eastern	-0.30103
-3.3633735	coast	-0.30103
-3.3633735	pure	-0.30103
-3.1761012	pleasure	-0.30103
-3.3633735	excitement	-0.30103
-3.3633735	dial	-0.30103
-3.3633735	low	-0.30103
-3.3633735	cold	-0.30103
-3.3633735	whip	-0.30103
-3.3633735	few	-0.30103
-3.3633735	bad	-0.30103
-3.3633735	ink	-0.30103
-3.3633735	handle	-0.30103
-3.3633735	theyll	-0.30103
-3.3633735	again	-0.30103
-3.3633735	term	-0.30103
-3.3633735	wide	-0.30103
-3.3633735	drenched	-0.30103
-3.3633735	uninterrupted	-0.30103
-3.3633735	pant	-0.30103
-3.1761012	may	-0.30103
-3.1761012	hard	-0.30103
-3.1761012	find	-0.30103
-3.3633735	cable	-0.30103
-3.3633735	translated	-0.30103
-3.3633735	weve	-0.30103
-3.3633735	past	-0.30103
-3.3633735	burn	-0.30103
-3.3633735	knew	-0.30103
-3.3633735	werent	-0.30103
-3.3633735	doing	-0.30103
-3.3633735	upgrade	-0.30103
-3.3633735	status	-0.30103
-3.3633735	reflect	-0.30103
-3.3633735	wealth	-0.30103
-3.1761012	spring	-0.30103
-3.1761012	street	-0.30103
-3.3633735	straight	-0.30103
-3.3633735	ahead	-0.30103
-3.3633735	serves	-0.30103
-3.3633735	meals	-0.30103
-3.3633735	disappointed	-0.30103
-3.3633735	order	-0.30103
-3.1761012	wine	-0.30103
-3.3633735	eyes	-0.30103
-3.3633735	weave	-0.30103
-3.3633735	family	-0.30103
-3.3633735	requests	-0.30103
-3.3633735	flowers	-0.30103
-3.3633735	omitted	-0.30103
-3.3633735	wart	-0.30103
-3.3633735	wack	-0.30103
-3.1761012	needed	-0.30103
-3.3633735	dash	-0.30103
-3.3633735	heart	-0.30103
-3.3633735	snow	-0.30103
-3.3633735	blew	-0.30103
-3.1761012	into	-0.30103
-3.1761012	large	-0.30103
-3.3633735	drifts	-0.30103
-3.3633735	regular	-0.30103
-3.3633735	attendance	-0.30103
-3.3633735	seldom	-0.30103
-3.3633735	required	-0.30103
-3.3633735	ball	-0.30103
-3.1761012	myself	-0.30103
-3.3633735	last	-0.30103
-3.3633735	shortage	-0.30103
-3.3633735	caused	-0.30103
-3.3633735	steep	-0.30103
-3.3633735	price	-0.30103
-3.3633735	increases	-0.30103
-3.3633735	cars	-0.30103
-3.3633735	slightly	-0.30103
-3.3633735	damaged	-0.30103
-3.3633735	highway	-0.30103
-3.3633735	empty	-0.30103
-3.3633735	staff	-0.30103
-3.3633735	deserves	-0.30103
-3.3633735	lot	-0.30103
-3.3633735	credit	-0.30103
-3.1761012	here	-0.30103
-3.3633735	under	-0.30103
-3.3633735	real	-0.30103
-3.3633735	obstacles	-0.30103
-3.3633735	hid	-0.30103
-3.3633735	why	-0.30103
-3.3633735	luke	-0.30103
-3.3633735	fold	-0.30103
-3.3633735	pink	-0.30103
-3.3633735	waste	-0.30103
-3.3633735	raisins	-0.30103
-3.3633735	outdoors	-0.30103
-3.1761012	porch	-0.30103
-3.3633735	steps	-0.30103
-3.3633735	noted	-0.30103
-3.3633735	carefully	-0.30103
-3.1761012	through	-0.30103
-3.3633735	clean	-0.30103
-3.3633735	report	-0.30103
-3.3633735	sail	-0.30103
-3.3633735	wipe	-0.30103
-3.3633735	continental	-0.30103
-3.3633735	drift	-0.30103
-3.3633735	geological	-0.30103
-3.3633735	theory	-0.30103
-3.3633735	huge	-0.30103
-3.3633735	part	-0.30103
-3.3633735	porcupines	-0.30103
-3.3633735	resemble	-0.30103
-3.3633735	urchins	-0.30103
-3.3633735	challenge	-0.30103
-3.1761012	each	-0.30103
-3.3633735	generals	-0.30103
-3.3633735	intelligence	-0.30103
-3.3633735	wives	-0.30103
-3.3633735	cant	-0.30103
-3.3633735	abide	-0.30103
-3.3633735	mistakes	-0.30103
-3.3633735	own	-0.30103
-3.1761012	game	-0.30103
-3.3633735	docks	-0.30103
-3.3633735	pole	-0.30103
-3.3633735	stable	-0.30103
-3.3633735	hiring	-0.30103
-3.3633735	wife	-0.30103
-3.3633735	ones	-0.30103
-3.3633735	company	-0.30103
-3.3633735	taxaided	-0.30103
-3.3633735	retirement	-0.30103
-3.3633735	income	-0.30103
-3.3633735	must	-0.30103
-3.3633735	ready	-0.30103
-3.3633735	sacrifice	-0.30103
-3.3633735	ban	-0.30103
-3.3633735	trips	-0.30103
-3.3633735	page	-0.30103
-3.3633735	accordion	-0.30103
-3.3633735	paid	-0.30103
-3.3633735	sprain	-0.30103
-3.3633735	fool	-0.30103
-3.3633735	boat	-0.30103
-3.3633735	ramp	-0.30103
-3.3633735	service	-0.30103
-3.3633735	should	-0.30103
-3.3633735	rewarded	-0.30103
-3.3633735	tips	-0.30103
-3.1761012	paint	-0.30103
-3.3633735	canteen	-0.30103
-3.3633735	fresh	-0.30103
-3.1761012	water	-0.30103
-3.3633735	shook	-0.30103
-3.3633735	mat	-0.30103
-3.3633735	sap	-0.30103
-3.3633735	pain	-0.30103
-3.3633735	hides	-0.30103
-3.3633735	mayonnaise	-0.30103
-3.3633735	fall	-0.30103
-3.3633735	mall	-0.30103
-3.3633735	feel	-0.30103
-3.3633735	seemed	-0.30103
-3.3633735	appealing	-0.30103
-3.3633735	panel	-0.30103
-3.3633735	doctors	-0.30103
-3.3633735	prescribe	-0.30103
-3.3633735	drugs	-0.30103
-3.3633735	freely	-0.30103
-3.3633735	vamp	-0.30103
-3.3633735	rat	-0.30103
-3.1761012	saw	-0.30103
-3.3633735	weeks	-0.30103
-3.3633735	illegal	-0.30103
-3.3633735	postdate	-0.30103
-3.3633735	check	-0.30103
-3.3633735	space	-0.30103
-3.3633735	naval	-0.30103
-3.3633735	stall	-0.30103
-3.3633735	spade	-0.30103
-3.3633735	acting	-0.30103
-3.3633735	accident	-0.30103
-3.3633735	damp	-0.30103
-3.3633735	spray	-0.30103
-3.3633735	peach	-0.30103
-3.3633735	mabel	-0.30103
-3.3633735	told	-0.30103
-3.3633735	seriously	-0.30103
-3.3633735	injured	-0.30103
-3.3633735	because	-0.30103
-3.1761012	practical	-0.30103
-3.3633735	funnel	-0.30103
-3.3633735	tap	-0.30103
-3.3633735	name	-0.30103
-3.3633735	gently	-0.30103
-3.3633735	jims	-0.30103
-3.3633735	foam	-0.30103
-3.3633735	sculpture	-0.30103
-3.3633735	maybe	-0.30103
-3.3633735	taking	-0.30103
-3.3633735	longer	-0.30103
-3.3633735	squared	-0.30103
-3.3633735	away	-0.30103
-3.3633735	bankers	-0.30103
-3.3633735	expected	-0.30103
-3.3633735	reach	-0.30103
-3.3633735	file	-0.30103
-3.3633735	soon	-0.30103
-3.3633735	muttering	-0.30103
-3.3633735	walls	-0.30103
-3.3633735	telephone	-0.30103
-3.3633735	booths	-0.30103
-3.3633735	arent	-0.30103
-3.3633735	easy	-0.30103
-3.3633735	paste	-0.30103
-3.3633735	foil	-0.30103
-3.3633735	map	-0.30103
-3.3633735	gable	-0.30103
-3.3633735	bull	-0.30103
-3.3633735	crawl	-0.30103
-3.3633735	pale	-0.30103
-3.3633735	creature	-0.30103
-3.3633735	pocket	-0.30103
-3.3633735	married	-0.30103
-3.3633735	saddle	-0.30103
-3.3633735	bowl	-0.30103
-3.3633735	nap	-0.30103
-3.3633735	table	-0.30103
-3.3633735	sable	-0.30103
-3.3633735	fable	-0.30103
-3.3633735	mold	-0.30103
-3.3633735	mole	-0.30103
-3.3633735	impossible	-0.30103
-3.1761012	deal	-0.30103
-3.3633735	bureaucracy	-0.30103
-3.3633735	pace	-0.30103
-3.3633735	call	-0.30103
-3.3633735	describe	-0.30103
-3.3633735	idiotic	-0.30103
-3.3633735	predicament	-0.30103
-3.3633735	screech	-0.30103
-3.3633735	ladle	-0.30103
-3.3633735	bash	-0.30103
-3.3633735	room	-0.30103
-3.0968168	or	-0.30103
-3.3633735	portrait	-0.30103
-3.3633735	bagpipes	-0.30103
-3.3633735	bongos	-0.30103
-3.3633735	musical	-0.30103
-3.3633735	instruments	-0.30103
-3.3633735	thought	-0.30103
-3.1761012	gin	-0.30103
-3.3633735	saws	-0.30103
-3.3633735	parts	-0.30103
-3.3633735	supplies	-0.30103
-3.3633735	used	-0.30103
-3.3633735	machinery	-0.30103
-3.3633735	final	-0.30103
-3.3633735	giggling	-0.30103
-3.3633735	owl	-0.30103
-3.3633735	cliffs	-0.30103
-3.3633735	display	-0.30103
-3.3633735	misplaced	-0.30103
-3.3633735	screen	-0.30103
-3.3633735	teach	-0.30103
-3.3633735	official	-0.30103
-3.3633735	deadline	-0.30103
-3.3633735	cannot	-0.30103
-3.3633735	postponed	-0.30103
-3.3633735	bog	-0.30103
-3.3633735	rattle	-0.30103
-3.1761012	sold	-0.30103
-3.3633735	bank	-0.30103
-3.3633735	shawl	-0.30103
-3.3633735	soul	-0.30103
-3.3633735	preach	-0.30103
-3.3633735	pull	-0.30103
-3.3633735	boone	-0.30103
-3.3633735	suppress	-0.30103
-3.3633735	wages	-0.30103
-3.3633735	key	-0.30103
-3.3633735	issue	-0.30103
-3.3633735	unfortunately	-0.30103
-3.3633735	demand	-0.30103
-3.3633735	broccoli	-0.30103
-3.3633735	cauliflower	-0.30103
-3.3633735	badger	-0.30103
-3.3633735	contrast	-0.30103
-3.3633735	household	-0.30103
-3.3633735	lots	-0.30103
-3.3633735	appliances	-0.30103
-3.3633735	grain	-0.30103
-3.3633735	paintings	-0.30103
-3.3633735	auction	-0.30103
-3.3633735	impress	-0.30103
-3.3633735	occur	-0.30103
-3.3633735	shore	-0.30103
-3.3633735	book	-0.30103
-3.3633735	bin	-0.30103
-3.3633735	weeds	-0.30103
-3.3633735	strong	-0.30103
-3.3633735	fast	-0.30103
-3.3633735	fudge	-0.30103
-3.3633735	rust	-0.30103
-3.3633735	misprint	-0.30103
-3.3633735	provoked	-0.30103
-3.3633735	immediate	-0.30103
-3.3633735	disclaimer	-0.30103
-3.3633735	contract	-0.30103
-3.3633735	limb	-0.30103
-3.3633735	musk	-0.30103
-3.3633735	rut	-0.30103
-3.3633735	serve	-0.30103
-3.3633735	grape	-0.30103
-3.3633735	intact	-0.30103
-3.3633735	picnic	-0.30103
-3.3633735	subtract	-0.30103
-3.3633735	plant	-0.30103
-3.3633735	original	-0.30103
-3.3633735	forgery	-0.30103
-3.3633735	either	-0.30103
-3.3633735	walked	-0.30103
-3.1761012	driven	-0.30103
-3.3633735	primitive	-0.30103
-3.3633735	tribes	-0.30103
-3.3633735	upbeat	-0.30103
-3.3633735	attitude	-0.30103
-3.3633735	shut	-0.30103
-3.3633735	retract	-0.30103
-3.3633735	displayed	-0.30103
-3.3633735	lamps	-0.30103
-3.3633735	puppets	-0.30103
-3.3633735	delight	-0.30103
-3.3633735	children	-0.30103
-3.3633735	decorative	-0.30103
-3.3633735	accent	-0.30103
-3.3633735	globe	-0.30103
-3.3633735	grave	-0.30103
-3.3633735	bust	-0.30103
-3.3633735	depress	-0.30103
-3.3633735	dusk	-0.30103
-3.3633735	slim	-0.30103
-3.3633735	flying	-0.30103
-3.3633735	standby	-0.30103
-3.3633735	save	-0.30103
-3.3633735	instructions	-0.30103
-3.3633735	desperately	-0.30103
-3.3633735	need	-0.30103
-3.3633735	updating	-0.30103
-3.3633735	preserve	-0.30103
-3.3633735	converge	-0.30103
-3.3633735	booth	-0.30103
-3.3633735	railroads	-0.30103
-3.3633735	future	-0.30103
-3.3633735	west	-0.30103
-3.3633735	beauty	-0.30103
-3.3633735	surrounds	-0.30103
-3.3633735	id	-0.30103
-3.3633735	put	-0.30103
-3.3633735	weight	-0.30103
-3.3633735	lisp	-0.30103
-3.3633735	hispanic	-0.30103
-3.3633735	costumes	-0.30103
-3.3633735	colorful	-0.30103
-3.3633735	tore	-0.30103
-3.3633735	strange	-0.30103
-3.3633735	refer	-0.30103
-3.3633735	deserve	-0.30103
-3.3633735	glib	-0.30103
-3.3633735	grope	-0.30103
-3.3633735	absurd	-0.30103
-3.3633735	kat	-0.30103
-3.3633735	kittens	-0.30103
-3.3633735	cement	-0.30103
-3.3633735	measured	-0.30103
-3.3633735	cubic	-0.30103
-3.3633735	yards	-0.30103
-3.3633735	grange	-0.30103
-3.3633735	lid	-0.30103
-3.3633735	could	-0.30103
-3.3633735	bus	-0.30103
-3.3633735	brain	-0.30103
-3.3633735	boast	-0.30103
-3.3633735	observe	-0.30103
-3.3633735	reserve	-0.30103
-3.3633735	slid	-0.30103
-3.3633735	list	-0.30103
-3.3633735	conserve	-0.30103
-3.3633735	repress	-0.30103
-3.3633735	scorch	-0.30103
-3.3633735	strike	-0.30103
-3.3633735	spread	-0.30103
-3.3633735	super	-0.30103
-3.3633735	split	-0.30103
-3.3633735	hotel	-0.30103
-3.3633735	owner	-0.30103
-3.3633735	struggled	-0.30103
-3.3633735	ok	-0.30103
-3.3633735	actually	-0.30103
-3.3633735	owe	-0.30103
-3.3633735	drop	-0.30103
-3.3633735	shout	-0.30103
-3.3633735	weekend	-0.30103
-3.3633735	relax	-0.30103
-3.3633735	oh	-0.30103
-3.1761012	spark	-0.30103
-3.3633735	skip	-0.30103
-3.3633735	ah	-0.30103
-3.3633735	slip	-0.30103
-3.3633735	chose	-0.30103
-3.3633735	innocense	-0.30103

\2-grams:
-0.2007876	pat </s>	0
-0.2007876	meat </s>	0
-0.2007876	air </s>	0
-0.2007876	swarm </s>	0
-0.63862324	no </s>	0
-0.2007876	storm </s>	0
-0.2007876	buttons </s>	0
-0.2007876	dug </s>	0
-0.2007876	feet </s>	0
-0.2007876	train </s>	0
-0.42042887	but </s>	0
-0.8024661	he </s>	0
-0.2007876	oil </s>	0
-0.2007876	beat </s>	0
-0.2007876	dog </s>	0
-0.7562957	have </s>	0
-0.7739787	to </s>	0
-0.42042887	more </s>	0
-0.8194347	and </s>	0
-0.2007876	less </s>	0
-0.2007876	rake </s>	0
-0.8135419	for </s>	0
-0.42042887	grow </s>	0
-0.59377646	one </s>	0
-0.52800345	two </s>	0
-0.2007876	rage </s>	0
-0.2007876	form </s>	0
-0.2007876	farm </s>	0
-0.2007876	horn </s>	0
-0.2007876	sheet </s>	0
-0.2007876	ship </s>	0
-0.2007876	left </s>	0
-0.2007876	sticks </s>	0
-0.2007876	glow </s>	0
-0.2007876	born </s>	0
-0.2007876	corn </s>	0
-0.42042887	right </s>	0
-0.46331552	well </s>	0
-0.8414806	is </s>	0
-0.52800345	three </s>	0
-0.42042887	years </s>	0
-0.42042887	old </s>	0
-0.2007876	feed </s>	0
-0.2007876	rain </s>	0
-0.2007876	tip </s>	0
-0.52800345	down </s>	0
-0.42042887	store </s>	0
-0.8154484	in </s>	0
-0.2007876	coat </s>	0
-0.2007876	language </s>	0
-0.2007876	torn </s>	0
-0.2007876	yes </s>	0
-0.2007876	sleep </s>	0
-0.59377646	both </s>	0
-0.52800345	go </s>	0
-0.33428073	later </s>	0
-0.2007876	troop </s>	0
-0.2007876	wish </s>	0
-0.2007876	ate </s>	0
-0.2007876	hear </s>	0
-0.2007876	pot </s>	0
-0.2007876	white </s>	0
-0.2007876	aprons </s>	0
-0.2007876	best </s>	0
-0.42042887	deer </s>	0
-0.2007876	group </s>	0
-0.2007876	cheer </s>	0
-0.2007876	thigh </s>	0
-0.2007876	coupe </s>	0
-0.42042887	write </s>	0
-0.2007876	area </s>	0
-0.2007876	steer </s>	0
-0.2007876	tile </s>	0
-0.2007876	select </s>	0
-0.2007876	forward </s>	0
-0.2007876	curtains </s>	0
-0.52800345	much </s>	0
-0.2007876	hate </s>	0
-0.2007876	whoop </s>	0
-0.2007876	wet </s>	0
-0.2007876	shoot </s>	0
-0.2007876	slay </s>	0
-0.42042887	play </s>	0
-0.7159888	all </s>	0
-0.63862324	big </s>	0
-0.2007876	traded </s>	0
-0.2007876	thoroughly </s>	0
-0.2007876	boot </s>	0
-0.2007876	rocks </s>	0
-0.2007876	witch </s>	0
-0.2007876	galore </s>	0
-0.2007876	delta </s>	0
-0.6962798	she </s>	0
-0.2007876	am </s>	0
-0.2007876	innocence </s>	0
-0.2007876	menu </s>	0
-0.2007876	peer </s>	0
-0.2007876	lip </s>	0
-0.2007876	beach </s>	0
-0.2007876	mere </s>	0
-0.2007876	pad </s>	0
-0.42042887	house </s>	0
-0.2007876	urgent </s>	0
-0.52800345	four </s>	0
-0.42042887	night </s>	0
-0.52800345	phone </s>	0
-0.2007876	calls </s>	0
-0.2007876	november </s>	0
-0.7066799	you </s>	0
-0.2007876	mush </s>	0
-0.2007876	oscar </s>	0
-0.42042887	sell </s>	0
-0.42042887	five </s>	0
-0.2007876	pit </s>	0
-0.2007876	zero </s>	0
-0.2007876	fat </s>	0
-0.2007876	darn </s>	0
-0.52800345	expect </s>	0
-0.2007876	week </s>	0
-0.2007876	six </s>	0
-0.59377646	when </s>	0
-0.2007876	force </s>	0
-0.2007876	hat </s>	0
-0.2007876	seed </s>	0
-0.2007876	pitting </s>	0
-0.7159888	it </s>	0
-0.2007876	dormitories </s>	0
-0.2007876	bloat </s>	0
-0.7930012	was </s>	0
-0.86258936	a </s>	0
-0.67131984	good </s>	0
-0.52800345	win </s>	0
-0.2007876	us </s>	0
-0.52800345	yet </s>	0
-0.52800345	take </s>	0
-0.839767	of </s>	0
-0.2007876	legislation </s>	0
-0.2007876	flimsy </s>	0
-0.2007876	shy </s>	0
-0.2007876	cake </s>	0
-0.42042887	me </s>	0
-0.63862324	up </s>	0
-0.2007876	above </s>	0
-0.2007876	nine </s>	0
-0.42042887	program </s>	0
-0.2007876	medicine </s>	0
-0.2007876	league </s>	0
-0.63862324	at </s>	0
-0.2007876	claim </s>	0
-0.2007876	seven </s>	0
-0.2007876	leak </s>	0
-0.2007876	leg </s>	0
-0.52800345	job </s>	0
-0.2007876	benefits </s>	0
-0.2007876	eight </s>	0
-0.2007876	top </s>	0
-0.2007876	lima </s>	0
-0.2007876	vat </s>	0
-0.2007876	blow </s>	0
-0.2007876	spain </s>	0
-0.42042887	fill </s>	0
-0.2007876	wall </s>	0
-0.2007876	harm </s>	0
-0.2007876	hastily </s>	0
-0.2007876	chop </s>	0
-0.7874197	are </s>	0
-0.2007876	expensive </s>	0
-0.2007876	bidding </s>	0
-0.2007876	shell </s>	0
-0.2007876	sin </s>	0
-0.2007876	ticker </s>	0
-0.2007876	tin </s>	0
-0.42042887	new </s>	0
-0.2007876	loss </s>	0
-0.2007876	winners </s>	0
-0.2007876	leaks </s>	0
-0.2007876	xray </s>	0
-0.2007876	lock </s>	0
-0.2007876	sand </s>	0
-0.2007876	ham </s>	0
-0.42042887	first </s>	0
-0.42042887	time </s>	0
-0.42042887	alone </s>	0
-0.2007876	survive </s>	0
-0.2007876	team </s>	0
-0.2007876	nut </s>	0
-0.2007876	quickly </s>	0
-0.2007876	lie </s>	0
-0.2007876	zulu </s>	0
-0.42042887	gas </s>	0
-0.2007876	burner </s>	0
-0.2007876	long </s>	0
-0.2007876	bay </s>	0
-0.2007876	bed </s>	0
-0.2007876	flicker </s>	0
-0.2007876	bread </s>	0
-0.2007876	sicker </s>	0
-0.2007876	potatoes </s>	0
-0.2007876	fork </s>	0
-0.52800345	said </s>	0
-0.42042887	cat </s>	0
-0.42042887	keep </s>	0
-0.52800345	out </s>	0
-0.33428073	day </s>	0
-0.2007876	millionaires </s>	0
-0.2007876	litter </s>	0
-0.2007876	sink </s>	0
-0.2007876	red </s>	0
-0.2007876	ned </s>	0
-0.2007876	sit </s>	0
-0.42042887	able </s>	0
-0.42042887	too </s>	0
-0.2007876	hand </s>	0
-0.2007876	rest </s>	0
-0.2007876	marvelously </s>	0
-0.42042887	rise </s>	0
-0.2007876	morning </s>	0
-0.42042887	bought </s>	0
-0.2007876	chair </s>	0
-0.42042887	quicker </s>	0
-0.2007876	romeo </s>	0
-0.63862324	about </s>	0
-0.2007876	nod </s>	0
-0.2007876	small </s>	0
-0.2007876	liquor </s>	0
-0.42042887	beg </s>	0
-0.7159888	that </s>	0
-0.52800345	ride </s>	0
-0.2007876	stagecoach </s>	0
-0.2007876	neat </s>	0
-0.2007876	dead </s>	0
-0.2007876	wit </s>	0
-0.2007876	painters </s>	0
-0.2007876	attention </s>	0
-0.2007876	success </s>	0
-0.2007876	lake </s>	0
-0.2007876	thread </s>	0
-0.52800345	dont </s>	0
-0.2007876	dishes </s>	0
-0.2007876	sew </s>	0
-0.2007876	sort </s>	0
-0.2007876	catch </s>	0
-0.52800345	played </s>	0
-0.2007876	degree </s>	0
-0.2007876	dessert </s>	0
-0.2007876	welcome </s>	0
-0.2007876	cakes </s>	0
-0.2007876	bill </s>	0
-0.2007876	popularity </s>	0
-0.42042887	short </s>	0
-0.2007876	shin </s>	0
-0.2007876	kind </s>	0
-0.2007876	cork </s>	0
-0.2007876	weep </s>	0
-0.2007876	history </s>	0
-0.2007876	rid </s>	0
-0.2007876	quart </s>	0
-0.2007876	shot </s>	0
-0.2007876	knee </s>	0
-0.2007876	sheep </s>	0
-0.2007876	snort </s>	0
-0.2007876	pork </s>	0
-0.2007876	sketch </s>	0
-0.2007876	yourself </s>	0
-0.2007876	blend </s>	0
-0.2007876	shed </s>	0
-0.2007876	identical </s>	0
-0.2007876	maintenance </s>	0
-0.2007876	see </s>	0
-0.2007876	shop </s>	0
-0.42042887	heat </s>	0
-0.2007876	gone </s>	0
-0.2007876	gill </s>	0
-0.2007876	show </s>	0
-0.2007876	read </s>	0
-0.2007876	disappointing </s>	0
-0.2007876	tug </s>	0
-0.2007876	cash </s>	0
-0.2007876	stretch </s>	0
-0.2007876	steak </s>	0
-0.2007876	ray </s>	0
-0.2007876	fort </s>	0
-0.2007876	lee </s>	0
-0.2007876	hold </s>	0
-0.7319613	with </s>	0
-0.2007876	since </s>	0
-0.52800345	life </s>	0
-0.2007876	shred </s>	0
-0.2007876	sight </s>	0
-0.2007876	pond </s>	0
-0.2007876	around </s>	0
-0.2007876	tort </s>	0
-0.2007876	meats </s>	0
-0.2007876	precious </s>	0
-0.52800345	eat </s>	0
-0.2007876	sport </s>	0
-0.2007876	activities </s>	0
-0.2007876	fined </s>	0
-0.2007876	regulations </s>	0
-0.2007876	resulted </s>	0
-0.2007876	valentines </s>	0
-0.2007876	geese </s>	0
-0.2007876	mill </s>	0
-0.2007876	present </s>	0
-0.2007876	reap </s>	0
-0.2007876	dill </s>	0
-0.2007876	lend </s>	0
-0.2007876	foe </s>	0
-0.2007876	loan </s>	0
-0.2007876	money </s>	0
-0.2007876	toe </s>	0
-0.2007876	threat </s>	0
-0.2007876	port </s>	0
-0.2007876	voice </s>	0
-0.2007876	rip </s>	0
-0.2007876	wise </s>	0
-0.42042887	full </s>	0
-0.2007876	stuff </s>	0
-0.2007876	bend </s>	0
-0.2007876	muck </s>	0
-0.2007876	snake </s>	0
-0.2007876	bumper </s>	0
-0.2007876	ash </s>	0
-0.42042887	fit </s>	0
-0.2007876	sheer </s>	0
-0.2007876	chablis </s>	0
-0.2007876	hash </s>	0
-0.42042887	come </s>	0
-0.2007876	favor </s>	0
-0.2007876	hail </s>	0
-0.2007876	code </s>	0
-0.2007876	excluded </s>	0
-0.2007876	beam </s>	0
-0.2007876	competitors </s>	0
-0.2007876	knife </s>	0
-0.2007876	pete </s>	0
-0.2007876	skills </s>	0
-0.2007876	anywhere </s>	0
-0.2007876	gash </s>	0
-0.42042887	went </s>	0
-0.2007876	idea </s>	0
-0.2007876	fender </s>	0
-0.2007876	woe </s>	0
-0.2007876	member </s>	0
-0.2007876	beast </s>	0
-0.2007876	together </s>	0
-0.2007876	guess </s>	0
-0.2007876	casually </s>	0
-0.2007876	seam </s>	0
-0.2007876	beep </s>	0
-0.2007876	vocal </s>	0
-0.2007876	investment </s>	0
-0.2007876	redhanded </s>	0
-0.2007876	mock </s>	0
-0.2007876	dock </s>	0
-0.42042887	sea </s>	0
-0.2007876	petticoats </s>	0
-0.2007876	ember </s>	0
-0.2007876	seat </s>	0
-0.2007876	food </s>	0
-0.2007876	reef </s>	0
-0.2007876	blaze </s>	0
-0.2007876	sender </s>	0
-0.2007876	acclaim </s>	0
-0.2007876	director </s>	0
-0.67131984	from </s>	0
-0.2007876	start </s>	0
-0.2007876	wonderful </s>	0
-0.2007876	renter </s>	0
-0.2007876	row </s>	0
-0.2007876	lender </s>	0
-0.2007876	ape </s>	0
-0.2007876	forks </s>	0
-0.2007876	tender </s>	0
-0.2007876	tea </s>	0
-0.2007876	fans </s>	0
-0.2007876	timber </s>	0
-0.2007876	leap </s>	0
-0.2007876	poor </s>	0
-0.2007876	tail </s>	0
-0.2007876	bender </s>	0
-0.2007876	ache </s>	0
-0.2007876	center </s>	0
-0.2007876	appetizers </s>	0
-0.2007876	beef </s>	0
-0.2007876	temper </s>	0
-0.63862324	had </s>	0
-0.2007876	ways </s>	0
-0.2007876	wax </s>	0
-0.2007876	pet </s>	0
-0.2007876	aid </s>	0
-0.2007876	knock </s>	0
-0.2007876	lies </s>	0
-0.2007876	cheese </s>	0
-0.2007876	hatch </s>	0
-0.2007876	grievances </s>	0
-0.2007876	bunch </s>	0
-0.2007876	appreciated </s>	0
-0.2007876	ease </s>	0
-0.2007876	add </s>	0
-0.2007876	gift </s>	0
-0.42042887	judge </s>	0
-0.42042887	state </s>	0
-0.2007876	education </s>	0
-0.2007876	states </s>	0
-0.2007876	peas </s>	0
-0.2007876	bun </s>	0
-0.2007876	punch </s>	0
-0.2007876	ail </s>	0
-0.2007876	tall </s>	0
-0.2007876	detail </s>	0
-0.2007876	pill </s>	0
-0.2007876	racks </s>	0
-0.2007876	construction </s>	0
-0.2007876	aches </s>	0
-0.2007876	lit </s>	0
-0.2007876	splinter </s>	0
-0.2007876	choose </s>	0
-0.2007876	duck </s>	0
-0.2007876	arm </s>	0
-0.2007876	actress </s>	0
-0.42042887	fell </s>	0
-0.2007876	diploma </s>	0
-0.2007876	charm </s>	0
-0.2007876	meeting </s>	0
-0.2007876	friends </s>	0
-0.2007876	mile </s>	0
-0.2007876	rakes </s>	0
-0.2007876	situation </s>	0
-0.2007876	items </s>	0
-0.52800345	sat </s>	0
-0.2007876	relaxed </s>	0
-0.2007876	hall </s>	0
-0.2007876	sake </s>	0
-0.2007876	box </s>	0
-0.2007876	incidents </s>	0
-0.2007876	chowder </s>	0
-0.2007876	degrees </s>	0
-0.2007876	ticks </s>	0
-0.2007876	disguise </s>	0
-0.2007876	sources </s>	0
-0.2007876	chap </s>	0
-0.2007876	lax </s>	0
-0.2007876	score </s>	0
-0.2007876	munch </s>	0
-0.2007876	symbols </s>	0
-0.2007876	end </s>	0
-0.42042887	pleasure </s>	0
-0.2007876	excitement </s>	0
-0.2007876	dial </s>	0
-0.2007876	low </s>	0
-0.2007876	cold </s>	0
-0.2007876	whip </s>	0
-0.2007876	ink </s>	0
-0.2007876	again </s>	0
-0.2007876	term </s>	0
-0.2007876	wide </s>	0
-0.2007876	pant </s>	0
-0.2007876	find </s>	0
-0.42042887	cable </s>	0
-0.2007876	translated </s>	0
-0.2007876	past </s>	0
-0.2007876	burn </s>	0
-0.2007876	wealth </s>	0
-0.42042887	street </s>	0
-0.2007876	ahead </s>	0
-0.2007876	wine </s>	0
-0.2007876	eyes </s>	0
-0.2007876	weave </s>	0
-0.2007876	omitted </s>	0
-0.2007876	wart </s>	0
-0.2007876	wack </s>	0
-0.42042887	needed </s>	0
-0.2007876	dash </s>	0
-0.2007876	drifts </s>	0
-0.2007876	required </s>	0
-0.2007876	ball </s>	0
-0.42042887	myself </s>	0
-0.42042887	steep </s>	0
-0.2007876	increases </s>	0
-0.2007876	damaged </s>	0
-0.2007876	empty </s>	0
-0.42042887	here </s>	0
-0.2007876	obstacles </s>	0
-0.2007876	hid </s>	0
-0.2007876	why </s>	0
-0.2007876	luke </s>	0
-0.2007876	fold </s>	0
-0.2007876	pink </s>	0
-0.2007876	waste </s>	0
-0.42042887	porch </s>	0
-0.2007876	steps </s>	0
-0.2007876	carefully </s>	0
-0.2007876	report </s>	0
-0.2007876	sail </s>	0
-0.2007876	wipe </s>	0
-0.2007876	theory </s>	0
-0.2007876	urchins </s>	0
-0.42042887	each </s>	0
-0.2007876	intelligence </s>	0
-0.2007876	wives </s>	0
-0.2007876	game </s>	0
-0.2007876	docks </s>	0
-0.2007876	pole </s>	0
-0.2007876	stable </s>	0
-0.2007876	income </s>	0
-0.2007876	sacrifice </s>	0
-0.2007876	ban </s>	0
-0.2007876	page </s>	0
-0.2007876	accordion </s>	0
-0.2007876	paid </s>	0
-0.2007876	sprain </s>	0
-0.2007876	fool </s>	0
-0.2007876	boat </s>	0
-0.2007876	ramp </s>	0
-0.2007876	tips </s>	0
-0.42042887	paint </s>	0
-0.2007876	water </s>	0
-0.2007876	mat </s>	0
-0.2007876	sap </s>	0
-0.2007876	pain </s>	0
-0.2007876	mayonnaise </s>	0
-0.2007876	fall </s>	0
-0.2007876	mall </s>	0
-0.2007876	feel </s>	0
-0.2007876	panel </s>	0
-0.2007876	freely </s>	0
-0.2007876	vamp </s>	0
-0.2007876	rat </s>	0
-0.2007876	check </s>	0
-0.2007876	space </s>	0
-0.2007876	naval </s>	0
-0.2007876	stall </s>	0
-0.2007876	spade </s>	0
-0.2007876	accident </s>	0
-0.2007876	damp </s>	0
-0.2007876	spray </s>	0
-0.2007876	peach </s>	0
-0.2007876	mabel </s>	0
-0.2007876	told </s>	0
-0.2007876	injured </s>	0
-0.42042887	practical </s>	0
-0.2007876	funnel </s>	0
-0.2007876	tap </s>	0
-0.2007876	expected </s>	0
-0.2007876	reach </s>	0
-0.2007876	file </s>	0
-0.2007876	walls </s>	0
-0.2007876	paste </s>	0
-0.2007876	foil </s>	0
-0.2007876	map </s>	0
-0.2007876	gable </s>	0
-0.2007876	bull </s>	0
-0.2007876	crawl </s>	0
-0.2007876	pale </s>	0
-0.2007876	creature </s>	0
-0.2007876	pocket </s>	0
-0.2007876	saddle </s>	0
-0.2007876	bowl </s>	0
-0.2007876	nap </s>	0
-0.2007876	table </s>	0
-0.2007876	sable </s>	0
-0.2007876	fable </s>	0
-0.2007876	mold </s>	0
-0.2007876	mole </s>	0
-0.2007876	bureaucracy </s>	0
-0.2007876	pace </s>	0
-0.2007876	call </s>	0
-0.2007876	predicament </s>	0
-0.2007876	screech </s>	0
-0.2007876	ladle </s>	0
-0.2007876	bash </s>	0
-0.2007876	portrait </s>	0
-0.2007876	instruments </s>	0
-0.2007876	machinery </s>	0
-0.2007876	final </s>	0
-0.2007876	giggling </s>	0
-0.2007876	owl </s>	0
-0.2007876	screen </s>	0
-0.2007876	teach </s>	0
-0.2007876	postponed </s>	0
-0.2007876	bog </s>	0
-0.2007876	rattle </s>	0
-0.42042887	sold </s>	0
-0.2007876	bank </s>	0
-0.2007876	shawl </s>	0
-0.2007876	soul </s>	0
-0.2007876	preach </s>	0
-0.2007876	pull </s>	0
-0.2007876	boone </s>	0
-0.2007876	suppress </s>	0
-0.2007876	issue </s>	0
-0.2007876	cauliflower </s>	0
-0.2007876	badger </s>	0
-0.2007876	contrast </s>	0
-0.2007876	appliances </s>	0
-0.2007876	grain </s>	0
-0.2007876	auction </s>	0
-0.2007876	impress </s>	0
-0.2007876	occur </s>	0
-0.2007876	shore </s>	0
-0.2007876	book </s>	0
-0.2007876	bin </s>	0
-0.2007876	fast </s>	0
-0.2007876	fudge </s>	0
-0.2007876	rust </s>	0
-0.2007876	disclaimer </s>	0
-0.2007876	contract </s>	0
-0.2007876	limb </s>	0
-0.2007876	musk </s>	0
-0.2007876	rut </s>	0
-0.2007876	serve </s>	0
-0.2007876	grape </s>	0
-0.2007876	intact </s>	0
-0.2007876	subtract </s>	0
-0.2007876	forgery </s>	0
-0.2007876	driven </s>	0
-0.2007876	attitude </s>	0
-0.2007876	shut </s>	0
-0.2007876	retract </s>	0
-0.2007876	accent </s>	0
-0.2007876	globe </s>	0
-0.2007876	grave </s>	0
-0.2007876	bust </s>	0
-0.2007876	depress </s>	0
-0.2007876	dusk </s>	0
-0.2007876	slim </s>	0
-0.2007876	updating </s>	0
-0.2007876	preserve </s>	0
-0.2007876	converge </s>	0
-0.2007876	booth </s>	0
-0.2007876	west </s>	0
-0.2007876	weight </s>	0
-0.2007876	lisp </s>	0
-0.2007876	colorful </s>	0
-0.2007876	tore </s>	0
-0.2007876	strange </s>	0
-0.2007876	refer </s>	0
-0.2007876	deserve </s>	0
-0.2007876	glib </s>	0
-0.2007876	grope </s>	0
-0.2007876	absurd </s>	0
-0.2007876	kittens </s>	0
-0.2007876	yards </s>	0
-0.2007876	grange </s>	0
-0.2007876	lid </s>	0
-0.2007876	brain </s>	0
-0.2007876	boast </s>	0
-0.2007876	observe </s>	0
-0.2007876	reserve </s>	0
-0.2007876	slid </s>	0
-0.2007876	list </s>	0
-0.2007876	conserve </s>	0
-0.2007876	repress </s>	0
-0.2007876	scorch </s>	0
-0.2007876	super </s>	0
-0.2007876	split </s>	0
-0.2007876	struggled </s>	0
-0.2007876	ok </s>	0
-0.2007876	actually </s>	0
-0.2007876	owe </s>	0
-0.2007876	drop </s>	0
-0.2007876	shout </s>	0
-0.2007876	weekend </s>	0
-0.2007876	relax </s>	0
-0.2007876	oh </s>	0
-0.52800345	spark </s>	0
-0.2007876	slip </s>	0
-0.2007876	chose </s>	0
-0.2007876	innocense </s>	0
-2.147133	<s> pat	-1.6627579
-2.1407776	<s> meat	-1.6690068
-2.0203347	<s> air	-1.7876966
-2.2639625	<s> swarm	-1.5481846
-2.0354848	<s> no	-1.7683914
-1.334957	have no	-0.72699875
-1.4943328	was no	-0.7781512
-0.30034596	requires no	-0.7781512
-0.99659055	had no	-0.72699875
-2.2556639	<s> storm	-1.5563025
-2.5663714	<s> usually	-1.2552725
-0.30084196	usually minus	-1.2552725
-3.7977047	<s> several	-0.30103
-0.3007406	minus several	-1.2552725
-0.601684	several buttons	-1.2552725
-2.3367636	<s> dug	-1.4771212
-2.0930283	<s> feet	-1.7160033
-2.5663714	<s> train	-1.2552725
-2.5038552	<s> but	-1.0934217
-1.7594686	<s> he	-1
-0.59968626	but he	-1.2863067
-0.89835536	him he	-1.0543576
-1.1378759	well he	-0.30103
-0.59968626	himself he	-0.30103
-1.0720985	this he	-0.90309
-0.7745954	yet he	-0.86530143
-0.59968626	so he	-0.42596874
-1.5511221	he always	-1.2863067
-0.3007406	although always	-1.0543576
-0.601684	always answers	-1.2863067
-0.30084196	answers banana	-1.2863067
-0.30084196	banana oil	-1.2863067
-2.0709882	<s> beat	-1.7377226
-1.4793911	<s> the	-0.8676733
-0.29482853	over the	-1.2552725
-1.3405358	to the	-0.9265711
-1.2611403	for the	-0.86530143
-0.9978707	in the	-0.49732465
-0.29482853	made the	-1.1026623
-0.87879837	all the	-0.9542425
-0.29482853	scrubbed the	-1.146128
-0.75980633	than the	-0.30103
-0.353701	on the	-0.8846066
-0.9710089	of the	-0.8325089
-0.96984196	at the	-0.30103
-0.29482853	near the	-1.146128
-0.29482853	wrapped the	-1.146128
-1.3922849	are the	-0.8239087
-0.29482853	open the	-0.97003675
-0.29482853	covered the	-0.9378521
-0.87879837	only the	-0.86530143
-0.6836293	about the	-0.8239087
-0.29482853	prefer the	-0.86530143
-1.2024106	with the	-0.7781512
-0.5897443	thats the	-0.30103
-0.29482853	across the	-0.86530143
-0.29482853	remains the	-0.86530143
-0.96984196	by the	-0.72699875
-0.29482853	mail the	-0.8239087
-0.75980633	from the	-0.86530143
-0.29482853	neglect the	-0.7781512
-0.29482853	compounded the	-0.66900676
-0.5897443	judge the	-0.9378521
-0.29482853	housing the	-0.8239087
-0.29482853	order the	-0.66900676
-0.29482853	noted the	-0.5228787
-0.29482853	hiring the	-0.42596874
-0.29482853	hides the	-0.42596874
-0.29482853	describe the	-0.30103
-0.29482853	lamps the	-0.30103
-0.29482853	delight the	-0.30103
-2.1815546	the quick	-1.2552725
-1.691934	a quick	-0.8846066
-0.77728355	quick brown	-1.2552725
-1.9860401	a brown	-0.97003675
-0.601684	brown fox	-1.2552725
-0.30084196	fox jumps	-1.2552725
-0.30084196	jumps over	-1.2552725
-2.189326	the lazy	-1.2552725
-0.30084196	lazy dog	-1.2552725
-1.6689136	<s> we	-0.9479023
-0.6003572	alone we	-1.0543576
-0.30017772	leisure we	-0.90309
-0.30017772	suggested we	-0.8239087
-0.6003572	know we	-0.90309
-0.30017772	knew we	-0.66900676
-3.0428917	<s> have	-0.72699875
-1.3098992	we have	-1.0479236
-1.8479956	to have	-0.86530143
-1.1378759	well have	-0.86530143
-1.1947017	all have	-0.8239087
-1.1672556	you have	-1.0280287
-0.99408966	really have	-0.90309
-0.2998415	tribes have	-0.30103
-1.3386168	have often	-1.2863067
-1.4115121	can often	-1.2218487
-1.4719396	are often	-0.7781512
-0.7775873	often urged	-1.2863067
-0.30051425	urged him	-1.2863067
-0.60102916	crucified him	-1.0543576
-0.60102916	want him	-0.90309
-0.60102916	saw him	-0.42596874
-2.7369704	<s> to	-0.7781512
-1.285089	have to	-0.72699875
-0.5910569	him to	-1.1356627
-0.2954936	likes to	-1.20412
-0.2954936	try to	-1
-0.2954936	funds to	-1.1856365
-0.7617493	yet to	-1.1249387
-1.1087782	were to	-1.2218487
-0.2954936	willing to	-0.97003675
-0.5910569	time to	-0.66900676
-0.2954936	fun to	-0.9378521
-0.2954936	someplace to	-0.90309
-0.5910569	want to	-0.30103
-0.2954936	greg to	-0.90309
-0.5910569	cat to	-0.90309
-0.5910569	able to	-1
-0.88135564	what to	-0.30103
-0.7617493	like to	-0.86530143
-0.2954936	scream to	-0.86530143
-0.5910569	still to	-0.7781512
-0.2954936	dough to	-0.69897
-0.2954936	common to	-0.86530143
-0.2954936	desire to	-0.72699875
-0.2954936	met to	-0.9378521
-0.2954936	trying to	-0.86530143
-0.2954936	wanted to	-0.72699875
-0.2954936	hard to	-0.5563025
-0.2954936	status to	-0.5228787
-0.2954936	appealing to	-0.42596874
-0.2954936	illegal to	-0.30103
-0.2954936	longer to	-0.30103
-0.2954936	muttering to	-0.42596874
-0.2954936	easy to	-0.42596874
-0.2954936	impossible to	-0.42596874
-1.8809475	to walk	-1.2863067
-0.3007406	could walk	-0.30103
-0.60102916	walk more	-1.2863067
-0.99742746	up more	-0.86530143
-0.77660584	needs more	-0.30103
-0.30051425	accomplish more	-0.7781512
-2.397269	<s> and	-1.3424227
-0.8884667	more and	-1.2863067
-0.7671379	down and	-0.7781512
-0.59468687	deer and	-0.30103
-0.29732776	grey and	-1.20412
-0.29732776	slums and	-1.1856365
-0.7671379	young and	-0.42596874
-0.59468687	short and	-0.86530143
-0.29732776	prosecuted and	-0.86530143
-0.29732776	addition and	-0.86530143
-0.29732776	chocolate and	-0.86530143
-0.29732776	masonry and	-0.72699875
-0.29732776	distress and	-0.7781512
-0.29732776	jealousies and	-0.90309
-0.59468687	pleasure and	-0.7781512
-0.59468687	straight and	-0.66900676
-0.29732776	heart and	-0.66900676
-0.29732776	bagpipes and	-0.42596874
-0.29732776	saws and	-0.42596874
-0.29732776	supplies and	-0.42596874
-0.29732776	broccoli and	-0.30103
-0.29732776	strong and	-0.30103
-0.29732776	children and	-0.30103
-1.6584527	and smoke	-1.2863067
-0.30084196	smoke less	-1.2863067
-2.2316794	<s> rake	-1.5797836
-2.4839823	<s> for	-1.2552725
-0.2978294	healthy for	-1.1026623
-1.4314249	you for	-0.86530143
-1.4565716	it for	-1.1026623
-0.59568214	provides for	-1.1856365
-0.7686192	win for	-1.1856365
-0.2978294	transition for	-1.146128
-0.47232908	look for	-0.90309
-0.2978294	experiment for	-0.97003675
-0.2978294	wait for	-1
-0.7686192	place for	-0.7781512
-0.2978294	guard for	-0.97003675
-0.2978294	friend for	-0.8239087
-0.2978294	prepared for	-0.72699875
-0.2978294	clams for	-0.72699875
-0.2978294	mask for	-0.7781512
-0.2978294	wife for	-0.42596874
-0.2978294	ready for	-0.42596874
-0.2978294	trips for	-0.42596874
-0.2978294	demand for	-0.30103
-2.56334	<s> grow	-1.2552725
-0.3007406	weeds grow	-0.30103
-2.3026218	<s> one	-1.50515
-1.6125455	for one	-0.97003675
-0.99742746	just one	-1.1026623
-0.77660584	out one	-0.90309
-2.3053849	<s> two	-1.50515
-0.90170217	only two	-0.42596874
-0.30068263	called two	-0.86530143
-2.5339894	<s> rage	-1.2863067
-2.518661	<s> form	-1.30103
-2.518661	<s> farm	-1.30103
-2.4895377	<s> horn	-1.3290588
-2.2089505	<s> sheet	-1.60206
-2.2395282	<s> ship	-1.5720967
-2.3467855	<s> left	-1.4673615
-2.3570445	<s> sticks	-1.4573772
-2.6013637	<s> glow	-1.2218487
-2.518661	<s> born	-1.30103
-2.4895377	<s> corn	-1.3290588
-2.3763506	<s> right	-1.4366926
-0.3007406	married right	-0.42596874
-3.5278678	<s> well	-0.30103
-0.9949217	do well	-0.90309
-0.77509713	expect well	-1.146128
-0.9949217	very well	-0.8239087
-0.77509713	day well	-0.86530143
-0.6000216	went well	-0.86530143
-0.30000958	doing well	-0.66900676
-2.657782	<s> is	-1.0543576
-1.5047021	he is	-0.30103
-1.1253266	she is	-0.98227125
-0.5960144	nothing is	-1.0170333
-0.5960144	house is	-1.20412
-0.2979967	alfalfa is	-1.1026623
-1.0612912	this is	-1.2863067
-0.69142604	there is	-0.8507019
-0.2979967	travel is	-0.90309
-0.47257915	life is	-0.86530143
-0.2979967	hair is	-0.8239087
-0.2979967	plot is	-0.86530143
-0.2979967	coast is	-0.7781512
-0.5960144	street is	-0.5228787
-0.2979967	attendance is	-0.66900676
-0.2979967	highway is	-0.66900676
-0.2979967	drift is	-0.66900676
-0.2979967	future is	-0.30103
-0.2979967	cement is	-0.30103
-1.7113259	is nearly	-0.30103
-0.30084196	nearly ninety	-0.30103
-2.3974369	<s> three	-1.4149734
-0.30068263	ninety three	-0.30103
-0.6013655	saw three	-0.30103
-1.6125455	for years	-0.8239087
-0.77660584	three years	-0.30103
-0.77660584	later years	-1.1249387
-0.30051425	last years	-0.72699875
-2.7712226	<s> old	-0.75332767
-1.6548377	and old	-0.42596874
-0.90170217	years old	-0.30103
-2.1803849	<s> feed	-1.6300887
-2.580362	<s> rain	-1.2388821
-0.3007406	uninterrupted rain	-0.86530143
-2.4895377	<s> tip	-1.3290588
-2.3974369	<s> down	-1.4149734
-0.6013655	working down	-0.5228787
-0.77711	sat down	-0.7781512
-2.56334	<s> store	-1.2552725
-2.1815546	the store	-0.66900676
-1.5529296	he dresses	-1.2863067
-0.3007406	dresses himself	-1.2863067
-0.6014813	crucified himself	-0.30103
-2.4135826	<s> in	-1.0543576
-1.660465	is in	-0.30103
-0.59734607	himself in	-1.2863067
-0.2986666	modern in	-1.20412
-0.2986666	higher in	-1.1249387
-1.4687974	it in	-0.66900676
-0.2986666	damage in	-0.86530143
-0.2986666	participate in	-0.86530143
-0.2986666	ruled in	-0.7781512
-0.2986666	upbringing in	-0.8239087
-0.2986666	fire in	-0.8239087
-0.2986666	mistakes in	-0.66900676
-0.2986666	sculpture in	-0.30103
-0.59734607	deal in	-0.42596874
-0.2986666	measured in	-0.30103
-3.5278678	<s> an	-0.30103
-1.0358099	have an	-0.8808136
-1.4900899	in an	-1.2863067
-1.2461739	be an	-0.75332767
-0.77509713	like an	-0.42596874
-0.6000216	tell an	-0.30103
-0.30000958	provoked an	-0.30103
-1.2535828	an ancient	-1.2863067
-0.3007406	ancient black	-1.2863067
-1.6920764	of black	-0.8239087
-0.601684	black frock	-1.2863067
-2.6994572	<s> coat	-1.1249387
-0.3007406	frock coat	-1.2863067
-2.6199772	<s> grandfather	-1.20412
-0.30084196	grandfather likes	-1.20412
-2.9996793	<s> be	-0.72699875
-0.77309364	often be	-1.2218487
-1.5591964	to be	-1.0280287
-0.4588508	can be	-0.8109438
-0.77309364	will be	-0.8016324
-0.5986817	may be	-0.66900676
-0.29933757	flowers be	-0.66900676
-0.29933757	must be	-0.42596874
-0.29933757	should be	-0.30103
-0.77309364	or be	-0.30103
-0.29933757	cannot be	-0.30103
-1.5529296	be modern	-1.20412
-0.8053123	in his	-0.9294189
-1.6920764	of his	-0.42596874
-0.99906045	his language	-1.20412
-2.518661	<s> torn	-1.30103
-2.0300038	<s> yes	-1.7781513
-2.6811442	<s> sleep	-1.146128
-2.2724228	<s> both	-0.97564065
-0.90233815	both figures	-1.1249387
-0.30084196	figures would	-1.1249387
-1.5854553	to go	-0.8016324
-0.3007406	would go	-1.1249387
-0.7775873	go higher	-1.1249387
-1.4999683	in later	-1.1249387
-0.6013655	trip later	-0.7781512
-0.30068263	weeks later	-0.42596874
-2.6811442	<s> troop	-1.146128
-2.6811442	<s> wish	-1.146128
-2.2239702	<s> ate	-1.5873368
-2.6811442	<s> hear	-1.146128
-2.6394246	<s> pot	-1.1856365
-2.6994572	<s> white	-1.1249387
-1.6561494	and white	-1.20412
-2.5498786	<s> mother	-1.2710668
-0.30084196	mother sews	-1.2710668
-0.30084196	sews yellow	-1.2710668
-0.30084196	yellow gingham	-1.2710668
-0.30084196	gingham aprons	-1.2710668
-1.6744869	<s> i	-0.82105154
-0.47634786	than i	-1.3152704
-1.076096	as i	-0.64345264
-0.9010308	what i	-0.30103
-2.72043	<s> just	-1.1026623
-1.6160122	we just	-0.60206
-1.6903679	i just	-1.1663314
-3.1324613	<s> try	-0.72699875
-0.99855477	just try	-1.1663314
-2.9606874	<s> do	-0.86530143
-1.5811167	to do	-1.0543576
-0.30051425	dad do	-1.0280287
-0.77660584	dont do	-0.86530143
-2.6559103	<s> my	-0.9242793
-0.9957553	do my	-1.1663314
-1.6789638	of my	-0.66900676
-0.9957553	up my	-0.86530143
-0.30017772	suddenly my	-0.9378521
-0.30017772	change my	-0.72699875
-1.1448133	my best	-1.1663314
-2.6771998	<s> deer	-1.146128
-0.77728355	three deer	-0.30103
-2.6811442	<s> group	-1.146128
-2.3893604	<s> cheer	-1.4259686
-2.6811442	<s> thigh	-1.146128
-2.6811442	<s> coupe	-1.146128
-2.2225895	<s> write	-1.5873368
-0.6014813	through write	-0.66900676
-2.70361	<s> area	-1.1249387
-2.6811442	<s> steer	-1.146128
-2.4123225	<s> tile	-1.4036924
-2.518661	<s> select	-1.30103
-2.518661	<s> forward	-1.30103
-1.1448133	my sister	-1.1026623
-0.30084196	sister made	-1.1026623
-2.189326	the flowered	-1.1026623
-0.30084196	flowered curtains	-1.1026623
-2.3339546	<s> much	-1.4771212
-1.4719396	are much	-0.7781512
-0.6013655	through much	-0.30103
-2.6199772	<s> hate	-1.20412
-2.6597836	<s> whoop	-1.1663314
-0.90233815	one side	-1.1026623
-1.6125455	we got	-0.69897
-1.686257	i got	-0.30103
-0.30051425	side got	-1.1026623
-0.9010308	also got	-0.42596874
-0.99906045	got wet	-1.1026623
-2.3570445	<s> shoot	-1.4573772
-2.6597836	<s> slay	-1.1663314
-2.6560278	<s> play	-1.1663314
-1.4120877	can play	-0.30103
-2.4869168	<s> all	-1.0142405
-1.313353	we all	-0.8016324
-0.6003572	received all	-0.5228787
-0.8996909	when all	-1.146128
-1.140197	were all	-0.66900676
-0.9957553	really all	-0.86530143
-3.4078608	<s> big	-0.42596874
-0.99659055	no big	-0.7781512
-2.1525424	the big	-1.1663314
-1.9676887	a big	-0.7781512
-0.99659055	by big	-0.30103
-0.99906045	big baseball	-1.1663314
-0.30084196	baseball players	-1.1663314
-2.9324813	<s> get	-0.90309
-1.8787489	to get	-0.30103
-0.30068263	players get	-1.1663314
-0.7775873	get traded	-1.1663314
-1.6942925	i scrubbed	-1.146128
-2.189326	the floors	-1.146128
-0.30084196	floors thoroughly	-1.146128
-2.4006898	<s> boot	-1.4149734
-2.5835152	<s> rocks	-1.2388821
-2.2316794	<s> witch	-1.5797836
-2.6597836	<s> galore	-1.1663314
-2.6597836	<s> delta	-1.1663314
-2.1345139	<s> she	-0.83006907
-1.7113259	is thinner	-1.1663314
-0.30068263	thinner than	-1.1663314
-0.6013655	quicker than	-0.7781512
-0.30068263	away than	-0.30103
-1.6942925	i am	-1.3152704
-2.3269675	<s> nothing	-1.1856365
-1.6992178	is as	-1.20412
-0.30034596	offensive as	-1.0170333
-0.60069305	fail as	-0.7781512
-0.30034596	exactly as	-0.86530143
-0.30034596	displayed as	-0.30103
-1.7088249	is offensive	-0.30103
-1.0774475	as offensive	-1.20412
-1.0780541	as innocence	-1.20412
-2.5038552	<s> menu	-1.3152704
-2.70361	<s> peer	-1.1249387
-2.281051	<s> lip	-1.5314789
-1.6193168	we gathered	-1.1663314
-0.30084196	gathered shells	-1.1663314
-0.2998415	shells on	-1.1663314
-0.2998415	marshmallows on	-0.9378521
-0.7745954	ride on	-0.30103
-0.2998415	twilight on	-0.86530143
-0.2998415	outdoors on	-0.66900676
-0.2998415	misplaced on	-0.42596874
-0.2998415	picnic on	-0.30103
-0.2998415	put on	-0.30103
-2.189326	the beach	-1.20412
-2.6597836	<s> mere	-1.1663314
-2.436567	<s> pad	-1.3802112
-2.6199772	<s> their	-1.20412
-0.99855477	big house	-0.7781512
-0.3007406	their house	-1.20412
-1.7113259	is grey	-1.20412
-2.6199772	<s> urgent	-1.20412
-2.2794766	<s> four	-1.5314789
-1.8916608	the four	-0.845098
-2.5143979	<s> night	-1
-0.30068263	after night	-1.1026623
-0.9982659	at night	-0.8239087
-0.90233815	night after	-1.1026623
-2.597976	<s> they	-0.56729794
-0.9957553	do they	-0.86530143
-0.8996909	night they	-1.1026623
-0.6003572	where they	-0.72699875
-0.8996909	things they	-0.5228787
-0.30017772	because they	-0.42596874
-0.99906045	they received	-0.90309
-0.601684	received annoying	-1.1026623
-3.4844182	<s> phone	-0.42596874
-0.30068263	annoying phone	-1.1026623
-0.9982659	by phone	-0.8239087
-0.77728355	phone calls	-1.1026623
-0.3007406	bad calls	-0.7781512
-2.6811442	<s> november	-1.146128
-2.7273016	<s> alfalfa	-1.1026623
-1.7113259	is healthy	-1.1026623
-2.4243836	<s> you	-0.8782664
-1.5857651	for you	-1.1026623
-0.8956963	when you	-0.66900676
-1.3967198	can you	-0.42596874
-0.7725942	did you	-0.66900676
-1.0681373	will you	-0.30103
-0.29916975	asked you	-0.86530143
-0.5983474	way you	-0.66900676
-0.47433382	if you	-0.60206
-0.5983474	sure you	-0.8239087
-0.5983474	tell you	-0.7781512
-0.29916975	surrounds you	-0.30103
-2.7273016	<s> mush	-1.1026623
-2.6811442	<s> oscar	-1.146128
-2.3551698	<s> sell	-1.4573772
-0.3007406	hell sell	-0.72699875
-2.3986175	<s> five	-1.4149734
-0.99855477	had five	-0.30103
-2.2239702	<s> pit	-1.5873368
-2.4123225	<s> zero	-1.4036924
-2.2089505	<s> fat	-1.60206
-2.7273016	<s> darn	-1.1026623
-1.5854553	to expect	-0.64345264
-1.6917915	i expect	-1.146128
-1.1448133	well bounce	-1.146128
-0.30084196	bounce back	-1.146128
-2.124766	<s> this	-1.2552725
-0.60102916	play this	-0.30103
-0.30051425	back this	-1.146128
-1.6867584	of this	-0.86530143
-1.0780541	this week	-1.146128
-2.3080144	<s> six	-1.50515
-2.5311751	<s> when	-0.91832995
-0.90193343	when when	-0.30103
-1.2026178	all else	-1.146128
-0.30084196	else fails	-1.146128
-0.30084196	fails use	-1.146128
-0.30084196	use force	-1.146128
-2.3367636	<s> hat	-1.4771212
-2.4492164	<s> seed	-1.3679768
-2.6013637	<s> pitting	-1.2218487
-1.863896	<s> it	-1.0894004
-1.3259403	have it	-0.86530143
-1.454797	you it	-0.7781512
-0.5990163	done it	-0.66900676
-1.663782	of it	-0.8239087
-0.29950544	nailed it	-1.1026623
-0.29950544	kept it	-0.9378521
-0.5990163	confirmation it	-0.66900676
-0.29950544	handle it	-0.66900676
-0.29950544	thought it	-0.30103
-0.9010308	old also	-0.42596874
-1.686257	i also	-0.7781512
-1.4969709	it also	-1.1856365
-0.77660584	job also	-0.7781512
-0.90193343	also provides	-1.1856365
-0.77728355	job provides	-1.146128
-1.6193168	for funds	-1.1856365
-1.8848196	to clear	-1.1856365
-0.30084196	clear slums	-1.1856365
-2.6338036	<s> help	-0.8846066
-1.6548377	and help	-1.1856365
-1.4115121	can help	-1
-0.90233815	help colleges	-1.1856365
-0.30084196	colleges build	-1.1856365
-0.30084196	build dormitories	-1.1856365
-2.7273016	<s> bloat	-1.1026623
-2.9563267	<s> was	-0.7781512
-1.6585203	i was	-0.7781512
-1.1344173	she was	-0.38021123
-1.0190778	it was	-0.96781534
-0.9916031	there was	-0.7781512
-0.29933757	shoes was	-1
-0.29933757	bracelet was	-0.86530143
-0.29933757	luck was	-0.7781512
-0.29933757	pickpocket was	-0.9378521
-0.29933757	range was	-0.72699875
-0.29933757	display was	-0.42596874
-2.1085255	<s> a	-0.89012504
-1.2867166	have a	-0.7781512
-0.88199735	him a	-0.42596874
-1.5534638	and a	-0.30103
-1.2688961	for a	-1
-0.99082375	is a	-0.97003675
-0.5913856	write a	-0.66900676
-0.7622365	get a	-0.90309
-1.0479143	as a	-0.7781512
-0.8871752	on a	-0.7781512
-0.7622365	expect a	-0.7781512
-1.0001268	was a	-0.8808136
-0.7622365	take a	-0.86530143
-0.7622365	not a	-1.2218487
-0.29566002	became a	-1.146128
-1.4028081	are a	-0.30103
-0.7622365	did a	-0.86530143
-0.29566002	allow a	-1.1663314
-1.109862	its a	-0.8239087
-0.29566002	pick a	-0.90309
-0.5913856	bought a	-0.97003675
-0.29566002	toward a	-0.86530143
-0.46909094	makes a	-0.845098
-0.29566002	covers a	-1.1249387
-1.0479143	from a	-0.30103
-0.6856675	had a	-0.60206
-0.29566002	wore a	-0.7781512
-0.5913856	such a	-0.5228787
-0.29566002	even a	-0.8239087
-0.29566002	deserves a	-0.5228787
-0.5913856	paint a	-0.42596874
-0.29566002	postdate a	-0.30103
-0.7622365	or a	-0.42596874
-3.7690406	<s> good	-0.30103
-1.2976377	a good	-0.97003675
-0.77711	look good	-0.8239087
-3.1918304	<s> win	-0.66900676
-1.0771011	good win	-1.1856365
-0.6013655	may win	-0.42596874
-1.6193168	for us	-1.1856365
-1.5511221	he has	-0.8239087
-0.6014813	nothing has	-1.1249387
-0.601684	has been	-1.1249387
-0.3007406	been done	-1.1249387
-0.3007406	weve done	-0.66900676
-2.9734051	<s> yet	-0.86530143
-0.6013655	done yet	-1.1249387
-0.77711	eat yet	-0.66900676
-2.561616	<s> take	-1.2552725
-1.8787489	to take	-1.1249387
-1.0771011	will take	-0.86530143
-0.7775873	take advantage	-1.1249387
-0.7671379	much of	-0.30103
-0.29732776	advantage of	-1.1249387
-0.29732776	period of	-1.146128
-0.59468687	program of	-1.2218487
-0.29732776	roll of	-1.146128
-1.4246516	are of	-0.60206
-0.29732776	pair of	-1
-0.29732776	peck of	-0.90309
-0.7671379	out of	-0.42596874
-0.29732776	gallon of	-0.97003675
-0.59468687	full of	-0.86530143
-0.29732776	fiercest of	-0.86530143
-0.29732776	minute of	-0.8239087
-0.29732776	number of	-0.8239087
-0.29732776	lack of	-0.66900676
-0.59468687	state of	-0.9378521
-0.29732776	largest of	-0.8239087
-0.29732776	pockets of	-0.8239087
-0.59468687	confirmation of	-0.7781512
-0.29732776	lot of	-0.5228787
-0.29732776	part of	-0.66900676
-0.29732776	name of	-0.30103
-0.29732776	lots of	-0.30103
-2.189326	the enabling	-1.1249387
-0.30084196	enabling legislation	-1.1249387
-2.6013637	<s> aluminum	-1.2218487
-0.30084196	aluminum silverware	-1.2218487
-3.2131636	<s> can	-0.42596874
-1.5857651	we can	-0.90309
-1.6546988	i can	-0.50514996
-1.4500208	you can	-0.9378521
-0.8956963	also can	-0.7781512
-0.29916975	silverware can	-1.2218487
-0.5983474	work can	-1
-0.29916975	dance can	-1
-0.5983474	basketball can	-0.7781512
-0.29916975	trespassers can	-0.86530143
-0.5983474	gold can	-0.7781512
-0.29916975	standby can	-0.30103
-1.5529296	be flimsy	-1.2218487
-2.6811442	<s> shy	-1.146128
-2.4242756	<s> cake	-1.3921105
-1.990879	a period	-1.146128
-1.6944788	of transition	-1.146128
-2.977622	<s> me	-0.8239087
-1.8600368	to me	-0.42596874
-1.605694	for me	-1.146128
-0.6003572	took me	-0.90309
-1.2476617	with me	-0.9378521
-0.6003572	fit me	-0.5228787
-2.3213358	<s> there	-1.1856365
-0.60102916	basketball there	-0.86530143
-0.77660584	sat there	-0.42596874
-0.30051425	unfortunately there	-0.30103
-1.990879	a treehouse	-1.146128
-0.77610236	go up	-0.66900676
-0.30034596	treehouse up	-1.146128
-0.30034596	warm up	-0.86530143
-0.30034596	speak up	-0.86530143
-0.30034596	shook up	-0.30103
-2.1815546	the above	-0.7781512
-0.99855477	up above	-1.146128
-2.4242756	<s> nine	-1.3921105
-1.4113693	is not	-1.0334238
-1.5005422	was not	-0.42596874
-1.6943856	a program	-1
-1.6944788	of socialized	-1.2218487
-0.30084196	socialized medicine	-1.2218487
-2.7273016	<s> league	-1.1026623
-2.2046523	<s> at	-1.30103
-1.4969709	was at	-0.30103
-0.30051425	died at	-0.8239087
-0.60102916	sold at	-0.30103
-1.5021505	it eventually	-1.146128
-0.30084196	eventually became	-1.146128
-1.990879	a rather	-1.146128
-0.30084196	rather proud	-1.146128
-0.30084196	proud claim	-1.146128
-2.3893604	<s> seven	-1.4259686
-2.0656486	<s> leak	-1.7429868
-0.90233815	both injuries	-1.2218487
-3.1138973	<s> were	-0.66900676
-1.290932	they were	-0.72699875
-0.30000958	injuries were	-1.2218487
-0.30000958	results were	-0.9378521
-0.30000958	cars were	-0.5228787
-0.77509713	or were	-0.30103
-0.30000958	paintings were	-0.30103
-2.189326	the same	-1.2218487
-0.30084196	same leg	-1.2218487
-2.1815546	the job	-1
-1.0774475	good job	-0.86530143
-0.601684	provides many	-1.146128
-0.30084196	many benefits	-1.146128
-2.4123225	<s> eight	-1.4036924
-2.7273016	<s> top	-1.1026623
-2.7273016	<s> lima	-1.1026623
-2.6394246	<s> vat	-1.1856365
-2.5038552	<s> blow	-1.3152704
-2.6811442	<s> spain	-1.146128
-2.3570445	<s> fill	-1.1563472
-1.990879	a roll	-1.146128
-1.6944788	of wire	-1.146128
-0.30084196	wire lay	-1.146128
-0.30084196	lay near	-1.146128
-3.4990656	<s> wall	-0.42596874
-2.1815546	the wall	-1.146128
-2.6013637	<s> harm	-1.2218487
-1.5529296	he wrapped	-1.146128
-2.189326	the package	-1.146128
-0.30084196	package hastily	-1.146128
-2.4123225	<s> chop	-1.4036924
-2.189326	the books	-1.146128
-2.9206119	<s> are	-0.7781512
-1.5793203	we are	-0.8239087
-1.6148679	and are	-0.30103
-1.2795566	they are	-0.42596874
-1.4452966	you are	-0.66900676
-0.29883426	books are	-1.146128
-0.5976795	people are	-0.7781512
-0.29883426	themselves are	-1.0280287
-0.29883426	reflexes are	-0.9378521
-0.29883426	subtraction are	-0.86530143
-0.29883426	apartments are	-0.8239087
-0.29883426	bongos are	-0.42596874
-0.29883426	wages are	-0.30103
-0.29883426	costumes are	-0.30103
-1.5441519	be very	-1
-1.4943328	was very	-0.7781512
-1.1413623	were very	-0.9378521
-1.4669724	are very	-1.146128
-0.77610236	played very	-0.8239087
-0.99906045	very expensive	-1.146128
-2.63584	<s> did	-0.8846066
-0.3007406	unit did	-0.86530143
-0.7775873	did dad	-1.0280287
-3.074598	<s> academic	-0.7781512
-0.99855477	do academic	-1.0280287
-0.601684	academic bidding	-1.0280287
-2.8701723	<s> shell	-0.97003675
-2.3893604	<s> sin	-1.4259686
-2.8375907	<s> ticker	-1
-2.7523606	<s> tin	-1.0791812
-2.189326	the pair	-1
-1.6944788	of shoes	-1
-2.1815546	the new	-0.66900676
-1.5005422	was new	-1
-1.5441519	he really	-1.1026623
-1.6992178	is really	-0.86530143
-1.4943328	was really	-0.30103
-0.30034596	wed really	-0.90309
-0.30034596	seemed really	-0.42596874
-0.99906045	really crucified	-0.8808136
-1.2535828	he nailed	-1.1026623
-1.990879	a yard	-1.1026623
-0.30084196	yard loss	-1.1026623
-2.7904825	<s> people	-1.0280287
-0.60102916	those people	-0.7781512
-0.77660584	young people	-0.86530143
-0.30051425	elderly people	-0.7781512
-2.9778686	<s> who	-0.86530143
-0.90193343	people who	-1.0280287
-0.601684	who value	-1.0280287
-0.30084196	value themselves	-1.0280287
-1.4743087	are lifes	-1.0280287
-0.30084196	lifes winners	-1.0280287
-2.189326	the owners	-0.97003675
-0.30084196	owners regularly	-0.97003675
-3.0185902	<s> look	-0.8239087
-0.30068263	regularly look	-0.97003675
-0.6013655	didnt look	-0.8239087
-1.6193168	for plumbing	-0.97003675
-3.1324613	<s> leaks	-0.72699875
-0.3007406	plumbing leaks	-0.97003675
-2.8701723	<s> xray	-0.97003675
-2.8701723	<s> lock	-0.97003675
-2.8020182	<s> sand	-1.0280287
-0.6014813	black sand	-0.8239087
-2.7789545	<s> ham	-1.0543576
-2.860653	<s> im	-0.97003675
-0.6013655	think im	-0.86530143
-0.30068263	now im	-0.86530143
-0.7775873	im willing	-0.97003675
-1.8848196	to experiment	-0.97003675
-2.1815546	the first	-0.97003675
-0.99855477	at first	-0.30103
-1.5005422	was time	-0.66900676
-0.6014813	first time	-0.97003675
-2.7789545	<s> although	-1.0543576
-0.6014813	always alone	-1.0543576
-0.6014813	come alone	-0.72699875
-1.6193168	we survive	-1.0543576
-1.2535828	an excellent	-1.0543576
-0.30084196	excellent team	-1.0543576
-2.8701723	<s> nut	-0.97003675
-2.8640919	<s> please	-0.97003675
-1.4728	you please	-0.30103
-0.601684	please open	-0.97003675
-2.189326	the window	-0.97003675
-0.30084196	window quickly	-0.97003675
-3.5767868	<s> will	-0.30103
-1.5412121	he will	-1.1663314
-1.140197	she will	-0.66900676
-1.2925818	they will	-0.86530143
-0.30017772	families will	-0.86530143
-0.30017772	contributions will	-0.72699875
-1.0780541	will allow	-1.1663314
-1.990879	a rare	-1.1663314
-0.30084196	rare lie	-1.1663314
-2.9437351	<s> zulu	-0.90309
-2.6338036	<s> its	-0.58357656
-0.6013655	think its	-0.8239087
-0.30068263	maybe its	-0.30103
-1.1448133	its fun	-0.9378521
-1.8848196	to roast	-0.9378521
-0.30084196	roast marshmallows	-0.9378521
-2.9606874	<s> gas	-0.86530143
-0.9010308	years gas	-0.72699875
-1.9754229	a gas	-0.9378521
-1.6867584	of gas	-0.97003675
-0.90233815	gas burner	-0.9378521
-2.189326	the wait	-1
-1.8809475	to work	-0.72699875
-1.6172115	for work	-1
-0.99906045	very long	-1
-2.9053981	<s> whitecapped	-0.9378521
-0.30084196	whitecapped waves	-0.9378521
-0.30084196	waves covered	-0.9378521
-2.189326	the entire	-0.9378521
-0.30084196	entire bay	-0.9378521
-2.9437351	<s> then	-0.90309
-0.30084196	then wed	-0.90309
-1.3403584	have someplace	-0.90309
-2.7273016	<s> bed	-1.1026623
-2.985787	<s> flicker	-0.86530143
-2.5835152	<s> bread	-1.2388821
-1.1746827	you want	-0.748188
-2.9437351	<s> sicker	-0.90309
-0.90233815	help greg	-0.90309
-1.8848196	to pick	-0.90309
-1.990879	a peck	-0.90309
-1.6944788	of potatoes	-0.90309
-2.378319	<s> fork	-1.4366926
-2.5452995	<s> said	-1.2710668
-1.6903679	i said	-0.30103
-1.4996251	it said	-0.66900676
-1.990879	a calico	-0.90309
-3.1324613	<s> cat	-0.72699875
-0.3007406	calico cat	-0.90309
-1.8809475	to keep	-0.90309
-0.3007406	discussions keep	-0.86530143
-1.5529296	he took	-0.8016324
-1.0771011	me out	-0.90309
-0.90170217	things out	-0.72699875
-0.6013655	fell out	-0.42596874
-0.90170217	one day	-0.90309
-0.77711	every day	-0.66900676
-0.30068263	twelfth day	-0.86530143
-2.5311751	<s> only	-0.8091855
-2.1815546	the only	-0.90309
-0.90233815	only lawyers	-0.97003675
-0.30084196	lawyers love	-0.97003675
-0.30084196	love millionaires	-0.97003675
-2.8701723	<s> litter	-0.97003675
-2.5835152	<s> sink	-1.2388821
-2.6199772	<s> red	-1.20412
-2.8375907	<s> ned	-1
-2.8701723	<s> sit	-0.97003675
-2.8375907	<s> being	-1
-3.4990656	<s> able	-0.42596874
-0.3007406	being able	-1
-1.8848196	to dance	-1
-0.90193343	help too	-1
-0.3007406	drugs too	-0.30103
-2.5038552	<s> hand	-1.3152704
-2.9437351	<s> rest	-0.90309
-2.6199772	<s> those	-0.90309
-0.601684	those musicians	-1
-0.30084196	musicians harmonize	-1
-0.30084196	harmonize marvelously	-1
-2.8988078	<s> most	-0.71600336
-2.1815546	the most	-0.86530143
-2.8319468	<s> young	-0.69897
-0.77728355	most young	-0.86530143
-2.5311751	<s> rise	-1.2863067
-0.77728355	young rise	-0.86530143
-0.601684	rise early	-0.86530143
-0.30068263	early every	-0.86530143
-0.30068263	loved every	-0.8239087
-0.30068263	meals every	-0.66900676
-0.7775873	every morning	-0.86530143
-3.7977047	<s> bought	-0.30103
-1.6172115	we bought	-0.97003675
-0.601684	brown chair	-0.97003675
-2.8988078	<s> quicker	-0.9378521
-0.77728355	much quicker	-0.7781512
-2.9053981	<s> romeo	-0.9378521
-2.9437351	<s> travel	-0.90309
-1.6992178	is about	-0.90309
-1.1986778	all about	-0.86530143
-0.30034596	discover about	-0.86530143
-0.30034596	talked about	-0.72699875
-0.30034596	brought about	-0.90309
-0.90233815	only leisure	-0.90309
-2.9053981	<s> nod	-0.9378521
-1.9832973	a place	-0.7781512
-1.0771011	good place	-0.90309
-0.30068263	gently place	-0.30103
-0.7775873	place though	-0.90309
-0.30084196	though small	-0.90309
-2.9437351	<s> liquor	-0.90309
-2.8072839	<s> beg	-0.80618
-2.635728	<s> that	-0.74036264
-0.6003572	fill that	-0.42596874
-0.6003572	beg that	-0.97003675
-0.30017772	seen that	-0.8239087
-0.30017772	requests that	-0.66900676
-0.30017772	beauty that	-0.30103
-1.2026178	that guard	-0.97003675
-0.90233815	one gallon	-0.97003675
-2.9734051	<s> ride	-0.86530143
-0.6013655	walk ride	-0.30103
-1.4115121	can ride	-0.9378521
-0.7775873	ride stagecoach	-0.9378521
-2.6394246	<s> neat	-1.1856365
-2.6199772	<s> dead	-1.20412
-2.8375907	<s> wit	-1
-1.6942925	i called	-0.86530143
-0.7775873	two different	-0.86530143
-0.30084196	different painters	-0.86530143
-2.985787	<s> stimulating	-0.86530143
-0.30084196	stimulating discussions	-0.86530143
-0.601684	keep students	-0.86530143
-0.30084196	students attention	-0.86530143
-0.90233815	help celebrate	-0.86530143
-0.30034596	celebrate your	-0.86530143
-0.77610236	eat your	-0.66900676
-0.30034596	guarantees your	-0.7781512
-0.30034596	upgrade your	-0.5228787
-0.30034596	reflect your	-0.5228787
-0.77728355	four brothers	-0.86530143
-0.99855477	your brothers	-0.86530143
-0.601684	brothers success	-0.86530143
-2.985787	<s> lake	-0.86530143
-2.9053981	<s> thread	-0.9378521
-2.9734051	<s> dont	-0.86530143
-1.6903679	i dont	-0.8239087
-0.9982659	just dont	-0.30103
-0.99906045	do charlies	-0.86530143
-0.30084196	charlies dirty	-0.86530143
-0.30084196	dirty dishes	-0.86530143
-2.4756773	<s> sew	-1.3424227
-2.7523606	<s> sort	-1.0791812
-2.985787	<s> catch	-0.86530143
-1.5500919	he played	-0.86530143
-1.6548377	and played	-0.66900676
-0.6013655	has played	-0.8239087
-3.074598	<s> basketball	-0.7781512
-0.77728355	played basketball	-0.86530143
-0.99906045	there while	-0.86530143
-0.3007406	while working	-0.86530143
-0.3007406	credit working	-0.5228787
-0.601684	working toward	-0.86530143
-1.990879	a law	-0.86530143
-0.30084196	law degree	-0.86530143
-2.985787	<s> coconut	-0.86530143
-0.30084196	coconut cream	-0.86530143
-0.30084196	cream pie	-0.86530143
-1.1437023	she makes	-0.42596874
-0.30068263	pie makes	-0.86530143
-0.30068263	straw makes	-0.8239087
-1.990879	a nice	-0.86530143
-0.30084196	nice dessert	-0.86530143
-1.6193168	we selected	-0.86530143
-0.30084196	selected places	-0.86530143
-0.3007406	places where	-0.86530143
-0.6014813	know where	-0.72699875
-0.601684	where families	-0.86530143
-1.5529296	be welcome	-0.86530143
-2.985787	<s> cakes	-0.86530143
-2.4492164	<s> bill	-1.3679768
-0.7775873	most accomplished	-0.86530143
-0.30084196	accomplished artists	-0.86530143
-0.30084196	artists obtain	-0.86530143
-0.30084196	obtain popularity	-0.86530143
-2.6994572	<s> short	-1.1249387
-1.7088249	is short	-0.86530143
-2.985787	<s> shin	-0.86530143
-2.9734051	<s> some	-0.86530143
-1.6548377	and some	-0.42596874
-0.30068263	definitely some	-0.86530143
-0.7775873	some prefer	-0.86530143
-2.189326	the traditional	-0.86530143
-0.30084196	traditional steel	-0.86530143
-0.30084196	steel kind	-0.86530143
-2.70361	<s> cork	-1.1249387
-2.7523606	<s> weep	-1.0791812
-2.985787	<s> biblical	-0.86530143
-0.30084196	biblical scholars	-0.86530143
-0.30084196	scholars argue	-0.86530143
-0.30084196	argue history	-0.86530143
-2.985787	<s> rid	-0.86530143
-2.985787	<s> quart	-0.86530143
-2.985787	<s> shot	-0.86530143
-1.7113259	is definitely	-0.86530143
-0.7775873	some ligament	-0.86530143
-0.30084196	ligament damage	-0.86530143
-0.99906045	his knee	-0.86530143
-2.985787	<s> sheep	-0.86530143
-2.985787	<s> snort	-0.86530143
-2.985787	<s> pork	-0.86530143
-2.1815546	the fact	-0.5228787
-1.5008287	in fact	-0.86530143
-0.6013655	fact our	-0.86530143
-0.9526815	with our	-0.72699875
-0.30068263	obtaining our	-0.7781512
-0.90233815	our whole	-0.86530143
-0.30084196	whole defensive	-0.86530143
-0.30084196	defensive unit	-0.86530143
-2.985787	<s> sketch	-0.86530143
-0.601684	who knows	-0.86530143
-0.30068263	knows what	-0.86530143
-0.6013655	thats what	-0.71600336
-0.6013655	sure what	-0.30103
-0.90233815	what youll	-0.86530143
-0.30084196	youll discover	-0.86530143
-0.99906045	about yourself	-0.86530143
-2.518661	<s> blend	-1.30103
-2.985787	<s> shed	-0.86530143
-1.5005422	it looked	-0.42596874
-0.6014813	brothers looked	-0.86530143
-0.601684	looked identical	-0.86530143
-2.9778686	<s> critical	-0.86530143
-0.3007406	gained critical	-0.90309
-0.601684	critical equipment	-0.86530143
-0.30068263	equipment needs	-0.86530143
-0.30068263	household needs	-0.30103
-0.30068263	plant needs	-0.30103
-0.7775873	needs proper	-0.86530143
-0.30084196	proper maintenance	-0.86530143
-2.5498786	<s> see	-1.2710668
-2.985787	<s> shop	-0.86530143
-2.5980787	<s> heat	-1.2218487
-1.6920764	of heat	-0.66900676
-2.9053981	<s> suddenly	-0.9378521
-1.1448133	my reflexes	-0.9378521
-1.4743087	are gone	-0.9378521
-2.9053981	<s> gill	-0.9378521
-2.985787	<s> show	-0.86530143
-2.8988078	<s> read	-0.9378521
-1.4120877	can read	-0.60206
-2.189326	the results	-0.9378521
-0.99906045	very disappointing	-0.9378521
-2.985787	<s> tug	-0.86530143
-2.5339894	<s> cash	-1.2863067
-2.985787	<s> stretch	-0.86530143
-2.5498786	<s> steak	-1.2710668
-2.985787	<s> ray	-0.86530143
-2.985787	<s> fort	-0.86530143
-2.985787	<s> lee	-0.86530143
-2.6013637	<s> hold	-1.2218487
-2.9053981	<s> ive	-0.9378521
-0.30084196	ive kept	-0.9378521
-3.2059355	<s> with	-0.5228787
-1.4839377	it with	-0.9378521
-0.29967347	compliance with	-0.9378521
-0.29967347	pleased with	-0.7781512
-0.29967347	popular with	-0.7781512
-0.29967347	laced with	-0.86530143
-0.29967347	disappointed with	-0.66900676
-0.29967347	canteen with	-0.42596874
-0.59935117	deal with	-0.42596874
-1.0780541	me ever	-0.9378521
-0.30084196	ever since	-0.9378521
-2.8375907	<s> thats	-0.7781512
-2.9734051	<s> life	-0.86530143
-1.1437023	my life	-0.66900676
-0.90170217	what life	-0.86530143
-2.985787	<s> shred	-0.86530143
-2.985787	<s> sight	-0.86530143
-2.189326	the fish	-0.86530143
-0.30084196	fish swam	-0.86530143
-0.30084196	swam across	-0.86530143
-2.189326	the pond	-0.86530143
-1.1448133	she doesnt	-0.86530143
-1.6903679	i like	-0.42596874
-0.6013655	looked like	-0.42596874
-0.30068263	doesnt like	-0.86530143
-1.5021505	it hanging	-0.86530143
-0.30084196	hanging around	-0.86530143
-2.7523606	<s> tort	-1.0791812
-3.0845146	<s> meats	-0.7781512
-1.6584527	and precious	-0.86530143
-2.5469596	<s> eat	-0.97003675
-1.4728	you eat	-0.66900676
-2.9778686	<s> sport	-0.86530143
-0.3007406	entertaining sport	-0.7781512
-0.90233815	people participate	-0.86530143
-1.5023375	in athletic	-0.86530143
-0.30084196	athletic activities	-0.86530143
-2.985787	<s> trespassers	-0.86530143
-1.5529296	be prosecuted	-0.86530143
-1.6584527	and fined	-0.86530143
-2.9053981	<s> etiquette	-0.9378521
-0.30084196	etiquette mandates	-0.9378521
-0.30084196	mandates compliance	-0.9378521
-1.2535828	with existing	-0.9378521
-0.30084196	existing regulations	-0.9378521
-0.7775873	quick touchdown	-0.9378521
-0.30084196	touchdown resulted	-0.9378521
-2.1815546	the little	-0.86530143
-0.6014813	still little	-0.30103
-0.601684	little girls	-0.86530143
-0.30084196	girls cut	-0.86530143
-0.30084196	cut lacy	-0.86530143
-0.30084196	lacy valentines	-0.86530143
-2.4895377	<s> geese	-1.3290588
-2.985787	<s> mill	-0.86530143
-2.985787	<s> barbs	-0.86530143
-3.074598	<s> gold	-0.7781512
-0.3007406	barbs gold	-0.86530143
-0.601684	gold bracelet	-0.86530143
-1.990879	a graduation	-0.86530143
-0.30084196	graduation present	-0.86530143
-2.4123225	<s> reap	-1.4036924
-2.985787	<s> dill	-0.86530143
-2.985787	<s> lend	-0.86530143
-2.985787	<s> foe	-0.86530143
-1.5529296	he asked	-0.86530143
-1.990879	a loan	-0.86530143
-0.99855477	they make	-0.69897
-0.77728355	phone make	-0.8239087
-3.0908835	<s> any	-0.72699875
-1.8661851	to any	-0.86530143
-1.6091063	for any	-0.42596874
-1.4943328	it any	-0.66900676
-0.77610236	make any	-0.86530143
-0.99855477	any money	-0.86530143
-0.3007406	save money	-0.30103
-2.985787	<s> toe	-0.86530143
-2.985787	<s> threat	-0.86530143
-2.985787	<s> port	-0.86530143
-1.6942925	i scream	-0.86530143
-1.8848196	to warm	-0.86530143
-1.1448133	my voice	-0.86530143
-2.7273016	<s> rip	-1.1026623
-2.7523606	<s> wise	-1.0791812
-1.6917915	i think	-0.86530143
-0.77728355	dont think	-0.8239087
-2.9365416	<s> full	-0.90309
-0.77728355	im full	-0.86530143
-1.0780541	this stuff	-0.86530143
-2.985787	<s> bend	-0.86530143
-2.985787	<s> muck	-0.86530143
-2.985787	<s> snake	-0.86530143
-1.6942925	i havent	-0.8239087
-0.30084196	havent seen	-0.8239087
-1.2026178	that friend	-0.8239087
-3.0323513	<s> bumper	-0.8239087
-1.2535828	an entertaining	-0.7781512
-3.0323513	<s> ash	-0.8239087
-3.074598	<s> fit	-0.7781512
-0.6014813	never fit	-0.5228787
-3.0323513	<s> sheer	-0.8239087
-0.99906045	at twilight	-0.86530143
-2.189326	the twelfth	-0.86530143
-1.3403584	have chablis	-0.86530143
-2.6199772	<s> hash	-1.20412
-3.0845146	<s> worse	-0.7781512
-0.30084196	worse luck	-0.7781512
-1.7088249	is still	-0.30103
-1.5005422	was still	-0.7781512
-1.8809475	to come	-0.7781512
-1.4728	you come	-0.72699875
-2.189326	the golfing	-0.7781512
-0.30084196	golfing fathers	-0.7781512
-0.30084196	fathers ruled	-0.7781512
-0.99906045	his favor	-0.7781512
-2.5339894	<s> hail	-1.2863067
-3.0845146	<s> code	-0.7781512
-3.0845146	<s> elderly	-0.7781512
-0.7775873	often excluded	-0.7781512
-3.0323513	<s> beam	-0.8239087
-1.5529296	he remains	-0.86530143
-2.189326	the fiercest	-0.86530143
-1.6944788	of competitors	-0.86530143
-3.0845146	<s> knife	-0.7781512
-3.0323513	<s> pete	-0.8239087
-2.985787	<s> addition	-0.86530143
-1.6584527	and subtraction	-0.86530143
-1.4743087	are learned	-0.86530143
-0.30084196	learned skills	-0.86530143
-1.5511221	be found	-0.7781512
-0.3007406	soon found	-0.42596874
-0.601684	found anywhere	-0.7781512
-3.0323513	<s> gash	-0.8239087
-1.5021505	was pleased	-0.7781512
-2.1815546	the way	-0.7781512
-0.99855477	any way	-0.66900676
-2.164683	the things	-0.5228787
-0.77660584	get things	-0.30103
-0.60102916	work things	-0.72699875
-0.60102916	way things	-0.7781512
-0.90193343	things went	-0.7781512
-0.3007406	marriage went	-0.86530143
-1.6942925	i loved	-0.8239087
-0.7775873	every minute	-0.8239087
-1.0780541	good idea	-0.8239087
-2.985787	<s> fender	-0.86530143
-3.0845146	<s> woe	-0.7781512
-3.0323513	<s> member	-0.8239087
-3.0323513	<s> beast	-0.8239087
-1.1448133	she suggested	-0.8239087
-1.3403584	have dinner	-0.8239087
-0.9982659	got together	-0.42596874
-0.30068263	dinner together	-0.8239087
-0.6013655	trip together	-0.30103
-2.8701723	<s> so	-0.66900676
-0.6013655	so if	-0.8239087
-0.30068263	fear if	-0.72699875
-0.6013655	practical if	-0.30103
-0.7775873	if anybody	-0.8239087
-0.30084196	anybody solicits	-0.8239087
-0.30034596	solicits by	-0.8239087
-0.30034596	begin by	-0.86530143
-0.60069305	them by	-0.72699875
-0.30034596	rewarded by	-0.30103
-0.30034596	acting by	-0.30103
-0.77728355	not sure	-0.30103
-0.77728355	make sure	-0.8239087
-1.4743087	you mail	-0.8239087
-2.189326	the dough	-0.8239087
-3.0845146	<s> ambidextrous	-0.7781512
-0.30084196	ambidextrous pickpockets	-0.7781512
-0.30084196	pickpockets accomplish	-0.7781512
-3.0323513	<s> guess	-0.8239087
-1.990879	a wedding	-0.86530143
-0.30084196	wedding trip	-0.64345264
-2.471814	<s> her	-0.86530143
-0.77711	win her	-0.42596874
-0.30068263	outgrew her	-0.8239087
-0.99906045	her dark	-0.8239087
-0.30084196	dark hair	-0.8239087
-1.7113259	is combed	-0.8239087
-0.30084196	combed casually	-0.8239087
-3.2124996	<s> seam	-0.66900676
-3.0323513	<s> beep	-0.8239087
-1.5511221	be quite	-0.7781512
-1.4728	are quite	-0.30103
-0.601684	quite vocal	-0.7781512
-1.5021505	it requires	-0.7781512
-0.99906045	big investment	-0.7781512
-1.2026178	that pickpocket	-0.9378521
-1.5021505	was caught	-0.9378521
-0.30084196	caught redhanded	-0.9378521
-3.1438096	<s> mock	-0.72699875
-2.6394246	<s> dock	-1.1856365
-2.9365416	<s> sea	-0.90309
-0.3007406	resemble sea	-0.5228787
-3.0323513	<s> grandmother	-0.8239087
-0.30084196	grandmother outgrew	-0.8239087
-0.99906045	her upbringing	-0.8239087
-1.5023375	in petticoats	-0.8239087
-2.189326	the sun	-0.8239087
-0.30084196	sun died	-0.8239087
-3.0845146	<s> ember	-0.7781512
-2.6394246	<s> seat	-1.1856365
-3.0845146	<s> food	-0.7781512
-3.0845146	<s> reef	-0.7781512
-1.990879	a fire	-0.8239087
-1.5023375	in straw	-0.8239087
-0.7775873	quick blaze	-0.8239087
-3.0845146	<s> sender	-0.7781512
-0.99906045	her classical	-0.90309
-0.30084196	classical performance	-0.90309
-0.30084196	performance gained	-0.90309
-0.601684	critical acclaim	-0.90309
-0.99906045	her position	-0.86530143
-0.90193343	also covers	-0.7781512
-0.3007406	position covers	-0.86530143
-1.990879	a number	-1.1249387
-1.6944788	of daily	-0.86530143
-0.30084196	daily tasks	-0.86530143
-0.30084196	tasks common	-0.86530143
-0.99906045	any social	-0.86530143
-0.30084196	social director	-0.86530143
-2.189326	the marriage	-0.86530143
-1.140197	well from	-0.86530143
-0.30017772	behavior from	-0.72699875
-0.30017772	coming from	-0.72699875
-0.30017772	assaults from	-0.7781512
-0.30017772	drenched from	-0.86530143
-0.30017772	original from	-0.30103
-2.1815546	the start	-0.86530143
-0.90193343	our start	-0.66900676
-1.8809475	to tell	-0.30103
-1.6917915	i tell	-0.7781512
-1.5021505	was wonderful	-0.7781512
-3.0845146	<s> renter	-0.7781512
-2.6394246	<s> row	-1.1856365
-3.0845146	<s> lender	-0.7781512
-3.0845146	<s> ape	-0.7781512
-1.6917915	i didnt	-0.72699875
-0.99855477	just didnt	-0.8239087
-3.0323513	<s> forks	-0.8239087
-3.1438096	<s> tender	-0.72699875
-3.0323513	<s> tea	-0.8239087
-0.99906045	very popular	-0.7781512
-0.90233815	our fans	-0.7781512
-3.0845146	<s> timber	-0.7781512
-2.7523606	<s> leap	-1.0791812
-3.0845146	<s> catastrophic	-0.7781512
-0.30084196	catastrophic economic	-0.7781512
-0.30084196	economic cutbacks	-0.7781512
-0.30084196	cutbacks neglect	-0.7781512
-2.189326	the poor	-0.7781512
-2.8701723	<s> tail	-0.97003675
-3.0323513	<s> bender	-0.8239087
-2.4895377	<s> ache	-1.3290588
-3.0323513	<s> center	-0.8239087
-3.0845146	<s> mom	-0.7781512
-0.30084196	mom strongly	-0.7781512
-0.30084196	strongly dislikes	-0.7781512
-0.30084196	dislikes appetizers	-0.7781512
-3.0323513	<s> beef	-0.8239087
-3.0323513	<s> temper	-0.8239087
-2.7062483	<s> had	-1.1026623
-1.6091063	we had	-0.30103
-1.6821845	i had	-0.72699875
-0.30034596	finger had	-0.72699875
-0.30034596	kat had	-0.30103
-0.99906045	no desire	-0.72699875
-1.8848196	to change	-0.72699875
-1.1448133	my ways	-0.72699875
-2.6199772	<s> wax	-1.20412
-2.9053981	<s> pet	-0.9378521
-3.0845146	<s> aid	-0.7781512
-3.1438096	<s> knock	-0.72699875
-3.1438096	<s> lies	-0.72699875
-3.0845146	<s> cheese	-0.7781512
-3.0323513	<s> hatch	-0.8239087
-2.189326	the lack	-0.66900676
-0.601684	heat compounded	-0.66900676
-2.189326	the tenants	-0.66900676
-0.3007406	tenants grievances	-0.66900676
-0.3007406	personal grievances	-0.90309
-2.5835152	<s> bunch	-1.2388821
-0.99906045	any contributions	-0.72699875
-1.5529296	be greatly	-0.72699875
-0.30084196	greatly appreciated	-0.72699875
-2.6013637	<s> ease	-1.2218487
-2.7789545	<s> add	-1.0543576
-2.985787	<s> chocolate	-0.86530143
-1.6584527	and roses	-0.86530143
-0.3007406	roses never	-0.86530143
-0.3007406	theyll never	-0.5228787
-0.601684	never fail	-0.64345264
-1.990879	a romantic	-0.7781512
-0.30084196	romantic gift	-0.7781512
-2.189326	the legislature	-0.9378521
-0.30084196	legislature met	-0.9378521
-3.7977047	<s> judge	-0.30103
-1.8809475	to judge	-0.9378521
-1.89563	the state	-0.7781512
-1.6944788	of public	-0.9378521
-0.30084196	public education	-0.9378521
-2.189326	the largest	-0.8239087
-0.7775873	four states	-0.8239087
-3.1438096	<s> peas	-0.72699875
-3.1438096	<s> bun	-0.72699875
-3.1438096	<s> punch	-0.72699875
-3.0845146	<s> ail	-0.7781512
-2.985787	<s> begin	-0.86530143
-0.99906045	by trying	-0.86530143
-1.8848196	to speak	-0.86530143
-2.7789545	<s> tall	-1.0543576
-3.1438096	<s> range	-0.72699875
-1.990879	a vital	-0.72699875
-0.30084196	vital detail	-0.72699875
-3.1438096	<s> pill	-0.72699875
-3.1438096	<s> racks	-0.72699875
-2.189326	the structures	-0.8239087
-0.30084196	structures housing	-0.8239087
-2.189326	the apartments	-0.8239087
-1.6944788	of masonry	-0.72699875
-1.6584527	and frame	-0.72699875
-0.30084196	frame construction	-0.72699875
-3.1438096	<s> aches	-0.72699875
-3.0845146	<s> lit	-0.7781512
-2.189326	the singers	-0.72699875
-0.30084196	singers finger	-0.72699875
-1.990879	a splinter	-0.72699875
-2.985787	<s> now	-0.86530143
-0.7775873	im living	-0.86530143
-0.30084196	living exactly	-0.86530143
-1.6942925	i choose	-0.7781512
-3.1438096	<s> duck	-0.72699875
-3.1438096	<s> arm	-0.72699875
-1.6942925	i wanted	-0.72699875
-1.2535828	an actress	-0.72699875
-2.8988078	<s> fell	-0.9378521
-1.5005422	it fell	-0.42596874
-0.601684	academic aptitude	-0.7781512
-0.30084196	aptitude guarantees	-0.7781512
-0.99906045	your diploma	-0.7781512
-3.1438096	<s> charm	-0.72699875
-1.990879	a great	-0.72699875
-0.30084196	great meeting	-0.72699875
-1.5529296	be prepared	-0.72699875
-1.6193168	for odd	-0.72699875
-0.30084196	odd behavior	-0.72699875
-1.0780541	from friends	-0.72699875
-3.0323513	<s> mile	-0.8239087
-3.0845146	<s> rakes	-0.7781512
-1.6193168	we talked	-0.72699875
-2.189326	the situation	-0.72699875
-1.6920764	of other	-0.7781512
-0.77728355	makes other	-0.42596874
-0.601684	other items	-0.7781512
-0.99906045	no fear	-0.72699875
-3.4844182	<s> sat	-0.42596874
-0.9982659	just sat	-0.42596874
-1.2013488	all sat	-0.7781512
-1.6584527	and relaxed	-0.7781512
-2.5038552	<s> hall	-1.3152704
-3.0845146	<s> sake	-0.7781512
-1.6172115	we know	-0.90309
-0.6014813	didnt know	-0.72699875
-1.1448133	were coming	-0.72699875
-1.6193168	for pockets	-0.8239087
-3.1438096	<s> hell	-0.72699875
-0.6014813	sell them	-0.72699875
-0.77728355	like them	-0.42596874
-1.89563	the box	-0.8239087
-2.189326	the plot	-0.86530143
-1.7113259	is laced	-0.86530143
-1.2535828	with mysterious	-0.86530143
-0.30084196	mysterious incidents	-0.86530143
-1.6193168	we shelled	-0.72699875
-0.30084196	shelled clams	-0.72699875
-2.189326	the chowder	-0.72699875
-1.6193168	we experience	-0.7781512
-0.30084196	experience distress	-0.7781512
-1.6584527	and frustration	-0.7781512
-0.30084196	frustration obtaining	-0.7781512
-0.90233815	our degrees	-0.7781512
-3.0845146	<s> ticks	-0.7781512
-2.189326	the prowler	-0.7781512
-0.30084196	prowler wore	-0.7781512
-1.990879	a ski	-0.7781512
-0.30084196	ski mask	-0.7781512
-1.6193168	for disguise	-0.7781512
-0.99855477	no confirmation	-0.7781512
-0.6014813	cable confirmation	-0.66900676
-1.7088249	is such	-0.5228787
-1.6920764	of such	-0.7781512
-0.601684	such massive	-0.7781512
-0.30084196	massive assaults	-0.7781512
-1.0780541	from independent	-0.7781512
-0.30084196	independent sources	-0.7781512
-3.0845146	<s> chap	-0.7781512
-3.1438096	<s> lax	-0.72699875
-3.7977047	<s> score	-0.30103
-1.4120877	can score	-0.90309
-3.1438096	<s> munch	-0.72699875
-1.5529296	he added	-0.90309
-0.30084196	added brought	-0.90309
-1.6561494	and petty	-0.90309
-0.99855477	about petty	-0.90309
-0.601684	petty jealousies	-0.90309
-0.601684	petty personal	-0.90309
-3.0323513	<s> even	-0.8239087
-1.990879	a simple	-0.8239087
-0.30084196	simple vocabulary	-0.8239087
-0.30084196	vocabulary contains	-0.8239087
-0.30084196	contains symbols	-0.8239087
-3.1438096	<s> end	-0.72699875
-2.189326	the eastern	-0.7781512
-0.30084196	eastern coast	-0.7781512
-1.6193168	for pure	-0.7781512
-1.6172115	for pleasure	-0.42596874
-0.3007406	pure pleasure	-0.7781512
-1.6584527	and excitement	-0.7781512
-3.2124996	<s> dial	-0.66900676
-2.8375907	<s> low	-1
-3.2124996	<s> cold	-0.66900676
-3.3947487	<s> whip	-0.5228787
-1.5198171	a few	-0.6478175
-0.7775873	few bad	-0.7781512
-3.3947487	<s> ink	-0.5228787
-3.2124996	<s> handle	-0.66900676
-3.3947487	<s> theyll	-0.5228787
-1.0780541	me again	-0.5228787
-3.3947487	<s> term	-0.5228787
-3.3947487	<s> wide	-0.5228787
-0.99906045	got drenched	-0.86530143
-2.189326	the uninterrupted	-0.86530143
-3.2124996	<s> pant	-0.66900676
-0.77728355	few may	-0.66900676
-0.3007406	company may	-0.42596874
-1.5511221	be hard	-0.66900676
-1.1441061	its hard	-0.30103
-3.7977047	<s> find	-0.30103
-1.5854553	to find	-0.86530143
-3.0845146	<s> cable	-0.5563025
-0.7775873	said translated	-0.66900676
-3.2124996	<s> weve	-0.66900676
-2.189326	the past	-0.66900676
-3.3947487	<s> burn	-0.5228787
-1.6193168	we knew	-0.66900676
-1.6193168	we werent	-0.66900676
-0.30084196	werent doing	-0.66900676
-3.3947487	<s> upgrade	-0.5228787
-0.99906045	your status	-0.5228787
-1.8848196	to reflect	-0.5228787
-0.99906045	your wealth	-0.5228787
-3.3747268	<s> spring	-0.5228787
-0.3007406	fresh spring	-0.42596874
-3.4990656	<s> street	-0.42596874
-0.6014813	spring street	-0.5228787
-1.4126283	is straight	-0.60206
-0.601684	straight ahead	-0.5228787
-0.601684	store serves	-0.66900676
-0.30084196	serves meals	-0.66900676
-1.2026178	all disappointed	-0.66900676
-1.0780541	will order	-0.66900676
-3.1992362	<s> wine	-0.66900676
-2.1815546	the wine	-0.66900676
-3.2124996	<s> eyes	-0.66900676
-3.3947487	<s> weave	-0.5228787
-2.189326	the family	-0.66900676
