\data\
ngram 1=1562
ngram 2=3302
ngram 3=2741

\1-grams:
-3.5516422	<unk>	0
0	<s>	-1.1479788
-0.58123183	</s>	0
-3.4672444	stick	-0.30103
-3.4672444	except	-0.30103
-2.2165623	in	-0.38818017
-1.9161242	the	-0.30103
-3.4672444	winter	-0.30103
-3.2060418	when	-0.30103
-3.4672444	ooze	-0.30103
-2.7366889	or	-0.30103
-3.2761033	snow	-0.30103
-3.4672444	ice	-0.30103
-3.4672444	prevents	-0.30103
-3.4672444	pat	-0.30103
-2.6703024	up	-0.30103
-3.4672444	meat	-0.30103
-3.0338173	know	-0.30103
-2.4752326	he	-0.30103
-3.2761033	slowly	-0.30103
-3.4672444	takes	-0.30103
-1.9161242	a	-0.31527045
-3.2060418	short	-0.30103
-3.0338173	walk	-0.30103
-3.2761033	open	-0.30103
-3.2761033	air	-0.30103
-3.0338173	each	-0.30103
-2.815087	day	-0.30103
-3.4672444	swarm	-0.30103
-3.4672444	double	-0.30103
-2.910825	no	-0.30103
-3.4672444	storm	-0.30103
-3.4672444	usually	-0.30103
-3.4672444	minus	-0.30103
-3.2761033	several	-0.30103
-3.4672444	buttons	-0.30103
-3.4672444	dug	-0.30103
-2.3709574	you	-0.30103
-3.4672444	wished	-0.30103
-1.8847572	to	-0.31912822
-2.612731	all	-0.30103
-2.910825	about	-0.30103
-2.6703024	my	-0.30103
-3.2761033	grandfather	-0.30103
-3.2761033	knee	-0.30103
-3.4672444	feet	-0.30103
-3.2761033	train	-0.30103
-3.4672444	but	-0.30103
-3.2761033	always	-0.30103
-3.4672444	answers	-0.30103
-3.4672444	banana	-0.30103
-3.4672444	oil	-0.30103
-3.4672444	beat	-0.30103
-3.2761033	quick	-0.30103
-3.2761033	brown	-0.30103
-3.4672444	fox	-0.30103
-3.4672444	jumps	-0.30103
-3.2761033	over	-0.30103
-3.4672444	lazy	-0.30103
-3.4672444	dog	-0.30103
-3.4672444	she	-0.30103
-2.7366889	had	-0.30103
-2.6703024	your	-0.30103
-3.2060418	dark	-0.30103
-3.2761033	suit	-0.30103
-3.4672444	greasy	-0.30103
-3.4672444	wash	-0.30103
-3.0338173	water	-0.30103
-3.4672444	year	-0.30103
-3.4672444	car	-0.30103
-3.4672444	giving	-0.30103
-3.2761033	those	-0.30103
-3.2060418	who	-0.30103
-3.2761033	observe	-0.30103
-2.815087	him	-0.30103
-3.4672444	pronounced	-0.30103
-3.4672444	feeling	-0.30103
-2.0865355	of	-0.3309932
-3.4672444	utmost	-0.30103
-3.4672444	respect	-0.30103
-2.7366889	we	-0.30103
-2.5619059	have	-0.30103
-3.2060418	often	-0.30103
-3.4672444	urged	-0.30103
-2.910825	more	-0.30103
-2.119889	and	-0.30103
-3.4672444	smoke	-0.30103
-3.4672444	less	-0.30103
-3.4672444	rake	-0.30103
-3.4672444	swore	-0.30103
-3.4672444	rave	-0.30103
-2.1752772	for	-0.30103
-3.4672444	sip	-0.30103
-3.2761033	grow	-0.30103
-3.2761033	bit	-0.30103
-3.2761033	chair	-0.30103
-2.7366889	one	-0.30103
-3.4672444	fair	-0.30103
-3.0338173	two	-0.30103
-3.4672444	beta	-0.30103
-3.4672444	rage	-0.30103
-3.2761033	spark	-0.30103
-3.4672444	race	-0.30103
-3.4672444	form	-0.30103
-3.2761033	farm	-0.30103
-3.4672444	raid	-0.30103
-3.4672444	fee	-0.30103
-3.4672444	weed	-0.30103
-3.4672444	bat	-0.30103
-3.4672444	horn	-0.30103
-3.4672444	jagged	-0.30103
-3.4672444	sheet	-0.30103
-3.4672444	bubble	-0.30103
-3.2060418	warm	-0.30103
-3.4672444	ship	-0.30103
-3.2761033	hair	-0.30103
-3.4672444	share	-0.30103
-3.4672444	rate	-0.30103
-3.4672444	goat	-0.30103
-3.4672444	trace	-0.30103
-3.2060418	go	-0.30103
-3.4672444	alpha	-0.30103
-3.4672444	left	-0.30103
-3.4672444	sticks	-0.30103
-3.4672444	trouble	-0.30103
-3.4672444	dagger	-0.30103
-3.2761033	long	-0.30103
-3.4672444	flowing	-0.30103
-3.4672444	beard	-0.30103
-3.4672444	clings	-0.30103
-3.0338173	his	-0.30103
-3.4672444	chin	-0.30103
-3.2761033	slip	-0.30103
-3.4672444	glow	-0.30103
-3.4672444	trade	-0.30103
-3.4672444	range	-0.30103
-3.4672444	stubble	-0.30103
-3.4672444	floor	-0.30103
-3.4672444	bug	-0.30103
-3.2060418	yet	-0.30103
-3.2060418	still	-0.30103
-3.4672444	thinks	-0.30103
-2.5619059	as	-0.30103
-3.4672444	swiftly	-0.30103
-3.2761033	ever	-0.30103
-3.4672444	jacket	-0.30103
-3.4672444	born	-0.30103
-3.4672444	corn	-0.30103
-3.2761033	right	-0.30103
-3.2761033	knew	-0.30103
-2.7366889	well	-0.30103
-2.1560187	is	-0.3148183
-3.4672444	nearly	-0.30103
-3.4672444	ninety	-0.30103
-3.0338173	three	-0.30103
-2.910825	years	-0.30103
-3.0338173	old	-0.30103
-3.4672444	feed	-0.30103
-3.4672444	twice	-0.30103
-3.4672444	plays	-0.30103
-3.4672444	skillfully	-0.30103
-2.5619059	with	-0.30103
-3.4672444	zest	-0.30103
-3.4672444	upon	-0.30103
-2.910825	our	-0.30103
-3.2761033	small	-0.30103
-3.4672444	organ	-0.30103
-3.2761033	rain	-0.30103
-3.4672444	park	-0.30103
-3.4672444	tip	-0.30103
-3.2060418	down	-0.30103
-3.4672444	gadget	-0.30103
-3.2761033	store	-0.30103
-3.4672444	dresses	-0.30103
-3.2060418	himself	-0.30103
-2.5619059	an	-0.30103
-3.4672444	ancient	-0.30103
-3.2761033	black	-0.30103
-3.4672444	frock	-0.30103
-3.2761033	coat	-0.30103
-3.4672444	likes	-0.30103
-2.4752326	be	-0.30103
-3.4672444	modern	-0.30103
-3.4672444	language	-0.30103
-3.4672444	torn	-0.30103
-3.4672444	speaks	-0.30103
-3.2761033	voice	-0.30103
-3.0338173	just	-0.30103
-3.4672444	cracked	-0.30103
-3.4672444	quivers	-0.30103
-3.4672444	trifle	-0.30103
-3.4672444	trait	-0.30103
-3.4672444	yes	-0.30103
-3.4672444	dressed	-0.30103
-3.2060418	dont	-0.30103
-3.4672444	ask	-0.30103
-2.6703024	me	-0.30103
-3.4672444	carry	-0.30103
-3.4672444	oily	-0.30103
-3.4672444	rag	-0.30103
-3.0338173	like	-0.30103
-2.6703024	that	-0.30103
-3.4672444	ninetythree	-0.30103
-3.4672444	sleep	-0.30103
-3.4672444	pile	-0.30103
-3.4672444	youd	-0.30103
-3.4672444	better	-0.30103
-3.2761033	off	-0.30103
-3.2761033	taking	-0.30103
-3.2761033	cold	-0.30103
-3.4672444	shower	-0.30103
-3.4672444	sway	-0.30103
-3.4672444	both	-0.30103
-3.4672444	figures	-0.30103
-3.4672444	would	-0.30103
-3.2761033	higher	-0.30103
-3.2060418	later	-0.30103
-3.4672444	charlie	-0.30103
-3.4672444	mut	-0.30103
-3.4672444	troop	-0.30103
-3.2060418	here	-0.30103
-3.4672444	wish	-0.30103
-3.4672444	ate	-0.30103
-3.4672444	hear	-0.30103
-3.4672444	pot	-0.30103
-3.2761033	white	-0.30103
-3.4672444	mother	-0.30103
-3.4672444	sews	-0.30103
-3.2761033	yellow	-0.30103
-3.4672444	gingham	-0.30103
-3.4672444	aprons	-0.30103
-2.910825	i	-0.30103
-3.2761033	try	-0.30103
-2.815087	do	-0.30103
-3.2761033	best	-0.30103
-3.2761033	bad	-0.30103
-3.2060418	where	-0.30103
-2.5164106	were	-0.30103
-3.2761033	while	-0.30103
-3.2761033	away	-0.30103
-3.2761033	deer	-0.30103
-3.4672444	droop	-0.30103
-3.4672444	group	-0.30103
-3.2761033	near	-0.30103
-3.4672444	cheer	-0.30103
-3.4672444	thigh	-0.30103
-3.4672444	single	-0.30103
-3.0338173	if	-0.30103
-3.4672444	destroy	-0.30103
-3.4672444	confidence	-0.30103
-3.4672444	banks	-0.30103
-3.4672444	something	-0.30103
-3.4672444	economy	-0.30103
-2.910825	said	-0.30103
-3.4672444	coupe	-0.30103
-3.2761033	write	-0.30103
-3.4672444	approached	-0.30103
-3.4672444	depot	-0.30103
-3.4672444	islands	-0.30103
-2.3411067	are	-0.30103
-3.4672444	sparsely	-0.30103
-3.4672444	populated	-0.30103
-3.4672444	area	-0.30103
-3.4672444	steer	-0.30103
-3.4672444	tile	-0.30103
-3.4672444	select	-0.30103
-3.4672444	sweet	-0.30103
-3.4672444	youre	-0.30103
-3.2761033	used	-0.30103
-3.2761033	being	-0.30103
-2.5164106	on	-0.56427145
-3.4672444	field	-0.30103
-3.4672444	forward	-0.30103
-3.4672444	root	-0.30103
-3.4672444	sister	-0.30103
-3.2761033	made	-0.30103
-3.4672444	flowered	-0.30103
-3.4672444	curtains	-0.30103
-3.4672444	bright	-0.30103
-3.4672444	sunshine	-0.30103
-3.4672444	shimmers	-0.30103
-3.4672444	ocean	-0.30103
-3.4672444	pay	-0.30103
-3.4672444	light	-0.30103
-3.2060418	other	-0.30103
-3.4672444	cases	-0.30103
-2.815087	also	-0.30103
-3.2060418	under	-0.30103
-3.4672444	advisement	-0.30103
-3.2060418	much	-0.30103
-3.4672444	hate	-0.30103
-3.4672444	whoop	-0.30103
-3.4672444	rock	-0.30103
-3.4672444	why	-0.30103
-3.4672444	yell	-0.30103
-3.4672444	worry	-0.30103
-3.4672444	silly	-0.30103
-3.2761033	items	-0.30103
-3.4672444	toot	-0.30103
-3.4672444	knot	-0.30103
-3.4672444	fate	-0.30103
-3.2761033	side	-0.30103
-2.910825	got	-0.30103
-3.4672444	wet	-0.30103
-3.4672444	shoot	-0.30103
-3.2060418	looked	-0.30103
-3.4672444	noticed	-0.30103
-3.4672444	men	-0.30103
-3.4672444	slay	-0.30103
-2.815087	will	-0.30103
-3.4672444	robin	-0.30103
-3.4672444	wear	-0.30103
-3.4672444	lily	-0.30103
-2.4752326	was	-0.30103
-3.4672444	conscious	-0.30103
-3.2060418	time	-0.30103
-3.4672444	prior	-0.30103
-3.2761033	play	-0.30103
-3.4672444	briar	-0.30103
-3.4672444	allow	-0.30103
-3.4672444	rare	-0.30103
-3.4672444	lilyrare	-0.30103
-3.2761033	lie	-0.30103
-3.4672444	shear	-0.30103
-2.910825	big	-0.30103
-3.4672444	baseball	-0.30103
-3.4672444	players	-0.30103
-3.2060418	get	-0.30103
-3.4672444	traded	-0.30103
-3.0338173	this	-0.30103
-3.2761033	easy	-0.30103
-3.2761033	us	-0.30103
-3.2761033	fear	-0.30103
-3.4672444	sprinkle	-0.30103
-3.4672444	snoop	-0.30103
-3.4672444	scrubbed	-0.30103
-3.4672444	floors	-0.30103
-3.4672444	thoroughly	-0.30103
-3.4672444	boot	-0.30103
-3.4672444	rocks	-0.30103
-3.4672444	witch	-0.30103
-3.2761033	though	-0.30103
-3.4672444	galore	-0.30103
-3.4672444	tried	-0.30103
-3.2060418	tell	-0.30103
-2.910825	people	-0.30103
-3.4672444	community	-0.30103
-3.4672444	gnaw	-0.30103
-3.4672444	cycle	-0.30103
-3.4672444	delta	-0.30103
-3.4672444	thinner	-0.30103
-3.0338173	than	-0.30103
-3.4672444	am	-0.30103
-3.4672444	bear	-0.30103
-3.4672444	error	-0.30103
-3.4672444	jungle	-0.30103
-3.4672444	nothing	-0.30103
-3.2761033	offensive	-0.30103
-3.2761033	innocence	-0.30103
-3.4672444	menu	-0.30103
-3.4672444	peer	-0.30103
-3.4672444	lip	-0.30103
-3.4672444	dot	-0.30103
-3.4672444	gathered	-0.30103
-3.4672444	shells	-0.30103
-3.4672444	beach	-0.30103
-3.2761033	feel	-0.30103
-2.4752326	can	-0.39794
-3.4672444	weekend	-0.30103
-3.4672444	tie	-0.30103
-3.4672444	sigh	-0.30103
-3.4672444	mere	-0.30103
-3.4672444	everything	-0.30103
-3.2060418	went	-0.30103
-3.2761033	real	-0.30103
-3.4672444	smooth	-0.30103
-3.4672444	sheriff	-0.30103
-3.4672444	pad	-0.30103
-3.2761033	their	-0.30103
-3.2761033	house	-0.30103
-3.4672444	grey	-0.30103
-3.4672444	grades	-0.30103
-3.4672444	lower	-0.30103
-3.4672444	nancys	-0.30103
-3.4672444	urgent	-0.30103
-3.4672444	humidity	-0.30103
-3.4672444	overwhelming	-0.30103
-2.910825	there	-0.30103
-3.4672444	explore	-0.30103
-2.815087	they	-0.30103
-3.4672444	carried	-0.30103
-3.4672444	stretcher	-0.30103
-3.4672444	validated	-0.30103
-3.4672444	acts	-0.30103
-3.4672444	school	-0.30103
-3.4672444	districts	-0.30103
-3.4672444	loop	-0.30103
-3.4672444	jane	-0.30103
-3.2060418	may	-0.30103
-3.4672444	earn	-0.30103
-3.2060418	money	-0.30103
-2.815087	by	-0.30103
-3.2060418	working	-0.30103
-3.2060418	hard	-0.30103
-3.2060418	back	-0.30103
-3.2761033	four	-0.30103
-3.4672444	fruit	-0.30103
-3.2060418	night	-0.30103
-3.2761033	after	-0.30103
-3.4672444	received	-0.30103
-3.4672444	annoying	-0.30103
-3.2060418	phone	-0.30103
-3.2761033	calls	-0.30103
-3.4672444	hem	-0.30103
-3.4672444	seeds	-0.30103
-3.4672444	sign	-0.30103
-3.4672444	november	-0.30103
-3.4672444	alfalfa	-0.30103
-3.4672444	healthy	-0.30103
-3.4672444	mush	-0.30103
-3.4672444	oscar	-0.30103
-3.2761033	sell	-0.30103
-3.4672444	misguided	-0.30103
-3.4672444	souls	-0.30103
-3.4672444	lost	-0.30103
-3.2060418	way	-0.30103
-3.2761033	five	-0.30103
-3.4672444	losing	-0.30103
-3.4672444	replace	-0.30103
-2.4752326	it	-0.30103
-3.4672444	immediately	-0.30103
-3.4672444	hill	-0.30103
-3.4672444	fitting	-0.30103
-3.4672444	swing	-0.30103
-3.2761033	arm	-0.30103
-3.4672444	high	-0.30103
-3.4672444	pit	-0.30103
-3.4672444	zero	-0.30103
-3.4672444	fat	-0.30103
-3.2761033	thought	-0.30103
-3.4672444	darn	-0.30103
-3.4672444	golf	-0.30103
-3.2761033	expect	-0.30103
-3.4672444	bounce	-0.30103
-3.4672444	week	-0.30103
-3.4672444	spit	-0.30103
-3.4672444	mitten	-0.30103
-3.4672444	six	-0.30103
-3.4672444	else	-0.30103
-3.4672444	fails	-0.30103
-3.4672444	use	-0.30103
-3.4672444	force	-0.30103
-3.2761033	brought	-0.30103
-3.4672444	alimony	-0.30103
-3.4672444	harms	-0.30103
-3.4672444	divorced	-0.30103
-3.4672444	mans	-0.30103
-3.2761033	wealth	-0.30103
-3.4672444	hat	-0.30103
-3.4672444	seed	-0.30103
-3.4672444	sergeant	-0.30103
-3.4672444	carl	-0.30103
-3.4672444	lives	-0.30103
-3.4672444	lovely	-0.30103
-3.2761033	home	-0.30103
-3.4672444	lively	-0.30103
-3.4672444	dart	-0.30103
-3.4672444	hum	-0.30103
-3.4672444	pitting	-0.30103
-3.4672444	reek	-0.30103
-3.2761033	provides	-0.30103
-3.4672444	funds	-0.30103
-3.4672444	clear	-0.30103
-3.4672444	slums	-0.30103
-3.2060418	help	-0.30103
-3.4672444	colleges	-0.30103
-3.4672444	build	-0.30103
-3.4672444	dormitories	-0.30103
-3.2761033	part	-0.30103
-3.4672444	bloat	-0.30103
-3.2060418	good	-0.30103
-3.2060418	win	-0.30103
-3.2761033	has	-0.30103
-3.4672444	been	-0.30103
-3.2761033	done	-0.30103
-3.2060418	take	-0.30103
-3.4672444	advantage	-0.30103
-3.4672444	enabling	-0.30103
-3.4672444	legislation	-0.30103
-3.4672444	aluminum	-0.30103
-3.4672444	silverware	-0.30103
-3.4672444	flimsy	-0.30103
-3.4672444	shy	-0.30103
-3.4672444	lair	-0.30103
-3.4672444	cake	-0.30103
-3.4672444	hitting	-0.30103
-3.4672444	city	-0.30103
-3.4672444	period	-0.30103
-3.4672444	transition	-0.30103
-3.4672444	treehouse	-0.30103
-3.2060418	above	-0.30103
-3.4672444	dolphins	-0.30103
-3.2761033	swam	-0.30103
-3.2761033	around	-0.30103
-3.2761033	boat	-0.30103
-3.4672444	papa	-0.30103
-3.4672444	bran	-0.30103
-3.4672444	brawn	-0.30103
-3.4672444	pretty	-0.30103
-3.4672444	witty	-0.30103
-3.4672444	nine	-0.30103
-3.4672444	written	-0.30103
-3.2761033	hotel	-0.30103
-3.4672444	cart	-0.30103
-3.4672444	box	-0.30103
-3.4672444	contained	-0.30103
-3.4672444	sweaters	-0.30103
-3.4672444	bitten	-0.30103
-3.4672444	lick	-0.30103
-3.2761033	not	-0.30103
-3.4672444	program	-0.30103
-3.4672444	socialized	-0.30103
-3.4672444	medicine	-0.30103
-3.4672444	league	-0.30103
-3.0338173	at	-0.30103
-3.4672444	eventually	-0.30103
-3.4672444	became	-0.30103
-3.4672444	rather	-0.30103
-3.4672444	proud	-0.30103
-3.4672444	claim	-0.30103
-3.2761033	little	-0.30103
-3.4672444	schoolhouse	-0.30103
-3.4672444	stood	-0.30103
-3.2761033	empty	-0.30103
-3.2761033	students	-0.30103
-3.4672444	watched	-0.30103
-3.0338173	out	-0.30103
-3.4672444	kitten	-0.30103
-3.4672444	sitting	-0.30103
-3.4672444	rich	-0.30103
-3.4672444	seven	-0.30103
-3.4672444	leak	-0.30103
-3.4672444	injuries	-0.30103
-3.4672444	same	-0.30103
-3.4672444	leg	-0.30103
-3.4672444	hark	-0.30103
-3.2761033	job	-0.30103
-3.4672444	many	-0.30103
-3.4672444	benefits	-0.30103
-3.4672444	museum	-0.30103
-3.4672444	hires	-0.30103
-3.2761033	musicians	-0.30103
-2.910825	every	-0.30103
-3.4672444	evening	-0.30103
-3.4672444	eight	-0.30103
-3.4672444	echo	-0.30103
-3.4672444	top	-0.30103
-3.4672444	quebec	-0.30103
-3.4672444	mike	-0.30103
-3.4672444	lima	-0.30103
-3.2761033	wore	-0.30103
-3.4672444	fleecy	-0.30103
-3.4672444	woolen	-0.30103
-3.4672444	overalls	-0.30103
-3.4672444	vat	-0.30103
-3.4672444	before	-0.30103
-3.4672444	thursdays	-0.30103
-3.4672444	exam	-0.30103
-3.4672444	review	-0.30103
-3.4672444	formula	-0.30103
-3.4672444	blow	-0.30103
-3.4672444	bell	-0.30103
-3.4672444	rung	-0.30103
-3.0338173	some	-0.30103
-3.2060418	new	-0.30103
-3.4672444	episode	-0.30103
-3.4672444	reported	-0.30103
-3.2761033	heart	-0.30103
-3.4672444	kilo	-0.30103
-3.4672444	knitting	-0.30103
-3.4672444	foxtrot	-0.30103
-3.4672444	further	-0.30103
-3.4672444	proposed	-0.30103
-3.4672444	grants	-0.30103
-3.4672444	unspecified	-0.30103
-3.4672444	sum	-0.30103
-3.4672444	experimental	-0.30103
-3.4672444	hospitals	-0.30103
-3.4672444	spain	-0.30103
-3.4672444	fill	-0.30103
-3.4672444	loyal	-0.30103
-3.4672444	barn	-0.30103
-3.4672444	bite	-0.30103
-3.4672444	roll	-0.30103
-3.4672444	wire	-0.30103
-3.4672444	lay	-0.30103
-3.2761033	wall	-0.30103
-3.4672444	thorn	-0.30103
-3.4672444	harm	-0.30103
-3.4672444	harp	-0.30103
-3.4672444	wrapped	-0.30103
-3.4672444	package	-0.30103
-3.4672444	hastily	-0.30103
-3.4672444	chop	-0.30103
-3.2060418	start	-0.30103
-3.4672444	rode	-0.30103
-3.4672444	horseback	-0.30103
-3.4672444	juliet	-0.30103
-3.4672444	books	-0.30103
-2.910825	very	-0.30103
-3.4672444	expensive	-0.30103
-3.2761033	did	-0.30103
-3.4672444	dad	-0.30103
-3.2761033	academic	-0.30103
-3.4672444	bidding	-0.30103
-3.2761033	attitude	-0.30103
-3.4672444	unbeatable	-0.30103
-3.4672444	dread	-0.30103
-3.4672444	shell	-0.30103
-3.4672444	sin	-0.30103
-3.4672444	ticker	-0.30103
-3.4672444	prospect	-0.30103
-3.4672444	cutting	-0.30103
-3.4672444	spending	-0.30103
-3.4672444	unpleasant	-0.30103
-2.910825	any	-0.30103
-3.4672444	governor	-0.30103
-3.4672444	volunteered	-0.30103
-3.4672444	jump	-0.30103
-3.2060418	first	-0.30103
-3.4672444	uniform	-0.30103
-3.4672444	owner	-0.30103
-3.4672444	shrugged	-0.30103
-3.4672444	tin	-0.30103
-3.4672444	wicked	-0.30103
-3.4672444	pair	-0.30103
-3.4672444	shoes	-0.30103
-3.4672444	zip	-0.30103
-2.815087	really	-0.30103
-3.4672444	crucified	-0.30103
-3.4672444	nailed	-0.30103
-3.4672444	yard	-0.30103
-3.4672444	loss	-0.30103
-3.4672444	slicker	-0.30103
-3.4672444	value	-0.30103
-3.4672444	themselves	-0.30103
-3.4672444	lifes	-0.30103
-3.4672444	winners	-0.30103
-3.4672444	owners	-0.30103
-3.4672444	regularly	-0.30103
-3.2060418	look	-0.30103
-3.4672444	plumbing	-0.30103
-3.2761033	leaks	-0.30103
-3.4672444	nest	-0.30103
-3.4672444	xray	-0.30103
-3.4672444	lock	-0.30103
-3.2761033	sand	-0.30103
-3.4672444	bitter	-0.30103
-3.4672444	ham	-0.30103
-3.2060418	im	-0.30103
-3.4672444	willing	-0.30103
-3.4672444	experiment	-0.30103
-3.4672444	although	-0.30103
-3.2761033	alone	-0.30103
-3.4672444	survive	-0.30103
-3.4672444	excellent	-0.30103
-3.4672444	team	-0.30103
-3.4672444	nut	-0.30103
-3.2761033	please	-0.30103
-3.4672444	window	-0.30103
-3.4672444	quickly	-0.30103
-3.4672444	definitely	-0.30103
-3.4672444	notch	-0.30103
-3.4672444	victor	-0.30103
-3.4672444	zulu	-0.30103
-3.2060418	its	-0.30103
-3.4672444	fun	-0.30103
-3.4672444	roast	-0.30103
-3.4672444	marshmallows	-0.30103
-3.0338173	gas	-0.30103
-3.4672444	burner	-0.30103
-3.4672444	wait	-0.30103
-3.2761033	work	-0.30103
-3.4672444	whitecapped	-0.30103
-3.4672444	waves	-0.30103
-3.4672444	covered	-0.30103
-3.4672444	entire	-0.30103
-3.4672444	bay	-0.30103
-3.4672444	then	-0.30103
-3.4672444	wed	-0.30103
-3.4672444	someplace	-0.30103
-3.4672444	bed	-0.30103
-3.4672444	flicker	-0.30103
-3.4672444	bread	-0.30103
-3.4672444	want	-0.30103
-3.4672444	sicker	-0.30103
-3.4672444	nobody	-0.30103
-3.4672444	expects	-0.30103
-3.4672444	evacuate	-0.30103
-3.4672444	tango	-0.30103
-3.4672444	tread	-0.30103
-3.4672444	dice	-0.30103
-3.4672444	greg	-0.30103
-3.4672444	pick	-0.30103
-3.4672444	peck	-0.30103
-3.4672444	potatoes	-0.30103
-3.4672444	glitter	-0.30103
-3.4672444	fork	-0.30103
-3.4672444	calico	-0.30103
-3.2761033	cat	-0.30103
-3.2761033	keep	-0.30103
-3.4672444	took	-0.30103
-3.2060418	only	-0.30103
-3.4672444	lawyers	-0.30103
-3.4672444	love	-0.30103
-3.4672444	millionaires	-0.30103
-3.4672444	litter	-0.30103
-3.4672444	sink	-0.30103
-3.4672444	red	-0.30103
-3.4672444	ned	-0.30103
-3.4672444	sit	-0.30103
-3.2761033	able	-0.30103
-3.4672444	dance	-0.30103
-3.2761033	too	-0.30103
-3.4672444	hand	-0.30103
-3.4672444	rest	-0.30103
-3.4672444	harmonize	-0.30103
-3.4672444	marvelously	-0.30103
-3.2761033	most	-0.30103
-3.2761033	young	-0.30103
-3.2761033	rise	-0.30103
-3.4672444	early	-0.30103
-3.4672444	morning	-0.30103
-3.4672444	wicker	-0.30103
-3.4672444	sing	-0.30103
-3.2761033	bought	-0.30103
-3.2761033	quicker	-0.30103
-3.4672444	sierra	-0.30103
-3.4672444	romeo	-0.30103
-3.4672444	travel	-0.30103
-3.4672444	leisure	-0.30103
-3.4672444	nod	-0.30103
-3.2060418	place	-0.30103
-3.2761033	nice	-0.30103
-3.4672444	liquor	-0.30103
-3.4672444	beg	-0.30103
-3.4672444	guard	-0.30103
-3.4672444	gallon	-0.30103
-3.4672444	chip	-0.30103
-3.4672444	yankee	-0.30103
-3.2060418	ride	-0.30103
-3.4672444	stagecoach	-0.30103
-3.4672444	dress	-0.30103
-3.4672444	hotels	-0.30103
-3.4672444	available	-0.30103
-3.4672444	nearby	-0.30103
-3.4672444	neat	-0.30103
-3.4672444	dead	-0.30103
-3.4672444	whisky	-0.30103
-3.4672444	wit	-0.30103
-3.4672444	called	-0.30103
-3.4672444	different	-0.30103
-3.4672444	painters	-0.30103
-3.4672444	stimulating	-0.30103
-3.4672444	discussions	-0.30103
-3.4672444	attention	-0.30103
-3.4672444	celebrate	-0.30103
-3.2761033	brothers	-0.30103
-3.4672444	success	-0.30103
-3.4672444	lake	-0.30103
-3.4672444	thread	-0.30103
-3.4672444	fed	-0.30103
-3.4672444	charlies	-0.30103
-3.4672444	dirty	-0.30103
-3.4672444	dishes	-0.30103
-3.4672444	sew	-0.30103
-3.4672444	sort	-0.30103
-3.4672444	catch	-0.30103
-3.4672444	goose	-0.30103
-3.2060418	played	-0.30103
-3.2761033	basketball	-0.30103
-3.4672444	toward	-0.30103
-3.4672444	law	-0.30103
-3.4672444	degree	-0.30103
-3.4672444	coconut	-0.30103
-3.4672444	cream	-0.30103
-3.4672444	pie	-0.30103
-3.2060418	makes	-0.30103
-3.4672444	dessert	-0.30103
-3.4672444	selected	-0.30103
-3.4672444	places	-0.30103
-3.4672444	families	-0.30103
-3.4672444	welcome	-0.30103
-3.4672444	cakes	-0.30103
-3.4672444	bill	-0.30103
-3.4672444	accomplished	-0.30103
-3.4672444	artists	-0.30103
-3.4672444	obtain	-0.30103
-3.4672444	popularity	-0.30103
-3.4672444	shin	-0.30103
-3.4672444	prefer	-0.30103
-3.4672444	traditional	-0.30103
-3.4672444	steel	-0.30103
-3.4672444	kind	-0.30103
-3.4672444	cork	-0.30103
-3.4672444	weep	-0.30103
-3.4672444	biblical	-0.30103
-3.4672444	scholars	-0.30103
-3.4672444	argue	-0.30103
-3.4672444	history	-0.30103
-3.4672444	rid	-0.30103
-3.4672444	quart	-0.30103
-3.4672444	shot	-0.30103
-3.4672444	ligament	-0.30103
-3.4672444	damage	-0.30103
-3.4672444	sheep	-0.30103
-3.4672444	snort	-0.30103
-3.4672444	pork	-0.30103
-3.2761033	fact	-0.30103
-3.4672444	whole	-0.30103
-3.4672444	defensive	-0.30103
-3.4672444	unit	-0.30103
-3.4672444	sketch	-0.30103
-3.4672444	knows	-0.30103
-3.2060418	what	-0.30103
-3.4672444	youll	-0.30103
-3.4672444	discover	-0.30103
-3.4672444	yourself	-0.30103
-3.4672444	blend	-0.30103
-3.4672444	shed	-0.30103
-3.4672444	identical	-0.30103
-3.2761033	critical	-0.30103
-3.4672444	equipment	-0.30103
-3.2060418	needs	-0.30103
-3.4672444	proper	-0.30103
-3.4672444	maintenance	-0.30103
-3.4672444	court	-0.30103
-3.4672444	see	-0.30103
-3.4672444	shop	-0.30103
-3.2761033	heat	-0.30103
-3.4672444	suddenly	-0.30103
-3.4672444	reflexes	-0.30103
-3.4672444	gone	-0.30103
-3.4672444	gill	-0.30103
-3.4672444	show	-0.30103
-3.2761033	read	-0.30103
-3.4672444	results	-0.30103
-3.4672444	disappointing	-0.30103
-3.4672444	tug	-0.30103
-3.4672444	cash	-0.30103
-3.4672444	stretch	-0.30103
-3.4672444	steak	-0.30103
-3.4672444	ray	-0.30103
-3.4672444	fort	-0.30103
-3.4672444	lee	-0.30103
-3.4672444	hold	-0.30103
-3.4672444	ive	-0.30103
-3.4672444	kept	-0.30103
-3.4672444	since	-0.30103
-3.4672444	thats	-0.30103
-3.2060418	life	-0.30103
-3.4672444	decision	-0.30103
-3.4672444	shred	-0.30103
-3.4672444	sight	-0.30103
-3.4672444	fish	-0.30103
-3.4672444	across	-0.30103
-3.4672444	pond	-0.30103
-3.4672444	doesnt	-0.30103
-3.4672444	hanging	-0.30103
-3.4672444	tort	-0.30103
-3.4672444	meats	-0.30103
-3.4672444	precious	-0.30103
-3.2761033	eat	-0.30103
-3.2761033	sport	-0.30103
-3.4672444	participate	-0.30103
-3.4672444	athletic	-0.30103
-3.4672444	activities	-0.30103
-3.4672444	trespassers	-0.30103
-3.4672444	prosecuted	-0.30103
-3.4672444	fined	-0.30103
-3.4672444	etiquette	-0.30103
-3.4672444	mandates	-0.30103
-3.4672444	compliance	-0.30103
-3.4672444	existing	-0.30103
-3.4672444	regulations	-0.30103
-3.4672444	touchdown	-0.30103
-3.4672444	resulted	-0.30103
-3.4672444	girls	-0.30103
-3.4672444	cut	-0.30103
-3.4672444	lacy	-0.30103
-3.4672444	valentines	-0.30103
-3.4672444	geese	-0.30103
-3.4672444	mill	-0.30103
-3.4672444	barbs	-0.30103
-3.2761033	gold	-0.30103
-3.4672444	bracelet	-0.30103
-3.4672444	graduation	-0.30103
-3.4672444	present	-0.30103
-3.4672444	reap	-0.30103
-3.4672444	dill	-0.30103
-3.4672444	lend	-0.30103
-3.4672444	foe	-0.30103
-3.4672444	asked	-0.30103
-3.4672444	loan	-0.30103
-3.2761033	make	-0.30103
-3.4672444	toe	-0.30103
-3.4672444	threat	-0.30103
-3.4672444	port	-0.30103
-3.4672444	scream	-0.30103
-3.4672444	rip	-0.30103
-3.4672444	wise	-0.30103
-3.2761033	think	-0.30103
-3.2761033	full	-0.30103
-3.4672444	stuff	-0.30103
-3.4672444	bend	-0.30103
-3.4672444	muck	-0.30103
-3.4672444	snake	-0.30103
-3.4672444	havent	-0.30103
-3.4672444	seen	-0.30103
-3.4672444	friend	-0.30103
-3.4672444	bumper	-0.30103
-3.4672444	entertaining	-0.30103
-3.4672444	ash	-0.30103
-3.2761033	fit	-0.30103
-3.4672444	sheer	-0.30103
-3.4672444	twilight	-0.30103
-3.4672444	twelfth	-0.30103
-3.4672444	chablis	-0.30103
-3.4672444	hash	-0.30103
-3.4672444	worse	-0.30103
-3.4672444	luck	-0.30103
-3.2761033	come	-0.30103
-3.4672444	golfing	-0.30103
-3.4672444	fathers	-0.30103
-3.4672444	ruled	-0.30103
-3.4672444	favor	-0.30103
-3.4672444	hail	-0.30103
-3.4672444	code	-0.30103
-3.4672444	elderly	-0.30103
-3.4672444	excluded	-0.30103
-3.4672444	beam	-0.30103
-3.4672444	remains	-0.30103
-3.4672444	fiercest	-0.30103
-3.4672444	competitors	-0.30103
-3.4672444	knife	-0.30103
-3.4672444	pete	-0.30103
-3.4672444	addition	-0.30103
-3.4672444	subtraction	-0.30103
-3.4672444	learned	-0.30103
-3.4672444	skills	-0.30103
-3.2761033	found	-0.30103
-3.4672444	anywhere	-0.30103
-3.4672444	gash	-0.30103
-3.4672444	pleased	-0.30103
-3.0338173	things	-0.30103
-3.4672444	loved	-0.30103
-3.4672444	minute	-0.30103
-3.4672444	idea	-0.30103
-3.4672444	fender	-0.30103
-3.4672444	woe	-0.30103
-3.4672444	member	-0.30103
-3.4672444	beast	-0.30103
-3.4672444	suggested	-0.30103
-3.4672444	dinner	-0.30103
-3.2060418	together	-0.30103
-3.4672444	so	-0.30103
-3.4672444	anybody	-0.30103
-3.4672444	solicits	-0.30103
-3.2761033	sure	-0.30103
-3.4672444	mail	-0.30103
-3.4672444	dough	-0.30103
-3.4672444	ambidextrous	-0.30103
-3.4672444	pickpockets	-0.30103
-3.4672444	accomplish	-0.30103
-3.4672444	guess	-0.30103
-3.4672444	wedding	-0.30103
-3.4672444	trip	-0.30103
-3.2060418	her	-0.30103
-3.4672444	combed	-0.30103
-3.4672444	casually	-0.30103
-3.4672444	seam	-0.30103
-3.4672444	beep	-0.30103
-3.2761033	quite	-0.30103
-3.4672444	vocal	-0.30103
-3.4672444	requires	-0.30103
-3.4672444	investment	-0.30103
-3.4672444	pickpocket	-0.30103
-3.4672444	caught	-0.30103
-3.4672444	redhanded	-0.30103
-3.4672444	mock	-0.30103
-3.4672444	dock	-0.30103
-3.2761033	sea	-0.30103
-3.4672444	grandmother	-0.30103
-3.4672444	outgrew	-0.30103
-3.4672444	upbringing	-0.30103
-3.4672444	petticoats	-0.30103
-3.4672444	sun	-0.30103
-3.4672444	died	-0.30103
-3.4672444	ember	-0.30103
-3.4672444	seat	-0.30103
-3.4672444	food	-0.30103
-3.4672444	reef	-0.30103
-3.4672444	fire	-0.30103
-3.4672444	straw	-0.30103
-3.4672444	blaze	-0.30103
-3.4672444	sender	-0.30103
-3.4672444	classical	-0.30103
-3.4672444	performance	-0.30103
-3.4672444	gained	-0.30103
-3.4672444	acclaim	-0.30103
-3.4672444	position	-0.30103
-3.2761033	covers	-0.30103
-3.4672444	number	-0.30103
-3.4672444	daily	-0.30103
-3.4672444	tasks	-0.30103
-3.4672444	common	-0.30103
-3.4672444	social	-0.30103
-3.4672444	director	-0.30103
-3.4672444	marriage	-0.30103
-2.815087	from	-0.30103
-3.4672444	wonderful	-0.30103
-3.4672444	renter	-0.30103
-3.4672444	row	-0.30103
-3.4672444	lender	-0.30103
-3.4672444	ape	-0.30103
-3.2761033	didnt	-0.30103
-3.4672444	forks	-0.30103
-3.4672444	tender	-0.30103
-3.4672444	tea	-0.30103
-3.4672444	popular	-0.30103
-3.4672444	fans	-0.30103
-3.4672444	timber	-0.30103
-3.4672444	leap	-0.30103
-3.4672444	catastrophic	-0.30103
-3.4672444	economic	-0.30103
-3.4672444	cutbacks	-0.30103
-3.4672444	neglect	-0.30103
-3.4672444	poor	-0.30103
-3.4672444	tail	-0.30103
-3.4672444	bender	-0.30103
-3.4672444	ache	-0.30103
-3.4672444	center	-0.30103
-3.4672444	mom	-0.30103
-3.4672444	strongly	-0.30103
-3.4672444	dislikes	-0.30103
-3.4672444	appetizers	-0.30103
-3.4672444	beef	-0.30103
-3.4672444	temper	-0.30103
-3.4672444	desire	-0.30103
-3.4672444	change	-0.30103
-3.4672444	ways	-0.30103
-3.4672444	wax	-0.30103
-3.4672444	pet	-0.30103
-3.4672444	aid	-0.30103
-3.4672444	knock	-0.30103
-3.4672444	lies	-0.30103
-3.4672444	cheese	-0.30103
-3.4672444	hatch	-0.30103
-3.4672444	lack	-0.30103
-3.4672444	compounded	-0.30103
-3.4672444	tenants	-0.30103
-3.2761033	grievances	-0.30103
-3.4672444	bunch	-0.30103
-3.4672444	contributions	-0.30103
-3.4672444	greatly	-0.30103
-3.4672444	appreciated	-0.30103
-3.4672444	ease	-0.30103
-3.4672444	add	-0.30103
-3.4672444	chocolate	-0.30103
-3.4672444	roses	-0.30103
-3.2761033	never	-0.30103
-3.4672444	fail	-0.30103
-3.4672444	romantic	-0.30103
-3.4672444	gift	-0.30103
-3.4672444	legislature	-0.30103
-3.4672444	met	-0.30103
-3.2761033	judge	-0.30103
-3.4672444	state	-0.30103
-3.4672444	public	-0.30103
-3.4672444	education	-0.30103
-3.4672444	largest	-0.30103
-3.4672444	states	-0.30103
-3.4672444	peas	-0.30103
-3.4672444	bun	-0.30103
-3.4672444	punch	-0.30103
-3.4672444	ail	-0.30103
-3.4672444	begin	-0.30103
-3.4672444	trying	-0.30103
-3.4672444	speak	-0.30103
-3.4672444	tall	-0.30103
-3.4672444	vital	-0.30103
-3.4672444	detail	-0.30103
-3.4672444	pill	-0.30103
-3.4672444	racks	-0.30103
-3.4672444	structures	-0.30103
-3.4672444	housing	-0.30103
-3.4672444	apartments	-0.30103
-3.4672444	masonry	-0.30103
-3.4672444	frame	-0.30103
-3.4672444	construction	-0.30103
-3.4672444	aches	-0.30103
-3.4672444	lit	-0.30103
-3.4672444	singers	-0.30103
-3.4672444	finger	-0.30103
-3.4672444	splinter	-0.30103
-3.4672444	now	-0.30103
-3.4672444	living	-0.30103
-3.4672444	exactly	-0.30103
-3.4672444	choose	-0.30103
-3.4672444	duck	-0.30103
-3.4672444	wanted	-0.30103
-3.4672444	actress	-0.30103
-3.2761033	fell	-0.30103
-3.4672444	aptitude	-0.30103
-3.4672444	guarantees	-0.30103
-3.4672444	diploma	-0.30103
-3.4672444	charm	-0.30103
-3.4672444	great	-0.30103
-3.4672444	meeting	-0.30103
-3.4672444	prepared	-0.30103
-3.4672444	odd	-0.30103
-3.4672444	behavior	-0.30103
-3.4672444	friends	-0.30103
-3.4672444	mile	-0.30103
-3.4672444	rakes	-0.30103
-3.4672444	talked	-0.30103
-3.4672444	situation	-0.30103
-3.2060418	sat	-0.30103
-3.4672444	relaxed	-0.30103
-3.4672444	hall	-0.30103
-3.4672444	sake	-0.30103
-3.4672444	coming	-0.30103
-3.4672444	pockets	-0.30103
-3.4672444	hell	-0.30103
-3.2761033	them	-0.30103
-3.4672444	plot	-0.30103
-3.4672444	laced	-0.30103
-3.4672444	mysterious	-0.30103
-3.4672444	incidents	-0.30103
-3.4672444	shelled	-0.30103
-3.4672444	clams	-0.30103
-3.4672444	chowder	-0.30103
-3.4672444	experience	-0.30103
-3.4672444	distress	-0.30103
-3.4672444	frustration	-0.30103
-3.4672444	obtaining	-0.30103
-3.4672444	degrees	-0.30103
-3.4672444	ticks	-0.30103
-3.4672444	prowler	-0.30103
-3.4672444	ski	-0.30103
-3.4672444	mask	-0.30103
-3.4672444	disguise	-0.30103
-3.2761033	confirmation	-0.30103
-3.2761033	such	-0.30103
-3.4672444	massive	-0.30103
-3.4672444	assaults	-0.30103
-3.4672444	independent	-0.30103
-3.4672444	sources	-0.30103
-3.4672444	chap	-0.30103
-3.4672444	lax	-0.30103
-3.2761033	score	-0.30103
-3.4672444	munch	-0.30103
-3.4672444	added	-0.30103
-3.2761033	petty	-0.30103
-3.4672444	jealousies	-0.30103
-3.4672444	personal	-0.30103
-3.4672444	even	-0.30103
-3.4672444	simple	-0.30103
-3.4672444	vocabulary	-0.30103
-3.4672444	contains	-0.30103
-3.4672444	symbols	-0.30103
-3.4672444	end	-0.30103
-3.4672444	eastern	-0.30103
-3.4672444	coast	-0.30103
-3.4672444	pure	-0.30103
-3.2761033	pleasure	-0.30103
-3.4672444	excitement	-0.30103
-3.4672444	dial	-0.30103
-3.4672444	low	-0.30103
-3.4672444	whip	-0.30103
-3.4672444	few	-0.30103
-3.4672444	ink	-0.30103
-3.4672444	handle	-0.30103
-3.4672444	theyll	-0.30103
-3.0338173	again	-0.30103
-3.4672444	term	-0.30103
-3.4672444	wide	-0.30103
-3.4672444	drenched	-0.30103
-3.4672444	uninterrupted	-0.30103
-3.4672444	pant	-0.30103
-3.2761033	find	-0.30103
-3.4672444	cable	-0.30103
-3.4672444	translated	-0.30103
-3.4672444	weve	-0.30103
-3.4672444	past	-0.30103
-3.4672444	burn	-0.30103
-3.4672444	werent	-0.30103
-3.4672444	doing	-0.30103
-3.4672444	upgrade	-0.30103
-3.4672444	status	-0.30103
-3.4672444	reflect	-0.30103
-3.2761033	spring	-0.30103
-3.2761033	street	-0.30103
-3.4672444	straight	-0.30103
-3.4672444	ahead	-0.30103
-3.4672444	serves	-0.30103
-3.4672444	meals	-0.30103
-3.4672444	disappointed	-0.30103
-3.4672444	order	-0.30103
-3.2761033	wine	-0.30103
-3.4672444	eyes	-0.30103
-3.4672444	weave	-0.30103
-3.4672444	family	-0.30103
-3.4672444	requests	-0.30103
-3.4672444	flowers	-0.30103
-3.4672444	omitted	-0.30103
-3.4672444	wart	-0.30103
-3.4672444	wack	-0.30103
-3.2761033	needed	-0.30103
-3.4672444	dash	-0.30103
-3.4672444	blew	-0.30103
-3.2761033	into	-0.30103
-3.2761033	large	-0.30103
-3.4672444	drifts	-0.30103
-3.4672444	regular	-0.30103
-3.4672444	attendance	-0.30103
-3.4672444	seldom	-0.30103
-3.4672444	required	-0.30103
-3.4672444	ball	-0.30103
-3.2761033	myself	-0.30103
-3.4672444	last	-0.30103
-3.4672444	shortage	-0.30103
-3.4672444	caused	-0.30103
-3.4672444	steep	-0.30103
-3.4672444	price	-0.30103
-3.4672444	increases	-0.30103
-3.4672444	cars	-0.30103
-3.4672444	slightly	-0.30103
-3.4672444	damaged	-0.30103
-3.4672444	highway	-0.30103
-3.4672444	staff	-0.30103
-3.4672444	deserves	-0.30103
-3.4672444	lot	-0.30103
-3.4672444	credit	-0.30103
-3.4672444	obstacles	-0.30103
-3.4672444	hid	-0.30103
-3.4672444	luke	-0.30103
-3.4672444	fold	-0.30103
-3.4672444	pink	-0.30103
-3.4672444	waste	-0.30103
-3.4672444	raisins	-0.30103
-3.4672444	outdoors	-0.30103
-3.2761033	porch	-0.30103
-3.4672444	steps	-0.30103
-3.4672444	noted	-0.30103
-3.4672444	carefully	-0.30103
-3.2060418	through	-0.30103
-3.4672444	clean	-0.30103
-3.4672444	report	-0.30103
-3.4672444	sail	-0.30103
-3.4672444	wipe	-0.30103
-3.4672444	continental	-0.30103
-3.4672444	drift	-0.30103
-3.4672444	geological	-0.30103
-3.4672444	theory	-0.30103
-3.4672444	huge	-0.30103
-3.4672444	porcupines	-0.30103
-3.4672444	resemble	-0.30103
-3.4672444	urchins	-0.30103
-3.4672444	challenge	-0.30103
-3.4672444	generals	-0.30103
-3.4672444	intelligence	-0.30103
-3.4672444	wives	-0.30103
-3.4672444	cant	-0.30103
-3.4672444	abide	-0.30103
-3.4672444	mistakes	-0.30103
-3.4672444	own	-0.30103
-3.2761033	game	-0.30103
-3.4672444	docks	-0.30103
-3.4672444	pole	-0.30103
-3.4672444	stable	-0.30103
-3.4672444	hiring	-0.30103
-3.4672444	wife	-0.30103
-3.4672444	ones	-0.30103
-3.4672444	company	-0.30103
-3.4672444	taxaided	-0.30103
-3.4672444	retirement	-0.30103
-3.4672444	income	-0.30103
-3.4672444	must	-0.30103
-3.4672444	ready	-0.30103
-3.4672444	sacrifice	-0.30103
-3.4672444	ban	-0.30103
-3.4672444	trips	-0.30103
-3.4672444	page	-0.30103
-3.4672444	accordion	-0.30103
-3.4672444	paid	-0.30103
-3.4672444	sprain	-0.30103
-3.4672444	fool	-0.30103
-3.4672444	ramp	-0.30103
-3.4672444	service	-0.30103
-3.4672444	should	-0.30103
-3.4672444	rewarded	-0.30103
-3.4672444	tips	-0.30103
-3.2761033	paint	-0.30103
-3.4672444	canteen	-0.30103
-3.4672444	fresh	-0.30103
-3.4672444	shook	-0.30103
-3.4672444	mat	-0.30103
-3.4672444	sap	-0.30103
-3.4672444	pain	-0.30103
-3.4672444	hides	-0.30103
-3.4672444	mayonnaise	-0.30103
-3.4672444	fall	-0.30103
-3.4672444	mall	-0.30103
-3.4672444	seemed	-0.30103
-3.4672444	appealing	-0.30103
-3.4672444	panel	-0.30103
-3.4672444	doctors	-0.30103
-3.4672444	prescribe	-0.30103
-3.4672444	drugs	-0.30103
-3.4672444	freely	-0.30103
-3.4672444	vamp	-0.30103
-3.4672444	bag	-0.30103
-3.4672444	rat	-0.30103
-3.2761033	saw	-0.30103
-3.4672444	weeks	-0.30103
-3.4672444	illegal	-0.30103
-3.4672444	postdate	-0.30103
-3.4672444	check	-0.30103
-3.4672444	space	-0.30103
-3.4672444	naval	-0.30103
-3.4672444	stall	-0.30103
-3.4672444	spade	-0.30103
-3.4672444	acting	-0.30103
-3.4672444	accident	-0.30103
-3.4672444	damp	-0.30103
-3.4672444	spray	-0.30103
-3.4672444	peach	-0.30103
-3.4672444	mabel	-0.30103
-3.4672444	told	-0.30103
-3.4672444	seriously	-0.30103
-3.4672444	injured	-0.30103
-3.4672444	because	-0.30103
-3.2761033	practical	-0.30103
-3.4672444	funnel	-0.30103
-3.4672444	tap	-0.30103
-3.4672444	name	-0.30103
-3.4672444	gently	-0.30103
-3.4672444	jims	-0.30103
-3.4672444	foam	-0.30103
-3.4672444	sculpture	-0.30103
-3.4672444	maybe	-0.30103
-3.4672444	longer	-0.30103
-3.4672444	squared	-0.30103
-3.4672444	bankers	-0.30103
-3.4672444	expected	-0.30103
-3.4672444	reach	-0.30103
-3.4672444	file	-0.30103
-3.4672444	soon	-0.30103
-3.4672444	muttering	-0.30103
-3.4672444	walls	-0.30103
-3.4672444	telephone	-0.30103
-3.4672444	booths	-0.30103
-3.4672444	arent	-0.30103
-3.4672444	paste	-0.30103
-3.4672444	foil	-0.30103
-3.4672444	map	-0.30103
-3.4672444	gable	-0.30103
-3.4672444	bull	-0.30103
-3.4672444	crawl	-0.30103
-3.4672444	pale	-0.30103
-3.4672444	creature	-0.30103
-3.4672444	pocket	-0.30103
-3.4672444	married	-0.30103
-3.4672444	saddle	-0.30103
-3.4672444	bowl	-0.30103
-3.4672444	nap	-0.30103
-3.4672444	table	-0.30103
-3.4672444	sable	-0.30103
-3.4672444	fable	-0.30103
-3.4672444	mold	-0.30103
-3.4672444	mole	-0.30103
-3.4672444	impossible	-0.30103
-3.2761033	deal	-0.30103
-3.4672444	bureaucracy	-0.30103
-3.4672444	pace	-0.30103
-3.4672444	call	-0.30103
-3.4672444	describe	-0.30103
-3.4672444	idiotic	-0.30103
-3.4672444	predicament	-0.30103
-3.4672444	screech	-0.30103
-3.4672444	ladle	-0.30103
-3.4672444	bash	-0.30103
-3.4672444	room	-0.30103
-3.4672444	portrait	-0.30103
-3.4672444	bagpipes	-0.30103
-3.4672444	bongos	-0.30103
-3.4672444	musical	-0.30103
-3.4672444	instruments	-0.30103
-3.2761033	gin	-0.30103
-3.4672444	saws	-0.30103
-3.4672444	parts	-0.30103
-3.4672444	supplies	-0.30103
-3.4672444	machinery	-0.30103
-3.4672444	final	-0.30103
-3.4672444	giggling	-0.30103
-3.4672444	owl	-0.30103
-3.4672444	cliffs	-0.30103
-3.4672444	display	-0.30103
-3.4672444	misplaced	-0.30103
-3.4672444	screen	-0.30103
-3.4672444	teach	-0.30103
-3.4672444	official	-0.30103
-3.4672444	deadline	-0.30103
-3.4672444	cannot	-0.30103
-3.4672444	postponed	-0.30103
-3.4672444	bog	-0.30103
-3.4672444	rattle	-0.30103
-3.2761033	sold	-0.30103
-3.4672444	bank	-0.30103
-3.4672444	shawl	-0.30103
-3.4672444	soul	-0.30103
-3.4672444	preach	-0.30103
-3.4672444	pull	-0.30103
-3.4672444	boone	-0.30103
-3.4672444	suppress	-0.30103
-3.4672444	wages	-0.30103
-3.4672444	key	-0.30103
-3.4672444	issue	-0.30103
-3.4672444	unfortunately	-0.30103
-3.4672444	demand	-0.30103
-3.4672444	broccoli	-0.30103
-3.4672444	cauliflower	-0.30103
-3.4672444	badger	-0.30103
-3.4672444	contrast	-0.30103
-3.4672444	household	-0.30103
-3.4672444	lots	-0.30103
-3.4672444	appliances	-0.30103
-3.4672444	grain	-0.30103
-3.4672444	paintings	-0.30103
-3.4672444	auction	-0.30103
-3.4672444	impress	-0.30103
-3.4672444	occur	-0.30103
-3.4672444	shore	-0.30103
-3.4672444	book	-0.30103
-3.4672444	bin	-0.30103
-3.4672444	weeds	-0.30103
-3.4672444	strong	-0.30103
-3.4672444	fast	-0.30103
-3.4672444	fudge	-0.30103
-3.4672444	rust	-0.30103
-3.4672444	misprint	-0.30103
-3.4672444	provoked	-0.30103
-3.4672444	immediate	-0.30103
-3.4672444	disclaimer	-0.30103
-3.4672444	contract	-0.30103
-3.4672444	limb	-0.30103
-3.4672444	musk	-0.30103
-3.4672444	rut	-0.30103
-3.4672444	serve	-0.30103
-3.4672444	grape	-0.30103
-3.4672444	intact	-0.30103
-3.4672444	picnic	-0.30103
-3.4672444	subtract	-0.30103
-3.4672444	plant	-0.30103
-3.4672444	original	-0.30103
-3.4672444	forgery	-0.30103
-3.4672444	either	-0.30103
-3.4672444	walked	-0.30103
-3.2761033	driven	-0.30103
-3.4672444	primitive	-0.30103
-3.4672444	tribes	-0.30103
-3.4672444	upbeat	-0.30103
-3.4672444	shut	-0.30103
-3.4672444	retract	-0.30103
-3.4672444	displayed	-0.30103
-3.4672444	lamps	-0.30103
-3.4672444	puppets	-0.30103
-3.4672444	delight	-0.30103
-3.4672444	children	-0.30103
-3.4672444	decorative	-0.30103
-3.4672444	accent	-0.30103
-3.4672444	globe	-0.30103
-3.4672444	grave	-0.30103
-3.4672444	bust	-0.30103
-3.4672444	depress	-0.30103
-3.4672444	dusk	-0.30103
-3.4672444	slim	-0.30103
-3.4672444	flying	-0.30103
-3.4672444	standby	-0.30103
-3.4672444	save	-0.30103
-3.4672444	instructions	-0.30103
-3.4672444	desperately	-0.30103
-3.4672444	need	-0.30103
-3.4672444	updating	-0.30103
-3.4672444	preserve	-0.30103
-3.4672444	converge	-0.30103
-3.4672444	booth	-0.30103
-3.4672444	railroads	-0.30103
-3.4672444	future	-0.30103
-3.4672444	west	-0.30103
-3.4672444	beauty	-0.30103
-3.4672444	surrounds	-0.30103
-3.4672444	id	-0.30103
-3.4672444	put	-0.30103
-3.4672444	weight	-0.30103
-3.4672444	lisp	-0.30103
-3.4672444	hispanic	-0.30103
-3.4672444	costumes	-0.30103
-3.4672444	colorful	-0.30103
-3.4672444	tore	-0.30103
-3.4672444	strange	-0.30103
-3.4672444	refer	-0.30103
-3.4672444	deserve	-0.30103
-3.4672444	glib	-0.30103
-3.4672444	grope	-0.30103
-3.4672444	absurd	-0.30103
-3.4672444	kat	-0.30103
-3.4672444	kittens	-0.30103
-3.4672444	cement	-0.30103
-3.4672444	measured	-0.30103
-3.4672444	cubic	-0.30103
-3.4672444	yards	-0.30103
-3.4672444	grange	-0.30103
-3.4672444	lid	-0.30103
-3.4672444	could	-0.30103
-3.4672444	bus	-0.30103
-3.4672444	brain	-0.30103
-3.4672444	boast	-0.30103
-3.4672444	reserve	-0.30103
-3.4672444	slid	-0.30103
-3.4672444	list	-0.30103
-3.4672444	conserve	-0.30103
-3.4672444	repress	-0.30103
-3.4672444	scorch	-0.30103
-3.4672444	strike	-0.30103
-3.4672444	spread	-0.30103
-3.4672444	super	-0.30103
-3.4672444	split	-0.30103
-3.4672444	struggled	-0.30103
-3.4672444	sitter	-0.30103
-3.4672444	ok	-0.30103
-3.4672444	actually	-0.30103
-3.4672444	owe	-0.30103
-3.4672444	drop	-0.30103
-3.4672444	shout	-0.30103
-3.4672444	ignorance	-0.30103
-3.4672444	relax	-0.30103
-3.4672444	oh	-0.30103
-3.4672444	liar	-0.30103
-3.2761033	min	-0.30103
-3.4672444	tear	-0.30103
-3.4672444	paper	-0.30103
-3.4672444	todays	-0.30103
-3.4672444	date	-0.30103
-3.4672444	february	-0.30103
-3.4672444	13th	-0.30103
-3.4672444	man	-0.30103
-3.4672444	skip	-0.30103
-3.4672444	ah	-0.30103
-3.4672444	chose	-0.30103
-3.4672444	innocense	-0.30103

\2-grams:
-0.19987364	stick </s>	0
-0.8859752	in </s>	0
-0.8663242	the </s>	0
-0.6686248	when </s>	0
-0.19987364	prevents </s>	0
-0.19987364	pat </s>	0
-0.591521	up </s>	0
-0.19987364	meat </s>	0
-0.591521	know </s>	0
-0.82489586	he </s>	0
-0.41891444	slowly </s>	0
-0.86974645	a </s>	0
-0.5260643	short </s>	0
-0.591521	walk </s>	0
-0.41891444	air </s>	0
-0.6361232	each </s>	0
-0.4616442	day </s>	0
-0.19987364	swarm </s>	0
-0.19987364	double </s>	0
-0.6361232	no </s>	0
-0.19987364	storm </s>	0
-0.19987364	buttons </s>	0
-0.19987364	dug </s>	0
-0.7477298	you </s>	0
-0.80576193	to </s>	0
-0.75302047	all </s>	0
-0.6686248	about </s>	0
-0.41891444	grandfather </s>	0
-0.19987364	knee </s>	0
-0.19987364	feet </s>	0
-0.41891444	train </s>	0
-0.41891444	but </s>	0
-0.19987364	oil </s>	0
-0.19987364	beat </s>	0
-0.19987364	dog </s>	0
-0.7288639	she </s>	0
-0.693426	had </s>	0
-0.5260643	dark </s>	0
-0.41891444	suit </s>	0
-0.41891444	water </s>	0
-0.19987364	year </s>	0
-0.19987364	car </s>	0
-0.41891444	observe </s>	0
-0.6686248	him </s>	0
-0.80762345	of </s>	0
-0.19987364	respect </s>	0
-0.7705679	have </s>	0
-0.47998714	more </s>	0
-0.82283396	and </s>	0
-0.19987364	less </s>	0
-0.19987364	rake </s>	0
-0.19987364	swore </s>	0
-0.19987364	rave </s>	0
-0.81823003	for </s>	0
-0.19987364	sip </s>	0
-0.41891444	grow </s>	0
-0.41891444	bit </s>	0
-0.19987364	chair </s>	0
-0.71300286	one </s>	0
-0.19987364	fair </s>	0
-0.6361232	two </s>	0
-0.19987364	beta </s>	0
-0.19987364	rage </s>	0
-0.41891444	spark </s>	0
-0.19987364	race </s>	0
-0.19987364	form </s>	0
-0.19987364	farm </s>	0
-0.19987364	raid </s>	0
-0.19987364	fee </s>	0
-0.19987364	weed </s>	0
-0.19987364	bat </s>	0
-0.19987364	horn </s>	0
-0.19987364	jagged </s>	0
-0.19987364	sheet </s>	0
-0.19987364	bubble </s>	0
-0.5260643	warm </s>	0
-0.19987364	ship </s>	0
-0.41891444	hair </s>	0
-0.19987364	share </s>	0
-0.19987364	rate </s>	0
-0.19987364	goat </s>	0
-0.19987364	trace </s>	0
-0.41891444	go </s>	0
-0.19987364	alpha </s>	0
-0.19987364	left </s>	0
-0.19987364	sticks </s>	0
-0.19987364	trouble </s>	0
-0.19987364	dagger </s>	0
-0.41891444	long </s>	0
-0.19987364	chin </s>	0
-0.19987364	slip </s>	0
-0.19987364	glow </s>	0
-0.19987364	trade </s>	0
-0.41891444	range </s>	0
-0.19987364	stubble </s>	0
-0.19987364	floor </s>	0
-0.19987364	bug </s>	0
-0.5260643	yet </s>	0
-0.41891444	ever </s>	0
-0.19987364	jacket </s>	0
-0.19987364	born </s>	0
-0.19987364	corn </s>	0
-0.41891444	right </s>	0
-0.41891444	knew </s>	0
-0.4616442	well </s>	0
-0.84567416	is </s>	0
-0.591521	three </s>	0
-0.47998714	years </s>	0
-0.47998714	old </s>	0
-0.19987364	feed </s>	0
-0.7419834	with </s>	0
-0.41891444	small </s>	0
-0.19987364	organ </s>	0
-0.19987364	rain </s>	0
-0.19987364	park </s>	0
-0.19987364	tip </s>	0
-0.5260643	down </s>	0
-0.19987364	gadget </s>	0
-0.41891444	store </s>	0
-0.19987364	coat </s>	0
-0.19987364	language </s>	0
-0.19987364	torn </s>	0
-0.41891444	voice </s>	0
-0.19987364	trifle </s>	0
-0.19987364	trait </s>	0
-0.19987364	yes </s>	0
-0.591521	dont </s>	0
-0.49669847	me </s>	0
-0.6361232	that </s>	0
-0.19987364	sleep </s>	0
-0.19987364	pile </s>	0
-0.41891444	cold </s>	0
-0.19987364	shower </s>	0
-0.19987364	sway </s>	0
-0.591521	both </s>	0
-0.33303836	later </s>	0
-0.19987364	charlie </s>	0
-0.19987364	mut </s>	0
-0.19987364	troop </s>	0
-0.33303836	here </s>	0
-0.19987364	wish </s>	0
-0.19987364	ate </s>	0
-0.19987364	hear </s>	0
-0.19987364	pot </s>	0
-0.19987364	white </s>	0
-0.19987364	aprons </s>	0
-0.19987364	best </s>	0
-0.41891444	bad </s>	0
-0.76243716	were </s>	0
-0.41891444	away </s>	0
-0.41891444	deer </s>	0
-0.19987364	droop </s>	0
-0.19987364	group </s>	0
-0.41891444	near </s>	0
-0.19987364	cheer </s>	0
-0.19987364	thigh </s>	0
-0.19987364	single </s>	0
-0.36538076	said </s>	0
-0.19987364	coupe </s>	0
-0.41891444	write </s>	0
-0.8028388	are </s>	0
-0.19987364	populated </s>	0
-0.19987364	area </s>	0
-0.19987364	steer </s>	0
-0.19987364	tile </s>	0
-0.19987364	select </s>	0
-0.19987364	sweet </s>	0
-0.19987364	field </s>	0
-0.19987364	forward </s>	0
-0.19987364	root </s>	0
-0.41891444	made </s>	0
-0.19987364	curtains </s>	0
-0.19987364	ocean </s>	0
-0.19987364	pay </s>	0
-0.19987364	light </s>	0
-0.19987364	advisement </s>	0
-0.5260643	much </s>	0
-0.19987364	hate </s>	0
-0.19987364	whoop </s>	0
-0.19987364	rock </s>	0
-0.41891444	why </s>	0
-0.19987364	items </s>	0
-0.19987364	toot </s>	0
-0.19987364	knot </s>	0
-0.19987364	fate </s>	0
-0.41891444	side </s>	0
-0.19987364	wet </s>	0
-0.19987364	shoot </s>	0
-0.19987364	men </s>	0
-0.19987364	slay </s>	0
-0.19987364	lily </s>	0
-0.8028388	was </s>	0
-0.33303836	time </s>	0
-0.19987364	prior </s>	0
-0.41891444	play </s>	0
-0.19987364	briar </s>	0
-0.19987364	lie </s>	0
-0.19987364	shear </s>	0
-0.6361232	big </s>	0
-0.19987364	traded </s>	0
-0.19987364	us </s>	0
-0.41891444	fear </s>	0
-0.19987364	sprinkle </s>	0
-0.19987364	snoop </s>	0
-0.19987364	thoroughly </s>	0
-0.19987364	boot </s>	0
-0.19987364	rocks </s>	0
-0.19987364	witch </s>	0
-0.41891444	though </s>	0
-0.19987364	galore </s>	0
-0.591521	tell </s>	0
-0.19987364	community </s>	0
-0.19987364	gnaw </s>	0
-0.19987364	cycle </s>	0
-0.19987364	delta </s>	0
-0.19987364	am </s>	0
-0.19987364	bear </s>	0
-0.19987364	error </s>	0
-0.19987364	jungle </s>	0
-0.19987364	innocence </s>	0
-0.19987364	menu </s>	0
-0.19987364	peer </s>	0
-0.19987364	lip </s>	0
-0.19987364	dot </s>	0
-0.19987364	beach </s>	0
-0.41891444	feel </s>	0
-0.7655349	can </s>	0
-0.19987364	weekend </s>	0
-0.19987364	tie </s>	0
-0.19987364	sigh </s>	0
-0.19987364	mere </s>	0
-0.5260643	went </s>	0
-0.19987364	pad </s>	0
-0.41891444	house </s>	0
-0.19987364	nancys </s>	0
-0.19987364	urgent </s>	0
-0.6686248	there </s>	0
-0.19987364	explore </s>	0
-0.19987364	stretcher </s>	0
-0.19987364	districts </s>	0
-0.19987364	loop </s>	0
-0.33303836	money </s>	0
-0.5260643	hard </s>	0
-0.5260643	back </s>	0
-0.5260643	four </s>	0
-0.19987364	fruit </s>	0
-0.41891444	night </s>	0
-0.5260643	phone </s>	0
-0.19987364	calls </s>	0
-0.19987364	hem </s>	0
-0.19987364	seeds </s>	0
-0.19987364	sign </s>	0
-0.19987364	november </s>	0
-0.19987364	mush </s>	0
-0.19987364	oscar </s>	0
-0.41891444	sell </s>	0
-0.5260643	way </s>	0
-0.41891444	five </s>	0
-0.7288639	it </s>	0
-0.19987364	immediately </s>	0
-0.19987364	hill </s>	0
-0.19987364	fitting </s>	0
-0.41891444	arm </s>	0
-0.19987364	pit </s>	0
-0.19987364	zero </s>	0
-0.19987364	fat </s>	0
-0.41891444	thought </s>	0
-0.19987364	darn </s>	0
-0.19987364	golf </s>	0
-0.5260643	expect </s>	0
-0.19987364	week </s>	0
-0.19987364	spit </s>	0
-0.19987364	mitten </s>	0
-0.19987364	six </s>	0
-0.19987364	force </s>	0
-0.41891444	brought </s>	0
-0.19987364	wealth </s>	0
-0.19987364	hat </s>	0
-0.19987364	seed </s>	0
-0.19987364	sergeant </s>	0
-0.19987364	home </s>	0
-0.19987364	dart </s>	0
-0.19987364	hum </s>	0
-0.19987364	pitting </s>	0
-0.19987364	reek </s>	0
-0.19987364	dormitories </s>	0
-0.41891444	part </s>	0
-0.19987364	bloat </s>	0
-0.693426	good </s>	0
-0.5260643	win </s>	0
-0.5260643	take </s>	0
-0.19987364	legislation </s>	0
-0.19987364	flimsy </s>	0
-0.19987364	shy </s>	0
-0.19987364	lair </s>	0
-0.19987364	cake </s>	0
-0.19987364	hitting </s>	0
-0.19987364	city </s>	0
-0.33303836	above </s>	0
-0.41891444	around </s>	0
-0.19987364	boat </s>	0
-0.19987364	papa </s>	0
-0.19987364	bran </s>	0
-0.19987364	brawn </s>	0
-0.19987364	pretty </s>	0
-0.19987364	witty </s>	0
-0.19987364	nine </s>	0
-0.19987364	written </s>	0
-0.5260643	hotel </s>	0
-0.19987364	cart </s>	0
-0.41891444	box </s>	0
-0.19987364	sweaters </s>	0
-0.19987364	bitten </s>	0
-0.19987364	lick </s>	0
-0.41891444	program </s>	0
-0.19987364	medicine </s>	0
-0.19987364	league </s>	0
-0.6361232	at </s>	0
-0.19987364	claim </s>	0
-0.19987364	empty </s>	0
-0.41891444	out </s>	0
-0.19987364	kitten </s>	0
-0.19987364	sitting </s>	0
-0.19987364	rich </s>	0
-0.19987364	seven </s>	0
-0.19987364	leak </s>	0
-0.19987364	leg </s>	0
-0.19987364	hark </s>	0
-0.5260643	job </s>	0
-0.19987364	benefits </s>	0
-0.19987364	evening </s>	0
-0.19987364	eight </s>	0
-0.19987364	echo </s>	0
-0.19987364	top </s>	0
-0.19987364	quebec </s>	0
-0.19987364	mike </s>	0
-0.19987364	lima </s>	0
-0.19987364	overalls </s>	0
-0.19987364	vat </s>	0
-0.19987364	formula </s>	0
-0.19987364	blow </s>	0
-0.19987364	rung </s>	0
-0.5260643	new </s>	0
-0.19987364	reported </s>	0
-0.41891444	heart </s>	0
-0.19987364	kilo </s>	0
-0.19987364	knitting </s>	0
-0.19987364	foxtrot </s>	0
-0.19987364	hospitals </s>	0
-0.19987364	spain </s>	0
-0.41891444	fill </s>	0
-0.19987364	loyal </s>	0
-0.19987364	barn </s>	0
-0.19987364	bite </s>	0
-0.19987364	wall </s>	0
-0.19987364	thorn </s>	0
-0.19987364	harm </s>	0
-0.19987364	harp </s>	0
-0.19987364	hastily </s>	0
-0.19987364	chop </s>	0
-0.19987364	start </s>	0
-0.19987364	juliet </s>	0
-0.19987364	expensive </s>	0
-0.19987364	bidding </s>	0
-0.41891444	attitude </s>	0
-0.19987364	unbeatable </s>	0
-0.19987364	dread </s>	0
-0.19987364	shell </s>	0
-0.19987364	sin </s>	0
-0.19987364	ticker </s>	0
-0.19987364	governor </s>	0
-0.33303836	first </s>	0
-0.19987364	uniform </s>	0
-0.19987364	shrugged </s>	0
-0.19987364	tin </s>	0
-0.19987364	wicked </s>	0
-0.19987364	zip </s>	0
-0.19987364	loss </s>	0
-0.19987364	slicker </s>	0
-0.19987364	winners </s>	0
-0.19987364	leaks </s>	0
-0.19987364	nest </s>	0
-0.19987364	xray </s>	0
-0.19987364	lock </s>	0
-0.19987364	sand </s>	0
-0.19987364	bitter </s>	0
-0.19987364	ham </s>	0
-0.41891444	alone </s>	0
-0.19987364	survive </s>	0
-0.19987364	team </s>	0
-0.19987364	nut </s>	0
-0.19987364	quickly </s>	0
-0.19987364	victor </s>	0
-0.19987364	zulu </s>	0
-0.41891444	gas </s>	0
-0.19987364	burner </s>	0
-0.19987364	bay </s>	0
-0.19987364	bed </s>	0
-0.19987364	flicker </s>	0
-0.19987364	bread </s>	0
-0.19987364	sicker </s>	0
-0.19987364	evacuate </s>	0
-0.19987364	tango </s>	0
-0.19987364	tread </s>	0
-0.19987364	dice </s>	0
-0.19987364	potatoes </s>	0
-0.19987364	glitter </s>	0
-0.19987364	fork </s>	0
-0.41891444	cat </s>	0
-0.41891444	keep </s>	0
-0.19987364	millionaires </s>	0
-0.19987364	litter </s>	0
-0.19987364	sink </s>	0
-0.19987364	red </s>	0
-0.19987364	ned </s>	0
-0.19987364	sit </s>	0
-0.41891444	able </s>	0
-0.41891444	too </s>	0
-0.19987364	hand </s>	0
-0.19987364	rest </s>	0
-0.19987364	marvelously </s>	0
-0.41891444	rise </s>	0
-0.19987364	morning </s>	0
-0.19987364	wicker </s>	0
-0.19987364	sing </s>	0
-0.41891444	bought </s>	0
-0.41891444	quicker </s>	0
-0.19987364	sierra </s>	0
-0.19987364	romeo </s>	0
-0.19987364	nod </s>	0
-0.41891444	nice </s>	0
-0.19987364	liquor </s>	0
-0.41891444	beg </s>	0
-0.19987364	chip </s>	0
-0.19987364	yankee </s>	0
-0.5260643	ride </s>	0
-0.19987364	stagecoach </s>	0
-0.19987364	dress </s>	0
-0.19987364	nearby </s>	0
-0.19987364	neat </s>	0
-0.19987364	dead </s>	0
-0.19987364	whisky </s>	0
-0.19987364	wit </s>	0
-0.19987364	painters </s>	0
-0.19987364	attention </s>	0
-0.19987364	success </s>	0
-0.19987364	lake </s>	0
-0.19987364	thread </s>	0
-0.19987364	fed </s>	0
-0.19987364	dishes </s>	0
-0.19987364	sew </s>	0
-0.19987364	sort </s>	0
-0.19987364	catch </s>	0
-0.19987364	goose </s>	0
-0.5260643	played </s>	0
-0.19987364	degree </s>	0
-0.19987364	dessert </s>	0
-0.19987364	welcome </s>	0
-0.19987364	cakes </s>	0
-0.19987364	bill </s>	0
-0.19987364	popularity </s>	0
-0.19987364	shin </s>	0
-0.19987364	kind </s>	0
-0.19987364	cork </s>	0
-0.19987364	weep </s>	0
-0.19987364	history </s>	0
-0.19987364	rid </s>	0
-0.19987364	quart </s>	0
-0.19987364	shot </s>	0
-0.19987364	sheep </s>	0
-0.19987364	snort </s>	0
-0.19987364	pork </s>	0
-0.19987364	sketch </s>	0
-0.19987364	yourself </s>	0
-0.19987364	blend </s>	0
-0.19987364	shed </s>	0
-0.19987364	identical </s>	0
-0.19987364	maintenance </s>	0
-0.19987364	court </s>	0
-0.19987364	see </s>	0
-0.19987364	shop </s>	0
-0.41891444	heat </s>	0
-0.19987364	gone </s>	0
-0.19987364	gill </s>	0
-0.19987364	show </s>	0
-0.19987364	read </s>	0
-0.19987364	disappointing </s>	0
-0.19987364	tug </s>	0
-0.19987364	cash </s>	0
-0.19987364	stretch </s>	0
-0.19987364	steak </s>	0
-0.19987364	ray </s>	0
-0.19987364	fort </s>	0
-0.19987364	lee </s>	0
-0.19987364	hold </s>	0
-0.19987364	since </s>	0
-0.5260643	life </s>	0
-0.19987364	shred </s>	0
-0.19987364	sight </s>	0
-0.19987364	pond </s>	0
-0.19987364	tort </s>	0
-0.19987364	meats </s>	0
-0.19987364	precious </s>	0
-0.5260643	eat </s>	0
-0.19987364	sport </s>	0
-0.19987364	activities </s>	0
-0.19987364	fined </s>	0
-0.19987364	regulations </s>	0
-0.19987364	resulted </s>	0
-0.19987364	valentines </s>	0
-0.19987364	geese </s>	0
-0.19987364	mill </s>	0
-0.19987364	present </s>	0
-0.19987364	reap </s>	0
-0.19987364	dill </s>	0
-0.19987364	lend </s>	0
-0.19987364	foe </s>	0
-0.19987364	loan </s>	0
-0.19987364	toe </s>	0
-0.19987364	threat </s>	0
-0.19987364	port </s>	0
-0.19987364	rip </s>	0
-0.19987364	wise </s>	0
-0.41891444	full </s>	0
-0.19987364	stuff </s>	0
-0.19987364	bend </s>	0
-0.19987364	muck </s>	0
-0.19987364	snake </s>	0
-0.19987364	bumper </s>	0
-0.19987364	ash </s>	0
-0.41891444	fit </s>	0
-0.19987364	sheer </s>	0
-0.19987364	chablis </s>	0
-0.19987364	hash </s>	0
-0.41891444	come </s>	0
-0.19987364	favor </s>	0
-0.19987364	hail </s>	0
-0.19987364	code </s>	0
-0.19987364	excluded </s>	0
-0.19987364	beam </s>	0
-0.19987364	competitors </s>	0
-0.19987364	knife </s>	0
-0.19987364	pete </s>	0
-0.19987364	skills </s>	0
-0.19987364	anywhere </s>	0
-0.19987364	gash </s>	0
-0.19987364	idea </s>	0
-0.19987364	fender </s>	0
-0.19987364	woe </s>	0
-0.19987364	member </s>	0
-0.19987364	beast </s>	0
-0.19987364	together </s>	0
-0.19987364	guess </s>	0
-0.19987364	casually </s>	0
-0.19987364	seam </s>	0
-0.19987364	beep </s>	0
-0.19987364	vocal </s>	0
-0.19987364	investment </s>	0
-0.19987364	redhanded </s>	0
-0.19987364	mock </s>	0
-0.19987364	dock </s>	0
-0.41891444	sea </s>	0
-0.19987364	petticoats </s>	0
-0.19987364	ember </s>	0
-0.19987364	seat </s>	0
-0.19987364	food </s>	0
-0.19987364	reef </s>	0
-0.19987364	blaze </s>	0
-0.19987364	sender </s>	0
-0.19987364	acclaim </s>	0
-0.19987364	director </s>	0
-0.6686248	from </s>	0
-0.19987364	wonderful </s>	0
-0.19987364	renter </s>	0
-0.19987364	row </s>	0
-0.19987364	lender </s>	0
-0.19987364	ape </s>	0
-0.19987364	forks </s>	0
-0.19987364	tender </s>	0
-0.19987364	tea </s>	0
-0.19987364	fans </s>	0
-0.19987364	timber </s>	0
-0.19987364	leap </s>	0
-0.19987364	poor </s>	0
-0.19987364	tail </s>	0
-0.19987364	bender </s>	0
-0.19987364	ache </s>	0
-0.19987364	center </s>	0
-0.19987364	appetizers </s>	0
-0.19987364	beef </s>	0
-0.19987364	temper </s>	0
-0.19987364	ways </s>	0
-0.19987364	wax </s>	0
-0.19987364	pet </s>	0
-0.19987364	aid </s>	0
-0.19987364	knock </s>	0
-0.19987364	lies </s>	0
-0.19987364	cheese </s>	0
-0.19987364	hatch </s>	0
-0.19987364	grievances </s>	0
-0.19987364	bunch </s>	0
-0.19987364	appreciated </s>	0
-0.19987364	ease </s>	0
-0.19987364	add </s>	0
-0.19987364	gift </s>	0
-0.41891444	judge </s>	0
-0.41891444	state </s>	0
-0.19987364	education </s>	0
-0.19987364	states </s>	0
-0.19987364	peas </s>	0
-0.19987364	bun </s>	0
-0.19987364	punch </s>	0
-0.19987364	ail </s>	0
-0.19987364	tall </s>	0
-0.19987364	detail </s>	0
-0.19987364	pill </s>	0
-0.19987364	racks </s>	0
-0.19987364	construction </s>	0
-0.19987364	aches </s>	0
-0.19987364	lit </s>	0
-0.19987364	splinter </s>	0
-0.41891444	now </s>	0
-0.19987364	choose </s>	0
-0.19987364	duck </s>	0
-0.19987364	actress </s>	0
-0.41891444	fell </s>	0
-0.19987364	diploma </s>	0
-0.19987364	charm </s>	0
-0.19987364	meeting </s>	0
-0.19987364	friends </s>	0
-0.19987364	mile </s>	0
-0.19987364	rakes </s>	0
-0.19987364	situation </s>	0
-0.5260643	sat </s>	0
-0.19987364	relaxed </s>	0
-0.19987364	hall </s>	0
-0.19987364	sake </s>	0
-0.19987364	incidents </s>	0
-0.19987364	chowder </s>	0
-0.19987364	degrees </s>	0
-0.19987364	ticks </s>	0
-0.19987364	disguise </s>	0
-0.19987364	sources </s>	0
-0.19987364	chap </s>	0
-0.19987364	lax </s>	0
-0.19987364	score </s>	0
-0.19987364	munch </s>	0
-0.19987364	symbols </s>	0
-0.19987364	end </s>	0
-0.41891444	pleasure </s>	0
-0.19987364	excitement </s>	0
-0.19987364	dial </s>	0
-0.19987364	low </s>	0
-0.19987364	whip </s>	0
-0.19987364	ink </s>	0
-0.29572853	again </s>	0
-0.19987364	term </s>	0
-0.19987364	wide </s>	0
-0.19987364	pant </s>	0
-0.19987364	find </s>	0
-0.41891444	cable </s>	0
-0.19987364	translated </s>	0
-0.19987364	past </s>	0
-0.19987364	burn </s>	0
-0.41891444	street </s>	0
-0.19987364	ahead </s>	0
-0.19987364	wine </s>	0
-0.19987364	eyes </s>	0
-0.19987364	weave </s>	0
-0.19987364	omitted </s>	0
-0.19987364	wart </s>	0
-0.19987364	wack </s>	0
-0.41891444	needed </s>	0
-0.19987364	dash </s>	0
-0.19987364	drifts </s>	0
-0.19987364	required </s>	0
-0.19987364	ball </s>	0
-0.41891444	myself </s>	0
-0.41891444	steep </s>	0
-0.19987364	increases </s>	0
-0.19987364	damaged </s>	0
-0.19987364	obstacles </s>	0
-0.19987364	hid </s>	0
-0.19987364	luke </s>	0
-0.19987364	fold </s>	0
-0.19987364	pink </s>	0
-0.19987364	waste </s>	0
-0.41891444	porch </s>	0
-0.19987364	steps </s>	0
-0.19987364	carefully </s>	0
-0.5260643	through </s>	0
-0.19987364	report </s>	0
-0.19987364	sail </s>	0
-0.19987364	wipe </s>	0
-0.19987364	theory </s>	0
-0.19987364	urchins </s>	0
-0.19987364	intelligence </s>	0
-0.19987364	wives </s>	0
-0.19987364	game </s>	0
-0.19987364	docks </s>	0
-0.19987364	pole </s>	0
-0.19987364	stable </s>	0
-0.19987364	income </s>	0
-0.19987364	sacrifice </s>	0
-0.19987364	ban </s>	0
-0.19987364	page </s>	0
-0.19987364	accordion </s>	0
-0.19987364	paid </s>	0
-0.19987364	sprain </s>	0
-0.19987364	fool </s>	0
-0.19987364	ramp </s>	0
-0.19987364	tips </s>	0
-0.41891444	paint </s>	0
-0.19987364	mat </s>	0
-0.19987364	sap </s>	0
-0.19987364	pain </s>	0
-0.19987364	mayonnaise </s>	0
-0.19987364	fall </s>	0
-0.19987364	mall </s>	0
-0.19987364	panel </s>	0
-0.19987364	freely </s>	0
-0.19987364	vamp </s>	0
-0.19987364	bag </s>	0
-0.19987364	rat </s>	0
-0.19987364	check </s>	0
-0.19987364	space </s>	0
-0.19987364	naval </s>	0
-0.19987364	stall </s>	0
-0.19987364	spade </s>	0
-0.19987364	accident </s>	0
-0.19987364	damp </s>	0
-0.19987364	spray </s>	0
-0.19987364	peach </s>	0
-0.19987364	mabel </s>	0
-0.19987364	told </s>	0
-0.19987364	injured </s>	0
-0.41891444	practical </s>	0
-0.19987364	funnel </s>	0
-0.19987364	tap </s>	0
-0.19987364	expected </s>	0
-0.19987364	reach </s>	0
-0.19987364	file </s>	0
-0.19987364	walls </s>	0
-0.19987364	paste </s>	0
-0.19987364	foil </s>	0
-0.19987364	map </s>	0
-0.19987364	gable </s>	0
-0.19987364	bull </s>	0
-0.19987364	crawl </s>	0
-0.19987364	pale </s>	0
-0.19987364	creature </s>	0
-0.19987364	pocket </s>	0
-0.19987364	saddle </s>	0
-0.19987364	bowl </s>	0
-0.19987364	nap </s>	0
-0.19987364	table </s>	0
-0.19987364	sable </s>	0
-0.19987364	fable </s>	0
-0.19987364	mold </s>	0
-0.19987364	mole </s>	0
-0.19987364	bureaucracy </s>	0
-0.19987364	pace </s>	0
-0.19987364	call </s>	0
-0.19987364	predicament </s>	0
-0.19987364	screech </s>	0
-0.19987364	ladle </s>	0
-0.19987364	bash </s>	0
-0.19987364	portrait </s>	0
-0.19987364	instruments </s>	0
-0.19987364	machinery </s>	0
-0.19987364	final </s>	0
-0.19987364	giggling </s>	0
-0.19987364	owl </s>	0
-0.19987364	screen </s>	0
-0.19987364	teach </s>	0
-0.19987364	postponed </s>	0
-0.19987364	bog </s>	0
-0.19987364	rattle </s>	0
-0.41891444	sold </s>	0
-0.19987364	bank </s>	0
-0.19987364	shawl </s>	0
-0.19987364	soul </s>	0
-0.19987364	preach </s>	0
-0.19987364	pull </s>	0
-0.19987364	boone </s>	0
-0.19987364	suppress </s>	0
-0.19987364	issue </s>	0
-0.19987364	cauliflower </s>	0
-0.19987364	badger </s>	0
-0.19987364	contrast </s>	0
-0.19987364	appliances </s>	0
-0.19987364	grain </s>	0
-0.19987364	auction </s>	0
-0.19987364	impress </s>	0
-0.19987364	occur </s>	0
-0.19987364	shore </s>	0
-0.19987364	book </s>	0
-0.19987364	bin </s>	0
-0.19987364	fast </s>	0
-0.19987364	fudge </s>	0
-0.19987364	rust </s>	0
-0.19987364	disclaimer </s>	0
-0.19987364	contract </s>	0
-0.19987364	limb </s>	0
-0.19987364	musk </s>	0
-0.19987364	rut </s>	0
-0.19987364	serve </s>	0
-0.19987364	grape </s>	0
-0.19987364	intact </s>	0
-0.19987364	subtract </s>	0
-0.19987364	forgery </s>	0
-0.19987364	driven </s>	0
-0.19987364	shut </s>	0
-0.19987364	retract </s>	0
-0.19987364	accent </s>	0
-0.19987364	globe </s>	0
-0.19987364	grave </s>	0
-0.19987364	bust </s>	0
-0.19987364	depress </s>	0
-0.19987364	dusk </s>	0
-0.19987364	slim </s>	0
-0.19987364	updating </s>	0
-0.19987364	preserve </s>	0
-0.19987364	converge </s>	0
-0.19987364	booth </s>	0
-0.19987364	west </s>	0
-0.19987364	weight </s>	0
-0.19987364	lisp </s>	0
-0.19987364	colorful </s>	0
-0.19987364	tore </s>	0
-0.19987364	strange </s>	0
-0.19987364	refer </s>	0
-0.19987364	deserve </s>	0
-0.19987364	glib </s>	0
-0.19987364	grope </s>	0
-0.19987364	absurd </s>	0
-0.19987364	kittens </s>	0
-0.19987364	yards </s>	0
-0.19987364	grange </s>	0
-0.19987364	lid </s>	0
-0.19987364	brain </s>	0
-0.19987364	boast </s>	0
-0.19987364	reserve </s>	0
-0.19987364	slid </s>	0
-0.19987364	list </s>	0
-0.19987364	conserve </s>	0
-0.19987364	repress </s>	0
-0.19987364	scorch </s>	0
-0.19987364	super </s>	0
-0.19987364	split </s>	0
-0.19987364	struggled </s>	0
-0.19987364	sitter </s>	0
-0.19987364	ok </s>	0
-0.19987364	actually </s>	0
-0.19987364	owe </s>	0
-0.19987364	drop </s>	0
-0.19987364	shout </s>	0
-0.19987364	ignorance </s>	0
-0.19987364	relax </s>	0
-0.19987364	oh </s>	0
-0.19987364	liar </s>	0
-0.41891444	min </s>	0
-0.19987364	paper </s>	0
-0.19987364	13th </s>	0
-0.19987364	man </s>	0
-0.19987364	chose </s>	0
-0.19987364	innocense </s>	0
-2.7862034	<s> stick	-1.2218487
-2.768368	<s> except	-1.2388821
-2.574946	<s> in	-1.0543576
-0.2984003	except in	-1.2388821
-0.8926654	walk in	-1.1856365
-0.5968164	suit in	-1.2218487
-1.731262	is in	-0.30103
-0.47318262	himself in	-1.30103
-0.2984003	modern in	-1.20412
-0.5968164	higher in	-1.1249387
-0.2984003	confidence in	-1.1856365
-0.9870079	people in	-1.1249387
-1.5112447	it in	-0.66900676
-0.2984003	lives in	-1.1856365
-0.2984003	damage in	-0.86530143
-0.2984003	participate in	-0.86530143
-0.2984003	ruled in	-0.7781512
-0.2984003	upbringing in	-0.8239087
-0.2984003	fire in	-0.8239087
-0.2984003	mistakes in	-0.66900676
-0.2984003	sculpture in	-0.30103
-0.5968164	deal in	-0.42596874
-0.2984003	measured in	-0.30103
-1.4369658	<s> the	-0.9733775
-0.6787996	in the	-1
-1.0486696	when the	-1.2388821
-0.5916494	open the	-0.97003675
-1.1121228	to the	-1.0280287
-0.84640205	all the	-1.0369836
-0.7626275	about the	-0.8239087
-0.5916494	over the	-1.2552725
-0.9124758	of the	-0.9579387
-1.3211915	for the	-0.86530143
-1.2513065	with the	-0.7781512
-0.5916494	near the	-1.146128
-0.29579353	approached the	-1.1026623
-1.4897099	are the	-0.8239087
-0.22605465	on the	-0.99584407
-0.5916494	made the	-1.1026623
-0.29579353	scrubbed the	-1.146128
-0.88251257	than the	-0.30103
-0.29579353	smooth the	-1.1249387
-1.0486696	by the	-0.72699875
-0.97442704	at the	-0.30103
-0.29579353	wrapped the	-1.146128
-0.29579353	covered the	-0.9378521
-0.97442704	only the	-0.86530143
-0.29579353	prefer the	-0.86530143
-0.5916494	thats the	-0.30103
-0.29579353	across the	-0.86530143
-0.29579353	remains the	-0.86530143
-0.29579353	mail the	-0.8239087
-0.7626275	from the	-0.86530143
-0.29579353	neglect the	-0.7781512
-0.29579353	compounded the	-0.66900676
-0.5916494	judge the	-0.9378521
-0.29579353	housing the	-0.8239087
-0.29579353	order the	-0.66900676
-0.29579353	noted the	-0.5228787
-0.29579353	hiring the	-0.42596874
-0.29579353	hides the	-0.42596874
-0.29579353	describe the	-0.30103
-0.29579353	lamps the	-0.30103
-0.29579353	delight the	-0.30103
-2.2947812	the winter	-1.2388821
-2.3918376	<s> when	-1.0791812
-0.30075982	winter when	-1.2388821
-1.0775628	when when	-0.30103
-2.2947812	the ooze	-1.2388821
-0.30023438	ooze or	-1.2388821
-0.6004703	snow or	-1.2388821
-0.6004703	higher or	-1.1249387
-0.30023438	yell or	-1.1249387
-0.30023438	room or	-0.42596874
-0.30023438	walked or	-0.30103
-0.30023438	bus or	-0.30103
-2.2867842	the snow	-0.66900676
-1.1445211	or snow	-1.2388821
-1.1450926	or ice	-1.2388821
-0.30088192	ice prevents	-1.2388821
-2.3321846	<s> pat	-1.6627579
-2.5331717	<s> up	-1.447158
-0.77537656	warm up	-0.86530143
-0.89939433	go up	-0.66900676
-0.77537656	looked up	-1.1249387
-0.30010313	treehouse up	-1.146128
-0.30010313	speak up	-0.86530143
-0.30010313	shook up	-0.30103
-0.30010313	tear up	-0.30103
-2.3258307	<s> meat	-1.6690068
-2.4783802	<s> know	-1.5141048
-1.9727423	to know	-1.2218487
-1.6536143	we know	-0.90309
-0.60125726	didnt know	-0.72699875
-1.8020831	<s> he	-1.0254964
-1.070544	when he	-1.3152704
-1.1360677	day he	-1.2218487
-0.59916174	but he	-1.2863067
-1.070544	him he	-1.0543576
-0.7738111	yet he	-1.1249387
-1.363105	as he	-1.1026623
-1.1360677	well he	-1.2552725
-0.7738111	himself he	-0.30103
-0.2995785	economy he	-1.1856365
-1.1360677	this he	-0.90309
-0.59916174	so he	-0.42596874
-1.7262284	he slowly	-1.1856365
-0.30080009	depot slowly	-1.1026623
-0.60176396	slowly takes	-1.1856365
-2.091584	<s> a	-0.9686859
-1.5576814	in a	-0.8846066
-1.1107332	or a	-0.42596874
-0.29579353	takes a	-1.1856365
-0.82704014	had a	-0.60206
-0.7626275	him a	-0.98527676
-1.351379	have a	-0.7781512
-1.5969485	and a	-0.30103
-1.3211915	for a	-1
-1.3211915	as a	-0.7781512
-1.0757172	is a	-0.97003675
-1.0486696	just a	-1.3152704
-0.29579353	quivers a	-1.3152704
-0.5916494	taking a	-1.1663314
-0.5916494	write a	-0.66900676
-1.4897099	are a	-0.30103
-1.0258689	on a	-0.7781512
-0.29579353	wear a	-1.1249387
-1.0705168	was a	-0.8808136
-0.29579353	allow a	-1.20412
-0.7626275	get a	-0.90309
-0.7626275	expect a	-0.7781512
-0.29579353	harms a	-1.1026623
-0.7626275	take a	-0.86530143
-0.7626275	not a	-1.2218487
-0.29579353	became a	-1.146128
-0.5916494	wore a	-0.7781512
-0.7626275	did a	-0.86530143
-0.5916494	definitely a	-1
-1.1107332	its a	-0.8239087
-0.29579353	pick a	-0.90309
-0.5916494	bought a	-0.97003675
-0.29579353	toward a	-0.86530143
-0.46929002	makes a	-0.845098
-0.29579353	covers a	-1.1249387
-1.0486696	from a	-0.30103
-0.5916494	such a	-0.5228787
-0.29579353	even a	-0.8239087
-0.29579353	deserves a	-0.5228787
-0.5916494	paint a	-0.42596874
-0.29579353	postdate a	-0.30103
-2.8816962	<s> short	-1.1249387
-2.077503	a short	-1.1856365
-1.7978824	is short	-0.86530143
-3.0682633	<s> walk	-0.9378521
-0.7769476	short walk	-1.1856365
-1.9727423	to walk	-1.2863067
-0.30062842	could walk	-0.30103
-2.2867842	the open	-1.1856365
-0.6016003	please open	-0.97003675
-2.2044818	<s> air	-1.7876966
-0.6016003	open air	-1.1856365
-2.8528664	<s> each	-0.845098
-0.60125726	air each	-1.1856365
-0.30062842	twice each	-1.2218487
-0.30062842	challenge each	-0.66900676
-2.8830104	<s> day	-1.1026623
-0.69731116	each day	-1.20412
-1.1988338	one day	-0.90309
-0.60073245	after day	-1.1026623
-0.9966886	every day	-0.66900676
-0.30036572	twelfth day	-0.86530143
-2.4489784	<s> swarm	-1.5481846
-2.7862034	<s> double	-1.2218487
-2.2203948	<s> no	-1.7683914
-1.142411	had no	-0.72699875
-1.4080954	have no	-0.72699875
-1.5697676	was no	-0.7781512
-0.30049703	requires no	-0.7781512
-2.440683	<s> storm	-1.5563025
-2.7347548	<s> usually	-1.146128
-0.60176396	usually minus	-1.2552725
-3.9736695	<s> several	-0.30103
-0.30080009	minus several	-1.2552725
-0.60176396	several buttons	-1.2552725
-2.521752	<s> dug	-1.4771212
-2.3719695	<s> you	-0.99270076
-1.0682293	when you	-0.66900676
-1.6389991	for you	-1.1026623
-1.3585768	as you	-1.1026623
-1.3585768	were you	-1.1026623
-0.42351097	if you	-0.97564065
-0.29918543	banks you	-1.1856365
-1.1333773	will you	-0.30103
-0.8957581	tell you	-0.7781512
-1.4554868	can you	-0.42596874
-0.77264076	way you	-0.66900676
-0.77264076	did you	-0.66900676
-0.29918543	asked you	-0.86530143
-0.59837854	sure you	-0.8239087
-0.29918543	surrounds you	-0.30103
-1.6201503	you wished	-1.2218487
-2.841096	<s> to	-0.7781512
-0.29540384	wished to	-1.2218487
-0.7614868	him to	-1.1356627
-1.3469707	have to	-0.72699875
-0.29540384	clings to	-1.2218487
-0.7614868	yet to	-1.1249387
-0.7614868	still to	-0.7781512
-0.29540384	likes to	-1.20412
-1.1610284	me to	-1.1856365
-0.88100994	like to	-0.86530143
-0.29540384	try to	-1
-1.3170778	were to	-1.2218487
-0.29540384	something to	-1.1856365
-0.5908797	used to	-1.1026623
-0.7614868	time to	-0.66900676
-0.5908797	easy to	-0.42596874
-0.29540384	tried to	-1.1249387
-0.46870914	hard to	-0.5563025
-0.29540384	funds to	-1.1856365
-0.29540384	horseback to	-1.1026623
-0.29540384	volunteered to	-1.0543576
-0.29540384	willing to	-0.97003675
-0.29540384	fun to	-0.9378521
-0.29540384	someplace to	-0.90309
-0.5908797	want to	-0.30103
-0.29540384	expects to	-1.0280287
-0.29540384	greg to	-0.90309
-0.5908797	cat to	-0.90309
-0.5908797	able to	-1
-0.88100994	what to	-0.30103
-0.29540384	decision to	-0.86530143
-0.29540384	scream to	-0.86530143
-0.29540384	dough to	-0.69897
-0.29540384	common to	-0.86530143
-0.29540384	desire to	-0.72699875
-0.29540384	met to	-0.9378521
-0.29540384	trying to	-0.86530143
-0.29540384	wanted to	-0.72699875
-0.29540384	status to	-0.5228787
-0.29540384	appealing to	-0.42596874
-0.29540384	illegal to	-0.30103
-0.29540384	longer to	-0.30103
-0.29540384	muttering to	-0.42596874
-0.29540384	impossible to	-0.42596874
-2.6582062	<s> all	-1.0142405
-1.072871	when all	-1.146128
-0.898873	know all	-1.2218487
-0.898873	water all	-1.2218487
-1.3497126	we all	-0.8016324
-1.3676811	were all	-0.66900676
-0.29997188	conscious all	-1.1663314
-0.5999464	received all	-0.5228787
-1.072871	really all	-0.86530143
-1.0384694	all about	-1.0791812
-1.789955	is about	-0.90309
-0.60099477	brought about	-0.90309
-0.30049703	discover about	-0.86530143
-0.30049703	talked about	-0.72699875
-2.8269873	<s> my	-0.9242793
-1.1967599	up my	-0.86530143
-1.0736495	about my	-1.2218487
-1.1396811	had my	-1.1026623
-1.7529186	of my	-0.66900676
-1.1396811	do my	-1.1663314
-0.30010313	suddenly my	-0.9378521
-0.30010313	change my	-0.72699875
-2.8011029	<s> grandfather	-1.20412
-1.2532077	my grandfather	-1.2218487
-2.782658	<s> knee	-1.2218487
-1.1445211	his knee	-0.86530143
-2.2780933	<s> feet	-1.7160033
-2.7479644	<s> train	-1.2552725
-2.2867842	the train	-1.1026623
-2.6887605	<s> but	-1.0934217
-1.7262284	he always	-1.2863067
-0.30080009	although always	-0.9542425
-0.7777072	always answers	-1.2863067
-0.30088192	answers banana	-1.2863067
-0.30088192	banana oil	-1.2863067
-2.256058	<s> beat	-1.7377226
-2.2867842	the quick	-1.2552725
-1.7855467	a quick	-0.8846066
-2.0798378	a brown	-0.97003675
-0.7774619	quick brown	-1.2552725
-0.60176396	brown fox	-1.2552725
-0.30088192	fox jumps	-1.2552725
-0.30080009	jumps over	-1.2552725
-0.30080009	worry over	-1.1249387
-2.2947812	the lazy	-1.2552725
-0.30088192	lazy dog	-1.2552725
-2.099848	<s> she	-0.9378521
-2.875923	<s> had	-1.1026623
-1.2481639	she had	-1.2218487
-1.6448178	we had	-0.30103
-1.4047425	have had	-1.1026623
-1.7548951	i had	-0.72699875
-0.30023438	finger had	-0.72699875
-0.30023438	kat had	-0.30103
-1.1396811	had your	-1.2218487
-1.5625027	are your	-1.1249387
-0.30010313	swing your	-1.1026623
-0.30010313	celebrate your	-0.86530143
-0.77537656	eat your	-0.66900676
-0.30010313	guarantees your	-0.7781512
-0.30010313	upgrade your	-0.5228787
-0.30010313	reflect your	-0.5228787
-2.5288243	<s> dark	-1.4673615
-1.2019634	your dark	-1.2218487
-0.9986509	her dark	-0.8239087
-2.5611644	<s> suit	-1.4366926
-0.7774619	dark suit	-1.2218487
-1.6407951	in greasy	-1.2218487
-0.30088192	greasy wash	-1.2218487
-0.30062842	wash water	-1.2218487
-0.9979958	more water	-0.30103
-0.30062842	losing water	-1.1026623
-0.60125726	spring water	-0.42596874
-1.3407967	all year	-1.2218487
-2.7862034	<s> car	-1.2218487
-2.7862034	<s> giving	-1.2218487
-2.8011029	<s> those	-0.90309
-0.30080009	giving those	-1.2218487
-3.1574943	<s> who	-0.86530143
-0.7773413	those who	-1.2218487
-0.9986509	people who	-1.0280287
-3.9736695	<s> observe	-0.30103
-0.7774619	who observe	-1.2218487
-2.4227052	<s> him	-1.5642715
-0.60073245	observe him	-1.2218487
-0.30036572	urged him	-1.2863067
-0.60073245	crucified him	-1.0543576
-0.60073245	want him	-0.90309
-0.60073245	saw him	-0.42596874
-2.0846257	a pronounced	-1.2218487
-0.30088192	pronounced feeling	-1.2218487
-2.7488415	<s> of	-1.1026623
-0.29748616	feeling of	-1.2218487
-1.516948	are of	-0.60206
-0.7676053	much of	-0.30103
-0.29748616	acts of	-1.1249387
-0.595001	part of	-0.66900676
-0.29748616	advantage of	-1.1249387
-0.29748616	period of	-1.146128
-0.595001	program of	-1.2218487
-0.8890848	out of	-0.42596874
-0.29748616	grants of	-1.1663314
-0.29748616	roll of	-1.146128
-0.29748616	prospect of	-1.0543576
-0.29748616	pair of	-1
-0.29748616	peck of	-0.90309
-0.29748616	gallon of	-0.97003675
-0.595001	full of	-0.86530143
-0.29748616	fiercest of	-0.86530143
-0.29748616	minute of	-0.8239087
-0.29748616	number of	-0.8239087
-0.29748616	lack of	-0.66900676
-0.595001	state of	-0.9378521
-0.29748616	largest of	-0.8239087
-0.29748616	pockets of	-0.8239087
-0.595001	confirmation of	-0.7781512
-0.29748616	lot of	-0.5228787
-0.29748616	name of	-0.30103
-0.29748616	lots of	-0.30103
-2.2947812	the utmost	-1.2218487
-0.30088192	utmost respect	-1.2218487
-1.8146715	<s> we	-0.95913875
-0.8999163	know we	-0.90309
-0.6004703	knew we	-0.66900676
-0.6004703	while we	-1.1026623
-0.6004703	alone we	-1.0543576
-0.30023438	leisure we	-0.90309
-0.30023438	suggested we	-0.8239087
-3.193242	<s> have	-0.72699875
-1.3098913	you have	-1.0280287
-1.9385775	to have	-0.86530143
-1.3295164	all have	-0.8239087
-1.3482438	we have	-1.0479236
-1.1378707	well have	-0.86530143
-1.7438176	i have	-1.1026623
-0.29984072	souls have	-1.1026623
-1.072094	really have	-0.90309
-0.29984072	tribes have	-0.30103
-1.4114743	have often	-1.2863067
-1.5746793	are often	-0.7781512
-1.4738904	can often	-1.2218487
-0.7777072	often urged	-1.2863067
-1.1998745	up more	-0.86530143
-0.90096205	walk more	-1.2863067
-0.30049703	earn more	-1.1249387
-0.7765543	needs more	-0.30103
-0.30049703	accomplish more	-0.7781512
-2.568609	<s> and	-1.3424227
-1.1785268	up and	-1.1249387
-0.7683762	short and	-0.86530143
-0.98382837	more and	-1.2863067
-0.29774714	skillfully and	-1.2218487
-0.7683762	down and	-0.7781512
-0.29774714	cracked and	-1.3152704
-0.5955189	deer and	-0.30103
-0.29774714	grey and	-1.20412
-0.29774714	slums and	-1.1856365
-0.5955189	heart and	-0.66900676
-0.7683762	young and	-0.42596874
-0.29774714	prosecuted and	-0.86530143
-0.29774714	addition and	-0.86530143
-0.29774714	chocolate and	-0.86530143
-0.29774714	masonry and	-0.72699875
-0.29774714	distress and	-0.7781512
-0.29774714	jealousies and	-0.90309
-0.5955189	pleasure and	-0.7781512
-0.5955189	straight and	-0.66900676
-0.29774714	bagpipes and	-0.42596874
-0.29774714	saws and	-0.42596874
-0.29774714	supplies and	-0.42596874
-0.29774714	broccoli and	-0.30103
-0.29774714	strong and	-0.30103
-0.29774714	children and	-0.30103
-1.7121699	and smoke	-1.2863067
-0.30088192	smoke less	-1.2863067
-2.4167063	<s> rake	-1.5797836
-2.7862034	<s> swore	-1.2218487
-2.7512362	<s> rave	-1.2552725
-2.65286	<s> for	-1.2552725
-1.5662444	you for	-0.86530143
-1.1815128	one for	-1.0543576
-0.59629697	easy for	-1.1249387
-0.29813892	healthy for	-1.1026623
-1.5069972	it for	-1.1026623
-0.59629697	provides for	-1.1856365
-0.76953506	win for	-1.1856365
-0.29813892	transition for	-1.146128
-0.29813892	sum for	-1.1663314
-0.4727918	look for	-0.90309
-0.29813892	experiment for	-0.97003675
-0.29813892	wait for	-1.0280287
-0.76953506	place for	-0.7781512
-0.29813892	guard for	-0.97003675
-0.29813892	friend for	-0.8239087
-0.29813892	prepared for	-0.72699875
-0.29813892	clams for	-0.72699875
-0.29813892	mask for	-0.7781512
-0.29813892	wife for	-0.42596874
-0.29813892	ready for	-0.42596874
-0.29813892	trips for	-0.42596874
-0.29813892	demand for	-0.30103
-2.2150824	<s> sip	-1.7781513
-2.7479644	<s> grow	-1.2552725
-0.30080009	weeds grow	-0.30103
-2.491206	<s> bit	-1.50515
-2.0798378	a bit	-1.3152704
-2.378078	<s> chair	-1.6163005
-0.6016003	brown chair	-0.97003675
-2.3286922	<s> one	-1.3553877
-0.99603647	each one	-1.0543576
-1.6625378	for one	-0.97003675
-1.0744293	just one	-1.1026623
-0.8999163	out one	-0.90309
-0.30023438	unpleasant one	-1.0543576
-0.99603647	only one	-0.86530143
-2.7862034	<s> fair	-1.2218487
-2.3036633	<s> two	-1.3862016
-0.30062842	noticed two	-1.1249387
-0.9979958	only two	-0.42596874
-0.30062842	called two	-0.86530143
-2.768368	<s> beta	-1.2388821
-2.718876	<s> rage	-1.2863067
-2.482072	<s> spark	-1.2922561
-0.6016003	spark spark	-0.30103
-2.7862034	<s> race	-1.2218487
-2.7035573	<s> form	-1.30103
-2.7006245	<s> farm	-1.30103
-2.2867842	the farm	-1.1026623
-2.7862034	<s> raid	-1.2218487
-2.7862034	<s> fee	-1.2218487
-2.7862034	<s> weed	-1.2218487
-2.4748607	<s> bat	-1.5228788
-2.6744514	<s> horn	-1.3290588
-2.7862034	<s> jagged	-1.2218487
-2.3939843	<s> sheet	-1.60206
-2.7862034	<s> bubble	-1.2218487
-2.4635277	<s> warm	-1.5314789
-1.9787072	to warm	-0.86530143
-0.60151994	wore warm	-1.146128
-2.4245522	<s> ship	-1.5720967
-2.782658	<s> hair	-1.2218487
-0.7774619	dark hair	-0.8239087
-2.7862034	<s> share	-1.2218487
-2.7862034	<s> rate	-1.2218487
-2.6215096	<s> goat	-1.3802112
-2.7862034	<s> trace	-1.2218487
-2.7809255	<s> go	-1.2218487
-1.6838915	to go	-0.8016324
-0.30075982	would go	-1.1249387
-2.7862034	<s> alpha	-1.2218487
-2.53177	<s> left	-1.4673615
-2.5420246	<s> sticks	-1.4573772
-2.7512362	<s> trouble	-1.2552725
-2.7862034	<s> dagger	-1.2218487
-2.0798378	a long	-1.2218487
-1.0778036	very long	-1
-0.60176396	long flowing	-1.2218487
-0.30088192	flowing beard	-1.2218487
-0.30088192	beard clings	-1.2218487
-0.9430387	in his	-0.9294189
-1.9727423	to his	-1.2218487
-1.7670453	of his	-0.42596874
-0.30062842	speaks his	-1.3152704
-1.1450926	his chin	-1.2218487
-2.3245993	<s> slip	-1.6690068
-0.30080009	ah slip	-0.30103
-2.7862034	<s> glow	-1.2218487
-2.7862034	<s> trade	-1.2218487
-2.6605988	<s> range	-1.0413927
-2.7862034	<s> stubble	-1.2218487
-2.502384	<s> floor	-1.4960066
-2.718876	<s> bug	-1.2863067
-2.5710783	<s> yet	-1.4259686
-0.60151994	done yet	-1.1249387
-0.7773413	eat yet	-0.66900676
-1.725158	he still	-1.2863067
-1.7978824	is still	-0.30103
-1.5746793	was still	-0.7781512
-0.7777072	still thinks	-1.2863067
-0.29984072	thinks as	-1.2863067
-0.29984072	swiftly as	-1.2863067
-1.7707474	is as	-1.2388821
-0.29984072	offensive as	-0.90309
-0.5996847	arm as	-1.1026623
-0.29984072	high as	-1.1026623
-0.29984072	watched as	-1.1026623
-0.5996847	fail as	-0.7781512
-0.29984072	exactly as	-0.86530143
-0.29984072	displayed as	-0.30103
-1.3784378	as swiftly	-1.2863067
-1.3774602	as ever	-1.2863067
-1.2022841	me ever	-0.9378521
-2.768368	<s> jacket	-1.2388821
-2.7035573	<s> born	-1.30103
-2.6744514	<s> corn	-1.3290588
-2.5611644	<s> right	-1.4366926
-0.30080009	married right	-0.42596874
-2.330935	<s> knew	-1.6627579
-1.6575003	we knew	-0.66900676
-2.7259836	<s> well	-1.2552725
-1.1405891	day well	-0.86530143
-1.1405891	do well	-0.90309
-0.7757688	went well	-0.86530143
-0.7757688	expect well	-1.146128
-1.0744293	very well	-0.8239087
-0.30023438	doing well	-0.66900676
-2.8069603	<s> is	-1.0543576
-1.3922443	he is	-1.146128
-1.2288053	she is	-0.98227125
-0.59603745	hair is	-0.8239087
-0.59603745	voice is	-1.3152704
-1.1254046	this is	-1.2863067
-0.59603745	nothing is	-1.049218
-0.59603745	house is	-1.20412
-0.29800832	humidity is	-1.1249387
-0.76914847	there is	-0.8507019
-0.29800832	alfalfa is	-1.1026623
-0.29800832	episode is	-1.1026623
-0.59603745	attitude is	-1.0280287
-0.29800832	spending is	-1.0543576
-0.29800832	travel is	-0.90309
-0.47259653	life is	-0.86530143
-0.29800832	plot is	-0.86530143
-0.29800832	coast is	-0.7781512
-0.59603745	street is	-0.5228787
-0.29800832	attendance is	-0.66900676
-0.29800832	highway is	-0.66900676
-0.29800832	drift is	-0.66900676
-0.29800832	future is	-0.30103
-0.29800832	cement is	-0.30103
-1.8016131	is nearly	-1.0334238
-0.60176396	nearly ninety	-0.30103
-2.5787559	<s> three	-1.4149734
-0.30062842	ninety three	-0.30103
-0.30062842	contained three	-1.1026623
-0.60125726	saw three	-0.30103
-1.6686274	for years	-0.8239087
-0.90096205	three years	-0.30103
-0.30049703	ninetythree years	-1.2218487
-0.7765543	later years	-1.1249387
-0.30049703	last years	-0.72699875
-2.9473457	<s> old	-0.75332767
-1.7056812	and old	-0.42596874
-0.9979958	two old	-1.1249387
-0.69796675	years old	-1.2552725
-2.3654273	<s> feed	-1.6300887
-2.7862034	<s> twice	-1.2218487
-1.7284135	he plays	-1.2218487
-0.30088192	plays skillfully	-1.2218487
-3.36142	<s> with	-0.5228787
-1.6860937	and with	-1.2218487
-1.5353785	it with	-0.9378521
-0.29984072	compliance with	-0.9378521
-0.29984072	pleased with	-0.7781512
-0.29984072	popular with	-0.7781512
-0.29984072	laced with	-0.86530143
-0.29984072	disappointed with	-0.66900676
-0.29984072	canteen with	-0.42596874
-0.5996847	deal with	-0.42596874
-1.2995516	with zest	-1.2218487
-0.30088192	zest upon	-1.2218487
-0.99734175	with our	-0.72699875
-0.30049703	upon our	-1.2218487
-0.60099477	around our	-1.1026623
-0.60099477	fact our	-0.86530143
-0.30049703	obtaining our	-0.7781512
-1.0778036	our small	-1.2218487
-0.6016003	though small	-0.90309
-0.60176396	small organ	-1.2218487
-2.7649648	<s> rain	-1.2388821
-0.30080009	uninterrupted rain	-0.86530143
-2.51196	<s> park	-1.4866666
-2.6744514	<s> tip	-1.3290588
-2.5823169	<s> down	-1.4149734
-0.7773413	working down	-0.5228787
-0.7773413	sat down	-0.7781512
-2.7862034	<s> gadget	-1.2218487
-2.7479644	<s> store	-1.2552725
-2.2867842	the store	-0.66900676
-1.7284135	he dresses	-1.2863067
-0.30075982	dresses himself	-1.2863067
-0.30075982	dressed himself	-0.30103
-0.60151994	crucified himself	-0.30103
-3.5790162	<s> an	-0.30103
-1.6225286	in an	-1.30103
-1.746024	of an	-1.1663314
-1.1062706	have an	-0.8808136
-1.7707474	is an	-1.0543576
-1.2892812	be an	-0.75332767
-0.29984072	carry an	-1.1856365
-0.89835227	like an	-0.42596874
-0.89835227	tell an	-0.30103
-0.29984072	provoked an	-0.30103
-1.3784378	an ancient	-1.30103
-1.7717593	of black	-0.8239087
-0.30080009	ancient black	-1.30103
-0.60176396	black frock	-1.30103
-2.8838823	<s> coat	-1.1249387
-0.30080009	frock coat	-1.30103
-0.60176396	grandfather likes	-1.20412
-3.1649868	<s> be	-0.72699875
-1.1360677	or be	-0.30103
-1.4919034	to be	-0.98025596
-0.7738111	often be	-1.2218487
-0.2995785	youd be	-1.1663314
-0.8400387	will be	-0.8016324
-0.5209445	can be	-0.8187691
-0.7738111	may be	-0.66900676
-0.2995785	flowers be	-0.66900676
-0.2995785	must be	-0.42596874
-0.2995785	should be	-0.30103
-0.2995785	cannot be	-0.30103
-1.5991081	be modern	-1.20412
-1.1450926	his language	-1.20412
-2.7035573	<s> torn	-1.30103
-1.7284135	he speaks	-1.3152704
-1.2532077	my voice	-0.86530143
-1.1445211	his voice	-1.3152704
-2.897542	<s> just	-1.1026623
-1.6536143	we just	-0.60206
-1.7939007	is just	-1.3152704
-1.7662627	i just	-1.1663314
-0.60176396	bit cracked	-1.3152704
-1.7121699	and quivers	-1.3152704
-2.0846257	a trifle	-1.3152704
-2.7512362	<s> trait	-1.2552725
-2.2150824	<s> yes	-1.7781513
-1.7284135	he dressed	-0.30103
-2.643336	<s> dont	-1.0543576
-1.0775628	just dont	-0.30103
-1.770119	i dont	-0.8239087
-0.902498	dont ask	-1.1856365
-3.133744	<s> me	-0.8239087
-1.9496698	to me	-0.42596874
-1.6595247	for me	-1.146128
-1.2918491	with me	-0.9378521
-0.30010313	ask me	-1.1856365
-0.30010313	carried me	-1.1249387
-0.6002083	took me	-0.90309
-0.6002083	fit me	-0.5228787
-1.9843209	to carry	-1.1856365
-1.3784378	an oily	-1.1856365
-0.30088192	oily rag	-1.1856365
-0.30062842	rag like	-1.1856365
-1.7662627	i like	-0.42596874
-0.7769476	looked like	-0.42596874
-0.30062842	doesnt like	-0.86530143
-2.8074348	<s> that	-0.74036264
-1.1967599	up that	-0.30103
-0.89939433	like that	-1.1856365
-0.6002083	fill that	-0.42596874
-0.6002083	beg that	-0.97003675
-0.30010313	seen that	-0.8239087
-0.30010313	requests that	-0.66900676
-0.30010313	beauty that	-0.30103
-0.60176396	nearly ninetythree	-1.2218487
-2.865918	<s> sleep	-1.146128
-2.9120312	<s> pile	-1.1026623
-2.8445761	<s> youd	-1.1663314
-1.5991081	be better	-1.1663314
-1.2022841	me off	-1.1249387
-0.30080009	better off	-1.1663314
-0.6016003	off taking	-1.1663314
-1.1445211	its taking	-0.30103
-3.3820646	<s> cold	-0.66900676
-2.0798378	a cold	-1.1663314
-0.60176396	cold shower	-1.1663314
-2.9120312	<s> sway	-1.1026623
-2.4574356	<s> both	-0.97564065
-0.902498	both figures	-1.1249387
-0.30088192	figures would	-1.1249387
-0.90217113	go higher	-1.1249387
-0.30080009	grades higher	-1.1249387
-1.6386155	in later	-1.1249387
-0.60151994	trip later	-0.7781512
-0.30075982	weeks later	-0.42596874
-2.9120312	<s> charlie	-1.1026623
-2.9120312	<s> mut	-1.1026623
-2.865918	<s> troop	-1.146128
-2.9049942	<s> here	-1.1026623
-0.60151994	right here	-0.42596874
-0.7773413	down here	-0.5228787
-2.865918	<s> wish	-1.146128
-2.4089994	<s> ate	-1.5873368
-2.865918	<s> hear	-1.146128
-2.8242342	<s> pot	-1.1856365
-2.8838823	<s> white	-1.1249387
-1.7100648	and white	-1.20412
-2.7347548	<s> mother	-1.2710668
-0.30088192	mother sews	-1.2710668
-2.0798378	a yellow	-1.1249387
-0.30080009	sews yellow	-1.2710668
-0.60176396	yellow gingham	-1.2710668
-0.30088192	gingham aprons	-1.2710668
-1.6769398	<s> i	-0.9248455
-1.3738585	as i	-0.64345264
-0.60099477	than i	-1.3152704
-0.60099477	feel i	-1.1249387
-0.90096205	what i	-0.30103
-3.3156219	<s> try	-0.72699875
-1.0778036	just try	-1.1663314
-3.118927	<s> do	-0.86530143
-1.609508	you do	-1.1856365
-1.6748475	to do	-1.0543576
-0.9004389	dont do	-0.86530143
-1.0752106	very do	-0.30103
-0.30036572	dad do	-1.0280287
-3.0828018	<s> best	-0.9378521
-1.2532077	my best	-1.1663314
-2.5504537	<s> bad	-1.447158
-0.7774619	few bad	-0.7781512
-2.9049942	<s> where	-1.1026623
-0.9020104	know where	-0.72699875
-0.30075982	places where	-0.86530143
-2.587904	<s> were	-1.0791812
-1.1369683	or were	-0.30103
-1.6333597	we were	-1.1026623
-0.7742019	where were	-1.1026623
-0.59942317	cases were	-0.30103
-1.0713183	also were	-1.1856365
-1.3281143	they were	-0.72699875
-0.29970962	injuries were	-1.2218487
-0.29970962	results were	-0.9378521
-0.29970962	cars were	-0.5228787
-0.29970962	paintings were	-0.30103
-1.6184465	you while	-1.1026623
-1.0778036	there while	-0.86530143
-1.3774602	were away	-1.1026623
-0.30080009	squared away	-0.30103
-2.861662	<s> deer	-1.146128
-0.90217113	three deer	-0.30103
-2.9120312	<s> droop	-1.1026623
-2.865918	<s> group	-1.146128
-2.9073012	<s> near	-1.1026623
-0.30080009	lay near	-1.146128
-2.574326	<s> cheer	-1.4259686
-2.865918	<s> thigh	-1.146128
-2.9120312	<s> single	-1.1026623
-2.5461354	<s> if	-1.447158
-0.60125726	fear if	-0.72699875
-0.60125726	so if	-0.8239087
-0.60125726	practical if	-0.30103
-1.6201503	you destroy	-1.1856365
-0.30088192	destroy confidence	-1.1856365
-1.6407951	in banks	-1.1856365
-1.1450926	do something	-1.1856365
-2.2947812	the economy	-1.1856365
-2.720129	<s> said	-1.2710668
-1.7182286	he said	-1.1856365
-1.7624403	i said	-0.30103
-0.30049703	sheriff said	-1.1249387
-1.5468079	it said	-0.66900676
-2.865918	<s> coupe	-1.146128
-2.4075084	<s> write	-1.5873368
-0.7774619	through write	-0.66900676
-0.60176396	train approached	-1.1026623
-2.2947812	the depot	-1.1026623
-2.2947812	the islands	-1.1026623
-2.655525	<s> are	-0.98527676
-1.301911	you are	-0.9378521
-1.6194495	we are	-0.8239087
-1.6673516	and are	-0.30103
-0.29905444	islands are	-1.1026623
-0.69404787	people are	-0.7781512
-1.3211706	they are	-0.42596874
-0.29905444	books are	-1.146128
-0.29905444	themselves are	-1.0280287
-0.29905444	hotels are	-0.9378521
-0.29905444	reflexes are	-0.9378521
-0.29905444	subtraction are	-0.86530143
-0.29905444	apartments are	-0.8239087
-0.29905444	bongos are	-0.42596874
-0.29905444	wages are	-0.30103
-0.29905444	costumes are	-0.30103
-1.5769789	are sparsely	-1.1026623
-0.30088192	sparsely populated	-1.1026623
-2.888363	<s> area	-1.1249387
-2.865918	<s> steer	-1.146128
-2.5972774	<s> tile	-1.4036924
-2.7035573	<s> select	-1.30103
-4.232494	<s> sweet	-0.30103
-2.9120312	<s> youre	-1.1026623
-0.30080009	youre used	-1.1026623
-0.99885166	some used	-0.42596874
-3.016108	<s> being	-1
-1.9805496	to being	-1.1026623
-0.59942317	off on	-1.1249387
-0.59942317	being on	-1.1026623
-0.29970962	shimmers on	-1.1026623
-0.29970962	shells on	-1.1663314
-0.29970962	marshmallows on	-0.9378521
-0.7742019	ride on	-0.30103
-0.29970962	twilight on	-0.86530143
-0.29970962	outdoors on	-0.66900676
-0.29970962	misplaced on	-0.42596874
-0.29970962	picnic on	-0.30103
-0.29970962	put on	-0.30103
-2.2947812	the field	-1.1026623
-2.7035573	<s> forward	-1.30103
-2.9120312	<s> root	-1.1026623
-1.2539417	my sister	-1.1026623
-1.5974847	be made	-0.86530143
-0.30080009	sister made	-1.1026623
-2.2947812	the flowered	-1.1026623
-0.30088192	flowered curtains	-1.1026623
-2.9120312	<s> bright	-1.1026623
-0.30088192	bright sunshine	-1.1026623
-0.30088192	sunshine shimmers	-1.1026623
-2.2947812	the ocean	-1.1026623
-2.9120312	<s> pay	-1.1026623
-2.9120312	<s> light	-1.1026623
-1.7706498	of other	-0.7781512
-0.9986509	two other	-1.2218487
-0.7773413	makes other	-0.42596874
-0.7777072	other cases	-1
-0.9966886	old also	-0.42596874
-1.7586514	i also	-0.7781512
-1.3723059	were also	-0.30103
-0.60073245	cases also	-1.1856365
-1.5444978	it also	-1.1856365
-0.7761614	job also	-0.7781512
-0.7773413	here under	-0.5228787
-1.3769804	were under	-1.1856365
-1.0775628	also under	-0.30103
-0.47689915	under advisement	-1.2218487
-2.5188735	<s> much	-1.4771212
-1.5746793	are much	-0.7781512
-0.7773413	through much	-0.30103
-2.8048027	<s> hate	-1.20412
-2.8445761	<s> whoop	-1.1663314
-2.4930143	<s> rock	-1.50515
-2.7862034	<s> why	-0.92081875
-0.60176396	why yell	-1.1249387
-1.1450926	or worry	-1.1249387
-0.60176396	over silly	-1.1249387
-0.7774619	other items	-0.7781512
-0.30080009	silly items	-1.1249387
-2.9120312	<s> toot	-1.1026623
-2.4660609	<s> knot	-1.5314789
-2.9120312	<s> fate	-1.1026623
-2.4557693	<s> side	-1.5399121
-1.2022841	one side	-1.1026623
-1.7182286	he got	-1.1026623
-1.6506623	we got	-0.69897
-1.7624403	i got	-0.30103
-1.0759933	also got	-0.42596874
-0.60099477	side got	-1.1026623
-1.0782936	got wet	-1.1026623
-2.5420246	<s> shoot	-1.4573772
-1.770119	i looked	-1.1249387
-1.5514653	it looked	-0.42596874
-0.60151994	brothers looked	-0.86530143
-1.7121699	and noticed	-1.1249387
-0.9992602	old men	-1.1249387
-2.8445761	<s> slay	-1.1663314
-2.8196125	<s> will	-0.9444827
-1.7148049	he will	-1.20412
-1.24933	she will	-0.66900676
-1.3351706	they will	-0.86530143
-0.30036572	families will	-0.86530143
-0.30036572	contributions will	-0.72699875
-1.1450926	will robin	-1.1249387
-0.30088192	robin wear	-1.1249387
-0.60176396	yellow lily	-1.1249387
-3.1234822	<s> was	-0.7781512
-1.2423801	she was	-0.38021123
-0.59916174	range was	-0.72699875
-1.7365865	i was	-1.0142405
-1.1360677	this was	-1.1249387
-1.070544	there was	-0.8239087
-1.070544	it was	-0.96781534
-0.2995785	shoes was	-1
-0.2995785	bracelet was	-0.86530143
-0.2995785	luck was	-0.7781512
-0.2995785	pickpocket was	-0.9378521
-0.2995785	display was	-0.42596874
-1.5769789	was conscious	-1.1663314
-2.2829056	the time	-1.1663314
-1.5746793	was time	-0.66900676
-0.7773413	first time	-0.97003675
-2.8242342	<s> prior	-1.1856365
-2.8405235	<s> play	-1.1663314
-1.4743702	can play	-1.1663314
-2.8445761	<s> briar	-1.1663314
-1.1450926	will allow	-1.20412
-2.0846257	a rare	-0.98227125
-0.60176396	rare lilyrare	-0.30103
-0.6016003	rare lie	-1.1663314
-0.30080009	lilyrare lie	-0.30103
-2.888363	<s> shear	-1.1249387
-3.5870285	<s> big	-0.42596874
-2.2583814	the big	-1.1663314
-2.0625484	a big	-0.7781512
-0.99734175	no big	-0.7781512
-1.0759933	by big	-0.30103
-0.9992602	big baseball	-1.1663314
-0.30088192	baseball players	-1.1663314
-3.1166673	<s> get	-0.90309
-1.9787072	to get	-0.30103
-0.30075982	players get	-1.1663314
-0.7777072	get traded	-1.1663314
-2.2025297	<s> this	-1.2234251
-1.7670453	of this	-0.86530143
-0.60125726	play this	-1.1663314
-0.7769476	back this	-1.146128
-1.5754359	was easy	-1.1249387
-0.30080009	arent easy	-0.42596874
-1.3774602	for us	-1.4573772
-0.7774619	above us	-1
-2.8405235	<s> fear	-1.1663314
-0.99885166	no fear	-0.72699875
-2.888363	<s> sprinkle	-1.1249387
-2.888363	<s> snoop	-1.1249387
-1.773731	i scrubbed	-1.146128
-2.2947812	the floors	-1.146128
-0.30088192	floors thoroughly	-1.146128
-2.5856502	<s> boot	-1.4149734
-2.768368	<s> rocks	-1.2388821
-2.4167063	<s> witch	-1.5797836
-2.861662	<s> though	-1.146128
-0.7774619	place though	-0.90309
-2.8445761	<s> galore	-1.1663314
-1.773731	i tried	-1.1249387
-2.9049942	<s> tell	-1.1026623
-1.6838915	to tell	-0.9444827
-1.770119	i tell	-0.7781512
-2.9658332	<s> people	-1.0280287
-0.7765543	those people	-0.7781512
-0.90096205	tell people	-1.1249387
-0.7765543	young people	-0.86530143
-0.30049703	elderly people	-0.7781512
-2.2947812	the community	-1.1249387
-2.888363	<s> gnaw	-1.1249387
-2.888363	<s> cycle	-1.1249387
-2.8445761	<s> delta	-1.1663314
-1.8016131	is thinner	-1.1663314
-0.60125726	away than	-0.30103
-0.30062842	thinner than	-1.1663314
-0.30062842	lower than	-1.1249387
-0.60125726	quicker than	-0.7781512
-1.773731	i am	-1.3152704
-2.8445761	<s> bear	-1.1663314
-2.888363	<s> error	-1.1249387
-2.8048027	<s> jungle	-1.20412
-2.4930143	<s> nothing	-1.20412
-1.3774602	as offensive	-1.2388821
-1.7991086	is offensive	-0.30103
-3.9736695	<s> innocence	-0.30103
-1.3774602	as innocence	-1.20412
-2.6887605	<s> menu	-1.3152704
-2.888363	<s> peer	-1.1249387
-2.4660609	<s> lip	-1.5314789
-2.888363	<s> dot	-1.1249387
-1.6593649	we gathered	-1.1663314
-0.30088192	gathered shells	-1.1663314
-2.2947812	the beach	-1.20412
-3.6795816	<s> feel	-0.42596874
-1.7713063	i feel	-1.1249387
-3.3876572	<s> can	-0.42596874
-1.307215	you can	-1.0280287
-1.6305418	we can	-0.90309
-1.4558418	i can	-0.8519375
-1.070544	also can	-0.7781512
-0.2995785	silverware can	-1.2218487
-0.59916174	work can	-1.0280287
-0.2995785	dance can	-1
-0.59916174	basketball can	-0.7781512
-0.2995785	trespassers can	-0.86530143
-0.59916174	gold can	-0.7781512
-0.2995785	standby can	-0.30103
-1.1450926	this weekend	-1.1663314
-2.8445761	<s> tie	-1.1663314
-2.2402358	<s> sigh	-1.7533276
-2.8445761	<s> mere	-1.1663314
-2.888363	<s> everything	-1.1249387
-0.30075982	everything went	-1.1249387
-0.9020104	things went	-0.7781512
-0.30075982	marriage went	-0.86530143
-0.7774619	under real	-0.5228787
-0.7774619	went real	-1.1249387
-0.60176396	real smooth	-1.1249387
-2.2947812	the sheriff	-1.1249387
-2.6215096	<s> pad	-1.3802112
-2.8011029	<s> their	-1.20412
-0.30080009	lost their	-1.1026623
-0.99885166	big house	-0.7781512
-0.6016003	their house	-1.20412
-1.8016131	is grey	-1.20412
-1.2029369	your grades	-1.1249387
-1.1450926	or lower	-1.1249387
-0.902498	than nancys	-1.1249387
-2.8048027	<s> urgent	-1.20412
-2.2947812	the humidity	-1.1249387
-1.8016131	is overwhelming	-1.1249387
-2.409613	<s> there	-1.2787536
-0.30049703	overwhelming there	-1.1249387
-0.60099477	basketball there	-0.86530143
-0.7765543	sat there	-0.42596874
-0.30049703	unfortunately there	-0.30103
-2.888363	<s> explore	-1.1249387
-2.5194428	<s> they	-0.74036264
-1.1414992	do they	-0.86530143
-0.7761614	where they	-0.72699875
-0.9004389	night they	-1.1026623
-0.9004389	things they	-0.5228787
-0.30036572	because they	-0.42596874
-1.3407967	they carried	-1.1249387
-2.2947812	the stretcher	-1.1249387
-1.2029369	one validated	-1.1249387
-0.30088192	validated acts	-1.1249387
-1.7740242	of school	-1.1249387
-0.30088192	school districts	-1.1249387
-2.888363	<s> loop	-1.1249387
-2.888363	<s> jane	-1.1249387
-0.30075982	jane may	-1.1249387
-0.7773413	few may	-0.66900676
-0.30075982	company may	-0.42596874
-0.7777072	may earn	-1.1249387
-0.9986509	more money	-1.1249387
-1.0775628	any money	-0.86530143
-0.30075982	save money	-0.30103
-0.7761614	money by	-1.1249387
-0.30036572	solicits by	-0.8239087
-0.30036572	begin by	-0.86530143
-0.60073245	them by	-0.72699875
-0.30036572	rewarded by	-0.30103
-0.30036572	acting by	-0.30103
-0.60151994	while working	-0.86530143
-1.0775628	by working	-1.1249387
-0.30075982	credit working	-0.5228787
-1.5966886	be hard	-0.66900676
-0.7773413	working hard	-1.1249387
-1.1442405	its hard	-0.30103
-2.6566405	<s> back	-1.3424227
-0.30075982	bounce back	-1.146128
-0.30075982	cutting back	-1.0543576
-2.464361	<s> four	-1.5314789
-1.997027	the four	-0.845098
-2.888363	<s> fruit	-1.1249387
-2.6991897	<s> night	-1
-0.60151994	after night	-1.1026623
-0.9986509	at night	-0.8239087
-1.1445211	day after	-1.1026623
-0.90217113	night after	-1.1026623
-1.040579	they received	-0.90309
-0.60176396	received annoying	-1.1026623
-3.6661005	<s> phone	-0.42596874
-1.0775628	by phone	-0.8239087
-0.30075982	annoying phone	-1.1026623
-0.6016003	bad calls	-0.7781512
-0.7774619	phone calls	-1.1026623
-2.9120312	<s> hem	-1.1026623
-2.865918	<s> seeds	-1.146128
-2.9120312	<s> sign	-1.1026623
-2.865918	<s> november	-1.146128
-2.9120312	<s> alfalfa	-1.1026623
-1.8016131	is healthy	-1.1026623
-2.9120312	<s> mush	-1.1026623
-2.865918	<s> oscar	-1.146128
-2.5400004	<s> sell	-1.4573772
-0.30080009	hell sell	-0.72699875
-2.2947812	the misguided	-1.1026623
-0.30088192	misguided souls	-1.1026623
-1.4130523	have lost	-1.1026623
-2.2829056	the way	-0.7781512
-0.60151994	their way	-1.1026623
-1.0775628	any way	-0.66900676
-2.583413	<s> five	-1.4149734
-1.1445211	had five	-0.30103
-1.5769789	are losing	-1.1026623
-0.902498	water replace	-1.1026623
-2.0465798	<s> it	-1.0894004
-1.5937417	you it	-0.7781512
-1.7392371	of it	-0.8239087
-1.3964716	have it	-0.86530143
-1.1360677	do it	-0.30103
-0.2995785	replace it	-1.1026623
-0.59916174	thought it	-0.30103
-0.59916174	done it	-0.66900676
-0.2995785	nailed it	-1.1026623
-0.2995785	kept it	-0.9378521
-0.59916174	confirmation it	-0.66900676
-0.2995785	handle it	-0.66900676
-1.5536449	it immediately	-1.1026623
-2.865918	<s> hill	-1.146128
-2.9120312	<s> fitting	-1.1026623
-2.9120312	<s> swing	-1.1026623
-3.3156219	<s> arm	-0.72699875
-1.2022841	your arm	-1.1026623
-1.3784378	as high	-1.1026623
-2.4089994	<s> pit	-1.5873368
-2.5972774	<s> zero	-1.4036924
-2.3939843	<s> fat	-1.60206
-2.9073012	<s> thought	-1.1026623
-1.7713063	i thought	-0.30103
-2.9120312	<s> darn	-1.1026623
-2.9120312	<s> golf	-1.1026623
-1.6848251	to expect	-0.64345264
-1.7713063	i expect	-1.146128
-1.1450926	well bounce	-1.146128
-1.1450926	this week	-1.146128
