\data\
ngram 1=1272
ngram 2=2572
ngram 3=2134

\1-grams:
-3.440386	<unk>	0
0	<s>	-1.0899097
-0.5868211	</s>	0
-3.3606136	pat	-0.30103
-3.3606136	meat	-0.30103
-3.3606136	air	-0.30103
-3.3606136	swarm	-0.30103
-2.8122797	no	-0.30103
-3.3606136	storm	-0.30103
-3.3606136	usually	-0.30103
-3.3606136	minus	-0.30103
-3.166852	several	-0.30103
-3.3606136	buttons	-0.30103
-3.3606136	dug	-0.30103
-3.3606136	feet	-0.30103
-3.3606136	train	-0.30103
-3.3606136	but	-0.30103
-2.5674932	he	-0.30103
-3.166852	always	-0.30103
-3.3606136	answers	-0.30103
-3.3606136	banana	-0.30103
-3.3606136	oil	-0.30103
-3.3606136	beat	-0.30103
-1.8425072	the	-0.30103
-3.166852	quick	-0.30103
-3.166852	brown	-0.30103
-3.3606136	fox	-0.30103
-3.3606136	jumps	-0.30103
-3.3606136	over	-0.30103
-3.3606136	lazy	-0.30103
-3.3606136	dog	-0.30103
-2.7145529	we	-0.30103
-2.5674932	have	-0.30103
-3.1174169	often	-0.30103
-3.3606136	urged	-0.30103
-2.9385831	him	-0.30103
-1.8922482	to	-0.30103
-3.166852	walk	-0.30103
-2.9385831	more	-0.30103
-2.0685852	and	-0.30103
-3.3606136	smoke	-0.30103
-3.3606136	less	-0.30103
-3.3606136	rake	-0.30103
-2.1323707	for	-0.30103
-3.166852	grow	-0.30103
-2.9385831	one	-0.30103
-3.1174169	two	-0.30103
-3.3606136	rage	-0.30103
-3.3606136	form	-0.30103
-3.3606136	farm	-0.30103
-3.3606136	horn	-0.30103
-3.3606136	sheet	-0.30103
-3.3606136	ship	-0.30103
-3.3606136	left	-0.30103
-3.3606136	sticks	-0.30103
-3.3606136	glow	-0.30103
-3.3606136	born	-0.30103
-3.3606136	corn	-0.30103
-3.166852	right	-0.30103
-2.6348279	well	-0.30103
-2.1558993	is	-0.31806335
-3.3606136	nearly	-0.30103
-3.3606136	ninety	-0.30103
-3.1174169	three	-0.30103
-2.9385831	years	-0.30103
-3.1174169	old	-0.30103
-3.3606136	feed	-0.30103
-3.166852	rain	-0.30103
-3.3606136	tip	-0.30103
-3.1174169	down	-0.30103
-3.166852	store	-0.30103
-3.3606136	dresses	-0.30103
-3.166852	himself	-0.30103
-2.2653015	in	-0.3290587
-2.6348279	an	-0.30103
-3.3606136	ancient	-0.30103
-3.166852	black	-0.30103
-3.3606136	frock	-0.30103
-3.166852	coat	-0.30103
-3.3606136	grandfather	-0.30103
-3.3606136	likes	-0.30103
-2.4118938	be	-0.30103
-3.3606136	modern	-0.30103
-3.166852	his	-0.30103
-3.3606136	language	-0.30103
-3.3606136	torn	-0.30103
-3.3606136	yes	-0.30103
-3.3606136	sleep	-0.30103
-3.3606136	both	-0.30103
-3.3606136	figures	-0.30103
-3.3606136	would	-0.30103
-3.166852	go	-0.30103
-3.3606136	higher	-0.30103
-3.1174169	later	-0.30103
-3.3606136	troop	-0.30103
-3.3606136	wish	-0.30103
-3.3606136	ate	-0.30103
-3.3606136	hear	-0.30103
-3.3606136	pot	-0.30103
-3.166852	white	-0.30103
-3.3606136	mother	-0.30103
-3.3606136	sews	-0.30103
-3.3606136	yellow	-0.30103
-3.3606136	gingham	-0.30103
-3.3606136	aprons	-0.30103
-2.9385831	i	-0.30103
-3.1174169	just	-0.30103
-3.166852	try	-0.30103
-2.9385831	do	-0.30103
-2.7145529	my	-0.30103
-3.3606136	best	-0.30103
-3.166852	deer	-0.30103
-3.3606136	group	-0.30103
-3.3606136	cheer	-0.30103
-3.3606136	thigh	-0.30103
-3.3606136	coupe	-0.30103
-3.166852	write	-0.30103
-3.3606136	area	-0.30103
-3.3606136	steer	-0.30103
-3.3606136	tile	-0.30103
-3.3606136	select	-0.30103
-3.3606136	forward	-0.30103
-3.3606136	sister	-0.30103
-3.3606136	made	-0.30103
-3.3606136	flowered	-0.30103
-3.3606136	curtains	-0.30103
-3.1174169	much	-0.30103
-3.3606136	hate	-0.30103
-3.3606136	whoop	-0.30103
-3.3606136	side	-0.30103
-2.9385831	got	-0.30103
-3.3606136	wet	-0.30103
-3.3606136	shoot	-0.30103
-3.3606136	slay	-0.30103
-3.3606136	play	-0.30103
-2.7145529	all	-0.30103
-2.8122797	big	-0.30103
-3.3606136	baseball	-0.30103
-3.3606136	players	-0.30103
-3.1174169	get	-0.30103
-3.3606136	traded	-0.30103
-3.3606136	scrubbed	-0.30103
-3.3606136	floors	-0.30103
-3.3606136	thoroughly	-0.30103
-3.3606136	boot	-0.30103
-3.3606136	rocks	-0.30103
-3.3606136	witch	-0.30103
-3.3606136	galore	-0.30103
-3.3606136	delta	-0.30103
-3.3606136	she	-0.30103
-3.3606136	thinner	-0.30103
-3.1174169	than	-0.30103
-3.3606136	am	-0.30103
-3.3606136	nothing	-0.30103
-2.8122797	as	-0.30103
-3.166852	offensive	-0.30103
-3.3606136	innocence	-0.30103
-3.3606136	menu	-0.30103
-3.3606136	peer	-0.30103
-3.3606136	lip	-0.30103
-3.3606136	gathered	-0.30103
-3.3606136	shells	-0.30103
-2.5674932	on	-0.42596874
-3.3606136	beach	-0.30103
-3.3606136	mere	-0.30103
-3.3606136	pad	-0.30103
-3.3606136	their	-0.30103
-3.166852	house	-0.30103
-3.3606136	grey	-0.30103
-3.3606136	urgent	-0.30103
-3.166852	four	-0.30103
-3.1174169	night	-0.30103
-3.3606136	after	-0.30103
-2.7145529	they	-0.30103
-3.3606136	received	-0.30103
-3.3606136	annoying	-0.30103
-3.1174169	phone	-0.30103
-3.166852	calls	-0.30103
-3.3606136	november	-0.30103
-3.3606136	alfalfa	-0.30103
-3.3606136	healthy	-0.30103
-2.3324418	you	-0.30103
-3.3606136	mush	-0.30103
-3.3606136	oscar	-0.30103
-3.166852	sell	-0.30103
-3.166852	five	-0.30103
-3.3606136	pit	-0.30103
-3.3606136	zero	-0.30103
-3.3606136	fat	-0.30103
-3.3606136	darn	-0.30103
-3.166852	expect	-0.30103
-3.3606136	bounce	-0.30103
-3.3606136	back	-0.30103
-3.1174169	this	-0.30103
-3.3606136	week	-0.30103
-3.3606136	six	-0.30103
-3.166852	when	-0.30103
-3.3606136	else	-0.30103
-3.3606136	fails	-0.30103
-3.3606136	use	-0.30103
-3.3606136	force	-0.30103
-3.3606136	hat	-0.30103
-3.3606136	seed	-0.30103
-3.3606136	pitting	-0.30103
-2.457832	it	-0.30103
-2.9385831	also	-0.30103
-3.166852	provides	-0.30103
-3.3606136	funds	-0.30103
-3.3606136	clear	-0.30103
-3.3606136	slums	-0.30103
-3.1174169	help	-0.30103
-3.3606136	colleges	-0.30103
-3.3606136	build	-0.30103
-3.3606136	dormitories	-0.30103
-3.3606136	bloat	-0.30103
-2.4118938	was	-0.30103
-1.9056275	a	-0.3098039
-3.1174169	good	-0.30103
-3.1174169	win	-0.30103
-3.3606136	us	-0.30103
-3.166852	has	-0.30103
-3.3606136	been	-0.30103
-3.166852	done	-0.30103
-3.1174169	yet	-0.30103
-3.1174169	take	-0.30103
-3.3606136	advantage	-0.30103
-2.0685852	of	-0.3187588
-3.3606136	enabling	-0.30103
-3.3606136	legislation	-0.30103
-3.3606136	aluminum	-0.30103
-3.3606136	silverware	-0.30103
-2.3703535	can	-0.42596874
-3.3606136	flimsy	-0.30103
-3.3606136	shy	-0.30103
-3.3606136	cake	-0.30103
-3.3606136	period	-0.30103
-3.3606136	transition	-0.30103
-2.7145529	me	-0.30103
-2.9385831	there	-0.30103
-3.3606136	treehouse	-0.30103
-2.8122797	up	-0.30103
-3.166852	above	-0.30103
-3.3606136	nine	-0.30103
-3.166852	not	-0.30103
-3.3606136	program	-0.30103
-3.3606136	socialized	-0.30103
-3.3606136	medicine	-0.30103
-3.3606136	league	-0.30103
-2.9385831	at	-0.30103
-3.3606136	eventually	-0.30103
-3.3606136	became	-0.30103
-3.3606136	rather	-0.30103
-3.3606136	proud	-0.30103
-3.3606136	claim	-0.30103
-3.3606136	seven	-0.30103
-3.3606136	leak	-0.30103
-3.3606136	injuries	-0.30103
-2.6348279	were	-0.30103
-3.3606136	same	-0.30103
-3.3606136	leg	-0.30103
-3.166852	job	-0.30103
-3.3606136	many	-0.30103
-3.3606136	benefits	-0.30103
-3.3606136	eight	-0.30103
-3.3606136	top	-0.30103
-3.3606136	lima	-0.30103
-3.3606136	vat	-0.30103
-3.3606136	blow	-0.30103
-3.3606136	spain	-0.30103
-3.3606136	fill	-0.30103
-3.3606136	roll	-0.30103
-3.3606136	wire	-0.30103
-3.3606136	lay	-0.30103
-3.3606136	near	-0.30103
-3.166852	wall	-0.30103
-3.3606136	harm	-0.30103
-3.3606136	wrapped	-0.30103
-3.3606136	package	-0.30103
-3.3606136	hastily	-0.30103
-3.3606136	chop	-0.30103
-3.3606136	books	-0.30103
-2.2975755	are	-0.30103
-2.8122797	very	-0.30103
-3.3606136	expensive	-0.30103
-3.166852	did	-0.30103
-3.3606136	dad	-0.30103
-3.166852	academic	-0.30103
-3.3606136	bidding	-0.30103
-3.3606136	shell	-0.30103
-3.3606136	sin	-0.30103
-3.3606136	ticker	-0.30103
-3.3606136	tin	-0.30103
-3.3606136	pair	-0.30103
-3.3606136	shoes	-0.30103
-3.166852	new	-0.30103
-2.8122797	really	-0.30103
-3.3606136	crucified	-0.30103
-3.3606136	nailed	-0.30103
-3.3606136	yard	-0.30103
-3.3606136	loss	-0.30103
-2.9385831	people	-0.30103
-3.166852	who	-0.30103
-3.3606136	value	-0.30103
-3.3606136	themselves	-0.30103
-3.3606136	lifes	-0.30103
-3.3606136	winners	-0.30103
-3.3606136	owners	-0.30103
-3.3606136	regularly	-0.30103
-3.1174169	look	-0.30103
-3.3606136	plumbing	-0.30103
-3.166852	leaks	-0.30103
-3.3606136	xray	-0.30103
-3.3606136	lock	-0.30103
-3.166852	sand	-0.30103
-3.3606136	ham	-0.30103
-3.1174169	im	-0.30103
-3.3606136	willing	-0.30103
-3.3606136	experiment	-0.30103
-3.166852	first	-0.30103
-3.166852	time	-0.30103
-3.3606136	although	-0.30103
-3.166852	alone	-0.30103
-3.3606136	survive	-0.30103
-3.3606136	excellent	-0.30103
-3.3606136	team	-0.30103
-3.3606136	nut	-0.30103
-3.166852	please	-0.30103
-3.3606136	open	-0.30103
-3.3606136	window	-0.30103
-3.3606136	quickly	-0.30103
-2.6348279	will	-0.30103
-3.3606136	allow	-0.30103
-3.3606136	rare	-0.30103
-3.3606136	lie	-0.30103
-3.3606136	zulu	-0.30103
-3.1174169	its	-0.30103
-3.3606136	fun	-0.30103
-3.3606136	roast	-0.30103
-3.3606136	marshmallows	-0.30103
-2.9385831	gas	-0.30103
-3.3606136	burner	-0.30103
-3.3606136	wait	-0.30103
-3.166852	work	-0.30103
-3.3606136	long	-0.30103
-3.3606136	whitecapped	-0.30103
-3.3606136	waves	-0.30103
-3.3606136	covered	-0.30103
-3.3606136	entire	-0.30103
-3.3606136	bay	-0.30103
-3.3606136	then	-0.30103
-3.3606136	wed	-0.30103
-3.3606136	someplace	-0.30103
-3.3606136	bed	-0.30103
-3.3606136	flicker	-0.30103
-3.3606136	bread	-0.30103
-3.3606136	want	-0.30103
-3.3606136	sicker	-0.30103
-3.3606136	greg	-0.30103
-3.3606136	pick	-0.30103
-3.3606136	peck	-0.30103
-3.3606136	potatoes	-0.30103
-3.3606136	fork	-0.30103
-3.1174169	said	-0.30103
-3.3606136	calico	-0.30103
-3.166852	cat	-0.30103
-3.166852	keep	-0.30103
-3.3606136	took	-0.30103
-3.1174169	out	-0.30103
-3.1174169	day	-0.30103
-3.166852	only	-0.30103
-3.3606136	lawyers	-0.30103
-3.3606136	love	-0.30103
-3.3606136	millionaires	-0.30103
-3.3606136	litter	-0.30103
-3.3606136	sink	-0.30103
-3.3606136	red	-0.30103
-3.3606136	ned	-0.30103
-3.3606136	sit	-0.30103
-3.3606136	being	-0.30103
-3.166852	able	-0.30103
-3.3606136	dance	-0.30103
-3.166852	too	-0.30103
-3.3606136	hand	-0.30103
-3.3606136	rest	-0.30103
-3.3606136	those	-0.30103
-3.3606136	musicians	-0.30103
-3.3606136	harmonize	-0.30103
-3.3606136	marvelously	-0.30103
-3.166852	most	-0.30103
-3.166852	young	-0.30103
-3.166852	rise	-0.30103
-3.3606136	early	-0.30103
-3.1174169	every	-0.30103
-3.3606136	morning	-0.30103
-3.166852	bought	-0.30103
-3.3606136	chair	-0.30103
-3.166852	quicker	-0.30103
-3.3606136	romeo	-0.30103
-3.3606136	travel	-0.30103
-2.8122797	about	-0.30103
-3.3606136	leisure	-0.30103
-3.3606136	nod	-0.30103
-3.1174169	place	-0.30103
-3.3606136	though	-0.30103
-3.3606136	small	-0.30103
-3.3606136	liquor	-0.30103
-3.3606136	beg	-0.30103
-2.7145529	that	-0.30103
-3.3606136	guard	-0.30103
-3.3606136	gallon	-0.30103
-3.1174169	ride	-0.30103
-3.3606136	stagecoach	-0.30103
-3.3606136	neat	-0.30103
-3.3606136	dead	-0.30103
-3.3606136	wit	-0.30103
-3.3606136	called	-0.30103
-3.3606136	different	-0.30103
-3.3606136	painters	-0.30103
-3.3606136	stimulating	-0.30103
-3.3606136	discussions	-0.30103
-3.3606136	students	-0.30103
-3.3606136	attention	-0.30103
-3.3606136	celebrate	-0.30103
-2.8122797	your	-0.30103
-3.166852	brothers	-0.30103
-3.3606136	success	-0.30103
-3.3606136	lake	-0.30103
-3.3606136	thread	-0.30103
-3.1174169	dont	-0.30103
-3.3606136	charlies	-0.30103
-3.3606136	dirty	-0.30103
-3.3606136	dishes	-0.30103
-3.3606136	sew	-0.30103
-3.3606136	sort	-0.30103
-3.3606136	catch	-0.30103
-3.1174169	played	-0.30103
-3.166852	basketball	-0.30103
-3.3606136	while	-0.30103
-3.166852	working	-0.30103
-3.3606136	toward	-0.30103
-3.3606136	law	-0.30103
-3.3606136	degree	-0.30103
-3.3606136	coconut	-0.30103
-3.3606136	cream	-0.30103
-3.3606136	pie	-0.30103
-3.1174169	makes	-0.30103
-3.3606136	nice	-0.30103
-3.3606136	dessert	-0.30103
-3.3606136	selected	-0.30103
-3.3606136	places	-0.30103
-3.166852	where	-0.30103
-3.3606136	families	-0.30103
-3.3606136	welcome	-0.30103
-3.3606136	cakes	-0.30103
-3.3606136	bill	-0.30103
-3.3606136	accomplished	-0.30103
-3.3606136	artists	-0.30103
-3.3606136	obtain	-0.30103
-3.3606136	popularity	-0.30103
-3.166852	short	-0.30103
-3.3606136	shin	-0.30103
-3.1174169	some	-0.30103
-3.3606136	prefer	-0.30103
-3.3606136	traditional	-0.30103
-3.3606136	steel	-0.30103
-3.3606136	kind	-0.30103
-3.3606136	cork	-0.30103
-3.3606136	weep	-0.30103
-3.3606136	biblical	-0.30103
-3.3606136	scholars	-0.30103
-3.3606136	argue	-0.30103
-3.3606136	history	-0.30103
-3.3606136	rid	-0.30103
-3.3606136	quart	-0.30103
-3.3606136	shot	-0.30103
-3.3606136	definitely	-0.30103
-3.3606136	ligament	-0.30103
-3.3606136	damage	-0.30103
-3.3606136	knee	-0.30103
-3.3606136	sheep	-0.30103
-3.3606136	snort	-0.30103
-3.3606136	pork	-0.30103
-3.166852	fact	-0.30103
-3.1174169	our	-0.30103
-3.3606136	whole	-0.30103
-3.3606136	defensive	-0.30103
-3.3606136	unit	-0.30103
-3.3606136	sketch	-0.30103
-3.3606136	knows	-0.30103
-3.1174169	what	-0.30103
-3.3606136	youll	-0.30103
-3.3606136	discover	-0.30103
-3.3606136	yourself	-0.30103
-3.3606136	blend	-0.30103
-3.3606136	shed	-0.30103
-3.166852	looked	-0.30103
-3.3606136	identical	-0.30103
-3.166852	critical	-0.30103
-3.3606136	equipment	-0.30103
-3.1174169	needs	-0.30103
-3.3606136	proper	-0.30103
-3.3606136	maintenance	-0.30103
-3.3606136	see	-0.30103
-3.3606136	shop	-0.30103
-3.166852	heat	-0.30103
-3.3606136	suddenly	-0.30103
-3.3606136	reflexes	-0.30103
-3.3606136	gone	-0.30103
-3.3606136	gill	-0.30103
-3.3606136	show	-0.30103
-3.166852	read	-0.30103
-3.3606136	results	-0.30103
-3.3606136	disappointing	-0.30103
-3.3606136	tug	-0.30103
-3.3606136	cash	-0.30103
-3.3606136	stretch	-0.30103
-3.3606136	steak	-0.30103
-3.3606136	ray	-0.30103
-3.3606136	fort	-0.30103
-3.3606136	lee	-0.30103
-3.3606136	hold	-0.30103
-3.3606136	ive	-0.30103
-3.3606136	kept	-0.30103
-2.5092106	with	-0.30103
-3.3606136	ever	-0.30103
-3.3606136	since	-0.30103
-3.3606136	thats	-0.30103
-3.1174169	life	-0.30103
-3.3606136	shred	-0.30103
-3.3606136	sight	-0.30103
-3.3606136	fish	-0.30103
-3.3606136	swam	-0.30103
-3.3606136	across	-0.30103
-3.3606136	pond	-0.30103
-3.3606136	doesnt	-0.30103
-3.1174169	like	-0.30103
-3.3606136	hanging	-0.30103
-3.3606136	around	-0.30103
-3.3606136	tort	-0.30103
-3.3606136	meats	-0.30103
-3.3606136	precious	-0.30103
-3.166852	eat	-0.30103
-3.166852	sport	-0.30103
-3.3606136	participate	-0.30103
-3.3606136	athletic	-0.30103
-3.3606136	activities	-0.30103
-3.3606136	trespassers	-0.30103
-3.3606136	prosecuted	-0.30103
-3.3606136	fined	-0.30103
-3.3606136	etiquette	-0.30103
-3.3606136	mandates	-0.30103
-3.3606136	compliance	-0.30103
-3.3606136	existing	-0.30103
-3.3606136	regulations	-0.30103
-3.3606136	touchdown	-0.30103
-3.3606136	resulted	-0.30103
-3.166852	little	-0.30103
-3.3606136	girls	-0.30103
-3.3606136	cut	-0.30103
-3.3606136	lacy	-0.30103
-3.3606136	valentines	-0.30103
-3.3606136	geese	-0.30103
-3.3606136	mill	-0.30103
-3.3606136	barbs	-0.30103
-3.166852	gold	-0.30103
-3.3606136	bracelet	-0.30103
-3.3606136	graduation	-0.30103
-3.3606136	present	-0.30103
-3.3606136	reap	-0.30103
-3.3606136	dill	-0.30103
-3.3606136	lend	-0.30103
-3.3606136	foe	-0.30103
-3.3606136	asked	-0.30103
-3.3606136	loan	-0.30103
-3.166852	make	-0.30103
-2.8122797	any	-0.30103
-3.166852	money	-0.30103
-3.3606136	toe	-0.30103
-3.3606136	threat	-0.30103
-3.3606136	port	-0.30103
-3.3606136	scream	-0.30103
-3.3606136	warm	-0.30103
-3.3606136	voice	-0.30103
-3.3606136	rip	-0.30103
-3.3606136	wise	-0.30103
-3.166852	think	-0.30103
-3.166852	full	-0.30103
-3.3606136	stuff	-0.30103
-3.3606136	bend	-0.30103
-3.3606136	muck	-0.30103
-3.3606136	snake	-0.30103
-3.3606136	havent	-0.30103
-3.3606136	seen	-0.30103
-3.3606136	friend	-0.30103
-3.3606136	bumper	-0.30103
-3.3606136	entertaining	-0.30103
-3.3606136	ash	-0.30103
-3.166852	fit	-0.30103
-3.3606136	sheer	-0.30103
-3.3606136	twilight	-0.30103
-3.3606136	twelfth	-0.30103
-3.3606136	chablis	-0.30103
-3.3606136	hash	-0.30103
-3.3606136	worse	-0.30103
-3.3606136	luck	-0.30103
-3.166852	still	-0.30103
-3.166852	come	-0.30103
-3.3606136	golfing	-0.30103
-3.3606136	fathers	-0.30103
-3.3606136	ruled	-0.30103
-3.3606136	favor	-0.30103
-3.3606136	hail	-0.30103
-3.3606136	code	-0.30103
-3.3606136	elderly	-0.30103
-3.3606136	excluded	-0.30103
-3.3606136	beam	-0.30103
-3.3606136	remains	-0.30103
-3.3606136	fiercest	-0.30103
-3.3606136	competitors	-0.30103
-3.3606136	knife	-0.30103
-3.3606136	pete	-0.30103
-3.3606136	addition	-0.30103
-3.3606136	subtraction	-0.30103
-3.3606136	learned	-0.30103
-3.3606136	skills	-0.30103
-3.166852	found	-0.30103
-3.3606136	anywhere	-0.30103
-3.3606136	gash	-0.30103
-3.3606136	pleased	-0.30103
-3.166852	way	-0.30103
-2.9385831	things	-0.30103
-3.166852	went	-0.30103
-3.3606136	loved	-0.30103
-3.3606136	minute	-0.30103
-3.3606136	idea	-0.30103
-3.3606136	fender	-0.30103
-3.3606136	woe	-0.30103
-3.3606136	member	-0.30103
-3.3606136	beast	-0.30103
-3.3606136	suggested	-0.30103
-3.3606136	dinner	-0.30103
-3.1174169	together	-0.30103
-3.3606136	so	-0.30103
-3.1174169	if	-0.30103
-3.3606136	anybody	-0.30103
-3.3606136	solicits	-0.30103
-2.8122797	by	-0.30103
-3.166852	sure	-0.30103
-3.3606136	mail	-0.30103
-3.3606136	dough	-0.30103
-3.3606136	ambidextrous	-0.30103
-3.3606136	pickpockets	-0.30103
-3.3606136	accomplish	-0.30103
-3.3606136	guess	-0.30103
-3.3606136	wedding	-0.30103
-3.3606136	trip	-0.30103
-3.1174169	her	-0.30103
-3.3606136	dark	-0.30103
-3.3606136	hair	-0.30103
-3.3606136	combed	-0.30103
-3.3606136	casually	-0.30103
-3.3606136	seam	-0.30103
-3.3606136	beep	-0.30103
-3.166852	quite	-0.30103
-3.3606136	vocal	-0.30103
-3.3606136	requires	-0.30103
-3.3606136	investment	-0.30103
-3.3606136	pickpocket	-0.30103
-3.3606136	caught	-0.30103
-3.3606136	redhanded	-0.30103
-3.3606136	mock	-0.30103
-3.3606136	dock	-0.30103
-3.166852	sea	-0.30103
-3.3606136	grandmother	-0.30103
-3.3606136	outgrew	-0.30103
-3.3606136	upbringing	-0.30103
-3.3606136	petticoats	-0.30103
-3.3606136	sun	-0.30103
-3.3606136	died	-0.30103
-3.3606136	ember	-0.30103
-3.3606136	seat	-0.30103
-3.3606136	food	-0.30103
-3.3606136	reef	-0.30103
-3.3606136	fire	-0.30103
-3.3606136	straw	-0.30103
-3.3606136	blaze	-0.30103
-3.3606136	sender	-0.30103
-3.3606136	classical	-0.30103
-3.3606136	performance	-0.30103
-3.3606136	gained	-0.30103
-3.3606136	acclaim	-0.30103
-3.3606136	position	-0.30103
-3.166852	covers	-0.30103
-3.3606136	number	-0.30103
-3.3606136	daily	-0.30103
-3.3606136	tasks	-0.30103
-3.3606136	common	-0.30103
-3.3606136	social	-0.30103
-3.3606136	director	-0.30103
-3.3606136	marriage	-0.30103
-2.7145529	from	-0.30103
-3.166852	start	-0.30103
-3.166852	tell	-0.30103
-3.3606136	wonderful	-0.30103
-3.3606136	renter	-0.30103
-3.3606136	row	-0.30103
-3.3606136	lender	-0.30103
-3.3606136	ape	-0.30103
-3.166852	didnt	-0.30103
-3.3606136	forks	-0.30103
-3.3606136	tender	-0.30103
-3.3606136	tea	-0.30103
-3.3606136	popular	-0.30103
-3.3606136	fans	-0.30103
-3.3606136	timber	-0.30103
-3.3606136	leap	-0.30103
-3.3606136	catastrophic	-0.30103
-3.3606136	economic	-0.30103
-3.3606136	cutbacks	-0.30103
-3.3606136	neglect	-0.30103
-3.3606136	poor	-0.30103
-3.3606136	tail	-0.30103
-3.3606136	bender	-0.30103
-3.3606136	ache	-0.30103
-3.3606136	center	-0.30103
-3.3606136	mom	-0.30103
-3.3606136	strongly	-0.30103
-3.3606136	dislikes	-0.30103
-3.3606136	appetizers	-0.30103
-3.3606136	beef	-0.30103
-3.3606136	temper	-0.30103
-2.8122797	had	-0.30103
-3.3606136	desire	-0.30103
-3.3606136	change	-0.30103
-3.3606136	ways	-0.30103
-3.3606136	wax	-0.30103
-3.3606136	pet	-0.30103
-3.3606136	aid	-0.30103
-3.3606136	knock	-0.30103
-3.3606136	lies	-0.30103
-3.3606136	cheese	-0.30103
-3.3606136	hatch	-0.30103
-3.3606136	lack	-0.30103
-3.3606136	compounded	-0.30103
-3.3606136	tenants	-0.30103
-3.166852	grievances	-0.30103
-3.3606136	bunch	-0.30103
-3.3606136	contributions	-0.30103
-3.3606136	greatly	-0.30103
-3.3606136	appreciated	-0.30103
-3.3606136	ease	-0.30103
-3.3606136	add	-0.30103
-3.3606136	chocolate	-0.30103
-3.3606136	roses	-0.30103
-3.166852	never	-0.30103
-3.3606136	fail	-0.30103
-3.3606136	romantic	-0.30103
-3.3606136	gift	-0.30103
-3.3606136	legislature	-0.30103
-3.3606136	met	-0.30103
-3.166852	judge	-0.30103
-3.3606136	state	-0.30103
-3.3606136	public	-0.30103
-3.3606136	education	-0.30103
-3.3606136	largest	-0.30103
-3.3606136	states	-0.30103
-3.3606136	peas	-0.30103
-3.3606136	bun	-0.30103
-3.3606136	punch	-0.30103
-3.3606136	ail	-0.30103
-3.3606136	begin	-0.30103
-3.3606136	trying	-0.30103
-3.3606136	speak	-0.30103
-3.3606136	tall	-0.30103
-3.3606136	range	-0.30103
-3.3606136	vital	-0.30103
-3.3606136	detail	-0.30103
-3.3606136	pill	-0.30103
-3.3606136	racks	-0.30103
-3.3606136	structures	-0.30103
-3.3606136	housing	-0.30103
-3.3606136	apartments	-0.30103
-3.3606136	masonry	-0.30103
-3.3606136	frame	-0.30103
-3.3606136	construction	-0.30103
-3.3606136	aches	-0.30103
-3.3606136	lit	-0.30103
-3.3606136	singers	-0.30103
-3.3606136	finger	-0.30103
-3.3606136	splinter	-0.30103
-3.3606136	now	-0.30103
-3.3606136	living	-0.30103
-3.3606136	exactly	-0.30103
-3.3606136	choose	-0.30103
-3.3606136	duck	-0.30103
-3.3606136	arm	-0.30103
-3.3606136	wanted	-0.30103
-3.3606136	actress	-0.30103
-3.166852	fell	-0.30103
-3.3606136	aptitude	-0.30103
-3.3606136	guarantees	-0.30103
-3.3606136	diploma	-0.30103
-3.3606136	charm	-0.30103
-3.3606136	great	-0.30103
-3.3606136	meeting	-0.30103
-3.3606136	prepared	-0.30103
-3.3606136	odd	-0.30103
-3.3606136	behavior	-0.30103
-3.3606136	friends	-0.30103
-3.3606136	mile	-0.30103
-3.3606136	rakes	-0.30103
-3.3606136	talked	-0.30103
-3.3606136	situation	-0.30103
-3.166852	other	-0.30103
-3.3606136	items	-0.30103
-3.3606136	fear	-0.30103
-3.1174169	sat	-0.30103
-3.3606136	relaxed	-0.30103
-3.3606136	hall	-0.30103
-3.3606136	sake	-0.30103
-3.166852	know	-0.30103
-3.3606136	coming	-0.30103
-3.3606136	pockets	-0.30103
-3.3606136	hell	-0.30103
-3.166852	them	-0.30103
-3.3606136	box	-0.30103
-3.3606136	plot	-0.30103
-3.3606136	laced	-0.30103
-3.3606136	mysterious	-0.30103
-3.3606136	incidents	-0.30103
-3.3606136	shelled	-0.30103
-3.3606136	clams	-0.30103
-3.3606136	chowder	-0.30103
-3.3606136	experience	-0.30103
-3.3606136	distress	-0.30103
-3.3606136	frustration	-0.30103
-3.3606136	obtaining	-0.30103
-3.3606136	degrees	-0.30103
-3.3606136	ticks	-0.30103
-3.3606136	prowler	-0.30103
-3.3606136	wore	-0.30103
-3.3606136	ski	-0.30103
-3.3606136	mask	-0.30103
-3.3606136	disguise	-0.30103
-3.166852	confirmation	-0.30103
-3.166852	such	-0.30103
-3.3606136	massive	-0.30103
-3.3606136	assaults	-0.30103
-3.3606136	independent	-0.30103
-3.3606136	sources	-0.30103
-3.3606136	chap	-0.30103
-3.3606136	lax	-0.30103
-3.166852	score	-0.30103
-3.3606136	munch	-0.30103
-3.3606136	added	-0.30103
-3.3606136	brought	-0.30103
-3.166852	petty	-0.30103
-3.3606136	jealousies	-0.30103
-3.3606136	personal	-0.30103
-3.3606136	even	-0.30103
-3.3606136	simple	-0.30103
-3.3606136	vocabulary	-0.30103
-3.3606136	contains	-0.30103
-3.3606136	symbols	-0.30103
-3.3606136	end	-0.30103
-3.3606136	eastern	-0.30103
-3.3606136	coast	-0.30103
-3.3606136	pure	-0.30103
-3.166852	pleasure	-0.30103
-3.3606136	excitement	-0.30103
-3.3606136	dial	-0.30103
-3.3606136	low	-0.30103
-3.3606136	cold	-0.30103
-3.3606136	whip	-0.30103
-3.3606136	few	-0.30103
-3.3606136	bad	-0.30103
-3.3606136	ink	-0.30103
-3.3606136	handle	-0.30103
-3.3606136	theyll	-0.30103
-3.3606136	again	-0.30103
-3.3606136	term	-0.30103
-3.3606136	wide	-0.30103
-3.3606136	drenched	-0.30103
-3.3606136	uninterrupted	-0.30103
-3.3606136	pant	-0.30103
-3.166852	may	-0.30103
-3.166852	hard	-0.30103
-3.166852	find	-0.30103
-3.3606136	cable	-0.30103
-3.3606136	translated	-0.30103
-3.3606136	weve	-0.30103
-3.3606136	past	-0.30103
-3.3606136	burn	-0.30103
-3.3606136	knew	-0.30103
-3.3606136	werent	-0.30103
-3.3606136	doing	-0.30103
-3.3606136	upgrade	-0.30103
-3.3606136	status	-0.30103
-3.3606136	reflect	-0.30103
-3.3606136	wealth	-0.30103
-3.166852	spring	-0.30103
-3.166852	street	-0.30103
-3.3606136	straight	-0.30103
-3.3606136	ahead	-0.30103
-3.3606136	serves	-0.30103
-3.3606136	meals	-0.30103
-3.3606136	disappointed	-0.30103
-3.3606136	order	-0.30103
-3.166852	wine	-0.30103
-3.3606136	eyes	-0.30103
-3.3606136	weave	-0.30103
-3.3606136	family	-0.30103
-3.3606136	requests	-0.30103
-3.3606136	flowers	-0.30103
-3.3606136	omitted	-0.30103
-3.3606136	wart	-0.30103
-3.3606136	wack	-0.30103
-3.166852	needed	-0.30103
-3.3606136	dash	-0.30103
-3.3606136	heart	-0.30103
-3.3606136	snow	-0.30103
-3.3606136	blew	-0.30103
-3.166852	into	-0.30103
-3.166852	large	-0.30103
-3.3606136	drifts	-0.30103
-3.3606136	regular	-0.30103
-3.3606136	attendance	-0.30103
-3.3606136	seldom	-0.30103
-3.3606136	required	-0.30103
-3.3606136	ball	-0.30103
-3.166852	myself	-0.30103
-3.3606136	last	-0.30103
-3.3606136	shortage	-0.30103
-3.3606136	caused	-0.30103
-3.3606136	steep	-0.30103
-3.3606136	price	-0.30103
-3.3606136	increases	-0.30103
-3.3606136	cars	-0.30103
-3.3606136	slightly	-0.30103
-3.3606136	damaged	-0.30103
-3.3606136	highway	-0.30103
-3.3606136	empty	-0.30103
-3.3606136	staff	-0.30103
-3.3606136	deserves	-0.30103
-3.3606136	lot	-0.30103
-3.3606136	credit	-0.30103
-3.166852	here	-0.30103
-3.3606136	under	-0.30103
-3.3606136	real	-0.30103
-3.3606136	obstacles	-0.30103
-3.3606136	hid	-0.30103
-3.3606136	why	-0.30103
-3.3606136	luke	-0.30103
-3.3606136	fold	-0.30103
-3.3606136	pink	-0.30103
-3.3606136	waste	-0.30103
-3.3606136	raisins	-0.30103
-3.3606136	outdoors	-0.30103
-3.166852	porch	-0.30103
-3.3606136	steps	-0.30103
-3.3606136	noted	-0.30103
-3.3606136	carefully	-0.30103
-3.166852	through	-0.30103
-3.3606136	clean	-0.30103
-3.3606136	report	-0.30103
-3.3606136	sail	-0.30103
-3.3606136	wipe	-0.30103
-3.3606136	continental	-0.30103
-3.3606136	drift	-0.30103
-3.3606136	geological	-0.30103
-3.3606136	theory	-0.30103
-3.3606136	huge	-0.30103
-3.3606136	part	-0.30103
-3.3606136	porcupines	-0.30103
-3.3606136	resemble	-0.30103
-3.3606136	urchins	-0.30103
-3.3606136	challenge	-0.30103
-3.166852	each	-0.30103
-3.3606136	generals	-0.30103
-3.3606136	intelligence	-0.30103
-3.3606136	wives	-0.30103
-3.3606136	cant	-0.30103
-3.3606136	abide	-0.30103
-3.3606136	mistakes	-0.30103
-3.3606136	own	-0.30103
-3.166852	game	-0.30103
-3.3606136	docks	-0.30103
-3.3606136	pole	-0.30103
-3.3606136	stable	-0.30103
-3.3606136	hiring	-0.30103
-3.3606136	wife	-0.30103
-3.3606136	ones	-0.30103
-3.3606136	company	-0.30103
-3.3606136	taxaided	-0.30103
-3.3606136	retirement	-0.30103
-3.3606136	income	-0.30103
-3.3606136	must	-0.30103
-3.3606136	ready	-0.30103
-3.3606136	sacrifice	-0.30103
-3.3606136	ban	-0.30103
-3.3606136	trips	-0.30103
-3.3606136	page	-0.30103
-3.3606136	accordion	-0.30103
-3.3606136	paid	-0.30103
-3.3606136	sprain	-0.30103
-3.3606136	fool	-0.30103
-3.3606136	boat	-0.30103
-3.3606136	ramp	-0.30103
-3.3606136	service	-0.30103
-3.3606136	should	-0.30103
-3.3606136	rewarded	-0.30103
-3.3606136	tips	-0.30103
-3.166852	paint	-0.30103
-3.3606136	canteen	-0.30103
-3.3606136	fresh	-0.30103
-3.166852	water	-0.30103
-3.3606136	shook	-0.30103
-3.3606136	mat	-0.30103
-3.3606136	sap	-0.30103
-3.3606136	pain	-0.30103
-3.3606136	hides	-0.30103
-3.3606136	mayonnaise	-0.30103
-3.3606136	fall	-0.30103
-3.3606136	mall	-0.30103
-3.3606136	feel	-0.30103
-3.3606136	seemed	-0.30103
-3.3606136	appealing	-0.30103
-3.3606136	panel	-0.30103
-3.3606136	doctors	-0.30103
-3.3606136	prescribe	-0.30103
-3.3606136	drugs	-0.30103
-3.3606136	freely	-0.30103
-3.3606136	vamp	-0.30103
-3.3606136	rat	-0.30103
-3.166852	saw	-0.30103
-3.3606136	weeks	-0.30103
-3.3606136	illegal	-0.30103
-3.3606136	postdate	-0.30103
-3.3606136	check	-0.30103
-3.3606136	space	-0.30103
-3.3606136	naval	-0.30103
-3.3606136	stall	-0.30103
-3.3606136	spade	-0.30103
-3.3606136	acting	-0.30103
-3.3606136	accident	-0.30103
-3.3606136	damp	-0.30103
-3.3606136	spray	-0.30103
-3.3606136	peach	-0.30103
-3.3606136	mabel	-0.30103
-3.3606136	told	-0.30103
-3.3606136	seriously	-0.30103
-3.3606136	injured	-0.30103
-3.3606136	because	-0.30103
-3.166852	practical	-0.30103
-3.3606136	funnel	-0.30103
-3.3606136	tap	-0.30103
-3.3606136	name	-0.30103
-3.3606136	gently	-0.30103
-3.3606136	jims	-0.30103
-3.3606136	foam	-0.30103
-3.3606136	sculpture	-0.30103
-3.3606136	maybe	-0.30103
-3.3606136	taking	-0.30103
-3.3606136	longer	-0.30103
-3.3606136	squared	-0.30103
-3.3606136	away	-0.30103
-3.3606136	bankers	-0.30103
-3.3606136	expected	-0.30103
-3.3606136	reach	-0.30103
-3.3606136	file	-0.30103
-3.3606136	soon	-0.30103
-3.3606136	muttering	-0.30103
-3.3606136	walls	-0.30103
-3.3606136	telephone	-0.30103
-3.3606136	booths	-0.30103
-3.3606136	arent	-0.30103
-3.3606136	easy	-0.30103
-3.3606136	paste	-0.30103
-3.3606136	foil	-0.30103
-3.3606136	map	-0.30103
-3.3606136	gable	-0.30103
-3.3606136	bull	-0.30103
-3.3606136	crawl	-0.30103
-3.3606136	pale	-0.30103
-3.3606136	creature	-0.30103
-3.3606136	pocket	-0.30103
-3.3606136	married	-0.30103
-3.3606136	saddle	-0.30103
-3.3606136	bowl	-0.30103
-3.3606136	nap	-0.30103
-3.3606136	table	-0.30103
-3.3606136	sable	-0.30103
-3.3606136	fable	-0.30103
-3.3606136	mold	-0.30103
-3.3606136	mole	-0.30103
-3.3606136	impossible	-0.30103
-3.166852	deal	-0.30103
-3.3606136	bureaucracy	-0.30103
-3.3606136	pace	-0.30103
-3.3606136	call	-0.30103
-3.3606136	describe	-0.30103
-3.3606136	idiotic	-0.30103
-3.3606136	predicament	-0.30103
-3.3606136	screech	-0.30103
-3.3606136	ladle	-0.30103
-3.3606136	bash	-0.30103
-3.3606136	room	-0.30103
-3.1174169	or	-0.30103
-3.3606136	portrait	-0.30103
-3.3606136	bagpipes	-0.30103
-3.3606136	bongos	-0.30103
-3.3606136	musical	-0.30103
-3.3606136	instruments	-0.30103
-3.3606136	thought	-0.30103
-3.166852	gin	-0.30103
-3.3606136	saws	-0.30103
-3.3606136	parts	-0.30103
-3.3606136	supplies	-0.30103
-3.3606136	used	-0.30103
-3.3606136	machinery	-0.30103
-3.3606136	final	-0.30103
-3.3606136	giggling	-0.30103
-3.3606136	owl	-0.30103
-3.3606136	cliffs	-0.30103
-3.3606136	display	-0.30103
-3.3606136	misplaced	-0.30103
-3.3606136	screen	-0.30103
-3.3606136	teach	-0.30103
-3.3606136	official	-0.30103
-3.3606136	deadline	-0.30103
-3.3606136	cannot	-0.30103
-3.3606136	postponed	-0.30103
-3.3606136	bog	-0.30103
-3.3606136	rattle	-0.30103
-3.166852	sold	-0.30103
-3.3606136	bank	-0.30103
-3.3606136	shawl	-0.30103
-3.3606136	soul	-0.30103
-3.3606136	preach	-0.30103
-3.3606136	pull	-0.30103
-3.3606136	boone	-0.30103
-3.3606136	suppress	-0.30103
-3.3606136	wages	-0.30103
-3.3606136	key	-0.30103
-3.3606136	issue	-0.30103
-3.3606136	unfortunately	-0.30103
-3.3606136	demand	-0.30103
-3.3606136	broccoli	-0.30103
-3.3606136	cauliflower	-0.30103
-3.3606136	badger	-0.30103
-3.3606136	contrast	-0.30103
-3.3606136	household	-0.30103
-3.3606136	lots	-0.30103
-3.3606136	appliances	-0.30103
-3.3606136	grain	-0.30103
-3.3606136	paintings	-0.30103
-3.3606136	auction	-0.30103
-3.3606136	impress	-0.30103
-3.3606136	occur	-0.30103
-3.3606136	shore	-0.30103
-3.3606136	book	-0.30103
-3.3606136	bin	-0.30103
-3.3606136	weeds	-0.30103
-3.3606136	strong	-0.30103
-3.3606136	fast	-0.30103
-3.3606136	fudge	-0.30103
-3.3606136	rust	-0.30103
-3.3606136	misprint	-0.30103
-3.3606136	provoked	-0.30103
-3.3606136	immediate	-0.30103
-3.3606136	disclaimer	-0.30103
-3.3606136	contract	-0.30103
-3.3606136	limb	-0.30103
-3.3606136	musk	-0.30103
-3.3606136	rut	-0.30103
-3.3606136	serve	-0.30103
-3.3606136	grape	-0.30103
-3.3606136	intact	-0.30103
-3.3606136	picnic	-0.30103
-3.3606136	subtract	-0.30103
-3.3606136	plant	-0.30103
-3.3606136	original	-0.30103
-3.3606136	forgery	-0.30103
-3.3606136	either	-0.30103
-3.3606136	walked	-0.30103
-3.166852	driven	-0.30103
-3.3606136	primitive	-0.30103
-3.3606136	tribes	-0.30103
-3.3606136	upbeat	-0.30103
-3.3606136	attitude	-0.30103
-3.3606136	shut	-0.30103
-3.3606136	retract	-0.30103
-3.3606136	displayed	-0.30103
-3.3606136	lamps	-0.30103
-3.3606136	puppets	-0.30103
-3.3606136	delight	-0.30103
-3.3606136	children	-0.30103
-3.3606136	decorative	-0.30103
-3.3606136	accent	-0.30103
-3.3606136	globe	-0.30103
-3.3606136	grave	-0.30103
-3.3606136	bust	-0.30103
-3.3606136	depress	-0.30103
-3.3606136	dusk	-0.30103
-3.3606136	slim	-0.30103
-3.3606136	flying	-0.30103
-3.3606136	standby	-0.30103
-3.3606136	save	-0.30103
-3.3606136	instructions	-0.30103
-3.3606136	desperately	-0.30103
-3.3606136	need	-0.30103
-3.3606136	updating	-0.30103
-3.3606136	preserve	-0.30103
-3.3606136	converge	-0.30103
-3.3606136	booth	-0.30103
-3.3606136	railroads	-0.30103
-3.3606136	future	-0.30103
-3.3606136	west	-0.30103
-3.3606136	beauty	-0.30103
-3.3606136	surrounds	-0.30103
-3.3606136	id	-0.30103
-3.3606136	put	-0.30103
-3.3606136	weight	-0.30103
-3.3606136	lisp	-0.30103
-3.3606136	hispanic	-0.30103
-3.3606136	costumes	-0.30103
-3.3606136	colorful	-0.30103
-3.3606136	tore	-0.30103
-3.3606136	strange	-0.30103
-3.3606136	refer	-0.30103
-3.3606136	deserve	-0.30103
-3.3606136	glib	-0.30103
-3.3606136	grope	-0.30103
-3.3606136	absurd	-0.30103
-3.3606136	kat	-0.30103
-3.3606136	kittens	-0.30103
-3.3606136	cement	-0.30103
-3.3606136	measured	-0.30103
-3.3606136	cubic	-0.30103
-3.3606136	yards	-0.30103
-3.3606136	grange	-0.30103
-3.3606136	lid	-0.30103
-3.3606136	could	-0.30103
-3.3606136	bus	-0.30103
-3.3606136	brain	-0.30103
-3.3606136	boast	-0.30103
-3.3606136	observe	-0.30103
-3.3606136	reserve	-0.30103
-3.3606136	slid	-0.30103
-3.3606136	list	-0.30103
-3.3606136	conserve	-0.30103
-3.3606136	repress	-0.30103
-3.3606136	scorch	-0.30103
-3.3606136	strike	-0.30103
-3.3606136	spread	-0.30103
-3.3606136	super	-0.30103
-3.3606136	split	-0.30103
-3.3606136	hotel	-0.30103
-3.3606136	owner	-0.30103
-3.3606136	struggled	-0.30103
-3.3606136	ok	-0.30103
-3.3606136	actually	-0.30103
-3.3606136	owe	-0.30103
-3.3606136	lead	-0.30103
-3.3606136	jaw	-0.30103
-3.3606136	cope	-0.30103
-3.166852	spark	-0.30103
-3.3606136	skip	-0.30103
-3.3606136	ah	-0.30103
-3.3606136	slip	-0.30103
-3.3606136	chose	-0.30103
-3.3606136	innocense	-0.30103

\2-grams:
-0.20102912	pat </s>	0
-0.20102912	meat </s>	0
-0.20102912	air </s>	0
-0.20102912	swarm </s>	0
-0.6392855	no </s>	0
-0.20102912	storm </s>	0
-0.20102912	buttons </s>	0
-0.20102912	dug </s>	0
-0.20102912	feet </s>	0
-0.20102912	train </s>	0
-0.42082947	but </s>	0
-0.80343217	he </s>	0
-0.20102912	oil </s>	0
-0.20102912	beat </s>	0
-0.20102912	dog </s>	0
-0.75716424	have </s>	0
-0.77488333	to </s>	0
-0.42082947	more </s>	0
-0.82043934	and </s>	0
-0.20102912	less </s>	0
-0.20102912	rake </s>	0
-0.81453294	for </s>	0
-0.42082947	grow </s>	0
-0.5943737	one </s>	0
-0.52851665	two </s>	0
-0.20102912	rage </s>	0
-0.20102912	form </s>	0
-0.20102912	farm </s>	0
-0.20102912	horn </s>	0
-0.20102912	sheet </s>	0
-0.20102912	ship </s>	0
-0.20102912	left </s>	0
-0.20102912	sticks </s>	0
-0.20102912	glow </s>	0
-0.20102912	born </s>	0
-0.20102912	corn </s>	0
-0.42082947	right </s>	0
-0.4637577	well </s>	0
-0.8424969	is </s>	0
-0.52851665	three </s>	0
-0.42082947	years </s>	0
-0.42082947	old </s>	0
-0.20102912	feed </s>	0
-0.20102912	rain </s>	0
-0.20102912	tip </s>	0
-0.52851665	down </s>	0
-0.42082947	store </s>	0
-0.8163815	in </s>	0
-0.20102912	coat </s>	0
-0.20102912	language </s>	0
-0.20102912	torn </s>	0
-0.20102912	yes </s>	0
-0.20102912	sleep </s>	0
-0.5943737	both </s>	0
-0.52851665	go </s>	0
-0.33460918	later </s>	0
-0.20102912	troop </s>	0
-0.20102912	wish </s>	0
-0.20102912	ate </s>	0
-0.20102912	hear </s>	0
-0.20102912	pot </s>	0
-0.20102912	white </s>	0
-0.20102912	aprons </s>	0
-0.20102912	best </s>	0
-0.42082947	deer </s>	0
-0.20102912	group </s>	0
-0.20102912	cheer </s>	0
-0.20102912	thigh </s>	0
-0.20102912	coupe </s>	0
-0.42082947	write </s>	0
-0.20102912	area </s>	0
-0.20102912	steer </s>	0
-0.20102912	tile </s>	0
-0.20102912	select </s>	0
-0.20102912	forward </s>	0
-0.20102912	curtains </s>	0
-0.52851665	much </s>	0
-0.20102912	hate </s>	0
-0.20102912	whoop </s>	0
-0.20102912	wet </s>	0
-0.20102912	shoot </s>	0
-0.20102912	slay </s>	0
-0.20102912	play </s>	0
-0.7167803	all </s>	0
-0.6392855	big </s>	0
-0.20102912	traded </s>	0
-0.20102912	thoroughly </s>	0
-0.20102912	boot </s>	0
-0.20102912	rocks </s>	0
-0.20102912	witch </s>	0
-0.20102912	galore </s>	0
-0.20102912	delta </s>	0
-0.6970362	she </s>	0
-0.20102912	am </s>	0
-0.20102912	innocence </s>	0
-0.20102912	menu </s>	0
-0.20102912	peer </s>	0
-0.20102912	lip </s>	0
-0.20102912	beach </s>	0
-0.20102912	mere </s>	0
-0.20102912	pad </s>	0
-0.42082947	house </s>	0
-0.20102912	urgent </s>	0
-0.52851665	four </s>	0
-0.42082947	night </s>	0
-0.52851665	phone </s>	0
-0.20102912	calls </s>	0
-0.20102912	november </s>	0
-0.6512786	you </s>	0
-0.20102912	mush </s>	0
-0.20102912	oscar </s>	0
-0.42082947	sell </s>	0
-0.42082947	five </s>	0
-0.20102912	pit </s>	0
-0.20102912	zero </s>	0
-0.20102912	fat </s>	0
-0.20102912	darn </s>	0
-0.52851665	expect </s>	0
-0.20102912	week </s>	0
-0.20102912	six </s>	0
-0.5943737	when </s>	0
-0.20102912	force </s>	0
-0.20102912	hat </s>	0
-0.20102912	seed </s>	0
-0.20102912	pitting </s>	0
-0.7167803	it </s>	0
-0.20102912	dormitories </s>	0
-0.20102912	bloat </s>	0
-0.7939464	was </s>	0
-0.8636768	a </s>	0
-0.67203385	good </s>	0
-0.52851665	win </s>	0
-0.20102912	us </s>	0
-0.52851665	yet </s>	0
-0.52851665	take </s>	0
-0.84077764	of </s>	0
-0.20102912	legislation </s>	0
-0.20102912	flimsy </s>	0
-0.20102912	shy </s>	0
-0.20102912	cake </s>	0
-0.42082947	me </s>	0
-0.6392855	up </s>	0
-0.20102912	above </s>	0
-0.20102912	nine </s>	0
-0.42082947	program </s>	0
-0.20102912	medicine </s>	0
-0.20102912	league </s>	0
-0.6392855	at </s>	0
-0.20102912	claim </s>	0
-0.20102912	seven </s>	0
-0.20102912	leak </s>	0
-0.20102912	leg </s>	0
-0.52851665	job </s>	0
-0.20102912	benefits </s>	0
-0.20102912	eight </s>	0
-0.20102912	top </s>	0
-0.20102912	lima </s>	0
-0.20102912	vat </s>	0
-0.20102912	blow </s>	0
-0.20102912	spain </s>	0
-0.42082947	fill </s>	0
-0.20102912	wall </s>	0
-0.20102912	harm </s>	0
-0.20102912	hastily </s>	0
-0.20102912	chop </s>	0
-0.7883528	are </s>	0
-0.20102912	expensive </s>	0
-0.20102912	bidding </s>	0
-0.20102912	shell </s>	0
-0.20102912	sin </s>	0
-0.20102912	ticker </s>	0
-0.20102912	tin </s>	0
-0.42082947	new </s>	0
-0.20102912	loss </s>	0
-0.20102912	winners </s>	0
-0.20102912	leaks </s>	0
-0.20102912	xray </s>	0
-0.20102912	lock </s>	0
-0.20102912	sand </s>	0
-0.20102912	ham </s>	0
-0.42082947	first </s>	0
-0.42082947	time </s>	0
-0.42082947	alone </s>	0
-0.20102912	survive </s>	0
-0.20102912	team </s>	0
-0.20102912	nut </s>	0
-0.20102912	quickly </s>	0
-0.20102912	lie </s>	0
-0.20102912	zulu </s>	0
-0.42082947	gas </s>	0
-0.20102912	burner </s>	0
-0.20102912	long </s>	0
-0.20102912	bay </s>	0
-0.20102912	bed </s>	0
-0.20102912	flicker </s>	0
-0.20102912	bread </s>	0
-0.20102912	sicker </s>	0
-0.20102912	potatoes </s>	0
-0.20102912	fork </s>	0
-0.52851665	said </s>	0
-0.42082947	cat </s>	0
-0.42082947	keep </s>	0
-0.52851665	out </s>	0
-0.33460918	day </s>	0
-0.20102912	millionaires </s>	0
-0.20102912	litter </s>	0
-0.20102912	sink </s>	0
-0.20102912	red </s>	0
-0.20102912	ned </s>	0
-0.20102912	sit </s>	0
-0.42082947	able </s>	0
-0.42082947	too </s>	0
-0.20102912	hand </s>	0
-0.20102912	rest </s>	0
-0.20102912	marvelously </s>	0
-0.42082947	rise </s>	0
-0.20102912	morning </s>	0
-0.42082947	bought </s>	0
-0.20102912	chair </s>	0
-0.42082947	quicker </s>	0
-0.20102912	romeo </s>	0
-0.6392855	about </s>	0
-0.20102912	nod </s>	0
-0.20102912	small </s>	0
-0.20102912	liquor </s>	0
-0.42082947	beg </s>	0
-0.7167803	that </s>	0
-0.52851665	ride </s>	0
-0.20102912	stagecoach </s>	0
-0.20102912	neat </s>	0
-0.20102912	dead </s>	0
-0.20102912	wit </s>	0
-0.20102912	painters </s>	0
-0.20102912	attention </s>	0
-0.20102912	success </s>	0
-0.20102912	lake </s>	0
-0.20102912	thread </s>	0
-0.52851665	dont </s>	0
-0.20102912	dishes </s>	0
-0.20102912	sew </s>	0
-0.20102912	sort </s>	0
-0.20102912	catch </s>	0
-0.52851665	played </s>	0
-0.20102912	degree </s>	0
-0.20102912	dessert </s>	0
-0.20102912	welcome </s>	0
-0.20102912	cakes </s>	0
-0.20102912	bill </s>	0
-0.20102912	popularity </s>	0
-0.42082947	short </s>	0
-0.20102912	shin </s>	0
-0.20102912	kind </s>	0
-0.20102912	cork </s>	0
-0.20102912	weep </s>	0
-0.20102912	history </s>	0
-0.20102912	rid </s>	0
-0.20102912	quart </s>	0
-0.20102912	shot </s>	0
-0.20102912	knee </s>	0
-0.20102912	sheep </s>	0
-0.20102912	snort </s>	0
-0.20102912	pork </s>	0
-0.20102912	sketch </s>	0
-0.20102912	yourself </s>	0
-0.20102912	blend </s>	0
-0.20102912	shed </s>	0
-0.20102912	identical </s>	0
-0.20102912	maintenance </s>	0
-0.20102912	see </s>	0
-0.20102912	shop </s>	0
-0.42082947	heat </s>	0
-0.20102912	gone </s>	0
-0.20102912	gill </s>	0
-0.20102912	show </s>	0
-0.20102912	read </s>	0
-0.20102912	disappointing </s>	0
-0.20102912	tug </s>	0
-0.20102912	cash </s>	0
-0.20102912	stretch </s>	0
-0.20102912	steak </s>	0
-0.20102912	ray </s>	0
-0.20102912	fort </s>	0
-0.20102912	lee </s>	0
-0.20102912	hold </s>	0
-0.7327825	with </s>	0
-0.20102912	since </s>	0
-0.52851665	life </s>	0
-0.20102912	shred </s>	0
-0.20102912	sight </s>	0
-0.20102912	pond </s>	0
-0.20102912	around </s>	0
-0.20102912	tort </s>	0
-0.20102912	meats </s>	0
-0.20102912	precious </s>	0
-0.52851665	eat </s>	0
-0.20102912	sport </s>	0
-0.20102912	activities </s>	0
-0.20102912	fined </s>	0
-0.20102912	regulations </s>	0
-0.20102912	resulted </s>	0
-0.20102912	valentines </s>	0
-0.20102912	geese </s>	0
-0.20102912	mill </s>	0
-0.20102912	present </s>	0
-0.20102912	reap </s>	0
-0.20102912	dill </s>	0
-0.20102912	lend </s>	0
-0.20102912	foe </s>	0
-0.20102912	loan </s>	0
-0.20102912	money </s>	0
-0.20102912	toe </s>	0
-0.20102912	threat </s>	0
-0.20102912	port </s>	0
-0.20102912	voice </s>	0
-0.20102912	rip </s>	0
-0.20102912	wise </s>	0
-0.42082947	full </s>	0
-0.20102912	stuff </s>	0
-0.20102912	bend </s>	0
-0.20102912	muck </s>	0
-0.20102912	snake </s>	0
-0.20102912	bumper </s>	0
-0.20102912	ash </s>	0
-0.42082947	fit </s>	0
-0.20102912	sheer </s>	0
-0.20102912	chablis </s>	0
-0.20102912	hash </s>	0
-0.42082947	come </s>	0
-0.20102912	favor </s>	0
-0.20102912	hail </s>	0
-0.20102912	code </s>	0
-0.20102912	excluded </s>	0
-0.20102912	beam </s>	0
-0.20102912	competitors </s>	0
-0.20102912	knife </s>	0
-0.20102912	pete </s>	0
-0.20102912	skills </s>	0
-0.20102912	anywhere </s>	0
-0.20102912	gash </s>	0
-0.42082947	went </s>	0
-0.20102912	idea </s>	0
-0.20102912	fender </s>	0
-0.20102912	woe </s>	0
-0.20102912	member </s>	0
-0.20102912	beast </s>	0
-0.20102912	together </s>	0
-0.20102912	guess </s>	0
-0.20102912	casually </s>	0
-0.20102912	seam </s>	0
-0.20102912	beep </s>	0
-0.20102912	vocal </s>	0
-0.20102912	investment </s>	0
-0.20102912	redhanded </s>	0
-0.20102912	mock </s>	0
-0.20102912	dock </s>	0
-0.42082947	sea </s>	0
-0.20102912	petticoats </s>	0
-0.20102912	ember </s>	0
-0.20102912	seat </s>	0
-0.20102912	food </s>	0
-0.20102912	reef </s>	0
-0.20102912	blaze </s>	0
-0.20102912	sender </s>	0
-0.20102912	acclaim </s>	0
-0.20102912	director </s>	0
-0.67203385	from </s>	0
-0.20102912	start </s>	0
-0.20102912	wonderful </s>	0
-0.20102912	renter </s>	0
-0.20102912	row </s>	0
-0.20102912	lender </s>	0
-0.20102912	ape </s>	0
-0.20102912	forks </s>	0
-0.20102912	tender </s>	0
-0.20102912	tea </s>	0
-0.20102912	fans </s>	0
-0.20102912	timber </s>	0
-0.20102912	leap </s>	0
-0.20102912	poor </s>	0
-0.20102912	tail </s>	0
-0.20102912	bender </s>	0
-0.20102912	ache </s>	0
-0.20102912	center </s>	0
-0.20102912	appetizers </s>	0
-0.20102912	beef </s>	0
-0.20102912	temper </s>	0
-0.6392855	had </s>	0
-0.20102912	ways </s>	0
-0.20102912	wax </s>	0
-0.20102912	pet </s>	0
-0.20102912	aid </s>	0
-0.20102912	knock </s>	0
-0.20102912	lies </s>	0
-0.20102912	cheese </s>	0
-0.20102912	hatch </s>	0
-0.20102912	grievances </s>	0
-0.20102912	bunch </s>	0
-0.20102912	appreciated </s>	0
-0.20102912	ease </s>	0
-0.20102912	add </s>	0
-0.20102912	gift </s>	0
-0.42082947	judge </s>	0
-0.42082947	state </s>	0
-0.20102912	education </s>	0
-0.20102912	states </s>	0
-0.20102912	peas </s>	0
-0.20102912	bun </s>	0
-0.20102912	punch </s>	0
-0.20102912	ail </s>	0
-0.20102912	tall </s>	0
-0.20102912	detail </s>	0
-0.20102912	pill </s>	0
-0.20102912	racks </s>	0
-0.20102912	construction </s>	0
-0.20102912	aches </s>	0
-0.20102912	lit </s>	0
-0.20102912	splinter </s>	0
-0.20102912	choose </s>	0
-0.20102912	duck </s>	0
-0.20102912	arm </s>	0
-0.20102912	actress </s>	0
-0.42082947	fell </s>	0
-0.20102912	diploma </s>	0
-0.20102912	charm </s>	0
-0.20102912	meeting </s>	0
-0.20102912	friends </s>	0
-0.20102912	mile </s>	0
-0.20102912	rakes </s>	0
-0.20102912	situation </s>	0
-0.20102912	items </s>	0
-0.52851665	sat </s>	0
-0.20102912	relaxed </s>	0
-0.20102912	hall </s>	0
-0.20102912	sake </s>	0
-0.20102912	box </s>	0
-0.20102912	incidents </s>	0
-0.20102912	chowder </s>	0
-0.20102912	degrees </s>	0
-0.20102912	ticks </s>	0
-0.20102912	disguise </s>	0
-0.20102912	sources </s>	0
-0.20102912	chap </s>	0
-0.20102912	lax </s>	0
-0.20102912	score </s>	0
-0.20102912	munch </s>	0
-0.20102912	symbols </s>	0
-0.20102912	end </s>	0
-0.42082947	pleasure </s>	0
-0.20102912	excitement </s>	0
-0.20102912	dial </s>	0
-0.20102912	low </s>	0
-0.20102912	cold </s>	0
-0.20102912	whip </s>	0
-0.20102912	ink </s>	0
-0.20102912	again </s>	0
-0.20102912	term </s>	0
-0.20102912	wide </s>	0
-0.20102912	pant </s>	0
-0.20102912	find </s>	0
-0.42082947	cable </s>	0
-0.20102912	translated </s>	0
-0.20102912	past </s>	0
-0.20102912	burn </s>	0
-0.20102912	wealth </s>	0
-0.42082947	street </s>	0
-0.20102912	ahead </s>	0
-0.20102912	wine </s>	0
-0.20102912	eyes </s>	0
-0.20102912	weave </s>	0
-0.20102912	omitted </s>	0
-0.20102912	wart </s>	0
-0.20102912	wack </s>	0
-0.42082947	needed </s>	0
-0.20102912	dash </s>	0
-0.20102912	drifts </s>	0
-0.20102912	required </s>	0
-0.20102912	ball </s>	0
-0.42082947	myself </s>	0
-0.42082947	steep </s>	0
-0.20102912	increases </s>	0
-0.20102912	damaged </s>	0
-0.20102912	empty </s>	0
-0.42082947	here </s>	0
-0.20102912	obstacles </s>	0
-0.20102912	hid </s>	0
-0.20102912	why </s>	0
-0.20102912	luke </s>	0
-0.20102912	fold </s>	0
-0.20102912	pink </s>	0
-0.20102912	waste </s>	0
-0.42082947	porch </s>	0
-0.20102912	steps </s>	0
-0.20102912	carefully </s>	0
-0.20102912	report </s>	0
-0.20102912	sail </s>	0
-0.20102912	wipe </s>	0
-0.20102912	theory </s>	0
-0.20102912	urchins </s>	0
-0.42082947	each </s>	0
-0.20102912	intelligence </s>	0
-0.20102912	wives </s>	0
-0.20102912	game </s>	0
-0.20102912	docks </s>	0
-0.20102912	pole </s>	0
-0.20102912	stable </s>	0
-0.20102912	income </s>	0
-0.20102912	sacrifice </s>	0
-0.20102912	ban </s>	0
-0.20102912	page </s>	0
-0.20102912	accordion </s>	0
-0.20102912	paid </s>	0
-0.20102912	sprain </s>	0
-0.20102912	fool </s>	0
-0.20102912	boat </s>	0
-0.20102912	ramp </s>	0
-0.20102912	tips </s>	0
-0.42082947	paint </s>	0
-0.20102912	water </s>	0
-0.20102912	mat </s>	0
-0.20102912	sap </s>	0
-0.20102912	pain </s>	0
-0.20102912	mayonnaise </s>	0
-0.20102912	fall </s>	0
-0.20102912	mall </s>	0
-0.20102912	feel </s>	0
-0.20102912	panel </s>	0
-0.20102912	freely </s>	0
-0.20102912	vamp </s>	0
-0.20102912	rat </s>	0
-0.20102912	check </s>	0
-0.20102912	space </s>	0
-0.20102912	naval </s>	0
-0.20102912	stall </s>	0
-0.20102912	spade </s>	0
-0.20102912	accident </s>	0
-0.20102912	damp </s>	0
-0.20102912	spray </s>	0
-0.20102912	peach </s>	0
-0.20102912	mabel </s>	0
-0.20102912	told </s>	0
-0.20102912	injured </s>	0
-0.42082947	practical </s>	0
-0.20102912	funnel </s>	0
-0.20102912	tap </s>	0
-0.20102912	expected </s>	0
-0.20102912	reach </s>	0
-0.20102912	file </s>	0
-0.20102912	walls </s>	0
-0.20102912	paste </s>	0
-0.20102912	foil </s>	0
-0.20102912	map </s>	0
-0.20102912	gable </s>	0
-0.20102912	bull </s>	0
-0.20102912	crawl </s>	0
-0.20102912	pale </s>	0
-0.20102912	creature </s>	0
-0.20102912	pocket </s>	0
-0.20102912	saddle </s>	0
-0.20102912	bowl </s>	0
-0.20102912	nap </s>	0
-0.20102912	table </s>	0
-0.20102912	sable </s>	0
-0.20102912	fable </s>	0
-0.20102912	mold </s>	0
-0.20102912	mole </s>	0
-0.20102912	bureaucracy </s>	0
-0.20102912	pace </s>	0
-0.20102912	call </s>	0
-0.20102912	predicament </s>	0
-0.20102912	screech </s>	0
-0.20102912	ladle </s>	0
-0.20102912	bash </s>	0
-0.20102912	portrait </s>	0
-0.20102912	instruments </s>	0
-0.20102912	machinery </s>	0
-0.20102912	final </s>	0
-0.20102912	giggling </s>	0
-0.20102912	owl </s>	0
-0.20102912	screen </s>	0
-0.20102912	teach </s>	0
-0.20102912	postponed </s>	0
-0.20102912	bog </s>	0
-0.20102912	rattle </s>	0
-0.42082947	sold </s>	0
-0.20102912	bank </s>	0
-0.20102912	shawl </s>	0
-0.20102912	soul </s>	0
-0.20102912	preach </s>	0
-0.20102912	pull </s>	0
-0.20102912	boone </s>	0
-0.20102912	suppress </s>	0
-0.20102912	issue </s>	0
-0.20102912	cauliflower </s>	0
-0.20102912	badger </s>	0
-0.20102912	contrast </s>	0
-0.20102912	appliances </s>	0
-0.20102912	grain </s>	0
-0.20102912	auction </s>	0
-0.20102912	impress </s>	0
-0.20102912	occur </s>	0
-0.20102912	shore </s>	0
-0.20102912	book </s>	0
-0.20102912	bin </s>	0
-0.20102912	fast </s>	0
-0.20102912	fudge </s>	0
-0.20102912	rust </s>	0
-0.20102912	disclaimer </s>	0
-0.20102912	contract </s>	0
-0.20102912	limb </s>	0
-0.20102912	musk </s>	0
-0.20102912	rut </s>	0
-0.20102912	serve </s>	0
-0.20102912	grape </s>	0
-0.20102912	intact </s>	0
-0.20102912	subtract </s>	0
-0.20102912	forgery </s>	0
-0.20102912	driven </s>	0
-0.20102912	attitude </s>	0
-0.20102912	shut </s>	0
-0.20102912	retract </s>	0
-0.20102912	accent </s>	0
-0.20102912	globe </s>	0
-0.20102912	grave </s>	0
-0.20102912	bust </s>	0
-0.20102912	depress </s>	0
-0.20102912	dusk </s>	0
-0.20102912	slim </s>	0
-0.20102912	updating </s>	0
-0.20102912	preserve </s>	0
-0.20102912	converge </s>	0
-0.20102912	booth </s>	0
-0.20102912	west </s>	0
-0.20102912	weight </s>	0
-0.20102912	lisp </s>	0
-0.20102912	colorful </s>	0
-0.20102912	tore </s>	0
-0.20102912	strange </s>	0
-0.20102912	refer </s>	0
-0.20102912	deserve </s>	0
-0.20102912	glib </s>	0
-0.20102912	grope </s>	0
-0.20102912	absurd </s>	0
-0.20102912	kittens </s>	0
-0.20102912	yards </s>	0
-0.20102912	grange </s>	0
-0.20102912	lid </s>	0
-0.20102912	brain </s>	0
-0.20102912	boast </s>	0
-0.20102912	observe </s>	0
-0.20102912	reserve </s>	0
-0.20102912	slid </s>	0
-0.20102912	list </s>	0
-0.20102912	conserve </s>	0
-0.20102912	repress </s>	0
-0.20102912	scorch </s>	0
-0.20102912	super </s>	0
-0.20102912	split </s>	0
-0.20102912	struggled </s>	0
-0.20102912	ok </s>	0
-0.20102912	actually </s>	0
-0.20102912	owe </s>	0
-0.20102912	jaw </s>	0
-0.20102912	cope </s>	0
-0.52851665	spark </s>	0
-0.20102912	slip </s>	0
-0.20102912	chose </s>	0
-0.20102912	innocense </s>	0
-2.146623	<s> pat	-1.6627579
-2.1402676	<s> meat	-1.6690068
-2.0246341	<s> air	-1.7829502
-2.2634497	<s> swarm	-1.5481846
-2.0351343	<s> no	-1.7683914
-1.335124	have no	-0.72699875
-1.4945738	was no	-0.7781512
-0.30036142	requires no	-0.7781512
-0.9966672	had no	-0.72699875
-2.2551515	<s> storm	-1.5563025
-2.5658479	<s> usually	-1.2552725
-0.30084074	usually minus	-1.2552725
-3.794417	<s> several	-0.30103
-0.30073434	minus several	-1.2552725
-0.6016816	several buttons	-1.2552725
-2.3362489	<s> dug	-1.4771212
-2.092519	<s> feet	-1.7160033
-2.5658479	<s> train	-1.2552725
-2.4751577	<s> but	-1.1205739
-1.7590482	<s> he	-1
-0.599715	but he	-1.3152704
-0.8984125	him he	-1.0543576
-1.1379752	well he	-0.30103
-0.599715	himself he	-0.30103
-0.994161	this he	-0.90309
-0.7746384	yet he	-0.86530143
-0.599715	so he	-0.42596874
-1.5510113	he always	-1.3152704
-0.30073434	although always	-1.0543576
-0.6016816	always answers	-1.3152704
-0.30084074	answers banana	-1.3152704
-0.30084074	banana oil	-1.3152704
-2.0704792	<s> beat	-1.7377226
-1.4844792	<s> the	-0.86195886
-0.29483312	over the	-1.2552725
-1.3405864	to the	-0.9265711
-1.2611827	for the	-0.86530143
-0.9978923	in the	-0.49732465
-0.29483312	made the	-1.1026623
-0.8788159	all the	-0.9542425
-0.29483312	scrubbed the	-1.146128
-0.7598196	than the	-0.30103
-0.35370493	on the	-0.8846066
-0.9710297	of the	-0.8325089
-0.9698636	at the	-0.30103
-0.29483312	near the	-1.146128
-0.29483312	wrapped the	-1.146128
-1.392342	are the	-0.8239087
-0.29483312	open the	-0.97003675
-0.29483312	covered the	-0.9378521
-0.8788159	only the	-0.86530143
-0.6836404	about the	-0.8239087
-0.29483312	prefer the	-0.86530143
-1.2024475	with the	-0.7781512
-0.5897534	thats the	-0.30103
-0.29483312	across the	-0.86530143
-0.29483312	remains the	-0.86530143
-0.9698636	by the	-0.72699875
-0.29483312	mail the	-0.8239087
-0.7598196	from the	-0.86530143
-0.29483312	neglect the	-0.7781512
-0.29483312	compounded the	-0.66900676
-0.5897534	judge the	-0.9378521
-0.29483312	housing the	-0.8239087
-0.29483312	order the	-0.66900676
-0.29483312	noted the	-0.5228787
-0.29483312	hiring the	-0.42596874
-0.29483312	hides the	-0.42596874
-0.29483312	describe the	-0.30103
-0.29483312	lamps the	-0.30103
-0.29483312	delight the	-0.30103
-2.1810815	the quick	-1.2552725
-1.6917838	a quick	-0.8846066
-0.77726483	quick brown	-1.2552725
-1.9857445	a brown	-0.97003675
-0.6016816	brown fox	-1.2552725
-0.30084074	fox jumps	-1.2552725
-0.30084074	jumps over	-1.2552725
-2.1892333	the lazy	-1.2552725
-0.30084074	lazy dog	-1.2552725
-1.668477	<s> we	-0.9479023
-0.6003873	alone we	-1.0543576
-0.30019283	leisure we	-0.90309
-0.30019283	suggested we	-0.8239087
-0.6003873	know we	-0.90309
-0.30019283	knew we	-0.66900676
-3.0439646	<s> have	-0.72699875
-1.3100468	we have	-1.0479236
-1.8485054	to have	-0.86530143
-1.1379752	well have	-0.86530143
-1.1948149	all have	-0.8239087
-1.1948149	you have	-1.0280287
-0.994161	really have	-0.90309
-0.2998559	tribes have	-0.30103
-1.3387923	have often	-1.2863067
-1.3772388	can often	-1.2218487
-1.4721783	are often	-0.7781512
-0.7775837	often urged	-1.2863067
-0.30053002	urged him	-1.2863067
-0.6010606	crucified him	-1.0543576
-0.6010606	want him	-0.90309
-0.6010606	saw him	-0.42596874
-2.7373714	<s> to	-0.7781512
-1.2851462	have to	-0.72699875
-0.5910685	him to	-1.1356627
-0.29549947	likes to	-1.20412
-0.29549947	try to	-1
-0.29549947	funds to	-1.1856365
-0.7617665	yet to	-1.1249387
-1.1088164	were to	-1.2218487
-0.29549947	willing to	-0.97003675
-0.5910685	time to	-0.66900676
-0.29549947	fun to	-0.9378521
-0.29549947	someplace to	-0.90309
-0.5910685	want to	-0.30103
-0.29549947	greg to	-0.90309
-0.5910685	cat to	-0.90309
-0.5910685	able to	-0.9378521
-0.88137823	what to	-0.30103
-0.7617665	like to	-0.86530143
-0.29549947	scream to	-0.86530143
-0.5910685	still to	-0.7781512
-0.29549947	dough to	-0.69897
-0.29549947	common to	-0.86530143
-0.29549947	desire to	-0.72699875
-0.29549947	met to	-0.9378521
-0.29549947	trying to	-0.86530143
-0.29549947	wanted to	-0.72699875
-0.29549947	hard to	-0.5563025
-0.29549947	status to	-0.5228787
-0.29549947	appealing to	-0.42596874
-0.29549947	illegal to	-0.30103
-0.29549947	longer to	-0.30103
-0.29549947	muttering to	-0.42596874
-0.29549947	easy to	-0.42596874
-0.29549947	impossible to	-0.42596874
-1.8807106	to walk	-1.2863067
-0.30073434	could walk	-0.30103
-0.6010606	walk more	-1.2863067
-0.99750584	up more	-0.86530143
-0.776653	needs more	-0.30103
-0.30053002	accomplish more	-0.7781512
-2.3971555	<s> and	-1.3424227
-0.8885037	more and	-1.2863067
-0.76716584	down and	-0.7781512
-0.59470564	deer and	-0.30103
-0.2973372	grey and	-1.20412
-0.2973372	slums and	-1.1856365
-0.76716584	young and	-0.42596874
-0.59470564	short and	-0.86530143
-0.2973372	prosecuted and	-0.86530143
-0.2973372	addition and	-0.86530143
-0.2973372	chocolate and	-0.86530143
-0.2973372	masonry and	-0.72699875
-0.2973372	distress and	-0.7781512
-0.2973372	jealousies and	-0.90309
-0.59470564	pleasure and	-0.7781512
-0.59470564	straight and	-0.66900676
-0.2973372	heart and	-0.66900676
-0.2973372	bagpipes and	-0.42596874
-0.2973372	saws and	-0.42596874
-0.2973372	supplies and	-0.42596874
-0.2973372	broccoli and	-0.30103
-0.2973372	strong and	-0.30103
-0.2973372	children and	-0.30103
-1.6584255	and smoke	-1.2863067
-0.30084074	smoke less	-1.2863067
-2.2311676	<s> rake	-1.5797836
-2.4839466	<s> for	-1.2552725
-0.29783982	healthy for	-1.1026623
-1.4567223	you for	-0.86530143
-1.4567223	it for	-1.1026623
-0.5957029	provides for	-1.1856365
-0.7686501	win for	-1.1856365
-0.29783982	transition for	-1.146128
-0.4723447	look for	-0.86530143
-0.29783982	experiment for	-0.97003675
-0.29783982	wait for	-1
-0.7686501	place for	-0.7781512
-0.29783982	guard for	-0.97003675
-0.29783982	friend for	-0.8239087
-0.29783982	prepared for	-0.72699875
-0.29783982	clams for	-0.72699875
-0.29783982	mask for	-0.7781512
-0.29783982	wife for	-0.42596874
-0.29783982	ready for	-0.42596874
-0.29783982	trips for	-0.42596874
-0.29783982	demand for	-0.30103
-2.562675	<s> grow	-1.2552725
-0.30073434	weeds grow	-0.30103
-2.3023987	<s> one	-1.50515
-1.6128688	for one	-0.97003675
-0.99750584	just one	-1.1026623
-0.776653	out one	-0.90309
-2.3051617	<s> two	-1.50515
-0.9017664	only two	-0.42596874
-0.30069873	called two	-0.86530143
-2.5334675	<s> rage	-1.2863067
-2.5181398	<s> form	-1.30103
-2.5181398	<s> farm	-1.30103
-2.4890177	<s> horn	-1.3290588
-2.208439	<s> sheet	-1.60206
-2.2390158	<s> ship	-1.5720967
-2.3462706	<s> left	-1.4673615
-2.3565292	<s> sticks	-1.4573772
-2.6008384	<s> glow	-1.2218487
-2.5181398	<s> born	-1.30103
-2.4890177	<s> corn	-1.3290588
-2.3757424	<s> right	-1.4366926
-0.30073434	married right	-0.42596874
-3.532165	<s> well	-0.30103
-0.9949948	do well	-0.90309
-0.7751412	expect well	-1.146128
-0.9949948	very well	-0.8239087
-0.7751412	day well	-0.86530143
-0.60005105	went well	-0.86530143
-0.30002436	doing well	-0.66900676
-2.6579723	<s> is	-1.0543576
-1.5048757	he is	-0.30103
-1.1253991	she is	-0.98227125
-0.59603584	nothing is	-1.0170333
-0.59603584	house is	-1.20412
-0.29800743	alfalfa is	-1.1026623
-0.98509336	this is	-1.30103
-0.69145274	there is	-0.8507019
-0.29800743	travel is	-0.90309
-0.47259527	life is	-0.86530143
-0.29800743	hair is	-0.8239087
-0.29800743	plot is	-0.86530143
-0.29800743	coast is	-0.7781512
-0.59603584	street is	-0.5228787
-0.29800743	attendance is	-0.66900676
-0.29800743	highway is	-0.66900676
-0.29800743	drift is	-0.66900676
-0.29800743	future is	-0.30103
-0.29800743	cement is	-0.30103
-1.7112962	is nearly	-0.30103
-0.30084074	nearly ninety	-0.30103
-2.3972797	<s> three	-1.4149734
-0.30069873	ninety three	-0.30103
-0.60139763	saw three	-0.30103
-1.6128688	for years	-0.8239087
-0.776653	three years	-0.30103
-0.776653	later years	-1.1249387
-0.30053002	last years	-0.72699875
-2.7715364	<s> old	-0.75332767
-1.6552014	and old	-0.42596874
-0.9017664	years old	-0.30103
-2.1798742	<s> feed	-1.6300887
-2.5796905	<s> rain	-1.2388821
-0.30073434	uninterrupted rain	-0.86530143
-2.4890177	<s> tip	-1.3290588
-2.3972797	<s> down	-1.4149734
-0.60139763	working down	-0.5228787
-0.77715814	sat down	-0.7781512
-2.562675	<s> store	-1.2552725
-2.1810815	the store	-0.66900676
-1.5529082	he dresses	-1.2863067
-0.30073434	dresses himself	-1.2863067
-0.6014689	crucified himself	-0.30103
-2.4134655	<s> in	-1.0543576
-1.6607327	is in	-0.30103
-0.5973701	himself in	-1.2863067
-0.29867867	modern in	-1.20412
-0.29867867	higher in	-1.1249387
-1.4689765	it in	-0.66900676
-0.29867867	damage in	-0.86530143
-0.29867867	participate in	-0.86530143
-0.29867867	ruled in	-0.7781512
-0.29867867	upbringing in	-0.8239087
-0.29867867	fire in	-0.8239087
-0.29867867	mistakes in	-0.66900676
-0.29867867	sculpture in	-0.30103
-0.5973701	deal in	-0.42596874
-0.29867867	measured in	-0.30103
-3.532165	<s> an	-0.30103
-1.0358901	have an	-0.8808136
-1.4903042	in an	-1.2863067
-1.2463043	be an	-0.75332767
-0.7751412	like an	-0.42596874
-0.60005105	tell an	-0.30103
-0.30002436	provoked an	-0.30103
-1.2535721	an ancient	-1.2863067
-0.30073434	ancient black	-1.2863067
-1.6919292	of black	-0.8239087
-0.6016816	black frock	-1.2863067
-2.6987321	<s> coat	-1.1249387
-0.30073434	frock coat	-1.2863067
-2.619451	<s> grandfather	-1.20412
-0.30084074	grandfather likes	-1.20412
-3.0006292	<s> be	-0.72699875
-0.7731336	often be	-1.2218487
-1.5594406	to be	-1.0280287
-0.42428973	can be	-0.8109438
-0.83924973	will be	-0.8016324
-0.5987085	may be	-0.66900676
-0.29935104	flowers be	-0.66900676
-0.29935104	must be	-0.42596874
-0.29935104	should be	-0.30103
-0.7731336	or be	-0.30103
-0.29935104	cannot be	-0.30103
-1.5529082	be modern	-1.20412
-0.8052936	in his	-0.9294189
-1.6919292	of his	-0.42596874
-0.9990545	his language	-1.20412
-2.5181398	<s> torn	-1.30103
-2.0294955	<s> yes	-1.7781513
-2.6806142	<s> sleep	-1.146128
-2.2719097	<s> both	-0.97564065
-0.90233344	both figures	-1.1249387
-0.30084074	figures would	-1.1249387
-1.5853354	to go	-0.8016324
-0.30073434	would go	-1.1249387
-0.7775837	go higher	-1.1249387
-1.5002071	in later	-1.1249387
-0.60139763	trip later	-0.7781512
-0.30069873	weeks later	-0.42596874
-2.6806142	<s> troop	-1.146128
-2.6806142	<s> wish	-1.146128
-2.2234583	<s> ate	-1.5873368
-2.6806142	<s> hear	-1.146128
-2.6388972	<s> pot	-1.1856365
-2.6987321	<s> white	-1.1249387
-1.6560081	and white	-1.20412
-2.549356	<s> mother	-1.2710668
-0.30084074	mother sews	-1.2710668
-0.30084074	sews yellow	-1.2710668
-0.30084074	yellow gingham	-1.2710668
-0.30084074	gingham aprons	-1.2710668
-1.6740503	<s> i	-0.8070408
-0.47637147	than i	-1.3152704
-1.07619	as i	-0.64345264
-0.9010935	what i	-0.30103
-2.7206535	<s> just	-1.1026623
-1.6163448	we just	-0.60206
-1.707471	i just	-1.1663314
-3.1313555	<s> try	-0.72699875
-0.9985237	just try	-1.1663314
-2.961456	<s> do	-0.86530143
-1.5814173	to do	-1.0543576
-0.30053002	dad do	-1.0280287
-0.776653	dont do	-0.86530143
-2.6560454	<s> my	-0.9242793
-0.9958302	do my	-1.1663314
-1.6793103	of my	-0.66900676
-0.9958302	up my	-0.86530143
-0.30019283	suddenly my	-0.9378521
-0.30019283	change my	-0.72699875
-1.1448048	my best	-1.1663314
-2.676486	<s> deer	-1.146128
-0.77726483	three deer	-0.30103
-2.6806142	<s> group	-1.146128
-2.388844	<s> cheer	-1.4259686
-2.6806142	<s> thigh	-1.146128
-2.6806142	<s> coupe	-1.146128
-2.2220132	<s> write	-1.5873368
-0.6014689	through write	-0.66900676
-2.7030785	<s> area	-1.1249387
-2.6806142	<s> steer	-1.146128
-2.4118054	<s> tile	-1.4036924
-2.5181398	<s> select	-1.30103
-2.5181398	<s> forward	-1.30103
-1.1448048	my sister	-1.1026623
-0.30084074	sister made	-1.1026623
-2.1892333	the flowered	-1.1026623
-0.30084074	flowered curtains	-1.1026623
-2.3144836	<s> much	-1.4960066
-1.4721783	are much	-0.7781512
-0.60139763	through much	-0.30103
-2.619451	<s> hate	-1.20412
-2.659255	<s> whoop	-1.1663314
-0.90233344	one side	-1.1026623
-1.6128688	we got	-0.69897
-1.7031873	i got	-0.30103
-0.30053002	side got	-1.1026623
-0.9010935	also got	-0.42596874
-0.9990545	got wet	-1.1026623
-2.3565292	<s> shoot	-1.4573772
-2.659255	<s> slay	-1.1663314
-2.659255	<s> play	-1.1663314
-2.4868464	<s> all	-1.0142405
-1.3135085	we all	-0.8016324
-0.6003873	received all	-0.5228787
-0.89975095	when all	-1.146128
-1.1403015	were all	-0.66900676
-0.9958302	really all	-0.86530143
-3.410949	<s> big	-0.42596874
-0.9966672	no big	-0.7781512
-2.153641	the big	-1.1663314
-1.9683918	a big	-0.7781512
-0.9966672	by big	-0.30103
-0.9990545	big baseball	-1.1663314
-0.30084074	baseball players	-1.1663314
-2.9331625	<s> get	-0.90309
-1.8793582	to get	-0.30103
-0.30069873	players get	-1.1663314
-0.7775837	get traded	-1.1663314
-1.7111089	i scrubbed	-1.146128
-2.1892333	the floors	-1.146128
-0.30084074	floors thoroughly	-1.146128
-2.400173	<s> boot	-1.4149734
-2.582991	<s> rocks	-1.2388821
-2.2470088	<s> witch	-1.5642715
-2.659255	<s> galore	-1.1663314
-2.659255	<s> delta	-1.1663314
-2.1340039	<s> she	-0.83006907
-1.7112962	is thinner	-1.1663314
-0.30069873	thinner than	-1.1663314
-0.60139763	quicker than	-0.7781512
-0.30069873	away than	-0.30103
-1.7111089	i am	-1.3152704
-2.3264532	<s> nothing	-1.1856365
-1.6995894	is as	-1.20412
-0.30036142	offensive as	-1.0170333
-0.6007238	fail as	-0.7781512
-0.30036142	exactly as	-0.86530143
-0.30036142	displayed as	-0.30103
-1.7086717	is offensive	-0.30103
-1.0774103	as offensive	-1.20412
-1.0780468	as innocence	-1.20412
-2.5033348	<s> menu	-1.3152704
-2.7030785	<s> peer	-1.1249387
-2.2805376	<s> lip	-1.5314789
-1.6192919	we gathered	-1.1663314
-0.30084074	gathered shells	-1.1663314
-0.2998559	shells on	-1.1663314
-0.2998559	marshmallows on	-0.9378521
-0.7746384	ride on	-0.30103
-0.2998559	twilight on	-0.86530143
-0.2998559	outdoors on	-0.66900676
-0.2998559	misplaced on	-0.42596874
-0.2998559	picnic on	-0.30103
-0.2998559	put on	-0.30103
-2.1892333	the beach	-1.20412
-2.659255	<s> mere	-1.1663314
-2.436049	<s> pad	-1.3802112
-2.619451	<s> their	-1.20412
-0.9985237	big house	-0.7781512
-0.30073434	their house	-1.20412
-1.7112962	is grey	-1.20412
-2.619451	<s> urgent	-1.20412
-2.27889	<s> four	-1.5314789
-1.891418	the four	-0.845098
-2.5143473	<s> night	-1
-0.30069873	after night	-1.1026623
-0.9983461	at night	-0.8239087
-0.90233344	night after	-1.1026623
-2.5980315	<s> they	-0.56729794
-0.9958302	do they	-0.86530143
-0.89975095	night they	-1.1026623
-0.6003873	where they	-0.72699875
-0.89975095	things they	-0.5228787
-0.30019283	because they	-0.42596874
-0.9990545	they received	-0.90309
-0.6016816	received annoying	-1.1026623
-3.4881477	<s> phone	-0.42596874
-0.30069873	annoying phone	-1.1026623
-0.9983461	by phone	-0.8239087
-0.77726483	phone calls	-1.1026623
-0.30073434	bad calls	-0.7781512
-2.6806142	<s> november	-1.146128
-2.7267685	<s> alfalfa	-1.1026623
-1.7112962	is healthy	-1.1026623
-2.4206383	<s> you	-0.8782664
-1.5827761	for you	-1.1026623
-0.8950844	when you	-0.66900676
-1.3624018	can you	-0.42596874
-0.77213323	did you	-0.66900676
-1.1322136	will you	-0.30103
-0.29901475	asked you	-0.86530143
-0.5980388	way you	-0.66900676
-0.47410184	if you	-0.60206
-0.5980388	sure you	-0.8239087
-0.5980388	tell you	-0.7781512
-0.29901475	surrounds you	-0.30103
-0.29901475	lead you	-0.30103
-2.7267685	<s> mush	-1.1026623
-2.6806142	<s> oscar	-1.146128
-2.3545668	<s> sell	-1.4573772
-0.30073434	hell sell	-0.72699875
-2.3757424	<s> five	-1.4366926
-0.9985237	had five	-0.30103
-2.2470088	<s> pit	-1.5642715
-2.4118054	<s> zero	-1.4036924
-2.208439	<s> fat	-1.60206
-2.7267685	<s> darn	-1.1026623
-1.5853354	to expect	-0.64345264
-1.7083809	i expect	-1.146128
-1.1448048	well bounce	-1.146128
-0.30084074	bounce back	-1.146128
-2.1142318	<s> this	-1.2671717
-0.30069873	back this	-1.146128
-1.6910881	of this	-0.86530143
-0.9990545	this week	-1.146128
-2.3075006	<s> six	-1.50515
-2.5305216	<s> when	-0.91832995
-0.9019085	when when	-0.30103
-1.2026081	all else	-1.146128
-0.30084074	else fails	-1.146128
-0.30084074	fails use	-1.146128
-0.30084074	use force	-1.146128
-2.3362489	<s> hat	-1.4771212
-2.448698	<s> seed	-1.3679768
-2.6008384	<s> pitting	-1.2218487
-1.8634993	<s> it	-1.0894004
-1.3260865	have it	-0.86530143
-1.4815867	you it	-0.7781512
-0.5990437	done it	-0.66900676
-1.6640877	of it	-0.8239087
-0.29951924	nailed it	-1.1026623
-0.29951924	kept it	-0.9378521
-0.5990437	confirmation it	-0.66900676
-0.29951924	handle it	-0.66900676
-0.29951924	thought it	-0.30103
-0.9010935	old also	-0.42596874
-1.7031873	i also	-0.7781512
-1.4972186	it also	-1.1856365
-0.776653	job also	-0.7781512
-0.9019085	also provides	-1.1856365
-0.77726483	job provides	-1.1026623
-1.6192919	for funds	-1.1856365
-1.8847736	to clear	-1.1856365
-0.30084074	clear slums	-1.1856365
-2.6338959	<s> help	-0.8846066
-1.6552014	and help	-1.1856365
-1.3772388	can help	-0.9378521
-0.90233344	help colleges	-1.1856365
-0.30084074	colleges build	-1.1856365
-0.30084074	build dormitories	-1.1856365
-2.7267685	<s> bloat	-1.1026623
-2.9571385	<s> was	-0.7781512
-1.6743298	i was	-0.7781512
-1.1345091	she was	-0.38021123
-1.0191481	it was	-0.96781534
-0.9916692	there was	-0.7781512
-0.29935104	shoes was	-1
-0.29935104	bracelet was	-0.86530143
-0.29935104	luck was	-0.7781512
-0.29935104	pickpocket was	-0.9378521
-0.29935104	range was	-0.72699875
-0.29935104	display was	-0.42596874
-2.1082346	<s> a	-0.89012504
-1.2867771	have a	-0.7781512
-0.8820212	him a	-0.42596874
-1.553576	and a	-0.30103
-1.2689543	for a	-1
-0.99085325	is a	-0.97003675
-0.5913979	write a	-0.66900676
-0.7622546	get a	-0.90309
-1.0479493	as a	-0.7781512
-0.8871934	on a	-0.7781512
-0.7622546	expect a	-0.7781512
-1.0001582	was a	-0.8808136
-0.7622546	take a	-0.86530143
-0.7622546	not a	-1.2552725
-0.2956662	became a	-1.146128
-1.4028873	are a	-0.30103
-0.7622546	did a	-0.86530143
-0.2956662	allow a	-1.1663314
-1.1099024	its a	-0.8239087
-0.2956662	pick a	-0.90309
-0.5913979	bought a	-0.97003675
-0.2956662	toward a	-0.86530143
-0.4691002	makes a	-0.845098
-0.2956662	covers a	-1.1249387
-1.0479493	from a	-0.30103
-0.6856827	had a	-0.60206
-0.2956662	wore a	-0.7781512
-0.5913979	such a	-0.5228787
-0.2956662	even a	-0.8239087
-0.2956662	deserves a	-0.5228787
-0.5913979	paint a	-0.42596874
-0.2956662	postdate a	-0.30103
-0.7622546	or a	-0.42596874
-3.7767253	<s> good	-0.30103
-1.2977942	a good	-0.97003675
-0.77715814	look good	-0.8239087
-3.1934805	<s> win	-0.66900676
-1.0771973	good win	-1.1856365
-0.60139763	may win	-0.42596874
-1.6192919	for us	-1.1856365
-1.5510113	he has	-0.8239087
-0.6014689	nothing has	-1.1249387
-0.6016816	has been	-1.1249387
-0.30073434	been done	-1.1249387
-0.30073434	weve done	-0.66900676
-2.9742033	<s> yet	-0.86530143
-0.60139763	done yet	-1.1249387
-0.77715814	eat yet	-0.66900676
-2.5616171	<s> take	-1.2552725
-1.8793582	to take	-1.1249387
-1.1438143	will take	-0.86530143
-0.7775837	take advantage	-1.1249387
-0.76716584	much of	-0.30103
-0.2973372	advantage of	-1.1249387
-0.2973372	period of	-1.146128
-0.59470564	program of	-1.2552725
-0.2973372	roll of	-1.146128
-1.4247785	are of	-0.60206
-0.2973372	pair of	-1
-0.2973372	peck of	-0.90309
-0.76716584	out of	-0.42596874
-0.2973372	gallon of	-0.97003675
-0.59470564	full of	-0.86530143
-0.2973372	fiercest of	-0.86530143
-0.2973372	minute of	-0.8239087
-0.2973372	number of	-0.8239087
-0.2973372	lack of	-0.66900676
-0.59470564	state of	-0.9378521
-0.2973372	largest of	-0.8239087
-0.2973372	pockets of	-0.8239087
-0.59470564	confirmation of	-0.7781512
-0.2973372	lot of	-0.5228787
-0.2973372	part of	-0.66900676
-0.2973372	name of	-0.30103
-0.2973372	lots of	-0.30103
-2.1892333	the enabling	-1.1249387
-0.30084074	enabling legislation	-1.1249387
-2.6008384	<s> aluminum	-1.2218487
-0.30084074	aluminum silverware	-1.2218487
-3.2150524	<s> can	-0.42596874
-1.5860186	we can	-0.90309
-1.6703595	i can	-0.60206
-1.4764985	you can	-0.9378521
-0.895748	also can	-0.7781512
-0.29918283	silverware can	-1.2218487
-0.59837353	work can	-1
-0.29918283	dance can	-0.9378521
-0.59837353	basketball can	-0.7781512
-0.29918283	trespassers can	-0.86530143
-0.59837353	gold can	-0.7781512
-0.29918283	standby can	-0.30103
-1.5529082	be flimsy	-1.2218487
-2.6806142	<s> shy	-1.146128
-2.423758	<s> cake	-1.3921105
-1.9908216	a period	-1.146128
-1.6944503	of transition	-1.146128
-2.978458	<s> me	-0.8239087
-1.8605847	to me	-0.42596874
-1.605999	for me	-1.146128
-0.6003873	took me	-0.90309
-1.2477955	with me	-0.9378521
-0.6003873	fit me	-0.5228787
-2.321125	<s> there	-1.1856365
-0.6010606	basketball there	-0.86530143
-0.776653	sat there	-0.42596874
-0.30053002	unfortunately there	-0.30103
-1.9908216	a treehouse	-1.146128
-0.7761485	go up	-0.66900676
-0.30036142	treehouse up	-1.146128
-0.30036142	warm up	-0.86530143
-0.30036142	speak up	-0.86530143
-0.30036142	shook up	-0.30103
-2.1810815	the above	-0.7781512
-0.9985237	up above	-1.146128
-2.423758	<s> nine	-1.3921105
-1.4112921	is not	-1.064458
-1.5004435	was not	-0.42596874
-1.6943566	a program	-1.0280287
-1.6944503	of socialized	-1.2552725
-0.30084074	socialized medicine	-1.2552725
-2.7267685	<s> league	-1.1026623
-2.2043726	<s> at	-1.30103
-1.4972186	was at	-0.30103
-0.30053002	died at	-0.8239087
-0.6010606	sold at	-0.30103
-1.5021316	it eventually	-1.146128
-0.30084074	eventually became	-1.146128
-1.9908216	a rather	-1.146128
-0.30084074	rather proud	-1.146128
-0.30084074	proud claim	-1.146128
-2.388844	<s> seven	-1.4259686
-2.0651398	<s> leak	-1.7429868
-0.90233344	both injuries	-1.2218487
-3.1152391	<s> were	-0.66900676
-1.2910767	they were	-0.72699875
-0.30002436	injuries were	-1.2218487
-0.30002436	results were	-0.9378521
-0.30002436	cars were	-0.5228787
-0.7751412	or were	-0.30103
-0.30002436	paintings were	-0.30103
-2.1892333	the same	-1.2218487
-0.30084074	same leg	-1.2218487
-2.1810815	the job	-0.97003675
-1.0774103	good job	-0.86530143
-0.6016816	provides many	-1.1026623
-0.30084074	many benefits	-1.1026623
-2.4118054	<s> eight	-1.4036924
-2.7267685	<s> top	-1.1026623
-2.7267685	<s> lima	-1.1026623
-2.6388972	<s> vat	-1.1856365
-2.5033348	<s> blow	-1.3152704
-2.6806142	<s> spain	-1.146128
-2.3565292	<s> fill	-1.1563472
-1.9908216	a roll	-1.146128
-1.6944503	of wire	-1.146128
-0.30084074	wire lay	-1.146128
-0.30084074	lay near	-1.146128
-3.497161	<s> wall	-0.42596874
-2.1810815	the wall	-1.146128
-2.6008384	<s> harm	-1.2218487
-1.5529082	he wrapped	-1.146128
-2.1892333	the package	-1.146128
-0.30084074	package hastily	-1.146128
-2.4118054	<s> chop	-1.4036924
-2.1892333	the books	-1.146128
-2.921342	<s> are	-0.7781512
-1.5795575	we are	-0.8239087
-1.6151254	and are	-0.30103
-1.2796756	they are	-0.42596874
-1.4714694	you are	-0.66900676
-0.2988467	books are	-1.146128
-0.5977043	people are	-0.7781512
-0.2988467	themselves are	-1.0280287
-0.2988467	reflexes are	-0.9378521
-0.2988467	subtraction are	-0.86530143
-0.2988467	apartments are	-0.8239087
-0.2988467	bongos are	-0.42596874
-0.2988467	wages are	-0.30103
-0.2988467	costumes are	-0.30103
-1.5444223	be very	-1
-1.4945738	was very	-0.7781512
-1.1414692	were very	-0.9378521
-1.4671986	are very	-1.146128
-0.7761485	played very	-0.8239087
-0.9990545	very expensive	-1.146128
-2.6351454	<s> did	-0.8846066
-0.30073434	unit did	-0.86530143
-0.7775837	did dad	-1.0280287
-3.0735676	<s> academic	-0.7781512
-0.9985237	do academic	-1.0280287
-0.6016816	academic bidding	-1.0280287
-2.8696272	<s> shell	-0.97003675
-2.388844	<s> sin	-1.4259686
-2.7784176	<s> ticker	-1.0543576
-2.7518258	<s> tin	-1.0791812
-2.1892333	the pair	-1
-1.6944503	of shoes	-1
-2.1810815	the new	-0.66900676
-1.5004435	was new	-1
-1.5444223	he really	-1.1026623
-1.6995894	is really	-0.86530143
-1.4945738	was really	-0.30103
-0.30036142	wed really	-0.90309
-0.30036142	seemed really	-0.42596874
-0.9990545	really crucified	-0.8808136
-1.2535721	he nailed	-1.1026623
-1.9908216	a yard	-1.1026623
-0.30084074	yard loss	-1.1026623
-2.7908387	<s> people	-1.0280287
-0.6010606	those people	-0.7781512
-0.776653	young people	-0.86530143
-0.30053002	elderly people	-0.7781512
-2.9769435	<s> who	-0.86530143
-0.9019085	people who	-1.0280287
-0.6016816	who value	-1.0280287
-0.30084074	value themselves	-1.0280287
-1.4742908	are lifes	-1.0280287
-0.30084074	lifes winners	-1.0280287
-2.1892333	the owners	-0.90309
-0.30084074	owners regularly	-0.90309
-3.019531	<s> look	-0.8239087
-0.30069873	regularly look	-0.90309
-0.60139763	didnt look	-0.8239087
-1.6192919	for plumbing	-0.90309
-3.1313555	<s> leaks	-0.72699875
-0.30073434	plumbing leaks	-0.90309
-2.8696272	<s> xray	-0.97003675
-2.8696272	<s> lock	-0.97003675
-2.8012338	<s> sand	-1.0280287
-0.6014689	black sand	-0.8239087
-2.7784176	<s> ham	-1.0543576
-2.8611536	<s> im	-0.97003675
-0.60139763	think im	-0.86530143
-0.30069873	now im	-0.86530143
-0.7775837	im willing	-0.97003675
-1.8847736	to experiment	-0.97003675
-2.1810815	the first	-0.97003675
-0.9985237	at first	-0.30103
-1.5004435	was time	-0.66900676
-0.6014689	first time	-0.97003675
-2.7784176	<s> although	-1.0543576
-0.6014689	always alone	-1.0543576
-0.6014689	come alone	-0.72699875
-1.6192919	we survive	-1.0543576
-1.2535721	an excellent	-1.0543576
-0.30084074	excellent team	-1.0543576
-2.8696272	<s> nut	-0.97003675
-2.8632643	<s> please	-0.97003675
-1.5004435	you please	-0.30103
-0.6016816	please open	-0.97003675
-2.1892333	the window	-0.97003675
-0.30084074	window quickly	-0.97003675
-3.532165	<s> will	-0.30103
-1.5385475	he will	-1.1663314
-1.6905844	i will	-0.30103
-1.1391368	she will	-0.66900676
-1.2910767	they will	-0.86530143
-0.30002436	families will	-0.86530143
-0.30002436	contributions will	-0.72699875
-1.1448048	will allow	-1.1663314
-1.9908216	a rare	-1.1663314
-0.30084074	rare lie	-1.1663314
-2.943182	<s> zulu	-0.90309
-2.6338959	<s> its	-0.58357656
-0.60139763	think its	-0.8239087
-0.30069873	maybe its	-0.30103
-1.1448048	its fun	-0.9378521
-1.8847736	to roast	-0.9378521
-0.30084074	roast marshmallows	-0.9378521
-2.961456	<s> gas	-0.86530143
-0.9010935	years gas	-0.72699875
-1.9761539	a gas	-0.9378521
-1.6871266	of gas	-0.97003675
-0.90233344	gas burner	-0.9378521
-2.1892333	the wait	-1
-1.8807106	to work	-0.72699875
-1.6170824	for work	-1
-0.9990545	very long	-1
-2.9048493	<s> whitecapped	-0.9378521
-0.30084074	whitecapped waves	-0.9378521
-0.30084074	waves covered	-0.9378521
-2.1892333	the entire	-0.9378521
-0.30084074	entire bay	-0.9378521
-2.943182	<s> then	-0.90309
-0.30084074	then wed	-0.90309
-1.3403453	have someplace	-0.90309
-2.7267685	<s> bed	-1.1026623
-2.9852288	<s> flicker	-0.86530143
-2.619451	<s> bread	-1.20412
-1.2026081	you want	-0.748188
-2.943182	<s> sicker	-0.90309
-0.90233344	help greg	-0.90309
-1.8847736	to pick	-0.90309
-1.9908216	a peck	-0.90309
-1.6944503	of potatoes	-0.90309
-2.377803	<s> fork	-1.4366926
-2.5616171	<s> said	-1.2552725
-1.707471	i said	-0.30103
-1.4998795	it said	-0.66900676
-1.9908216	a calico	-0.90309
-3.1313555	<s> cat	-0.72699875
-0.30073434	calico cat	-0.90309
-1.8807106	to keep	-0.90309
-0.30073434	discussions keep	-0.86530143
-1.5529082	he took	-0.8016324
-1.0771973	me out	-0.90309
-0.9017664	things out	-0.72699875
-0.60139763	fell out	-0.42596874
-0.9017664	one day	-0.90309
-0.77715814	every day	-0.66900676
-0.30069873	twelfth day	-0.86530143
-2.5305216	<s> only	-0.8091855
-2.1810815	the only	-0.90309
-0.90233344	only lawyers	-0.97003675
-0.30084074	lawyers love	-0.97003675
-0.30084074	love millionaires	-0.97003675
-2.8696272	<s> litter	-0.97003675
-2.582991	<s> sink	-1.2388821
-2.619451	<s> red	-1.20412
-2.8370488	<s> ned	-1
-2.8696272	<s> sit	-0.97003675
-2.9048493	<s> being	-0.9378521
-3.497161	<s> able	-0.42596874
-0.30073434	being able	-0.9378521
-1.8847736	to dance	-0.9378521
-0.9019085	help too	-0.9378521
-0.30073434	drugs too	-0.30103
-2.5334675	<s> hand	-1.2863067
-2.943182	<s> rest	-0.90309
-2.619451	<s> those	-0.90309
-0.6016816	those musicians	-1
-0.30084074	musicians harmonize	-1
-0.30084074	harmonize marvelously	-1
-2.897953	<s> most	-0.71600336
-2.1810815	the most	-0.86530143
-2.8311424	<s> young	-0.69897
-0.77726483	most young	-0.86530143
-2.5305216	<s> rise	-1.2863067
-0.77726483	young rise	-0.86530143
-0.6016816	rise early	-0.86530143
-0.30069873	early every	-0.86530143
-0.30069873	loved every	-0.8239087
-0.30069873	meals every	-0.66900676
-0.7775837	every morning	-0.86530143
-3.794417	<s> bought	-0.30103
-1.6170824	we bought	-0.97003675
-0.6016816	brown chair	-0.97003675
-2.897953	<s> quicker	-0.9378521
-0.77726483	much quicker	-0.7781512
-2.9048493	<s> romeo	-0.9378521
-2.943182	<s> travel	-0.90309
-1.6995894	is about	-0.90309
-1.1987997	all about	-0.86530143
-0.30036142	discover about	-0.86530143
-0.30036142	talked about	-0.72699875
-0.30036142	brought about	-0.90309
-0.90233344	only leisure	-0.90309
-2.9048493	<s> nod	-0.9378521
-1.9840571	a place	-0.7781512
-1.0771973	good place	-0.90309
-0.30069873	gently place	-0.30103
-0.7775837	place though	-0.90309
-0.30084074	though small	-0.90309
-2.943182	<s> liquor	-0.90309
-2.8067446	<s> beg	-0.80618
-2.635834	<s> that	-0.74036264
-0.6003873	fill that	-0.42596874
-0.6003873	beg that	-0.97003675
-0.30019283	seen that	-0.8239087
-0.30019283	requests that	-0.66900676
-0.30019283	beauty that	-0.30103
-1.2026081	that guard	-0.97003675
-0.90233344	one gallon	-0.97003675
-2.9742033	<s> ride	-0.86530143
-0.60139763	walk ride	-0.30103
-1.3772388	can ride	-0.9378521
-0.7775837	ride stagecoach	-0.9378521
-2.6388972	<s> neat	-1.1856365
-2.619451	<s> dead	-1.20412
-2.8370488	<s> wit	-1
-1.7111089	i called	-0.86530143
-0.7775837	two different	-0.86530143
-0.30084074	different painters	-0.86530143
-2.9852288	<s> stimulating	-0.86530143
-0.30084074	stimulating discussions	-0.86530143
-0.6016816	keep students	-0.86530143
-0.30084074	students attention	-0.86530143
-0.90233344	help celebrate	-0.86530143
-0.30036142	celebrate your	-0.86530143
-0.7761485	eat your	-0.66900676
-0.30036142	guarantees your	-0.7781512
-0.30036142	upgrade your	-0.5228787
-0.30036142	reflect your	-0.5228787
-0.77726483	four brothers	-0.86530143
-0.9985237	your brothers	-0.86530143
-0.6016816	brothers success	-0.86530143
-2.9852288	<s> lake	-0.86530143
-2.9048493	<s> thread	-0.9378521
-2.9742033	<s> dont	-0.86530143
-1.707471	i dont	-0.8239087
-0.9983461	just dont	-0.30103
-0.9990545	do charlies	-0.86530143
-0.30084074	charlies dirty	-0.86530143
-0.30084074	dirty dishes	-0.86530143
-2.4751577	<s> sew	-1.3424227
-2.7518258	<s> sort	-1.0791812
-2.9852288	<s> catch	-0.86530143
-1.5503777	he played	-0.86530143
-1.6552014	and played	-0.66900676
-0.60139763	has played	-0.8239087
-3.0735676	<s> basketball	-0.7781512
-0.77726483	played basketball	-0.86530143
-0.9990545	there while	-0.86530143
-0.30073434	while working	-0.86530143
-0.30073434	credit working	-0.5228787
-0.6016816	working toward	-0.86530143
-1.9908216	a law	-0.86530143
-0.30084074	law degree	-0.86530143
-2.9852288	<s> coconut	-0.86530143
-0.30084074	coconut cream	-0.86530143
-0.30084074	cream pie	-0.86530143
-1.1438143	she makes	-0.42596874
-0.30069873	pie makes	-0.86530143
-0.30069873	straw makes	-0.8239087
-1.9908216	a nice	-0.86530143
-0.30084074	nice dessert	-0.86530143
-1.6192919	we selected	-0.86530143
-0.30084074	selected places	-0.86530143
-0.30073434	places where	-0.86530143
-0.6014689	know where	-0.72699875
-0.6016816	where families	-0.86530143
-1.5529082	be welcome	-0.86530143
-2.9852288	<s> cakes	-0.86530143
-2.448698	<s> bill	-1.3679768
-0.7775837	most accomplished	-0.86530143
-0.30084074	accomplished artists	-0.86530143
-0.30084074	artists obtain	-0.86530143
-0.30084074	obtain popularity	-0.86530143
-2.6987321	<s> short	-1.1249387
-1.7086717	is short	-0.86530143
-2.9852288	<s> shin	-0.86530143
-2.9742033	<s> some	-0.86530143
-1.6552014	and some	-0.42596874
-0.30069873	definitely some	-0.86530143
-0.7775837	some prefer	-0.86530143
-2.1892333	the traditional	-0.86530143
-0.30084074	traditional steel	-0.86530143
-0.30084074	steel kind	-0.86530143
-2.7030785	<s> cork	-1.1249387
-2.7518258	<s> weep	-1.0791812
-2.9852288	<s> biblical	-0.86530143
-0.30084074	biblical scholars	-0.86530143
-0.30084074	scholars argue	-0.86530143
-0.30084074	argue history	-0.86530143
-2.9852288	<s> rid	-0.86530143
-2.9852288	<s> quart	-0.86530143
-2.9852288	<s> shot	-0.86530143
-1.7112962	is definitely	-0.86530143
-0.7775837	some ligament	-0.86530143
-0.30084074	ligament damage	-0.86530143
-0.9990545	his knee	-0.86530143
-2.9852288	<s> sheep	-0.86530143
-2.9852288	<s> snort	-0.86530143
-2.9852288	<s> pork	-0.86530143
-2.1810815	the fact	-0.5228787
-1.5007361	in fact	-0.86530143
-0.60139763	fact our	-0.86530143
-0.9527537	with our	-0.72699875
-0.30069873	obtaining our	-0.7781512
-0.90233344	our whole	-0.86530143
-0.30084074	whole defensive	-0.86530143
-0.30084074	defensive unit	-0.86530143
-2.9852288	<s> sketch	-0.86530143
-0.6016816	who knows	-0.86530143
-0.30069873	knows what	-0.86530143
-0.60139763	thats what	-0.71600336
-0.60139763	sure what	-0.30103
-0.90233344	what youll	-0.86530143
-0.30084074	youll discover	-0.86530143
-0.9990545	about yourself	-0.86530143
-2.5181398	<s> blend	-1.30103
-2.9852288	<s> shed	-0.86530143
-1.5004435	it looked	-0.42596874
-0.6014689	brothers looked	-0.86530143
-0.6016816	looked identical	-0.86530143
-2.9769435	<s> critical	-0.86530143
-0.30073434	gained critical	-0.90309
-0.6016816	critical equipment	-0.86530143
-0.30069873	equipment needs	-0.86530143
-0.30069873	household needs	-0.30103
-0.30069873	plant needs	-0.30103
-0.7775837	needs proper	-0.86530143
-0.30084074	proper maintenance	-0.86530143
-2.549356	<s> see	-1.2710668
-2.9852288	<s> shop	-0.86530143
-2.5974002	<s> heat	-1.2218487
-1.6919292	of heat	-0.66900676
-2.9048493	<s> suddenly	-0.9378521
-1.1448048	my reflexes	-0.9378521
-1.4742908	are gone	-0.9378521
-2.9048493	<s> gill	-0.9378521
-2.9852288	<s> show	-0.86530143
-2.897953	<s> read	-0.9378521
-1.3775575	can read	-0.60206
-2.1892333	the results	-0.9378521
-0.9990545	very disappointing	-0.9378521
-2.9852288	<s> tug	-0.86530143
-2.5334675	<s> cash	-1.2863067
-2.9852288	<s> stretch	-0.86530143
-2.549356	<s> steak	-1.2710668
-2.9852288	<s> ray	-0.86530143
-2.9852288	<s> fort	-0.86530143
-2.9852288	<s> lee	-0.86530143
-2.6008384	<s> hold	-1.2218487
-2.9048493	<s> ive	-0.9378521
-0.30084074	ive kept	-0.9378521
-3.2077422	<s> with	-0.5228787
-1.4841533	it with	-0.9378521
-0.29968756	compliance with	-0.9378521
-0.29968756	pleased with	-0.7781512
-0.29968756	popular with	-0.7781512
-0.29968756	laced with	-0.86530143
-0.29968756	disappointed with	-0.66900676
-0.29968756	canteen with	-0.42596874
-0.5993792	deal with	-0.42596874
-1.0780468	me ever	-0.9378521
-0.30084074	ever since	-0.9378521
-2.8370488	<s> thats	-0.7781512
-2.9742033	<s> life	-0.86530143
-1.1438143	my life	-0.66900676
-0.9017664	what life	-0.86530143
-2.9852288	<s> shred	-0.86530143
-2.9852288	<s> sight	-0.86530143
-2.1892333	the fish	-0.86530143
-0.30084074	fish swam	-0.86530143
-0.30084074	swam across	-0.86530143
-2.1892333	the pond	-0.86530143
-1.1448048	she doesnt	-0.86530143
-1.707471	i like	-0.42596874
-0.60139763	looked like	-0.42596874
-0.30069873	doesnt like	-0.86530143
-1.5021316	it hanging	-0.86530143
-0.30084074	hanging around	-0.86530143
-2.7518258	<s> tort	-1.0791812
-3.0839422	<s> meats	-0.7781512
-1.6584255	and precious	-0.86530143
-2.5463006	<s> eat	-0.97003675
-1.5004435	you eat	-0.66900676
-2.9769435	<s> sport	-0.86530143
-0.30073434	entertaining sport	-0.7781512
-0.90233344	people participate	-0.86530143
-1.5023196	in athletic	-0.86530143
-0.30084074	athletic activities	-0.86530143
-2.9852288	<s> trespassers	-0.86530143
-1.5529082	be prosecuted	-0.86530143
-1.6584255	and fined	-0.86530143
-2.9048493	<s> etiquette	-0.9378521
-0.30084074	etiquette mandates	-0.9378521
-0.30084074	mandates compliance	-0.9378521
-1.2535721	with existing	-0.9378521
-0.30084074	existing regulations	-0.9378521
-0.7775837	quick touchdown	-0.9378521
-0.30084074	touchdown resulted	-0.9378521
-2.1810815	the little	-0.86530143
-0.6014689	still little	-0.30103
-0.6016816	little girls	-0.86530143
-0.30084074	girls cut	-0.86530143
-0.30084074	cut lacy	-0.86530143
-0.30084074	lacy valentines	-0.86530143
-2.4890177	<s> geese	-1.3290588
-2.9852288	<s> mill	-0.86530143
-2.9852288	<s> barbs	-0.86530143
-3.0735676	<s> gold	-0.7781512
-0.30073434	barbs gold	-0.86530143
-0.6016816	gold bracelet	-0.86530143
-1.9908216	a graduation	-0.86530143
-0.30084074	graduation present	-0.86530143
-2.4118054	<s> reap	-1.4036924
-2.9852288	<s> dill	-0.86530143
-2.9852288	<s> lend	-0.86530143
-2.9852288	<s> foe	-0.86530143
-1.5529082	he asked	-0.86530143
-1.9908216	a loan	-0.86530143
-0.9985237	they make	-0.69897
-0.77726483	phone make	-0.8239087
-3.0921082	<s> any	-0.72699875
-1.8667529	to any	-0.86530143
-1.6094203	for any	-0.42596874
-1.4945738	it any	-0.66900676
-0.7761485	make any	-0.86530143
-0.9985237	any money	-0.86530143
-0.30073434	save money	-0.30103
-2.9852288	<s> toe	-0.86530143
-2.9852288	<s> threat	-0.86530143
-2.9852288	<s> port	-0.86530143
-1.7111089	i scream	-0.86530143
-1.8847736	to warm	-0.86530143
-1.1448048	my voice	-0.86530143
-2.7267685	<s> rip	-1.1026623
-2.7518258	<s> wise	-1.0791812
-1.7083809	i think	-0.86530143
-0.77726483	dont think	-0.8239087
-2.9356549	<s> full	-0.90309
-0.77726483	im full	-0.86530143
-0.9990545	this stuff	-0.86530143
-2.9852288	<s> bend	-0.86530143
-2.9852288	<s> muck	-0.86530143
-2.9852288	<s> snake	-0.86530143
-1.7111089	i havent	-0.8239087
-0.30084074	havent seen	-0.8239087
-1.2026081	that friend	-0.8239087
-3.0317867	<s> bumper	-0.8239087
-1.2535721	an entertaining	-0.7781512
-3.0317867	<s> ash	-0.8239087
-3.0735676	<s> fit	-0.7781512
-0.6014689	never fit	-0.5228787
-3.0317867	<s> sheer	-0.8239087
-0.9990545	at twilight	-0.86530143
-2.1892333	the twelfth	-0.86530143
-1.3403453	have chablis	-0.86530143
-2.619451	<s> hash	-1.20412
-3.0839422	<s> worse	-0.7781512
-0.30084074	worse luck	-0.7781512
-1.7086717	is still	-0.30103
-1.5004435	was still	-0.7781512
-1.8807106	to come	-0.7781512
-1.5004435	you come	-0.72699875
-2.1892333	the golfing	-0.7781512
-0.30084074	golfing fathers	-0.7781512
-0.30084074	fathers ruled	-0.7781512
-0.9990545	his favor	-0.7781512
-2.5334675	<s> hail	-1.2863067
-3.0839422	<s> code	-0.7781512
-3.0839422	<s> elderly	-0.7781512
-0.7775837	often excluded	-0.7781512
-3.0317867	<s> beam	-0.8239087
-1.5529082	he remains	-0.86530143
-2.1892333	the fiercest	-0.86530143
-1.6944503	of competitors	-0.86530143
-3.0839422	<s> knife	-0.7781512
-3.0317867	<s> pete	-0.8239087
-2.9852288	<s> addition	-0.86530143
-1.6584255	and subtraction	-0.86530143
-1.4742908	are learned	-0.86530143
-0.30084074	learned skills	-0.86530143
-1.5510113	be found	-0.7781512
-0.30073434	soon found	-0.42596874
-0.6016816	found anywhere	-0.7781512
-3.0317867	<s> gash	-0.8239087
-1.5021316	was pleased	-0.7781512
-2.1810815	the way	-0.7781512
-0.9985237	any way	-0.66900676
-2.1658368	the things	-0.5228787
-0.776653	get things	-0.30103
-0.6010606	work things	-0.72699875
-0.6010606	way things	-0.7781512
-0.9019085	things went	-0.7781512
-0.30073434	marriage went	-0.86530143
-1.7111089	i loved	-0.8239087
-0.7775837	every minute	-0.8239087
-1.0780468	good idea	-0.8239087
-2.9852288	<s> fender	-0.86530143
-3.0839422	<s> woe	-0.7781512
-3.0317867	<s> member	-0.8239087
-3.0317867	<s> beast	-0.8239087
-1.1448048	she suggested	-0.8239087
-1.3403453	have dinner	-0.8239087
-0.9983461	got together	-0.42596874
-0.30069873	dinner together	-0.8239087
-0.60139763	trip together	-0.30103
-2.8696272	<s> so	-0.66900676
-0.60139763	so if	-0.8239087
-0.30069873	fear if	-0.72699875
-0.60139763	practical if	-0.30103
-0.7775837	if anybody	-0.8239087
-0.30084074	anybody solicits	-0.8239087
-0.30036142	solicits by	-0.8239087
-0.30036142	begin by	-0.86530143
-0.6007238	them by	-0.72699875
-0.30036142	rewarded by	-0.30103
-0.30036142	acting by	-0.30103
-0.77726483	not sure	-0.30103
-0.77726483	make sure	-0.8239087
-1.5021316	you mail	-0.8239087
-2.1892333	the dough	-0.8239087
-3.0839422	<s> ambidextrous	-0.7781512
-0.30084074	ambidextrous pickpockets	-0.7781512
-0.30084074	pickpockets accomplish	-0.7781512
-3.0317867	<s> guess	-0.8239087
-1.9908216	a wedding	-0.86530143
-0.30084074	wedding trip	-0.64345264
-2.4717212	<s> her	-0.86530143
-0.77715814	win her	-0.42596874
-0.30069873	outgrew her	-0.8239087
-0.9990545	her dark	-0.8239087
-0.30084074	dark hair	-0.8239087
-1.7112962	is combed	-0.8239087
-0.30084074	combed casually	-0.8239087
-3.211903	<s> seam	-0.66900676
-3.0317867	<s> beep	-0.8239087
-1.5510113	be quite	-0.7781512
-1.4727075	are quite	-0.30103
-0.6016816	quite vocal	-0.7781512
-1.5021316	it requires	-0.7781512
-0.9990545	big investment	-0.7781512
-1.2026081	that pickpocket	-0.9378521
-1.5021316	was caught	-0.9378521
-0.30084074	caught redhanded	-0.9378521
-3.1432266	<s> mock	-0.72699875
-2.6388972	<s> dock	-1.1856365
-2.9356549	<s> sea	-0.90309
-0.30073434	resemble sea	-0.5228787
-3.0317867	<s> grandmother	-0.8239087
-0.30084074	grandmother outgrew	-0.8239087
-0.9990545	her upbringing	-0.8239087
-1.5023196	in petticoats	-0.8239087
-2.1892333	the sun	-0.8239087
-0.30084074	sun died	-0.8239087
-3.0839422	<s> ember	-0.7781512
-2.6388972	<s> seat	-1.1856365
-3.0839422	<s> food	-0.7781512
-3.0839422	<s> reef	-0.7781512
-1.9908216	a fire	-0.8239087
-1.5023196	in straw	-0.8239087
-0.7775837	quick blaze	-0.8239087
-3.0839422	<s> sender	-0.7781512
-0.9990545	her classical	-0.90309
-0.30084074	classical performance	-0.90309
-0.30084074	performance gained	-0.90309
-0.6016816	critical acclaim	-0.90309
-0.9990545	her position	-0.86530143
-0.9019085	also covers	-0.7781512
-0.30073434	position covers	-0.86530143
-1.9908216	a number	-1.1249387
-1.6944503	of daily	-0.86530143
-0.30084074	daily tasks	-0.86530143
-0.30084074	tasks common	-0.86530143
-0.9990545	any social	-0.86530143
-0.30084074	social director	-0.86530143
-2.1892333	the marriage	-0.86530143
-1.1403015	well from	-0.86530143
-0.30019283	behavior from	-0.72699875
-0.30019283	coming from	-0.72699875
-0.30019283	assaults from	-0.7781512
-0.30019283	drenched from	-0.86530143
-0.30019283	original from	-0.30103
-2.1810815	the start	-0.86530143
-0.9019085	our start	-0.66900676
-1.8807106	to tell	-0.30103
-1.7083809	i tell	-0.7781512
-1.5021316	was wonderful	-0.7781512
-3.0839422	<s> renter	-0.7781512
-2.6388972	<s> row	-1.1856365
-3.0839422	<s> lender	-0.7781512
-3.0839422	<s> ape	-0.7781512
-1.7083809	i didnt	-0.72699875
-0.9985237	just didnt	-0.8239087
-3.0317867	<s> forks	-0.8239087
-3.1432266	<s> tender	-0.72699875
-3.0317867	<s> tea	-0.8239087
-0.9990545	very popular	-0.7781512
-0.90233344	our fans	-0.7781512
-3.0839422	<s> timber	-0.7781512
-2.7518258	<s> leap	-1.0791812
-3.0839422	<s> catastrophic	-0.7781512
-0.30084074	catastrophic economic	-0.7781512
-0.30084074	economic cutbacks	-0.7781512
-0.30084074	cutbacks neglect	-0.7781512
-2.1892333	the poor	-0.7781512
-2.8696272	<s> tail	-0.97003675
-3.0317867	<s> bender	-0.8239087
-2.4890177	<s> ache	-1.3290588
-3.0317867	<s> center	-0.8239087
-3.0839422	<s> mom	-0.7781512
-0.30084074	mom strongly	-0.7781512
-0.30084074	strongly dislikes	-0.7781512
-0.30084074	dislikes appetizers	-0.7781512
-3.0317867	<s> beef	-0.8239087
-3.0317867	<s> temper	-0.8239087
-2.7064574	<s> had	-1.1026623
-1.6094203	we had	-0.30103
-1.6989456	i had	-0.72699875
-0.30036142	finger had	-0.72699875
-0.30036142	kat had	-0.30103
-0.9990545	no desire	-0.72699875
-1.8847736	to change	-0.72699875
-1.1448048	my ways	-0.72699875
-2.619451	<s> wax	-1.20412
-2.9048493	<s> pet	-0.9378521
-3.0839422	<s> aid	-0.7781512
-3.1432266	<s> knock	-0.72699875
-3.1432266	<s> lies	-0.72699875
-3.0839422	<s> cheese	-0.7781512
-3.0317867	<s> hatch	-0.8239087
-2.1892333	the lack	-0.66900676
-0.6016816	heat compounded	-0.66900676
-2.1892333	the tenants	-0.66900676
-0.30073434	tenants grievances	-0.66900676
-0.30073434	personal grievances	-0.90309
-2.582991	<s> bunch	-1.2388821
-0.9990545	any contributions	-0.72699875
-1.5529082	be greatly	-0.72699875
-0.30084074	greatly appreciated	-0.72699875
-2.6008384	<s> ease	-1.2218487
-2.7784176	<s> add	-1.0543576
-2.9852288	<s> chocolate	-0.86530143
-1.6584255	and roses	-0.86530143
-0.30073434	roses never	-0.86530143
-0.30073434	theyll never	-0.5228787
-0.6016816	never fail	-0.64345264
-1.9908216	a romantic	-0.7781512
-0.30084074	romantic gift	-0.7781512
-2.1892333	the legislature	-0.9378521
-0.30084074	legislature met	-0.9378521
-3.794417	<s> judge	-0.30103
-1.8807106	to judge	-0.9378521
-1.8955829	the state	-0.7781512
-1.6944503	of public	-0.9378521
-0.30084074	public education	-0.9378521
-2.1892333	the largest	-0.8239087
-0.7775837	four states	-0.8239087
-3.1432266	<s> peas	-0.72699875
-3.1432266	<s> bun	-0.72699875
-3.1432266	<s> punch	-0.72699875
-3.0839422	<s> ail	-0.7781512
-2.9852288	<s> begin	-0.86530143
-0.9990545	by trying	-0.86530143
-1.8847736	to speak	-0.86530143
-2.7784176	<s> tall	-1.0543576
-3.1432266	<s> range	-0.72699875
-1.9908216	a vital	-0.72699875
-0.30084074	vital detail	-0.72699875
-3.1432266	<s> pill	-0.72699875
-3.1432266	<s> racks	-0.72699875
-2.1892333	the structures	-0.8239087
-0.30084074	structures housing	-0.8239087
-2.1892333	the apartments	-0.8239087
-1.6944503	of masonry	-0.72699875
-1.6584255	and frame	-0.72699875
-0.30084074	frame construction	-0.72699875
-3.1432266	<s> aches	-0.72699875
-3.0839422	<s> lit	-0.7781512
-2.1892333	the singers	-0.72699875
-0.30084074	singers finger	-0.72699875
-1.9908216	a splinter	-0.72699875
-2.9852288	<s> now	-0.86530143
-0.7775837	im living	-0.86530143
-0.30084074	living exactly	-0.86530143
-1.7111089	i choose	-0.7781512
-3.1432266	<s> duck	-0.72699875
-3.1432266	<s> arm	-0.72699875
-1.7111089	i wanted	-0.72699875
-1.2535721	an actress	-0.72699875
-2.897953	<s> fell	-0.9378521
-1.5004435	it fell	-0.42596874
-0.6016816	academic aptitude	-0.7781512
-0.30084074	aptitude guarantees	-0.7781512
-0.9990545	your diploma	-0.7781512
-3.1432266	<s> charm	-0.72699875
-1.9908216	a great	-0.72699875
-0.30084074	great meeting	-0.72699875
-1.5529082	be prepared	-0.72699875
-1.6192919	for odd	-0.72699875
-0.30084074	odd behavior	-0.72699875
-1.0780468	from friends	-0.72699875
-3.0317867	<s> mile	-0.8239087
-3.0839422	<s> rakes	-0.7781512
-1.6192919	we talked	-0.72699875
-2.1892333	the situation	-0.72699875
-1.6919292	of other	-0.7781512
-0.77726483	makes other	-0.42596874
-0.6016816	other items	-0.7781512
-0.9990545	no fear	-0.72699875
-3.4881477	<s> sat	-0.42596874
-0.9983461	just sat	-0.42596874
-1.2014768	all sat	-0.7781512
-1.6584255	and relaxed	-0.7781512
-2.5033348	<s> hall	-1.3152704
-3.0839422	<s> sake	-0.7781512
-1.6170824	we know	-0.90309
-0.6014689	didnt know	-0.72699875
-1.1448048	were coming	-0.72699875
-1.6192919	for pockets	-0.8239087
-3.1432266	<s> hell	-0.72699875
-0.6014689	sell them	-0.72699875
-0.77726483	like them	-0.42596874
-1.8955829	the box	-0.8239087
-2.1892333	the plot	-0.86530143
-1.7112962	is laced	-0.86530143
-1.2535721	with mysterious	-0.86530143
-0.30084074	mysterious incidents	-0.86530143
-1.6192919	we shelled	-0.72699875
-0.30084074	shelled clams	-0.72699875
-2.1892333	the chowder	-0.72699875
-1.6192919	we experience	-0.7781512
-0.30084074	experience distress	-0.7781512
-1.6584255	and frustration	-0.7781512
-0.30084074	frustration obtaining	-0.7781512
-0.90233344	our degrees	-0.7781512
-3.0839422	<s> ticks	-0.7781512
-2.1892333	the prowler	-0.7781512
-0.30084074	prowler wore	-0.7781512
-1.9908216	a ski	-0.7781512
-0.30084074	ski mask	-0.7781512
-1.6192919	for disguise	-0.7781512
-0.9985237	no confirmation	-0.7781512
-0.6014689	cable confirmation	-0.66900676
-1.7086717	is such	-0.5228787
-1.6919292	of such	-0.7781512
-0.6016816	such massive	-0.7781512
-0.30084074	massive assaults	-0.7781512
-1.0780468	from independent	-0.7781512
-0.30084074	independent sources	-0.7781512
-3.0839422	<s> chap	-0.7781512
-3.1432266	<s> lax	-0.72699875
-3.794417	<s> score	-0.30103
-1.3775575	can score	-0.90309
-3.1432266	<s> munch	-0.72699875
-1.5529082	he added	-0.90309
-0.30084074	added brought	-0.90309
-1.6560081	and petty	-0.90309
-0.9985237	about petty	-0.90309
-0.6016816	petty jealousies	-0.90309
-0.6016816	petty personal	-0.90309
-3.0317867	<s> even	-0.8239087
-1.9908216	a simple	-0.8239087
-0.30084074	simple vocabulary	-0.8239087
-0.30084074	vocabulary contains	-0.8239087
-0.30084074	contains symbols	-0.8239087
-3.1432266	<s> end	-0.72699875
-2.1892333	the eastern	-0.7781512
-0.30084074	eastern coast	-0.7781512
-1.6192919	for pure	-0.7781512
-1.6170824	for pleasure	-0.42596874
-0.30073434	pure pleasure	-0.7781512
-1.6584255	and excitement	-0.7781512
-3.211903	<s> dial	-0.66900676
-2.8370488	<s> low	-1
-3.211903	<s> cold	-0.66900676
-3.394103	<s> whip	-0.5228787
-1.5197977	a few	-0.6478175
-0.7775837	few bad	-0.7781512
-3.394103	<s> ink	-0.5228787
-3.211903	<s> handle	-0.66900676
-3.394103	<s> theyll	-0.5228787
-1.0780468	me again	-0.5228787
-3.394103	<s> term	-0.5228787
-3.394103	<s> wide	-0.5228787
-0.9990545	got drenched	-0.86530143
-2.1892333	the uninterrupted	-0.86530143
-3.211903	<s> pant	-0.66900676
-0.77726483	few may	-0.66900676
-0.30073434	company may	-0.42596874
-1.5510113	be hard	-0.66900676
-1.1440626	its hard	-0.30103
-3.794417	<s> find	-0.30103
-1.5853354	to find	-0.86530143
-3.0839422	<s> cable	-0.5563025
-0.7775837	said translated	-0.66900676
-3.211903	<s> weve	-0.66900676
-2.1892333	the past	-0.66900676
-3.394103	<s> burn	-0.5228787
-1.6192919	we knew	-0.66900676
-1.6192919	we werent	-0.66900676
-0.30084074	werent doing	-0.66900676
-3.394103	<s> upgrade	-0.5228787
-0.9990545	your status	-0.5228787
-1.8847736	to reflect	-0.5228787
-0.9990545	your wealth	-0.5228787
-3.3731709	<s> spring	-0.5228787
-0.30073434	fresh spring	-0.42596874
