\data\
ngram 1=1560
ngram 2=3299
ngram 3=2741

\1-grams:
-3.5512416	<unk>	0
0	<s>	-1.1480122
-0.5823442	</s>	0
-3.4667482	stick	-0.30103
-3.4667482	except	-0.30103
-2.2161748	in	-0.38818017
-1.9157332	the	-0.30103
-3.4667482	winter	-0.30103
-3.205719	when	-0.30103
-3.4667482	ooze	-0.30103
-2.7363186	or	-0.30103
-3.2757695	snow	-0.30103
-3.4667482	ice	-0.30103
-3.4667482	prevents	-0.30103
-3.4667482	pat	-0.30103
-2.6699286	up	-0.30103
-3.4667482	meat	-0.30103
-3.033471	know	-0.30103
-2.4748511	he	-0.30103
-3.2757695	slowly	-0.30103
-3.4667482	takes	-0.30103
-1.9157332	a	-0.31527045
-3.205719	short	-0.30103
-3.033471	walk	-0.30103
-3.2757695	open	-0.30103
-3.2757695	air	-0.30103
-3.033471	each	-0.30103
-2.8147216	day	-0.30103
-3.4667482	swarm	-0.30103
-3.4667482	double	-0.30103
-2.9104667	no	-0.30103
-3.4667482	storm	-0.30103
-3.4667482	usually	-0.30103
-3.4667482	minus	-0.30103
-3.2757695	several	-0.30103
-3.4667482	buttons	-0.30103
-3.4667482	dug	-0.30103
-2.3407218	you	-0.30103
-3.4667482	wished	-0.30103
-1.8843658	to	-0.31912822
-2.6123548	all	-0.30103
-2.9104667	about	-0.30103
-2.6699286	my	-0.30103
-3.2757695	grandfather	-0.30103
-3.2757695	knee	-0.30103
-3.4667482	feet	-0.30103
-3.2757695	train	-0.30103
-3.4667482	but	-0.30103
-3.2757695	always	-0.30103
-3.4667482	answers	-0.30103
-3.4667482	banana	-0.30103
-3.4667482	oil	-0.30103
-3.4667482	beat	-0.30103
-3.2757695	quick	-0.30103
-3.2757695	brown	-0.30103
-3.4667482	fox	-0.30103
-3.4667482	jumps	-0.30103
-3.2757695	over	-0.30103
-3.4667482	lazy	-0.30103
-3.4667482	dog	-0.30103
-3.4667482	she	-0.30103
-2.7363186	had	-0.30103
-2.6699286	your	-0.30103
-3.205719	dark	-0.30103
-3.2757695	suit	-0.30103
-3.4667482	greasy	-0.30103
-3.4667482	wash	-0.30103
-3.033471	water	-0.30103
-3.4667482	year	-0.30103
-3.4667482	car	-0.30103
-3.4667482	giving	-0.30103
-3.2757695	those	-0.30103
-3.205719	who	-0.30103
-3.2757695	observe	-0.30103
-2.8147216	him	-0.30103
-3.4667482	pronounced	-0.30103
-3.4667482	feeling	-0.30103
-2.086146	of	-0.3309932
-3.4667482	utmost	-0.30103
-3.4667482	respect	-0.30103
-2.7363186	we	-0.30103
-2.5615275	have	-0.30103
-3.205719	often	-0.30103
-3.4667482	urged	-0.30103
-2.9104667	more	-0.30103
-2.1195002	and	-0.30103
-3.4667482	smoke	-0.30103
-3.4667482	less	-0.30103
-3.4667482	rake	-0.30103
-3.4667482	swore	-0.30103
-3.4667482	rave	-0.30103
-2.174889	for	-0.30103
-3.4667482	sip	-0.30103
-3.2757695	grow	-0.30103
-3.2757695	bit	-0.30103
-3.2757695	chair	-0.30103
-2.7363186	one	-0.30103
-3.4667482	fair	-0.30103
-3.033471	two	-0.30103
-3.4667482	beta	-0.30103
-3.4667482	rage	-0.30103
-3.2757695	spark	-0.30103
-3.4667482	race	-0.30103
-3.4667482	form	-0.30103
-3.2757695	farm	-0.30103
-3.4667482	raid	-0.30103
-3.4667482	fee	-0.30103
-3.4667482	weed	-0.30103
-3.4667482	bat	-0.30103
-3.4667482	horn	-0.30103
-3.4667482	jagged	-0.30103
-3.4667482	sheet	-0.30103
-3.4667482	bubble	-0.30103
-3.205719	warm	-0.30103
-3.4667482	ship	-0.30103
-3.2757695	hair	-0.30103
-3.4667482	share	-0.30103
-3.4667482	rate	-0.30103
-3.4667482	goat	-0.30103
-3.4667482	trace	-0.30103
-3.205719	go	-0.30103
-3.4667482	alpha	-0.30103
-3.4667482	left	-0.30103
-3.4667482	sticks	-0.30103
-3.4667482	trouble	-0.30103
-3.4667482	dagger	-0.30103
-3.2757695	long	-0.30103
-3.4667482	flowing	-0.30103
-3.4667482	beard	-0.30103
-3.4667482	clings	-0.30103
-3.033471	his	-0.30103
-3.4667482	chin	-0.30103
-3.2757695	slip	-0.30103
-3.4667482	glow	-0.30103
-3.4667482	trade	-0.30103
-3.4667482	range	-0.30103
-3.4667482	stubble	-0.30103
-3.4667482	floor	-0.30103
-3.4667482	bug	-0.30103
-3.205719	yet	-0.30103
-3.205719	still	-0.30103
-3.4667482	thinks	-0.30103
-2.5615275	as	-0.30103
-3.4667482	swiftly	-0.30103
-3.2757695	ever	-0.30103
-3.4667482	jacket	-0.30103
-3.4667482	born	-0.30103
-3.4667482	corn	-0.30103
-3.2757695	right	-0.30103
-3.2757695	knew	-0.30103
-2.7363186	well	-0.30103
-2.1556304	is	-0.3148183
-3.4667482	nearly	-0.30103
-3.4667482	ninety	-0.30103
-3.033471	three	-0.30103
-2.9104667	years	-0.30103
-3.033471	old	-0.30103
-3.4667482	feed	-0.30103
-3.4667482	twice	-0.30103
-3.4667482	plays	-0.30103
-3.4667482	skillfully	-0.30103
-2.5615275	with	-0.30103
-3.4667482	zest	-0.30103
-3.4667482	upon	-0.30103
-2.9104667	our	-0.30103
-3.2757695	small	-0.30103
-3.4667482	organ	-0.30103
-3.2757695	rain	-0.30103
-3.4667482	park	-0.30103
-3.4667482	tip	-0.30103
-3.205719	down	-0.30103
-3.4667482	gadget	-0.30103
-3.2757695	store	-0.30103
-3.4667482	dresses	-0.30103
-3.205719	himself	-0.30103
-2.5615275	an	-0.30103
-3.4667482	ancient	-0.30103
-3.2757695	black	-0.30103
-3.4667482	frock	-0.30103
-3.2757695	coat	-0.30103
-3.4667482	likes	-0.30103
-2.4748511	be	-0.30103
-3.4667482	modern	-0.30103
-3.4667482	language	-0.30103
-3.4667482	torn	-0.30103
-3.4667482	speaks	-0.30103
-3.2757695	voice	-0.30103
-3.033471	just	-0.30103
-3.4667482	cracked	-0.30103
-3.4667482	quivers	-0.30103
-3.4667482	trifle	-0.30103
-3.4667482	trait	-0.30103
-3.4667482	yes	-0.30103
-3.4667482	dressed	-0.30103
-3.205719	dont	-0.30103
-3.4667482	ask	-0.30103
-2.6699286	me	-0.30103
-3.4667482	carry	-0.30103
-3.4667482	oily	-0.30103
-3.4667482	rag	-0.30103
-3.033471	like	-0.30103
-2.6699286	that	-0.30103
-3.4667482	ninetythree	-0.30103
-3.4667482	sleep	-0.30103
-3.4667482	pile	-0.30103
-3.4667482	youd	-0.30103
-3.4667482	better	-0.30103
-3.2757695	off	-0.30103
-3.2757695	taking	-0.30103
-3.2757695	cold	-0.30103
-3.4667482	shower	-0.30103
-3.4667482	sway	-0.30103
-3.4667482	both	-0.30103
-3.4667482	figures	-0.30103
-3.4667482	would	-0.30103
-3.2757695	higher	-0.30103
-3.205719	later	-0.30103
-3.4667482	charlie	-0.30103
-3.4667482	mut	-0.30103
-3.4667482	troop	-0.30103
-3.205719	here	-0.30103
-3.4667482	wish	-0.30103
-3.4667482	ate	-0.30103
-3.4667482	hear	-0.30103
-3.4667482	pot	-0.30103
-3.2757695	white	-0.30103
-3.4667482	mother	-0.30103
-3.4667482	sews	-0.30103
-3.2757695	yellow	-0.30103
-3.4667482	gingham	-0.30103
-3.4667482	aprons	-0.30103
-2.9104667	i	-0.30103
-3.2757695	try	-0.30103
-2.8147216	do	-0.30103
-3.2757695	best	-0.30103
-3.2757695	bad	-0.30103
-3.205719	where	-0.30103
-2.5160306	were	-0.30103
-3.2757695	while	-0.30103
-3.2757695	away	-0.30103
-3.2757695	deer	-0.30103
-3.4667482	droop	-0.30103
-3.4667482	group	-0.30103
-3.2757695	near	-0.30103
-3.4667482	cheer	-0.30103
-3.4667482	thigh	-0.30103
-3.4667482	single	-0.30103
-3.033471	if	-0.30103
-3.4667482	destroy	-0.30103
-3.4667482	confidence	-0.30103
-3.4667482	banks	-0.30103
-3.4667482	something	-0.30103
-3.4667482	economy	-0.30103
-2.9104667	said	-0.30103
-3.4667482	coupe	-0.30103
-3.2757695	write	-0.30103
-3.4667482	approached	-0.30103
-3.4667482	depot	-0.30103
-3.4667482	islands	-0.30103
-2.3407218	are	-0.30103
-3.4667482	sparsely	-0.30103
-3.4667482	populated	-0.30103
-3.4667482	area	-0.30103
-3.4667482	steer	-0.30103
-3.4667482	tile	-0.30103
-3.4667482	select	-0.30103
-3.4667482	sweet	-0.30103
-3.4667482	youre	-0.30103
-3.2757695	used	-0.30103
-3.2757695	being	-0.30103
-2.5160306	on	-0.56427145
-3.4667482	field	-0.30103
-3.4667482	forward	-0.30103
-3.4667482	root	-0.30103
-3.4667482	sister	-0.30103
-3.2757695	made	-0.30103
-3.4667482	flowered	-0.30103
-3.4667482	curtains	-0.30103
-3.4667482	bright	-0.30103
-3.4667482	sunshine	-0.30103
-3.4667482	shimmers	-0.30103
-3.4667482	ocean	-0.30103
-3.4667482	pay	-0.30103
-3.4667482	light	-0.30103
-3.205719	other	-0.30103
-3.4667482	cases	-0.30103
-2.8147216	also	-0.30103
-3.205719	under	-0.30103
-3.4667482	advisement	-0.30103
-3.205719	much	-0.30103
-3.4667482	hate	-0.30103
-3.4667482	whoop	-0.30103
-3.4667482	rock	-0.30103
-3.4667482	why	-0.30103
-3.4667482	yell	-0.30103
-3.4667482	worry	-0.30103
-3.4667482	silly	-0.30103
-3.2757695	items	-0.30103
-3.4667482	toot	-0.30103
-3.4667482	knot	-0.30103
-3.4667482	fate	-0.30103
-3.2757695	side	-0.30103
-2.9104667	got	-0.30103
-3.4667482	wet	-0.30103
-3.4667482	shoot	-0.30103
-3.205719	looked	-0.30103
-3.4667482	noticed	-0.30103
-3.4667482	men	-0.30103
-3.4667482	slay	-0.30103
-2.7363186	will	-0.30103
-3.4667482	robin	-0.30103
-3.4667482	wear	-0.30103
-3.4667482	lily	-0.30103
-2.4748511	was	-0.30103
-3.4667482	conscious	-0.30103
-3.205719	time	-0.30103
-3.4667482	prior	-0.30103
-3.2757695	play	-0.30103
-3.4667482	briar	-0.30103
-3.4667482	allow	-0.30103
-3.4667482	rare	-0.30103
-3.4667482	lilyrare	-0.30103
-3.2757695	lie	-0.30103
-3.4667482	shear	-0.30103
-2.9104667	big	-0.30103
-3.4667482	baseball	-0.30103
-3.4667482	players	-0.30103
-3.205719	get	-0.30103
-3.4667482	traded	-0.30103
-3.033471	this	-0.30103
-3.2757695	easy	-0.30103
-3.2757695	us	-0.30103
-3.2757695	fear	-0.30103
-3.4667482	sprinkle	-0.30103
-3.4667482	snoop	-0.30103
-3.4667482	scrubbed	-0.30103
-3.4667482	floors	-0.30103
-3.4667482	thoroughly	-0.30103
-3.4667482	boot	-0.30103
-3.4667482	rocks	-0.30103
-3.4667482	witch	-0.30103
-3.2757695	though	-0.30103
-3.4667482	galore	-0.30103
-3.4667482	tried	-0.30103
-3.205719	tell	-0.30103
-2.9104667	people	-0.30103
-3.4667482	community	-0.30103
-3.4667482	gnaw	-0.30103
-3.4667482	cycle	-0.30103
-3.4667482	delta	-0.30103
-3.4667482	thinner	-0.30103
-3.033471	than	-0.30103
-3.4667482	am	-0.30103
-3.4667482	bear	-0.30103
-3.4667482	error	-0.30103
-3.4667482	jungle	-0.30103
-3.4667482	nothing	-0.30103
-3.2757695	offensive	-0.30103
-3.2757695	innocence	-0.30103
-3.4667482	menu	-0.30103
-3.4667482	peer	-0.30103
-3.4667482	lip	-0.30103
-3.4667482	dot	-0.30103
-3.4667482	gathered	-0.30103
-3.4667482	shells	-0.30103
-3.4667482	beach	-0.30103
-3.2757695	feel	-0.30103
-2.4748511	can	-0.39794
-3.4667482	weekend	-0.30103
-3.4667482	tie	-0.30103
-3.4667482	sigh	-0.30103
-3.4667482	mere	-0.30103
-3.4667482	everything	-0.30103
-3.205719	went	-0.30103
-3.2757695	real	-0.30103
-3.4667482	smooth	-0.30103
-3.4667482	sheriff	-0.30103
-3.4667482	pad	-0.30103
-3.2757695	their	-0.30103
-3.2757695	house	-0.30103
-3.4667482	grey	-0.30103
-3.4667482	grades	-0.30103
-3.4667482	lower	-0.30103
-3.4667482	nancys	-0.30103
-3.4667482	urgent	-0.30103
-3.4667482	humidity	-0.30103
-3.4667482	overwhelming	-0.30103
-2.9104667	there	-0.30103
-3.4667482	explore	-0.30103
-2.8147216	they	-0.30103
-3.4667482	carried	-0.30103
-3.4667482	stretcher	-0.30103
-3.4667482	validated	-0.30103
-3.4667482	acts	-0.30103
-3.4667482	school	-0.30103
-3.4667482	districts	-0.30103
-3.4667482	loop	-0.30103
-3.4667482	jane	-0.30103
-3.205719	may	-0.30103
-3.4667482	earn	-0.30103
-3.205719	money	-0.30103
-2.8147216	by	-0.30103
-3.205719	working	-0.30103
-3.205719	hard	-0.30103
-3.205719	back	-0.30103
-3.2757695	four	-0.30103
-3.4667482	fruit	-0.30103
-3.205719	night	-0.30103
-3.2757695	after	-0.30103
-3.4667482	received	-0.30103
-3.4667482	annoying	-0.30103
-3.205719	phone	-0.30103
-3.2757695	calls	-0.30103
-3.4667482	hem	-0.30103
-3.4667482	seeds	-0.30103
-3.4667482	sign	-0.30103
-3.4667482	november	-0.30103
-3.4667482	alfalfa	-0.30103
-3.4667482	healthy	-0.30103
-3.4667482	mush	-0.30103
-3.4667482	oscar	-0.30103
-3.2757695	sell	-0.30103
-3.4667482	misguided	-0.30103
-3.4667482	souls	-0.30103
-3.4667482	lost	-0.30103
-3.205719	way	-0.30103
-3.2757695	five	-0.30103
-3.4667482	losing	-0.30103
-3.4667482	replace	-0.30103
-2.4748511	it	-0.30103
-3.4667482	immediately	-0.30103
-3.4667482	hill	-0.30103
-3.4667482	fitting	-0.30103
-3.4667482	swing	-0.30103
-3.2757695	arm	-0.30103
-3.4667482	high	-0.30103
-3.4667482	pit	-0.30103
-3.4667482	zero	-0.30103
-3.4667482	fat	-0.30103
-3.2757695	thought	-0.30103
-3.4667482	darn	-0.30103
-3.4667482	golf	-0.30103
-3.2757695	expect	-0.30103
-3.4667482	bounce	-0.30103
-3.4667482	week	-0.30103
-3.4667482	spit	-0.30103
-3.4667482	mitten	-0.30103
-3.4667482	six	-0.30103
-3.4667482	else	-0.30103
-3.4667482	fails	-0.30103
-3.4667482	use	-0.30103
-3.4667482	force	-0.30103
-3.2757695	brought	-0.30103
-3.4667482	alimony	-0.30103
-3.4667482	harms	-0.30103
-3.4667482	divorced	-0.30103
-3.4667482	mans	-0.30103
-3.2757695	wealth	-0.30103
-3.4667482	hat	-0.30103
-3.4667482	seed	-0.30103
-3.4667482	sergeant	-0.30103
-3.4667482	carl	-0.30103
-3.4667482	lives	-0.30103
-3.4667482	lovely	-0.30103
-3.2757695	home	-0.30103
-3.4667482	lively	-0.30103
-3.4667482	dart	-0.30103
-3.4667482	hum	-0.30103
-3.4667482	pitting	-0.30103
-3.4667482	reek	-0.30103
-3.2757695	provides	-0.30103
-3.4667482	funds	-0.30103
-3.4667482	clear	-0.30103
-3.4667482	slums	-0.30103
-3.205719	help	-0.30103
-3.4667482	colleges	-0.30103
-3.4667482	build	-0.30103
-3.4667482	dormitories	-0.30103
-3.2757695	part	-0.30103
-3.4667482	bloat	-0.30103
-3.205719	good	-0.30103
-3.205719	win	-0.30103
-3.2757695	has	-0.30103
-3.4667482	been	-0.30103
-3.2757695	done	-0.30103
-3.205719	take	-0.30103
-3.4667482	advantage	-0.30103
-3.4667482	enabling	-0.30103
-3.4667482	legislation	-0.30103
-3.4667482	aluminum	-0.30103
-3.4667482	silverware	-0.30103
-3.4667482	flimsy	-0.30103
-3.4667482	shy	-0.30103
-3.4667482	lair	-0.30103
-3.4667482	cake	-0.30103
-3.4667482	hitting	-0.30103
-3.4667482	city	-0.30103
-3.4667482	period	-0.30103
-3.4667482	transition	-0.30103
-3.4667482	treehouse	-0.30103
-3.205719	above	-0.30103
-3.4667482	dolphins	-0.30103
-3.2757695	swam	-0.30103
-3.2757695	around	-0.30103
-3.2757695	boat	-0.30103
-3.4667482	papa	-0.30103
-3.4667482	bran	-0.30103
-3.4667482	brawn	-0.30103
-3.4667482	pretty	-0.30103
-3.4667482	witty	-0.30103
-3.4667482	nine	-0.30103
-3.4667482	written	-0.30103
-3.2757695	hotel	-0.30103
-3.4667482	cart	-0.30103
-3.4667482	box	-0.30103
-3.4667482	contained	-0.30103
-3.4667482	sweaters	-0.30103
-3.4667482	bitten	-0.30103
-3.4667482	lick	-0.30103
-3.2757695	not	-0.30103
-3.4667482	program	-0.30103
-3.4667482	socialized	-0.30103
-3.4667482	medicine	-0.30103
-3.4667482	league	-0.30103
-3.033471	at	-0.30103
-3.4667482	eventually	-0.30103
-3.4667482	became	-0.30103
-3.4667482	rather	-0.30103
-3.4667482	proud	-0.30103
-3.4667482	claim	-0.30103
-3.2757695	little	-0.30103
-3.4667482	schoolhouse	-0.30103
-3.4667482	stood	-0.30103
-3.2757695	empty	-0.30103
-3.2757695	students	-0.30103
-3.4667482	watched	-0.30103
-3.033471	out	-0.30103
-3.4667482	kitten	-0.30103
-3.4667482	sitting	-0.30103
-3.4667482	rich	-0.30103
-3.4667482	seven	-0.30103
-3.4667482	leak	-0.30103
-3.4667482	injuries	-0.30103
-3.4667482	same	-0.30103
-3.4667482	leg	-0.30103
-3.4667482	hark	-0.30103
-3.2757695	job	-0.30103
-3.4667482	many	-0.30103
-3.4667482	benefits	-0.30103
-3.4667482	museum	-0.30103
-3.4667482	hires	-0.30103
-3.2757695	musicians	-0.30103
-2.9104667	every	-0.30103
-3.4667482	evening	-0.30103
-3.4667482	eight	-0.30103
-3.4667482	echo	-0.30103
-3.4667482	top	-0.30103
-3.4667482	quebec	-0.30103
-3.4667482	mike	-0.30103
-3.4667482	lima	-0.30103
-3.2757695	wore	-0.30103
-3.4667482	fleecy	-0.30103
-3.4667482	woolen	-0.30103
-3.4667482	overalls	-0.30103
-3.4667482	vat	-0.30103
-3.4667482	before	-0.30103
-3.4667482	thursdays	-0.30103
-3.4667482	exam	-0.30103
-3.4667482	review	-0.30103
-3.4667482	formula	-0.30103
-3.4667482	blow	-0.30103
-3.4667482	bell	-0.30103
-3.4667482	rung	-0.30103
-3.033471	some	-0.30103
-3.205719	new	-0.30103
-3.4667482	episode	-0.30103
-3.4667482	reported	-0.30103
-3.2757695	heart	-0.30103
-3.4667482	kilo	-0.30103
-3.4667482	knitting	-0.30103
-3.4667482	foxtrot	-0.30103
-3.4667482	further	-0.30103
-3.4667482	proposed	-0.30103
-3.4667482	grants	-0.30103
-3.4667482	unspecified	-0.30103
-3.4667482	sum	-0.30103
-3.4667482	experimental	-0.30103
-3.4667482	hospitals	-0.30103
-3.4667482	spain	-0.30103
-3.4667482	fill	-0.30103
-3.4667482	loyal	-0.30103
-3.4667482	barn	-0.30103
-3.4667482	bite	-0.30103
-3.4667482	roll	-0.30103
-3.4667482	wire	-0.30103
-3.4667482	lay	-0.30103
-3.2757695	wall	-0.30103
-3.4667482	thorn	-0.30103
-3.4667482	harm	-0.30103
-3.4667482	harp	-0.30103
-3.4667482	wrapped	-0.30103
-3.4667482	package	-0.30103
-3.4667482	hastily	-0.30103
-3.4667482	chop	-0.30103
-3.205719	start	-0.30103
-3.4667482	rode	-0.30103
-3.4667482	horseback	-0.30103
-3.4667482	juliet	-0.30103
-3.4667482	books	-0.30103
-2.9104667	very	-0.30103
-3.4667482	expensive	-0.30103
-3.2757695	did	-0.30103
-3.4667482	dad	-0.30103
-3.2757695	academic	-0.30103
-3.4667482	bidding	-0.30103
-3.2757695	attitude	-0.30103
-3.4667482	unbeatable	-0.30103
-3.4667482	dread	-0.30103
-3.4667482	shell	-0.30103
-3.4667482	sin	-0.30103
-3.4667482	ticker	-0.30103
-3.4667482	prospect	-0.30103
-3.4667482	cutting	-0.30103
-3.4667482	spending	-0.30103
-3.4667482	unpleasant	-0.30103
-2.9104667	any	-0.30103
-3.4667482	governor	-0.30103
-3.4667482	volunteered	-0.30103
-3.4667482	jump	-0.30103
-3.205719	first	-0.30103
-3.4667482	uniform	-0.30103
-3.4667482	owner	-0.30103
-3.4667482	shrugged	-0.30103
-3.4667482	tin	-0.30103
-3.4667482	wicked	-0.30103
-3.4667482	pair	-0.30103
-3.4667482	shoes	-0.30103
-3.4667482	zip	-0.30103
-2.8147216	really	-0.30103
-3.4667482	crucified	-0.30103
-3.4667482	nailed	-0.30103
-3.4667482	yard	-0.30103
-3.4667482	loss	-0.30103
-3.4667482	slicker	-0.30103
-3.4667482	value	-0.30103
-3.4667482	themselves	-0.30103
-3.4667482	lifes	-0.30103
-3.4667482	winners	-0.30103
-3.4667482	owners	-0.30103
-3.4667482	regularly	-0.30103
-3.205719	look	-0.30103
-3.4667482	plumbing	-0.30103
-3.2757695	leaks	-0.30103
-3.4667482	nest	-0.30103
-3.4667482	xray	-0.30103
-3.4667482	lock	-0.30103
-3.2757695	sand	-0.30103
-3.4667482	bitter	-0.30103
-3.4667482	ham	-0.30103
-3.205719	im	-0.30103
-3.4667482	willing	-0.30103
-3.4667482	experiment	-0.30103
-3.4667482	although	-0.30103
-3.2757695	alone	-0.30103
-3.4667482	survive	-0.30103
-3.4667482	excellent	-0.30103
-3.4667482	team	-0.30103
-3.4667482	nut	-0.30103
-3.2757695	please	-0.30103
-3.4667482	window	-0.30103
-3.4667482	quickly	-0.30103
-3.4667482	definitely	-0.30103
-3.4667482	notch	-0.30103
-3.4667482	victor	-0.30103
-3.4667482	zulu	-0.30103
-3.205719	its	-0.30103
-3.4667482	fun	-0.30103
-3.4667482	roast	-0.30103
-3.4667482	marshmallows	-0.30103
-3.033471	gas	-0.30103
-3.4667482	burner	-0.30103
-3.4667482	wait	-0.30103
-3.2757695	work	-0.30103
-3.4667482	whitecapped	-0.30103
-3.4667482	waves	-0.30103
-3.4667482	covered	-0.30103
-3.4667482	entire	-0.30103
-3.4667482	bay	-0.30103
-3.4667482	then	-0.30103
-3.4667482	wed	-0.30103
-3.4667482	someplace	-0.30103
-3.4667482	bed	-0.30103
-3.4667482	flicker	-0.30103
-3.4667482	bread	-0.30103
-3.4667482	want	-0.30103
-3.4667482	sicker	-0.30103
-3.4667482	nobody	-0.30103
-3.4667482	expects	-0.30103
-3.4667482	evacuate	-0.30103
-3.4667482	tango	-0.30103
-3.4667482	tread	-0.30103
-3.4667482	dice	-0.30103
-3.4667482	greg	-0.30103
-3.4667482	pick	-0.30103
-3.4667482	peck	-0.30103
-3.4667482	potatoes	-0.30103
-3.4667482	glitter	-0.30103
-3.4667482	fork	-0.30103
-3.4667482	calico	-0.30103
-3.2757695	cat	-0.30103
-3.2757695	keep	-0.30103
-3.4667482	took	-0.30103
-3.205719	only	-0.30103
-3.4667482	lawyers	-0.30103
-3.4667482	love	-0.30103
-3.4667482	millionaires	-0.30103
-3.4667482	litter	-0.30103
-3.4667482	sink	-0.30103
-3.4667482	red	-0.30103
-3.4667482	ned	-0.30103
-3.4667482	sit	-0.30103
-3.2757695	able	-0.30103
-3.4667482	dance	-0.30103
-3.2757695	too	-0.30103
-3.4667482	hand	-0.30103
-3.4667482	rest	-0.30103
-3.4667482	harmonize	-0.30103
-3.4667482	marvelously	-0.30103
-3.2757695	most	-0.30103
-3.2757695	young	-0.30103
-3.2757695	rise	-0.30103
-3.4667482	early	-0.30103
-3.4667482	morning	-0.30103
-3.4667482	wicker	-0.30103
-3.4667482	sing	-0.30103
-3.2757695	bought	-0.30103
-3.2757695	quicker	-0.30103
-3.4667482	sierra	-0.30103
-3.4667482	romeo	-0.30103
-3.4667482	travel	-0.30103
-3.4667482	leisure	-0.30103
-3.4667482	nod	-0.30103
-3.205719	place	-0.30103
-3.2757695	nice	-0.30103
-3.4667482	liquor	-0.30103
-3.4667482	beg	-0.30103
-3.4667482	guard	-0.30103
-3.4667482	gallon	-0.30103
-3.4667482	chip	-0.30103
-3.4667482	yankee	-0.30103
-3.205719	ride	-0.30103
-3.4667482	stagecoach	-0.30103
-3.4667482	dress	-0.30103
-3.4667482	hotels	-0.30103
-3.4667482	available	-0.30103
-3.4667482	nearby	-0.30103
-3.4667482	neat	-0.30103
-3.4667482	dead	-0.30103
-3.4667482	whisky	-0.30103
-3.4667482	wit	-0.30103
-3.4667482	called	-0.30103
-3.4667482	different	-0.30103
-3.4667482	painters	-0.30103
-3.4667482	stimulating	-0.30103
-3.4667482	discussions	-0.30103
-3.4667482	attention	-0.30103
-3.4667482	celebrate	-0.30103
-3.2757695	brothers	-0.30103
-3.4667482	success	-0.30103
-3.4667482	lake	-0.30103
-3.4667482	thread	-0.30103
-3.4667482	fed	-0.30103
-3.4667482	charlies	-0.30103
-3.4667482	dirty	-0.30103
-3.4667482	dishes	-0.30103
-3.4667482	sew	-0.30103
-3.4667482	sort	-0.30103
-3.4667482	catch	-0.30103
-3.4667482	goose	-0.30103
-3.205719	played	-0.30103
-3.2757695	basketball	-0.30103
-3.4667482	toward	-0.30103
-3.4667482	law	-0.30103
-3.4667482	degree	-0.30103
-3.4667482	coconut	-0.30103
-3.4667482	cream	-0.30103
-3.4667482	pie	-0.30103
-3.205719	makes	-0.30103
-3.4667482	dessert	-0.30103
-3.4667482	selected	-0.30103
-3.4667482	places	-0.30103
-3.4667482	families	-0.30103
-3.4667482	welcome	-0.30103
-3.4667482	cakes	-0.30103
-3.4667482	bill	-0.30103
-3.4667482	accomplished	-0.30103
-3.4667482	artists	-0.30103
-3.4667482	obtain	-0.30103
-3.4667482	popularity	-0.30103
-3.4667482	shin	-0.30103
-3.4667482	prefer	-0.30103
-3.4667482	traditional	-0.30103
-3.4667482	steel	-0.30103
-3.4667482	kind	-0.30103
-3.4667482	cork	-0.30103
-3.4667482	weep	-0.30103
-3.4667482	biblical	-0.30103
-3.4667482	scholars	-0.30103
-3.4667482	argue	-0.30103
-3.4667482	history	-0.30103
-3.4667482	rid	-0.30103
-3.4667482	quart	-0.30103
-3.4667482	shot	-0.30103
-3.4667482	ligament	-0.30103
-3.4667482	damage	-0.30103
-3.4667482	sheep	-0.30103
-3.4667482	snort	-0.30103
-3.4667482	pork	-0.30103
-3.2757695	fact	-0.30103
-3.4667482	whole	-0.30103
-3.4667482	defensive	-0.30103
-3.4667482	unit	-0.30103
-3.4667482	sketch	-0.30103
-3.4667482	knows	-0.30103
-3.205719	what	-0.30103
-3.4667482	youll	-0.30103
-3.4667482	discover	-0.30103
-3.4667482	yourself	-0.30103
-3.4667482	blend	-0.30103
-3.4667482	shed	-0.30103
-3.4667482	identical	-0.30103
-3.2757695	critical	-0.30103
-3.4667482	equipment	-0.30103
-3.205719	needs	-0.30103
-3.4667482	proper	-0.30103
-3.4667482	maintenance	-0.30103
-3.4667482	court	-0.30103
-3.4667482	see	-0.30103
-3.4667482	shop	-0.30103
-3.2757695	heat	-0.30103
-3.4667482	suddenly	-0.30103
-3.4667482	reflexes	-0.30103
-3.4667482	gone	-0.30103
-3.4667482	gill	-0.30103
-3.4667482	show	-0.30103
-3.2757695	read	-0.30103
-3.4667482	results	-0.30103
-3.4667482	disappointing	-0.30103
-3.4667482	tug	-0.30103
-3.4667482	cash	-0.30103
-3.4667482	stretch	-0.30103
-3.4667482	steak	-0.30103
-3.4667482	ray	-0.30103
-3.4667482	fort	-0.30103
-3.4667482	lee	-0.30103
-3.4667482	hold	-0.30103
-3.4667482	ive	-0.30103
-3.4667482	kept	-0.30103
-3.4667482	since	-0.30103
-3.4667482	thats	-0.30103
-3.205719	life	-0.30103
-3.4667482	decision	-0.30103
-3.4667482	shred	-0.30103
-3.4667482	sight	-0.30103
-3.4667482	fish	-0.30103
-3.4667482	across	-0.30103
-3.4667482	pond	-0.30103
-3.4667482	doesnt	-0.30103
-3.4667482	hanging	-0.30103
-3.4667482	tort	-0.30103
-3.4667482	meats	-0.30103
-3.4667482	precious	-0.30103
-3.2757695	eat	-0.30103
-3.2757695	sport	-0.30103
-3.4667482	participate	-0.30103
-3.4667482	athletic	-0.30103
-3.4667482	activities	-0.30103
-3.4667482	trespassers	-0.30103
-3.4667482	prosecuted	-0.30103
-3.4667482	fined	-0.30103
-3.4667482	etiquette	-0.30103
-3.4667482	mandates	-0.30103
-3.4667482	compliance	-0.30103
-3.4667482	existing	-0.30103
-3.4667482	regulations	-0.30103
-3.4667482	touchdown	-0.30103
-3.4667482	resulted	-0.30103
-3.4667482	girls	-0.30103
-3.4667482	cut	-0.30103
-3.4667482	lacy	-0.30103
-3.4667482	valentines	-0.30103
-3.4667482	geese	-0.30103
-3.4667482	mill	-0.30103
-3.4667482	barbs	-0.30103
-3.2757695	gold	-0.30103
-3.4667482	bracelet	-0.30103
-3.4667482	graduation	-0.30103
-3.4667482	present	-0.30103
-3.4667482	reap	-0.30103
-3.4667482	dill	-0.30103
-3.4667482	lend	-0.30103
-3.4667482	foe	-0.30103
-3.4667482	asked	-0.30103
-3.4667482	loan	-0.30103
-3.2757695	make	-0.30103
-3.4667482	toe	-0.30103
-3.4667482	threat	-0.30103
-3.4667482	port	-0.30103
-3.4667482	scream	-0.30103
-3.4667482	rip	-0.30103
-3.4667482	wise	-0.30103
-3.2757695	think	-0.30103
-3.2757695	full	-0.30103
-3.4667482	stuff	-0.30103
-3.4667482	bend	-0.30103
-3.4667482	muck	-0.30103
-3.4667482	snake	-0.30103
-3.4667482	havent	-0.30103
-3.4667482	seen	-0.30103
-3.4667482	friend	-0.30103
-3.4667482	bumper	-0.30103
-3.4667482	entertaining	-0.30103
-3.4667482	ash	-0.30103
-3.2757695	fit	-0.30103
-3.4667482	sheer	-0.30103
-3.4667482	twilight	-0.30103
-3.4667482	twelfth	-0.30103
-3.4667482	chablis	-0.30103
-3.4667482	hash	-0.30103
-3.4667482	worse	-0.30103
-3.4667482	luck	-0.30103
-3.2757695	come	-0.30103
-3.4667482	golfing	-0.30103
-3.4667482	fathers	-0.30103
-3.4667482	ruled	-0.30103
-3.4667482	favor	-0.30103
-3.4667482	hail	-0.30103
-3.4667482	code	-0.30103
-3.4667482	elderly	-0.30103
-3.4667482	excluded	-0.30103
-3.4667482	beam	-0.30103
-3.4667482	remains	-0.30103
-3.4667482	fiercest	-0.30103
-3.4667482	competitors	-0.30103
-3.4667482	knife	-0.30103
-3.4667482	pete	-0.30103
-3.4667482	addition	-0.30103
-3.4667482	subtraction	-0.30103
-3.4667482	learned	-0.30103
-3.4667482	skills	-0.30103
-3.2757695	found	-0.30103
-3.4667482	anywhere	-0.30103
-3.4667482	gash	-0.30103
-3.4667482	pleased	-0.30103
-3.033471	things	-0.30103
-3.4667482	loved	-0.30103
-3.4667482	minute	-0.30103
-3.4667482	idea	-0.30103
-3.4667482	fender	-0.30103
-3.4667482	woe	-0.30103
-3.4667482	member	-0.30103
-3.4667482	beast	-0.30103
-3.4667482	suggested	-0.30103
-3.4667482	dinner	-0.30103
-3.205719	together	-0.30103
-3.4667482	so	-0.30103
-3.4667482	anybody	-0.30103
-3.4667482	solicits	-0.30103
-3.2757695	sure	-0.30103
-3.4667482	mail	-0.30103
-3.4667482	dough	-0.30103
-3.4667482	ambidextrous	-0.30103
-3.4667482	pickpockets	-0.30103
-3.4667482	accomplish	-0.30103
-3.4667482	guess	-0.30103
-3.4667482	wedding	-0.30103
-3.4667482	trip	-0.30103
-3.205719	her	-0.30103
-3.4667482	combed	-0.30103
-3.4667482	casually	-0.30103
-3.4667482	seam	-0.30103
-3.4667482	beep	-0.30103
-3.2757695	quite	-0.30103
-3.4667482	vocal	-0.30103
-3.4667482	requires	-0.30103
-3.4667482	investment	-0.30103
-3.4667482	pickpocket	-0.30103
-3.4667482	caught	-0.30103
-3.4667482	redhanded	-0.30103
-3.4667482	mock	-0.30103
-3.4667482	dock	-0.30103
-3.2757695	sea	-0.30103
-3.4667482	grandmother	-0.30103
-3.4667482	outgrew	-0.30103
-3.4667482	upbringing	-0.30103
-3.4667482	petticoats	-0.30103
-3.4667482	sun	-0.30103
-3.4667482	died	-0.30103
-3.4667482	ember	-0.30103
-3.4667482	seat	-0.30103
-3.4667482	food	-0.30103
-3.4667482	reef	-0.30103
-3.4667482	fire	-0.30103
-3.4667482	straw	-0.30103
-3.4667482	blaze	-0.30103
-3.4667482	sender	-0.30103
-3.4667482	classical	-0.30103
-3.4667482	performance	-0.30103
-3.4667482	gained	-0.30103
-3.4667482	acclaim	-0.30103
-3.4667482	position	-0.30103
-3.2757695	covers	-0.30103
-3.4667482	number	-0.30103
-3.4667482	daily	-0.30103
-3.4667482	tasks	-0.30103
-3.4667482	common	-0.30103
-3.4667482	social	-0.30103
-3.4667482	director	-0.30103
-3.4667482	marriage	-0.30103
-2.8147216	from	-0.30103
-3.4667482	wonderful	-0.30103
-3.4667482	renter	-0.30103
-3.4667482	row	-0.30103
-3.4667482	lender	-0.30103
-3.4667482	ape	-0.30103
-3.2757695	didnt	-0.30103
-3.4667482	forks	-0.30103
-3.4667482	tender	-0.30103
-3.4667482	tea	-0.30103
-3.4667482	popular	-0.30103
-3.4667482	fans	-0.30103
-3.4667482	timber	-0.30103
-3.4667482	leap	-0.30103
-3.4667482	catastrophic	-0.30103
-3.4667482	economic	-0.30103
-3.4667482	cutbacks	-0.30103
-3.4667482	neglect	-0.30103
-3.4667482	poor	-0.30103
-3.4667482	tail	-0.30103
-3.4667482	bender	-0.30103
-3.4667482	ache	-0.30103
-3.4667482	center	-0.30103
-3.4667482	mom	-0.30103
-3.4667482	strongly	-0.30103
-3.4667482	dislikes	-0.30103
-3.4667482	appetizers	-0.30103
-3.4667482	beef	-0.30103
-3.4667482	temper	-0.30103
-3.4667482	desire	-0.30103
-3.4667482	change	-0.30103
-3.4667482	ways	-0.30103
-3.4667482	wax	-0.30103
-3.4667482	pet	-0.30103
-3.4667482	aid	-0.30103
-3.4667482	knock	-0.30103
-3.4667482	lies	-0.30103
-3.4667482	cheese	-0.30103
-3.4667482	hatch	-0.30103
-3.4667482	lack	-0.30103
-3.4667482	compounded	-0.30103
-3.4667482	tenants	-0.30103
-3.2757695	grievances	-0.30103
-3.4667482	bunch	-0.30103
-3.4667482	contributions	-0.30103
-3.4667482	greatly	-0.30103
-3.4667482	appreciated	-0.30103
-3.4667482	ease	-0.30103
-3.4667482	add	-0.30103
-3.4667482	chocolate	-0.30103
-3.4667482	roses	-0.30103
-3.2757695	never	-0.30103
-3.4667482	fail	-0.30103
-3.4667482	romantic	-0.30103
-3.4667482	gift	-0.30103
-3.4667482	legislature	-0.30103
-3.4667482	met	-0.30103
-3.2757695	judge	-0.30103
-3.4667482	state	-0.30103
-3.4667482	public	-0.30103
-3.4667482	education	-0.30103
-3.4667482	largest	-0.30103
-3.4667482	states	-0.30103
-3.4667482	peas	-0.30103
-3.4667482	bun	-0.30103
-3.4667482	punch	-0.30103
-3.4667482	ail	-0.30103
-3.4667482	begin	-0.30103
-3.4667482	trying	-0.30103
-3.4667482	speak	-0.30103
-3.4667482	tall	-0.30103
-3.4667482	vital	-0.30103
-3.4667482	detail	-0.30103
-3.4667482	pill	-0.30103
-3.4667482	racks	-0.30103
-3.4667482	structures	-0.30103
-3.4667482	housing	-0.30103
-3.4667482	apartments	-0.30103
-3.4667482	masonry	-0.30103
-3.4667482	frame	-0.30103
-3.4667482	construction	-0.30103
-3.4667482	aches	-0.30103
-3.4667482	lit	-0.30103
-3.4667482	singers	-0.30103
-3.4667482	finger	-0.30103
-3.4667482	splinter	-0.30103
-3.4667482	now	-0.30103
-3.4667482	living	-0.30103
-3.4667482	exactly	-0.30103
-3.4667482	choose	-0.30103
-3.4667482	duck	-0.30103
-3.4667482	wanted	-0.30103
-3.4667482	actress	-0.30103
-3.2757695	fell	-0.30103
-3.4667482	aptitude	-0.30103
-3.4667482	guarantees	-0.30103
-3.4667482	diploma	-0.30103
-3.4667482	charm	-0.30103
-3.4667482	great	-0.30103
-3.4667482	meeting	-0.30103
-3.4667482	prepared	-0.30103
-3.4667482	odd	-0.30103
-3.4667482	behavior	-0.30103
-3.4667482	friends	-0.30103
-3.4667482	mile	-0.30103
-3.4667482	rakes	-0.30103
-3.4667482	talked	-0.30103
-3.4667482	situation	-0.30103
-3.205719	sat	-0.30103
-3.4667482	relaxed	-0.30103
-3.4667482	hall	-0.30103
-3.4667482	sake	-0.30103
-3.4667482	coming	-0.30103
-3.4667482	pockets	-0.30103
-3.4667482	hell	-0.30103
-3.2757695	them	-0.30103
-3.4667482	plot	-0.30103
-3.4667482	laced	-0.30103
-3.4667482	mysterious	-0.30103
-3.4667482	incidents	-0.30103
-3.4667482	shelled	-0.30103
-3.4667482	clams	-0.30103
-3.4667482	chowder	-0.30103
-3.4667482	experience	-0.30103
-3.4667482	distress	-0.30103
-3.4667482	frustration	-0.30103
-3.4667482	obtaining	-0.30103
-3.4667482	degrees	-0.30103
-3.4667482	ticks	-0.30103
-3.4667482	prowler	-0.30103
-3.4667482	ski	-0.30103
-3.4667482	mask	-0.30103
-3.4667482	disguise	-0.30103
-3.2757695	confirmation	-0.30103
-3.2757695	such	-0.30103
-3.4667482	massive	-0.30103
-3.4667482	assaults	-0.30103
-3.4667482	independent	-0.30103
-3.4667482	sources	-0.30103
-3.4667482	chap	-0.30103
-3.4667482	lax	-0.30103
-3.2757695	score	-0.30103
-3.4667482	munch	-0.30103
-3.4667482	added	-0.30103
-3.2757695	petty	-0.30103
-3.4667482	jealousies	-0.30103
-3.4667482	personal	-0.30103
-3.4667482	even	-0.30103
-3.4667482	simple	-0.30103
-3.4667482	vocabulary	-0.30103
-3.4667482	contains	-0.30103
-3.4667482	symbols	-0.30103
-3.4667482	end	-0.30103
-3.4667482	eastern	-0.30103
-3.4667482	coast	-0.30103
-3.4667482	pure	-0.30103
-3.2757695	pleasure	-0.30103
-3.4667482	excitement	-0.30103
-3.4667482	dial	-0.30103
-3.4667482	low	-0.30103
-3.4667482	whip	-0.30103
-3.4667482	few	-0.30103
-3.4667482	ink	-0.30103
-3.4667482	handle	-0.30103
-3.4667482	theyll	-0.30103
-3.033471	again	-0.30103
-3.4667482	term	-0.30103
-3.4667482	wide	-0.30103
-3.4667482	drenched	-0.30103
-3.4667482	uninterrupted	-0.30103
-3.4667482	pant	-0.30103
-3.2757695	find	-0.30103
-3.4667482	cable	-0.30103
-3.4667482	translated	-0.30103
-3.4667482	weve	-0.30103
-3.4667482	past	-0.30103
-3.4667482	burn	-0.30103
-3.4667482	werent	-0.30103
-3.4667482	doing	-0.30103
-3.4667482	upgrade	-0.30103
-3.4667482	status	-0.30103
-3.4667482	reflect	-0.30103
-3.2757695	spring	-0.30103
-3.2757695	street	-0.30103
-3.4667482	straight	-0.30103
-3.4667482	ahead	-0.30103
-3.4667482	serves	-0.30103
-3.4667482	meals	-0.30103
-3.4667482	disappointed	-0.30103
-3.4667482	order	-0.30103
-3.2757695	wine	-0.30103
-3.4667482	eyes	-0.30103
-3.4667482	weave	-0.30103
-3.4667482	family	-0.30103
-3.4667482	requests	-0.30103
-3.4667482	flowers	-0.30103
-3.4667482	omitted	-0.30103
-3.4667482	wart	-0.30103
-3.4667482	wack	-0.30103
-3.2757695	needed	-0.30103
-3.4667482	dash	-0.30103
-3.4667482	blew	-0.30103
-3.2757695	into	-0.30103
-3.2757695	large	-0.30103
-3.4667482	drifts	-0.30103
-3.4667482	regular	-0.30103
-3.4667482	attendance	-0.30103
-3.4667482	seldom	-0.30103
-3.4667482	required	-0.30103
-3.4667482	ball	-0.30103
-3.2757695	myself	-0.30103
-3.4667482	last	-0.30103
-3.4667482	shortage	-0.30103
-3.4667482	caused	-0.30103
-3.4667482	steep	-0.30103
-3.4667482	price	-0.30103
-3.4667482	increases	-0.30103
-3.4667482	cars	-0.30103
-3.4667482	slightly	-0.30103
-3.4667482	damaged	-0.30103
-3.4667482	highway	-0.30103
-3.4667482	staff	-0.30103
-3.4667482	deserves	-0.30103
-3.4667482	lot	-0.30103
-3.4667482	credit	-0.30103
-3.4667482	obstacles	-0.30103
-3.4667482	hid	-0.30103
-3.4667482	luke	-0.30103
-3.4667482	fold	-0.30103
-3.4667482	pink	-0.30103
-3.4667482	waste	-0.30103
-3.4667482	raisins	-0.30103
-3.4667482	outdoors	-0.30103
-3.2757695	porch	-0.30103
-3.4667482	steps	-0.30103
-3.4667482	noted	-0.30103
-3.4667482	carefully	-0.30103
-3.205719	through	-0.30103
-3.4667482	clean	-0.30103
-3.4667482	report	-0.30103
-3.4667482	sail	-0.30103
-3.4667482	wipe	-0.30103
-3.4667482	continental	-0.30103
-3.4667482	drift	-0.30103
-3.4667482	geological	-0.30103
-3.4667482	theory	-0.30103
-3.4667482	huge	-0.30103
-3.4667482	porcupines	-0.30103
-3.4667482	resemble	-0.30103
-3.4667482	urchins	-0.30103
-3.4667482	challenge	-0.30103
-3.4667482	generals	-0.30103
-3.4667482	intelligence	-0.30103
-3.4667482	wives	-0.30103
-3.4667482	cant	-0.30103
-3.4667482	abide	-0.30103
-3.4667482	mistakes	-0.30103
-3.4667482	own	-0.30103
-3.2757695	game	-0.30103
-3.4667482	docks	-0.30103
-3.4667482	pole	-0.30103
-3.4667482	stable	-0.30103
-3.4667482	hiring	-0.30103
-3.4667482	wife	-0.30103
-3.4667482	ones	-0.30103
-3.4667482	company	-0.30103
-3.4667482	taxaided	-0.30103
-3.4667482	retirement	-0.30103
-3.4667482	income	-0.30103
-3.4667482	must	-0.30103
-3.4667482	ready	-0.30103
-3.4667482	sacrifice	-0.30103
-3.4667482	ban	-0.30103
-3.4667482	trips	-0.30103
-3.4667482	page	-0.30103
-3.4667482	accordion	-0.30103
-3.4667482	paid	-0.30103
-3.4667482	sprain	-0.30103
-3.4667482	fool	-0.30103
-3.4667482	ramp	-0.30103
-3.4667482	service	-0.30103
-3.4667482	should	-0.30103
-3.4667482	rewarded	-0.30103
-3.4667482	tips	-0.30103
-3.2757695	paint	-0.30103
-3.4667482	canteen	-0.30103
-3.4667482	fresh	-0.30103
-3.4667482	shook	-0.30103
-3.4667482	mat	-0.30103
-3.4667482	sap	-0.30103
-3.4667482	pain	-0.30103
-3.4667482	hides	-0.30103
-3.4667482	mayonnaise	-0.30103
-3.4667482	fall	-0.30103
-3.4667482	mall	-0.30103
-3.4667482	seemed	-0.30103
-3.4667482	appealing	-0.30103
-3.4667482	panel	-0.30103
-3.4667482	doctors	-0.30103
-3.4667482	prescribe	-0.30103
-3.4667482	drugs	-0.30103
-3.4667482	freely	-0.30103
-3.4667482	vamp	-0.30103
-3.4667482	bag	-0.30103
-3.4667482	rat	-0.30103
-3.2757695	saw	-0.30103
-3.4667482	weeks	-0.30103
-3.4667482	illegal	-0.30103
-3.4667482	postdate	-0.30103
-3.4667482	check	-0.30103
-3.4667482	space	-0.30103
-3.4667482	naval	-0.30103
-3.4667482	stall	-0.30103
-3.4667482	spade	-0.30103
-3.4667482	acting	-0.30103
-3.4667482	accident	-0.30103
-3.4667482	damp	-0.30103
-3.4667482	spray	-0.30103
-3.4667482	peach	-0.30103
-3.4667482	mabel	-0.30103
-3.4667482	told	-0.30103
-3.4667482	seriously	-0.30103
-3.4667482	injured	-0.30103
-3.4667482	because	-0.30103
-3.2757695	practical	-0.30103
-3.4667482	funnel	-0.30103
-3.4667482	tap	-0.30103
-3.4667482	name	-0.30103
-3.4667482	gently	-0.30103
-3.4667482	jims	-0.30103
-3.4667482	foam	-0.30103
-3.4667482	sculpture	-0.30103
-3.4667482	maybe	-0.30103
-3.4667482	longer	-0.30103
-3.4667482	squared	-0.30103
-3.4667482	bankers	-0.30103
-3.4667482	expected	-0.30103
-3.4667482	reach	-0.30103
-3.4667482	file	-0.30103
-3.4667482	soon	-0.30103
-3.4667482	muttering	-0.30103
-3.4667482	walls	-0.30103
-3.4667482	telephone	-0.30103
-3.4667482	booths	-0.30103
-3.4667482	arent	-0.30103
-3.4667482	paste	-0.30103
-3.4667482	foil	-0.30103
-3.4667482	map	-0.30103
-3.4667482	gable	-0.30103
-3.4667482	bull	-0.30103
-3.4667482	crawl	-0.30103
-3.4667482	pale	-0.30103
-3.4667482	creature	-0.30103
-3.4667482	pocket	-0.30103
-3.4667482	married	-0.30103
-3.4667482	saddle	-0.30103
-3.4667482	bowl	-0.30103
-3.4667482	nap	-0.30103
-3.4667482	table	-0.30103
-3.4667482	sable	-0.30103
-3.4667482	fable	-0.30103
-3.4667482	mold	-0.30103
-3.4667482	mole	-0.30103
-3.4667482	impossible	-0.30103
-3.2757695	deal	-0.30103
-3.4667482	bureaucracy	-0.30103
-3.4667482	pace	-0.30103
-3.4667482	call	-0.30103
-3.4667482	describe	-0.30103
-3.4667482	idiotic	-0.30103
-3.4667482	predicament	-0.30103
-3.4667482	screech	-0.30103
-3.4667482	ladle	-0.30103
-3.4667482	bash	-0.30103
-3.4667482	room	-0.30103
-3.4667482	portrait	-0.30103
-3.4667482	bagpipes	-0.30103
-3.4667482	bongos	-0.30103
-3.4667482	musical	-0.30103
-3.4667482	instruments	-0.30103
-3.2757695	gin	-0.30103
-3.4667482	saws	-0.30103
-3.4667482	parts	-0.30103
-3.4667482	supplies	-0.30103
-3.4667482	machinery	-0.30103
-3.4667482	final	-0.30103
-3.4667482	giggling	-0.30103
-3.4667482	owl	-0.30103
-3.4667482	cliffs	-0.30103
-3.4667482	display	-0.30103
-3.4667482	misplaced	-0.30103
-3.4667482	screen	-0.30103
-3.4667482	teach	-0.30103
-3.4667482	official	-0.30103
-3.4667482	deadline	-0.30103
-3.4667482	cannot	-0.30103
-3.4667482	postponed	-0.30103
-3.4667482	bog	-0.30103
-3.4667482	rattle	-0.30103
-3.2757695	sold	-0.30103
-3.4667482	bank	-0.30103
-3.4667482	shawl	-0.30103
-3.4667482	soul	-0.30103
-3.4667482	preach	-0.30103
-3.4667482	pull	-0.30103
-3.4667482	boone	-0.30103
-3.4667482	suppress	-0.30103
-3.4667482	wages	-0.30103
-3.4667482	key	-0.30103
-3.4667482	issue	-0.30103
-3.4667482	unfortunately	-0.30103
-3.4667482	demand	-0.30103
-3.4667482	broccoli	-0.30103
-3.4667482	cauliflower	-0.30103
-3.4667482	badger	-0.30103
-3.4667482	contrast	-0.30103
-3.4667482	household	-0.30103
-3.4667482	lots	-0.30103
-3.4667482	appliances	-0.30103
-3.4667482	grain	-0.30103
-3.4667482	paintings	-0.30103
-3.4667482	auction	-0.30103
-3.4667482	impress	-0.30103
-3.4667482	occur	-0.30103
-3.4667482	shore	-0.30103
-3.4667482	book	-0.30103
-3.4667482	bin	-0.30103
-3.4667482	weeds	-0.30103
-3.4667482	strong	-0.30103
-3.4667482	fast	-0.30103
-3.4667482	fudge	-0.30103
-3.4667482	rust	-0.30103
-3.4667482	misprint	-0.30103
-3.4667482	provoked	-0.30103
-3.4667482	immediate	-0.30103
-3.4667482	disclaimer	-0.30103
-3.4667482	contract	-0.30103
-3.4667482	limb	-0.30103
-3.4667482	musk	-0.30103
-3.4667482	rut	-0.30103
-3.4667482	serve	-0.30103
-3.4667482	grape	-0.30103
-3.4667482	intact	-0.30103
-3.4667482	picnic	-0.30103
-3.4667482	subtract	-0.30103
-3.4667482	plant	-0.30103
-3.4667482	original	-0.30103
-3.4667482	forgery	-0.30103
-3.4667482	either	-0.30103
-3.4667482	walked	-0.30103
-3.2757695	driven	-0.30103
-3.4667482	primitive	-0.30103
-3.4667482	tribes	-0.30103
-3.4667482	upbeat	-0.30103
-3.4667482	shut	-0.30103
-3.4667482	retract	-0.30103
-3.4667482	displayed	-0.30103
-3.4667482	lamps	-0.30103
-3.4667482	puppets	-0.30103
-3.4667482	delight	-0.30103
-3.4667482	children	-0.30103
-3.4667482	decorative	-0.30103
-3.4667482	accent	-0.30103
-3.4667482	globe	-0.30103
-3.4667482	grave	-0.30103
-3.4667482	bust	-0.30103
-3.4667482	depress	-0.30103
-3.4667482	dusk	-0.30103
-3.4667482	slim	-0.30103
-3.4667482	flying	-0.30103
-3.4667482	standby	-0.30103
-3.4667482	save	-0.30103
-3.4667482	instructions	-0.30103
-3.4667482	desperately	-0.30103
-3.4667482	need	-0.30103
-3.4667482	updating	-0.30103
-3.4667482	preserve	-0.30103
-3.4667482	converge	-0.30103
-3.4667482	booth	-0.30103
-3.4667482	railroads	-0.30103
-3.4667482	future	-0.30103
-3.4667482	west	-0.30103
-3.4667482	beauty	-0.30103
-3.4667482	surrounds	-0.30103
-3.4667482	id	-0.30103
-3.4667482	put	-0.30103
-3.4667482	weight	-0.30103
-3.4667482	lisp	-0.30103
-3.4667482	hispanic	-0.30103
-3.4667482	costumes	-0.30103
-3.4667482	colorful	-0.30103
-3.4667482	tore	-0.30103
-3.4667482	strange	-0.30103
-3.4667482	refer	-0.30103
-3.4667482	deserve	-0.30103
-3.4667482	glib	-0.30103
-3.4667482	grope	-0.30103
-3.4667482	absurd	-0.30103
-3.4667482	kat	-0.30103
-3.4667482	kittens	-0.30103
-3.4667482	cement	-0.30103
-3.4667482	measured	-0.30103
-3.4667482	cubic	-0.30103
-3.4667482	yards	-0.30103
-3.4667482	grange	-0.30103
-3.4667482	lid	-0.30103
-3.4667482	could	-0.30103
-3.4667482	bus	-0.30103
-3.4667482	brain	-0.30103
-3.4667482	boast	-0.30103
-3.4667482	reserve	-0.30103
-3.4667482	slid	-0.30103
-3.4667482	list	-0.30103
-3.4667482	conserve	-0.30103
-3.4667482	repress	-0.30103
-3.4667482	scorch	-0.30103
-3.4667482	strike	-0.30103
-3.4667482	spread	-0.30103
-3.4667482	super	-0.30103
-3.4667482	split	-0.30103
-3.4667482	struggled	-0.30103
-3.4667482	sitter	-0.30103
-3.4667482	ok	-0.30103
-3.4667482	actually	-0.30103
-3.4667482	owe	-0.30103
-3.4667482	lead	-0.30103
-3.4667482	jaw	-0.30103
-3.4667482	cope	-0.30103
-3.4667482	liar	-0.30103
-3.2757695	min	-0.30103
-3.4667482	tear	-0.30103
-3.4667482	paper	-0.30103
-3.4667482	todays	-0.30103
-3.4667482	date	-0.30103
-3.4667482	february	-0.30103
-3.4667482	13th	-0.30103
-3.4667482	man	-0.30103
-3.4667482	skip	-0.30103
-3.4667482	ah	-0.30103
-3.4667482	chose	-0.30103
-3.4667482	innocense	-0.30103

\2-grams:
-0.20010456	stick </s>	0
-0.8868929	in </s>	0
-0.8673965	the </s>	0
-0.66930467	when </s>	0
-0.20010456	prevents </s>	0
-0.20010456	pat </s>	0
-0.59209025	up </s>	0
-0.20010456	meat </s>	0
-0.59209025	know </s>	0
-0.8258705	he </s>	0
-0.41929686	slowly </s>	0
-0.87079227	a </s>	0
-0.52655375	short </s>	0
-0.59209025	walk </s>	0
-0.41929686	air </s>	0
-0.6367539	each </s>	0
-0.46206617	day </s>	0
-0.20010456	swarm </s>	0
-0.20010456	double </s>	0
-0.6367539	no </s>	0
-0.20010456	storm </s>	0
-0.20010456	buttons </s>	0
-0.20010456	dug </s>	0
-0.7011747	you </s>	0
-0.80665636	to </s>	0
-0.7538463	all </s>	0
-0.66930467	about </s>	0
-0.41929686	grandfather </s>	0
-0.20010456	knee </s>	0
-0.20010456	feet </s>	0
-0.41929686	train </s>	0
-0.41929686	but </s>	0
-0.20010456	oil </s>	0
-0.20010456	beat </s>	0
-0.20010456	dog </s>	0
-0.72964495	she </s>	0
-0.6941458	had </s>	0
-0.52655375	dark </s>	0
-0.41929686	suit </s>	0
-0.41929686	water </s>	0
-0.20010456	year </s>	0
-0.20010456	car </s>	0
-0.41929686	observe </s>	0
-0.66930467	him </s>	0
-0.8084975	of </s>	0
-0.20010456	respect </s>	0
-0.77142775	have </s>	0
-0.48042732	more </s>	0
-0.8238039	and </s>	0
-0.20010456	less </s>	0
-0.20010456	rake </s>	0
-0.20010456	swore </s>	0
-0.20010456	rave </s>	0
-0.8191897	for </s>	0
-0.20010456	sip </s>	0
-0.41929686	grow </s>	0
-0.41929686	bit </s>	0
-0.20010456	chair </s>	0
-0.7137559	one </s>	0
-0.20010456	fair </s>	0
-0.6367539	two </s>	0
-0.20010456	beta </s>	0
-0.20010456	rage </s>	0
-0.41929686	spark </s>	0
-0.20010456	race </s>	0
-0.20010456	form </s>	0
-0.20010456	farm </s>	0
-0.20010456	raid </s>	0
-0.20010456	fee </s>	0
-0.20010456	weed </s>	0
-0.20010456	bat </s>	0
-0.20010456	horn </s>	0
-0.20010456	jagged </s>	0
-0.20010456	sheet </s>	0
-0.20010456	bubble </s>	0
-0.52655375	warm </s>	0
-0.20010456	ship </s>	0
-0.41929686	hair </s>	0
-0.20010456	share </s>	0
-0.20010456	rate </s>	0
-0.20010456	goat </s>	0
-0.20010456	trace </s>	0
-0.41929686	go </s>	0
-0.20010456	alpha </s>	0
-0.20010456	left </s>	0
-0.20010456	sticks </s>	0
-0.20010456	trouble </s>	0
-0.20010456	dagger </s>	0
-0.41929686	long </s>	0
-0.20010456	chin </s>	0
-0.20010456	slip </s>	0
-0.20010456	glow </s>	0
-0.20010456	trade </s>	0
-0.41929686	range </s>	0
-0.20010456	stubble </s>	0
-0.20010456	floor </s>	0
-0.20010456	bug </s>	0
-0.52655375	yet </s>	0
-0.41929686	ever </s>	0
-0.20010456	jacket </s>	0
-0.20010456	born </s>	0
-0.20010456	corn </s>	0
-0.41929686	right </s>	0
-0.41929686	knew </s>	0
-0.46206617	well </s>	0
-0.8466646	is </s>	0
-0.59209025	three </s>	0
-0.48042732	years </s>	0
-0.48042732	old </s>	0
-0.20010456	feed </s>	0
-0.7427885	with </s>	0
-0.41929686	small </s>	0
-0.20010456	organ </s>	0
-0.20010456	rain </s>	0
-0.20010456	park </s>	0
-0.20010456	tip </s>	0
-0.52655375	down </s>	0
-0.20010456	gadget </s>	0
-0.41929686	store </s>	0
-0.20010456	coat </s>	0
-0.20010456	language </s>	0
-0.20010456	torn </s>	0
-0.41929686	voice </s>	0
-0.20010456	trifle </s>	0
-0.20010456	trait </s>	0
-0.20010456	yes </s>	0
-0.59209025	dont </s>	0
-0.49715596	me </s>	0
-0.6367539	that </s>	0
-0.20010456	sleep </s>	0
-0.20010456	pile </s>	0
-0.41929686	cold </s>	0
-0.20010456	shower </s>	0
-0.20010456	sway </s>	0
-0.59209025	both </s>	0
-0.33335212	later </s>	0
-0.20010456	charlie </s>	0
-0.20010456	mut </s>	0
-0.20010456	troop </s>	0
-0.33335212	here </s>	0
-0.20010456	wish </s>	0
-0.20010456	ate </s>	0
-0.20010456	hear </s>	0
-0.20010456	pot </s>	0
-0.20010456	white </s>	0
-0.20010456	aprons </s>	0
-0.20010456	best </s>	0
-0.41929686	bad </s>	0
-0.7632811	were </s>	0
-0.41929686	away </s>	0
-0.41929686	deer </s>	0
-0.20010456	droop </s>	0
-0.20010456	group </s>	0
-0.41929686	near </s>	0
-0.20010456	cheer </s>	0
-0.20010456	thigh </s>	0
-0.20010456	single </s>	0
-0.3657188	said </s>	0
-0.20010456	coupe </s>	0
-0.41929686	write </s>	0
-0.8037651	are </s>	0
-0.20010456	populated </s>	0
-0.20010456	area </s>	0
-0.20010456	steer </s>	0
-0.20010456	tile </s>	0
-0.20010456	select </s>	0
-0.20010456	sweet </s>	0
-0.20010456	field </s>	0
-0.20010456	forward </s>	0
-0.20010456	root </s>	0
-0.41929686	made </s>	0
-0.20010456	curtains </s>	0
-0.20010456	ocean </s>	0
-0.20010456	pay </s>	0
-0.20010456	light </s>	0
-0.20010456	advisement </s>	0
-0.52655375	much </s>	0
-0.20010456	hate </s>	0
-0.20010456	whoop </s>	0
-0.20010456	rock </s>	0
-0.41929686	why </s>	0
-0.20010456	items </s>	0
-0.20010456	toot </s>	0
-0.20010456	knot </s>	0
-0.20010456	fate </s>	0
-0.41929686	side </s>	0
-0.20010456	wet </s>	0
-0.20010456	shoot </s>	0
-0.20010456	men </s>	0
-0.20010456	slay </s>	0
-0.20010456	lily </s>	0
-0.8037651	was </s>	0
-0.33335212	time </s>	0
-0.20010456	prior </s>	0
-0.41929686	play </s>	0
-0.20010456	briar </s>	0
-0.20010456	lie </s>	0
-0.20010456	shear </s>	0
-0.6367539	big </s>	0
-0.20010456	traded </s>	0
-0.20010456	us </s>	0
-0.41929686	fear </s>	0
-0.20010456	sprinkle </s>	0
-0.20010456	snoop </s>	0
-0.20010456	thoroughly </s>	0
-0.20010456	boot </s>	0
-0.20010456	rocks </s>	0
-0.20010456	witch </s>	0
-0.41929686	though </s>	0
-0.20010456	galore </s>	0
-0.59209025	tell </s>	0
-0.20010456	community </s>	0
-0.20010456	gnaw </s>	0
-0.20010456	cycle </s>	0
-0.20010456	delta </s>	0
-0.20010456	am </s>	0
-0.20010456	bear </s>	0
-0.20010456	error </s>	0
-0.20010456	jungle </s>	0
-0.20010456	innocence </s>	0
-0.20010456	menu </s>	0
-0.20010456	peer </s>	0
-0.20010456	lip </s>	0
-0.20010456	dot </s>	0
-0.20010456	beach </s>	0
-0.41929686	feel </s>	0
-0.7662147	can </s>	0
-0.20010456	weekend </s>	0
-0.20010456	tie </s>	0
-0.20010456	sigh </s>	0
-0.20010456	mere </s>	0
-0.52655375	went </s>	0
-0.20010456	pad </s>	0
-0.41929686	house </s>	0
-0.20010456	nancys </s>	0
-0.20010456	urgent </s>	0
-0.66930467	there </s>	0
-0.20010456	explore </s>	0
-0.20010456	stretcher </s>	0
-0.20010456	districts </s>	0
-0.20010456	loop </s>	0
-0.33335212	money </s>	0
-0.52655375	hard </s>	0
-0.52655375	back </s>	0
-0.52655375	four </s>	0
-0.20010456	fruit </s>	0
-0.41929686	night </s>	0
-0.52655375	phone </s>	0
-0.20010456	calls </s>	0
-0.20010456	hem </s>	0
-0.20010456	seeds </s>	0
-0.20010456	sign </s>	0
-0.20010456	november </s>	0
-0.20010456	mush </s>	0
-0.20010456	oscar </s>	0
-0.41929686	sell </s>	0
-0.52655375	way </s>	0
-0.41929686	five </s>	0
-0.72964495	it </s>	0
-0.20010456	immediately </s>	0
-0.20010456	hill </s>	0
-0.20010456	fitting </s>	0
-0.41929686	arm </s>	0
-0.20010456	pit </s>	0
-0.20010456	zero </s>	0
-0.20010456	fat </s>	0
-0.41929686	thought </s>	0
-0.20010456	darn </s>	0
-0.20010456	golf </s>	0
-0.52655375	expect </s>	0
-0.20010456	week </s>	0
-0.20010456	spit </s>	0
-0.20010456	mitten </s>	0
-0.20010456	six </s>	0
-0.20010456	force </s>	0
-0.41929686	brought </s>	0
-0.20010456	wealth </s>	0
-0.20010456	hat </s>	0
-0.20010456	seed </s>	0
-0.20010456	sergeant </s>	0
-0.20010456	home </s>	0
-0.20010456	dart </s>	0
-0.20010456	hum </s>	0
-0.20010456	pitting </s>	0
-0.20010456	reek </s>	0
-0.20010456	dormitories </s>	0
-0.41929686	part </s>	0
-0.20010456	bloat </s>	0
-0.6941458	good </s>	0
-0.52655375	win </s>	0
-0.52655375	take </s>	0
-0.20010456	legislation </s>	0
-0.20010456	flimsy </s>	0
-0.20010456	shy </s>	0
-0.20010456	lair </s>	0
-0.20010456	cake </s>	0
-0.20010456	hitting </s>	0
-0.20010456	city </s>	0
-0.33335212	above </s>	0
-0.41929686	around </s>	0
-0.20010456	boat </s>	0
-0.20010456	papa </s>	0
-0.20010456	bran </s>	0
-0.20010456	brawn </s>	0
-0.20010456	pretty </s>	0
-0.20010456	witty </s>	0
-0.20010456	nine </s>	0
-0.20010456	written </s>	0
-0.52655375	hotel </s>	0
-0.20010456	cart </s>	0
-0.41929686	box </s>	0
-0.20010456	sweaters </s>	0
-0.20010456	bitten </s>	0
-0.20010456	lick </s>	0
-0.41929686	program </s>	0
-0.20010456	medicine </s>	0
-0.20010456	league </s>	0
-0.6367539	at </s>	0
-0.20010456	claim </s>	0
-0.20010456	empty </s>	0
-0.41929686	out </s>	0
-0.20010456	kitten </s>	0
-0.20010456	sitting </s>	0
-0.20010456	rich </s>	0
-0.20010456	seven </s>	0
-0.20010456	leak </s>	0
-0.20010456	leg </s>	0
-0.20010456	hark </s>	0
-0.52655375	job </s>	0
-0.20010456	benefits </s>	0
-0.20010456	evening </s>	0
-0.20010456	eight </s>	0
-0.20010456	echo </s>	0
-0.20010456	top </s>	0
-0.20010456	quebec </s>	0
-0.20010456	mike </s>	0
-0.20010456	lima </s>	0
-0.20010456	overalls </s>	0
-0.20010456	vat </s>	0
-0.20010456	formula </s>	0
-0.20010456	blow </s>	0
-0.20010456	rung </s>	0
-0.52655375	new </s>	0
-0.20010456	reported </s>	0
-0.41929686	heart </s>	0
-0.20010456	kilo </s>	0
-0.20010456	knitting </s>	0
-0.20010456	foxtrot </s>	0
-0.20010456	hospitals </s>	0
-0.20010456	spain </s>	0
-0.41929686	fill </s>	0
-0.20010456	loyal </s>	0
-0.20010456	barn </s>	0
-0.20010456	bite </s>	0
-0.20010456	wall </s>	0
-0.20010456	thorn </s>	0
-0.20010456	harm </s>	0
-0.20010456	harp </s>	0
-0.20010456	hastily </s>	0
-0.20010456	chop </s>	0
-0.20010456	start </s>	0
-0.20010456	juliet </s>	0
-0.20010456	expensive </s>	0
-0.20010456	bidding </s>	0
-0.41929686	attitude </s>	0
-0.20010456	unbeatable </s>	0
-0.20010456	dread </s>	0
-0.20010456	shell </s>	0
-0.20010456	sin </s>	0
-0.20010456	ticker </s>	0
-0.20010456	governor </s>	0
-0.33335212	first </s>	0
-0.20010456	uniform </s>	0
-0.20010456	shrugged </s>	0
-0.20010456	tin </s>	0
-0.20010456	wicked </s>	0
-0.20010456	zip </s>	0
-0.20010456	loss </s>	0
-0.20010456	slicker </s>	0
-0.20010456	winners </s>	0
-0.20010456	leaks </s>	0
-0.20010456	nest </s>	0
-0.20010456	xray </s>	0
-0.20010456	lock </s>	0
-0.20010456	sand </s>	0
-0.20010456	bitter </s>	0
-0.20010456	ham </s>	0
-0.41929686	alone </s>	0
-0.20010456	survive </s>	0
-0.20010456	team </s>	0
-0.20010456	nut </s>	0
-0.20010456	quickly </s>	0
-0.20010456	victor </s>	0
-0.20010456	zulu </s>	0
-0.41929686	gas </s>	0
-0.20010456	burner </s>	0
-0.20010456	bay </s>	0
-0.20010456	bed </s>	0
-0.20010456	flicker </s>	0
-0.20010456	bread </s>	0
-0.20010456	sicker </s>	0
-0.20010456	evacuate </s>	0
-0.20010456	tango </s>	0
-0.20010456	tread </s>	0
-0.20010456	dice </s>	0
-0.20010456	potatoes </s>	0
-0.20010456	glitter </s>	0
-0.20010456	fork </s>	0
-0.41929686	cat </s>	0
-0.41929686	keep </s>	0
-0.20010456	millionaires </s>	0
-0.20010456	litter </s>	0
-0.20010456	sink </s>	0
-0.20010456	red </s>	0
-0.20010456	ned </s>	0
-0.20010456	sit </s>	0
-0.41929686	able </s>	0
-0.41929686	too </s>	0
-0.20010456	hand </s>	0
-0.20010456	rest </s>	0
-0.20010456	marvelously </s>	0
-0.41929686	rise </s>	0
-0.20010456	morning </s>	0
-0.20010456	wicker </s>	0
-0.20010456	sing </s>	0
-0.41929686	bought </s>	0
-0.41929686	quicker </s>	0
-0.20010456	sierra </s>	0
-0.20010456	romeo </s>	0
-0.20010456	nod </s>	0
-0.41929686	nice </s>	0
-0.20010456	liquor </s>	0
-0.41929686	beg </s>	0
-0.20010456	chip </s>	0
-0.20010456	yankee </s>	0
-0.52655375	ride </s>	0
-0.20010456	stagecoach </s>	0
-0.20010456	dress </s>	0
-0.20010456	nearby </s>	0
-0.20010456	neat </s>	0
-0.20010456	dead </s>	0
-0.20010456	whisky </s>	0
-0.20010456	wit </s>	0
-0.20010456	painters </s>	0
-0.20010456	attention </s>	0
-0.20010456	success </s>	0
-0.20010456	lake </s>	0
-0.20010456	thread </s>	0
-0.20010456	fed </s>	0
-0.20010456	dishes </s>	0
-0.20010456	sew </s>	0
-0.20010456	sort </s>	0
-0.20010456	catch </s>	0
-0.20010456	goose </s>	0
-0.52655375	played </s>	0
-0.20010456	degree </s>	0
-0.20010456	dessert </s>	0
-0.20010456	welcome </s>	0
-0.20010456	cakes </s>	0
-0.20010456	bill </s>	0
-0.20010456	popularity </s>	0
-0.20010456	shin </s>	0
-0.20010456	kind </s>	0
-0.20010456	cork </s>	0
-0.20010456	weep </s>	0
-0.20010456	history </s>	0
-0.20010456	rid </s>	0
-0.20010456	quart </s>	0
-0.20010456	shot </s>	0
-0.20010456	sheep </s>	0
-0.20010456	snort </s>	0
-0.20010456	pork </s>	0
-0.20010456	sketch </s>	0
-0.20010456	yourself </s>	0
-0.20010456	blend </s>	0
-0.20010456	shed </s>	0
-0.20010456	identical </s>	0
-0.20010456	maintenance </s>	0
-0.20010456	court </s>	0
-0.20010456	see </s>	0
-0.20010456	shop </s>	0
-0.41929686	heat </s>	0
-0.20010456	gone </s>	0
-0.20010456	gill </s>	0
-0.20010456	show </s>	0
-0.20010456	read </s>	0
-0.20010456	disappointing </s>	0
-0.20010456	tug </s>	0
-0.20010456	cash </s>	0
-0.20010456	stretch </s>	0
-0.20010456	steak </s>	0
-0.20010456	ray </s>	0
-0.20010456	fort </s>	0
-0.20010456	lee </s>	0
-0.20010456	hold </s>	0
-0.20010456	since </s>	0
-0.52655375	life </s>	0
-0.20010456	shred </s>	0
-0.20010456	sight </s>	0
-0.20010456	pond </s>	0
-0.20010456	tort </s>	0
-0.20010456	meats </s>	0
-0.20010456	precious </s>	0
-0.52655375	eat </s>	0
-0.20010456	sport </s>	0
-0.20010456	activities </s>	0
-0.20010456	fined </s>	0
-0.20010456	regulations </s>	0
-0.20010456	resulted </s>	0
-0.20010456	valentines </s>	0
-0.20010456	geese </s>	0
-0.20010456	mill </s>	0
-0.20010456	present </s>	0
-0.20010456	reap </s>	0
-0.20010456	dill </s>	0
-0.20010456	lend </s>	0
-0.20010456	foe </s>	0
-0.20010456	loan </s>	0
-0.20010456	toe </s>	0
-0.20010456	threat </s>	0
-0.20010456	port </s>	0
-0.20010456	rip </s>	0
-0.20010456	wise </s>	0
-0.41929686	full </s>	0
-0.20010456	stuff </s>	0
-0.20010456	bend </s>	0
-0.20010456	muck </s>	0
-0.20010456	snake </s>	0
-0.20010456	bumper </s>	0
-0.20010456	ash </s>	0
-0.41929686	fit </s>	0
-0.20010456	sheer </s>	0
-0.20010456	chablis </s>	0
-0.20010456	hash </s>	0
-0.41929686	come </s>	0
-0.20010456	favor </s>	0
-0.20010456	hail </s>	0
-0.20010456	code </s>	0
-0.20010456	excluded </s>	0
-0.20010456	beam </s>	0
-0.20010456	competitors </s>	0
-0.20010456	knife </s>	0
-0.20010456	pete </s>	0
-0.20010456	skills </s>	0
-0.20010456	anywhere </s>	0
-0.20010456	gash </s>	0
-0.20010456	idea </s>	0
-0.20010456	fender </s>	0
-0.20010456	woe </s>	0
-0.20010456	member </s>	0
-0.20010456	beast </s>	0
-0.20010456	together </s>	0
-0.20010456	guess </s>	0
-0.20010456	casually </s>	0
-0.20010456	seam </s>	0
-0.20010456	beep </s>	0
-0.20010456	vocal </s>	0
-0.20010456	investment </s>	0
-0.20010456	redhanded </s>	0
-0.20010456	mock </s>	0
-0.20010456	dock </s>	0
-0.41929686	sea </s>	0
-0.20010456	petticoats </s>	0
-0.20010456	ember </s>	0
-0.20010456	seat </s>	0
-0.20010456	food </s>	0
-0.20010456	reef </s>	0
-0.20010456	blaze </s>	0
-0.20010456	sender </s>	0
-0.20010456	acclaim </s>	0
-0.20010456	director </s>	0
-0.66930467	from </s>	0
-0.20010456	wonderful </s>	0
-0.20010456	renter </s>	0
-0.20010456	row </s>	0
-0.20010456	lender </s>	0
-0.20010456	ape </s>	0
-0.20010456	forks </s>	0
-0.20010456	tender </s>	0
-0.20010456	tea </s>	0
-0.20010456	fans </s>	0
-0.20010456	timber </s>	0
-0.20010456	leap </s>	0
-0.20010456	poor </s>	0
-0.20010456	tail </s>	0
-0.20010456	bender </s>	0
-0.20010456	ache </s>	0
-0.20010456	center </s>	0
-0.20010456	appetizers </s>	0
-0.20010456	beef </s>	0
-0.20010456	temper </s>	0
-0.20010456	ways </s>	0
-0.20010456	wax </s>	0
-0.20010456	pet </s>	0
-0.20010456	aid </s>	0
-0.20010456	knock </s>	0
-0.20010456	lies </s>	0
-0.20010456	cheese </s>	0
-0.20010456	hatch </s>	0
-0.20010456	grievances </s>	0
-0.20010456	bunch </s>	0
-0.20010456	appreciated </s>	0
-0.20010456	ease </s>	0
-0.20010456	add </s>	0
-0.20010456	gift </s>	0
-0.41929686	judge </s>	0
-0.41929686	state </s>	0
-0.20010456	education </s>	0
-0.20010456	states </s>	0
-0.20010456	peas </s>	0
-0.20010456	bun </s>	0
-0.20010456	punch </s>	0
-0.20010456	ail </s>	0
-0.20010456	tall </s>	0
-0.20010456	detail </s>	0
-0.20010456	pill </s>	0
-0.20010456	racks </s>	0
-0.20010456	construction </s>	0
-0.20010456	aches </s>	0
-0.20010456	lit </s>	0
-0.20010456	splinter </s>	0
-0.41929686	now </s>	0
-0.20010456	choose </s>	0
-0.20010456	duck </s>	0
-0.20010456	actress </s>	0
-0.41929686	fell </s>	0
-0.20010456	diploma </s>	0
-0.20010456	charm </s>	0
-0.20010456	meeting </s>	0
-0.20010456	friends </s>	0
-0.20010456	mile </s>	0
-0.20010456	rakes </s>	0
-0.20010456	situation </s>	0
-0.52655375	sat </s>	0
-0.20010456	relaxed </s>	0
-0.20010456	hall </s>	0
-0.20010456	sake </s>	0
-0.20010456	incidents </s>	0
-0.20010456	chowder </s>	0
-0.20010456	degrees </s>	0
-0.20010456	ticks </s>	0
-0.20010456	disguise </s>	0
-0.20010456	sources </s>	0
-0.20010456	chap </s>	0
-0.20010456	lax </s>	0
-0.20010456	score </s>	0
-0.20010456	munch </s>	0
-0.20010456	symbols </s>	0
-0.20010456	end </s>	0
-0.41929686	pleasure </s>	0
-0.20010456	excitement </s>	0
-0.20010456	dial </s>	0
-0.20010456	low </s>	0
-0.20010456	whip </s>	0
-0.20010456	ink </s>	0
-0.2960165	again </s>	0
-0.20010456	term </s>	0
-0.20010456	wide </s>	0
-0.20010456	pant </s>	0
-0.20010456	find </s>	0
-0.41929686	cable </s>	0
-0.20010456	translated </s>	0
-0.20010456	past </s>	0
-0.20010456	burn </s>	0
-0.41929686	street </s>	0
-0.20010456	ahead </s>	0
-0.20010456	wine </s>	0
-0.20010456	eyes </s>	0
-0.20010456	weave </s>	0
-0.20010456	omitted </s>	0
-0.20010456	wart </s>	0
-0.20010456	wack </s>	0
-0.41929686	needed </s>	0
-0.20010456	dash </s>	0
-0.20010456	drifts </s>	0
-0.20010456	required </s>	0
-0.20010456	ball </s>	0
-0.41929686	myself </s>	0
-0.41929686	steep </s>	0
-0.20010456	increases </s>	0
-0.20010456	damaged </s>	0
-0.20010456	obstacles </s>	0
-0.20010456	hid </s>	0
-0.20010456	luke </s>	0
-0.20010456	fold </s>	0
-0.20010456	pink </s>	0
-0.20010456	waste </s>	0
-0.41929686	porch </s>	0
-0.20010456	steps </s>	0
-0.20010456	carefully </s>	0
-0.52655375	through </s>	0
-0.20010456	report </s>	0
-0.20010456	sail </s>	0
-0.20010456	wipe </s>	0
-0.20010456	theory </s>	0
-0.20010456	urchins </s>	0
-0.20010456	intelligence </s>	0
-0.20010456	wives </s>	0
-0.20010456	game </s>	0
-0.20010456	docks </s>	0
-0.20010456	pole </s>	0
-0.20010456	stable </s>	0
-0.20010456	income </s>	0
-0.20010456	sacrifice </s>	0
-0.20010456	ban </s>	0
-0.20010456	page </s>	0
-0.20010456	accordion </s>	0
-0.20010456	paid </s>	0
-0.20010456	sprain </s>	0
-0.20010456	fool </s>	0
-0.20010456	ramp </s>	0
-0.20010456	tips </s>	0
-0.41929686	paint </s>	0
-0.20010456	mat </s>	0
-0.20010456	sap </s>	0
-0.20010456	pain </s>	0
-0.20010456	mayonnaise </s>	0
-0.20010456	fall </s>	0
-0.20010456	mall </s>	0
-0.20010456	panel </s>	0
-0.20010456	freely </s>	0
-0.20010456	vamp </s>	0
-0.20010456	bag </s>	0
-0.20010456	rat </s>	0
-0.20010456	check </s>	0
-0.20010456	space </s>	0
-0.20010456	naval </s>	0
-0.20010456	stall </s>	0
-0.20010456	spade </s>	0
-0.20010456	accident </s>	0
-0.20010456	damp </s>	0
-0.20010456	spray </s>	0
-0.20010456	peach </s>	0
-0.20010456	mabel </s>	0
-0.20010456	told </s>	0
-0.20010456	injured </s>	0
-0.41929686	practical </s>	0
-0.20010456	funnel </s>	0
-0.20010456	tap </s>	0
-0.20010456	expected </s>	0
-0.20010456	reach </s>	0
-0.20010456	file </s>	0
-0.20010456	walls </s>	0
-0.20010456	paste </s>	0
-0.20010456	foil </s>	0
-0.20010456	map </s>	0
-0.20010456	gable </s>	0
-0.20010456	bull </s>	0
-0.20010456	crawl </s>	0
-0.20010456	pale </s>	0
-0.20010456	creature </s>	0
-0.20010456	pocket </s>	0
-0.20010456	saddle </s>	0
-0.20010456	bowl </s>	0
-0.20010456	nap </s>	0
-0.20010456	table </s>	0
-0.20010456	sable </s>	0
-0.20010456	fable </s>	0
-0.20010456	mold </s>	0
-0.20010456	mole </s>	0
-0.20010456	bureaucracy </s>	0
-0.20010456	pace </s>	0
-0.20010456	call </s>	0
-0.20010456	predicament </s>	0
-0.20010456	screech </s>	0
-0.20010456	ladle </s>	0
-0.20010456	bash </s>	0
-0.20010456	portrait </s>	0
-0.20010456	instruments </s>	0
-0.20010456	machinery </s>	0
-0.20010456	final </s>	0
-0.20010456	giggling </s>	0
-0.20010456	owl </s>	0
-0.20010456	screen </s>	0
-0.20010456	teach </s>	0
-0.20010456	postponed </s>	0
-0.20010456	bog </s>	0
-0.20010456	rattle </s>	0
-0.41929686	sold </s>	0
-0.20010456	bank </s>	0
-0.20010456	shawl </s>	0
-0.20010456	soul </s>	0
-0.20010456	preach </s>	0
-0.20010456	pull </s>	0
-0.20010456	boone </s>	0
-0.20010456	suppress </s>	0
-0.20010456	issue </s>	0
-0.20010456	cauliflower </s>	0
-0.20010456	badger </s>	0
-0.20010456	contrast </s>	0
-0.20010456	appliances </s>	0
-0.20010456	grain </s>	0
-0.20010456	auction </s>	0
-0.20010456	impress </s>	0
-0.20010456	occur </s>	0
-0.20010456	shore </s>	0
-0.20010456	book </s>	0
-0.20010456	bin </s>	0
-0.20010456	fast </s>	0
-0.20010456	fudge </s>	0
-0.20010456	rust </s>	0
-0.20010456	disclaimer </s>	0
-0.20010456	contract </s>	0
-0.20010456	limb </s>	0
-0.20010456	musk </s>	0
-0.20010456	rut </s>	0
-0.20010456	serve </s>	0
-0.20010456	grape </s>	0
-0.20010456	intact </s>	0
-0.20010456	subtract </s>	0
-0.20010456	forgery </s>	0
-0.20010456	driven </s>	0
-0.20010456	shut </s>	0
-0.20010456	retract </s>	0
-0.20010456	accent </s>	0
-0.20010456	globe </s>	0
-0.20010456	grave </s>	0
-0.20010456	bust </s>	0
-0.20010456	depress </s>	0
-0.20010456	dusk </s>	0
-0.20010456	slim </s>	0
-0.20010456	updating </s>	0
-0.20010456	preserve </s>	0
-0.20010456	converge </s>	0
-0.20010456	booth </s>	0
-0.20010456	west </s>	0
-0.20010456	weight </s>	0
-0.20010456	lisp </s>	0
-0.20010456	colorful </s>	0
-0.20010456	tore </s>	0
-0.20010456	strange </s>	0
-0.20010456	refer </s>	0
-0.20010456	deserve </s>	0
-0.20010456	glib </s>	0
-0.20010456	grope </s>	0
-0.20010456	absurd </s>	0
-0.20010456	kittens </s>	0
-0.20010456	yards </s>	0
-0.20010456	grange </s>	0
-0.20010456	lid </s>	0
-0.20010456	brain </s>	0
-0.20010456	boast </s>	0
-0.20010456	reserve </s>	0
-0.20010456	slid </s>	0
-0.20010456	list </s>	0
-0.20010456	conserve </s>	0
-0.20010456	repress </s>	0
-0.20010456	scorch </s>	0
-0.20010456	super </s>	0
-0.20010456	split </s>	0
-0.20010456	struggled </s>	0
-0.20010456	sitter </s>	0
-0.20010456	ok </s>	0
-0.20010456	actually </s>	0
-0.20010456	owe </s>	0
-0.20010456	jaw </s>	0
-0.20010456	cope </s>	0
-0.20010456	liar </s>	0
-0.41929686	min </s>	0
-0.20010456	paper </s>	0
-0.20010456	13th </s>	0
-0.20010456	man </s>	0
-0.20010456	chose </s>	0
-0.20010456	innocense </s>	0
-2.7854033	<s> stick	-1.2218487
-2.7675679	<s> except	-1.2388821
-2.5742142	<s> in	-1.0543576
-0.29839796	except in	-1.2388821
-0.8926562	walk in	-1.1856365
-0.5968118	suit in	-1.2218487
-1.7312006	is in	-0.30103
-0.47317916	himself in	-1.30103
-0.29839796	modern in	-1.20412
-0.5968118	higher in	-1.1249387
-0.29839796	confidence in	-1.1856365
-0.9869965	people in	-1.1249387
-1.5112064	it in	-0.66900676
-0.29839796	lives in	-1.1856365
-0.29839796	damage in	-0.86530143
-0.29839796	participate in	-0.86530143
-0.29839796	ruled in	-0.7781512
-0.29839796	upbringing in	-0.8239087
-0.29839796	fire in	-0.8239087
-0.29839796	mistakes in	-0.66900676
-0.29839796	sculpture in	-0.30103
-0.5968118	deal in	-0.42596874
-0.29839796	measured in	-0.30103
-1.4394424	<s> the	-0.97003675
-0.67879033	in the	-1
-1.048643	when the	-1.2388821
-0.5916402	open the	-0.97003675
-1.1120933	to the	-1.0280287
-0.84638536	all the	-1.0369836
-0.7626138	about the	-0.8239087
-0.5916402	over the	-1.2552725
-0.9124577	of the	-0.9579387
-1.3211417	for the	-0.86530143
-1.2512642	with the	-0.7781512
-0.5916402	near the	-1.146128
-0.29578885	approached the	-1.1026623
-1.4896364	are the	-0.8239087
-0.22605248	on the	-0.99584407
-0.5916402	made the	-1.1026623
-0.29578885	scrubbed the	-1.146128
-0.88249445	than the	-0.30103
-0.29578885	smooth the	-1.1249387
-1.048643	by the	-0.72699875
-0.9744047	at the	-0.30103
-0.29578885	wrapped the	-1.146128
-0.29578885	covered the	-0.9378521
-0.9744047	only the	-0.86530143
-0.29578885	prefer the	-0.86530143
-0.5916402	thats the	-0.30103
-0.29578885	across the	-0.86530143
-0.29578885	remains the	-0.86530143
-0.29578885	mail the	-0.8239087
-0.7626138	from the	-0.86530143
-0.29578885	neglect the	-0.7781512
-0.29578885	compounded the	-0.66900676
-0.5916402	judge the	-0.9378521
-0.29578885	housing the	-0.8239087
-0.29578885	order the	-0.66900676
-0.29578885	noted the	-0.5228787
-0.29578885	hiring the	-0.42596874
-0.29578885	hides the	-0.42596874
-0.29578885	describe the	-0.30103
-0.29578885	lamps the	-0.30103
-0.29578885	delight the	-0.30103
-2.2947645	the winter	-1.2388821
-2.3910382	<s> when	-1.0791812
-0.3007596	winter when	-1.2388821
-1.0775616	when when	-0.30103
-2.2947645	the ooze	-1.2388821
-0.3002337	ooze or	-1.2388821
-0.60046893	snow or	-1.2388821
-0.60046893	higher or	-1.1249387
-0.3002337	yell or	-1.1249387
-0.3002337	room or	-0.42596874
-0.3002337	walked or	-0.30103
-0.3002337	bus or	-0.30103
-2.2867672	the snow	-0.66900676
-1.1445199	or snow	-1.2388821
-1.1450914	or ice	-1.2388821
-0.30088174	ice prevents	-1.2388821
-2.3313813	<s> pat	-1.6627579
-2.5323908	<s> up	-1.447158
-0.7753742	warm up	-0.86530143
-0.8993912	go up	-0.66900676
-0.7753742	looked up	-1.1249387
-0.30010235	treehouse up	-1.146128
-0.30010235	speak up	-0.86530143
-0.30010235	shook up	-0.30103
-0.30010235	tear up	-0.30103
-2.3250275	<s> meat	-1.6690068
-2.477585	<s> know	-1.5141048
-1.9727279	to know	-1.2218487
-1.6536071	we know	-0.90309
-0.6012566	didnt know	-0.72699875
-1.801285	<s> he	-1.0254964
-1.0705364	when he	-1.3152704
-1.136059	day he	-1.2218487
-0.59915924	but he	-1.3152704
-1.0705364	him he	-1.0543576
-0.77380735	yet he	-1.1249387
-1.3267031	as he	-1.1026623
-1.136059	well he	-1.2552725
-0.77380735	himself he	-0.30103
-0.29957718	economy he	-1.1856365
-1.136059	this he	-0.90309
-0.59915924	so he	-0.42596874
-1.7262237	he slowly	-1.1856365
-0.30079994	depot slowly	-1.1026623
-0.6017636	slowly takes	-1.1856365
-2.0908265	<s> a	-0.9686859
-1.5576113	in a	-0.8846066
-1.1107025	or a	-0.42596874
-0.29578885	takes a	-1.1856365
-0.82702416	had a	-0.60206
-0.7626138	him a	-0.98527676
-1.3513258	have a	-0.7781512
-1.5968547	and a	-0.30103
-1.3211417	for a	-1
-1.2879801	as a	-0.7781512
-1.0756899	is a	-0.97003675
-1.048643	just a	-1.3152704
-0.29578885	quivers a	-1.3152704
-0.5916402	taking a	-1.1663314
-0.5916402	write a	-0.66900676
-1.4896364	are a	-0.30103
-1.0258552	on a	-0.7781512
-0.29578885	wear a	-1.1249387
-1.0704889	was a	-0.8808136
-0.29578885	allow a	-1.20412
-0.7626138	get a	-0.90309
-0.7626138	expect a	-0.7781512
-0.29578885	harms a	-1.1026623
-0.7626138	take a	-0.86530143
-0.7626138	not a	-1.2552725
-0.29578885	became a	-1.146128
-0.5916402	wore a	-0.7781512
-0.7626138	did a	-0.86530143
-0.5916402	definitely a	-1
-1.1107025	its a	-0.8239087
-0.29578885	pick a	-0.90309
-0.5916402	bought a	-0.97003675
-0.29578885	toward a	-0.86530143
-0.469283	makes a	-0.845098
-0.29578885	covers a	-1.1249387
-1.048643	from a	-0.30103
-0.5916402	such a	-0.5228787
-0.29578885	even a	-0.8239087
-0.29578885	deserves a	-0.5228787
-0.5916402	paint a	-0.42596874
-0.29578885	postdate a	-0.30103
-2.8809085	<s> short	-1.1249387
-2.0774913	a short	-1.1856365
-1.7978764	is short	-0.86530143
-3.0674963	<s> walk	-0.9378521
-0.77694666	short walk	-1.1856365
-1.9727279	to walk	-1.2863067
-0.30062813	could walk	-0.30103
-2.2867672	the open	-1.1856365
-0.60159993	please open	-0.97003675
-2.208476	<s> air	-1.7829502
-0.60159993	open air	-1.1856365
-2.8520846	<s> each	-0.845098
-0.6012566	air each	-1.1856365
-0.30062813	twice each	-1.2218487
-0.30062813	challenge each	-0.66900676
-2.8822446	<s> day	-1.1026623
-0.69730973	each day	-1.20412
-1.1988294	one day	-0.90309
-0.6007313	after day	-1.1026623
-0.99668586	every day	-0.66900676
-0.30036515	twelfth day	-0.86530143
-2.448176	<s> swarm	-1.5481846
-2.7854033	<s> double	-1.2218487
-2.2195969	<s> no	-1.7683914
-1.1424079	had no	-0.72699875
-1.4080898	have no	-0.72699875
-1.5697594	was no	-0.7781512
-0.30049664	requires no	-0.7781512
-2.4398801	<s> storm	-1.5563025
-2.7339542	<s> usually	-1.146128
-0.6017636	usually minus	-1.2552725
-3.9730434	<s> several	-0.30103
-0.30079994	minus several	-1.2552725
-0.6017636	several buttons	-1.2552725
-2.5209498	<s> dug	-1.4771212
-2.3690016	<s> you	-0.99270076
-1.0674503	when you	-0.66900676
-1.6361065	for you	-1.1026623
-1.3211522	as you	-1.1026623
-1.3570578	were you	-1.1026623
-0.42333433	if you	-0.97564065
-0.2990527	banks you	-1.1856365
-1.1885481	will you	-0.30103
-0.8952342	tell you	-0.7781512
-1.4539678	can you	-0.42596874
-0.7722461	way you	-0.66900676
-0.7722461	did you	-0.66900676
-0.2990527	asked you	-0.86530143
-0.5981144	sure you	-0.8239087
-0.2990527	surrounds you	-0.30103
-0.2990527	lead you	-0.30103
-1.640203	you wished	-1.2218487
-2.8405786	<s> to	-0.7781512
-0.29539883	wished to	-1.2218487
-0.7614721	him to	-1.1356627
-1.3469139	have to	-0.72699875
-0.29539883	clings to	-1.2552725
-0.7614721	yet to	-1.1249387
-0.7614721	still to	-0.7781512
-0.29539883	likes to	-1.20412
-1.1609914	me to	-1.1856365
-0.8809905	like to	-0.86530143
-0.29539883	try to	-1
-1.3170248	were to	-1.2218487
-0.29539883	something to	-1.1856365
-0.59086967	used to	-1.1026623
-0.7614721	time to	-0.66900676
-0.59086967	easy to	-0.42596874
-0.29539883	tried to	-1.1249387
-0.4687016	hard to	-0.5563025
-0.29539883	funds to	-1.1856365
-0.29539883	horseback to	-1.1026623
-0.29539883	volunteered to	-1.0543576
-0.29539883	willing to	-0.97003675
-0.29539883	fun to	-0.9378521
-0.29539883	someplace to	-0.90309
-0.59086967	want to	-0.30103
-0.29539883	expects to	-1.0280287
-0.29539883	greg to	-0.90309
-0.59086967	cat to	-0.90309
-0.59086967	able to	-0.9378521
-0.8809905	what to	-0.30103
-0.29539883	decision to	-0.86530143
-0.29539883	scream to	-0.86530143
-0.29539883	dough to	-0.69897
-0.29539883	common to	-0.86530143
-0.29539883	desire to	-0.72699875
-0.29539883	met to	-0.9378521
-0.29539883	trying to	-0.86530143
-0.29539883	wanted to	-0.72699875
-0.29539883	status to	-0.5228787
-0.29539883	appealing to	-0.42596874
-0.29539883	illegal to	-0.30103
-0.29539883	longer to	-0.30103
-0.29539883	muttering to	-0.42596874
-0.29539883	impossible to	-0.42596874
-2.6574378	<s> all	-1.0142405
-1.0728656	when all	-1.146128
-0.8988694	know all	-1.2218487
-0.8988694	water all	-1.2218487
-1.3497024	we all	-0.8016324
-1.3676704	were all	-0.66900676
-0.299971	conscious all	-1.1663314
-0.5999446	received all	-0.5228787
-1.0728656	really all	-0.86530143
-1.038467	all about	-1.0791812
-1.7899419	is about	-0.90309
-0.6009939	brought about	-0.90309
-0.30049664	discover about	-0.86530143
-0.30049664	talked about	-0.72699875
-2.8262296	<s> my	-0.9242793
-1.1967535	up my	-0.86530143
-1.0736448	about my	-1.2218487
-1.1396756	had my	-1.1026623
-1.7528975	of my	-0.66900676
-1.1396756	do my	-1.1663314
-0.30010235	suddenly my	-0.9378521
-0.30010235	change my	-0.72699875
-2.80031	<s> grandfather	-1.20412
-1.253206	my grandfather	-1.2218487
-2.7818646	<s> knee	-1.2218487
-1.1445199	his knee	-0.86530143
-2.2772899	<s> feet	-1.7160033
-2.74717	<s> train	-1.2552725
-2.2867672	the train	-1.1026623
-2.6597977	<s> but	-1.1205739
-1.7262237	he always	-1.3152704
-0.30079994	although always	-0.9542425
-0.7777067	always answers	-1.3152704
-0.30088174	answers banana	-1.3152704
-0.30088174	banana oil	-1.3152704
-2.2552545	<s> beat	-1.7377226
-2.2867672	the quick	-1.2552725
-1.7855415	a quick	-0.8846066
-2.0798275	a brown	-0.97003675
-0.77746135	quick brown	-1.2552725
-0.6017636	brown fox	-1.2552725
-0.30088174	fox jumps	-1.2552725
-0.30079994	jumps over	-1.2552725
-0.30079994	worry over	-1.1249387
-2.2947645	the lazy	-1.2552725
-0.30088174	lazy dog	-1.2552725
-2.0990438	<s> she	-0.9378521
-2.8751638	<s> had	-1.1026623
-1.248158	she had	-1.2218487
-1.6448028	we had	-0.30103
-1.4047339	have had	-1.1026623
-1.7683616	i had	-0.72699875
-0.3002337	finger had	-0.72699875
-0.3002337	kat had	-0.30103
-1.1396756	had your	-1.2218487
-1.5624881	are your	-1.1249387
-0.30010235	swing your	-1.1026623
-0.30010235	celebrate your	-0.86530143
-0.7753742	eat your	-0.66900676
-0.30010235	guarantees your	-0.7781512
-0.30010235	upgrade your	-0.5228787
-0.30010235	reflect your	-0.5228787
-2.528027	<s> dark	-1.4673615
-1.2019619	your dark	-1.2218487
-0.9986499	her dark	-0.8239087
-2.5603664	<s> suit	-1.4366926
-0.77746135	dark suit	-1.2218487
-1.6407921	in greasy	-1.2218487
-0.30088174	greasy wash	-1.2218487
-0.30062813	wash water	-1.2218487
-0.99799424	more water	-0.30103
-0.30062813	losing water	-1.1026623
-0.6012566	spring water	-0.42596874
-1.3407948	all year	-1.2218487
-2.7854033	<s> car	-1.2218487
-2.7854033	<s> giving	-1.2218487
-2.80031	<s> those	-0.90309
-0.30079994	giving those	-1.2218487
-3.156722	<s> who	-0.86530143
-0.7773407	those who	-1.2218487
-0.9986499	people who	-1.0280287
-3.9730434	<s> observe	-0.30103
-0.77746135	who observe	-1.2218487
-2.4219136	<s> him	-1.5642715
-0.6007313	observe him	-1.2218487
-0.30036515	urged him	-1.2863067
-0.6007313	crucified him	-1.0543576
-0.6007313	want him	-0.90309
-0.6007313	saw him	-0.42596874
-2.0846157	a pronounced	-1.2218487
-0.30088174	pronounced feeling	-1.2218487
-2.7481833	<s> of	-1.1026623
-0.29748297	feeling of	-1.2218487
-1.5168955	are of	-0.60206
-0.7675959	much of	-0.30103
-0.29748297	acts of	-1.1249387
-0.59499466	part of	-0.66900676
-0.29748297	advantage of	-1.1249387
-0.29748297	period of	-1.146128
-0.59499466	program of	-1.2552725
-0.8890725	out of	-0.42596874
-0.29748297	grants of	-1.1663314
-0.29748297	roll of	-1.146128
-0.29748297	prospect of	-1.0543576
-0.29748297	pair of	-1
-0.29748297	peck of	-0.90309
-0.29748297	gallon of	-0.97003675
-0.59499466	full of	-0.86530143
-0.29748297	fiercest of	-0.86530143
-0.29748297	minute of	-0.8239087
-0.29748297	number of	-0.8239087
-0.29748297	lack of	-0.66900676
-0.59499466	state of	-0.9378521
-0.29748297	largest of	-0.8239087
-0.29748297	pockets of	-0.8239087
-0.59499466	confirmation of	-0.7781512
-0.29748297	lot of	-0.5228787
-0.29748297	name of	-0.30103
-0.29748297	lots of	-0.30103
-2.2947645	the utmost	-1.2218487
-0.30088174	utmost respect	-1.2218487
-1.8138704	<s> we	-0.95913875
-0.89991355	know we	-0.90309
-0.60046893	knew we	-0.66900676
-0.60046893	while we	-1.1026623
-0.60046893	alone we	-1.0543576
-0.3002337	leisure we	-0.90309
-0.3002337	suggested we	-0.8239087
-3.192577	<s> have	-0.72699875
-1.3295053	you have	-1.0280287
-1.9385344	to have	-0.86530143
-1.3295053	all have	-0.8239087
-1.3482323	we have	-1.0479236
-1.1378635	well have	-0.86530143
-1.7569294	i have	-1.1026623
-0.29983968	souls have	-1.1026623
-1.0720878	really have	-0.90309
-0.29983968	tribes have	-0.30103
-1.4114718	have often	-1.2863067
-1.5746754	are often	-0.7781512
-1.473888	can often	-1.2218487
-0.7777067	often urged	-1.2863067
-1.1998711	up more	-0.86530143
-0.9009603	walk more	-1.2863067
-0.30049664	earn more	-1.1249387
-0.776553	needs more	-0.30103
-0.30049664	accomplish more	-0.7781512
-2.567894	<s> and	-1.3424227
-1.1785045	up and	-1.1249387
-0.76836747	short and	-0.86530143
-0.9838141	more and	-1.2863067
-0.2977442	skillfully and	-1.2218487
-0.76836747	down and	-0.7781512
-0.2977442	cracked and	-1.3152704
-0.5955131	deer and	-0.30103
-0.2977442	grey and	-1.20412
-0.2977442	slums and	-1.1856365
-0.5955131	heart and	-0.66900676
-0.76836747	young and	-0.42596874
-0.2977442	prosecuted and	-0.86530143
-0.2977442	addition and	-0.86530143
-0.2977442	chocolate and	-0.86530143
-0.2977442	masonry and	-0.72699875
-0.2977442	distress and	-0.7781512
-0.2977442	jealousies and	-0.90309
-0.5955131	pleasure and	-0.7781512
-0.5955131	straight and	-0.66900676
-0.2977442	bagpipes and	-0.42596874
-0.2977442	saws and	-0.42596874
-0.2977442	supplies and	-0.42596874
-0.2977442	broccoli and	-0.30103
-0.2977442	strong and	-0.30103
-0.2977442	children and	-0.30103
-1.7121655	and smoke	-1.2863067
-0.30088174	smoke less	-1.2863067
-2.4159033	<s> rake	-1.5797836
-2.7854033	<s> swore	-1.2218487
-2.7504358	<s> rave	-1.2552725
-2.652151	<s> for	-1.2552725
-1.5838616	you for	-0.86530143
-1.1814932	one for	-1.0543576
-0.59629184	easy for	-1.1249387
-0.29813635	healthy for	-1.1026623
-1.5069555	it for	-1.1026623
-0.59629184	provides for	-1.1856365
-0.7695275	win for	-1.1856365
-0.29813635	transition for	-1.146128
-0.29813635	sum for	-1.1663314
-0.47278798	look for	-0.86530143
-0.29813635	experiment for	-0.97003675
-0.29813635	wait for	-1.0280287
-0.7695275	place for	-0.7781512
-0.29813635	guard for	-0.97003675
-0.29813635	friend for	-0.8239087
-0.29813635	prepared for	-0.72699875
-0.29813635	clams for	-0.72699875
-0.29813635	mask for	-0.7781512
-0.29813635	wife for	-0.42596874
-0.29813635	ready for	-0.42596874
-0.29813635	trips for	-0.42596874
-0.29813635	demand for	-0.30103
-2.2142787	<s> sip	-1.7781513
-2.74717	<s> grow	-1.2552725
-0.30079994	weeds grow	-0.30103
-2.4904068	<s> bit	-1.50515
-2.0798275	a bit	-1.3152704
-2.3772776	<s> chair	-1.6163005
-0.60159993	brown chair	-0.97003675
-2.3279002	<s> one	-1.3553877
-0.9960331	each one	-1.0543576
-1.6625222	for one	-0.97003675
-1.0744252	just one	-1.1026623
-0.89991355	out one	-0.90309
-0.3002337	unpleasant one	-1.0543576
-0.9960331	only one	-0.86530143
-2.7854033	<s> fair	-1.2218487
-2.3028648	<s> two	-1.3862016
-0.30062813	noticed two	-1.1249387
-0.99799424	only two	-0.42596874
-0.30062813	called two	-0.86530143
-2.7675679	<s> beta	-1.2388821
-2.7180753	<s> rage	-1.2863067
-2.4812727	<s> spark	-1.2922561
-0.60159993	spark spark	-0.30103
-2.7854033	<s> race	-1.2218487
-2.7027564	<s> form	-1.30103
-2.6998289	<s> farm	-1.30103
-2.2867672	the farm	-1.1026623
-2.7854033	<s> raid	-1.2218487
-2.7854033	<s> fee	-1.2218487
-2.7504358	<s> weed	-1.2552725
-2.4740584	<s> bat	-1.5228788
-2.6736503	<s> horn	-1.3290588
-2.7854033	<s> jagged	-1.2218487
-2.3931813	<s> sheet	-1.60206
-2.7854033	<s> bubble	-1.2218487
-2.4627292	<s> warm	-1.5314789
-1.978698	to warm	-0.86530143
-0.60151947	wore warm	-1.146128
-2.4237494	<s> ship	-1.5720967
-2.7818646	<s> hair	-1.2218487
-0.77746135	dark hair	-0.8239087
-2.7854033	<s> share	-1.2218487
-2.7854033	<s> rate	-1.2218487
-2.620708	<s> goat	-1.3802112
-2.7854033	<s> trace	-1.2218487
-2.7801344	<s> go	-1.2218487
-1.6838869	to go	-0.8016324
-0.3007596	would go	-1.1249387
-2.7854033	<s> alpha	-1.2218487
-2.530968	<s> left	-1.4673615
-2.5412223	<s> sticks	-1.4573772
-2.7504358	<s> trouble	-1.2552725
-2.7854033	<s> dagger	-1.2218487
-2.0798275	a long	-1.2552725
-1.0778025	very long	-1
-0.6017636	long flowing	-1.2552725
-0.30088174	flowing beard	-1.2552725
-0.30088174	beard clings	-1.2552725
-0.94303757	in his	-0.9294189
-1.9727279	to his	-1.2552725
-1.7670364	of his	-0.42596874
-0.30062813	speaks his	-1.3152704
-1.1450914	his chin	-1.2552725
-2.3237984	<s> slip	-1.6690068
-0.30079994	ah slip	-0.30103
-2.7854033	<s> glow	-1.2218487
-2.7854033	<s> trade	-1.2218487
-2.6597977	<s> range	-1.0413927
-2.7854033	<s> stubble	-1.2218487
-2.5015814	<s> floor	-1.4960066
-2.7180753	<s> bug	-1.2863067
-2.5702817	<s> yet	-1.4259686
-0.60151947	done yet	-1.1249387
-0.7773407	eat yet	-0.66900676
-1.7251526	he still	-1.2863067
-1.7978764	is still	-0.30103
-1.5746754	was still	-0.7781512
-0.7777067	still thinks	-1.2863067
-0.29983968	thinks as	-1.2863067
-0.29983968	swiftly as	-1.2863067
-1.7707176	is as	-1.20412
-0.29983968	offensive as	-1.0170333
-0.5996827	arm as	-1.1026623
-0.29983968	high as	-1.1026623
-0.29983968	watched as	-1.1026623
-0.5996827	fail as	-0.7781512
-0.29983968	exactly as	-0.86530143
-0.29983968	displayed as	-0.30103
-1.3407948	as swiftly	-1.2863067
-1.3398983	as ever	-1.2863067
-1.2022827	me ever	-0.9378521
-2.7675679	<s> jacket	-1.2388821
-2.7027564	<s> born	-1.30103
-2.6736503	<s> corn	-1.3290588
-2.5603664	<s> right	-1.4366926
-0.30079994	married right	-0.42596874
-2.330134	<s> knew	-1.6627579
-1.6574963	we knew	-0.66900676
-2.7252111	<s> well	-1.2552725
-1.1405845	day well	-0.86530143
-1.1405845	do well	-0.90309
-0.77576673	went well	-0.86530143
-0.77576673	expect well	-1.146128
-1.0744252	very well	-0.8239087
-0.3002337	doing well	-0.66900676
-2.8062985	<s> is	-1.0543576
-1.3922108	he is	-1.146128
-1.2287824	she is	-0.98227125
-0.59603214	hair is	-0.8239087
-0.59603214	voice is	-1.3152704
-1.1253865	this is	-1.30103
-0.59603214	nothing is	-1.0170333
-0.59603214	house is	-1.20412
-0.29800558	humidity is	-1.1249387
-0.7691405	there is	-0.8507019
-0.29800558	alfalfa is	-1.1026623
-0.29800558	episode is	-1.1026623
-0.59603214	attitude is	-0.97003675
-0.29800558	spending is	-1.0543576
-0.29800558	travel is	-0.90309
-0.47259247	life is	-0.86530143
-0.29800558	plot is	-0.86530143
-0.29800558	coast is	-0.7781512
-0.59603214	street is	-0.5228787
-0.29800558	attendance is	-0.66900676
-0.29800558	highway is	-0.66900676
-0.29800558	drift is	-0.66900676
-0.29800558	future is	-0.30103
-0.29800558	cement is	-0.30103
-1.801608	is nearly	-1.0334238
-0.6017636	nearly ninety	-0.30103
-2.5779634	<s> three	-1.4149734
-0.30062813	ninety three	-0.30103
-0.30062813	contained three	-1.1026623
-0.6012566	saw three	-0.30103
-1.6686171	for years	-0.8239087
-0.9009603	three years	-0.30103
-0.30049664	ninetythree years	-1.2218487
-0.776553	later years	-1.1249387
-0.30049664	last years	-0.72699875
-2.9465694	<s> old	-0.75332767
-1.7056731	and old	-0.42596874
-0.99799424	two old	-1.1249387
-0.6979659	years old	-1.2552725
-2.364624	<s> feed	-1.6300887
-2.7854033	<s> twice	-1.2218487
-1.7284089	he plays	-1.2218487
-0.30088174	plays skillfully	-1.2218487
-3.360821	<s> with	-0.5228787
-1.6860685	and with	-1.2218487
-1.5353606	it with	-0.9378521
-0.29983968	compliance with	-0.9378521
-0.29983968	pleased with	-0.7781512
-0.29983968	popular with	-0.7781512
-0.29983968	laced with	-0.86530143
-0.29983968	disappointed with	-0.66900676
-0.29983968	canteen with	-0.42596874
-0.5996827	deal with	-0.42596874
-1.2995498	with zest	-1.2218487
-0.30088174	zest upon	-1.2218487
-0.99733955	with our	-0.72699875
-0.30049664	upon our	-1.2218487
-0.6009939	around our	-1.1026623
-0.6009939	fact our	-0.86530143
-0.30049664	obtaining our	-0.7781512
-1.0778025	our small	-1.2218487
-0.60159993	though small	-0.90309
-0.6017636	small organ	-1.2218487
-2.764171	<s> rain	-1.2388821
-0.30079994	uninterrupted rain	-0.86530143
-2.5111578	<s> park	-1.4866666
-2.6736503	<s> tip	-1.3290588
-2.5815206	<s> down	-1.4149734
-0.7773407	working down	-0.5228787
-0.7773407	sat down	-0.7781512
-2.7854033	<s> gadget	-1.2218487
-2.74717	<s> store	-1.2552725
-2.2867672	the store	-0.66900676
-1.7284089	he dresses	-1.2863067
-0.3007596	dresses himself	-1.2863067
-0.3007596	dressed himself	-0.30103
-0.60151947	crucified himself	-0.30103
-3.5785515	<s> an	-0.30103
-1.6225108	in an	-1.30103
-1.745997	of an	-1.1663314
-1.106264	have an	-0.8808136
-1.7707176	is an	-1.0543576
-1.2892711	be an	-0.75332767
-0.29983968	carry an	-1.1856365
-0.8983482	like an	-0.42596874
-0.8983482	tell an	-0.30103
-0.29983968	provoked an	-0.30103
-1.3784357	an ancient	-1.30103
-1.7717544	of black	-0.8239087
-0.30079994	ancient black	-1.30103
-0.6017636	black frock	-1.30103
-2.883092	<s> coat	-1.1249387
-0.30079994	frock coat	-1.30103
-0.6017636	grandfather likes	-1.20412
-3.164341	<s> be	-0.72699875
-1.136059	or be	-0.30103
-1.4918845	to be	-0.98025596
-0.77380735	often be	-1.2218487
-0.29957718	youd be	-1.1663314
-0.89730775	will be	-0.8016324
-0.52094275	can be	-0.8187691
-0.77380735	may be	-0.66900676
-0.29957718	flowers be	-0.66900676
-0.29957718	must be	-0.42596874
-0.29957718	should be	-0.30103
-0.29957718	cannot be	-0.30103
-1.5991048	be modern	-1.20412
-1.1450914	his language	-1.20412
-2.7027564	<s> torn	-1.30103
-1.7284089	he speaks	-1.3152704
-1.253206	my voice	-0.86530143
-1.1445199	his voice	-1.3152704
-2.8967624	<s> just	-1.1026623
-1.6536071	we just	-0.60206
-1.793891	is just	-1.3152704
-1.7801027	i just	-1.1663314
-0.6017636	bit cracked	-1.3152704
-1.7121655	and quivers	-1.3152704
-2.0846157	a trifle	-1.3152704
-2.7504358	<s> trait	-1.2552725
-2.2142787	<s> yes	-1.7781513
-1.7284089	he dressed	-0.30103
-2.6425412	<s> dont	-1.0543576
-1.0775616	just dont	-0.30103
-1.784088	i dont	-0.8239087
-0.90249735	dont ask	-1.1856365
-3.1330352	<s> me	-0.8239087
-1.9496357	to me	-0.42596874
-1.6595066	for me	-1.146128
-1.2918413	with me	-0.9378521
-0.30010235	ask me	-1.1856365
-0.30010235	carried me	-1.1249387
-0.6002066	took me	-0.90309
-0.6002066	fit me	-0.5228787
-1.984313	to carry	-1.1856365
-1.3784357	an oily	-1.1856365
-0.30088174	oily rag	-1.1856365
-0.30062813	rag like	-1.1856365
-1.7801027	i like	-0.42596874
-0.77694666	looked like	-0.42596874
-0.30062813	doesnt like	-0.86530143
-2.806675	<s> that	-0.74036264
-1.1967535	up that	-0.30103
-0.8993912	like that	-1.1856365
-0.6002066	fill that	-0.42596874
-0.6002066	beg that	-0.97003675
-0.30010235	seen that	-0.8239087
-0.30010235	requests that	-0.66900676
-0.30010235	beauty that	-0.30103
-0.6017636	nearly ninetythree	-1.2218487
-2.865119	<s> sleep	-1.146128
-2.911233	<s> pile	-1.1026623
-2.843777	<s> youd	-1.1663314
-1.5991048	be better	-1.1663314
-1.2022827	me off	-1.1249387
-0.30079994	better off	-1.1663314
-0.60159993	off taking	-1.1663314
-1.1445199	its taking	-0.30103
-3.3813055	<s> cold	-0.66900676
-2.0798275	a cold	-1.1663314
-0.6017636	cold shower	-1.1663314
-2.911233	<s> sway	-1.1026623
-2.456633	<s> both	-0.97564065
-0.90249735	both figures	-1.1249387
-0.30088174	figures would	-1.1249387
-0.90217036	go higher	-1.1249387
-0.30079994	grades higher	-1.1249387
-1.6386119	in later	-1.1249387
-0.60151947	trip later	-0.7781512
-0.3007596	weeks later	-0.42596874
-2.911233	<s> charlie	-1.1026623
-2.911233	<s> mut	-1.1026623
-2.865119	<s> troop	-1.146128
-2.9042075	<s> here	-1.1026623
-0.60151947	right here	-0.42596874
-0.7773407	down here	-0.5228787
-2.865119	<s> wish	-1.146128
-2.4081964	<s> ate	-1.5873368
-2.865119	<s> hear	-1.146128
-2.8234348	<s> pot	-1.1856365
-2.883092	<s> white	-1.1249387
-1.7100602	and white	-1.20412
-2.7339542	<s> mother	-1.2710668
-0.30088174	mother sews	-1.2710668
-2.0798275	a yellow	-1.1249387
-0.30079994	sews yellow	-1.2710668
-0.6017636	yellow gingham	-1.2710668
-0.30088174	gingham aprons	-1.2710668
-1.6789775	<s> i	-0.91026855
-1.336591	as i	-0.64345264
-0.6009939	than i	-1.3152704
-0.6009939	feel i	-1.1249387
-0.9009603	what i	-0.30103
-3.3148563	<s> try	-0.72699875
-1.0778025	just try	-1.1663314
-3.1181898	<s> do	-0.86530143
-1.6290559	you do	-1.1856365
-1.6748347	to do	-1.0543576
-0.90043664	dont do	-0.86530143
-1.0752072	very do	-0.30103
-0.30036515	dad do	-1.0280287
-3.0820198	<s> best	-0.9378521
-1.253206	my best	-1.1663314
-2.5496554	<s> bad	-1.447158
-0.77746135	few bad	-0.7781512
-2.9042075	<s> where	-1.1026623
-0.9020096	know where	-0.72699875
-0.3007596	places where	-0.86530143
-2.61084	<s> were	-1.0543576
-1.1369604	or were	-0.30103
-1.6333349	we were	-1.1026623
-0.77419853	where were	-1.1026623
-0.59942085	cases were	-0.30103
-1.0713115	also were	-1.1856365
-1.3281019	they were	-0.72699875
-0.29970843	injuries were	-1.2218487
-0.29970843	results were	-0.9378521
-0.29970843	cars were	-0.5228787
-0.29970843	paintings were	-0.30103
-1.6384186	you while	-1.1026623
-1.0778025	there while	-0.86530143
-1.3774581	were away	-1.1026623
-0.30079994	squared away	-0.30103
-2.8608708	<s> deer	-1.146128
-0.90217036	three deer	-0.30103
-2.911233	<s> droop	-1.1026623
-2.865119	<s> group	-1.146128
-2.9065115	<s> near	-1.1026623
-0.30079994	lay near	-1.146128
-2.5735242	<s> cheer	-1.4259686
-2.865119	<s> thigh	-1.146128
-2.911233	<s> single	-1.1026623
-2.5453417	<s> if	-1.447158
-0.6012566	fear if	-0.72699875
-0.6012566	so if	-0.8239087
-0.6012566	practical if	-0.30103
-1.640203	you destroy	-1.1856365
-0.30088174	destroy confidence	-1.1856365
-1.6407921	in banks	-1.1856365
-1.1450914	do something	-1.1856365
-2.2947645	the economy	-1.1856365
-2.7352724	<s> said	-1.2552725
-1.7182171	he said	-1.1856365
-1.7761537	i said	-0.30103
-0.30049664	sheriff said	-1.1249387
-1.5468001	it said	-0.66900676
-2.865119	<s> coupe	-1.146128
-2.4067082	<s> write	-1.5873368
-0.77746135	through write	-0.66900676
-0.6017636	train approached	-1.1026623
-2.2947645	the depot	-1.1026623
-2.2947645	the islands	-1.1026623
-2.6547866	<s> are	-0.98527676
-1.3211522	you are	-0.9378521
-1.6194129	we are	-0.8239087
-1.6673108	and are	-0.30103
-0.2990527	islands are	-1.1026623
-0.6940435	people are	-0.7781512
-1.3211522	they are	-0.42596874
-0.2990527	books are	-1.146128
-0.2990527	themselves are	-1.0280287
-0.2990527	hotels are	-0.9378521
-0.2990527	reflexes are	-0.9378521
-0.2990527	subtraction are	-0.86530143
-0.2990527	apartments are	-0.8239087
-0.2990527	bongos are	-0.42596874
-0.2990527	wages are	-0.30103
-0.2990527	costumes are	-0.30103
-1.5769757	are sparsely	-1.1026623
-0.30088174	sparsely populated	-1.1026623
-2.8875642	<s> area	-1.1249387
-2.865119	<s> steer	-1.146128
-2.5964756	<s> tile	-1.4036924
-2.7027564	<s> select	-1.30103
-4.2318306	<s> sweet	-0.30103
-2.911233	<s> youre	-1.1026623
-0.30079994	youre used	-1.1026623
-0.99885076	some used	-0.42596874
-3.0820198	<s> being	-0.9378521
-1.9805415	to being	-1.1026623
-0.59942085	off on	-1.1249387
-0.59942085	being on	-1.1026623
-0.29970843	shimmers on	-1.1026623
-0.29970843	shells on	-1.1663314
-0.29970843	marshmallows on	-0.9378521
-0.77419853	ride on	-0.30103
-0.29970843	twilight on	-0.86530143
-0.29970843	outdoors on	-0.66900676
-0.29970843	misplaced on	-0.42596874
-0.29970843	picnic on	-0.30103
-0.29970843	put on	-0.30103
-2.2947645	the field	-1.1026623
-2.7027564	<s> forward	-1.30103
-2.911233	<s> root	-1.1026623
-1.2539401	my sister	-1.1026623
-1.5974811	be made	-0.86530143
-0.30079994	sister made	-1.1026623
-2.2947645	the flowered	-1.1026623
-0.30088174	flowered curtains	-1.1026623
-2.911233	<s> bright	-1.1026623
-0.30088174	bright sunshine	-1.1026623
-0.30088174	sunshine shimmers	-1.1026623
-2.2947645	the ocean	-1.1026623
-2.911233	<s> pay	-1.1026623
-2.911233	<s> light	-1.1026623
-1.7706443	of other	-0.7781512
-0.9986499	two other	-1.2218487
-0.7773407	makes other	-0.42596874
-0.7777067	other cases	-1
-0.99668586	old also	-0.42596874
-1.7722402	i also	-0.7781512
-1.3722993	were also	-0.30103
-0.6007313	cases also	-1.1856365
-1.544488	it also	-1.1856365
-0.7761597	job also	-0.7781512
-0.7773407	here under	-0.5228787
-1.376978	were under	-1.1856365
-1.0775616	also under	-0.30103
-0.4768989	under advisement	-1.2218487
-2.4988327	<s> much	-1.4960066
-1.5746754	are much	-0.7781512
-0.7773407	through much	-0.30103
-2.8040028	<s> hate	-1.20412
-2.843777	<s> whoop	-1.1663314
-2.5111578	<s> rock	-1.4866666
-2.7854033	<s> why	-0.92081875
-0.6017636	why yell	-1.1249387
-1.1450914	or worry	-1.1249387
-0.6017636	over silly	-1.1249387
-0.77746135	other items	-0.7781512
-0.30079994	silly items	-1.1249387
-2.911233	<s> toot	-1.1026623
-2.4830403	<s> knot	-1.5141048
-2.911233	<s> fate	-1.1026623
-2.4549696	<s> side	-1.5399121
-1.2022827	one side	-1.1026623
-1.7182171	he got	-1.1026623
-1.6506524	we got	-0.69897
-1.7761537	i got	-0.30103
-1.0759907	also got	-0.42596874
-0.6009939	side got	-1.1026623
-1.0782926	got wet	-1.1026623
-2.5412223	<s> shoot	-1.4573772
-1.784088	i looked	-1.1249387
-1.5514617	it looked	-0.42596874
-0.60151947	brothers looked	-0.86530143
-1.7121655	and noticed	-1.1249387
-0.9992593	old men	-1.1249387
-2.843777	<s> slay	-1.1663314
-2.8127158	<s> will	-0.9444827
-1.7113905	he will	-1.20412
-1.248158	she will	-0.66900676
-1.7683616	i will	-0.30103
-1.3337429	they will	-0.86530143
-0.3002337	families will	-0.86530143
-0.3002337	contributions will	-0.72699875
-1.2029355	will robin	-1.1249387
-0.30088174	robin wear	-1.1249387
-0.6017636	yellow lily	-1.1249387
-3.1228218	<s> was	-0.7781512
-1.2423689	she was	-0.38021123
-0.59915924	range was	-0.72699875
-1.7494719	i was	-1.0142405
-1.136059	this was	-1.1249387
-1.0705364	there was	-0.8239087
-1.0705364	it was	-0.96781534
-0.29957718	shoes was	-1
-0.29957718	bracelet was	-0.86530143
-0.29957718	luck was	-0.7781512
-0.29957718	pickpocket was	-0.9378521
-0.29957718	display was	-0.42596874
-1.5769757	was conscious	-1.1663314
-2.2828863	the time	-1.1663314
-1.5746754	was time	-0.66900676
-0.7773407	first time	-0.97003675
-2.8234348	<s> prior	-1.1856365
-2.8397315	<s> play	-1.1663314
-1.4743682	can play	-1.1249387
-2.843777	<s> briar	-1.1663314
-1.2029355	will allow	-1.20412
-2.0846157	a rare	-0.98227125
-0.6017636	rare lilyrare	-0.30103
-0.60159993	rare lie	-1.1663314
-0.30079994	lilyrare lie	-0.30103
-2.8875642	<s> shear	-1.1249387
-3.5863855	<s> big	-0.42596874
-2.2583416	the big	-1.1663314
-2.0625238	a big	-0.7781512
-0.99733955	no big	-0.7781512
-1.0759907	by big	-0.30103
-0.9992593	big baseball	-1.1663314
-0.30088174	baseball players	-1.1663314
-3.115892	<s> get	-0.90309
-1.978698	to get	-0.30103
-0.3007596	players get	-1.1663314
-0.7777067	get traded	-1.1663314
-2.192335	<s> this	-1.2327652
-1.7670364	of this	-0.86530143
-0.6012566	play this	-1.1249387
-0.77694666	back this	-1.146128
-1.5754325	was easy	-1.1249387
-0.30079994	arent easy	-0.42596874
-1.3774581	for us	-1.4573772
-0.77746135	above us	-1
-2.8397315	<s> fear	-1.1663314
-0.99885076	no fear	-0.72699875
-2.8875642	<s> sprinkle	-1.1249387
-2.8875642	<s> snoop	-1.1249387
-1.7878196	i scrubbed	-1.146128
-2.2947645	the floors	-1.146128
-0.30088174	floors thoroughly	-1.146128
-2.5848484	<s> boot	-1.4149734
-2.7675679	<s> rocks	-1.2388821
-2.4317398	<s> witch	-1.5642715
-2.8608708	<s> though	-1.146128
-0.77746135	place though	-0.90309
-2.843777	<s> galore	-1.1663314
-1.7878196	i tried	-1.1249387
-2.9042075	<s> tell	-1.1026623
-1.6838869	to tell	-0.9444827
-1.784088	i tell	-0.7781512
-2.965067	<s> people	-1.0280287
-0.776553	those people	-0.7781512
-0.9009603	tell people	-1.1249387
-0.776553	young people	-0.86530143
-0.30049664	elderly people	-0.7781512
-2.2947645	the community	-1.1249387
-2.8875642	<s> gnaw	-1.1249387
-2.8875642	<s> cycle	-1.1249387
-2.843777	<s> delta	-1.1663314
-1.801608	is thinner	-1.1663314
-0.6012566	away than	-0.30103
-0.30062813	thinner than	-1.1663314
-0.30062813	lower than	-1.1249387
-0.6012566	quicker than	-0.7781512
-1.7878196	i am	-1.3152704
-2.843777	<s> bear	-1.1663314
-2.8875642	<s> error	-1.1249387
-2.8040028	<s> jungle	-1.20412
-2.5111578	<s> nothing	-1.1856365
-1.3398983	as offensive	-1.20412
-1.7991033	is offensive	-0.30103
-3.9730434	<s> innocence	-0.30103
-1.3398983	as innocence	-1.20412
-2.6879597	<s> menu	-1.3152704
-2.8875642	<s> peer	-1.1249387
-2.4652584	<s> lip	-1.5314789
-2.8875642	<s> dot	-1.1249387
-1.6593611	we gathered	-1.1663314
-0.30088174	gathered shells	-1.1663314
-2.2947645	the beach	-1.20412
-3.6788673	<s> feel	-0.42596874
-1.785315	i feel	-1.1249387
-3.3871179	<s> can	-0.42596874
-1.3267031	you can	-1.0280287
-1.6305145	we can	-0.90309
-1.4693718	i can	-0.845098
-1.0705364	also can	-0.7781512
-0.29957718	silverware can	-1.2218487
-0.59915924	work can	-1.0280287
-0.29957718	dance can	-0.9378521
-0.59915924	basketball can	-0.7781512
-0.29957718	trespassers can	-0.86530143
-0.59915924	gold can	-0.7781512
-0.29957718	standby can	-0.30103
-1.1450914	this weekend	-1.1249387
-2.843777	<s> tie	-1.1663314
-2.239432	<s> sigh	-1.7533276
-2.843777	<s> mere	-1.1663314
-2.8875642	<s> everything	-1.1249387
-0.3007596	everything went	-1.1249387
-0.9020096	things went	-0.7781512
-0.3007596	marriage went	-0.86530143
-0.77746135	under real	-0.5228787
-0.77746135	went real	-1.1249387
-0.6017636	real smooth	-1.1249387
-2.2947645	the sheriff	-1.1249387
-2.620708	<s> pad	-1.3802112
-2.80031	<s> their	-1.20412
-0.30079994	lost their	-1.1026623
-0.99885076	big house	-0.7781512
-0.60159993	their house	-1.20412
-1.801608	is grey	-1.20412
-1.2029355	your grades	-1.1249387
-1.1450914	or lower	-1.1249387
-0.90249735	than nancys	-1.1249387
-2.8040028	<s> urgent	-1.20412
-2.2947645	the humidity	-1.1249387
-1.801608	is overwhelming	-1.1249387
-2.4088187	<s> there	-1.2787536
-0.30049664	overwhelming there	-1.1249387
-0.6009939	basketball there	-0.86530143
-0.776553	sat there	-0.42596874
-0.30049664	unfortunately there	-0.30103
-2.8875642	<s> explore	-1.1249387
-2.5186548	<s> they	-0.74036264
-1.1414952	do they	-0.86530143
-0.7761597	where they	-0.72699875
-0.90043664	night they	-1.1026623
-0.90043664	things they	-0.5228787
-0.30036515	because they	-0.42596874
-1.3407948	they carried	-1.1249387
-2.2947645	the stretcher	-1.1249387
-1.2029355	one validated	-1.1249387
-0.30088174	validated acts	-1.1249387
-1.7740196	of school	-1.1249387
-0.30088174	school districts	-1.1249387
-2.8875642	<s> loop	-1.1249387
-2.8875642	<s> jane	-1.1249387
-0.3007596	jane may	-1.1249387
-0.7773407	few may	-0.66900676
-0.3007596	company may	-0.42596874
-0.7777067	may earn	-1.1249387
-0.9986499	more money	-1.1249387
-1.0775616	any money	-0.86530143
-0.3007596	save money	-0.30103
-0.7761597	money by	-1.1249387
-0.30036515	solicits by	-0.8239087
-0.30036515	begin by	-0.86530143
-0.6007313	them by	-0.72699875
-0.30036515	rewarded by	-0.30103
-0.30036515	acting by	-0.30103
-0.60151947	while working	-0.86530143
-1.0775616	by working	-1.1249387
-0.3007596	credit working	-0.5228787
-1.5966847	be hard	-0.66900676
-0.7773407	working hard	-1.1249387
-1.1442391	its hard	-0.30103
-2.6558459	<s> back	-1.3424227
-0.3007596	bounce back	-1.146128
-0.3007596	cutting back	-1.0543576
-2.4635615	<s> four	-1.5314789
-1.9970182	the four	-0.845098
-2.8875642	<s> fruit	-1.1249387
-2.698396	<s> night	-1
-0.60151947	after night	-1.1026623
-0.9986499	at night	-0.8239087
-1.1445199	day after	-1.1026623
-0.90217036	night after	-1.1026623
-1.040578	they received	-0.90309
-0.6017636	received annoying	-1.1026623
-3.6654012	<s> phone	-0.42596874
-1.0775616	by phone	-0.8239087
-0.3007596	annoying phone	-1.1026623
-0.60159993	bad calls	-0.7781512
-0.77746135	phone calls	-1.1026623
-2.911233	<s> hem	-1.1026623
-2.865119	<s> seeds	-1.146128
-2.911233	<s> sign	-1.1026623
-2.865119	<s> november	-1.146128
-2.911233	<s> alfalfa	-1.1026623
-1.801608	is healthy	-1.1026623
-2.911233	<s> mush	-1.1026623
-2.865119	<s> oscar	-1.146128
-2.5392022	<s> sell	-1.4573772
-0.30079994	hell sell	-0.72699875
-2.2947645	the misguided	-1.1026623
-0.30088174	misguided souls	-1.1026623
-1.4130502	have lost	-1.1026623
-2.2828863	the way	-0.7781512
-0.60151947	their way	-1.1026623
-1.0775616	any way	-0.66900676
-2.5603664	<s> five	-1.4366926
-1.1445199	had five	-0.30103
-1.5769757	are losing	-1.1026623
-0.90249735	water replace	-1.1026623
-2.045787	<s> it	-1.0894004
-1.6125625	you it	-0.7781512
-1.7392044	of it	-0.8239087
-1.3964558	have it	-0.86530143
-1.136059	do it	-0.30103
-0.29957718	replace it	-1.1026623
-0.59915924	thought it	-0.30103
-0.59915924	done it	-0.66900676
-0.29957718	nailed it	-1.1026623
-0.29957718	kept it	-0.9378521
-0.59915924	confirmation it	-0.66900676
-0.29957718	handle it	-0.66900676
-1.5536419	it immediately	-1.1026623
-2.865119	<s> hill	-1.146128
-2.911233	<s> fitting	-1.1026623
-2.911233	<s> swing	-1.1026623
-3.3148563	<s> arm	-0.72699875
-1.2022827	your arm	-1.1026623
-1.3407948	as high	-1.1026623
-2.4317398	<s> pit	-1.5642715
-2.5964756	<s> zero	-1.4036924
-2.3931813	<s> fat	-1.60206
-2.8608708	<s> thought	-1.146128
-1.785315	i thought	-0.30103
-2.911233	<s> darn	-1.1026623
-2.911233	<s> golf	-1.1026623
-1.6848209	to expect	-0.64345264
-1.785315	i expect	-1.146128
-1.1450914	well bounce	-1.146128
-1.1450914	this week	-1.146128
-2.5209498	<s> spit	-1.4771212
-2.911233	<s> mitten	-1.1026623
-2.492212	<s> six	-1.50515
-1.3407948	all else	-1.146128
