\data\
ngram 1=1174
ngram 2=2380
ngram 3=1954

\1-grams:
-3.400642	<unk>	0
0	<s>	-1.070216
-0.5780677	</s>	0
-3.3198898	pat	-0.30103
-2.6957686	up	-0.30103
-3.3198898	meat	-0.30103
-3.1224597	know	-0.30103
-2.613507	he	-0.30103
-3.3198898	slowly	-0.30103
-3.3198898	takes	-0.30103
-1.8880937	a	-0.3105753
-3.1224597	short	-0.30103
-3.1363137	walk	-0.30103
-2.2368484	in	-0.35902193
-1.8742151	the	-0.30103
-3.1363137	open	-0.30103
-3.1363137	air	-0.30103
-3.1224597	each	-0.30103
-2.9301612	day	-0.30103
-3.3198898	swarm	-0.30103
-2.7973402	no	-0.30103
-3.3198898	storm	-0.30103
-3.3198898	dug	-0.30103
-3.3198898	feet	-0.30103
-3.3198898	beat	-0.30103
-3.3198898	rake	-0.30103
-3.3198898	sip	-0.30103
-3.3198898	bit	-0.30103
-3.3198898	chair	-0.30103
-3.1224597	one	-0.30103
-3.1224597	two	-0.30103
-3.1363137	spark	-0.30103
-3.1363137	dark	-0.30103
-3.3198898	bat	-0.30103
-3.3198898	sheet	-0.30103
-3.1363137	warm	-0.30103
-3.3198898	ship	-0.30103
-3.3198898	goat	-0.30103
-3.3198898	left	-0.30103
-3.3198898	sticks	-0.30103
-3.1363137	slip	-0.30103
-3.3198898	floor	-0.30103
-3.3198898	born	-0.30103
-3.1363137	right	-0.30103
-3.1363137	knew	-0.30103
-2.6957686	well	-0.30103
-2.1513913	is	-0.30103
-3.3198898	nearly	-0.30103
-3.3198898	ninety	-0.30103
-3.1224597	three	-0.30103
-3.1224597	years	-0.30103
-3.1224597	old	-0.30103
-3.3198898	feed	-0.30103
-3.3198898	park	-0.30103
-3.3198898	grandfather	-0.30103
-3.3198898	likes	-0.30103
-1.8742151	to	-0.30103
-2.4323304	be	-0.30103
-3.3198898	modern	-0.30103
-3.1363137	his	-0.30103
-3.3198898	language	-0.30103
-3.3198898	yes	-0.30103
-3.3198898	dressed	-0.30103
-3.1363137	himself	-0.30103
-2.613507	an	-0.30103
-3.3198898	ancient	-0.30103
-3.1363137	black	-0.30103
-3.3198898	frock	-0.30103
-3.1363137	coat	-0.30103
-3.3198898	ate	-0.30103
-3.1363137	bad	-0.30103
-3.3198898	cheer	-0.30103
-3.1363137	write	-0.30103
-3.3198898	tile	-0.30103
-3.3198898	sweet	-0.30103
-3.3198898	suit	-0.30103
-3.1224597	much	-0.30103
-3.3198898	rock	-0.30103
-3.3198898	knot	-0.30103
-3.3198898	shoot	-0.30103
-2.613507	will	-0.30103
-3.3198898	allow	-0.30103
-3.3198898	rare	-0.30103
-3.3198898	lilyrare	-0.30103
-3.3198898	lie	-0.30103
-3.3198898	boot	-0.30103
-3.3198898	witch	-0.30103
-3.3198898	lip	-0.30103
-3.3198898	sigh	-0.30103
-3.3198898	side	-0.30103
-3.1363137	four	-0.30103
-2.9301612	him	-0.30103
-3.1363137	sell	-0.30103
-3.1363137	five	-0.30103
-3.3198898	pit	-0.30103
-3.3198898	zero	-0.30103
-3.3198898	fat	-0.30103
-3.3198898	spit	-0.30103
-3.3198898	six	-0.30103
-3.3198898	hat	-0.30103
-3.3198898	bran	-0.30103
-2.9301612	at	-0.30103
-3.3198898	seven	-0.30103
-3.3198898	leak	-0.30103
-3.3198898	eight	-0.30103
-3.3198898	fill	-0.30103
-3.3198898	bite	-0.30103
-3.3198898	harm	-0.30103
-3.3198898	chop	-0.30103
-3.1363137	did	-0.30103
-3.3198898	dad	-0.30103
-2.7973402	do	-0.30103
-3.1363137	academic	-0.30103
-3.3198898	bidding	-0.30103
-3.1224597	good	-0.30103
-3.1363137	attitude	-0.30103
-3.3198898	unbeatable	-0.30103
-3.3198898	shell	-0.30103
-3.3198898	sin	-0.30103
-3.3198898	ticker	-0.30103
-3.3198898	hotel	-0.30103
-3.3198898	owner	-0.30103
-3.3198898	shrugged	-0.30103
-3.3198898	pair	-0.30103
-2.1513913	of	-0.30103
-3.3198898	shoes	-0.30103
-2.385563	was	-0.30103
-3.1363137	new	-0.30103
-3.3198898	zip	-0.30103
-2.6957686	really	-0.30103
-3.3198898	crucified	-0.30103
-3.3198898	nailed	-0.30103
-2.385563	it	-0.30103
-2.2695293	for	-0.30103
-3.3198898	yard	-0.30103
-3.3198898	loss	-0.30103
-3.3198898	owners	-0.30103
-3.3198898	regularly	-0.30103
-3.1224597	look	-0.30103
-3.3198898	plumbing	-0.30103
-3.1363137	leaks	-0.30103
-3.3198898	nest	-0.30103
-3.3198898	xray	-0.30103
-3.3198898	lock	-0.30103
-3.3198898	bitter	-0.30103
-3.1224597	im	-0.30103
-3.3198898	willing	-0.30103
-3.3198898	experiment	-0.30103
-3.1363137	first	-0.30103
-3.1363137	time	-0.30103
-3.3198898	nut	-0.30103
-3.1363137	please	-0.30103
-3.3198898	window	-0.30103
-3.3198898	quickly	-0.30103
-3.3198898	definitely	-0.30103
-3.3198898	notch	-0.30103
-3.1363137	above	-0.30103
-3.3198898	us	-0.30103
-3.3198898	zulu	-0.30103
-3.1224597	its	-0.30103
-3.3198898	fun	-0.30103
-3.3198898	roast	-0.30103
-3.3198898	marshmallows	-0.30103
-2.613507	on	-0.36797678
-3.1224597	gas	-0.30103
-3.3198898	burner	-0.30103
-3.3198898	whitecapped	-0.30103
-3.3198898	waves	-0.30103
-3.3198898	covered	-0.30103
-3.3198898	entire	-0.30103
-3.3198898	bay	-0.30103
-3.3198898	then	-0.30103
-3.3198898	wed	-0.30103
-2.5443735	have	-0.30103
-3.3198898	someplace	-0.30103
-3.3198898	go	-0.30103
-3.3198898	bed	-0.30103
-3.3198898	flicker	-0.30103
-2.3433454	you	-0.30103
-3.3198898	want	-0.30103
-3.3198898	sicker	-0.30103
-3.3198898	nobody	-0.30103
-3.3198898	expects	-0.30103
-3.3198898	evacuate	-0.30103
-3.3198898	dice	-0.30103
-3.1363137	help	-0.30103
-3.3198898	greg	-0.30103
-3.3198898	pick	-0.30103
-3.3198898	peck	-0.30103
-3.3198898	potatoes	-0.30103
-3.3198898	glitter	-0.30103
-3.3198898	fork	-0.30103
-3.1363137	get	-0.30103
-3.3198898	calico	-0.30103
-3.1363137	cat	-0.30103
-3.1363137	keep	-0.30103
-3.3198898	took	-0.30103
-2.7973402	me	-0.30103
-3.1224597	out	-0.30103
-3.3198898	litter	-0.30103
-3.3198898	red	-0.30103
-3.3198898	being	-0.30103
-3.1363137	able	-0.30103
-3.3198898	dance	-0.30103
-2.385563	can	-0.41497335
-3.1363137	too	-0.30103
-3.3198898	hand	-0.30103
-3.3198898	rest	-0.30103
-3.3198898	those	-0.30103
-3.3198898	musicians	-0.30103
-3.3198898	harmonize	-0.30103
-3.3198898	marvelously	-0.30103
-3.1363137	most	-0.30103
-3.1363137	young	-0.30103
-3.1363137	rise	-0.30103
-3.3198898	early	-0.30103
-3.1224597	every	-0.30103
-3.3198898	morning	-0.30103
-3.3198898	wicker	-0.30103
-3.3198898	sing	-0.30103
-3.1363137	quicker	-0.30103
-3.3198898	best	-0.30103
-3.3198898	sierra	-0.30103
-3.3198898	romeo	-0.30103
-3.3198898	travel	-0.30103
-2.7973402	about	-0.30103
-3.1224597	only	-0.30103
-3.3198898	leisure	-0.30103
-2.7973402	we	-0.30103
-3.1224597	this	-0.30103
-3.1224597	place	-0.30103
-3.3198898	though	-0.30103
-3.3198898	small	-0.30103
-3.1363137	nice	-0.30103
-3.3198898	liquor	-0.30103
-3.3198898	chip	-0.30103
-3.1224597	ride	-0.30103
-3.3198898	stagecoach	-0.30103
-3.1224597	some	-0.30103
-3.3198898	hotels	-0.30103
-2.3048708	are	-0.30103
-3.3198898	available	-0.30103
-3.3198898	nearby	-0.30103
-3.3198898	neat	-0.30103
-3.3198898	dead	-0.30103
-3.3198898	whisky	-0.30103
-2.9301612	i	-0.30103
-3.3198898	called	-0.30103
-3.3198898	different	-0.30103
-3.3198898	painters	-0.30103
-3.3198898	stimulating	-0.30103
-3.3198898	discussions	-0.30103
-3.3198898	students	-0.30103
-3.3198898	attention	-0.30103
-3.3198898	celebrate	-0.30103
-2.7973402	your	-0.30103
-3.1363137	brothers	-0.30103
-3.3198898	success	-0.30103
-3.3198898	lake	-0.30103
-3.3198898	thread	-0.30103
-3.3198898	fed	-0.30103
-3.1224597	dont	-0.30103
-3.3198898	charlies	-0.30103
-3.3198898	dirty	-0.30103
-3.3198898	dishes	-0.30103
-3.3198898	sew	-0.30103
-3.3198898	sort	-0.30103
-3.3198898	catch	-0.30103
-3.3198898	goose	-0.30103
-3.1224597	played	-0.30103
-3.1363137	basketball	-0.30103
-2.9301612	there	-0.30103
-3.3198898	while	-0.30103
-3.1363137	working	-0.30103
-3.3198898	toward	-0.30103
-3.3198898	law	-0.30103
-3.3198898	degree	-0.30103
-3.3198898	coconut	-0.30103
-3.3198898	cream	-0.30103
-3.3198898	pie	-0.30103
-3.1224597	makes	-0.30103
-3.3198898	dessert	-0.30103
-3.3198898	selected	-0.30103
-3.3198898	places	-0.30103
-3.1363137	where	-0.30103
-3.3198898	families	-0.30103
-3.3198898	welcome	-0.30103
-3.3198898	cakes	-0.30103
-3.3198898	bill	-0.30103
-3.3198898	accomplished	-0.30103
-3.3198898	artists	-0.30103
-3.3198898	obtain	-0.30103
-3.3198898	popularity	-0.30103
-3.3198898	shin	-0.30103
-3.3198898	prefer	-0.30103
-3.3198898	traditional	-0.30103
-3.3198898	steel	-0.30103
-3.3198898	kind	-0.30103
-3.3198898	cork	-0.30103
-3.3198898	weep	-0.30103
-3.3198898	biblical	-0.30103
-3.3198898	scholars	-0.30103
-3.3198898	argue	-0.30103
-3.3198898	history	-0.30103
-3.3198898	rid	-0.30103
-3.3198898	quart	-0.30103
-3.3198898	shot	-0.30103
-3.3198898	ligament	-0.30103
-3.3198898	damage	-0.30103
-3.3198898	knee	-0.30103
-3.3198898	sheep	-0.30103
-3.3198898	snort	-0.30103
-3.3198898	pork	-0.30103
-3.1363137	fact	-0.30103
-3.1224597	our	-0.30103
-3.3198898	whole	-0.30103
-3.3198898	defensive	-0.30103
-3.3198898	unit	-0.30103
-3.1363137	job	-0.30103
-3.3198898	sketch	-0.30103
-3.3198898	who	-0.30103
-3.3198898	knows	-0.30103
-3.1224597	what	-0.30103
-3.3198898	youll	-0.30103
-3.3198898	discover	-0.30103
-3.3198898	yourself	-0.30103
-3.3198898	blend	-0.30103
-3.3198898	shed	-0.30103
-3.1363137	looked	-0.30103
-3.3198898	identical	-0.30103
-3.1363137	critical	-0.30103
-3.3198898	equipment	-0.30103
-3.1224597	needs	-0.30103
-3.3198898	proper	-0.30103
-3.3198898	maintenance	-0.30103
-3.3198898	court	-0.30103
-3.3198898	see	-0.30103
-3.3198898	shop	-0.30103
-3.1363137	heat	-0.30103
-3.3198898	suddenly	-0.30103
-2.7973402	my	-0.30103
-3.3198898	reflexes	-0.30103
-3.3198898	gone	-0.30103
-3.3198898	gill	-0.30103
-3.3198898	show	-0.30103
-3.1363137	read	-0.30103
-3.3198898	results	-0.30103
-2.613507	were	-0.30103
-2.9301612	very	-0.30103
-3.3198898	disappointing	-0.30103
-3.3198898	tug	-0.30103
-3.3198898	cash	-0.30103
-3.3198898	stretch	-0.30103
-3.3198898	steak	-0.30103
-3.3198898	ray	-0.30103
-3.3198898	fort	-0.30103
-3.3198898	lee	-0.30103
-3.3198898	hold	-0.30103
-3.3198898	ive	-0.30103
-3.3198898	kept	-0.30103
-2.4847486	with	-0.30103
-3.3198898	ever	-0.30103
-3.3198898	since	-0.30103
-3.3198898	thats	-0.30103
-3.1224597	life	-0.30103
-2.7973402	all	-0.30103
-3.3198898	decision	-0.30103
-3.3198898	made	-0.30103
-3.3198898	shred	-0.30103
-3.3198898	sight	-0.30103
-3.3198898	fish	-0.30103
-3.3198898	swam	-0.30103
-3.3198898	across	-0.30103
-3.3198898	pond	-0.30103
-3.3198898	she	-0.30103
-3.3198898	doesnt	-0.30103
-3.1224597	like	-0.30103
-3.3198898	hanging	-0.30103
-3.3198898	around	-0.30103
-3.3198898	tort	-0.30103
-3.3198898	meats	-0.30103
-2.1262736	and	-0.30103
-3.3198898	precious	-0.30103
-3.1363137	eat	-0.30103
-3.1363137	sport	-0.30103
-3.1224597	people	-0.30103
-3.3198898	participate	-0.30103
-3.3198898	athletic	-0.30103
-3.3198898	activities	-0.30103
-3.3198898	trespassers	-0.30103
-3.3198898	prosecuted	-0.30103
-3.3198898	fined	-0.30103
-3.3198898	etiquette	-0.30103
-3.3198898	mandates	-0.30103
-3.3198898	compliance	-0.30103
-3.3198898	existing	-0.30103
-3.3198898	regulations	-0.30103
-3.3198898	quick	-0.30103
-3.3198898	touchdown	-0.30103
-3.3198898	resulted	-0.30103
-3.1363137	little	-0.30103
-3.3198898	girls	-0.30103
-3.3198898	cut	-0.30103
-3.3198898	lacy	-0.30103
-3.3198898	valentines	-0.30103
-3.3198898	geese	-0.30103
-3.3198898	mill	-0.30103
-3.3198898	barbs	-0.30103
-3.1363137	gold	-0.30103
-3.3198898	bracelet	-0.30103
-3.3198898	graduation	-0.30103
-3.3198898	present	-0.30103
-3.3198898	reap	-0.30103
-3.3198898	dill	-0.30103
-3.3198898	lend	-0.30103
-3.3198898	foe	-0.30103
-3.3198898	asked	-0.30103
-3.3198898	loan	-0.30103
-2.7973402	they	-0.30103
-3.1363137	make	-0.30103
-2.7973402	any	-0.30103
-3.1363137	money	-0.30103
-3.3198898	toe	-0.30103
-3.3198898	threat	-0.30103
-3.3198898	port	-0.30103
-3.3198898	scream	-0.30103
-3.3198898	voice	-0.30103
-3.3198898	rip	-0.30103
-3.3198898	wise	-0.30103
-3.1363137	think	-0.30103
-3.1363137	full	-0.30103
-3.3198898	stuff	-0.30103
-3.3198898	bend	-0.30103
-3.3198898	muck	-0.30103
-3.1363137	night	-0.30103
-3.3198898	snake	-0.30103
-3.3198898	havent	-0.30103
-3.3198898	seen	-0.30103
-2.6957686	that	-0.30103
-3.3198898	friend	-0.30103
-3.3198898	bumper	-0.30103
-3.3198898	entertaining	-0.30103
-3.3198898	ash	-0.30103
-3.1363137	fit	-0.30103
-3.3198898	sheer	-0.30103
-3.3198898	twilight	-0.30103
-3.3198898	twelfth	-0.30103
-3.3198898	chablis	-0.30103
-3.3198898	hash	-0.30103
-3.3198898	worse	-0.30103
-3.3198898	luck	-0.30103
-3.1363137	still	-0.30103
-3.1363137	come	-0.30103
-3.3198898	golfing	-0.30103
-3.3198898	fathers	-0.30103
-3.3198898	ruled	-0.30103
-3.3198898	favor	-0.30103
-3.3198898	hail	-0.30103
-3.3198898	code	-0.30103
-3.3198898	elderly	-0.30103
-3.3198898	often	-0.30103
-3.3198898	excluded	-0.30103
-3.3198898	beam	-0.30103
-3.1363137	yet	-0.30103
-3.3198898	remains	-0.30103
-3.3198898	fiercest	-0.30103
-3.3198898	competitors	-0.30103
-3.3198898	knife	-0.30103
-3.3198898	pete	-0.30103
-3.3198898	addition	-0.30103
-3.3198898	subtraction	-0.30103
-3.3198898	learned	-0.30103
-3.3198898	skills	-0.30103
-3.1363137	found	-0.30103
-3.3198898	anywhere	-0.30103
-3.3198898	gash	-0.30103
-3.3198898	pleased	-0.30103
-3.1363137	way	-0.30103
-2.9301612	things	-0.30103
-3.1363137	went	-0.30103
-3.3198898	loved	-0.30103
-3.3198898	minute	-0.30103
-3.3198898	idea	-0.30103
-3.3198898	fender	-0.30103
-3.3198898	woe	-0.30103
-3.3198898	member	-0.30103
-3.3198898	beast	-0.30103
-3.3198898	suggested	-0.30103
-3.3198898	dinner	-0.30103
-3.1224597	together	-0.30103
-3.3198898	so	-0.30103
-3.1224597	if	-0.30103
-3.3198898	anybody	-0.30103
-3.3198898	solicits	-0.30103
-2.7973402	by	-0.30103
-3.1363137	phone	-0.30103
-3.1363137	sure	-0.30103
-3.3198898	mail	-0.30103
-3.3198898	dough	-0.30103
-3.3198898	ambidextrous	-0.30103
-3.3198898	pickpockets	-0.30103
-3.3198898	accomplish	-0.30103
-3.1224597	more	-0.30103
-3.3198898	guess	-0.30103
-3.3198898	take	-0.30103
-3.3198898	wedding	-0.30103
-3.3198898	trip	-0.30103
-3.1363137	later	-0.30103
-3.1224597	her	-0.30103
-3.3198898	hair	-0.30103
-3.3198898	combed	-0.30103
-3.3198898	casually	-0.30103
-3.3198898	seam	-0.30103
-3.3198898	beep	-0.30103
-2.9301612	also	-0.30103
-3.1363137	quite	-0.30103
-3.3198898	vocal	-0.30103
-3.3198898	requires	-0.30103
-2.9301612	big	-0.30103
-3.3198898	investment	-0.30103
-3.3198898	pickpocket	-0.30103
-3.3198898	caught	-0.30103
-3.3198898	redhanded	-0.30103
-3.3198898	house	-0.30103
-3.3198898	mock	-0.30103
-3.3198898	dock	-0.30103
-3.1363137	sea	-0.30103
-3.3198898	grandmother	-0.30103
-3.3198898	outgrew	-0.30103
-3.3198898	upbringing	-0.30103
-3.3198898	petticoats	-0.30103
-3.3198898	sun	-0.30103
-3.3198898	died	-0.30103
-3.3198898	ember	-0.30103
-3.3198898	seat	-0.30103
-3.1363137	than	-0.30103
-3.3198898	am	-0.30103
-3.3198898	food	-0.30103
-3.3198898	reef	-0.30103
-3.3198898	fire	-0.30103
-3.3198898	straw	-0.30103
-3.3198898	blaze	-0.30103
-3.3198898	sender	-0.30103
-3.3198898	classical	-0.30103
-3.3198898	performance	-0.30103
-3.3198898	gained	-0.30103
-3.3198898	acclaim	-0.30103
-3.3198898	position	-0.30103
-3.1363137	covers	-0.30103
-3.3198898	number	-0.30103
-3.3198898	daily	-0.30103
-3.3198898	tasks	-0.30103
-3.3198898	common	-0.30103
-3.3198898	social	-0.30103
-3.3198898	director	-0.30103
-3.3198898	marriage	-0.30103
-2.6957686	from	-0.30103
-3.1363137	start	-0.30103
-3.1363137	tell	-0.30103
-3.3198898	wonderful	-0.30103
-3.3198898	renter	-0.30103
-3.3198898	row	-0.30103
-3.3198898	lender	-0.30103
-3.3198898	ape	-0.30103
-3.3198898	just	-0.30103
-3.1363137	didnt	-0.30103
-3.3198898	forks	-0.30103
-3.3198898	tender	-0.30103
-3.3198898	tea	-0.30103
-3.3198898	popular	-0.30103
-3.3198898	fans	-0.30103
-3.3198898	timber	-0.30103
-3.3198898	leap	-0.30103
-3.3198898	catastrophic	-0.30103
-3.3198898	economic	-0.30103
-3.3198898	cutbacks	-0.30103
-3.3198898	neglect	-0.30103
-3.3198898	poor	-0.30103
-3.3198898	tail	-0.30103
-3.3198898	bender	-0.30103
-3.3198898	ache	-0.30103
-3.3198898	center	-0.30103
-3.3198898	mom	-0.30103
-3.3198898	strongly	-0.30103
-3.3198898	dislikes	-0.30103
-3.3198898	appetizers	-0.30103
-3.3198898	beef	-0.30103
-3.3198898	temper	-0.30103
-2.7973402	had	-0.30103
-3.3198898	desire	-0.30103
-3.3198898	change	-0.30103
-3.3198898	ways	-0.30103
-3.3198898	wax	-0.30103
-3.3198898	pet	-0.30103
-3.3198898	aid	-0.30103
-3.3198898	knock	-0.30103
-3.3198898	lies	-0.30103
-3.3198898	cheese	-0.30103
-3.3198898	hatch	-0.30103
-3.3198898	lack	-0.30103
-3.3198898	compounded	-0.30103
-3.3198898	tenants	-0.30103
-3.1363137	grievances	-0.30103
-3.3198898	bunch	-0.30103
-3.3198898	contributions	-0.30103
-3.3198898	greatly	-0.30103
-3.3198898	appreciated	-0.30103
-3.3198898	ease	-0.30103
-3.3198898	add	-0.30103
-3.3198898	chocolate	-0.30103
-3.3198898	roses	-0.30103
-3.1363137	never	-0.30103
-3.3198898	fail	-0.30103
-2.7973402	as	-0.30103
-3.3198898	romantic	-0.30103
-3.3198898	gift	-0.30103
-3.3198898	legislature	-0.30103
-3.3198898	met	-0.30103
-3.1363137	judge	-0.30103
-3.3198898	state	-0.30103
-3.3198898	public	-0.30103
-3.3198898	education	-0.30103
-3.3198898	largest	-0.30103
-3.3198898	states	-0.30103
-3.3198898	peas	-0.30103
-3.3198898	bun	-0.30103
-3.3198898	punch	-0.30103
-3.3198898	ail	-0.30103
-3.3198898	begin	-0.30103
-3.3198898	trying	-0.30103
-3.3198898	speak	-0.30103
-3.3198898	tall	-0.30103
-3.3198898	range	-0.30103
-3.3198898	vital	-0.30103
-3.3198898	detail	-0.30103
-3.3198898	pill	-0.30103
-3.3198898	racks	-0.30103
-3.3198898	structures	-0.30103
-3.3198898	housing	-0.30103
-3.3198898	apartments	-0.30103
-3.3198898	masonry	-0.30103
-3.3198898	frame	-0.30103
-3.3198898	construction	-0.30103
-3.3198898	aches	-0.30103
-3.3198898	lit	-0.30103
-3.3198898	singers	-0.30103
-3.3198898	finger	-0.30103
-3.3198898	splinter	-0.30103
-3.3198898	now	-0.30103
-3.3198898	living	-0.30103
-3.3198898	exactly	-0.30103
-3.3198898	choose	-0.30103
-3.3198898	duck	-0.30103
-3.3198898	arm	-0.30103
-3.3198898	wanted	-0.30103
-3.3198898	actress	-0.30103
-3.1363137	fell	-0.30103
-3.3198898	aptitude	-0.30103
-3.3198898	guarantees	-0.30103
-3.3198898	diploma	-0.30103
-3.3198898	charm	-0.30103
-3.3198898	great	-0.30103
-3.3198898	meeting	-0.30103
-3.3198898	has	-0.30103
-3.3198898	prepared	-0.30103
-3.3198898	odd	-0.30103
-3.3198898	behavior	-0.30103
-3.3198898	friends	-0.30103
-3.3198898	mile	-0.30103
-3.3198898	rakes	-0.30103
-3.3198898	talked	-0.30103
-3.3198898	situation	-0.30103
-3.1224597	other	-0.30103
-3.3198898	items	-0.30103
-3.3198898	fear	-0.30103
-3.3198898	alone	-0.30103
-3.1224597	sat	-0.30103
-3.1363137	down	-0.30103
-3.3198898	relaxed	-0.30103
-3.3198898	hall	-0.30103
-3.3198898	sake	-0.30103
-3.3198898	coming	-0.30103
-3.3198898	pockets	-0.30103
-3.3198898	sand	-0.30103
-3.3198898	hell	-0.30103
-3.1363137	them	-0.30103
-3.3198898	box	-0.30103
-3.3198898	plot	-0.30103
-3.3198898	laced	-0.30103
-3.3198898	mysterious	-0.30103
-3.3198898	incidents	-0.30103
-3.3198898	shelled	-0.30103
-3.3198898	clams	-0.30103
-3.3198898	chowder	-0.30103
-3.3198898	experience	-0.30103
-3.3198898	distress	-0.30103
-3.3198898	frustration	-0.30103
-3.3198898	obtaining	-0.30103
-3.3198898	degrees	-0.30103
-3.3198898	ticks	-0.30103
-3.3198898	prowler	-0.30103
-3.3198898	wore	-0.30103
-3.3198898	ski	-0.30103
-3.3198898	mask	-0.30103
-3.3198898	disguise	-0.30103
-3.1363137	confirmation	-0.30103
-3.1363137	such	-0.30103
-3.3198898	massive	-0.30103
-3.3198898	assaults	-0.30103
-3.3198898	independent	-0.30103
-3.3198898	sources	-0.30103
-3.3198898	chap	-0.30103
-3.3198898	lax	-0.30103
-3.1363137	score	-0.30103
-3.3198898	munch	-0.30103
-3.3198898	try	-0.30103
-3.1363137	work	-0.30103
-3.3198898	added	-0.30103
-3.3198898	brought	-0.30103
-3.1363137	petty	-0.30103
-3.3198898	jealousies	-0.30103
-3.3198898	personal	-0.30103
-3.3198898	even	-0.30103
-3.3198898	simple	-0.30103
-3.3198898	vocabulary	-0.30103
-3.3198898	contains	-0.30103
-3.3198898	symbols	-0.30103
-3.3198898	end	-0.30103
-3.3198898	eastern	-0.30103
-3.3198898	coast	-0.30103
-3.3198898	pure	-0.30103
-3.1363137	pleasure	-0.30103
-3.3198898	excitement	-0.30103
-3.3198898	dial	-0.30103
-3.3198898	low	-0.30103
-3.3198898	cold	-0.30103
-3.3198898	whip	-0.30103
-3.3198898	expect	-0.30103
-3.3198898	few	-0.30103
-3.3198898	calls	-0.30103
-3.3198898	ink	-0.30103
-3.3198898	handle	-0.30103
-3.3198898	theyll	-0.30103
-2.9301612	again	-0.30103
-3.3198898	term	-0.30103
-3.3198898	program	-0.30103
-3.3198898	wide	-0.30103
-3.1224597	got	-0.30103
-3.3198898	drenched	-0.30103
-3.3198898	uninterrupted	-0.30103
-3.3198898	rain	-0.30103
-3.3198898	pant	-0.30103
-3.1363137	win	-0.30103
-3.1363137	may	-0.30103
-3.1363137	hard	-0.30103
-3.1363137	find	-0.30103
-3.3198898	cable	-0.30103
-3.1363137	said	-0.30103
-3.3198898	translated	-0.30103
-3.3198898	weve	-0.30103
-3.3198898	done	-0.30103
-3.3198898	past	-0.30103
-3.3198898	burn	-0.30103
-3.3198898	werent	-0.30103
-3.3198898	doing	-0.30103
-3.3198898	upgrade	-0.30103
-3.3198898	status	-0.30103
-3.3198898	reflect	-0.30103
-3.3198898	wealth	-0.30103
-3.1363137	spring	-0.30103
-3.1363137	street	-0.30103
-3.3198898	straight	-0.30103
-3.3198898	ahead	-0.30103
-3.3198898	store	-0.30103
-3.3198898	serves	-0.30103
-3.3198898	meals	-0.30103
-3.3198898	disappointed	-0.30103
-3.3198898	order	-0.30103
-3.1363137	wine	-0.30103
-3.3198898	eyes	-0.30103
-3.3198898	weave	-0.30103
-3.3198898	family	-0.30103
-3.3198898	requests	-0.30103
-3.3198898	flowers	-0.30103
-3.3198898	omitted	-0.30103
-3.3198898	wart	-0.30103
-3.3198898	wack	-0.30103
-3.3198898	received	-0.30103
-3.1363137	needed	-0.30103
-3.3198898	dash	-0.30103
-3.3198898	heart	-0.30103
-3.3198898	snow	-0.30103
-3.3198898	blew	-0.30103
-3.1363137	into	-0.30103
-3.1363137	large	-0.30103
-3.3198898	drifts	-0.30103
-3.3198898	regular	-0.30103
-3.3198898	attendance	-0.30103
-3.3198898	seldom	-0.30103
-3.3198898	required	-0.30103
-3.3198898	ball	-0.30103
-3.1363137	myself	-0.30103
-3.3198898	last	-0.30103
-3.3198898	shortage	-0.30103
-3.3198898	caused	-0.30103
-3.3198898	steep	-0.30103
-3.3198898	price	-0.30103
-3.3198898	increases	-0.30103
-3.3198898	both	-0.30103
-3.3198898	cars	-0.30103
-3.3198898	slightly	-0.30103
-3.3198898	damaged	-0.30103
-3.3198898	highway	-0.30103
-3.3198898	empty	-0.30103
-3.3198898	staff	-0.30103
-3.3198898	deserves	-0.30103
-3.3198898	lot	-0.30103
-3.3198898	credit	-0.30103
-3.1363137	here	-0.30103
-3.1363137	under	-0.30103
-3.3198898	real	-0.30103
-3.3198898	obstacles	-0.30103
-3.3198898	hid	-0.30103
-3.3198898	why	-0.30103
-3.3198898	luke	-0.30103
-3.3198898	fold	-0.30103
-3.3198898	pink	-0.30103
-3.3198898	waste	-0.30103
-3.3198898	raisins	-0.30103
-3.3198898	outdoors	-0.30103
-3.1363137	porch	-0.30103
-3.3198898	steps	-0.30103
-3.3198898	noted	-0.30103
-3.3198898	carefully	-0.30103
-3.1363137	when	-0.30103
-3.1363137	through	-0.30103
-3.3198898	clean	-0.30103
-3.3198898	report	-0.30103
-3.3198898	sail	-0.30103
-3.3198898	wipe	-0.30103
-3.3198898	continental	-0.30103
-3.3198898	drift	-0.30103
-3.3198898	geological	-0.30103
-3.3198898	theory	-0.30103
-3.3198898	huge	-0.30103
-3.3198898	part	-0.30103
-3.3198898	porcupines	-0.30103
-3.3198898	resemble	-0.30103
-3.3198898	urchins	-0.30103
-3.3198898	challenge	-0.30103
-3.3198898	generals	-0.30103
-3.3198898	intelligence	-0.30103
-3.3198898	wives	-0.30103
-3.3198898	cant	-0.30103
-3.3198898	abide	-0.30103
-3.3198898	mistakes	-0.30103
-3.3198898	own	-0.30103
-3.1363137	game	-0.30103
-3.3198898	docks	-0.30103
-3.3198898	pole	-0.30103
-3.3198898	stable	-0.30103
-3.3198898	hiring	-0.30103
-3.3198898	wife	-0.30103
-3.3198898	ones	-0.30103
-3.3198898	company	-0.30103
-3.3198898	taxaided	-0.30103
-3.3198898	retirement	-0.30103
-3.3198898	income	-0.30103
-3.3198898	must	-0.30103
-3.3198898	ready	-0.30103
-3.3198898	sacrifice	-0.30103
-3.3198898	ban	-0.30103
-3.3198898	trips	-0.30103
-3.3198898	page	-0.30103
-3.3198898	accordion	-0.30103
-3.3198898	paid	-0.30103
-3.3198898	sprain	-0.30103
-3.3198898	wall	-0.30103
-3.3198898	fool	-0.30103
-3.3198898	boat	-0.30103
-3.3198898	ramp	-0.30103
-3.3198898	service	-0.30103
-3.3198898	should	-0.30103
-3.3198898	rewarded	-0.30103
-3.3198898	tips	-0.30103
-3.1363137	paint	-0.30103
-3.3198898	canteen	-0.30103
-3.3198898	fresh	-0.30103
-3.1363137	water	-0.30103
-3.3198898	shook	-0.30103
-3.3198898	beg	-0.30103
-3.3198898	mat	-0.30103
-3.3198898	sap	-0.30103
-3.3198898	pain	-0.30103
-3.3198898	hides	-0.30103
-3.3198898	mayonnaise	-0.30103
-3.3198898	fall	-0.30103
-3.3198898	mall	-0.30103
-3.3198898	feel	-0.30103
-3.3198898	seemed	-0.30103
-3.3198898	appealing	-0.30103
-3.3198898	panel	-0.30103
-3.3198898	doctors	-0.30103
-3.3198898	prescribe	-0.30103
-3.3198898	drugs	-0.30103
-3.3198898	freely	-0.30103
-3.3198898	vamp	-0.30103
-3.3198898	bag	-0.30103
-3.3198898	rat	-0.30103
-3.1363137	saw	-0.30103
-3.3198898	weeks	-0.30103
-3.3198898	illegal	-0.30103
-3.3198898	postdate	-0.30103
-3.3198898	check	-0.30103
-3.3198898	space	-0.30103
-3.3198898	naval	-0.30103
-3.3198898	stall	-0.30103
-3.3198898	spade	-0.30103
-3.3198898	acting	-0.30103
-3.3198898	accident	-0.30103
-3.3198898	damp	-0.30103
-3.3198898	spray	-0.30103
-3.3198898	peach	-0.30103
-3.3198898	mabel	-0.30103
-3.3198898	told	-0.30103
-3.1363137	not	-0.30103
-3.3198898	seriously	-0.30103
-3.3198898	injured	-0.30103
-3.3198898	because	-0.30103
-3.1363137	practical	-0.30103
-3.3198898	funnel	-0.30103
-3.3198898	tap	-0.30103
-3.3198898	name	-0.30103
-3.3198898	gently	-0.30103
-3.3198898	jims	-0.30103
-3.3198898	foam	-0.30103
-3.3198898	sculpture	-0.30103
-3.3198898	maybe	-0.30103
-3.3198898	taking	-0.30103
-3.3198898	longer	-0.30103
-3.3198898	squared	-0.30103
-3.3198898	away	-0.30103
-3.3198898	bankers	-0.30103
-3.3198898	expected	-0.30103
-3.3198898	reach	-0.30103
-3.3198898	file	-0.30103
-3.3198898	soon	-0.30103
-3.3198898	muttering	-0.30103
-3.3198898	walls	-0.30103
-3.3198898	telephone	-0.30103
-3.3198898	booths	-0.30103
-3.3198898	arent	-0.30103
-3.3198898	easy	-0.30103
-3.3198898	paste	-0.30103
-3.3198898	foil	-0.30103
-3.3198898	map	-0.30103
-3.3198898	gable	-0.30103
-3.3198898	bull	-0.30103
-3.3198898	crawl	-0.30103
-3.3198898	pale	-0.30103
-3.3198898	creature	-0.30103
-3.3198898	pocket	-0.30103
-3.3198898	married	-0.30103
-3.3198898	saddle	-0.30103
-3.3198898	bowl	-0.30103
-3.3198898	nap	-0.30103
-3.3198898	table	-0.30103
-3.3198898	sable	-0.30103
-3.3198898	fable	-0.30103
-3.3198898	mold	-0.30103
-3.3198898	mole	-0.30103
-3.3198898	impossible	-0.30103
-3.1363137	deal	-0.30103
-3.3198898	bureaucracy	-0.30103
-3.3198898	pace	-0.30103
-3.3198898	call	-0.30103
-3.3198898	describe	-0.30103
-3.3198898	idiotic	-0.30103
-3.3198898	predicament	-0.30103
-3.3198898	screech	-0.30103
-3.3198898	ladle	-0.30103
-3.3198898	bash	-0.30103
-3.3198898	room	-0.30103
-3.1224597	or	-0.30103
-3.3198898	portrait	-0.30103
-3.3198898	bagpipes	-0.30103
-3.3198898	bongos	-0.30103
-3.3198898	musical	-0.30103
-3.3198898	instruments	-0.30103
-3.3198898	thought	-0.30103
-3.1363137	gin	-0.30103
-3.3198898	saws	-0.30103
-3.3198898	parts	-0.30103
-3.3198898	supplies	-0.30103
-3.3198898	used	-0.30103
-3.3198898	machinery	-0.30103
-3.3198898	final	-0.30103
-3.3198898	giggling	-0.30103
-3.3198898	owl	-0.30103
-3.3198898	cliffs	-0.30103
-3.3198898	display	-0.30103
-3.3198898	misplaced	-0.30103
-3.3198898	screen	-0.30103
-3.3198898	teach	-0.30103
-3.3198898	official	-0.30103
-3.3198898	deadline	-0.30103
-3.3198898	cannot	-0.30103
-3.3198898	postponed	-0.30103
-3.3198898	bog	-0.30103
-3.3198898	rattle	-0.30103
-3.1363137	sold	-0.30103
-3.3198898	bought	-0.30103
-3.3198898	bank	-0.30103
-3.3198898	shawl	-0.30103
-3.3198898	soul	-0.30103
-3.3198898	preach	-0.30103
-3.3198898	pull	-0.30103
-3.3198898	boone	-0.30103
-3.3198898	suppress	-0.30103
-3.3198898	wages	-0.30103
-3.3198898	key	-0.30103
-3.3198898	issue	-0.30103
-3.3198898	unfortunately	-0.30103
-3.3198898	demand	-0.30103
-3.3198898	broccoli	-0.30103
-3.3198898	cauliflower	-0.30103
-3.3198898	deer	-0.30103
-3.3198898	badger	-0.30103
-3.3198898	contrast	-0.30103
-3.3198898	household	-0.30103
-3.3198898	lots	-0.30103
-3.3198898	appliances	-0.30103
-3.3198898	grain	-0.30103
-3.3198898	several	-0.30103
-3.3198898	paintings	-0.30103
-3.3198898	auction	-0.30103
-3.3198898	impress	-0.30103
-3.3198898	occur	-0.30103
-3.3198898	shore	-0.30103
-3.3198898	book	-0.30103
-3.3198898	bin	-0.30103
-3.3198898	weeds	-0.30103
-3.3198898	grow	-0.30103
-3.3198898	strong	-0.30103
-3.3198898	fast	-0.30103
-3.3198898	fudge	-0.30103
-3.3198898	rust	-0.30103
-3.3198898	misprint	-0.30103
-3.3198898	provoked	-0.30103
-3.3198898	immediate	-0.30103
-3.3198898	disclaimer	-0.30103
-3.3198898	contract	-0.30103
-3.3198898	limb	-0.30103
-3.3198898	musk	-0.30103
-3.3198898	rut	-0.30103
-3.3198898	serve	-0.30103
-3.3198898	grape	-0.30103
-3.3198898	intact	-0.30103
-3.3198898	picnic	-0.30103
-3.3198898	beach	-0.30103
-3.3198898	subtract	-0.30103
-3.3198898	plant	-0.30103
-3.3198898	original	-0.30103
-3.3198898	forgery	-0.30103
-3.3198898	either	-0.30103
-3.3198898	walked	-0.30103
-3.1363137	driven	-0.30103
-3.3198898	primitive	-0.30103
-3.3198898	tribes	-0.30103
-3.3198898	upbeat	-0.30103
-3.3198898	shut	-0.30103
-3.3198898	retract	-0.30103
-3.3198898	displayed	-0.30103
-3.3198898	lamps	-0.30103
-3.3198898	puppets	-0.30103
-3.3198898	delight	-0.30103
-3.3198898	children	-0.30103
-3.3198898	decorative	-0.30103
-3.3198898	accent	-0.30103
-3.3198898	globe	-0.30103
-3.3198898	grave	-0.30103
-3.3198898	bust	-0.30103
-3.3198898	depress	-0.30103
-3.3198898	dusk	-0.30103
-3.3198898	slim	-0.30103
-3.3198898	flying	-0.30103
-3.3198898	standby	-0.30103
-3.3198898	save	-0.30103
-3.3198898	instructions	-0.30103
-3.3198898	desperately	-0.30103
-3.3198898	need	-0.30103
-3.3198898	updating	-0.30103
-3.3198898	preserve	-0.30103
-3.3198898	converge	-0.30103
-3.3198898	booth	-0.30103
-3.3198898	railroads	-0.30103
-3.3198898	future	-0.30103
-3.3198898	west	-0.30103
-3.3198898	beauty	-0.30103
-3.3198898	surrounds	-0.30103
-3.3198898	id	-0.30103
-3.3198898	put	-0.30103
-3.3198898	weight	-0.30103
-3.3198898	lisp	-0.30103
-3.3198898	hispanic	-0.30103
-3.3198898	costumes	-0.30103
-3.3198898	colorful	-0.30103
-3.3198898	tore	-0.30103
-3.3198898	strange	-0.30103
-3.3198898	refer	-0.30103
-3.3198898	deserve	-0.30103
-3.3198898	glib	-0.30103
-3.3198898	grope	-0.30103
-3.3198898	but	-0.30103
-3.3198898	absurd	-0.30103
-3.3198898	kat	-0.30103
-3.3198898	kittens	-0.30103
-3.3198898	cement	-0.30103
-3.3198898	measured	-0.30103
-3.3198898	cubic	-0.30103
-3.3198898	yards	-0.30103
-3.3198898	grange	-0.30103
-3.3198898	lid	-0.30103
-3.3198898	could	-0.30103
-3.3198898	bus	-0.30103
-3.3198898	brain	-0.30103
-3.3198898	boast	-0.30103
-3.3198898	observe	-0.30103
-3.3198898	reserve	-0.30103
-3.3198898	slid	-0.30103
-3.3198898	list	-0.30103
-3.3198898	conserve	-0.30103
-3.3198898	repress	-0.30103
-3.3198898	scorch	-0.30103
-3.3198898	strike	-0.30103
-3.3198898	spread	-0.30103
-3.3198898	super	-0.30103
-3.3198898	cases	-0.30103
-3.3198898	advisement	-0.30103
-3.3198898	split	-0.30103
-3.3198898	struggled	-0.30103
-3.3198898	sitter	-0.30103
-3.3198898	ok	-0.30103
-3.3198898	actually	-0.30103
-3.3198898	owe	-0.30103
-3.3198898	lead	-0.30103
-3.3198898	jaw	-0.30103
-3.3198898	cope	-0.30103
-3.3198898	drop	-0.30103
-3.3198898	shout	-0.30103
-3.3198898	play	-0.30103
-3.3198898	weekend	-0.30103
-3.3198898	nothing	-0.30103
-3.1363137	offensive	-0.30103
-3.3198898	ignorance	-0.30103
-3.3198898	relax	-0.30103
-3.3198898	oh	-0.30103
-3.3198898	usually	-0.30103
-3.1363137	min	-0.30103
-3.3198898	tear	-0.30103
-3.3198898	paper	-0.30103
-3.3198898	innocence	-0.30103
-3.3198898	todays	-0.30103
-3.3198898	date	-0.30103
-3.3198898	february	-0.30103
-3.3198898	13th	-0.30103
-3.3198898	wait	-0.30103
-3.3198898	although	-0.30103
-3.3198898	always	-0.30103
-3.3198898	man	-0.30103
-3.3198898	skip	-0.30103
-3.3198898	ah	-0.30103
-3.3198898	chose	-0.30103
-3.3198898	innocense	-0.30103

\2-grams:
-0.1992143	pat </s>	0
-0.5246681	up </s>	0
-0.1992143	meat </s>	0
-0.5246681	know </s>	0
-0.7962123	he </s>	0
-0.85356915	a </s>	0
-0.5246681	short </s>	0
-0.83316344	in </s>	0
-0.41782314	air </s>	0
-0.5246681	each </s>	0
-0.29490653	day </s>	0
-0.1992143	swarm </s>	0
-0.63432515	no </s>	0
-0.1992143	storm </s>	0
-0.1992143	dug </s>	0
-0.1992143	feet </s>	0
-0.1992143	beat </s>	0
-0.1992143	rake </s>	0
-0.1992143	sip </s>	0
-0.1992143	bit </s>	0
-0.1992143	chair </s>	0
-0.5246681	one </s>	0
-0.5898982	two </s>	0
-0.41782314	spark </s>	0
-0.41782314	dark </s>	0
-0.1992143	bat </s>	0
-0.1992143	sheet </s>	0
-0.41782314	warm </s>	0
-0.1992143	ship </s>	0
-0.1992143	goat </s>	0
-0.1992143	left </s>	0
-0.1992143	sticks </s>	0
-0.1992143	slip </s>	0
-0.1992143	floor </s>	0
-0.1992143	born </s>	0
-0.41782314	right </s>	0
-0.41782314	knew </s>	0
-0.41782314	well </s>	0
-0.8129337	is </s>	0
-0.5246681	three </s>	0
-0.5246681	years </s>	0
-0.41782314	old </s>	0
-0.1992143	feed </s>	0
-0.1992143	park </s>	0
-0.76003397	to </s>	0
-0.1992143	language </s>	0
-0.1992143	yes </s>	0
-0.1992143	coat </s>	0
-0.1992143	ate </s>	0
-0.41782314	bad </s>	0
-0.1992143	cheer </s>	0
-0.41782314	write </s>	0
-0.1992143	tile </s>	0
-0.1992143	sweet </s>	0
-0.1992143	suit </s>	0
-0.5246681	much </s>	0
-0.1992143	rock </s>	0
-0.1992143	knot </s>	0
-0.1992143	shoot </s>	0
-0.1992143	lie </s>	0
-0.1992143	boot </s>	0
-0.1992143	witch </s>	0
-0.1992143	lip </s>	0
-0.1992143	sigh </s>	0
-0.1992143	side </s>	0
-0.5246681	four </s>	0
-0.5898982	him </s>	0
-0.41782314	sell </s>	0
-0.41782314	five </s>	0
-0.1992143	pit </s>	0
-0.1992143	zero </s>	0
-0.1992143	fat </s>	0
-0.1992143	spit </s>	0
-0.1992143	six </s>	0
-0.1992143	hat </s>	0
-0.1992143	bran </s>	0
-0.63432515	at </s>	0
-0.1992143	seven </s>	0
-0.1992143	leak </s>	0
-0.1992143	eight </s>	0
-0.41782314	fill </s>	0
-0.1992143	bite </s>	0
-0.1992143	harm </s>	0
-0.1992143	chop </s>	0
-0.1992143	bidding </s>	0
-0.6666874	good </s>	0
-0.41782314	attitude </s>	0
-0.1992143	unbeatable </s>	0
-0.1992143	shell </s>	0
-0.1992143	sin </s>	0
-0.1992143	ticker </s>	0
-0.1992143	shrugged </s>	0
-0.80382425	of </s>	0
-0.79179627	was </s>	0
-0.41782314	new </s>	0
-0.1992143	zip </s>	0
-0.7016568	it </s>	0
-0.1992143	loss </s>	0
-0.1992143	leaks </s>	0
-0.1992143	nest </s>	0
-0.1992143	xray </s>	0
-0.1992143	lock </s>	0
-0.1992143	bitter </s>	0
-0.41782314	first </s>	0
-0.41782314	time </s>	0
-0.1992143	nut </s>	0
-0.1992143	quickly </s>	0
-0.41782314	above </s>	0
-0.1992143	us </s>	0
-0.1992143	zulu </s>	0
-0.5246681	gas </s>	0
-0.1992143	burner </s>	0
-0.1992143	bay </s>	0
-0.726639	have </s>	0
-0.41782314	go </s>	0
-0.1992143	bed </s>	0
-0.1992143	flicker </s>	0
-0.7016568	you </s>	0
-0.1992143	sicker </s>	0
-0.1992143	evacuate </s>	0
-0.1992143	dice </s>	0
-0.1992143	potatoes </s>	0
-0.1992143	glitter </s>	0
-0.1992143	fork </s>	0
-0.41782314	cat </s>	0
-0.41782314	keep </s>	0
-0.47873133	me </s>	0
-0.5246681	out </s>	0
-0.1992143	litter </s>	0
-0.1992143	red </s>	0
-0.41782314	able </s>	0
-0.85363376	can </s>	0
-0.41782314	too </s>	0
-0.1992143	hand </s>	0
-0.1992143	rest </s>	0
-0.1992143	marvelously </s>	0
-0.41782314	rise </s>	0
-0.1992143	morning </s>	0
-0.1992143	wicker </s>	0
-0.1992143	sing </s>	0
-0.41782314	quicker </s>	0
-0.1992143	best </s>	0
-0.1992143	sierra </s>	0
-0.1992143	romeo </s>	0
-0.63432515	about </s>	0
-0.1992143	small </s>	0
-0.41782314	nice </s>	0
-0.1992143	liquor </s>	0
-0.1992143	chip </s>	0
-0.5246681	ride </s>	0
-0.1992143	stagecoach </s>	0
-0.7751715	are </s>	0
-0.1992143	nearby </s>	0
-0.1992143	neat </s>	0
-0.1992143	dead </s>	0
-0.1992143	whisky </s>	0
-0.1992143	painters </s>	0
-0.1992143	attention </s>	0
-0.1992143	success </s>	0
-0.1992143	lake </s>	0
-0.1992143	thread </s>	0
-0.1992143	fed </s>	0
-0.5246681	dont </s>	0
-0.1992143	dishes </s>	0
-0.1992143	sew </s>	0
-0.1992143	sort </s>	0
-0.1992143	catch </s>	0
-0.1992143	goose </s>	0
-0.5246681	played </s>	0
-0.1992143	degree </s>	0
-0.1992143	dessert </s>	0
-0.1992143	welcome </s>	0
-0.1992143	cakes </s>	0
-0.1992143	bill </s>	0
-0.1992143	popularity </s>	0
-0.1992143	shin </s>	0
-0.1992143	kind </s>	0
-0.1992143	cork </s>	0
-0.1992143	weep </s>	0
-0.1992143	history </s>	0
-0.1992143	rid </s>	0
-0.1992143	quart </s>	0
-0.1992143	shot </s>	0
-0.1992143	knee </s>	0
-0.1992143	sheep </s>	0
-0.1992143	snort </s>	0
-0.1992143	pork </s>	0
-0.41782314	job </s>	0
-0.1992143	sketch </s>	0
-0.1992143	yourself </s>	0
-0.1992143	blend </s>	0
-0.1992143	shed </s>	0
-0.1992143	identical </s>	0
-0.1992143	maintenance </s>	0
-0.1992143	court </s>	0
-0.1992143	see </s>	0
-0.1992143	shop </s>	0
-0.41782314	heat </s>	0
-0.1992143	gone </s>	0
-0.1992143	gill </s>	0
-0.1992143	show </s>	0
-0.1992143	read </s>	0
-0.1992143	disappointing </s>	0
-0.1992143	tug </s>	0
-0.1992143	cash </s>	0
-0.1992143	stretch </s>	0
-0.1992143	steak </s>	0
-0.1992143	ray </s>	0
-0.1992143	fort </s>	0
-0.1992143	lee </s>	0
-0.1992143	hold </s>	0
-0.726639	with </s>	0
-0.1992143	since </s>	0
-0.5246681	life </s>	0
-0.6666874	all </s>	0
-0.1992143	made </s>	0
-0.1992143	shred </s>	0
-0.1992143	sight </s>	0
-0.1992143	pond </s>	0
-0.69137496	she </s>	0
-0.1992143	around </s>	0
-0.1992143	tort </s>	0
-0.1992143	meats </s>	0
-0.1992143	precious </s>	0
-0.5246681	eat </s>	0
-0.1992143	sport </s>	0
-0.1992143	activities </s>	0
-0.1992143	fined </s>	0
-0.1992143	regulations </s>	0
-0.1992143	resulted </s>	0
-0.1992143	valentines </s>	0
-0.1992143	geese </s>	0
-0.1992143	mill </s>	0
-0.1992143	present </s>	0
-0.1992143	reap </s>	0
-0.1992143	dill </s>	0
-0.1992143	lend </s>	0
-0.1992143	foe </s>	0
-0.1992143	loan </s>	0
-0.1992143	money </s>	0
-0.1992143	toe </s>	0
-0.1992143	threat </s>	0
-0.1992143	port </s>	0
-0.1992143	voice </s>	0
-0.1992143	rip </s>	0
-0.1992143	wise </s>	0
-0.41782314	full </s>	0
-0.1992143	stuff </s>	0
-0.1992143	bend </s>	0
-0.1992143	muck </s>	0
-0.1992143	night </s>	0
-0.1992143	snake </s>	0
-0.7108575	that </s>	0
-0.1992143	bumper </s>	0
-0.1992143	ash </s>	0
-0.41782314	fit </s>	0
-0.1992143	sheer </s>	0
-0.1992143	chablis </s>	0
-0.1992143	hash </s>	0
-0.41782314	come </s>	0
-0.1992143	favor </s>	0
-0.1992143	hail </s>	0
-0.1992143	code </s>	0
-0.1992143	excluded </s>	0
-0.1992143	beam </s>	0
-0.41782314	yet </s>	0
-0.1992143	competitors </s>	0
-0.1992143	knife </s>	0
-0.1992143	pete </s>	0
-0.1992143	skills </s>	0
-0.1992143	anywhere </s>	0
-0.1992143	gash </s>	0
-0.41782314	went </s>	0
-0.1992143	idea </s>	0
-0.1992143	fender </s>	0
-0.1992143	woe </s>	0
-0.1992143	member </s>	0
-0.1992143	beast </s>	0
-0.1992143	together </s>	0
-0.41782314	phone </s>	0
-0.33214265	more </s>	0
-0.1992143	guess </s>	0
-0.1992143	later </s>	0
-0.1992143	casually </s>	0
-0.1992143	seam </s>	0
-0.1992143	beep </s>	0
-0.1992143	vocal </s>	0
-0.5898982	big </s>	0
-0.1992143	investment </s>	0
-0.1992143	redhanded </s>	0
-0.1992143	house </s>	0
-0.1992143	mock </s>	0
-0.1992143	dock </s>	0
-0.41782314	sea </s>	0
-0.1992143	petticoats </s>	0
-0.1992143	ember </s>	0
-0.1992143	seat </s>	0
-0.1992143	am </s>	0
-0.1992143	food </s>	0
-0.1992143	reef </s>	0
-0.1992143	blaze </s>	0
-0.1992143	sender </s>	0
-0.1992143	acclaim </s>	0
-0.1992143	director </s>	0
-0.6666874	from </s>	0
-0.1992143	start </s>	0
-0.1992143	wonderful </s>	0
-0.1992143	renter </s>	0
-0.1992143	row </s>	0
-0.1992143	lender </s>	0
-0.1992143	ape </s>	0
-0.1992143	forks </s>	0
-0.1992143	tender </s>	0
-0.1992143	tea </s>	0
-0.1992143	fans </s>	0
-0.1992143	timber </s>	0
-0.1992143	leap </s>	0
-0.1992143	poor </s>	0
-0.1992143	tail </s>	0
-0.1992143	bender </s>	0
-0.1992143	ache </s>	0
-0.1992143	center </s>	0
-0.1992143	appetizers </s>	0
-0.1992143	beef </s>	0
-0.1992143	temper </s>	0
-0.63432515	had </s>	0
-0.1992143	ways </s>	0
-0.1992143	wax </s>	0
-0.1992143	pet </s>	0
-0.1992143	aid </s>	0
-0.1992143	knock </s>	0
-0.1992143	lies </s>	0
-0.1992143	cheese </s>	0
-0.1992143	hatch </s>	0
-0.1992143	grievances </s>	0
-0.1992143	bunch </s>	0
-0.1992143	appreciated </s>	0
-0.1992143	ease </s>	0
-0.1992143	add </s>	0
-0.1992143	gift </s>	0
-0.41782314	judge </s>	0
-0.41782314	state </s>	0
-0.1992143	education </s>	0
-0.1992143	states </s>	0
-0.1992143	peas </s>	0
-0.1992143	bun </s>	0
-0.1992143	punch </s>	0
-0.1992143	ail </s>	0
-0.1992143	tall </s>	0
-0.1992143	detail </s>	0
-0.1992143	pill </s>	0
-0.1992143	racks </s>	0
-0.1992143	construction </s>	0
-0.1992143	aches </s>	0
-0.1992143	lit </s>	0
-0.1992143	splinter </s>	0
-0.1992143	choose </s>	0
-0.1992143	duck </s>	0
-0.1992143	arm </s>	0
-0.1992143	actress </s>	0
-0.41782314	fell </s>	0
-0.1992143	diploma </s>	0
-0.1992143	charm </s>	0
-0.1992143	meeting </s>	0
-0.1992143	friends </s>	0
-0.1992143	mile </s>	0
-0.1992143	rakes </s>	0
-0.1992143	situation </s>	0
-0.1992143	items </s>	0
-0.1992143	alone </s>	0
-0.5246681	sat </s>	0
-0.1992143	relaxed </s>	0
-0.1992143	hall </s>	0
-0.1992143	sake </s>	0
-0.1992143	sand </s>	0
-0.1992143	box </s>	0
-0.1992143	incidents </s>	0
-0.1992143	chowder </s>	0
-0.1992143	degrees </s>	0
-0.1992143	ticks </s>	0
-0.1992143	disguise </s>	0
-0.1992143	sources </s>	0
-0.1992143	chap </s>	0
-0.1992143	lax </s>	0
-0.1992143	score </s>	0
-0.1992143	munch </s>	0
-0.1992143	symbols </s>	0
-0.1992143	end </s>	0
-0.41782314	pleasure </s>	0
-0.1992143	excitement </s>	0
-0.1992143	dial </s>	0
-0.1992143	low </s>	0
-0.1992143	cold </s>	0
-0.1992143	whip </s>	0
-0.41782314	expect </s>	0
-0.1992143	calls </s>	0
-0.1992143	ink </s>	0
-0.29490653	again </s>	0
-0.1992143	term </s>	0
-0.1992143	program </s>	0
-0.1992143	wide </s>	0
-0.1992143	rain </s>	0
-0.1992143	pant </s>	0
-0.41782314	win </s>	0
-0.1992143	find </s>	0
-0.41782314	cable </s>	0
-0.1992143	translated </s>	0
-0.1992143	past </s>	0
-0.1992143	burn </s>	0
-0.1992143	wealth </s>	0
-0.41782314	street </s>	0
-0.1992143	ahead </s>	0
-0.1992143	wine </s>	0
-0.1992143	eyes </s>	0
-0.1992143	weave </s>	0
-0.1992143	omitted </s>	0
-0.1992143	wart </s>	0
-0.1992143	wack </s>	0
-0.41782314	needed </s>	0
-0.1992143	dash </s>	0
-0.1992143	drifts </s>	0
-0.1992143	required </s>	0
-0.1992143	ball </s>	0
-0.41782314	myself </s>	0
-0.41782314	steep </s>	0
-0.1992143	increases </s>	0
-0.41782314	both </s>	0
-0.1992143	damaged </s>	0
-0.1992143	empty </s>	0
-0.41782314	here </s>	0
-0.1992143	obstacles </s>	0
-0.1992143	hid </s>	0
-0.1992143	why </s>	0
-0.1992143	luke </s>	0
-0.1992143	fold </s>	0
-0.1992143	pink </s>	0
-0.1992143	waste </s>	0
-0.41782314	porch </s>	0
-0.1992143	steps </s>	0
-0.1992143	carefully </s>	0
-0.5246681	when </s>	0
-0.1992143	report </s>	0
-0.1992143	sail </s>	0
-0.1992143	wipe </s>	0
-0.1992143	theory </s>	0
-0.1992143	urchins </s>	0
-0.1992143	intelligence </s>	0
-0.1992143	wives </s>	0
-0.1992143	game </s>	0
-0.1992143	docks </s>	0
-0.1992143	pole </s>	0
-0.1992143	stable </s>	0
-0.1992143	income </s>	0
-0.1992143	sacrifice </s>	0
-0.1992143	ban </s>	0
-0.1992143	page </s>	0
-0.1992143	accordion </s>	0
-0.1992143	paid </s>	0
-0.1992143	sprain </s>	0
-0.1992143	wall </s>	0
-0.1992143	fool </s>	0
-0.1992143	boat </s>	0
-0.1992143	ramp </s>	0
-0.1992143	tips </s>	0
-0.41782314	paint </s>	0
-0.1992143	water </s>	0
-0.1992143	beg </s>	0
-0.1992143	mat </s>	0
-0.1992143	sap </s>	0
-0.1992143	pain </s>	0
-0.1992143	mayonnaise </s>	0
-0.1992143	fall </s>	0
-0.1992143	mall </s>	0
-0.1992143	feel </s>	0
-0.1992143	panel </s>	0
-0.1992143	freely </s>	0
-0.1992143	vamp </s>	0
-0.1992143	bag </s>	0
-0.1992143	rat </s>	0
-0.1992143	check </s>	0
-0.1992143	space </s>	0
-0.1992143	naval </s>	0
-0.1992143	stall </s>	0
-0.1992143	spade </s>	0
-0.1992143	accident </s>	0
-0.1992143	damp </s>	0
-0.1992143	spray </s>	0
-0.1992143	peach </s>	0
-0.1992143	mabel </s>	0
-0.1992143	told </s>	0
-0.1992143	injured </s>	0
-0.41782314	practical </s>	0
-0.1992143	funnel </s>	0
-0.1992143	tap </s>	0
-0.1992143	expected </s>	0
-0.1992143	reach </s>	0
-0.1992143	file </s>	0
-0.1992143	walls </s>	0
-0.1992143	paste </s>	0
-0.1992143	foil </s>	0
-0.1992143	map </s>	0
-0.1992143	gable </s>	0
-0.1992143	bull </s>	0
-0.1992143	crawl </s>	0
-0.1992143	pale </s>	0
-0.1992143	creature </s>	0
-0.1992143	pocket </s>	0
-0.1992143	saddle </s>	0
-0.1992143	bowl </s>	0
-0.1992143	nap </s>	0
-0.1992143	table </s>	0
-0.1992143	sable </s>	0
-0.1992143	fable </s>	0
-0.1992143	mold </s>	0
-0.1992143	mole </s>	0
-0.1992143	bureaucracy </s>	0
-0.1992143	pace </s>	0
-0.1992143	call </s>	0
-0.1992143	predicament </s>	0
-0.1992143	screech </s>	0
-0.1992143	ladle </s>	0
-0.1992143	bash </s>	0
-0.1992143	portrait </s>	0
-0.1992143	instruments </s>	0
-0.1992143	machinery </s>	0
-0.1992143	final </s>	0
-0.1992143	giggling </s>	0
-0.1992143	owl </s>	0
-0.1992143	screen </s>	0
-0.1992143	teach </s>	0
-0.1992143	postponed </s>	0
-0.1992143	bog </s>	0
-0.1992143	rattle </s>	0
-0.41782314	sold </s>	0
-0.1992143	bought </s>	0
-0.1992143	bank </s>	0
-0.1992143	shawl </s>	0
-0.1992143	soul </s>	0
-0.1992143	preach </s>	0
-0.1992143	pull </s>	0
-0.1992143	boone </s>	0
-0.1992143	suppress </s>	0
-0.1992143	issue </s>	0
-0.1992143	cauliflower </s>	0
-0.1992143	badger </s>	0
-0.1992143	contrast </s>	0
-0.1992143	appliances </s>	0
-0.1992143	grain </s>	0
-0.1992143	auction </s>	0
-0.1992143	impress </s>	0
-0.1992143	occur </s>	0
-0.1992143	shore </s>	0
-0.1992143	book </s>	0
-0.1992143	bin </s>	0
-0.1992143	fast </s>	0
-0.1992143	fudge </s>	0
-0.1992143	rust </s>	0
-0.1992143	disclaimer </s>	0
-0.1992143	contract </s>	0
-0.1992143	limb </s>	0
-0.1992143	musk </s>	0
-0.1992143	rut </s>	0
-0.1992143	serve </s>	0
-0.1992143	grape </s>	0
-0.1992143	intact </s>	0
-0.1992143	beach </s>	0
-0.1992143	subtract </s>	0
-0.1992143	forgery </s>	0
-0.1992143	driven </s>	0
-0.1992143	shut </s>	0
-0.1992143	retract </s>	0
-0.1992143	accent </s>	0
-0.1992143	globe </s>	0
-0.1992143	grave </s>	0
-0.1992143	bust </s>	0
-0.1992143	depress </s>	0
-0.1992143	dusk </s>	0
-0.1992143	slim </s>	0
-0.1992143	updating </s>	0
-0.1992143	preserve </s>	0
-0.1992143	converge </s>	0
-0.1992143	booth </s>	0
-0.1992143	west </s>	0
-0.1992143	weight </s>	0
-0.1992143	lisp </s>	0
-0.1992143	colorful </s>	0
-0.1992143	tore </s>	0
-0.1992143	strange </s>	0
-0.1992143	refer </s>	0
-0.1992143	deserve </s>	0
-0.1992143	glib </s>	0
-0.1992143	grope </s>	0
-0.1992143	but </s>	0
-0.1992143	absurd </s>	0
-0.1992143	kittens </s>	0
-0.1992143	yards </s>	0
-0.1992143	grange </s>	0
-0.1992143	lid </s>	0
-0.1992143	brain </s>	0
-0.1992143	boast </s>	0
-0.1992143	observe </s>	0
-0.1992143	reserve </s>	0
-0.1992143	slid </s>	0
-0.1992143	list </s>	0
-0.1992143	conserve </s>	0
-0.1992143	repress </s>	0
-0.1992143	scorch </s>	0
-0.1992143	super </s>	0
-0.1992143	advisement </s>	0
-0.1992143	split </s>	0
-0.1992143	struggled </s>	0
-0.1992143	sitter </s>	0
-0.1992143	ok </s>	0
-0.1992143	actually </s>	0
-0.1992143	owe </s>	0
-0.1992143	jaw </s>	0
-0.1992143	cope </s>	0
-0.1992143	drop </s>	0
-0.1992143	shout </s>	0
-0.1992143	weekend </s>	0
-0.1992143	ignorance </s>	0
-0.1992143	relax </s>	0
-0.1992143	oh </s>	0
-0.41782314	min </s>	0
-0.1992143	paper </s>	0
-0.1992143	innocence </s>	0
-0.1992143	13th </s>	0
-0.1992143	man </s>	0
-0.1992143	chose </s>	0
-0.1992143	innocense </s>	0
-2.0996184	<s> pat	-1.6627579
-2.3082888	<s> up	-1.447158
-0.6003135	warm up	-0.86530143
-0.6003135	go up	-0.66900676
-0.30015588	speak up	-0.86530143
-0.30015588	shook up	-0.30103
-0.30015588	tear up	-0.30103
-2.106067	<s> meat	-1.6564176
-2.2679455	<s> know	-1.4960066
-1.5504457	we know	-0.90309
-0.6014053	didnt know	-0.72699875
-1.7967595	<s> he	-0.91605496
-1.0728822	well he	-0.30103
-0.5999502	himself he	-0.30103
-0.8988805	him he	-1.0543576
-0.9947445	this he	-0.90309
-0.5999502	yet he	-0.86530143
-0.5999502	so he	-0.42596874
-1.552576	he slowly	-1.2218487
-0.30082214	slowly takes	-1.2218487
-2.0929723	<s> a	-0.8559109
-0.2954466	takes a	-1.2218487
-1.1445597	is a	-0.79394555
-0.5909642	write a	-0.66900676
-0.2954466	allow a	-0.30103
-0.8811747	him a	-0.42596874
-0.761612	did a	-0.86530143
-1.0236276	was a	-0.75332767
-1.1358672	for a	-1
-0.5909642	definitely a	-1
-1.1084728	its a	-0.8239087
-0.82855874	on a	-0.7781512
-1.2074323	have a	-0.7781512
-0.2954466	pick a	-0.90309
-0.5909642	get a	-0.90309
-1.3748536	are a	-0.30103
-0.2954466	toward a	-0.86530143
-0.4687729	makes a	-0.845098
-1.4843199	and a	-0.30103
-0.2954466	take a	-0.86530143
-0.2954466	covers a	-1.1249387
-1.0467095	from a	-0.30103
-0.68514395	had a	-0.60206
-1.0467095	as a	-0.7781512
-0.2954466	wore a	-0.7781512
-0.5909642	such a	-0.5228787
-0.2954466	even a	-0.8239087
-0.5909642	expect a	-0.7781512
-0.2954466	deserves a	-0.5228787
-0.5909642	paint a	-0.42596874
-0.2954466	postdate a	-0.30103
-0.761612	or a	-0.42596874
-2.651312	<s> short	-1.1249387
-1.9492911	a short	-1.2218487
-1.655288	is short	-0.86530143
-0.7772004	short walk	-1.2218487
-0.3007128	could walk	-0.30103
-2.3663905	<s> in	-1.0543576
-0.59705436	walk in	-1.2218487
-1.6084071	is in	-0.30103
-0.29851997	modern in	-1.2388821
-0.59705436	himself in	-0.30103
-1.4409138	it in	-0.66900676
-0.29851997	damage in	-0.86530143
-0.29851997	participate in	-0.86530143
-0.29851997	ruled in	-0.7781512
-0.29851997	upbringing in	-0.8239087
-0.29851997	fire in	-0.8239087
-0.29851997	mistakes in	-0.66900676
-0.29851997	sculpture in	-0.30103
-0.59705436	deal in	-0.42596874
-0.29851997	measured in	-0.30103
-1.5398666	<s> the	-0.79679334
-0.79023117	in the	-0.85733247
-0.5906086	open the	-0.97003675
-1.4627169	to the	-0.6368221
-0.97191834	at the	-0.30103
-1.087886	of the	-0.60206
-1.1346215	for the	-0.86530143
-0.44025096	on the	-0.63984853
-0.29526654	covered the	-0.9378521
-0.6847022	about the	-0.8239087
-0.8804813	only the	-0.86530143
-1.372696	are the	-0.8239087
-0.29526654	prefer the	-0.86530143
-1.2059637	with the	-0.7781512
-0.5906086	thats the	-0.30103
-1.0456947	all the	-0.5228787
-0.29526654	across the	-0.86530143
-0.29526654	remains the	-0.86530143
-0.97191834	by the	-0.72699875
-0.29526654	mail the	-0.8239087
-0.5906086	than the	-0.30103
-0.76108533	from the	-0.86530143
-0.29526654	neglect the	-0.7781512
-0.29526654	compounded the	-0.66900676
-0.5906086	judge the	-0.9378521
-0.29526654	housing the	-0.8239087
-0.29526654	order the	-0.66900676
-0.29526654	noted the	-0.5228787
-0.29526654	hiring the	-0.42596874
-0.29526654	hides the	-0.42596874
-0.29526654	describe the	-0.30103
-0.29526654	lamps the	-0.30103
-0.29526654	delight the	-0.30103
-2.1303248	the open	-1.2218487
-0.6014259	please open	-0.97003675
-1.971966	<s> air	-1.7876966
-0.6014259	open air	-1.2218487
-3.4471922	<s> each	-0.42596874
-0.6014053	air each	-1.2218487
-0.30070257	challenge each	-0.66900676
-0.7766237	each day	-1.2218487
-0.7766237	one day	-0.90309
-0.7766237	every day	-0.66900676
-0.30052027	twelfth day	-0.86530143
-2.2164242	<s> swarm	-1.5481846
-1.9883626	<s> no	-1.7683914
-1.5198625	was no	-0.7781512
-1.249084	have no	-0.72699875
-0.300338	requires no	-0.7781512
-0.99655104	had no	-0.72699875
-2.2081275	<s> storm	-1.5563025
-2.289207	<s> dug	-1.4771212
-2.0455225	<s> feet	-1.7160033
-2.0288908	<s> beat	-1.7323937
-2.1841483	<s> rake	-1.5797836
-1.9825071	<s> sip	-1.7781513
-2.2604656	<s> bit	-1.50515
-2.1469095	<s> chair	-1.6163005
-2.258615	<s> one	-1.50515
-0.7771696	out one	-0.90309
-0.9017816	only one	-0.86530143
-2.2231772	<s> two	-1.3180634
-0.9017816	only two	-0.42596874
-0.30070257	called two	-0.86530143
-2.2496362	<s> spark	-1.2922561
-0.6014259	spark spark	-0.30103
-2.297377	<s> dark	-1.4673615
-0.9984164	her dark	-0.8239087
-2.2423096	<s> bat	-1.5228788
-2.1614242	<s> sheet	-1.60206
-2.2319186	<s> warm	-1.5314789
-1.8460573	to warm	-0.86530143
-2.1919951	<s> ship	-1.5720967
-2.3889802	<s> goat	-1.3802112
-2.3199863	<s> left	-1.447158
-2.3094823	<s> sticks	-1.4573772
-2.092112	<s> slip	-1.6690068
-0.3007128	ah slip	-0.30103
-2.2698362	<s> floor	-1.4960066
-2.4419317	<s> born	-1.3290588
-2.3510215	<s> right	-1.4149734
-0.3007128	married right	-0.42596874
-2.0984495	<s> knew	-1.6627579
-1.5506283	we knew	-0.66900676
-3.5397334	<s> well	-0.30103
-0.89960396	day well	-0.86530143
-0.99564683	do well	-0.90309
-0.89960396	very well	-0.8239087
-0.6003135	went well	-0.86530143
-0.30015588	doing well	-0.66900676
-2.6167955	<s> is	-1.0543576
-1.2285304	he is	-0.8325089
-0.5959734	attitude is	-1.0280287
-0.29797602	travel is	-0.90309
-0.98494047	this is	-0.90309
-0.69137496	there is	-0.6532125
-0.4725483	life is	-0.86530143
-1.1251879	she is	-0.30103
-0.29797602	hair is	-0.8239087
-0.29797602	plot is	-0.86530143
-0.29797602	coast is	-0.7781512
-0.5959734	street is	-0.5228787
-0.29797602	attendance is	-0.66900676
-0.29797602	highway is	-0.66900676
-0.29797602	drift is	-0.66900676
-0.29797602	future is	-0.30103
-0.29797602	cement is	-0.30103
-0.29797602	nothing is	-0.30103
-1.6580018	is nearly	-0.30103
-0.30082214	nearly ninety	-0.30103
-2.350825	<s> three	-1.4149734
-0.30070257	ninety three	-0.30103
-0.6014053	saw three	-0.30103
-0.7771696	three years	-0.30103
-1.472235	for years	-0.8239087
-0.30070257	last years	-0.72699875
-2.725742	<s> old	-0.75332767
-0.7771696	years old	-0.30103
-1.5736036	and old	-0.42596874
-2.1192589	<s> feed	-1.6434526
-2.2794137	<s> park	-1.4866666
-2.5358686	<s> grandfather	-1.2388821
-0.30082214	grandfather likes	-1.2388821
-2.6956525	<s> to	-0.7781512
-0.29526654	likes to	-1.2388821
-0.8804813	him to	-0.90309
-0.29526654	willing to	-0.97003675
-0.5906086	time to	-0.66900676
-0.29526654	fun to	-0.9378521
-1.2059637	have to	-0.72699875
-0.29526654	someplace to	-0.90309
-0.5906086	want to	-0.30103
-0.29526654	expects to	-1.0280287
-0.29526654	greg to	-0.90309
-0.5906086	cat to	-0.90309
-0.5906086	able to	-1
-0.8804813	what to	-0.30103
-0.29526654	decision to	-0.86530143
-0.76108533	like to	-0.86530143
-0.29526654	scream to	-0.86530143
-0.5906086	still to	-0.7781512
-0.29526654	dough to	-0.69897
-0.29526654	common to	-0.86530143
-0.29526654	desire to	-0.72699875
-0.29526654	met to	-0.9378521
-0.29526654	trying to	-0.86530143
-0.29526654	wanted to	-0.72699875
-0.29526654	try to	-0.72699875
-0.29526654	hard to	-0.5563025
-0.29526654	status to	-0.5228787
-0.29526654	appealing to	-0.42596874
-0.29526654	illegal to	-0.30103
-0.29526654	longer to	-0.30103
-0.29526654	muttering to	-0.42596874
-0.29526654	easy to	-0.42596874
-0.29526654	impossible to	-0.42596874
-2.9681723	<s> be	-0.72699875
-1.361367	to be	-1
-0.8395168	will be	-0.8016324
-0.45895123	can be	-0.7377226
-0.59886193	may be	-0.66900676
-0.29942802	flowers be	-0.66900676
-0.29942802	must be	-0.42596874
-0.29942802	should be	-0.30103
-0.773363	or be	-0.30103
-0.29942802	cannot be	-0.30103
-1.552576	be modern	-1.2388821
-0.8052924	in his	-0.9461246
-1.5957599	of his	-0.42596874
-0.9989617	his language	-1.2388821
-1.9825071	<s> yes	-1.7781513
-1.552576	he dressed	-0.30103
-0.3007128	dressed himself	-0.30103
-0.6014259	crucified himself	-0.30103
-3.4890203	<s> an	-0.30103
-1.4905918	in an	-0.30103
-1.2458578	be an	-0.75332767
-1.2458578	have an	-0.30103
-0.7749903	like an	-0.42596874
-0.5999502	tell an	-0.30103
-0.29997382	provoked an	-0.30103
-1.2024598	an ancient	-0.30103
-0.3007128	ancient black	-0.30103
-1.5957599	of black	-0.8239087
-0.6016444	black frock	-0.30103
-2.6517043	<s> coat	-1.1249387
-0.3007128	frock coat	-0.30103
-2.1764407	<s> ate	-1.5873368
-2.3180466	<s> bad	-1.447158
-0.7772004	few bad	-0.7781512
-2.3417888	<s> cheer	-1.4259686
-2.175046	<s> write	-1.5873368
-0.6014259	through write	-0.66900676
-2.3647437	<s> tile	-1.4036924
-4.002975	<s> sweet	-0.30103
-2.3307507	<s> suit	-1.4366926
-2.2872303	<s> much	-1.4771212
-1.4425958	are much	-0.7781512
-0.6014053	through much	-0.30103
-2.2604656	<s> rock	-1.50515
-2.2335086	<s> knot	-1.5314789
-2.3094823	<s> shoot	-1.4573772
-3.4890203	<s> will	-0.30103
-1.537673	he will	-0.30103
-1.6390922	i will	-0.30103
-0.29997382	families will	-0.86530143
-1.138788	she will	-0.66900676
-1.2458578	they will	-0.86530143
-0.29997382	contributions will	-0.72699875
-1.144675	will allow	-0.30103
-1.9545308	a rare	-0.30103
-0.30082214	rare lilyrare	-0.30103
-0.30082214	lilyrare lie	-0.30103
-2.3531146	<s> boot	-1.4149734
-2.1841483	<s> witch	-1.5797836
-2.2335086	<s> lip	-1.5314789
-2.007662	<s> sigh	-1.7533276
-2.2248824	<s> side	-1.5399121
-2.2319186	<s> four	-1.5314789
-1.8401378	the four	-0.845098
-2.195932	<s> him	-1.5642715
-0.6010411	crucified him	-1.0543576
-0.6010411	want him	-0.90309
-0.6010411	saw him	-0.42596874
-2.3075888	<s> sell	-1.4573772
-0.3007128	hell sell	-0.72699875
-2.3510215	<s> five	-1.4149734
-0.9984164	had five	-0.30103
-2.1764407	<s> pit	-1.5873368
-2.3647437	<s> zero	-1.4036924
-2.1614242	<s> fat	-1.60206
-2.289207	<s> spit	-1.4771212
-2.2604656	<s> six	-1.50515
-2.289207	<s> hat	-1.4771212
-3.8016002	<s> bran	-0.30103
-2.1577125	<s> at	-1.30103
-1.5228933	was at	-0.30103
-0.30052027	died at	-0.8239087
-0.6010411	sold at	-0.30103
-2.3647437	<s> seven	-1.4036924
-2.0181468	<s> leak	-1.7429868
-2.3647437	<s> eight	-1.4036924
-2.3094823	<s> fill	-1.1563472
-3.8016002	<s> bite	-0.30103
-2.5537086	<s> harm	-1.2218487
-2.3647437	<s> chop	-1.4036924
-2.5881298	<s> did	-0.8846066
-0.3007128	unit did	-0.86530143
-0.7775279	did dad	-1.0280287
-2.903489	<s> do	-0.86530143
-1.8330904	to do	-0.90309
-0.300338	dad do	-1.0280287
-0.7760786	dont do	-0.86530143
-0.90032864	very do	-0.30103
-3.0264142	<s> academic	-0.7781512
-0.9984164	do academic	-1.0280287
-0.6016444	academic bidding	-1.0280287
-3.7414892	<s> good	-0.30103
-1.2618796	a good	-0.9120448
-0.7771696	look good	-0.8239087
-1.0772816	good attitude	-1.0280287
-0.3007128	upbeat attitude	-0.30103
-1.6580018	is unbeatable	-1.0280287
-2.8223314	<s> shell	-0.97003675
-2.3647437	<s> sin	-1.4036924
-2.73119	<s> ticker	-1.0543576
-2.1377714	the hotel	-0.9294189
-0.6016444	hotel owner	-0.80618
-0.6016444	owner shrugged	-0.97003675
-2.1377714	the pair	-1
-0.769053	much of	-0.30103
-0.29797602	pair of	-1
-0.29797602	peck of	-0.90309
-0.769053	out of	-0.42596874
-1.4062412	are of	-0.60206
-0.5959734	full of	-0.86530143
-0.29797602	fiercest of	-0.86530143
-0.29797602	minute of	-0.8239087
-0.29797602	number of	-0.8239087
-0.29797602	lack of	-0.66900676
-0.5959734	state of	-0.9378521
-0.29797602	largest of	-0.8239087
-0.29797602	pockets of	-0.8239087
-0.5959734	confirmation of	-0.7781512
-0.29797602	lot of	-0.5228787
-0.29797602	part of	-0.66900676
-0.29797602	name of	-0.30103
-0.29797602	lots of	-0.30103
-1.5979214	of shoes	-1
-2.910462	<s> was	-0.7781512
-0.2992463	shoes was	-1
-0.9911537	it was	-0.7781512
-1.6234787	i was	-0.7781512
-0.9911537	there was	-0.8239087
-1.1337931	she was	-0.38021123
-0.2992463	bracelet was	-0.86530143
-0.2992463	luck was	-0.7781512
-0.2992463	pickpocket was	-0.9378521
-0.2992463	range was	-0.72699875
-0.2992463	display was	-0.42596874
-2.1303248	the new	-0.66900676
-1.526118	was new	-1
-2.789779	<s> zip	-1
-1.5408311	he really	-1.1026623
-1.6430849	is really	-0.86530143
-1.5168527	was really	-0.30103
-0.30015588	wed really	-0.90309
-0.30015588	nobody really	-1.0280287
-0.30015588	seemed really	-0.42596874
-1.0779355	really crucified	-0.8808136
-1.2534052	he nailed	-1.1026623
-2.1284614	<s> it	-0.91733044
-0.9911537	do it	-0.30103
-1.5677072	of it	-0.8239087
-0.2992463	nailed it	-1.1026623
-1.2394767	have it	-0.86530143
-1.4511052	you it	-0.7781512
-0.2992463	kept it	-0.9378521
-0.59849983	confirmation it	-0.66900676
-0.2992463	handle it	-0.66900676
-0.2992463	done it	-0.66900676
-0.2992463	thought it	-0.30103
-1.4434394	it for	-1.1026623
-0.47363305	look for	-0.90309
-0.29870147	experiment for	-0.97003675
-1.4434394	you for	-0.86530143
-0.7712027	place for	-0.7781512
-0.29870147	friend for	-0.8239087
-0.29870147	prepared for	-0.72699875
-0.29870147	clams for	-0.72699875
-0.29870147	mask for	-0.7781512
-0.29870147	wife for	-0.42596874
-0.29870147	ready for	-0.42596874
-0.29870147	trips for	-0.42596874
-0.29870147	demand for	-0.30103
-0.29870147	wait for	-0.30103
-1.9545308	a yard	-1.1026623
-0.30082214	yard loss	-1.1026623
-2.1377714	the owners	-0.97003675
-0.30082214	owners regularly	-0.97003675
-2.9746184	<s> look	-0.8239087
-0.30070257	regularly look	-0.97003675
-0.6014053	didnt look	-0.8239087
-1.4740136	for plumbing	-0.97003675
-3.084171	<s> leaks	-0.72699875
-0.3007128	plumbing leaks	-0.97003675
-2.789779	<s> nest	-1
-2.8223314	<s> xray	-0.97003675
-2.8223314	<s> lock	-0.97003675
-2.789779	<s> bitter	-1
-2.8156214	<s> im	-0.97003675
-0.6014053	think im	-0.86530143
-0.30070257	now im	-0.86530143
-0.7775279	im willing	-0.97003675
-1.8499112	to experiment	-0.97003675
-2.1303248	the first	-0.97003675
-0.9984164	at first	-0.30103
-1.526118	was time	-0.66900676
-0.6014259	first time	-0.97003675
-2.8223314	<s> nut	-0.97003675
-2.816194	<s> please	-0.97003675
-1.4723876	you please	-0.30103
-2.1377714	the window	-0.97003675
-0.30082214	window quickly	-0.97003675
-1.3593433	is definitely	-0.9378521
-1.9545308	a notch	-1
-2.1303248	the above	-0.7781512
-0.3007128	notch above	-1
-0.6016444	above us	-1
-2.8958201	<s> zulu	-0.90309
-2.587791	<s> its	-0.58357656
-0.6014053	think its	-0.8239087
-0.30070257	maybe its	-0.30103
-1.144675	its fun	-0.9378521
-1.8499112	to roast	-0.9378521
-0.30082214	roast marshmallows	-0.9378521
-0.29997382	marshmallows on	-0.9378521
-0.7749903	ride on	-0.30103
-0.29997382	twilight on	-0.86530143
-0.29997382	outdoors on	-0.66900676
-0.29997382	misplaced on	-0.42596874
-0.29997382	picnic on	-0.30103
-0.29997382	put on	-0.30103
-2.9290895	<s> gas	-0.86530143
-1.9492911	a gas	-0.9378521
-0.7771696	years gas	-0.72699875
-0.7775279	gas burner	-0.9378521
-2.8575232	<s> whitecapped	-0.9378521
-0.30082214	whitecapped waves	-0.9378521
-0.30082214	waves covered	-0.9378521
-2.1377714	the entire	-0.9378521
-0.30082214	entire bay	-0.9378521
-2.8958201	<s> then	-0.90309
-0.30082214	then wed	-0.90309
-2.9980285	<s> have	-0.72699875
-1.0718044	well have	-0.86530143
-1.8148417	to have	-0.86530143
-1.0718044	really have	-0.90309
-1.1668897	you have	-1.0280287
-1.2442538	we have	-0.845098
-1.0718044	all have	-0.8239087
-0.29979178	tribes have	-0.30103
-1.2534052	have someplace	-0.90309
-1.552576	to go	-0.8016324
-2.6795735	<s> bed	-1.1026623
-2.9378233	<s> flicker	-0.86530143
-2.3773546	<s> you	-0.8782664
-1.1325532	will you	-0.30103
-0.77228147	did you	-0.66900676
-1.3957082	can you	-0.42596874
-0.29906458	asked you	-0.86530143
-0.59813803	way you	-0.66900676
-0.47417647	if you	-0.60206
-0.59813803	sure you	-0.8239087
-0.59813803	tell you	-0.7781512
-0.77228147	when you	-0.66900676
-0.29906458	surrounds you	-0.30103
-0.29906458	lead you	-0.30103
-1.1745347	you want	-0.748188
-2.8958201	<s> sicker	-0.90309
-2.7594972	<s> nobody	-1.0280287
-1.0779355	really expects	-1.0280287
-1.8499112	to evacuate	-1.0280287
-2.9378233	<s> dice	-0.86530143
-2.5881298	<s> help	-0.8846066
-1.4118118	can help	-1
-0.7775279	help greg	-0.90309
-1.8499112	to pick	-0.90309
-1.9545308	a peck	-0.90309
-1.5979214	of potatoes	-0.90309
-2.9378233	<s> glitter	-0.86530143
-2.3307507	<s> fork	-1.4366926
-2.8885605	<s> get	-0.90309
-1.8460573	to get	-0.30103
-1.9545308	a calico	-0.90309
-3.084171	<s> cat	-0.72699875
-0.3007128	calico cat	-0.90309
-1.8460573	to keep	-0.90309
-0.3007128	discussions keep	-0.86530143
-1.552576	he took	-0.8016324
-2.9462788	<s> me	-0.8239087
-1.8330904	to me	-0.42596874
-0.60067713	took me	-0.90309
-1.249084	with me	-0.9378521
-0.60067713	fit me	-0.5228787
-0.99836516	me out	-0.90309
-0.9017816	things out	-0.72699875
-0.6014053	fell out	-0.42596874
-2.8223314	<s> litter	-0.97003675
-2.5723126	<s> red	-1.20412
-2.789779	<s> being	-1
-3.4496493	<s> able	-0.42596874
-0.3007128	being able	-1
-1.8499112	to dance	-1
-3.1917422	<s> can	-0.42596874
-1.4511052	you can	-0.9378521
-0.2992463	dance can	-1
-1.5252652	we can	-0.90309
-1.6234787	i can	-0.60206
-0.59849983	basketball can	-0.7781512
-0.2992463	trespassers can	-0.86530143
-0.59849983	gold can	-0.7781512
-0.8959986	also can	-0.7781512
-0.59849983	work can	-0.30103
-0.2992463	standby can	-0.30103
-0.7772004	help too	-1
-0.3007128	drugs too	-0.30103
-2.4562435	<s> hand	-1.3152704
-2.8958201	<s> rest	-0.90309
-2.5723126	<s> those	-0.90309
-0.6016444	those musicians	-1
-0.30082214	musicians harmonize	-1
-0.30082214	harmonize marvelously	-1
-2.8508718	<s> most	-0.71600336
-2.1303248	the most	-0.86530143
-2.784082	<s> young	-0.69897
-0.7772004	most young	-0.86530143
-2.483523	<s> rise	-1.2863067
-0.7772004	young rise	-0.86530143
-0.6016444	rise early	-0.86530143
-0.30070257	early every	-0.86530143
-0.30070257	loved every	-0.8239087
-0.30070257	meals every	-0.66900676
-0.7775279	every morning	-0.86530143
-2.8223314	<s> wicker	-0.97003675
-2.8575232	<s> sing	-0.9378521
-2.8508718	<s> quicker	-0.9378521
-0.7772004	much quicker	-0.7781512
-2.8575232	<s> best	-0.9378521
-2.8575232	<s> sierra	-0.9378521
-2.8575232	<s> romeo	-0.9378521
-2.8958201	<s> travel	-0.90309
-1.6471146	is about	-0.90309
-0.300338	discover about	-0.86530143
-1.0750457	all about	-0.86530143
-0.300338	talked about	-0.72699875
-0.300338	brought about	-0.90309
-2.78355	<s> only	-0.69897
-2.1296313	the only	-0.90309
-1.5259454	was only	-0.86530143
-0.9022591	only leisure	-0.90309
-1.8460131	<s> we	-0.7853298
-0.7760786	know we	-0.90309
-0.60067713	knew we	-0.66900676
-0.300338	leisure we	-0.90309
-0.300338	suggested we	-0.8239087
-2.5323863	<s> this	-0.81291336
-1.5955572	of this	-0.86530143
-0.30070257	play this	-0.30103
-1.9492911	a place	-0.7781512
-1.0772202	good place	-0.90309
-0.30070257	gently place	-0.30103
-0.7775279	place though	-0.90309
-0.30082214	though small	-0.90309
-2.4122386	<s> nice	-1.3553877
-1.949739	a nice	-0.86530143
-2.8958201	<s> liquor	-0.90309
-2.789779	<s> chip	-1
-2.9290895	<s> ride	-0.86530143
-0.6014053	walk ride	-0.30103
-1.4117098	can ride	-0.9378521
-0.7775279	ride stagecoach	-0.9378521
-2.5685265	<s> some	-0.90309
-0.6014053	definitely some	-0.86530143
-1.5736036	and some	-0.42596874
-0.9022591	some hotels	-0.9378521
-2.8859065	<s> are	-0.7781512
-1.4459796	you are	-0.66900676
-1.5191919	we are	-0.8239087
-0.29888293	hotels are	-0.9378521
-0.29888293	reflexes are	-0.9378521
-1.5407014	and are	-0.30103
-0.47390467	people are	-0.7781512
-1.2363209	they are	-0.42596874
-0.29888293	subtraction are	-0.86530143
-0.29888293	apartments are	-0.8239087
-0.29888293	bongos are	-0.42596874
-0.29888293	wages are	-0.30103
-0.29888293	costumes are	-0.30103
-1.4442569	are available	-0.9378521
-0.30082214	available nearby	-0.9378521
-2.5917494	<s> neat	-1.1856365
-2.5723126	<s> dead	-1.20412
-2.8575232	<s> whisky	-0.9378521
-1.7627947	<s> i	-0.738898
-0.90105456	what i	-0.30103
-0.6010411	than i	-0.7781512
-1.0761316	as i	-0.64345264
-1.6580018	i called	-0.86530143
-0.9022591	two different	-0.86530143
-0.30082214	different painters	-0.86530143
-2.9378233	<s> stimulating	-0.86530143
-0.30082214	stimulating discussions	-0.86530143
-0.6016444	keep students	-0.86530143
-0.30082214	students attention	-0.86530143
-0.7775279	help celebrate	-0.86530143
-0.300338	celebrate your	-0.86530143
-0.7760786	eat your	-0.66900676
-0.300338	guarantees your	-0.7781512
-0.300338	upgrade your	-0.5228787
-0.300338	reflect your	-0.5228787
-0.7772004	four brothers	-0.86530143
-0.9984164	your brothers	-0.86530143
-0.6016444	brothers success	-0.86530143
-2.9378233	<s> lake	-0.86530143
-2.8575232	<s> thread	-0.9378521
-2.9378233	<s> fed	-0.86530143
-2.9290895	<s> dont	-0.86530143
-1.655288	i dont	-0.8239087
-0.7771696	just dont	-0.30103
-0.9989617	do charlies	-0.86530143
-0.30082214	charlies dirty	-0.86530143
-0.30082214	dirty dishes	-0.86530143
-2.4280763	<s> sew	-1.3424227
-2.7046154	<s> sort	-1.0791812
-2.9378233	<s> catch	-0.86530143
-2.9378233	<s> goose	-0.86530143
-1.5504457	he played	-0.86530143
-1.5736036	and played	-0.66900676
-0.30070257	has played	-0.8239087
-3.0264142	<s> basketball	-0.7781512
-0.7772004	played basketball	-0.86530143
-2.3827305	<s> there	-1.0791812
-0.6010411	basketball there	-0.86530143
-0.7766237	sat there	-0.42596874
-0.30052027	unfortunately there	-0.30103
-0.9989617	there while	-0.86530143
-0.3007128	while working	-0.86530143
-0.3007128	credit working	-0.5228787
-0.6016444	working toward	-0.86530143
-1.9545308	a law	-0.86530143
-0.30082214	law degree	-0.86530143
-2.9378233	<s> coconut	-0.86530143
-0.30082214	coconut cream	-0.86530143
-0.30082214	cream pie	-0.86530143
-0.30070257	pie makes	-0.86530143
-1.1438409	she makes	-0.42596874
-0.30070257	straw makes	-0.8239087
-0.6016444	nice dessert	-0.86530143
-1.552576	we selected	-0.86530143
-0.30082214	selected places	-0.86530143
-0.7772004	know where	-0.72699875
-0.3007128	places where	-0.86530143
-0.6016444	where families	-0.86530143
-1.552576	be welcome	-0.86530143
-2.9378233	<s> cakes	-0.86530143
-2.4016252	<s> bill	-1.3679768
-0.7775279	most accomplished	-0.86530143
-0.30082214	accomplished artists	-0.86530143
-0.30082214	artists obtain	-0.86530143
-0.30082214	obtain popularity	-0.86530143
-2.9378233	<s> shin	-0.86530143
-0.9022591	some prefer	-0.86530143
-2.1377714	the traditional	-0.86530143
-0.30082214	traditional steel	-0.86530143
-0.30082214	steel kind	-0.86530143
-2.6558971	<s> cork	-1.1249387
-2.7046154	<s> weep	-1.0791812
-2.9378233	<s> biblical	-0.86530143
-0.30082214	biblical scholars	-0.86530143
-0.30082214	scholars argue	-0.86530143
-0.30082214	argue history	-0.86530143
-2.9378233	<s> rid	-0.86530143
-2.9378233	<s> quart	-0.86530143
-2.9378233	<s> shot	-0.86530143
-0.9022591	some ligament	-0.86530143
-0.30082214	ligament damage	-0.86530143
-0.9989617	his knee	-0.86530143
-2.9378233	<s> sheep	-0.86530143
-2.9378233	<s> snort	-0.86530143
-2.9378233	<s> pork	-0.86530143
-1.5007304	in fact	-0.86530143
-2.1303248	the fact	-0.5228787
-0.6014053	fact our	-0.86530143
-0.9527709	with our	-0.72699875
-0.30070257	obtaining our	-0.7781512
-0.9022591	our whole	-0.86530143
-0.30082214	whole defensive	-0.86530143
-0.30082214	defensive unit	-0.86530143
-2.1303248	the job	-0.7781512
-1.0772816	good job	-0.86530143
-2.9378233	<s> sketch	-0.86530143
-2.9378233	<s> who	-0.86530143
-0.30082214	who knows	-0.86530143
-0.30070257	knows what	-0.86530143
-0.6014053	thats what	-0.71600336
-0.6014053	sure what	-0.30103
-0.9022591	what youll	-0.86530143
-0.30082214	youll discover	-0.86530143
-0.9989617	about yourself	-0.86530143
-2.4710433	<s> blend	-1.30103
-2.9378233	<s> shed	-0.86530143
-1.4723876	it looked	-0.42596874
-0.6014259	brothers looked	-0.86530143
-0.6016444	looked identical	-0.86530143
-2.9298334	<s> critical	-0.86530143
-0.3007128	gained critical	-0.90309
-0.6016444	critical equipment	-0.86530143
-0.30070257	equipment needs	-0.86530143
-0.30070257	household needs	-0.30103
-0.30070257	plant needs	-0.30103
-0.7775279	needs proper	-0.86530143
-0.30082214	proper maintenance	-0.86530143
-2.7046154	<s> court	-1.0791812
-2.5022476	<s> see	-1.2710668
-2.9378233	<s> shop	-0.86530143
-2.5503912	<s> heat	-1.2218487
-1.5957599	of heat	-0.66900676
-2.8575232	<s> suddenly	-0.9378521
-3.5971613	<s> my	-0.30103
-1.0750457	up my	-0.86530143
-1.5884255	of my	-0.66900676
-0.300338	suddenly my	-0.9378521
-0.300338	change my	-0.72699875
-0.9989617	my reflexes	-0.9378521
-1.4442569	are gone	-0.9378521
-2.8575232	<s> gill	-0.9378521
-2.9378233	<s> show	-0.86530143
-2.8508718	<s> read	-0.9378521
-1.4118118	can read	-0.8239087
-2.1377714	the results	-0.9378521
-3.0697505	<s> were	-0.66900676
-0.29997382	results were	-0.9378521
-1.2458578	they were	-0.72699875
-0.29997382	cars were	-0.5228787
-0.7749903	or were	-0.30103
-0.29997382	paintings were	-0.30103
-0.29997382	cases were	-0.30103
-1.5472171	be very	-0.30103
-1.5228933	was very	-0.7781512
-0.7766237	played very	-0.8239087
-1.1425722	were very	-0.9378521
-0.9022591	very disappointing	-0.9378521
-2.9378233	<s> tug	-0.86530143
-2.4863653	<s> cash	-1.2863067
-2.9378233	<s> stretch	-0.86530143
-2.5022476	<s> steak	-1.2710668
-2.9378233	<s> ray	-0.86530143
-2.9378233	<s> fort	-0.86530143
-2.9378233	<s> lee	-0.86530143
-2.5537086	<s> hold	-1.2218487
-2.8575232	<s> ive	-0.9378521
-0.30082214	ive kept	-0.9378521
-3.1619327	<s> with	-0.5228787
-1.4562922	it with	-0.9378521
-0.2996099	compliance with	-0.9378521
-0.2996099	pleased with	-0.7781512
-0.2996099	popular with	-0.7781512
-0.2996099	laced with	-0.86530143
-0.2996099	disappointed with	-0.66900676
-0.2996099	canteen with	-0.42596874
-0.59922445	deal with	-0.42596874
-0.9989617	me ever	-0.9378521
-0.30082214	ever since	-0.9378521
-2.789779	<s> thats	-0.7781512
-2.9290895	<s> life	-0.86530143
-0.9017816	what life	-0.86530143
-0.99836516	my life	-0.66900676
-2.99375	<s> all	-0.7781512
-1.0750457	really all	-0.86530143
-1.249084	we all	-0.8016324
-1.1413071	were all	-0.66900676
-0.300338	received all	-0.5228787
-0.7775279	one decision	-0.86530143
-1.552576	be made	-0.86530143
-2.9378233	<s> shred	-0.86530143
-2.9378233	<s> sight	-0.86530143
-2.1377714	the fish	-0.86530143
-0.30082214	fish swam	-0.86530143
-0.30082214	swam across	-0.86530143
-2.1377714	the pond	-0.86530143
-2.2512927	<s> she	-0.69019604
-1.144675	she doesnt	-0.86530143
-1.655288	i like	-0.42596874
-0.6014053	looked like	-0.42596874
-0.30070257	doesnt like	-0.86530143
-1.4740136	it hanging	-0.86530143
-0.30082214	hanging around	-0.86530143
-2.7046154	<s> tort	-1.0791812
-3.0364172	<s> meats	-0.7781512
-0.76851726	short and	-0.86530143
-0.76851726	young and	-0.42596874
-0.2977949	prosecuted and	-0.86530143
-0.2977949	addition and	-0.86530143
-0.2977949	chocolate and	-0.86530143
-0.2977949	masonry and	-0.72699875
-0.59561366	down and	-0.7781512
-0.2977949	distress and	-0.7781512
-0.2977949	jealousies and	-0.90309
-0.59561366	pleasure and	-0.7781512
-0.59561366	straight and	-0.66900676
-0.2977949	heart and	-0.66900676
-0.2977949	bagpipes and	-0.42596874
-0.2977949	saws and	-0.42596874
-0.2977949	supplies and	-0.42596874
-0.2977949	broccoli and	-0.30103
-0.2977949	deer and	-0.30103
-0.2977949	strong and	-0.30103
-0.2977949	children and	-0.30103
-1.575851	and precious	-0.86530143
-2.4992998	<s> eat	-0.97003675
-1.4723876	you eat	-0.66900676
-2.9298334	<s> sport	-0.86530143
-0.3007128	entertaining sport	-0.7781512
-0.6014053	those people	-0.7781512
-0.7771696	young people	-0.86530143
-0.30070257	elderly people	-0.7781512
-0.7775279	people participate	-0.86530143
-1.5022488	in athletic	-0.86530143
-0.30082214	athletic activities	-0.86530143
-2.9378233	<s> trespassers	-0.86530143
-1.552576	be prosecuted	-0.86530143
-1.575851	and fined	-0.86530143
-2.8575232	<s> etiquette	-0.9378521
-0.30082214	etiquette mandates	-0.9378521
-0.30082214	mandates compliance	-0.9378521
-1.2534052	with existing	-0.9378521
-0.30082214	existing regulations	-0.9378521
-1.6581047	a quick	-0.8846066
-0.6016444	quick touchdown	-0.9378521
-0.30082214	touchdown resulted	-0.9378521
-2.1303248	the little	-0.86530143
-0.6014259	still little	-0.30103
-0.6016444	little girls	-0.86530143
-0.30082214	girls cut	-0.86530143
-0.30082214	cut lacy	-0.86530143
-0.30082214	lacy valentines	-0.86530143
-2.4419317	<s> geese	-1.3290588
-2.9378233	<s> mill	-0.86530143
-2.9378233	<s> barbs	-0.86530143
-3.0264142	<s> gold	-0.7781512
-0.3007128	barbs gold	-0.86530143
-0.6016444	gold bracelet	-0.86530143
-1.9545308	a graduation	-0.86530143
-0.30082214	graduation present	-0.86530143
-2.3647437	<s> reap	-1.4036924
-2.9378233	<s> dill	-0.86530143
-2.9378233	<s> lend	-0.86530143
-2.9378233	<s> foe	-0.86530143
-1.552576	he asked	-0.86530143
-1.9545308	a loan	-0.86530143
-2.5571802	<s> they	-0.56729794
-0.99655104	do they	-0.86530143
-0.60067713	where they	-0.72699875
-0.90032864	things they	-0.5228787
-0.300338	because they	-0.42596874
-0.952817	they make	-0.69897
-0.6014259	phone make	-0.8239087
-3.0470543	<s> any	-0.72699875
-1.8330904	to any	-0.86530143
-1.4668554	it any	-0.66900676
-1.4668554	for any	-0.42596874
-0.7760786	make any	-0.86530143
-0.9984164	any money	-0.86530143
-0.3007128	save money	-0.30103
-2.9378233	<s> toe	-0.86530143
-2.9378233	<s> threat	-0.86530143
-2.9378233	<s> port	-0.86530143
-1.6580018	i scream	-0.86530143
-0.9989617	my voice	-0.86530143
-2.6795735	<s> rip	-1.1026623
-2.7046154	<s> wise	-1.0791812
-1.6555206	i think	-0.86530143
-0.7772004	dont think	-0.8239087
-2.8885605	<s> full	-0.90309
-0.7772004	im full	-0.86530143
-0.9989617	this stuff	-0.86530143
-2.9378233	<s> bend	-0.86530143
-2.9378233	<s> muck	-0.86530143
-2.9298334	<s> night	-0.86530143
-0.9984164	at night	-0.8239087
-2.9378233	<s> snake	-0.86530143
-1.6580018	i havent	-0.8239087
-0.30082214	havent seen	-0.8239087
-2.589466	<s> that	-0.74036264
-1.0739626	up that	-0.30103
-0.6003135	fill that	-0.42596874
-0.30015588	seen that	-0.8239087
-0.30015588	requests that	-0.66900676
-0.30015588	beauty that	-0.30103
-1.2024598	that friend	-0.8239087
-2.9843285	<s> bumper	-0.8239087
-1.2024598	an entertaining	-0.7781512
-2.9843285	<s> ash	-0.8239087
-3.0264142	<s> fit	-0.7781512
-0.6014259	never fit	-0.5228787
-2.9843285	<s> sheer	-0.8239087
-0.9989617	at twilight	-0.86530143
-2.1377714	the twelfth	-0.86530143
-1.2534052	have chablis	-0.86530143
-2.5723126	<s> hash	-1.20412
-3.0364172	<s> worse	-0.7781512
-0.30082214	worse luck	-0.7781512
-1.6555206	is still	-0.30103
-1.526118	was still	-0.7781512
-1.8460573	to come	-0.7781512
-1.4723876	you come	-0.72699875
-2.1377714	the golfing	-0.7781512
-0.30082214	golfing fathers	-0.7781512
-0.30082214	fathers ruled	-0.7781512
-0.9989617	his favor	-0.7781512
-2.4863653	<s> hail	-1.2863067
-3.0364172	<s> code	-0.7781512
-3.0364172	<s> elderly	-0.7781512
-1.4442569	are often	-0.7781512
-0.30082214	often excluded	-0.7781512
-2.9843285	<s> beam	-0.8239087
-2.9298334	<s> yet	-0.86530143
-0.7772004	eat yet	-0.66900676
-1.552576	he remains	-0.86530143
-2.1377714	the fiercest	-0.86530143
-1.5979214	of competitors	-0.86530143
-3.0364172	<s> knife	-0.7781512
-2.9843285	<s> pete	-0.8239087
-2.9378233	<s> addition	-0.86530143
-1.575851	and subtraction	-0.86530143
-1.4442569	are learned	-0.86530143
-0.30082214	learned skills	-0.86530143
-1.5506283	be found	-0.7781512
-0.3007128	soon found	-0.42596874
-0.6016444	found anywhere	-0.7781512
-2.9843285	<s> gash	-0.8239087
-1.5279586	was pleased	-0.7781512
-2.1303248	the way	-0.7781512
-0.9984164	any way	-0.66900676
-2.1175048	the things	-0.5228787
-0.6010411	get things	-0.30103
-0.6010411	way things	-0.7781512
-0.6010411	work things	-0.72699875
-0.9018227	things went	-0.7781512
-0.3007128	marriage went	-0.86530143
-1.6580018	i loved	-0.8239087
-0.7775279	every minute	-0.8239087
-1.0779355	good idea	-0.8239087
-2.9378233	<s> fender	-0.86530143
-3.0364172	<s> woe	-0.7781512
-2.9843285	<s> member	-0.8239087
-2.9843285	<s> beast	-0.8239087
-1.144675	she suggested	-0.8239087
-1.2534052	have dinner	-0.8239087
-0.30070257	dinner together	-0.8239087
-0.6014053	trip together	-0.30103
-0.9017816	got together	-0.42596874
-2.8223314	<s> so	-0.66900676
-0.6014053	so if	-0.8239087
-0.30070257	fear if	-0.72699875
-0.6014053	practical if	-0.30103
-0.7775279	if anybody	-0.8239087
-0.30082214	anybody solicits	-0.8239087
-0.300338	solicits by	-0.8239087
-0.300338	begin by	-0.86530143
-0.60067713	them by	-0.72699875
-0.300338	rewarded by	-0.30103
-0.300338	acting by	-0.30103
-3.4496493	<s> phone	-0.42596874
-0.9984164	by phone	-0.8239087
-0.7772004	make sure	-0.8239087
-0.6014259	not sure	-0.30103
-1.4740136	you mail	-0.8239087
-2.1377714	the dough	-0.8239087
-3.0364172	<s> ambidextrous	-0.7781512
-0.30082214	ambidextrous pickpockets	-0.7781512
-0.30082214	pickpockets accomplish	-0.7781512
-1.0772202	up more	-0.86530143
-0.7771696	needs more	-0.30103
-0.30070257	accomplish more	-0.7781512
-2.9843285	<s> guess	-0.8239087
-1.144675	will take	-0.86530143
-1.9545308	a wedding	-0.86530143
-0.30082214	wedding trip	-0.64345264
-0.6014259	trip later	-0.7781512
-0.3007128	weeks later	-0.42596874
-2.4253569	<s> her	-0.86530143
-0.30070257	outgrew her	-0.8239087
-0.6014053	win her	-0.42596874
-0.6016444	dark hair	-0.8239087
-1.6580018	is combed	-0.8239087
-0.30082214	combed casually	-0.8239087
-3.164177	<s> seam	-0.66900676
-2.9843285	<s> beep	-0.8239087
-0.90105456	old also	-0.42596874
-1.651182	i also	-0.7781512
-0.6010411	job also	-0.7781512
-1.1425722	were also	-0.30103
-1.5506283	be quite	-0.7781512
-1.4427384	are quite	-0.30103
-0.6016444	quite vocal	-0.7781512
-1.4740136	it requires	-0.7781512
-3.4057631	<s> big	-0.42596874
-1.941421	a big	-0.7781512
-0.99745715	no big	-0.7781512
-0.99745715	by big	-0.30103
-0.9022591	big investment	-0.7781512
-1.2024598	that pickpocket	-0.9378521
-1.5279586	was caught	-0.9378521
-0.30082214	caught redhanded	-0.9378521
-0.9022591	big house	-0.7781512
-3.0956159	<s> mock	-0.72699875
-2.5917494	<s> dock	-1.1856365
-2.8885605	<s> sea	-0.90309
-0.3007128	resemble sea	-0.5228787
-2.9843285	<s> grandmother	-0.8239087
-0.30082214	grandmother outgrew	-0.8239087
-0.9989617	her upbringing	-0.8239087
-1.5022488	in petticoats	-0.8239087
-2.1377714	the sun	-0.8239087
-0.30082214	sun died	-0.8239087
-3.0364172	<s> ember	-0.7781512
-2.5917494	<s> seat	-1.1856365
-0.6014259	quicker than	-0.7781512
-0.3007128	away than	-0.30103
-1.6580018	i am	-0.7781512
-3.0364172	<s> food	-0.7781512
-3.0364172	<s> reef	-0.7781512
-1.9545308	a fire	-0.8239087
-1.5022488	in straw	-0.8239087
-0.6016444	quick blaze	-0.8239087
-3.0364172	<s> sender	-0.7781512
-0.9989617	her classical	-0.90309
-0.30082214	classical performance	-0.90309
-0.30082214	performance gained	-0.90309
-0.6016444	critical acclaim	-0.90309
-0.9989617	her position	-0.86530143
-0.9018227	also covers	-0.7781512
-0.3007128	position covers	-0.86530143
-1.9545308	a number	-1.1249387
-1.5979214	of daily	-0.86530143
-0.30082214	daily tasks	-0.86530143
-0.30082214	tasks common	-0.86530143
-0.9989617	any social	-0.86530143
-0.30082214	social director	-0.86530143
-2.1377714	the marriage	-0.86530143
-1.0739626	well from	-0.86530143
-0.30015588	behavior from	-0.72699875
-0.30015588	coming from	-0.72699875
-0.30015588	assaults from	-0.7781512
-0.30015588	drenched from	-0.86530143
-0.30015588	original from	-0.30103
-2.1303248	the start	-0.86530143
-0.9018227	our start	-0.66900676
-1.8460573	to tell	-0.30103
-1.6555206	i tell	-0.7781512
-1.5279586	was wonderful	-0.7781512
-3.0364172	<s> renter	-0.7781512
-2.5917494	<s> row	-1.1856365
-3.0364172	<s> lender	-0.7781512
-3.0364172	<s> ape	-0.7781512
-1.552576	we just	-0.60206
-1.6555206	i didnt	-0.72699875
-0.7772004	just didnt	-0.8239087
-2.9843285	<s> forks	-0.8239087
-3.0956159	<s> tender	-0.72699875
-2.9843285	<s> tea	-0.8239087
-0.9022591	very popular	-0.7781512
-0.9022591	our fans	-0.7781512
-3.0364172	<s> timber	-0.7781512
-2.7046154	<s> leap	-1.0791812
-3.0364172	<s> catastrophic	-0.7781512
-0.30082214	catastrophic economic	-0.7781512
-0.30082214	economic cutbacks	-0.7781512
-0.30082214	cutbacks neglect	-0.7781512
-2.1377714	the poor	-0.7781512
-2.8223314	<s> tail	-0.97003675
-2.9843285	<s> bender	-0.8239087
-2.4419317	<s> ache	-1.3290588
-2.9843285	<s> center	-0.8239087
-3.0364172	<s> mom	-0.7781512
-0.30082214	mom strongly	-0.7781512
-0.30082214	strongly dislikes	-0.7781512
-0.30082214	dislikes appetizers	-0.7781512
-2.9843285	<s> beef	-0.8239087
-2.9843285	<s> temper	-0.8239087
-2.6602945	<s> had	-1.1026623
-1.5440123	we had	-0.30103
-1.6471146	i had	-0.72699875
-0.300338	finger had	-0.72699875
-0.300338	kat had	-0.30103
-0.9989617	no desire	-0.72699875
-1.8499112	to change	-0.72699875
-0.9989617	my ways	-0.72699875
-2.5723126	<s> wax	-1.20412
-2.8575232	<s> pet	-0.9378521
-3.0364172	<s> aid	-0.7781512
-3.0956159	<s> knock	-0.72699875
-3.0956159	<s> lies	-0.72699875
-3.0364172	<s> cheese	-0.7781512
-2.9843285	<s> hatch	-0.8239087
-2.1377714	the lack	-0.66900676
-0.6016444	heat compounded	-0.66900676
-2.1377714	the tenants	-0.66900676
-0.3007128	tenants grievances	-0.66900676
-0.3007128	personal grievances	-0.90309
-2.5358686	<s> bunch	-1.2388821
-0.9989617	any contributions	-0.72699875
-1.552576	be greatly	-0.72699875
-0.30082214	greatly appreciated	-0.72699875
-2.5537086	<s> ease	-1.2218487
-2.73119	<s> add	-1.0543576
-2.9378233	<s> chocolate	-0.86530143
-1.575851	and roses	-0.86530143
-0.3007128	roses never	-0.86530143
-0.3007128	theyll never	-0.5228787
-0.6016444	never fail	-0.64345264
-1.6471146	is as	-0.30103
-0.60067713	fail as	-0.7781512
-0.300338	exactly as	-0.86530143
-0.300338	displayed as	-0.30103
-0.300338	offensive as	-0.30103
-1.9545308	a romantic	-0.7781512
-0.30082214	romantic gift	-0.7781512
-2.1377714	the legislature	-0.9378521
-0.30082214	legislature met	-0.9378521
-3.746341	<s> judge	-0.30103
-1.8460573	to judge	-0.9378521
-1.8439393	the state	-0.7781512
-1.5979214	of public	-0.9378521
-0.30082214	public education	-0.9378521
-2.1377714	the largest	-0.8239087
-0.7775279	four states	-0.8239087
-3.0956159	<s> peas	-0.72699875
-3.0956159	<s> bun	-0.72699875
-3.0956159	<s> punch	-0.72699875
-3.0364172	<s> ail	-0.7781512
-2.9378233	<s> begin	-0.86530143
-0.9989617	by trying	-0.86530143
-1.8499112	to speak	-0.86530143
-2.73119	<s> tall	-1.0543576
-3.0956159	<s> range	-0.72699875
-1.9545308	a vital	-0.72699875
-0.30082214	vital detail	-0.72699875
-3.0956159	<s> pill	-0.72699875
-3.0956159	<s> racks	-0.72699875
-2.1377714	the structures	-0.8239087
-0.30082214	structures housing	-0.8239087
-2.1377714	the apartments	-0.8239087
-1.5979214	of masonry	-0.72699875
-1.575851	and frame	-0.72699875
-0.30082214	frame construction	-0.72699875
-3.0956159	<s> aches	-0.72699875
-3.0364172	<s> lit	-0.7781512
-2.1377714	the singers	-0.72699875
-0.30082214	singers finger	-0.72699875
-1.9545308	a splinter	-0.72699875
-2.9378233	<s> now	-0.86530143
-0.7775279	im living	-0.86530143
-0.30082214	living exactly	-0.86530143
-1.6580018	i choose	-0.7781512
-3.0956159	<s> duck	-0.72699875
-3.0956159	<s> arm	-0.72699875
-1.6580018	i wanted	-0.72699875
-1.2024598	an actress	-0.72699875
-2.8508718	<s> fell	-0.9378521
-1.4723876	it fell	-0.42596874
-0.6016444	academic aptitude	-0.7781512
-0.30082214	aptitude guarantees	-0.7781512
-0.9989617	your diploma	-0.7781512
-3.0956159	<s> charm	-0.72699875
-1.9545308	a great	-0.72699875
-0.30082214	great meeting	-0.72699875
-1.552576	he has	-0.8239087
-1.552576	be prepared	-0.72699875
-1.4740136	for odd	-0.72699875
-0.30082214	odd behavior	-0.72699875
-1.0779355	from friends	-0.72699875
-2.9843285	<s> mile	-0.8239087
-3.0364172	<s> rakes	-0.7781512
-1.552576	we talked	-0.72699875
-2.1377714	the situation	-0.72699875
-0.9017816	two other	-0.30103
-1.5955572	of other	-0.7781512
-0.7771696	makes other	-0.42596874
-0.7775279	other items	-0.7781512
-0.9989617	no fear	-0.72699875
-0.6016444	come alone	-0.72699875
-3.4471922	<s> sat	-0.42596874
-1.0772202	all sat	-0.7781512
-0.7771696	just sat	-0.42596874
-0.6014259	working down	-0.5228787
-0.7772004	sat down	-0.7781512
-1.575851	and relaxed	-0.7781512
-2.4562435	<s> hall	-1.3152704
-3.0364172	<s> sake	-0.7781512
-1.144675	were coming	-0.72699875
-1.4740136	for pockets	-0.8239087
-0.6016444	black sand	-0.8239087
-3.0956159	<s> hell	-0.72699875
-0.6014259	sell them	-0.72699875
-0.7772004	like them	-0.42596874
-1.8439393	the box	-0.8239087
-2.1377714	the plot	-0.86530143
-1.6580018	is laced	-0.86530143
-1.2534052	with mysterious	-0.86530143
-0.30082214	mysterious incidents	-0.86530143
-1.552576	we shelled	-0.72699875
-0.30082214	shelled clams	-0.72699875
-2.1377714	the chowder	-0.72699875
-1.552576	we experience	-0.7781512
-0.30082214	experience distress	-0.7781512
-1.575851	and frustration	-0.7781512
-0.30082214	frustration obtaining	-0.7781512
-0.9022591	our degrees	-0.7781512
-3.0364172	<s> ticks	-0.7781512
-2.1377714	the prowler	-0.7781512
-0.30082214	prowler wore	-0.7781512
-1.9545308	a ski	-0.7781512
-0.30082214	ski mask	-0.7781512
-1.4740136	for disguise	-0.7781512
-0.9984164	no confirmation	-0.7781512
-0.6014259	cable confirmation	-0.66900676
-1.6555206	is such	-0.5228787
-1.5957599	of such	-0.7781512
-0.6016444	such massive	-0.7781512
-0.30082214	massive assaults	-0.7781512
-1.0779355	from independent	-0.7781512
-0.30082214	independent sources	-0.7781512
-3.0364172	<s> chap	-0.7781512
-3.0956159	<s> lax	-0.72699875
-3.746341	<s> score	-0.30103
-1.4118118	can score	-0.90309
-3.0956159	<s> munch	-0.72699875
-3.0956159	<s> try	-0.72699875
-1.8460573	to work	-0.72699875
-1.4723876	for work	-0.30103
-1.552576	he added	-0.90309
-0.30082214	added brought	-0.90309
-0.9984164	about petty	-0.90309
-1.5737964	and petty	-0.90309
-0.6016444	petty jealousies	-0.90309
-0.6016444	petty personal	-0.90309
-2.9843285	<s> even	-0.8239087
-1.9545308	a simple	-0.8239087
-0.30082214	simple vocabulary	-0.8239087
-0.30082214	vocabulary contains	-0.8239087
-0.30082214	contains symbols	-0.8239087
-3.0956159	<s> end	-0.72699875
-2.1377714	the eastern	-0.7781512
-0.30082214	eastern coast	-0.7781512
-1.4740136	for pure	-0.7781512
-1.4723876	for pleasure	-0.42596874
-0.3007128	pure pleasure	-0.7781512
-1.575851	and excitement	-0.7781512
-3.164177	<s> dial	-0.66900676
-2.789779	<s> low	-1
-3.164177	<s> cold	-0.66900676
-3.3459656	<s> whip	-0.5228787
-1.552576	to expect	-0.64345264
-1.4835589	a few	-0.6478175
-0.6016444	bad calls	-0.7781512
-3.3459656	<s> ink	-0.5228787
-3.164177	<s> handle	-0.66900676
-3.3459656	<s> theyll	-0.5228787
-1.4695369	it again	-0.30103
-0.99745715	me again	-0.5228787
-0.90105456	again again	-0.30103
-0.30052027	always again	-0.30103
-3.3459656	<s> term	-0.5228787
-1.9545308	a program	-0.5228787
-3.3459656	<s> wide	-0.5228787
-1.5504457	we got	-0.69897
-1.655288	i got	-0.30103
-0.9017816	also got	-0.42596874
-0.9022591	got drenched	-0.86530143
-2.1377714	the uninterrupted	-0.86530143
-0.30082214	uninterrupted rain	-0.86530143
-3.164177	<s> pant	-0.66900676
-3.1508048	<s> win	-0.66900676
-0.6014259	may win	-0.42596874
-0.7772004	few may	-0.66900676
-0.3007128	company may	-0.42596874
-1.5506283	be hard	-0.66900676
-1.1439126	its hard	-0.30103
-3.746341	<s> find	-0.30103
-1.5506283	to find	-0.86530143
-3.0364172	<s> cable	-0.5563025
-1.4723876	it said	-0.66900676
-1.6555206	i said	-0.30103
-0.6016444	said translated	-0.66900676
-3.164177	<s> weve	-0.66900676
-0.30082214	weve done	-0.66900676
-2.1377714	the past	-0.66900676
-3.3459656	<s> burn	-0.5228787
-1.552576	we werent	-0.66900676
-0.30082214	werent doing	-0.66900676
-3.3459656	<s> upgrade	-0.5228787
-0.9989617	your status	-0.5228787
-1.8499112	to reflect	-0.5228787
-0.9989617	your wealth	-0.5228787
-3.3258018	<s> spring	-0.5228787
-0.3007128	fresh spring	-0.42596874
-3.4496493	<s> street	-0.42596874
-0.6014259	spring street	-0.5228787
-1.3593433	is straight	-0.60206
-0.6016444	straight ahead	-0.5228787
-2.1377714	the store	-0.66900676
-0.30082214	store serves	-0.66900676
-0.30082214	serves meals	-0.66900676
-1.0779355	all disappointed	-0.66900676
-1.144675	will order	-0.66900676
-3.1508048	<s> wine	-0.66900676
-2.1303248	the wine	-0.66900676
-3.164177	<s> eyes	-0.66900676
-3.3459656	<s> weave	-0.5228787
-2.1377714	the family	-0.66900676
-0.30082214	family requests	-0.66900676
-1.2024598	that flowers	-0.66900676
-1.552576	be omitted	-0.66900676
-3.164177	<s> wart	-0.66900676
-3.3459656	<s> wack	-0.5228787
-1.2534052	they received	-0.5228787
-1.2524261	they needed	-0.5228787
-0.9984164	any needed	-0.42596874
-3.164177	<s> dash	-0.66900676
-0.6016444	took heart	-0.66900676
-2.1377714	the snow	-0.66900676
-0.30082214	snow blew	-0.66900676
-0.9018227	got into	-0.30103
-0.3007128	blew into	-0.66900676
-1.949739	a large	-0.30103
-0.6014259	into large	-0.66900676
-0.6016444	large drifts	-0.66900676
-3.164177	<s> regular	-0.66900676
-0.30082214	regular attendance	-0.66900676
-1.6580018	is seldom	-0.66900676
-0.30082214	seldom required	-0.66900676
-3.0364172	<s> ball	-0.7781512
-1.0772816	up myself	-0.66900676
-0.6014259	found myself	-0.42596874
-3.0956159	<s> last	-0.72699875
-0.7775279	gas shortage	-0.72699875
-0.30082214	shortage caused	-0.72699875
-0.30082214	caused steep	-0.60206
-0.6016444	steep price	-0.66900676
-0.30082214	price increases	-0.66900676
-3.164177	<s> both	-0.44715804
-0.6016444	both cars	-0.5228787
-1.144675	were slightly	-0.5228787
-0.30082214	slightly damaged	-0.5228787
-0.6016444	new highway	-0.66900676
-1.575851	and empty	-0.66900676
-2.1377714	the staff	-0.5228787
-0.30082214	staff deserves	-0.5228787
-1.9545308	a lot	-0.5228787
-1.5979214	of credit	-0.5228787
-0.6014259	right here	-0.42596874
-0.6014259	down here	-0.5228787
-0.9018227	also under	-0.30103
-0.6014259	here under	-0.5228787
-0.6016444	under real	-0.5228787
-0.30082214	real obstacles	-0.5228787
-3.164177	<s> hid	-0.66900676
-3.3459656	<s> why	-0.5228787
-3.3459656	<s> luke	-0.5228787
-2.9378233	<s> fold	-0.86530143
-3.164177	<s> pink	-0.66900676
-3.164177	<s> waste	-0.66900676
-0.9989617	your raisins	-0.66900676
-0.30082214	raisins outdoors	-0.66900676
-3.746341	<s> porch	-0.30103
-2.1303248	the porch	-0.66900676
-0.6016444	porch steps	-0.66900676
-1.552576	he noted	-0.5228787
-0.6016444	fact carefully	-0.5228787
-3.084171	<s> when	-0.60206
-0.7772004	when when	-0.30103
-1.4427384	are through	-0.66900676
-0.3007128	spread through	-0.30103
-1.9545308	a clean	-0.66900676
-0.30082214	clean report	-0.66900676
-3.3459656	<s> sail	-0.5228787
-3.164177	<s> wipe	-0.66900676
-3.164177	<s> continental	-0.66900676
-0.30082214	continental drift	-0.66900676
-1.9545308	a geological	-0.66900676
-0.30082214	geological theory	-0.66900676
-1.9545308	a huge	-0.66900676
-0.30082214	huge part	-0.66900676
-3.3459656	<s> porcupines	-0.5228787
-0.30082214	porcupines resemble	-0.5228787
-0.6016444	sea urchins	-0.5228787
-3.164177	<s> challenge	-0.66900676
-0.7775279	each generals	-0.66900676
-0.30082214	generals intelligence	-0.66900676
-3.0956159	<s> wives	-0.72699875
-1.552576	he cant	-0.66900676
-0.30082214	cant abide	-0.66900676
-0.30082214	abide mistakes	-0.66900676
-0.9989617	his own	-0.66900676
-2.1303248	the game	-0.30103
-0.3007128	own game	-0.66900676
-3.164177	<s> docks	-0.66900676
-3.4766777	<s> pole	-0.42596874
-3.8016002	<s> stable	-0.30103
-3.4766777	<s> hiring	-0.42596874
-2.1377714	the wife	-0.42596874
-1.4740136	for ones	-0.42596874
-0.30082214	ones company	-0.42596874
-0.9989617	her taxaided	-0.42596874
-0.30082214	taxaided retirement	-0.42596874
-0.30082214	retirement income	-0.42596874
-1.552576	we must	-0.42596874
-1.552576	be ready	-0.42596874
-0.6016444	needed sacrifice	-0.42596874
-3.4766777	<s> ban	-0.42596874
-0.7775279	other trips	-0.42596874
-3.4766777	<s> page	-0.42596874
-1.2024598	an accordion	-0.42596874
-3.8016002	<s> paid	-0.30103
-3.4766777	<s> sprain	-0.42596874
-3.4766777	<s> wall	-0.42596874
-3.4766777	<s> fool	-0.42596874
-3.4766777	<s> boat	-0.42596874
-3.4766777	<s> ramp	-0.42596874
-1.0779355	good service	-0.30103
-0.30082214	service should	-0.30103
-1.552576	be rewarded	-0.30103
-0.9022591	big tips	-0.30103
-3.4496493	<s> paint	-0.42596874
-1.4723876	you paint	-0.42596874
-1.2024598	that canteen	-0.42596874
-1.2534052	with fresh	-0.42596874
-0.7772004	more water	-0.30103
-0.6014259	spring water	-0.42596874
-1.0779355	really shook	-0.30103
-3.8016002	<s> beg	-0.30103
-3.4766777	<s> mat	-0.42596874
-3.8016002	<s> sap	-0.30103
-3.245628	<s> pain	-0.60206
-1.552576	he hides	-0.42596874
-2.1377714	the mayonnaise	-0.42596874
-3.0956159	<s> fall	-0.72699875
-3.4766777	<s> mall	-0.42596874
-3.4766777	<s> feel	-0.42596874
-0.9022591	two seemed	-0.42596874
-1.0779355	really appealing	-0.42596874
-3.4766777	<s> panel	-0.42596874
-3.8016002	<s> doctors	-0.30103
-0.30082214	doctors prescribe	-0.30103
-0.30082214	prescribe drugs	-0.30103
-0.6016444	too freely	-0.30103
-3.8016002	<s> vamp	-0.30103
-3.8016002	<s> bag	-0.30103
-3.8016002	<s> rat	-0.30103
-1.5506283	we saw	-0.30103
-1.6555206	i saw	-0.42596874
-0.7775279	few weeks	-0.42596874
-1.144675	its illegal	-0.30103
-1.8499112	to postdate	-0.30103
-1.9545308	a check	-0.30103
-3.4766777	<s> space	-0.42596874
-3.8016002	<s> naval	-0.30103
-3.8016002	<s> stall	-0.30103
-3.8016002	<s> spade	-0.30103
-0.6016444	into acting	-0.30103
-0.9989617	by accident	-0.30103
-3.8016002	<s> damp	-0.30103
-3.4766777	<s> spray	-0.42596874
-3.4766777	<s> peach	-0.42596874
-3.8016002	<s> mabel	-0.30103
-3.8016002	<s> told	-0.30103
-1.6555206	is not	-0.30103
-1.526118	was not	-0.42596874
-0.6016444	not seriously	-0.42596874
-0.30082214	seriously injured	-0.42596874
-0.6016444	them because	-0.42596874
-1.5506283	be practical	-0.30103
-1.4427384	are practical	-0.42596874
-3.4766777	<s> funnel	-0.42596874
-3.8016002	<s> tap	-0.30103
-2.1377714	the name	-0.30103
-3.8016002	<s> gently	-0.30103
-0.7775279	place jims	-0.30103
-0.30082214	jims foam	-0.30103
-0.30082214	foam sculpture	-0.30103
-3.8016002	<s> maybe	-0.30103
-1.144675	its taking	-0.30103
-0.30082214	taking longer	-0.30103
-0.9022591	things squared	-0.30103
-0.30082214	squared away	-0.30103
-2.1377714	the bankers	-0.30103
-0.30082214	bankers expected	-0.30103
-3.4766777	<s> reach	-0.42596874
-3.8016002	<s> file	-0.30103
-1.6580018	i soon	-0.42596874
-0.6016444	myself muttering	-0.42596874
-2.1377714	the walls	-0.42596874
-0.9022591	old telephone	-0.42596874
-0.30082214	telephone booths	-0.42596874
-0.30082214	booths arent	-0.42596874
-0.30082214	arent easy	-0.42596874
-3.8016002	<s> paste	-0.30103
-3.8016002	<s> foil	-0.30103
-3.4766777	<s> map	-0.42596874
-3.4766777	<s> gable	-0.42596874
-3.4766777	<s> bull	-0.42596874
-3.4766777	<s> crawl	-0.42596874
-3.8016002	<s> pale	-0.30103
-3.8016002	<s> creature	-0.30103
-0.9989617	his pocket	-0.42596874
-0.9022591	got married	-0.42596874
-3.8016002	<s> saddle	-0.30103
-3.4766777	<s> bowl	-0.42596874
-3.8016002	<s> nap	-0.30103
-3.4766777	<s> table	-0.42596874
-3.8016002	<s> sable	-0.30103
-3.4766777	<s> fable	-0.42596874
-3.8016002	<s> mold	-0.30103
-3.8016002	<s> mole	-0.30103
-1.144675	its impossible	-0.42596874
-1.8460573	to deal	-0.42596874
-1.5737964	and deal	-0.42596874
-1.2534052	with bureaucracy	-0.42596874
-3.4766777	<s> pace	-0.42596874
-3.8016002	<s> call	-0.30103
-0.6016444	please describe	-0.30103
-2.1377714	the idiotic	-0.30103
-0.30082214	idiotic predicament	-0.30103
-3.4766777	<s> screech	-0.42596874
-3.4766777	<s> ladle	-0.42596874
-3.4766777	<s> bash	-0.42596874
-1.9545308	a room	-0.42596874
-0.30070257	room or	-0.42596874
-0.30070257	walked or	-0.30103
-0.30070257	bus or	-0.30103
-1.9545308	a portrait	-0.42596874
-3.4766777	<s> bagpipes	-0.42596874
-1.575851	and bongos	-0.42596874
-1.4442569	are musical	-0.42596874
-0.30082214	musical instruments	-0.42596874
-1.6580018	i thought	-0.30103
-0.7772004	make gin	-0.42596874
-0.3007128	used gin	-0.42596874
-0.6016444	gin saws	-0.42596874
-1.5022488	in parts	-0.42596874
-0.30082214	parts supplies	-0.42596874
-0.9022591	some used	-0.42596874
-0.6016444	gin machinery	-0.42596874
-3.4766777	<s> final	-0.42596874
-0.9989617	there giggling	-0.42596874
-3.8016002	<s> owl	-0.30103
-3.4766777	<s> cliffs	-0.42596874
-0.30082214	cliffs display	-0.42596874
-1.5279586	was misplaced	-0.42596874
-2.1377714	the screen	-0.42596874
-3.4766777	<s> teach	-0.42596874
-1.2024598	an official	-0.30103
-0.30082214	official deadline	-0.30103
-0.30082214	deadline cannot	-0.30103
-1.552576	be postponed	-0.30103
-3.8016002	<s> bog	-0.30103
-3.4766777	<s> rattle	-0.42596874
-3.4496493	<s> sold	-0.42596874
-1.1439126	were sold	-0.30103
-3.8016002	<s> bought	-0.30103
-3.4766777	<s> bank	-0.42596874
-3.4766777	<s> shawl	-0.42596874
-3.4766777	<s> soul	-0.42596874
-3.4766777	<s> preach	-0.42596874
-3.4766777	<s> pull	-0.42596874
-3.8016002	<s> boone	-0.30103
-3.8016002	<s> suppress	-0.30103
-3.8016002	<s> wages	-0.30103
-1.9545308	a key	-0.30103
-0.30082214	key issue	-0.30103
-3.8016002	<s> unfortunately	-0.30103
-0.6016444	little demand	-0.30103
-1.4740136	for broccoli	-0.30103
-1.575851	and cauliflower	-0.30103
-0.7775279	three deer	-0.30103
-1.9545308	a badger	-0.30103
-3.8016002	<s> contrast	-0.30103
-0.6016444	large household	-0.30103
-0.7775279	needs lots	-0.30103
-1.5979214	of appliances	-0.30103
-3.4766777	<s> grain	-0.42596874
-3.8016002	<s> several	-0.30103
-0.30082214	several paintings	-0.30103
-2.1377714	the auction	-0.30103
-3.8016002	<s> impress	-0.30103
-3.8016002	<s> occur	-0.30103
-3.8016002	<s> shore	-0.30103
-3.8016002	<s> book	-0.30103
-3.8016002	<s> bin	-0.30103
-0.7775279	most weeds	-0.30103
-0.30082214	weeds grow	-0.30103
-0.30082214	grow strong	-0.30103
-1.575851	and fast	-0.30103
-3.8016002	<s> fudge	-0.30103
-3.8016002	<s> rust	-0.30103
-2.1377714	the misprint	-0.30103
-0.30082214	misprint provoked	-0.30103
-1.2024598	an immediate	-0.30103
-0.30082214	immediate disclaimer	-0.30103
-3.8016002	<s> contract	-0.30103
-3.8016002	<s> limb	-0.30103
-3.8016002	<s> musk	-0.30103
-3.8016002	<s> rut	-0.30103
-3.8016002	<s> serve	-0.30103
-3.8016002	<s> grape	-0.30103
-3.8016002	<s> intact	-0.30103
-1.9545308	a picnic	-0.30103
-2.1377714	the beach	-0.30103
-3.8016002	<s> subtract	-0.30103
-1.2024598	that plant	-0.30103
-1.2024598	an original	-0.30103
