\data\
ngram 1=1277
ngram 2=2582
ngram 3=2140

\1-grams:
-3.4449134	<unk>	0
0	<s>	-1.0899915
-0.5858396	</s>	0
-3.3649442	pat	-0.30103
-3.3649442	meat	-0.30103
-3.3649442	air	-0.30103
-3.3649442	swarm	-0.30103
-2.8029432	no	-0.30103
-3.3649442	storm	-0.30103
-3.3649442	usually	-0.30103
-3.3649442	minus	-0.30103
-3.1748662	several	-0.30103
-3.3649442	buttons	-0.30103
-3.3649442	dug	-0.30103
-3.3649442	feet	-0.30103
-3.3649442	train	-0.30103
-3.3649442	but	-0.30103
-2.5628715	he	-0.30103
-3.1748662	always	-0.30103
-3.3649442	answers	-0.30103
-3.3649442	banana	-0.30103
-3.3649442	oil	-0.30103
-3.3649442	beat	-0.30103
-1.8429974	the	-0.30103
-3.1748662	quick	-0.30103
-3.1748662	brown	-0.30103
-3.3649442	fox	-0.30103
-3.3649442	jumps	-0.30103
-3.3649442	over	-0.30103
-3.3649442	lazy	-0.30103
-3.3649442	dog	-0.30103
-2.7074149	we	-0.30103
-2.5628715	have	-0.30103
-3.0971296	often	-0.30103
-3.3649442	urged	-0.30103
-2.9255886	him	-0.30103
-1.8925936	to	-0.30103
-3.1748662	walk	-0.30103
-2.9255886	more	-0.30103
-2.0682611	and	-0.30103
-3.3649442	smoke	-0.30103
-3.3649442	less	-0.30103
-3.3649442	rake	-0.30103
-2.1317296	for	-0.30103
-3.1748662	grow	-0.30103
-2.9255886	one	-0.30103
-3.0971296	two	-0.30103
-3.3649442	rage	-0.30103
-3.3649442	form	-0.30103
-3.3649442	farm	-0.30103
-3.3649442	horn	-0.30103
-3.3649442	sheet	-0.30103
-3.3649442	ship	-0.30103
-3.3649442	left	-0.30103
-3.3649442	sticks	-0.30103
-3.3649442	glow	-0.30103
-3.3649442	born	-0.30103
-3.3649442	corn	-0.30103
-3.1748662	right	-0.30103
-2.6291573	well	-0.30103
-2.155129	is	-0.31806335
-3.3649442	nearly	-0.30103
-3.3649442	ninety	-0.30103
-3.0971296	three	-0.30103
-2.9255886	years	-0.30103
-3.0971296	old	-0.30103
-3.3649442	feed	-0.30103
-3.1748662	rain	-0.30103
-3.3649442	tip	-0.30103
-3.0971296	down	-0.30103
-3.1748662	store	-0.30103
-3.3649442	dresses	-0.30103
-3.1748662	himself	-0.30103
-2.2638302	in	-0.3290587
-2.6291573	an	-0.30103
-3.3649442	ancient	-0.30103
-3.1748662	black	-0.30103
-3.3649442	frock	-0.30103
-3.1748662	coat	-0.30103
-3.3649442	grandfather	-0.30103
-3.3649442	likes	-0.30103
-2.4091616	be	-0.30103
-3.3649442	modern	-0.30103
-3.1748662	his	-0.30103
-3.3649442	language	-0.30103
-3.3649442	torn	-0.30103
-3.3649442	yes	-0.30103
-3.3649442	sleep	-0.30103
-3.3649442	both	-0.30103
-3.3649442	figures	-0.30103
-3.3649442	would	-0.30103
-3.1748662	go	-0.30103
-3.3649442	higher	-0.30103
-3.0971296	later	-0.30103
-3.3649442	troop	-0.30103
-3.3649442	wish	-0.30103
-3.3649442	ate	-0.30103
-3.3649442	hear	-0.30103
-3.3649442	pot	-0.30103
-3.1748662	white	-0.30103
-3.3649442	mother	-0.30103
-3.3649442	sews	-0.30103
-3.3649442	yellow	-0.30103
-3.3649442	gingham	-0.30103
-3.3649442	aprons	-0.30103
-2.9255886	i	-0.30103
-3.0971296	just	-0.30103
-3.1748662	try	-0.30103
-2.9255886	do	-0.30103
-2.7074149	my	-0.30103
-3.3649442	best	-0.30103
-3.1748662	deer	-0.30103
-3.3649442	group	-0.30103
-3.3649442	cheer	-0.30103
-3.3649442	thigh	-0.30103
-3.3649442	coupe	-0.30103
-3.1748662	write	-0.30103
-3.3649442	area	-0.30103
-3.3649442	steer	-0.30103
-3.3649442	tile	-0.30103
-3.3649442	select	-0.30103
-3.3649442	forward	-0.30103
-3.3649442	sister	-0.30103
-3.3649442	made	-0.30103
-3.3649442	flowered	-0.30103
-3.3649442	curtains	-0.30103
-3.0971296	much	-0.30103
-3.3649442	hate	-0.30103
-3.3649442	whoop	-0.30103
-3.3649442	side	-0.30103
-2.9255886	got	-0.30103
-3.3649442	wet	-0.30103
-3.3649442	shoot	-0.30103
-3.3649442	slay	-0.30103
-3.1748662	play	-0.30103
-2.7074149	all	-0.30103
-2.8029432	big	-0.30103
-3.3649442	baseball	-0.30103
-3.3649442	players	-0.30103
-3.0971296	get	-0.30103
-3.3649442	traded	-0.30103
-3.3649442	scrubbed	-0.30103
-3.3649442	floors	-0.30103
-3.3649442	thoroughly	-0.30103
-3.3649442	boot	-0.30103
-3.3649442	rocks	-0.30103
-3.3649442	witch	-0.30103
-3.3649442	galore	-0.30103
-3.3649442	delta	-0.30103
-3.3649442	she	-0.30103
-3.3649442	thinner	-0.30103
-3.0971296	than	-0.30103
-3.3649442	am	-0.30103
-3.3649442	nothing	-0.30103
-2.8029432	as	-0.30103
-3.1748662	offensive	-0.30103
-3.3649442	innocence	-0.30103
-3.3649442	menu	-0.30103
-3.3649442	peer	-0.30103
-3.3649442	lip	-0.30103
-3.3649442	gathered	-0.30103
-3.3649442	shells	-0.30103
-2.5628715	on	-0.42596874
-3.3649442	beach	-0.30103
-3.3649442	mere	-0.30103
-3.3649442	pad	-0.30103
-3.3649442	their	-0.30103
-3.1748662	house	-0.30103
-3.3649442	grey	-0.30103
-3.3649442	urgent	-0.30103
-3.1748662	four	-0.30103
-3.0971296	night	-0.30103
-3.3649442	after	-0.30103
-2.7074149	they	-0.30103
-3.3649442	received	-0.30103
-3.3649442	annoying	-0.30103
-3.0971296	phone	-0.30103
-3.1748662	calls	-0.30103
-3.3649442	november	-0.30103
-3.3649442	alfalfa	-0.30103
-3.3649442	healthy	-0.30103
-2.3304448	you	-0.30103
-3.3649442	mush	-0.30103
-3.3649442	oscar	-0.30103
-3.1748662	sell	-0.30103
-3.1748662	five	-0.30103
-3.3649442	pit	-0.30103
-3.3649442	zero	-0.30103
-3.3649442	fat	-0.30103
-3.3649442	darn	-0.30103
-3.1748662	expect	-0.30103
-3.3649442	bounce	-0.30103
-3.3649442	back	-0.30103
-2.9255886	this	-0.30103
-3.3649442	week	-0.30103
-3.3649442	six	-0.30103
-3.3649442	when	-0.30103
-3.3649442	else	-0.30103
-3.3649442	fails	-0.30103
-3.3649442	use	-0.30103
-3.3649442	force	-0.30103
-3.3649442	hat	-0.30103
-3.3649442	seed	-0.30103
-3.3649442	pitting	-0.30103
-2.4546096	it	-0.30103
-2.9255886	also	-0.30103
-3.1748662	provides	-0.30103
-3.3649442	funds	-0.30103
-3.3649442	clear	-0.30103
-3.3649442	slums	-0.30103
-3.0971296	help	-0.30103
-3.3649442	colleges	-0.30103
-3.3649442	build	-0.30103
-3.3649442	dormitories	-0.30103
-3.3649442	bloat	-0.30103
-2.4091616	was	-0.30103
-1.905931	a	-0.3098039
-3.0971296	good	-0.30103
-3.0971296	win	-0.30103
-3.3649442	us	-0.30103
-3.1748662	has	-0.30103
-3.3649442	been	-0.30103
-3.1748662	done	-0.30103
-3.0971296	yet	-0.30103
-3.0971296	take	-0.30103
-3.3649442	advantage	-0.30103
-2.0682611	of	-0.3187588
-3.3649442	enabling	-0.30103
-3.3649442	legislation	-0.30103
-3.3649442	aluminum	-0.30103
-3.3649442	silverware	-0.30103
-2.3680222	can	-0.41497335
-3.3649442	flimsy	-0.30103
-3.3649442	shy	-0.30103
-3.3649442	cake	-0.30103
-3.3649442	period	-0.30103
-3.3649442	transition	-0.30103
-2.7074149	me	-0.30103
-2.9255886	there	-0.30103
-3.3649442	treehouse	-0.30103
-2.8029432	up	-0.30103
-3.1748662	above	-0.30103
-3.3649442	nine	-0.30103
-3.1748662	not	-0.30103
-3.3649442	program	-0.30103
-3.3649442	socialized	-0.30103
-3.3649442	medicine	-0.30103
-3.3649442	league	-0.30103
-2.9255886	at	-0.30103
-3.3649442	eventually	-0.30103
-3.3649442	became	-0.30103
-3.3649442	rather	-0.30103
-3.3649442	proud	-0.30103
-3.3649442	claim	-0.30103
-3.3649442	seven	-0.30103
-3.3649442	leak	-0.30103
-3.3649442	injuries	-0.30103
-2.6291573	were	-0.30103
-3.3649442	same	-0.30103
-3.3649442	leg	-0.30103
-3.1748662	job	-0.30103
-3.3649442	many	-0.30103
-3.3649442	benefits	-0.30103
-3.3649442	eight	-0.30103
-3.3649442	top	-0.30103
-3.3649442	lima	-0.30103
-3.3649442	vat	-0.30103
-3.3649442	blow	-0.30103
-3.3649442	spain	-0.30103
-3.3649442	fill	-0.30103
-3.3649442	roll	-0.30103
-3.3649442	wire	-0.30103
-3.3649442	lay	-0.30103
-3.3649442	near	-0.30103
-3.1748662	wall	-0.30103
-3.3649442	harm	-0.30103
-3.3649442	wrapped	-0.30103
-3.3649442	package	-0.30103
-3.3649442	hastily	-0.30103
-3.3649442	chop	-0.30103
-3.3649442	books	-0.30103
-2.2958617	are	-0.30103
-2.8029432	very	-0.30103
-3.3649442	expensive	-0.30103
-3.1748662	did	-0.30103
-3.3649442	dad	-0.30103
-3.1748662	academic	-0.30103
-3.3649442	bidding	-0.30103
-3.3649442	shell	-0.30103
-3.3649442	sin	-0.30103
-3.3649442	ticker	-0.30103
-3.3649442	tin	-0.30103
-3.3649442	pair	-0.30103
-3.3649442	shoes	-0.30103
-3.1748662	new	-0.30103
-2.8029432	really	-0.30103
-3.3649442	crucified	-0.30103
-3.3649442	nailed	-0.30103
-3.3649442	yard	-0.30103
-3.3649442	loss	-0.30103
-2.9255886	people	-0.30103
-3.1748662	who	-0.30103
-3.3649442	value	-0.30103
-3.3649442	themselves	-0.30103
-3.3649442	lifes	-0.30103
-3.3649442	winners	-0.30103
-3.3649442	owners	-0.30103
-3.3649442	regularly	-0.30103
-3.0971296	look	-0.30103
-3.3649442	plumbing	-0.30103
-3.1748662	leaks	-0.30103
-3.3649442	xray	-0.30103
-3.3649442	lock	-0.30103
-3.1748662	sand	-0.30103
-3.3649442	ham	-0.30103
-3.0971296	im	-0.30103
-3.3649442	willing	-0.30103
-3.3649442	experiment	-0.30103
-3.1748662	first	-0.30103
-3.1748662	time	-0.30103
-3.3649442	although	-0.30103
-3.1748662	alone	-0.30103
-3.3649442	survive	-0.30103
-3.3649442	excellent	-0.30103
-3.3649442	team	-0.30103
-3.3649442	nut	-0.30103
-3.1748662	please	-0.30103
-3.3649442	open	-0.30103
-3.3649442	window	-0.30103
-3.3649442	quickly	-0.30103
-2.6291573	will	-0.30103
-3.3649442	allow	-0.30103
-3.3649442	rare	-0.30103
-3.3649442	lie	-0.30103
-3.3649442	zulu	-0.30103
-3.0971296	its	-0.30103
-3.3649442	fun	-0.30103
-3.3649442	roast	-0.30103
-3.3649442	marshmallows	-0.30103
-2.9255886	gas	-0.30103
-3.3649442	burner	-0.30103
-3.3649442	wait	-0.30103
-3.1748662	work	-0.30103
-3.3649442	long	-0.30103
-3.3649442	whitecapped	-0.30103
-3.3649442	waves	-0.30103
-3.3649442	covered	-0.30103
-3.3649442	entire	-0.30103
-3.3649442	bay	-0.30103
-3.3649442	then	-0.30103
-3.3649442	wed	-0.30103
-3.3649442	someplace	-0.30103
-3.3649442	bed	-0.30103
-3.3649442	flicker	-0.30103
-3.3649442	bread	-0.30103
-3.3649442	want	-0.30103
-3.3649442	sicker	-0.30103
-3.3649442	greg	-0.30103
-3.3649442	pick	-0.30103
-3.3649442	peck	-0.30103
-3.3649442	potatoes	-0.30103
-3.3649442	fork	-0.30103
-3.0971296	said	-0.30103
-3.3649442	calico	-0.30103
-3.1748662	cat	-0.30103
-3.1748662	keep	-0.30103
-3.3649442	took	-0.30103
-3.0971296	out	-0.30103
-3.0971296	day	-0.30103
-3.1748662	only	-0.30103
-3.3649442	lawyers	-0.30103
-3.3649442	love	-0.30103
-3.3649442	millionaires	-0.30103
-3.3649442	litter	-0.30103
-3.3649442	sink	-0.30103
-3.3649442	red	-0.30103
-3.3649442	ned	-0.30103
-3.3649442	sit	-0.30103
-3.3649442	being	-0.30103
-3.1748662	able	-0.30103
-3.3649442	dance	-0.30103
-3.1748662	too	-0.30103
-3.3649442	hand	-0.30103
-3.3649442	rest	-0.30103
-3.3649442	those	-0.30103
-3.3649442	musicians	-0.30103
-3.3649442	harmonize	-0.30103
-3.3649442	marvelously	-0.30103
-3.1748662	most	-0.30103
-3.1748662	young	-0.30103
-3.1748662	rise	-0.30103
-3.3649442	early	-0.30103
-3.0971296	every	-0.30103
-3.3649442	morning	-0.30103
-3.1748662	bought	-0.30103
-3.3649442	chair	-0.30103
-3.1748662	quicker	-0.30103
-3.3649442	romeo	-0.30103
-3.3649442	travel	-0.30103
-2.8029432	about	-0.30103
-3.3649442	leisure	-0.30103
-3.3649442	nod	-0.30103
-3.0971296	place	-0.30103
-3.3649442	though	-0.30103
-3.3649442	small	-0.30103
-3.3649442	liquor	-0.30103
-3.3649442	beg	-0.30103
-2.7074149	that	-0.30103
-3.3649442	guard	-0.30103
-3.3649442	gallon	-0.30103
-3.0971296	ride	-0.30103
-3.3649442	stagecoach	-0.30103
-3.3649442	neat	-0.30103
-3.3649442	dead	-0.30103
-3.3649442	wit	-0.30103
-3.3649442	called	-0.30103
-3.3649442	different	-0.30103
-3.3649442	painters	-0.30103
-3.3649442	stimulating	-0.30103
-3.3649442	discussions	-0.30103
-3.3649442	students	-0.30103
-3.3649442	attention	-0.30103
-3.3649442	celebrate	-0.30103
-2.8029432	your	-0.30103
-3.1748662	brothers	-0.30103
-3.3649442	success	-0.30103
-3.3649442	lake	-0.30103
-3.3649442	thread	-0.30103
-3.0971296	dont	-0.30103
-3.3649442	charlies	-0.30103
-3.3649442	dirty	-0.30103
-3.3649442	dishes	-0.30103
-3.3649442	sew	-0.30103
-3.3649442	sort	-0.30103
-3.3649442	catch	-0.30103
-3.0971296	played	-0.30103
-3.1748662	basketball	-0.30103
-3.3649442	while	-0.30103
-3.1748662	working	-0.30103
-3.3649442	toward	-0.30103
-3.3649442	law	-0.30103
-3.3649442	degree	-0.30103
-3.3649442	coconut	-0.30103
-3.3649442	cream	-0.30103
-3.3649442	pie	-0.30103
-3.0971296	makes	-0.30103
-3.3649442	nice	-0.30103
-3.3649442	dessert	-0.30103
-3.3649442	selected	-0.30103
-3.3649442	places	-0.30103
-3.1748662	where	-0.30103
-3.3649442	families	-0.30103
-3.3649442	welcome	-0.30103
-3.3649442	cakes	-0.30103
-3.3649442	bill	-0.30103
-3.3649442	accomplished	-0.30103
-3.3649442	artists	-0.30103
-3.3649442	obtain	-0.30103
-3.3649442	popularity	-0.30103
-3.1748662	short	-0.30103
-3.3649442	shin	-0.30103
-3.0971296	some	-0.30103
-3.3649442	prefer	-0.30103
-3.3649442	traditional	-0.30103
-3.3649442	steel	-0.30103
-3.3649442	kind	-0.30103
-3.3649442	cork	-0.30103
-3.3649442	weep	-0.30103
-3.3649442	biblical	-0.30103
-3.3649442	scholars	-0.30103
-3.3649442	argue	-0.30103
-3.3649442	history	-0.30103
-3.3649442	rid	-0.30103
-3.3649442	quart	-0.30103
-3.3649442	shot	-0.30103
-3.3649442	definitely	-0.30103
-3.3649442	ligament	-0.30103
-3.3649442	damage	-0.30103
-3.3649442	knee	-0.30103
-3.3649442	sheep	-0.30103
-3.3649442	snort	-0.30103
-3.3649442	pork	-0.30103
-3.1748662	fact	-0.30103
-3.0971296	our	-0.30103
-3.3649442	whole	-0.30103
-3.3649442	defensive	-0.30103
-3.3649442	unit	-0.30103
-3.3649442	sketch	-0.30103
-3.3649442	knows	-0.30103
-3.0971296	what	-0.30103
-3.3649442	youll	-0.30103
-3.3649442	discover	-0.30103
-3.3649442	yourself	-0.30103
-3.3649442	blend	-0.30103
-3.3649442	shed	-0.30103
-3.1748662	looked	-0.30103
-3.3649442	identical	-0.30103
-3.1748662	critical	-0.30103
-3.3649442	equipment	-0.30103
-3.0971296	needs	-0.30103
-3.3649442	proper	-0.30103
-3.3649442	maintenance	-0.30103
-3.3649442	see	-0.30103
-3.3649442	shop	-0.30103
-3.1748662	heat	-0.30103
-3.3649442	suddenly	-0.30103
-3.3649442	reflexes	-0.30103
-3.3649442	gone	-0.30103
-3.3649442	gill	-0.30103
-3.3649442	show	-0.30103
-3.1748662	read	-0.30103
-3.3649442	results	-0.30103
-3.3649442	disappointing	-0.30103
-3.3649442	tug	-0.30103
-3.3649442	cash	-0.30103
-3.3649442	stretch	-0.30103
-3.3649442	steak	-0.30103
-3.3649442	ray	-0.30103
-3.3649442	fort	-0.30103
-3.3649442	lee	-0.30103
-3.3649442	hold	-0.30103
-3.3649442	ive	-0.30103
-3.3649442	kept	-0.30103
-2.5053759	with	-0.30103
-3.3649442	ever	-0.30103
-3.3649442	since	-0.30103
-3.3649442	thats	-0.30103
-3.0971296	life	-0.30103
-3.3649442	shred	-0.30103
-3.3649442	sight	-0.30103
-3.3649442	fish	-0.30103
-3.3649442	swam	-0.30103
-3.3649442	across	-0.30103
-3.3649442	pond	-0.30103
-3.3649442	doesnt	-0.30103
-3.0971296	like	-0.30103
-3.3649442	hanging	-0.30103
-3.3649442	around	-0.30103
-3.3649442	tort	-0.30103
-3.3649442	meats	-0.30103
-3.3649442	precious	-0.30103
-3.1748662	eat	-0.30103
-3.1748662	sport	-0.30103
-3.3649442	participate	-0.30103
-3.3649442	athletic	-0.30103
-3.3649442	activities	-0.30103
-3.3649442	trespassers	-0.30103
-3.3649442	prosecuted	-0.30103
-3.3649442	fined	-0.30103
-3.3649442	etiquette	-0.30103
-3.3649442	mandates	-0.30103
-3.3649442	compliance	-0.30103
-3.3649442	existing	-0.30103
-3.3649442	regulations	-0.30103
-3.3649442	touchdown	-0.30103
-3.3649442	resulted	-0.30103
-3.1748662	little	-0.30103
-3.3649442	girls	-0.30103
-3.3649442	cut	-0.30103
-3.3649442	lacy	-0.30103
-3.3649442	valentines	-0.30103
-3.3649442	geese	-0.30103
-3.3649442	mill	-0.30103
-3.3649442	barbs	-0.30103
-3.1748662	gold	-0.30103
-3.3649442	bracelet	-0.30103
-3.3649442	graduation	-0.30103
-3.3649442	present	-0.30103
-3.3649442	reap	-0.30103
-3.3649442	dill	-0.30103
-3.3649442	lend	-0.30103
-3.3649442	foe	-0.30103
-3.3649442	asked	-0.30103
-3.3649442	loan	-0.30103
-3.1748662	make	-0.30103
-2.8029432	any	-0.30103
-3.1748662	money	-0.30103
-3.3649442	toe	-0.30103
-3.3649442	threat	-0.30103
-3.3649442	port	-0.30103
-3.3649442	scream	-0.30103
-3.3649442	warm	-0.30103
-3.3649442	voice	-0.30103
-3.3649442	rip	-0.30103
-3.3649442	wise	-0.30103
-3.1748662	think	-0.30103
-3.1748662	full	-0.30103
-3.3649442	stuff	-0.30103
-3.3649442	bend	-0.30103
-3.3649442	muck	-0.30103
-3.3649442	snake	-0.30103
-3.3649442	havent	-0.30103
-3.3649442	seen	-0.30103
-3.3649442	friend	-0.30103
-3.3649442	bumper	-0.30103
-3.3649442	entertaining	-0.30103
-3.3649442	ash	-0.30103
-3.1748662	fit	-0.30103
-3.3649442	sheer	-0.30103
-3.3649442	twilight	-0.30103
-3.3649442	twelfth	-0.30103
-3.3649442	chablis	-0.30103
-3.3649442	hash	-0.30103
-3.3649442	worse	-0.30103
-3.3649442	luck	-0.30103
-3.1748662	still	-0.30103
-3.1748662	come	-0.30103
-3.3649442	golfing	-0.30103
-3.3649442	fathers	-0.30103
-3.3649442	ruled	-0.30103
-3.3649442	favor	-0.30103
-3.3649442	hail	-0.30103
-3.3649442	code	-0.30103
-3.3649442	elderly	-0.30103
-3.3649442	excluded	-0.30103
-3.3649442	beam	-0.30103
-3.3649442	remains	-0.30103
-3.3649442	fiercest	-0.30103
-3.3649442	competitors	-0.30103
-3.3649442	knife	-0.30103
-3.3649442	pete	-0.30103
-3.3649442	addition	-0.30103
-3.3649442	subtraction	-0.30103
-3.3649442	learned	-0.30103
-3.3649442	skills	-0.30103
-3.1748662	found	-0.30103
-3.3649442	anywhere	-0.30103
-3.3649442	gash	-0.30103
-3.3649442	pleased	-0.30103
-3.1748662	way	-0.30103
-2.9255886	things	-0.30103
-3.1748662	went	-0.30103
-3.3649442	loved	-0.30103
-3.3649442	minute	-0.30103
-3.3649442	idea	-0.30103
-3.3649442	fender	-0.30103
-3.3649442	woe	-0.30103
-3.3649442	member	-0.30103
-3.3649442	beast	-0.30103
-3.3649442	suggested	-0.30103
-3.3649442	dinner	-0.30103
-3.0971296	together	-0.30103
-3.3649442	so	-0.30103
-3.0971296	if	-0.30103
-3.3649442	anybody	-0.30103
-3.3649442	solicits	-0.30103
-2.8029432	by	-0.30103
-3.1748662	sure	-0.30103
-3.3649442	mail	-0.30103
-3.3649442	dough	-0.30103
-3.3649442	ambidextrous	-0.30103
-3.3649442	pickpockets	-0.30103
-3.3649442	accomplish	-0.30103
-3.3649442	guess	-0.30103
-3.3649442	wedding	-0.30103
-3.3649442	trip	-0.30103
-3.0971296	her	-0.30103
-3.3649442	dark	-0.30103
-3.3649442	hair	-0.30103
-3.3649442	combed	-0.30103
-3.3649442	casually	-0.30103
-3.3649442	seam	-0.30103
-3.3649442	beep	-0.30103
-3.1748662	quite	-0.30103
-3.3649442	vocal	-0.30103
-3.3649442	requires	-0.30103
-3.3649442	investment	-0.30103
-3.3649442	pickpocket	-0.30103
-3.3649442	caught	-0.30103
-3.3649442	redhanded	-0.30103
-3.3649442	mock	-0.30103
-3.3649442	dock	-0.30103
-3.1748662	sea	-0.30103
-3.3649442	grandmother	-0.30103
-3.3649442	outgrew	-0.30103
-3.3649442	upbringing	-0.30103
-3.3649442	petticoats	-0.30103
-3.3649442	sun	-0.30103
-3.3649442	died	-0.30103
-3.3649442	ember	-0.30103
-3.3649442	seat	-0.30103
-3.3649442	food	-0.30103
-3.3649442	reef	-0.30103
-3.3649442	fire	-0.30103
-3.3649442	straw	-0.30103
-3.3649442	blaze	-0.30103
-3.3649442	sender	-0.30103
-3.3649442	classical	-0.30103
-3.3649442	performance	-0.30103
-3.3649442	gained	-0.30103
-3.3649442	acclaim	-0.30103
-3.3649442	position	-0.30103
-3.1748662	covers	-0.30103
-3.3649442	number	-0.30103
-3.3649442	daily	-0.30103
-3.3649442	tasks	-0.30103
-3.3649442	common	-0.30103
-3.3649442	social	-0.30103
-3.3649442	director	-0.30103
-3.3649442	marriage	-0.30103
-2.7074149	from	-0.30103
-3.1748662	start	-0.30103
-3.1748662	tell	-0.30103
-3.3649442	wonderful	-0.30103
-3.3649442	renter	-0.30103
-3.3649442	row	-0.30103
-3.3649442	lender	-0.30103
-3.3649442	ape	-0.30103
-3.1748662	didnt	-0.30103
-3.3649442	forks	-0.30103
-3.3649442	tender	-0.30103
-3.3649442	tea	-0.30103
-3.3649442	popular	-0.30103
-3.3649442	fans	-0.30103
-3.3649442	timber	-0.30103
-3.3649442	leap	-0.30103
-3.3649442	catastrophic	-0.30103
-3.3649442	economic	-0.30103
-3.3649442	cutbacks	-0.30103
-3.3649442	neglect	-0.30103
-3.3649442	poor	-0.30103
-3.3649442	tail	-0.30103
-3.3649442	bender	-0.30103
-3.3649442	ache	-0.30103
-3.3649442	center	-0.30103
-3.3649442	mom	-0.30103
-3.3649442	strongly	-0.30103
-3.3649442	dislikes	-0.30103
-3.3649442	appetizers	-0.30103
-3.3649442	beef	-0.30103
-3.3649442	temper	-0.30103
-2.8029432	had	-0.30103
-3.3649442	desire	-0.30103
-3.3649442	change	-0.30103
-3.3649442	ways	-0.30103
-3.3649442	wax	-0.30103
-3.3649442	pet	-0.30103
-3.3649442	aid	-0.30103
-3.3649442	knock	-0.30103
-3.3649442	lies	-0.30103
-3.3649442	cheese	-0.30103
-3.3649442	hatch	-0.30103
-3.3649442	lack	-0.30103
-3.3649442	compounded	-0.30103
-3.3649442	tenants	-0.30103
-3.1748662	grievances	-0.30103
-3.3649442	bunch	-0.30103
-3.3649442	contributions	-0.30103
-3.3649442	greatly	-0.30103
-3.3649442	appreciated	-0.30103
-3.3649442	ease	-0.30103
-3.3649442	add	-0.30103
-3.3649442	chocolate	-0.30103
-3.3649442	roses	-0.30103
-3.1748662	never	-0.30103
-3.3649442	fail	-0.30103
-3.3649442	romantic	-0.30103
-3.3649442	gift	-0.30103
-3.3649442	legislature	-0.30103
-3.3649442	met	-0.30103
-3.1748662	judge	-0.30103
-3.3649442	state	-0.30103
-3.3649442	public	-0.30103
-3.3649442	education	-0.30103
-3.3649442	largest	-0.30103
-3.3649442	states	-0.30103
-3.3649442	peas	-0.30103
-3.3649442	bun	-0.30103
-3.3649442	punch	-0.30103
-3.3649442	ail	-0.30103
-3.3649442	begin	-0.30103
-3.3649442	trying	-0.30103
-3.3649442	speak	-0.30103
-3.3649442	tall	-0.30103
-3.3649442	range	-0.30103
-3.3649442	vital	-0.30103
-3.3649442	detail	-0.30103
-3.3649442	pill	-0.30103
-3.3649442	racks	-0.30103
-3.3649442	structures	-0.30103
-3.3649442	housing	-0.30103
-3.3649442	apartments	-0.30103
-3.3649442	masonry	-0.30103
-3.3649442	frame	-0.30103
-3.3649442	construction	-0.30103
-3.3649442	aches	-0.30103
-3.3649442	lit	-0.30103
-3.3649442	singers	-0.30103
-3.3649442	finger	-0.30103
-3.3649442	splinter	-0.30103
-3.3649442	now	-0.30103
-3.3649442	living	-0.30103
-3.3649442	exactly	-0.30103
-3.3649442	choose	-0.30103
-3.3649442	duck	-0.30103
-3.3649442	arm	-0.30103
-3.3649442	wanted	-0.30103
-3.3649442	actress	-0.30103
-3.1748662	fell	-0.30103
-3.3649442	aptitude	-0.30103
-3.3649442	guarantees	-0.30103
-3.3649442	diploma	-0.30103
-3.3649442	charm	-0.30103
-3.3649442	great	-0.30103
-3.3649442	meeting	-0.30103
-3.3649442	prepared	-0.30103
-3.3649442	odd	-0.30103
-3.3649442	behavior	-0.30103
-3.3649442	friends	-0.30103
-3.3649442	mile	-0.30103
-3.3649442	rakes	-0.30103
-3.3649442	talked	-0.30103
-3.3649442	situation	-0.30103
-3.1748662	other	-0.30103
-3.3649442	items	-0.30103
-3.3649442	fear	-0.30103
-3.0971296	sat	-0.30103
-3.3649442	relaxed	-0.30103
-3.3649442	hall	-0.30103
-3.3649442	sake	-0.30103
-3.1748662	know	-0.30103
-3.3649442	coming	-0.30103
-3.3649442	pockets	-0.30103
-3.3649442	hell	-0.30103
-3.1748662	them	-0.30103
-3.3649442	box	-0.30103
-3.3649442	plot	-0.30103
-3.3649442	laced	-0.30103
-3.3649442	mysterious	-0.30103
-3.3649442	incidents	-0.30103
-3.3649442	shelled	-0.30103
-3.3649442	clams	-0.30103
-3.3649442	chowder	-0.30103
-3.3649442	experience	-0.30103
-3.3649442	distress	-0.30103
-3.3649442	frustration	-0.30103
-3.3649442	obtaining	-0.30103
-3.3649442	degrees	-0.30103
-3.3649442	ticks	-0.30103
-3.3649442	prowler	-0.30103
-3.3649442	wore	-0.30103
-3.3649442	ski	-0.30103
-3.3649442	mask	-0.30103
-3.3649442	disguise	-0.30103
-3.1748662	confirmation	-0.30103
-3.1748662	such	-0.30103
-3.3649442	massive	-0.30103
-3.3649442	assaults	-0.30103
-3.3649442	independent	-0.30103
-3.3649442	sources	-0.30103
-3.3649442	chap	-0.30103
-3.3649442	lax	-0.30103
-3.1748662	score	-0.30103
-3.3649442	munch	-0.30103
-3.3649442	added	-0.30103
-3.3649442	brought	-0.30103
-3.1748662	petty	-0.30103
-3.3649442	jealousies	-0.30103
-3.3649442	personal	-0.30103
-3.3649442	even	-0.30103
-3.3649442	simple	-0.30103
-3.3649442	vocabulary	-0.30103
-3.3649442	contains	-0.30103
-3.3649442	symbols	-0.30103
-3.3649442	end	-0.30103
-3.3649442	eastern	-0.30103
-3.3649442	coast	-0.30103
-3.3649442	pure	-0.30103
-3.1748662	pleasure	-0.30103
-3.3649442	excitement	-0.30103
-3.3649442	dial	-0.30103
-3.3649442	low	-0.30103
-3.3649442	cold	-0.30103
-3.3649442	whip	-0.30103
-3.3649442	few	-0.30103
-3.3649442	bad	-0.30103
-3.3649442	ink	-0.30103
-3.3649442	handle	-0.30103
-3.3649442	theyll	-0.30103
-3.3649442	again	-0.30103
-3.3649442	term	-0.30103
-3.3649442	wide	-0.30103
-3.3649442	drenched	-0.30103
-3.3649442	uninterrupted	-0.30103
-3.3649442	pant	-0.30103
-3.1748662	may	-0.30103
-3.1748662	hard	-0.30103
-3.1748662	find	-0.30103
-3.3649442	cable	-0.30103
-3.3649442	translated	-0.30103
-3.3649442	weve	-0.30103
-3.3649442	past	-0.30103
-3.3649442	burn	-0.30103
-3.3649442	knew	-0.30103
-3.3649442	werent	-0.30103
-3.3649442	doing	-0.30103
-3.3649442	upgrade	-0.30103
-3.3649442	status	-0.30103
-3.3649442	reflect	-0.30103
-3.3649442	wealth	-0.30103
-3.1748662	spring	-0.30103
-3.1748662	street	-0.30103
-3.3649442	straight	-0.30103
-3.3649442	ahead	-0.30103
-3.3649442	serves	-0.30103
-3.3649442	meals	-0.30103
-3.3649442	disappointed	-0.30103
-3.3649442	order	-0.30103
-3.1748662	wine	-0.30103
-3.3649442	eyes	-0.30103
-3.3649442	weave	-0.30103
-3.3649442	family	-0.30103
-3.3649442	requests	-0.30103
-3.3649442	flowers	-0.30103
-3.3649442	omitted	-0.30103
-3.3649442	wart	-0.30103
-3.3649442	wack	-0.30103
-3.1748662	needed	-0.30103
-3.3649442	dash	-0.30103
-3.3649442	heart	-0.30103
-3.3649442	snow	-0.30103
-3.3649442	blew	-0.30103
-3.1748662	into	-0.30103
-3.1748662	large	-0.30103
-3.3649442	drifts	-0.30103
-3.3649442	regular	-0.30103
-3.3649442	attendance	-0.30103
-3.3649442	seldom	-0.30103
-3.3649442	required	-0.30103
-3.3649442	ball	-0.30103
-3.1748662	myself	-0.30103
-3.3649442	last	-0.30103
-3.3649442	shortage	-0.30103
-3.3649442	caused	-0.30103
-3.3649442	steep	-0.30103
-3.3649442	price	-0.30103
-3.3649442	increases	-0.30103
-3.3649442	cars	-0.30103
-3.3649442	slightly	-0.30103
-3.3649442	damaged	-0.30103
-3.3649442	highway	-0.30103
-3.3649442	empty	-0.30103
-3.3649442	staff	-0.30103
-3.3649442	deserves	-0.30103
-3.3649442	lot	-0.30103
-3.3649442	credit	-0.30103
-3.1748662	here	-0.30103
-3.3649442	under	-0.30103
-3.3649442	real	-0.30103
-3.3649442	obstacles	-0.30103
-3.3649442	hid	-0.30103
-3.3649442	why	-0.30103
-3.3649442	luke	-0.30103
-3.3649442	fold	-0.30103
-3.3649442	pink	-0.30103
-3.3649442	waste	-0.30103
-3.3649442	raisins	-0.30103
-3.3649442	outdoors	-0.30103
-3.1748662	porch	-0.30103
-3.3649442	steps	-0.30103
-3.3649442	noted	-0.30103
-3.3649442	carefully	-0.30103
-3.1748662	through	-0.30103
-3.3649442	clean	-0.30103
-3.3649442	report	-0.30103
-3.3649442	sail	-0.30103
-3.3649442	wipe	-0.30103
-3.3649442	continental	-0.30103
-3.3649442	drift	-0.30103
-3.3649442	geological	-0.30103
-3.3649442	theory	-0.30103
-3.3649442	huge	-0.30103
-3.3649442	part	-0.30103
-3.3649442	porcupines	-0.30103
-3.3649442	resemble	-0.30103
-3.3649442	urchins	-0.30103
-3.3649442	challenge	-0.30103
-3.1748662	each	-0.30103
-3.3649442	generals	-0.30103
-3.3649442	intelligence	-0.30103
-3.3649442	wives	-0.30103
-3.3649442	cant	-0.30103
-3.3649442	abide	-0.30103
-3.3649442	mistakes	-0.30103
-3.3649442	own	-0.30103
-3.1748662	game	-0.30103
-3.3649442	docks	-0.30103
-3.3649442	pole	-0.30103
-3.3649442	stable	-0.30103
-3.3649442	hiring	-0.30103
-3.3649442	wife	-0.30103
-3.3649442	ones	-0.30103
-3.3649442	company	-0.30103
-3.3649442	taxaided	-0.30103
-3.3649442	retirement	-0.30103
-3.3649442	income	-0.30103
-3.3649442	must	-0.30103
-3.3649442	ready	-0.30103
-3.3649442	sacrifice	-0.30103
-3.3649442	ban	-0.30103
-3.3649442	trips	-0.30103
-3.3649442	page	-0.30103
-3.3649442	accordion	-0.30103
-3.3649442	paid	-0.30103
-3.3649442	sprain	-0.30103
-3.3649442	fool	-0.30103
-3.3649442	boat	-0.30103
-3.3649442	ramp	-0.30103
-3.3649442	service	-0.30103
-3.3649442	should	-0.30103
-3.3649442	rewarded	-0.30103
-3.3649442	tips	-0.30103
-3.1748662	paint	-0.30103
-3.3649442	canteen	-0.30103
-3.3649442	fresh	-0.30103
-3.1748662	water	-0.30103
-3.3649442	shook	-0.30103
-3.3649442	mat	-0.30103
-3.3649442	sap	-0.30103
-3.3649442	pain	-0.30103
-3.3649442	hides	-0.30103
-3.3649442	mayonnaise	-0.30103
-3.3649442	fall	-0.30103
-3.3649442	mall	-0.30103
-3.3649442	feel	-0.30103
-3.3649442	seemed	-0.30103
-3.3649442	appealing	-0.30103
-3.3649442	panel	-0.30103
-3.3649442	doctors	-0.30103
-3.3649442	prescribe	-0.30103
-3.3649442	drugs	-0.30103
-3.3649442	freely	-0.30103
-3.3649442	vamp	-0.30103
-3.3649442	rat	-0.30103
-3.1748662	saw	-0.30103
-3.3649442	weeks	-0.30103
-3.3649442	illegal	-0.30103
-3.3649442	postdate	-0.30103
-3.3649442	check	-0.30103
-3.3649442	space	-0.30103
-3.3649442	naval	-0.30103
-3.3649442	stall	-0.30103
-3.3649442	spade	-0.30103
-3.3649442	acting	-0.30103
-3.3649442	accident	-0.30103
-3.3649442	damp	-0.30103
-3.3649442	spray	-0.30103
-3.3649442	peach	-0.30103
-3.3649442	mabel	-0.30103
-3.3649442	told	-0.30103
-3.3649442	seriously	-0.30103
-3.3649442	injured	-0.30103
-3.3649442	because	-0.30103
-3.1748662	practical	-0.30103
-3.3649442	funnel	-0.30103
-3.3649442	tap	-0.30103
-3.3649442	name	-0.30103
-3.3649442	gently	-0.30103
-3.3649442	jims	-0.30103
-3.3649442	foam	-0.30103
-3.3649442	sculpture	-0.30103
-3.3649442	maybe	-0.30103
-3.3649442	taking	-0.30103
-3.3649442	longer	-0.30103
-3.3649442	squared	-0.30103
-3.3649442	away	-0.30103
-3.3649442	bankers	-0.30103
-3.3649442	expected	-0.30103
-3.3649442	reach	-0.30103
-3.3649442	file	-0.30103
-3.3649442	soon	-0.30103
-3.3649442	muttering	-0.30103
-3.3649442	walls	-0.30103
-3.3649442	telephone	-0.30103
-3.3649442	booths	-0.30103
-3.3649442	arent	-0.30103
-3.3649442	easy	-0.30103
-3.3649442	paste	-0.30103
-3.3649442	foil	-0.30103
-3.3649442	map	-0.30103
-3.3649442	gable	-0.30103
-3.3649442	bull	-0.30103
-3.3649442	crawl	-0.30103
-3.3649442	pale	-0.30103
-3.3649442	creature	-0.30103
-3.3649442	pocket	-0.30103
-3.3649442	married	-0.30103
-3.3649442	saddle	-0.30103
-3.3649442	bowl	-0.30103
-3.3649442	nap	-0.30103
-3.3649442	table	-0.30103
-3.3649442	sable	-0.30103
-3.3649442	fable	-0.30103
-3.3649442	mold	-0.30103
-3.3649442	mole	-0.30103
-3.3649442	impossible	-0.30103
-3.1748662	deal	-0.30103
-3.3649442	bureaucracy	-0.30103
-3.3649442	pace	-0.30103
-3.3649442	call	-0.30103
-3.3649442	describe	-0.30103
-3.3649442	idiotic	-0.30103
-3.3649442	predicament	-0.30103
-3.3649442	screech	-0.30103
-3.3649442	ladle	-0.30103
-3.3649442	bash	-0.30103
-3.3649442	room	-0.30103
-3.0971296	or	-0.30103
-3.3649442	portrait	-0.30103
-3.3649442	bagpipes	-0.30103
-3.3649442	bongos	-0.30103
-3.3649442	musical	-0.30103
-3.3649442	instruments	-0.30103
-3.3649442	thought	-0.30103
-3.1748662	gin	-0.30103
-3.3649442	saws	-0.30103
-3.3649442	parts	-0.30103
-3.3649442	supplies	-0.30103
-3.3649442	used	-0.30103
-3.3649442	machinery	-0.30103
-3.3649442	final	-0.30103
-3.3649442	giggling	-0.30103
-3.3649442	owl	-0.30103
-3.3649442	cliffs	-0.30103
-3.3649442	display	-0.30103
-3.3649442	misplaced	-0.30103
-3.3649442	screen	-0.30103
-3.3649442	teach	-0.30103
-3.3649442	official	-0.30103
-3.3649442	deadline	-0.30103
-3.3649442	cannot	-0.30103
-3.3649442	postponed	-0.30103
-3.3649442	bog	-0.30103
-3.3649442	rattle	-0.30103
-3.1748662	sold	-0.30103
-3.3649442	bank	-0.30103
-3.3649442	shawl	-0.30103
-3.3649442	soul	-0.30103
-3.3649442	preach	-0.30103
-3.3649442	pull	-0.30103
-3.3649442	boone	-0.30103
-3.3649442	suppress	-0.30103
-3.3649442	wages	-0.30103
-3.3649442	key	-0.30103
-3.3649442	issue	-0.30103
-3.3649442	unfortunately	-0.30103
-3.3649442	demand	-0.30103
-3.3649442	broccoli	-0.30103
-3.3649442	cauliflower	-0.30103
-3.3649442	badger	-0.30103
-3.3649442	contrast	-0.30103
-3.3649442	household	-0.30103
-3.3649442	lots	-0.30103
-3.3649442	appliances	-0.30103
-3.3649442	grain	-0.30103
-3.3649442	paintings	-0.30103
-3.3649442	auction	-0.30103
-3.3649442	impress	-0.30103
-3.3649442	occur	-0.30103
-3.3649442	shore	-0.30103
-3.3649442	book	-0.30103
-3.3649442	bin	-0.30103
-3.3649442	weeds	-0.30103
-3.3649442	strong	-0.30103
-3.3649442	fast	-0.30103
-3.3649442	fudge	-0.30103
-3.3649442	rust	-0.30103
-3.3649442	misprint	-0.30103
-3.3649442	provoked	-0.30103
-3.3649442	immediate	-0.30103
-3.3649442	disclaimer	-0.30103
-3.3649442	contract	-0.30103
-3.3649442	limb	-0.30103
-3.3649442	musk	-0.30103
-3.3649442	rut	-0.30103
-3.3649442	serve	-0.30103
-3.3649442	grape	-0.30103
-3.3649442	intact	-0.30103
-3.3649442	picnic	-0.30103
-3.3649442	subtract	-0.30103
-3.3649442	plant	-0.30103
-3.3649442	original	-0.30103
-3.3649442	forgery	-0.30103
-3.3649442	either	-0.30103
-3.3649442	walked	-0.30103
-3.1748662	driven	-0.30103
-3.3649442	primitive	-0.30103
-3.3649442	tribes	-0.30103
-3.3649442	upbeat	-0.30103
-3.3649442	attitude	-0.30103
-3.3649442	shut	-0.30103
-3.3649442	retract	-0.30103
-3.3649442	displayed	-0.30103
-3.3649442	lamps	-0.30103
-3.3649442	puppets	-0.30103
-3.3649442	delight	-0.30103
-3.3649442	children	-0.30103
-3.3649442	decorative	-0.30103
-3.3649442	accent	-0.30103
-3.3649442	globe	-0.30103
-3.3649442	grave	-0.30103
-3.3649442	bust	-0.30103
-3.3649442	depress	-0.30103
-3.3649442	dusk	-0.30103
-3.3649442	slim	-0.30103
-3.3649442	flying	-0.30103
-3.3649442	standby	-0.30103
-3.3649442	save	-0.30103
-3.3649442	instructions	-0.30103
-3.3649442	desperately	-0.30103
-3.3649442	need	-0.30103
-3.3649442	updating	-0.30103
-3.3649442	preserve	-0.30103
-3.3649442	converge	-0.30103
-3.3649442	booth	-0.30103
-3.3649442	railroads	-0.30103
-3.3649442	future	-0.30103
-3.3649442	west	-0.30103
-3.3649442	beauty	-0.30103
-3.3649442	surrounds	-0.30103
-3.3649442	id	-0.30103
-3.3649442	put	-0.30103
-3.3649442	weight	-0.30103
-3.3649442	lisp	-0.30103
-3.3649442	hispanic	-0.30103
-3.3649442	costumes	-0.30103
-3.3649442	colorful	-0.30103
-3.3649442	tore	-0.30103
-3.3649442	strange	-0.30103
-3.3649442	refer	-0.30103
-3.3649442	deserve	-0.30103
-3.3649442	glib	-0.30103
-3.3649442	grope	-0.30103
-3.3649442	absurd	-0.30103
-3.3649442	kat	-0.30103
-3.3649442	kittens	-0.30103
-3.3649442	cement	-0.30103
-3.3649442	measured	-0.30103
-3.3649442	cubic	-0.30103
-3.3649442	yards	-0.30103
-3.3649442	grange	-0.30103
-3.3649442	lid	-0.30103
-3.3649442	could	-0.30103
-3.3649442	bus	-0.30103
-3.3649442	brain	-0.30103
-3.3649442	boast	-0.30103
-3.3649442	observe	-0.30103
-3.3649442	reserve	-0.30103
-3.3649442	slid	-0.30103
-3.3649442	list	-0.30103
-3.3649442	conserve	-0.30103
-3.3649442	repress	-0.30103
-3.3649442	scorch	-0.30103
-3.3649442	strike	-0.30103
-3.3649442	spread	-0.30103
-3.3649442	super	-0.30103
-3.3649442	split	-0.30103
-3.3649442	hotel	-0.30103
-3.3649442	owner	-0.30103
-3.3649442	struggled	-0.30103
-3.3649442	ok	-0.30103
-3.3649442	actually	-0.30103
-3.3649442	owe	-0.30103
-3.3649442	lead	-0.30103
-3.3649442	jaw	-0.30103
-3.3649442	cope	-0.30103
-3.3649442	drop	-0.30103
-3.3649442	shout	-0.30103
-3.3649442	weekend	-0.30103
-3.3649442	relax	-0.30103
-3.3649442	oh	-0.30103
-3.1748662	spark	-0.30103
-3.3649442	skip	-0.30103
-3.3649442	ah	-0.30103
-3.3649442	slip	-0.30103
-3.3649442	chose	-0.30103
-3.3649442	innocense	-0.30103

\2-grams:
-0.2008271	pat </s>	0
-0.2008271	meat </s>	0
-0.2008271	air </s>	0
-0.2008271	swarm </s>	0
-0.6387315	no </s>	0
-0.2008271	storm </s>	0
-0.2008271	buttons </s>	0
-0.2008271	dug </s>	0
-0.2008271	feet </s>	0
-0.2008271	train </s>	0
-0.42049438	but </s>	0
-0.80262387	he </s>	0
-0.2008271	oil </s>	0
-0.2008271	beat </s>	0
-0.2008271	dog </s>	0
-0.75643754	have </s>	0
-0.77412647	to </s>	0
-0.42049438	more </s>	0
-0.8195988	and </s>	0
-0.2008271	less </s>	0
-0.2008271	rake </s>	0
-0.8137038	for </s>	0
-0.42049438	grow </s>	0
-0.5938741	one </s>	0
-0.5280873	two </s>	0
-0.2008271	rage </s>	0
-0.2008271	form </s>	0
-0.2008271	farm </s>	0
-0.2008271	horn </s>	0
-0.2008271	sheet </s>	0
-0.2008271	ship </s>	0
-0.2008271	left </s>	0
-0.2008271	sticks </s>	0
-0.2008271	glow </s>	0
-0.2008271	born </s>	0
-0.2008271	corn </s>	0
-0.42049438	right </s>	0
-0.4633878	well </s>	0
-0.84164655	is </s>	0
-0.5280873	three </s>	0
-0.42049438	years </s>	0
-0.42049438	old </s>	0
-0.2008271	feed </s>	0
-0.2008271	rain </s>	0
-0.2008271	tip </s>	0
-0.5280873	down </s>	0
-0.42049438	store </s>	0
-0.8156008	in </s>	0
-0.2008271	coat </s>	0
-0.2008271	language </s>	0
-0.2008271	torn </s>	0
-0.2008271	yes </s>	0
-0.2008271	sleep </s>	0
-0.5938741	both </s>	0
-0.5280873	go </s>	0
-0.33433437	later </s>	0
-0.2008271	troop </s>	0
-0.2008271	wish </s>	0
-0.2008271	ate </s>	0
-0.2008271	hear </s>	0
-0.2008271	pot </s>	0
-0.2008271	white </s>	0
-0.2008271	aprons </s>	0
-0.2008271	best </s>	0
-0.42049438	deer </s>	0
-0.2008271	group </s>	0
-0.2008271	cheer </s>	0
-0.2008271	thigh </s>	0
-0.2008271	coupe </s>	0
-0.42049438	write </s>	0
-0.2008271	area </s>	0
-0.2008271	steer </s>	0
-0.2008271	tile </s>	0
-0.2008271	select </s>	0
-0.2008271	forward </s>	0
-0.2008271	curtains </s>	0
-0.5280873	much </s>	0
-0.2008271	hate </s>	0
-0.2008271	whoop </s>	0
-0.2008271	wet </s>	0
-0.2008271	shoot </s>	0
-0.2008271	slay </s>	0
-0.42049438	play </s>	0
-0.7161181	all </s>	0
-0.6387315	big </s>	0
-0.2008271	traded </s>	0
-0.2008271	thoroughly </s>	0
-0.2008271	boot </s>	0
-0.2008271	rocks </s>	0
-0.2008271	witch </s>	0
-0.2008271	galore </s>	0
-0.2008271	delta </s>	0
-0.6964034	she </s>	0
-0.2008271	am </s>	0
-0.2008271	innocence </s>	0
-0.2008271	menu </s>	0
-0.2008271	peer </s>	0
-0.2008271	lip </s>	0
-0.2008271	beach </s>	0
-0.2008271	mere </s>	0
-0.2008271	pad </s>	0
-0.42049438	house </s>	0
-0.2008271	urgent </s>	0
-0.5280873	four </s>	0
-0.42049438	night </s>	0
-0.5280873	phone </s>	0
-0.2008271	calls </s>	0
-0.2008271	november </s>	0
-0.6507091	you </s>	0
-0.2008271	mush </s>	0
-0.2008271	oscar </s>	0
-0.42049438	sell </s>	0
-0.42049438	five </s>	0
-0.2008271	pit </s>	0
-0.2008271	zero </s>	0
-0.2008271	fat </s>	0
-0.2008271	darn </s>	0
-0.5280873	expect </s>	0
-0.2008271	week </s>	0
-0.2008271	six </s>	0
-0.2008271	force </s>	0
-0.2008271	hat </s>	0
-0.2008271	seed </s>	0
-0.2008271	pitting </s>	0
-0.7161181	it </s>	0
-0.2008271	dormitories </s>	0
-0.2008271	bloat </s>	0
-0.79315555	was </s>	0
-0.862767	a </s>	0
-0.6714365	good </s>	0
-0.5280873	win </s>	0
-0.2008271	us </s>	0
-0.5280873	yet </s>	0
-0.5280873	take </s>	0
-0.839932	of </s>	0
-0.2008271	legislation </s>	0
-0.2008271	flimsy </s>	0
-0.2008271	shy </s>	0
-0.2008271	cake </s>	0
-0.42049438	me </s>	0
-0.6387315	up </s>	0
-0.2008271	above </s>	0
-0.2008271	nine </s>	0
-0.42049438	program </s>	0
-0.2008271	medicine </s>	0
-0.2008271	league </s>	0
-0.6387315	at </s>	0
-0.2008271	claim </s>	0
-0.2008271	seven </s>	0
-0.2008271	leak </s>	0
-0.2008271	leg </s>	0
-0.5280873	job </s>	0
-0.2008271	benefits </s>	0
-0.2008271	eight </s>	0
-0.2008271	top </s>	0
-0.2008271	lima </s>	0
-0.2008271	vat </s>	0
-0.2008271	blow </s>	0
-0.2008271	spain </s>	0
-0.42049438	fill </s>	0
-0.2008271	wall </s>	0
-0.2008271	harm </s>	0
-0.2008271	hastily </s>	0
-0.2008271	chop </s>	0
-0.7875721	are </s>	0
-0.2008271	expensive </s>	0
-0.2008271	bidding </s>	0
-0.2008271	shell </s>	0
-0.2008271	sin </s>	0
-0.2008271	ticker </s>	0
-0.2008271	tin </s>	0
-0.42049438	new </s>	0
-0.2008271	loss </s>	0
-0.2008271	winners </s>	0
-0.2008271	leaks </s>	0
-0.2008271	xray </s>	0
-0.2008271	lock </s>	0
-0.2008271	sand </s>	0
-0.2008271	ham </s>	0
-0.42049438	first </s>	0
-0.42049438	time </s>	0
-0.42049438	alone </s>	0
-0.2008271	survive </s>	0
-0.2008271	team </s>	0
-0.2008271	nut </s>	0
-0.2008271	quickly </s>	0
-0.2008271	lie </s>	0
-0.2008271	zulu </s>	0
-0.42049438	gas </s>	0
-0.2008271	burner </s>	0
-0.2008271	long </s>	0
-0.2008271	bay </s>	0
-0.2008271	bed </s>	0
-0.2008271	flicker </s>	0
-0.2008271	bread </s>	0
-0.2008271	sicker </s>	0
-0.2008271	potatoes </s>	0
-0.2008271	fork </s>	0
-0.5280873	said </s>	0
-0.42049438	cat </s>	0
-0.42049438	keep </s>	0
-0.5280873	out </s>	0
-0.33433437	day </s>	0
-0.2008271	millionaires </s>	0
-0.2008271	litter </s>	0
-0.2008271	sink </s>	0
-0.2008271	red </s>	0
-0.2008271	ned </s>	0
-0.2008271	sit </s>	0
-0.42049438	able </s>	0
-0.42049438	too </s>	0
-0.2008271	hand </s>	0
-0.2008271	rest </s>	0
-0.2008271	marvelously </s>	0
-0.42049438	rise </s>	0
-0.2008271	morning </s>	0
-0.42049438	bought </s>	0
-0.2008271	chair </s>	0
-0.42049438	quicker </s>	0
-0.2008271	romeo </s>	0
-0.6387315	about </s>	0
-0.2008271	nod </s>	0
-0.2008271	small </s>	0
-0.2008271	liquor </s>	0
-0.42049438	beg </s>	0
-0.7161181	that </s>	0
-0.5280873	ride </s>	0
-0.2008271	stagecoach </s>	0
-0.2008271	neat </s>	0
-0.2008271	dead </s>	0
-0.2008271	wit </s>	0
-0.2008271	painters </s>	0
-0.2008271	attention </s>	0
-0.2008271	success </s>	0
-0.2008271	lake </s>	0
-0.2008271	thread </s>	0
-0.5280873	dont </s>	0
-0.2008271	dishes </s>	0
-0.2008271	sew </s>	0
-0.2008271	sort </s>	0
-0.2008271	catch </s>	0
-0.5280873	played </s>	0
-0.2008271	degree </s>	0
-0.2008271	dessert </s>	0
-0.2008271	welcome </s>	0
-0.2008271	cakes </s>	0
-0.2008271	bill </s>	0
-0.2008271	popularity </s>	0
-0.42049438	short </s>	0
-0.2008271	shin </s>	0
-0.2008271	kind </s>	0
-0.2008271	cork </s>	0
-0.2008271	weep </s>	0
-0.2008271	history </s>	0
-0.2008271	rid </s>	0
-0.2008271	quart </s>	0
-0.2008271	shot </s>	0
-0.2008271	knee </s>	0
-0.2008271	sheep </s>	0
-0.2008271	snort </s>	0
-0.2008271	pork </s>	0
-0.2008271	sketch </s>	0
-0.2008271	yourself </s>	0
-0.2008271	blend </s>	0
-0.2008271	shed </s>	0
-0.2008271	identical </s>	0
-0.2008271	maintenance </s>	0
-0.2008271	see </s>	0
-0.2008271	shop </s>	0
-0.42049438	heat </s>	0
-0.2008271	gone </s>	0
-0.2008271	gill </s>	0
-0.2008271	show </s>	0
-0.2008271	read </s>	0
-0.2008271	disappointing </s>	0
-0.2008271	tug </s>	0
-0.2008271	cash </s>	0
-0.2008271	stretch </s>	0
-0.2008271	steak </s>	0
-0.2008271	ray </s>	0
-0.2008271	fort </s>	0
-0.2008271	lee </s>	0
-0.2008271	hold </s>	0
-0.7320954	with </s>	0
-0.2008271	since </s>	0
-0.5280873	life </s>	0
-0.2008271	shred </s>	0
-0.2008271	sight </s>	0
-0.2008271	pond </s>	0
-0.2008271	around </s>	0
-0.2008271	tort </s>	0
-0.2008271	meats </s>	0
-0.2008271	precious </s>	0
-0.5280873	eat </s>	0
-0.2008271	sport </s>	0
-0.2008271	activities </s>	0
-0.2008271	fined </s>	0
-0.2008271	regulations </s>	0
-0.2008271	resulted </s>	0
-0.2008271	valentines </s>	0
-0.2008271	geese </s>	0
-0.2008271	mill </s>	0
-0.2008271	present </s>	0
-0.2008271	reap </s>	0
-0.2008271	dill </s>	0
-0.2008271	lend </s>	0
-0.2008271	foe </s>	0
-0.2008271	loan </s>	0
-0.2008271	money </s>	0
-0.2008271	toe </s>	0
-0.2008271	threat </s>	0
-0.2008271	port </s>	0
-0.2008271	voice </s>	0
-0.2008271	rip </s>	0
-0.2008271	wise </s>	0
-0.42049438	full </s>	0
-0.2008271	stuff </s>	0
-0.2008271	bend </s>	0
-0.2008271	muck </s>	0
-0.2008271	snake </s>	0
-0.2008271	bumper </s>	0
-0.2008271	ash </s>	0
-0.42049438	fit </s>	0
-0.2008271	sheer </s>	0
-0.2008271	chablis </s>	0
-0.2008271	hash </s>	0
-0.42049438	come </s>	0
-0.2008271	favor </s>	0
-0.2008271	hail </s>	0
-0.2008271	code </s>	0
-0.2008271	excluded </s>	0
-0.2008271	beam </s>	0
-0.2008271	competitors </s>	0
-0.2008271	knife </s>	0
-0.2008271	pete </s>	0
-0.2008271	skills </s>	0
-0.2008271	anywhere </s>	0
-0.2008271	gash </s>	0
-0.42049438	went </s>	0
-0.2008271	idea </s>	0
-0.2008271	fender </s>	0
-0.2008271	woe </s>	0
-0.2008271	member </s>	0
-0.2008271	beast </s>	0
-0.2008271	together </s>	0
-0.2008271	guess </s>	0
-0.2008271	casually </s>	0
-0.2008271	seam </s>	0
-0.2008271	beep </s>	0
-0.2008271	vocal </s>	0
-0.2008271	investment </s>	0
-0.2008271	redhanded </s>	0
-0.2008271	mock </s>	0
-0.2008271	dock </s>	0
-0.42049438	sea </s>	0
-0.2008271	petticoats </s>	0
-0.2008271	ember </s>	0
-0.2008271	seat </s>	0
-0.2008271	food </s>	0
-0.2008271	reef </s>	0
-0.2008271	blaze </s>	0
-0.2008271	sender </s>	0
-0.2008271	acclaim </s>	0
-0.2008271	director </s>	0
-0.6714365	from </s>	0
-0.2008271	start </s>	0
-0.2008271	wonderful </s>	0
-0.2008271	renter </s>	0
-0.2008271	row </s>	0
-0.2008271	lender </s>	0
-0.2008271	ape </s>	0
-0.2008271	forks </s>	0
-0.2008271	tender </s>	0
-0.2008271	tea </s>	0
-0.2008271	fans </s>	0
-0.2008271	timber </s>	0
-0.2008271	leap </s>	0
-0.2008271	poor </s>	0
-0.2008271	tail </s>	0
-0.2008271	bender </s>	0
-0.2008271	ache </s>	0
-0.2008271	center </s>	0
-0.2008271	appetizers </s>	0
-0.2008271	beef </s>	0
-0.2008271	temper </s>	0
-0.6387315	had </s>	0
-0.2008271	ways </s>	0
-0.2008271	wax </s>	0
-0.2008271	pet </s>	0
-0.2008271	aid </s>	0
-0.2008271	knock </s>	0
-0.2008271	lies </s>	0
-0.2008271	cheese </s>	0
-0.2008271	hatch </s>	0
-0.2008271	grievances </s>	0
-0.2008271	bunch </s>	0
-0.2008271	appreciated </s>	0
-0.2008271	ease </s>	0
-0.2008271	add </s>	0
-0.2008271	gift </s>	0
-0.42049438	judge </s>	0
-0.42049438	state </s>	0
-0.2008271	education </s>	0
-0.2008271	states </s>	0
-0.2008271	peas </s>	0
-0.2008271	bun </s>	0
-0.2008271	punch </s>	0
-0.2008271	ail </s>	0
-0.2008271	tall </s>	0
-0.2008271	detail </s>	0
-0.2008271	pill </s>	0
-0.2008271	racks </s>	0
-0.2008271	construction </s>	0
-0.2008271	aches </s>	0
-0.2008271	lit </s>	0
-0.2008271	splinter </s>	0
-0.2008271	choose </s>	0
-0.2008271	duck </s>	0
-0.2008271	arm </s>	0
-0.2008271	actress </s>	0
-0.42049438	fell </s>	0
-0.2008271	diploma </s>	0
-0.2008271	charm </s>	0
-0.2008271	meeting </s>	0
-0.2008271	friends </s>	0
-0.2008271	mile </s>	0
-0.2008271	rakes </s>	0
-0.2008271	situation </s>	0
-0.2008271	items </s>	0
-0.5280873	sat </s>	0
-0.2008271	relaxed </s>	0
-0.2008271	hall </s>	0
-0.2008271	sake </s>	0
-0.2008271	box </s>	0
-0.2008271	incidents </s>	0
-0.2008271	chowder </s>	0
-0.2008271	degrees </s>	0
-0.2008271	ticks </s>	0
-0.2008271	disguise </s>	0
-0.2008271	sources </s>	0
-0.2008271	chap </s>	0
-0.2008271	lax </s>	0
-0.2008271	score </s>	0
-0.2008271	munch </s>	0
-0.2008271	symbols </s>	0
-0.2008271	end </s>	0
-0.42049438	pleasure </s>	0
-0.2008271	excitement </s>	0
-0.2008271	dial </s>	0
-0.2008271	low </s>	0
-0.2008271	cold </s>	0
-0.2008271	whip </s>	0
-0.2008271	ink </s>	0
-0.2008271	again </s>	0
-0.2008271	term </s>	0
-0.2008271	wide </s>	0
-0.2008271	pant </s>	0
-0.2008271	find </s>	0
-0.42049438	cable </s>	0
-0.2008271	translated </s>	0
-0.2008271	past </s>	0
-0.2008271	burn </s>	0
-0.2008271	wealth </s>	0
-0.42049438	street </s>	0
-0.2008271	ahead </s>	0
-0.2008271	wine </s>	0
-0.2008271	eyes </s>	0
-0.2008271	weave </s>	0
-0.2008271	omitted </s>	0
-0.2008271	wart </s>	0
-0.2008271	wack </s>	0
-0.42049438	needed </s>	0
-0.2008271	dash </s>	0
-0.2008271	drifts </s>	0
-0.2008271	required </s>	0
-0.2008271	ball </s>	0
-0.42049438	myself </s>	0
-0.42049438	steep </s>	0
-0.2008271	increases </s>	0
-0.2008271	damaged </s>	0
-0.2008271	empty </s>	0
-0.42049438	here </s>	0
-0.2008271	obstacles </s>	0
-0.2008271	hid </s>	0
-0.2008271	why </s>	0
-0.2008271	luke </s>	0
-0.2008271	fold </s>	0
-0.2008271	pink </s>	0
-0.2008271	waste </s>	0
-0.42049438	porch </s>	0
-0.2008271	steps </s>	0
-0.2008271	carefully </s>	0
-0.2008271	report </s>	0
-0.2008271	sail </s>	0
-0.2008271	wipe </s>	0
-0.2008271	theory </s>	0
-0.2008271	urchins </s>	0
-0.42049438	each </s>	0
-0.2008271	intelligence </s>	0
-0.2008271	wives </s>	0
-0.2008271	game </s>	0
-0.2008271	docks </s>	0
-0.2008271	pole </s>	0
-0.2008271	stable </s>	0
-0.2008271	income </s>	0
-0.2008271	sacrifice </s>	0
-0.2008271	ban </s>	0
-0.2008271	page </s>	0
-0.2008271	accordion </s>	0
-0.2008271	paid </s>	0
-0.2008271	sprain </s>	0
-0.2008271	fool </s>	0
-0.2008271	boat </s>	0
-0.2008271	ramp </s>	0
-0.2008271	tips </s>	0
-0.42049438	paint </s>	0
-0.2008271	water </s>	0
-0.2008271	mat </s>	0
-0.2008271	sap </s>	0
-0.2008271	pain </s>	0
-0.2008271	mayonnaise </s>	0
-0.2008271	fall </s>	0
-0.2008271	mall </s>	0
-0.2008271	feel </s>	0
-0.2008271	panel </s>	0
-0.2008271	freely </s>	0
-0.2008271	vamp </s>	0
-0.2008271	rat </s>	0
-0.2008271	check </s>	0
-0.2008271	space </s>	0
-0.2008271	naval </s>	0
-0.2008271	stall </s>	0
-0.2008271	spade </s>	0
-0.2008271	accident </s>	0
-0.2008271	damp </s>	0
-0.2008271	spray </s>	0
-0.2008271	peach </s>	0
-0.2008271	mabel </s>	0
-0.2008271	told </s>	0
-0.2008271	injured </s>	0
-0.42049438	practical </s>	0
-0.2008271	funnel </s>	0
-0.2008271	tap </s>	0
-0.2008271	expected </s>	0
-0.2008271	reach </s>	0
-0.2008271	file </s>	0
-0.2008271	walls </s>	0
-0.2008271	paste </s>	0
-0.2008271	foil </s>	0
-0.2008271	map </s>	0
-0.2008271	gable </s>	0
-0.2008271	bull </s>	0
-0.2008271	crawl </s>	0
-0.2008271	pale </s>	0
-0.2008271	creature </s>	0
-0.2008271	pocket </s>	0
-0.2008271	saddle </s>	0
-0.2008271	bowl </s>	0
-0.2008271	nap </s>	0
-0.2008271	table </s>	0
-0.2008271	sable </s>	0
-0.2008271	fable </s>	0
-0.2008271	mold </s>	0
-0.2008271	mole </s>	0
-0.2008271	bureaucracy </s>	0
-0.2008271	pace </s>	0
-0.2008271	call </s>	0
-0.2008271	predicament </s>	0
-0.2008271	screech </s>	0
-0.2008271	ladle </s>	0
-0.2008271	bash </s>	0
-0.2008271	portrait </s>	0
-0.2008271	instruments </s>	0
-0.2008271	machinery </s>	0
-0.2008271	final </s>	0
-0.2008271	giggling </s>	0
-0.2008271	owl </s>	0
-0.2008271	screen </s>	0
-0.2008271	teach </s>	0
-0.2008271	postponed </s>	0
-0.2008271	bog </s>	0
-0.2008271	rattle </s>	0
-0.42049438	sold </s>	0
-0.2008271	bank </s>	0
-0.2008271	shawl </s>	0
-0.2008271	soul </s>	0
-0.2008271	preach </s>	0
-0.2008271	pull </s>	0
-0.2008271	boone </s>	0
-0.2008271	suppress </s>	0
-0.2008271	issue </s>	0
-0.2008271	cauliflower </s>	0
-0.2008271	badger </s>	0
-0.2008271	contrast </s>	0
-0.2008271	appliances </s>	0
-0.2008271	grain </s>	0
-0.2008271	auction </s>	0
-0.2008271	impress </s>	0
-0.2008271	occur </s>	0
-0.2008271	shore </s>	0
-0.2008271	book </s>	0
-0.2008271	bin </s>	0
-0.2008271	fast </s>	0
-0.2008271	fudge </s>	0
-0.2008271	rust </s>	0
-0.2008271	disclaimer </s>	0
-0.2008271	contract </s>	0
-0.2008271	limb </s>	0
-0.2008271	musk </s>	0
-0.2008271	rut </s>	0
-0.2008271	serve </s>	0
-0.2008271	grape </s>	0
-0.2008271	intact </s>	0
-0.2008271	subtract </s>	0
-0.2008271	forgery </s>	0
-0.2008271	driven </s>	0
-0.2008271	attitude </s>	0
-0.2008271	shut </s>	0
-0.2008271	retract </s>	0
-0.2008271	accent </s>	0
-0.2008271	globe </s>	0
-0.2008271	grave </s>	0
-0.2008271	bust </s>	0
-0.2008271	depress </s>	0
-0.2008271	dusk </s>	0
-0.2008271	slim </s>	0
-0.2008271	updating </s>	0
-0.2008271	preserve </s>	0
-0.2008271	converge </s>	0
-0.2008271	booth </s>	0
-0.2008271	west </s>	0
-0.2008271	weight </s>	0
-0.2008271	lisp </s>	0
-0.2008271	colorful </s>	0
-0.2008271	tore </s>	0
-0.2008271	strange </s>	0
-0.2008271	refer </s>	0
-0.2008271	deserve </s>	0
-0.2008271	glib </s>	0
-0.2008271	grope </s>	0
-0.2008271	absurd </s>	0
-0.2008271	kittens </s>	0
-0.2008271	yards </s>	0
-0.2008271	grange </s>	0
-0.2008271	lid </s>	0
-0.2008271	brain </s>	0
-0.2008271	boast </s>	0
-0.2008271	observe </s>	0
-0.2008271	reserve </s>	0
-0.2008271	slid </s>	0
-0.2008271	list </s>	0
-0.2008271	conserve </s>	0
-0.2008271	repress </s>	0
-0.2008271	scorch </s>	0
-0.2008271	super </s>	0
-0.2008271	split </s>	0
-0.2008271	struggled </s>	0
-0.2008271	ok </s>	0
-0.2008271	actually </s>	0
-0.2008271	owe </s>	0
-0.2008271	jaw </s>	0
-0.2008271	cope </s>	0
-0.2008271	drop </s>	0
-0.2008271	shout </s>	0
-0.2008271	weekend </s>	0
-0.2008271	relax </s>	0
-0.2008271	oh </s>	0
-0.5280873	spark </s>	0
-0.2008271	slip </s>	0
-0.2008271	chose </s>	0
-0.2008271	innocense </s>	0
-2.1554062	<s> pat	-1.6564176
-2.1489565	<s> meat	-1.6627579
-2.0318267	<s> air	-1.7781513
-2.282875	<s> swarm	-1.5314789
-2.0323756	<s> no	-1.7732987
-1.3349668	have no	-0.72699875
-1.4943469	was no	-0.7781512
-0.3003469	requires no	-0.7781512
-0.9965951	had no	-0.72699875
-2.2742467	<s> storm	-1.5399121
-2.5853424	<s> usually	-1.2388821
-0.30084264	usually minus	-1.2388821
-3.7987223	<s> several	-0.30103
-0.30073977	minus several	-1.2388821
-0.6016853	several buttons	-1.2388821
-2.3486104	<s> dug	-1.4673615
-2.1063058	<s> feet	-1.7047224
-2.5853424	<s> train	-1.2388821
-2.4913638	<s> but	-1.1072099
-1.7639142	<s> he	-0.9973599
-0.59968996	but he	-1.30103
-0.89836276	him he	-1.0543576
-1.1378888	well he	-0.30103
-0.59968996	himself he	-0.30103
-1.0721096	this he	-0.90309
-0.774601	yet he	-0.86530143
-0.59968996	so he	-0.42596874
-1.5511074	he always	-1.30103
-0.30073977	although always	-1.0543576
-0.6016853	always answers	-1.30103
-0.30084264	answers banana	-1.30103
-0.30084264	banana oil	-1.30103
-2.0836916	<s> beat	-1.7269987
-1.4770933	<s> the	-0.87191033
-0.29484004	over the	-1.2388821
-1.3406636	to the	-0.9265711
-1.2612469	for the	-0.86530143
-0.99792516	in the	-0.49732465
-0.29484004	made the	-1.1026623
-0.8788425	all the	-0.9542425
-0.29484004	scrubbed the	-1.146128
-0.7598399	than the	-0.30103
-0.3537109	on the	-0.8846066
-0.97106135	of the	-0.8325089
-0.96989644	at the	-0.30103
-0.29484004	near the	-1.1856365
-0.29484004	wrapped the	-1.1856365
-1.3924289	are the	-0.8239087
-0.29484004	open the	-0.97003675
-0.29484004	covered the	-0.9378521
-0.8788425	only the	-0.86530143
-0.6836574	about the	-0.8239087
-0.29484004	prefer the	-0.86530143
-1.2025037	with the	-0.7781512
-0.58976704	thats the	-0.30103
-0.29484004	across the	-0.86530143
-0.29484004	remains the	-0.86530143
-0.96989644	by the	-0.72699875
-0.29484004	mail the	-0.8239087
-0.7598399	from the	-0.86530143
-0.29484004	neglect the	-0.7781512
-0.29484004	compounded the	-0.66900676
-0.58976704	judge the	-0.9378521
-0.29484004	housing the	-0.8239087
-0.29484004	order the	-0.66900676
-0.29484004	noted the	-0.5228787
-0.29484004	hiring the	-0.42596874
-0.29484004	hides the	-0.42596874
-0.29484004	describe the	-0.30103
-0.29484004	lamps the	-0.30103
-0.29484004	delight the	-0.30103
-2.181492	the quick	-1.2388821
-1.6919141	a quick	-0.8846066
-0.77728105	quick brown	-1.2388821
-1.986001	a brown	-0.97003675
-0.6016853	brown fox	-1.2388821
-0.30084264	fox jumps	-1.2388821
-0.30084264	jumps over	-1.2388821
-2.1893785	the lazy	-1.2388821
-0.30084264	lazy dog	-1.2388821
-1.6771644	<s> we	-0.94146824
-0.6003597	alone we	-1.0543576
-0.30017897	leisure we	-0.90309
-0.30017897	suggested we	-0.8239087
-0.6003597	know we	-0.90309
-0.30017897	knew we	-0.66900676
-3.0446064	<s> have	-0.72699875
-1.3099184	we have	-1.0280287
-1.8480619	to have	-0.86530143
-1.1378888	well have	-0.86530143
-1.1947165	all have	-0.8239087
-1.1947165	you have	-1.0280287
-0.99409896	really have	-0.90309
-0.29984337	tribes have	-0.30103
-1.3386195	have often	-1.2388821
-1.4115145	can often	-1.2218487
-1.4719434	are often	-0.7781512
-0.7775893	often urged	-1.2388821
-0.30051488	urged him	-1.2388821
-0.6010303	crucified him	-1.0543576
-0.6010303	want him	-0.90309
-0.6010303	saw him	-0.42596874
-2.7386146	<s> to	-0.7781512
-1.2851889	have to	-0.72699875
-0.5910771	him to	-1.1026623
-0.29550382	likes to	-1.1856365
-0.29550382	try to	-1
-0.29550382	funds to	-1.1856365
-0.7617793	yet to	-1.1249387
-1.1088448	were to	-1.2218487
-0.29550382	willing to	-0.97003675
-0.5910771	time to	-0.66900676
-0.29550382	fun to	-0.9378521
-0.29550382	someplace to	-0.90309
-0.5910771	want to	-0.30103
-0.29550382	greg to	-0.90309
-0.5910771	cat to	-0.90309
-0.5910771	able to	-1
-0.8813951	what to	-0.30103
-0.7617793	like to	-0.86530143
-0.29550382	scream to	-0.86530143
-0.5910771	still to	-0.7781512
-0.29550382	dough to	-0.69897
-0.29550382	common to	-0.86530143
-0.29550382	desire to	-0.72699875
-0.29550382	met to	-0.9378521
-0.29550382	trying to	-0.86530143
-0.29550382	wanted to	-0.72699875
-0.29550382	hard to	-0.5563025
-0.29550382	status to	-0.5228787
-0.29550382	appealing to	-0.42596874
-0.29550382	illegal to	-0.30103
-0.29550382	longer to	-0.30103
-0.29550382	muttering to	-0.42596874
-0.29550382	easy to	-0.42596874
-0.29550382	impossible to	-0.42596874
-1.8809161	to walk	-1.2388821
-0.30073977	could walk	-0.30103
-0.6010303	walk more	-1.2388821
-0.9974303	up more	-0.86530143
-0.77660763	needs more	-0.30103
-0.30051488	accomplish more	-0.7781512
-2.3768365	<s> and	-1.3679768
-0.888493	more and	-1.2388821
-0.76715773	down and	-0.7781512
-0.5947002	deer and	-0.30103
-0.2973345	grey and	-1.20412
-0.2973345	slums and	-1.1856365
-0.76715773	young and	-0.42596874
-0.5947002	short and	-0.86530143
-0.2973345	prosecuted and	-0.86530143
-0.2973345	addition and	-0.86530143
-0.2973345	chocolate and	-0.86530143
-0.2973345	masonry and	-0.72699875
-0.2973345	distress and	-0.7781512
-0.2973345	jealousies and	-0.90309
-0.5947002	pleasure and	-0.7781512
-0.5947002	straight and	-0.66900676
-0.2973345	heart and	-0.66900676
-0.2973345	bagpipes and	-0.42596874
-0.2973345	saws and	-0.42596874
-0.2973345	supplies and	-0.42596874
-0.2973345	broccoli and	-0.30103
-0.2973345	strong and	-0.30103
-0.2973345	children and	-0.30103
-1.6584681	and smoke	-1.2388821
-0.30084264	smoke less	-1.2388821
-2.2413518	<s> rake	-1.5720967
-2.4998724	<s> for	-1.2388821
-0.29783514	healthy for	-1.146128
-1.4566545	you for	-0.86530143
-1.4566545	it for	-1.1026623
-0.5956935	provides for	-1.1856365
-0.7686362	win for	-1.1856365
-0.29783514	transition for	-1.1856365
-0.47233766	look for	-0.90309
-0.29783514	experiment for	-0.97003675
-0.29783514	wait for	-1
-0.7686362	place for	-0.7781512
-0.29783514	guard for	-0.97003675
-0.29783514	friend for	-0.8239087
-0.29783514	prepared for	-0.72699875
-0.29783514	clams for	-0.72699875
-0.29783514	mask for	-0.7781512
-0.29783514	wife for	-0.42596874
-0.29783514	ready for	-0.42596874
-0.29783514	trips for	-0.42596874
-0.29783514	demand for	-0.30103
-2.5821345	<s> grow	-1.2388821
-0.30073977	weeds grow	-0.30103
-2.3136866	<s> one	-1.4960066
-1.6125573	for one	-0.97003675
-0.9974303	just one	-1.1026623
-0.77660763	out one	-0.90309
-2.3165112	<s> two	-1.4960066
-0.9017032	only two	-0.42596874
-0.3006829	called two	-0.86530143
-2.5517054	<s> rage	-1.2710668
-2.535816	<s> form	-1.2863067
-2.535816	<s> farm	-1.2863067
-2.535816	<s> horn	-1.2863067
-2.2182193	<s> sheet	-1.5947608
-2.249345	<s> ship	-1.5642715
-2.358869	<s> left	-1.4573772
-2.3693764	<s> sticks	-1.447158
-2.6218052	<s> glow	-1.20412
-2.535816	<s> born	-1.2863067
-2.5056815	<s> corn	-1.3152704
-2.389131	<s> right	-1.4259686
-0.30073977	married right	-0.42596874
-3.5293934	<s> well	-0.30103
-0.9949294	do well	-0.90309
-0.7751018	expect well	-1.146128
-0.9949294	very well	-0.8239087
-0.7751018	day well	-0.86530143
-0.60002464	went well	-0.86530143
-0.30001113	doing well	-0.66900676
-2.6595154	<s> is	-1.0543576
-1.5047895	he is	-0.30103
-1.1253631	she is	-0.98227125
-0.5960252	nothing is	-0.98227125
-0.5960252	house is	-1.20412
-0.2980021	alfalfa is	-1.146128
-1.0613227	this is	-1.3152704
-0.6914395	there is	-0.8507019
-0.2980021	travel is	-0.90309
-0.4725873	life is	-0.86530143
-0.2980021	hair is	-0.8239087
-0.2980021	plot is	-0.86530143
-0.2980021	coast is	-0.7781512
-0.5960252	street is	-0.5228787
-0.2980021	attendance is	-0.66900676
-0.2980021	highway is	-0.66900676
-0.2980021	drift is	-0.66900676
-0.2980021	future is	-0.30103
-0.2980021	cement is	-0.30103
-1.7113427	is nearly	-0.30103
-0.30084264	nearly ninety	-0.30103
-2.399245	<s> three	-1.4149734
-0.3006829	ninety three	-0.30103
-0.60136604	saw three	-0.30103
-1.6125573	for years	-0.8239087
-0.77660763	three years	-0.30103
-0.77660763	later years	-1.1249387
-0.30051488	last years	-0.72699875
-2.7730129	<s> old	-0.75332767
-1.6548433	and old	-0.42596874
-0.9017032	years old	-0.30103
-2.2107742	<s> feed	-1.60206
-2.5998492	<s> rain	-1.2218487
-0.30073977	uninterrupted rain	-0.86530143
-2.5056815	<s> tip	-1.3152704
-2.4107895	<s> down	-1.4036924
-0.60136604	working down	-0.5228787
-0.7771107	sat down	-0.7781512
-2.5821345	<s> store	-1.2388821
-2.181492	the store	-0.66900676
-1.5529418	he dresses	-1.2710668
-0.30073977	dresses himself	-1.2710668
-0.60147977	crucified himself	-0.30103
-2.4153626	<s> in	-1.0543576
-1.6605566	is in	-0.30103
-0.5973543	himself in	-1.2710668
-0.29867077	modern in	-1.1856365
-0.29867077	higher in	-1.1249387
-1.4688587	it in	-0.66900676
-0.29867077	damage in	-0.86530143
-0.29867077	participate in	-0.86530143
-0.29867077	ruled in	-0.7781512
-0.29867077	upbringing in	-0.8239087
-0.29867077	fire in	-0.8239087
-0.29867077	mistakes in	-0.66900676
-0.29867077	sculpture in	-0.30103
-0.5973543	deal in	-0.42596874
-0.29867077	measured in	-0.30103
-3.5293934	<s> an	-0.30103
-1.0358182	have an	-0.8808136
-1.4901124	in an	-1.2710668
-1.2461877	be an	-0.75332767
-0.7751018	like an	-0.42596874
-0.60002464	tell an	-0.30103
-0.30001113	provoked an	-0.30103
-1.2535889	an ancient	-1.2710668
-0.30073977	ancient black	-1.2710668
-1.692057	of black	-0.8239087
-0.6016853	black frock	-1.2710668
-2.7012143	<s> coat	-1.1249387
-0.30073977	frock coat	-1.2710668
-2.6412528	<s> grandfather	-1.1856365
-0.30084264	grandfather likes	-1.1856365
-3.0013778	<s> be	-0.72699875
-0.7731021	often be	-1.2218487
-1.5592481	to be	-1.0142405
-0.45885396	can be	-0.8109438
-0.8392131	will be	-0.8016324
-0.5986874	may be	-0.66900676
-0.2993404	flowers be	-0.66900676
-0.2993404	must be	-0.42596874
-0.2993404	should be	-0.30103
-0.7731021	or be	-0.30103
-0.2993404	cannot be	-0.30103
-1.5529418	be modern	-1.1856365
-0.8053098	in his	-0.92081875
-1.692057	of his	-0.42596874
-0.99906385	his language	-1.1856365
-2.535816	<s> torn	-1.2863067
-2.0269654	<s> yes	-1.7829502
-2.682973	<s> sleep	-1.146128
-2.2742467	<s> both	-0.97564065
-0.9023409	both figures	-1.1249387
-0.30084264	figures would	-1.1249387
-1.5854394	to go	-0.8016324
-0.30073977	would go	-1.1249387
-0.7775893	go higher	-1.1249387
-1.4999721	in later	-1.1249387
-0.60136604	trip later	-0.7781512
-0.3006829	weeks later	-0.42596874
-2.682973	<s> troop	-1.146128
-2.682973	<s> wish	-1.146128
-2.225794	<s> ate	-1.5873368
-2.682973	<s> hear	-1.146128
-2.6412528	<s> pot	-1.1856365
-2.7012143	<s> white	-1.1249387
-1.6561307	and white	-1.20412
-2.5517054	<s> mother	-1.2710668
-0.30084264	mother sews	-1.2710668
-0.30084264	sews yellow	-1.2710668
-0.30084264	yellow gingham	-1.2710668
-0.30084264	gingham aprons	-1.2710668
-1.667765	<s> i	-0.81555665
-0.47634873	than i	-1.3152704
-1.0760994	as i	-0.64345264
-0.90103304	what i	-0.30103
-2.7222235	<s> just	-1.1026623
-1.6160173	we just	-0.60206
-1.7070671	i just	-1.1663314
-3.1341085	<s> try	-0.72699875
-0.99855065	just try	-1.1663314
-2.9624524	<s> do	-0.86530143
-1.5811276	to do	-1.0543576
-0.30051488	dad do	-1.0280287
-0.77660763	dont do	-0.86530143
-2.6576955	<s> my	-0.9242793
-0.99576145	do my	-1.1663314
-1.6789919	of my	-0.66900676
-0.99576145	up my	-0.86530143
-0.30017897	suddenly my	-0.9378521
-0.30017897	change my	-0.72699875
-1.1448181	my best	-1.1663314
-2.67896	<s> deer	-1.146128
-0.77728105	three deer	-0.30103
-2.682973	<s> group	-1.146128
-2.3801441	<s> cheer	-1.4366926
-2.682973	<s> thigh	-1.146128
-2.682973	<s> coupe	-1.146128
-2.2243893	<s> write	-1.5873368
-0.60147977	through write	-0.66900676
-2.705439	<s> area	-1.1249387
-2.682973	<s> steer	-1.146128
-2.4383924	<s> tile	-1.3802112
-2.5204875	<s> select	-1.30103
-2.5204875	<s> forward	-1.30103
-1.1448181	my sister	-1.1026623
-0.30084264	sister made	-1.1026623
-2.1893785	the flowered	-1.1026623
-0.30084264	flowered curtains	-1.1026623
-2.2980752	<s> much	-1.5141048
-1.4719434	are much	-0.7781512
-0.60136604	through much	-0.30103
-2.6218052	<s> hate	-1.20412
-2.661612	<s> whoop	-1.1663314
-0.9023409	one side	-1.1026623
-1.6125573	we got	-0.69897
-1.702804	i got	-0.30103
-0.30051488	side got	-1.1026623
-0.90103304	also got	-0.42596874
-0.99906385	got wet	-1.1026623
-2.358869	<s> shoot	-1.4573772
-2.661612	<s> slay	-1.1663314
-2.657791	<s> play	-1.1663314
-1.4120796	can play	-0.30103
-2.4887137	<s> all	-1.0142405
-1.3133656	we all	-0.8016324
-0.6003597	received all	-0.5228787
-0.6003597	when all	-1.1856365
-1.1402056	were all	-0.66900676
-0.99576145	really all	-0.86530143
-3.4095025	<s> big	-0.42596874
-0.9965951	no big	-0.7781512
-2.1526065	the big	-1.1663314
-1.9677298	a big	-0.7781512
-0.9965951	by big	-0.30103
-0.99906385	big baseball	-1.1663314
-0.30084264	baseball players	-1.1663314
-2.9342575	<s> get	-0.90309
-1.8787583	to get	-0.30103
-0.3006829	players get	-1.1663314
-0.7775893	get traded	-1.1663314
-1.7111573	i scrubbed	-1.146128
-2.1893785	the floors	-1.146128
-0.30084264	floors thoroughly	-1.146128
-2.402515	<s> boot	-1.4149734
-2.661612	<s> rocks	-1.1663314
-2.2182193	<s> witch	-1.5947608
-2.661612	<s> galore	-1.1663314
-2.661612	<s> delta	-1.1663314
-2.1363373	<s> she	-0.83006907
-1.7113427	is thinner	-1.1663314
-0.3006829	thinner than	-1.1663314
-0.60136604	quicker than	-0.7781512
-0.3006829	away than	-0.30103
-1.7111573	i am	-1.3152704
-2.3486104	<s> nothing	-1.1663314
-1.6992395	is as	-1.1663314
-0.3003469	offensive as	-0.98227125
-0.6006948	fail as	-0.7781512
-0.3003469	exactly as	-0.86530143
-0.3003469	displayed as	-0.30103
-1.7088046	is offensive	-0.30103
-1.0774426	as offensive	-1.1663314
-1.0780581	as innocence	-1.1663314
-2.5056815	<s> menu	-1.3152704
-2.705439	<s> peer	-1.1249387
-2.282875	<s> lip	-1.5314789
-1.619331	we gathered	-1.1663314
-0.30084264	gathered shells	-1.1663314
-0.29984337	shells on	-1.1663314
-0.29984337	marshmallows on	-0.9378521
-0.774601	ride on	-0.30103
-0.29984337	twilight on	-0.86530143
-0.29984337	outdoors on	-0.66900676
-0.29984337	misplaced on	-0.42596874
-0.29984337	picnic on	-0.30103
-0.29984337	put on	-0.30103
-2.1893785	the beach	-1.20412
-2.661612	<s> mere	-1.1663314
-2.4383924	<s> pad	-1.3802112
-2.6218052	<s> their	-1.20412
-0.99855065	big house	-0.7781512
-0.30073977	their house	-1.20412
-1.7113427	is grey	-1.20412
-2.661612	<s> urgent	-1.1663314
-2.2812734	<s> four	-1.5314789
-1.8916286	the four	-0.845098
-2.487355	<s> night	-1.0280287
-0.3006829	after night	-1.146128
-0.9982672	at night	-0.8239087
-0.9023409	night after	-1.146128
-2.5997658	<s> they	-0.56729794
-0.99576145	do they	-0.86530143
-0.8996958	night they	-1.146128
-0.6003597	where they	-0.72699875
-0.8996958	things they	-0.5228787
-0.30017897	because they	-0.42596874
-0.99906385	they received	-0.9378521
-0.6016853	received annoying	-1.146128
-3.486079	<s> phone	-0.42596874
-0.3006829	annoying phone	-1.146128
-0.9982672	by phone	-0.8239087
-0.77728105	phone calls	-1.146128
-0.30073977	bad calls	-0.7781512
-2.6412528	<s> november	-1.1856365
-2.682973	<s> alfalfa	-1.146128
-1.7113427	is healthy	-1.146128
-2.4225376	<s> you	-0.8782664
-1.582598	for you	-1.146128
-0.5980203	when you	-0.66900676
-1.3951405	can you	-0.42596874
-0.7721057	did you	-0.66900676
-1.1321505	will you	-0.30103
-0.29900548	asked you	-0.86530143
-0.5980203	way you	-0.66900676
-0.47408795	if you	-0.60206
-0.5980203	sure you	-0.8239087
-0.5980203	tell you	-0.7781512
-0.29900548	surrounds you	-0.30103
-0.29900548	lead you	-0.30103
-2.682973	<s> mush	-1.146128
-2.6412528	<s> oscar	-1.1856365
-2.3367677	<s> sell	-1.4771212
-0.30073977	hell sell	-0.72699875
-2.3781412	<s> five	-1.4366926
-0.99855065	had five	-0.30103
-2.1962566	<s> pit	-1.6163005
-2.3911853	<s> zero	-1.4259686
-2.1962566	<s> fat	-1.6163005
-2.682973	<s> darn	-1.146128
-1.5854394	to expect	-0.64345264
-1.7085191	i expect	-1.146128
-1.1448181	well bounce	-1.146128
-0.30084264	bounce back	-1.146128
-2.1029131	<s> this	-1.2787536
-0.6010303	play this	-0.30103
-0.30051488	back this	-1.146128
-1.6867719	of this	-0.86530143
-1.0780581	this week	-1.146128
-2.2916784	<s> six	-1.5228788
-2.5204875	<s> when	-1
-1.2026231	all else	-1.1856365
-0.30084264	else fails	-1.1856365
-0.30084264	fails use	-1.1856365
-0.30084264	use force	-1.1856365
-2.3385882	<s> hat	-1.4771212
-2.426101	<s> seed	-1.3921105
-2.6412528	<s> pitting	-1.1856365
-1.8590897	<s> it	-1.096082
-1.3259671	have it	-0.86530143
-1.4814159	you it	-0.7781512
-0.5990214	done it	-0.66900676
-1.6638381	of it	-0.8239087
-0.29950798	nailed it	-1.1026623
-0.29950798	kept it	-0.9378521
-0.5990214	confirmation it	-0.66900676
-0.29950798	handle it	-0.66900676
-0.29950798	thought it	-0.30103
-0.90103304	old also	-0.42596874
-1.702804	i also	-0.7781512
-1.49698	it also	-1.1856365
-0.77660763	job also	-0.7781512
-0.90193015	also provides	-1.1856365
-0.77728105	job provides	-1.1856365
-1.619331	for funds	-1.1856365
-1.8848456	to clear	-1.1856365
-0.30084264	clear slums	-1.1856365
-2.635602	<s> help	-0.8846066
-1.6548433	and help	-1.1856365
-1.4115145	can help	-1
-0.9023409	help colleges	-1.1856365
-0.30084264	colleges build	-1.1856365
-0.30084264	build dormitories	-1.1856365
-2.682973	<s> bloat	-1.146128
-2.958037	<s> was	-0.7781512
-1.6740791	i was	-0.7781512
-1.1344367	she was	-0.38021123
-1.0190927	it was	-0.96781534
-0.9916171	there was	-0.7781512
-0.2993404	shoes was	-1
-0.2993404	bracelet was	-0.86530143
-0.2993404	luck was	-0.7781512
-0.2993404	pickpocket was	-0.9378521
-0.2993404	range was	-0.72699875
-0.2993404	display was	-0.42596874
-2.0987473	<s> a	-0.90309
-1.2868137	have a	-0.7781512
-0.8820355	him a	-0.42596874
-1.5536433	and a	-0.30103
-1.2689893	for a	-1
-0.990871	is a	-0.98227125
-0.5914052	write a	-0.66900676
-0.7622655	get a	-0.90309
-1.0479704	as a	-0.7781512
-0.88720423	on a	-0.7781512
-0.7622655	expect a	-0.7781512
-1.000177	was a	-0.8808136
-0.7622655	take a	-0.86530143
-0.7622655	not a	-1.2552725
-0.2956699	became a	-1.1856365
-1.402935	are a	-0.30103
-0.7622655	did a	-0.86530143
-0.2956699	allow a	-1.1249387
-1.1099267	its a	-0.8239087
-0.2956699	pick a	-0.90309
-0.5914052	bought a	-0.97003675
-0.2956699	toward a	-0.86530143
-0.46910572	makes a	-0.845098
-0.2956699	covers a	-1.1249387
-1.0479704	from a	-0.30103
-0.68569183	had a	-0.60206
-0.2956699	wore a	-0.7781512
-0.5914052	such a	-0.5228787
-0.2956699	even a	-0.8239087
-0.2956699	deserves a	-0.5228787
-0.5914052	paint a	-0.42596874
-0.2956699	postdate a	-0.30103
-0.7622655	or a	-0.42596874
-3.7705529	<s> good	-0.30103
-1.2976401	a good	-0.97003675
-0.7771107	look good	-0.8239087
-3.19357	<s> win	-0.66900676
-1.0771027	good win	-1.1856365
-0.60136604	may win	-0.42596874
-1.619331	for us	-1.1856365
-1.5511074	he has	-0.8239087
-0.60147977	nothing has	-1.1249387
-0.6016853	has been	-1.1249387
-0.30073977	been done	-1.1249387
-0.30073977	weve done	-0.66900676
-2.9751768	<s> yet	-0.86530143
-0.60136604	done yet	-1.1249387
-0.7771107	eat yet	-0.66900676
-2.5313773	<s> take	-1.2863067
-1.8787583	to take	-1.1249387
-1.1437039	will take	-0.86530143
-0.7775893	take advantage	-1.1249387
-0.76715773	much of	-0.30103
-0.2973345	advantage of	-1.1249387
-0.2973345	period of	-1.1856365
-0.5947002	program of	-1.2552725
-0.2973345	roll of	-1.1856365
-1.4247417	are of	-0.60206
-0.2973345	pair of	-1
-0.2973345	peck of	-0.90309
-0.76715773	out of	-0.42596874
-0.2973345	gallon of	-0.97003675
-0.5947002	full of	-0.86530143
-0.2973345	fiercest of	-0.86530143
-0.2973345	minute of	-0.8239087
-0.2973345	number of	-0.8239087
-0.2973345	lack of	-0.66900676
-0.5947002	state of	-0.9378521
-0.2973345	largest of	-0.8239087
-0.2973345	pockets of	-0.8239087
-0.5947002	confirmation of	-0.7781512
-0.2973345	lot of	-0.5228787
-0.2973345	part of	-0.66900676
-0.2973345	name of	-0.30103
-0.2973345	lots of	-0.30103
-2.1893785	the enabling	-1.1249387
-0.30084264	enabling legislation	-1.1249387
-2.6031911	<s> aluminum	-1.2218487
-0.30084264	aluminum silverware	-1.2218487
-3.2147698	<s> can	-0.42596874
-1.5858265	we can	-0.90309
-1.6701263	i can	-0.60206
-1.4763494	you can	-0.9378521
-0.8957088	also can	-0.7781512
-0.29917294	silverware can	-1.2218487
-0.59835374	work can	-1
-0.29917294	dance can	-1
-0.59835374	basketball can	-0.7781512
-0.29917294	trespassers can	-0.86530143
-0.59835374	gold can	-0.7781512
-0.29917294	standby can	-0.30103
-1.5529418	be flimsy	-1.2218487
-2.6412528	<s> shy	-1.1856365
-2.402515	<s> cake	-1.4149734
-1.9909117	a period	-1.1856365
-1.6944948	of transition	-1.1856365
-2.9793682	<s> me	-0.8239087
-1.8600814	to me	-0.42596874
-1.6057189	for me	-1.1856365
-0.6003597	took me	-0.90309
-1.2476727	with me	-0.9378521
-0.6003597	fit me	-0.5228787
-2.3231442	<s> there	-1.1856365
-0.6010303	basketball there	-0.86530143
-0.77660763	sat there	-0.42596874
-0.30051488	unfortunately there	-0.30103
-1.9909117	a treehouse	-1.146128
-0.77610505	go up	-0.66900676
-0.3003469	treehouse up	-1.146128
-0.3003469	warm up	-0.86530143
-0.3003469	speak up	-0.86530143
-0.3003469	shook up	-0.30103
-2.181492	the above	-0.7781512
-0.99855065	up above	-1.146128
-2.402515	<s> nine	-1.4149734
-1.4113591	is not	-1.064458
-1.500529	was not	-0.42596874
-1.6944021	a program	-1.0280287
-1.6944948	of socialized	-1.2552725
-0.30084264	socialized medicine	-1.2552725
-2.682973	<s> league	-1.146128
-2.1781712	<s> at	-1.3290588
-1.49698	was at	-0.30103
-0.30051488	died at	-0.8239087
-0.6010303	sold at	-0.30103
-1.5021614	it eventually	-1.1856365
-0.30084264	eventually became	-1.1856365
-1.9909117	a rather	-1.1856365
-0.30084264	rather proud	-1.1856365
-0.30084264	proud claim	-1.1856365
-2.3693764	<s> seven	-1.447158
-2.0367432	<s> leak	-1.7732987
-0.9023409	both injuries	-1.2218487
-3.1156046	<s> were	-0.66900676
-1.2909473	they were	-0.72699875
-0.30001113	injuries were	-1.2218487
-0.30001113	results were	-0.9378521
-0.30001113	cars were	-0.5228787
-0.7751018	or were	-0.30103
-0.30001113	paintings were	-0.30103
-2.1893785	the same	-1.2218487
-0.30084264	same leg	-1.2218487
-2.181492	the job	-1.0280287
-1.0774426	good job	-0.86530143
-0.6016853	provides many	-1.1856365
-0.30084264	many benefits	-1.1856365
-2.3911853	<s> eight	-1.4259686
-2.682973	<s> top	-1.146128
-2.682973	<s> lima	-1.146128
-2.6412528	<s> vat	-1.1856365
-2.477503	<s> blow	-1.3424227
-2.6412528	<s> spain	-1.1856365
-2.3385882	<s> fill	-1.1760912
-1.9909117	a roll	-1.1856365
-1.6944948	of wire	-1.1856365
-0.30084264	wire lay	-1.1856365
-0.30084264	lay near	-1.1856365
-3.5004828	<s> wall	-0.42596874
-2.181492	the wall	-1.1856365
-2.6031911	<s> harm	-1.2218487
-1.5529418	he wrapped	-1.1856365
-2.1893785	the package	-1.1856365
-0.30084264	package hastily	-1.1856365
-2.3911853	<s> chop	-1.4259686
-2.1893785	the books	-1.1856365
-2.922309	<s> are	-0.7781512
-1.5793933	we are	-0.8239087
-1.6149471	and are	-0.30103
-1.2795932	they are	-0.42596874
-1.4713413	you are	-0.66900676
-0.29883808	books are	-1.1856365
-0.5976872	people are	-0.7781512
-0.29883808	themselves are	-1.0280287
-0.29883808	reflexes are	-0.9378521
-0.29883808	subtraction are	-0.86530143
-0.29883808	apartments are	-0.8239087
-0.29883808	bongos are	-0.42596874
-0.29883808	wages are	-0.30103
-0.29883808	costumes are	-0.30103
-1.5441678	be very	-1
-1.4943469	was very	-0.7781512
-1.1413686	were very	-0.9378521
-1.4669855	are very	-1.1856365
-0.77610505	played very	-0.8239087
-0.99906385	very expensive	-1.1856365
-2.6376057	<s> did	-0.8846066
-0.30073977	unit did	-0.86530143
-0.7775893	did dad	-1.0280287
-3.0762672	<s> academic	-0.7781512
-0.99855065	do academic	-1.0280287
-0.6016853	academic bidding	-1.0280287
-2.8720052	<s> shell	-0.97003675
-2.3911853	<s> sin	-1.4259686
-2.7807853	<s> ticker	-1.0543576
-2.7541907	<s> tin	-1.0791812
-2.1893785	the pair	-1
-1.6944948	of shoes	-1
-2.181492	the new	-0.66900676
-1.500529	was new	-1
-1.5441678	he really	-1.1026623
-1.6992395	is really	-0.86530143
-1.4943469	was really	-0.30103
-0.3003469	wed really	-0.90309
-0.3003469	seemed really	-0.42596874
-0.99906385	really crucified	-0.8808136
-1.2535889	he nailed	-1.1026623
-1.9909117	a yard	-1.1026623
-0.30084264	yard loss	-1.1026623
-2.7922657	<s> people	-1.0280287
-0.6010303	those people	-0.7781512
-0.77660763	young people	-0.86530143
-0.30051488	elderly people	-0.7781512
-2.979568	<s> who	-0.86530143
-0.90193015	people who	-1.0280287
-0.6016853	who value	-1.0280287
-0.30084264	value themselves	-1.0280287
-1.4743189	are lifes	-1.0280287
-0.30084264	lifes winners	-1.0280287
-2.1893785	the owners	-0.97003675
-0.30084264	owners regularly	-0.97003675
-3.0203564	<s> look	-0.8239087
-0.3006829	regularly look	-0.97003675
-0.60136604	didnt look	-0.8239087
-1.619331	for plumbing	-0.97003675
-3.1341085	<s> leaks	-0.72699875
-0.30073977	plumbing leaks	-0.97003675
-2.8720052	<s> xray	-0.97003675
-2.8720052	<s> lock	-0.97003675
-2.8037581	<s> sand	-1.0280287
-0.60147977	black sand	-0.8239087
-2.7807853	<s> ham	-1.0543576
-2.862436	<s> im	-0.97003675
-0.60136604	think im	-0.86530143
-0.3006829	now im	-0.86530143
-0.7775893	im willing	-0.97003675
-1.8848456	to experiment	-0.97003675
-2.181492	the first	-0.97003675
-0.99855065	at first	-0.30103
-1.500529	was time	-0.66900676
-0.60147977	first time	-0.97003675
-2.7807853	<s> although	-1.0543576
-0.60147977	always alone	-1.0543576
-0.60147977	come alone	-0.72699875
-1.619331	we survive	-1.0543576
-1.2535889	an excellent	-1.0543576
-0.30084264	excellent team	-1.0543576
-2.8720052	<s> nut	-0.97003675
-2.8658195	<s> please	-0.97003675
-1.500529	you please	-0.30103
-0.6016853	please open	-0.97003675
-2.1893785	the window	-0.97003675
-0.30084264	window quickly	-0.97003675
-3.5293934	<s> will	-0.30103
-1.5383189	he will	-1.1249387
-1.6902599	i will	-0.30103
-1.1390456	she will	-0.66900676
-1.2909473	they will	-0.86530143
-0.30001113	families will	-0.86530143
-0.30001113	contributions will	-0.72699875
-1.1448181	will allow	-1.1249387
-1.9909117	a rare	-1.1249387
-0.30084264	rare lie	-1.1249387
-2.9455702	<s> zulu	-0.90309
-2.635602	<s> its	-0.58357656
-0.60136604	think its	-0.8239087
-0.3006829	maybe its	-0.30103
-1.1448181	its fun	-0.9378521
-1.8848456	to roast	-0.9378521
-0.30084264	roast marshmallows	-0.9378521
-2.9624524	<s> gas	-0.86530143
-0.90103304	years gas	-0.72699875
-1.9754496	a gas	-0.9378521
-1.6867719	of gas	-0.97003675
-0.9023409	gas burner	-0.9378521
-2.1893785	the wait	-1
-1.8809161	to work	-0.72699875
-1.6171944	for work	-1
-0.99906385	very long	-1
-2.907232	<s> whitecapped	-0.9378521
-0.30084264	whitecapped waves	-0.9378521
-0.30084264	waves covered	-0.9378521
-2.1893785	the entire	-0.9378521
-0.30084264	entire bay	-0.9378521
-2.9455702	<s> then	-0.90309
-0.30084264	then wed	-0.90309
-1.3403658	have someplace	-0.90309
-2.7291312	<s> bed	-1.1026623
-2.9876235	<s> flicker	-0.86530143
-2.5853424	<s> bread	-1.2388821
-1.2026231	you want	-0.748188
-2.9455702	<s> sicker	-0.90309
-0.9023409	help greg	-0.90309
-1.8848456	to pick	-0.90309
-1.9909117	a peck	-0.90309
-1.6944948	of potatoes	-0.90309
-2.3801441	<s> fork	-1.4366926
-2.5471022	<s> said	-1.2710668
-1.7070671	i said	-0.30103
-1.499629	it said	-0.66900676
-1.9909117	a calico	-0.90309
-3.1341085	<s> cat	-0.72699875
-0.30073977	calico cat	-0.90309
-1.8809161	to keep	-0.90309
-0.30073977	discussions keep	-0.86530143
-1.5529418	he took	-0.8016324
-1.0771027	me out	-0.90309
-0.9017032	things out	-0.72699875
-0.60136604	fell out	-0.42596874
-0.9017032	one day	-0.90309
-0.7771107	every day	-0.66900676
-0.3006829	twelfth day	-0.86530143
-2.5329528	<s> only	-0.8091855
-2.181492	the only	-0.90309
-0.9023409	only lawyers	-0.97003675
-0.30084264	lawyers love	-0.97003675
-0.30084264	love millionaires	-0.97003675
-2.8720052	<s> litter	-0.97003675
-2.5853424	<s> sink	-1.2388821
-2.6218052	<s> red	-1.20412
-2.839423	<s> ned	-1
-2.8720052	<s> sit	-0.97003675
-2.839423	<s> being	-1
-3.5004828	<s> able	-0.42596874
-0.30073977	being able	-1
-1.8848456	to dance	-1
-0.90193015	help too	-1
-0.30073977	drugs too	-0.30103
-2.5056815	<s> hand	-1.3152704
-2.9455702	<s> rest	-0.90309
-2.6218052	<s> those	-0.90309
-0.6016853	those musicians	-1
-0.30084264	musicians harmonize	-1
-0.30084264	harmonize marvelously	-1
-2.9005275	<s> most	-0.71600336
-2.181492	the most	-0.86530143
-2.833681	<s> young	-0.69897
-0.77728105	most young	-0.86530143
-2.5329528	<s> rise	-1.2863067
-0.77728105	young rise	-0.86530143
-0.6016853	rise early	-0.86530143
-0.3006829	early every	-0.86530143
-0.3006829	loved every	-0.8239087
-0.3006829	meals every	-0.66900676
-0.7775893	every morning	-0.86530143
-3.7987223	<s> bought	-0.30103
-1.6171944	we bought	-0.97003675
-0.6016853	brown chair	-0.97003675
-2.9005275	<s> quicker	-0.9378521
-0.77728105	much quicker	-0.7781512
-2.907232	<s> romeo	-0.9378521
-2.9455702	<s> travel	-0.90309
-1.6992395	is about	-0.90309
-1.1986848	all about	-0.86530143
-0.3003469	discover about	-0.86530143
-0.3003469	talked about	-0.72699875
-0.3003469	brought about	-0.90309
-0.9023409	only leisure	-0.90309
-2.907232	<s> nod	-0.9378521
-1.9833091	a place	-0.7781512
-1.0771027	good place	-0.90309
-0.3006829	gently place	-0.30103
-0.7775893	place though	-0.90309
-0.30084264	though small	-0.90309
-2.9455702	<s> liquor	-0.90309
-2.8091152	<s> beg	-0.80618
-2.6375148	<s> that	-0.74036264
-0.6003597	fill that	-0.42596874
-0.6003597	beg that	-0.97003675
-0.30017897	seen that	-0.8239087
-0.30017897	requests that	-0.66900676
-0.30017897	beauty that	-0.30103
-1.2026231	that guard	-0.97003675
-0.9023409	one gallon	-0.97003675
-2.9751768	<s> ride	-0.86530143
-0.60136604	walk ride	-0.30103
-1.4115145	can ride	-0.9378521
-0.7775893	ride stagecoach	-0.9378521
-2.6412528	<s> neat	-1.1856365
-2.6218052	<s> dead	-1.20412
-2.839423	<s> wit	-1
-1.7111573	i called	-0.86530143
-0.7775893	two different	-0.86530143
-0.30084264	different painters	-0.86530143
-2.9876235	<s> stimulating	-0.86530143
-0.30084264	stimulating discussions	-0.86530143
-0.6016853	keep students	-0.86530143
-0.30084264	students attention	-0.86530143
-0.9023409	help celebrate	-0.86530143
-0.3003469	celebrate your	-0.86530143
-0.77610505	eat your	-0.66900676
-0.3003469	guarantees your	-0.7781512
-0.3003469	upgrade your	-0.5228787
-0.3003469	reflect your	-0.5228787
-0.77728105	four brothers	-0.86530143
-0.99855065	your brothers	-0.86530143
-0.6016853	brothers success	-0.86530143
-2.9876235	<s> lake	-0.86530143
-2.907232	<s> thread	-0.9378521
-2.9751768	<s> dont	-0.86530143
-1.7070671	i dont	-0.8239087
-0.9982672	just dont	-0.30103
-0.99906385	do charlies	-0.86530143
-0.30084264	charlies dirty	-0.86530143
-0.30084264	dirty dishes	-0.86530143
-2.477503	<s> sew	-1.3424227
-2.7541907	<s> sort	-1.0791812
-2.9876235	<s> catch	-0.86530143
-1.5500964	he played	-0.86530143
-1.6548433	and played	-0.66900676
-0.60136604	has played	-0.8239087
-3.0762672	<s> basketball	-0.7781512
-0.77728105	played basketball	-0.86530143
-0.99906385	there while	-0.86530143
-0.30073977	while working	-0.86530143
-0.30073977	credit working	-0.5228787
-0.6016853	working toward	-0.86530143
-1.9909117	a law	-0.86530143
-0.30084264	law degree	-0.86530143
-2.9876235	<s> coconut	-0.86530143
-0.30084264	coconut cream	-0.86530143
-0.30084264	cream pie	-0.86530143
-1.1437039	she makes	-0.42596874
-0.3006829	pie makes	-0.86530143
-0.3006829	straw makes	-0.8239087
-1.9909117	a nice	-0.86530143
-0.30084264	nice dessert	-0.86530143
-1.619331	we selected	-0.86530143
-0.30084264	selected places	-0.86530143
-0.30073977	places where	-0.86530143
-0.60147977	know where	-0.72699875
-0.6016853	where families	-0.86530143
-1.5529418	be welcome	-0.86530143
-2.9876235	<s> cakes	-0.86530143
-2.451042	<s> bill	-1.3679768
-0.7775893	most accomplished	-0.86530143
-0.30084264	accomplished artists	-0.86530143
-0.30084264	artists obtain	-0.86530143
-0.30084264	obtain popularity	-0.86530143
-2.7012143	<s> short	-1.1249387
-1.7088046	is short	-0.86530143
-2.9876235	<s> shin	-0.86530143
-2.9751768	<s> some	-0.86530143
-1.6548433	and some	-0.42596874
-0.3006829	definitely some	-0.86530143
-0.7775893	some prefer	-0.86530143
-2.1893785	the traditional	-0.86530143
-0.30084264	traditional steel	-0.86530143
-0.30084264	steel kind	-0.86530143
-2.705439	<s> cork	-1.1249387
-2.7541907	<s> weep	-1.0791812
-2.9876235	<s> biblical	-0.86530143
-0.30084264	biblical scholars	-0.86530143
-0.30084264	scholars argue	-0.86530143
-0.30084264	argue history	-0.86530143
-2.9876235	<s> rid	-0.86530143
-2.9876235	<s> quart	-0.86530143
-2.9876235	<s> shot	-0.86530143
-1.7113427	is definitely	-0.86530143
-0.7775893	some ligament	-0.86530143
-0.30084264	ligament damage	-0.86530143
-0.99906385	his knee	-0.86530143
-2.9876235	<s> sheep	-0.86530143
-2.9876235	<s> snort	-0.86530143
-2.9876235	<s> pork	-0.86530143
-2.181492	the fact	-0.5228787
-1.5008165	in fact	-0.86530143
-0.60136604	fact our	-0.86530143
-0.9526826	with our	-0.72699875
-0.3006829	obtaining our	-0.7781512
-0.9023409	our whole	-0.86530143
-0.30084264	whole defensive	-0.86530143
-0.30084264	defensive unit	-0.86530143
-2.9876235	<s> sketch	-0.86530143
-0.6016853	who knows	-0.86530143
-0.3006829	knows what	-0.86530143
-0.60136604	thats what	-0.71600336
-0.60136604	sure what	-0.30103
-0.9023409	what youll	-0.86530143
-0.30084264	youll discover	-0.86530143
-0.99906385	about yourself	-0.86530143
-2.5204875	<s> blend	-1.30103
-2.9876235	<s> shed	-0.86530143
-1.500529	it looked	-0.42596874
-0.60147977	brothers looked	-0.86530143
-0.6016853	looked identical	-0.86530143
-2.979568	<s> critical	-0.86530143
-0.30073977	gained critical	-0.90309
-0.6016853	critical equipment	-0.86530143
-0.3006829	equipment needs	-0.86530143
-0.3006829	household needs	-0.30103
-0.3006829	plant needs	-0.30103
-0.7775893	needs proper	-0.86530143
-0.30084264	proper maintenance	-0.86530143
-2.5517054	<s> see	-1.2710668
-2.9876235	<s> shop	-0.86530143
-2.5998492	<s> heat	-1.2218487
-1.692057	of heat	-0.66900676
-2.907232	<s> suddenly	-0.9378521
-1.1448181	my reflexes	-0.9378521
-1.4743189	are gone	-0.9378521
-2.907232	<s> gill	-0.9378521
-2.9876235	<s> show	-0.86530143
-2.9005275	<s> read	-0.9378521
-1.4120796	can read	-0.72699875
-2.1893785	the results	-0.9378521
-0.99906385	very disappointing	-0.9378521
-2.9876235	<s> tug	-0.86530143
-2.535816	<s> cash	-1.2863067
-2.9876235	<s> stretch	-0.86530143
-2.5517054	<s> steak	-1.2710668
-2.9876235	<s> ray	-0.86530143
-2.9876235	<s> fort	-0.86530143
-2.9876235	<s> lee	-0.86530143
-2.6031911	<s> hold	-1.2218487
-2.907232	<s> ive	-0.9378521
-0.30084264	ive kept	-0.9378521
-3.2075875	<s> with	-0.5228787
-1.4839715	it with	-0.9378521
-0.29967564	compliance with	-0.9378521
-0.29967564	pleased with	-0.7781512
-0.29967564	popular with	-0.7781512
-0.29967564	laced with	-0.86530143
-0.29967564	disappointed with	-0.66900676
-0.29967564	canteen with	-0.42596874
-0.59935546	deal with	-0.42596874
-1.0780581	me ever	-0.9378521
-0.30084264	ever since	-0.9378521
-2.839423	<s> thats	-0.7781512
-2.9751768	<s> life	-0.86530143
-1.1437039	my life	-0.66900676
-0.9017032	what life	-0.86530143
-2.9876235	<s> shred	-0.86530143
-2.9876235	<s> sight	-0.86530143
-2.1893785	the fish	-0.86530143
-0.30084264	fish swam	-0.86530143
-0.30084264	swam across	-0.86530143
-2.1893785	the pond	-0.86530143
-1.1448181	she doesnt	-0.86530143
-1.7070671	i like	-0.42596874
-0.60136604	looked like	-0.42596874
-0.3006829	doesnt like	-0.86530143
-1.5021614	it hanging	-0.86530143
-0.30084264	hanging around	-0.86530143
-2.7541907	<s> tort	-1.0791812
-3.086355	<s> meats	-0.7781512
-1.6584681	and precious	-0.86530143
-2.5487356	<s> eat	-0.97003675
-1.500529	you eat	-0.66900676
-2.979568	<s> sport	-0.86530143
-0.30073977	entertaining sport	-0.7781512
-0.9023409	people participate	-0.86530143
-1.5023476	in athletic	-0.86530143
-0.30084264	athletic activities	-0.86530143
-2.9876235	<s> trespassers	-0.86530143
-1.5529418	be prosecuted	-0.86530143
-1.6584681	and fined	-0.86530143
-2.907232	<s> etiquette	-0.9378521
-0.30084264	etiquette mandates	-0.9378521
-0.30084264	mandates compliance	-0.9378521
-1.2535889	with existing	-0.9378521
-0.30084264	existing regulations	-0.9378521
-0.7775893	quick touchdown	-0.9378521
-0.30084264	touchdown resulted	-0.9378521
-2.181492	the little	-0.86530143
-0.60147977	still little	-0.30103
-0.6016853	little girls	-0.86530143
-0.30084264	girls cut	-0.86530143
-0.30084264	cut lacy	-0.86530143
-0.30084264	lacy valentines	-0.86530143
-2.4913638	<s> geese	-1.3290588
-2.9876235	<s> mill	-0.86530143
-2.9876235	<s> barbs	-0.86530143
-3.0762672	<s> gold	-0.7781512
-0.30073977	barbs gold	-0.86530143
-0.6016853	gold bracelet	-0.86530143
-1.9909117	a graduation	-0.86530143
-0.30084264	graduation present	-0.86530143
-2.4141479	<s> reap	-1.4036924
-2.9876235	<s> dill	-0.86530143
-2.9876235	<s> lend	-0.86530143
-2.9876235	<s> foe	-0.86530143
-1.5529418	he asked	-0.86530143
-1.9909117	a loan	-0.86530143
-0.99855065	they make	-0.69897
-0.77728105	phone make	-0.8239087
-3.0926182	<s> any	-0.72699875
-1.8662182	to any	-0.86530143
-1.6091245	for any	-0.42596874
-1.4943469	it any	-0.66900676
-0.77610505	make any	-0.86530143
-0.99855065	any money	-0.86530143
-0.30073977	save money	-0.30103
-2.9876235	<s> toe	-0.86530143
-2.9876235	<s> threat	-0.86530143
-2.9876235	<s> port	-0.86530143
-1.7111573	i scream	-0.86530143
-1.8848456	to warm	-0.86530143
-1.1448181	my voice	-0.86530143
-2.7291312	<s> rip	-1.1026623
-2.7541907	<s> wise	-1.0791812
-1.7085191	i think	-0.86530143
-0.77728105	dont think	-0.8239087
-2.938252	<s> full	-0.90309
-0.77728105	im full	-0.86530143
-1.0780581	this stuff	-0.86530143
-2.9876235	<s> bend	-0.86530143
-2.9876235	<s> muck	-0.86530143
-2.9876235	<s> snake	-0.86530143
-1.7111573	i havent	-0.8239087
-0.30084264	havent seen	-0.8239087
-1.2026231	that friend	-0.8239087
-3.0341895	<s> bumper	-0.8239087
-1.2535889	an entertaining	-0.7781512
-3.0341895	<s> ash	-0.8239087
-3.0762672	<s> fit	-0.7781512
-0.60147977	never fit	-0.5228787
-3.0341895	<s> sheer	-0.8239087
-0.99906385	at twilight	-0.86530143
-2.1893785	the twelfth	-0.86530143
-1.3403658	have chablis	-0.86530143
-2.6218052	<s> hash	-1.20412
-3.086355	<s> worse	-0.7781512
-0.30084264	worse luck	-0.7781512
-1.7088046	is still	-0.30103
-1.500529	was still	-0.7781512
-1.8809161	to come	-0.7781512
-1.500529	you come	-0.72699875
-2.1893785	the golfing	-0.7781512
-0.30084264	golfing fathers	-0.7781512
-0.30084264	fathers ruled	-0.7781512
-0.99906385	his favor	-0.7781512
-2.535816	<s> hail	-1.2863067
-3.086355	<s> code	-0.7781512
-3.086355	<s> elderly	-0.7781512
-0.7775893	often excluded	-0.7781512
-3.0341895	<s> beam	-0.8239087
-1.5529418	he remains	-0.86530143
-2.1893785	the fiercest	-0.86530143
-1.6944948	of competitors	-0.86530143
-3.086355	<s> knife	-0.7781512
-3.0341895	<s> pete	-0.8239087
-2.9876235	<s> addition	-0.86530143
-1.6584681	and subtraction	-0.86530143
-1.4743189	are learned	-0.86530143
-0.30084264	learned skills	-0.86530143
-1.5511074	be found	-0.7781512
-0.30073977	soon found	-0.42596874
-0.6016853	found anywhere	-0.7781512
-3.0341895	<s> gash	-0.8239087
-1.5021614	was pleased	-0.7781512
-2.181492	the way	-0.7781512
-0.99855065	any way	-0.66900676
-2.164725	the things	-0.5228787
-0.77660763	get things	-0.30103
-0.6010303	work things	-0.72699875
-0.6010303	way things	-0.7781512
-0.90193015	things went	-0.7781512
-0.30073977	marriage went	-0.86530143
-1.7111573	i loved	-0.8239087
-0.7775893	every minute	-0.8239087
-1.0780581	good idea	-0.8239087
-2.9876235	<s> fender	-0.86530143
-3.086355	<s> woe	-0.7781512
-3.0341895	<s> member	-0.8239087
-3.0341895	<s> beast	-0.8239087
-1.1448181	she suggested	-0.8239087
-1.3403658	have dinner	-0.8239087
-0.9982672	got together	-0.42596874
-0.3006829	dinner together	-0.8239087
-0.60136604	trip together	-0.30103
-2.8720052	<s> so	-0.66900676
-0.60136604	so if	-0.8239087
-0.3006829	fear if	-0.72699875
-0.60136604	practical if	-0.30103
-0.7775893	if anybody	-0.8239087
-0.30084264	anybody solicits	-0.8239087
-0.3003469	solicits by	-0.8239087
-0.3003469	begin by	-0.86530143
-0.6006948	them by	-0.72699875
-0.3003469	rewarded by	-0.30103
-0.3003469	acting by	-0.30103
-0.77728105	not sure	-0.30103
-0.77728105	make sure	-0.8239087
-1.5021614	you mail	-0.8239087
-2.1893785	the dough	-0.8239087
-3.086355	<s> ambidextrous	-0.7781512
-0.30084264	ambidextrous pickpockets	-0.7781512
-0.30084264	pickpockets accomplish	-0.7781512
-3.0341895	<s> guess	-0.8239087
-1.9909117	a wedding	-0.86530143
-0.30084264	wedding trip	-0.64345264
-2.4736195	<s> her	-0.86530143
-0.7771107	win her	-0.42596874
-0.3006829	outgrew her	-0.8239087
-0.99906385	her dark	-0.8239087
-0.30084264	dark hair	-0.8239087
-1.7113427	is combed	-0.8239087
-0.30084264	combed casually	-0.8239087
-3.214347	<s> seam	-0.66900676
-3.0341895	<s> beep	-0.8239087
-1.5511074	be quite	-0.7781512
-1.4727877	are quite	-0.30103
-0.6016853	quite vocal	-0.7781512
-1.5021614	it requires	-0.7781512
-0.99906385	big investment	-0.7781512
-1.2026231	that pickpocket	-0.9378521
-1.5021614	was caught	-0.9378521
-0.30084264	caught redhanded	-0.9378521
-3.1456528	<s> mock	-0.72699875
-2.6412528	<s> dock	-1.1856365
-2.938252	<s> sea	-0.90309
-0.30073977	resemble sea	-0.5228787
-3.0341895	<s> grandmother	-0.8239087
-0.30084264	grandmother outgrew	-0.8239087
-0.99906385	her upbringing	-0.8239087
-1.5023476	in petticoats	-0.8239087
-2.1893785	the sun	-0.8239087
-0.30084264	sun died	-0.8239087
-3.086355	<s> ember	-0.7781512
-2.6412528	<s> seat	-1.1856365
-3.086355	<s> food	-0.7781512
-3.086355	<s> reef	-0.7781512
-1.9909117	a fire	-0.8239087
-1.5023476	in straw	-0.8239087
-0.7775893	quick blaze	-0.8239087
-3.086355	<s> sender	-0.7781512
-0.99906385	her classical	-0.90309
-0.30084264	classical performance	-0.90309
-0.30084264	performance gained	-0.90309
-0.6016853	critical acclaim	-0.90309
-0.99906385	her position	-0.86530143
-0.90193015	also covers	-0.7781512
-0.30073977	position covers	-0.86530143
-1.9909117	a number	-1.1249387
-1.6944948	of daily	-0.86530143
-0.30084264	daily tasks	-0.86530143
-0.30084264	tasks common	-0.86530143
-0.99906385	any social	-0.86530143
-0.30084264	social director	-0.86530143
-2.1893785	the marriage	-0.86530143
-1.1402056	well from	-0.86530143
-0.30017897	behavior from	-0.72699875
-0.30017897	coming from	-0.72699875
-0.30017897	assaults from	-0.7781512
-0.30017897	drenched from	-0.86530143
-0.30017897	original from	-0.30103
-2.181492	the start	-0.86530143
-0.90193015	our start	-0.66900676
-1.8809161	to tell	-0.30103
-1.7085191	i tell	-0.7781512
-1.5021614	was wonderful	-0.7781512
-3.086355	<s> renter	-0.7781512
-2.6412528	<s> row	-1.1856365
-3.086355	<s> lender	-0.7781512
-3.086355	<s> ape	-0.7781512
-1.7085191	i didnt	-0.72699875
-0.99855065	just didnt	-0.8239087
-3.0341895	<s> forks	-0.8239087
-3.1456528	<s> tender	-0.72699875
-3.0341895	<s> tea	-0.8239087
-0.99906385	very popular	-0.7781512
-0.9023409	our fans	-0.7781512
-3.086355	<s> timber	-0.7781512
-2.7541907	<s> leap	-1.0791812
-3.086355	<s> catastrophic	-0.7781512
-0.30084264	catastrophic economic	-0.7781512
-0.30084264	economic cutbacks	-0.7781512
-0.30084264	cutbacks neglect	-0.7781512
-2.1893785	the poor	-0.7781512
-2.8720052	<s> tail	-0.97003675
-3.0341895	<s> bender	-0.8239087
-2.4913638	<s> ache	-1.3290588
-3.0341895	<s> center	-0.8239087
-3.086355	<s> mom	-0.7781512
-0.30084264	mom strongly	-0.7781512
-0.30084264	strongly dislikes	-0.7781512
-0.30084264	dislikes appetizers	-0.7781512
-3.0341895	<s> beef	-0.8239087
-3.0341895	<s> temper	-0.8239087
-2.7080336	<s> had	-1.1026623
-1.6091245	we had	-0.30103
-1.6985823	i had	-0.72699875
-0.3003469	finger had	-0.72699875
-0.3003469	kat had	-0.30103
-0.99906385	no desire	-0.72699875
-1.8848456	to change	-0.72699875
-1.1448181	my ways	-0.72699875
-2.6218052	<s> wax	-1.20412
-2.907232	<s> pet	-0.9378521
-3.086355	<s> aid	-0.7781512
-3.1456528	<s> knock	-0.72699875
-3.1456528	<s> lies	-0.72699875
-3.086355	<s> cheese	-0.7781512
-3.0341895	<s> hatch	-0.8239087
-2.1893785	the lack	-0.66900676
-0.6016853	heat compounded	-0.66900676
-2.1893785	the tenants	-0.66900676
-0.30073977	tenants grievances	-0.66900676
-0.30073977	personal grievances	-0.90309
-2.5853424	<s> bunch	-1.2388821
-0.99906385	any contributions	-0.72699875
-1.5529418	be greatly	-0.72699875
-0.30084264	greatly appreciated	-0.72699875
-2.6031911	<s> ease	-1.2218487
-2.7807853	<s> add	-1.0543576
-2.9876235	<s> chocolate	-0.86530143
-1.6584681	and roses	-0.86530143
-0.30073977	roses never	-0.86530143
-0.30073977	theyll never	-0.5228787
-0.6016853	never fail	-0.64345264
-1.9909117	a romantic	-0.7781512
-0.30084264	romantic gift	-0.7781512
-2.1893785	the legislature	-0.9378521
-0.30084264	legislature met	-0.9378521
-3.7987223	<s> judge	-0.30103
-1.8809161	to judge	-0.9378521
-1.8956567	the state	-0.7781512
-1.6944948	of public	-0.9378521
-0.30084264	public education	-0.9378521
-2.1893785	the largest	-0.8239087
-0.7775893	four states	-0.8239087
-3.1456528	<s> peas	-0.72699875
-3.1456528	<s> bun	-0.72699875
-3.1456528	<s> punch	-0.72699875
-3.086355	<s> ail	-0.7781512
-2.9876235	<s> begin	-0.86530143
-0.99906385	by trying	-0.86530143
-1.8848456	to speak	-0.86530143
-2.7807853	<s> tall	-1.0543576
-3.1456528	<s> range	-0.72699875
-1.9909117	a vital	-0.72699875
-0.30084264	vital detail	-0.72699875
-3.1456528	<s> pill	-0.72699875
-3.1456528	<s> racks	-0.72699875
-2.1893785	the structures	-0.8239087
-0.30084264	structures housing	-0.8239087
-2.1893785	the apartments	-0.8239087
-1.6944948	of masonry	-0.72699875
-1.6584681	and frame	-0.72699875
-0.30084264	frame construction	-0.72699875
-3.1456528	<s> aches	-0.72699875
-3.086355	<s> lit	-0.7781512
-2.1893785	the singers	-0.72699875
-0.30084264	singers finger	-0.72699875
-1.9909117	a splinter	-0.72699875
-2.9876235	<s> now	-0.86530143
-0.7775893	im living	-0.86530143
-0.30084264	living exactly	-0.86530143
-1.7111573	i choose	-0.7781512
-3.1456528	<s> duck	-0.72699875
-3.1456528	<s> arm	-0.72699875
-1.7111573	i wanted	-0.72699875
-1.2535889	an actress	-0.72699875
-2.9005275	<s> fell	-0.9378521
-1.500529	it fell	-0.42596874
-0.6016853	academic aptitude	-0.7781512
-0.30084264	aptitude guarantees	-0.7781512
-0.99906385	your diploma	-0.7781512
-3.1456528	<s> charm	-0.72699875
-1.9909117	a great	-0.72699875
-0.30084264	great meeting	-0.72699875
-1.5529418	be prepared	-0.72699875
-1.619331	for odd	-0.72699875
-0.30084264	odd behavior	-0.72699875
-1.0780581	from friends	-0.72699875
-3.0341895	<s> mile	-0.8239087
-3.086355	<s> rakes	-0.7781512
-1.619331	we talked	-0.72699875
-2.1893785	the situation	-0.72699875
-1.692057	of other	-0.7781512
-0.77728105	makes other	-0.42596874
-0.6016853	other items	-0.7781512
-0.99906385	no fear	-0.72699875
-3.486079	<s> sat	-0.42596874
-0.9982672	just sat	-0.42596874
-1.2013508	all sat	-0.7781512
-1.6584681	and relaxed	-0.7781512
-2.5056815	<s> hall	-1.3152704
-3.086355	<s> sake	-0.7781512
-1.6171944	we know	-0.90309
-0.60147977	didnt know	-0.72699875
-1.1448181	were coming	-0.72699875
-1.619331	for pockets	-0.8239087
-3.1456528	<s> hell	-0.72699875
-0.60147977	sell them	-0.72699875
-0.77728105	like them	-0.42596874
-1.8956567	the box	-0.8239087
-2.1893785	the plot	-0.86530143
-1.7113427	is laced	-0.86530143
-1.2535889	with mysterious	-0.86530143
-0.30084264	mysterious incidents	-0.86530143
-1.619331	we shelled	-0.72699875
-0.30084264	shelled clams	-0.72699875
-2.1893785	the chowder	-0.72699875
-1.619331	we experience	-0.7781512
-0.30084264	experience distress	-0.7781512
-1.6584681	and frustration	-0.7781512
-0.30084264	frustration obtaining	-0.7781512
-0.9023409	our degrees	-0.7781512
-3.086355	<s> ticks	-0.7781512
-2.1893785	the prowler	-0.7781512
-0.30084264	prowler wore	-0.7781512
-1.9909117	a ski	-0.7781512
-0.30084264	ski mask	-0.7781512
-1.619331	for disguise	-0.7781512
-0.99855065	no confirmation	-0.7781512
-0.60147977	cable confirmation	-0.66900676
-1.7088046	is such	-0.5228787
-1.692057	of such	-0.7781512
-0.6016853	such massive	-0.7781512
-0.30084264	massive assaults	-0.7781512
-1.0780581	from independent	-0.7781512
-0.30084264	independent sources	-0.7781512
-3.086355	<s> chap	-0.7781512
-3.1456528	<s> lax	-0.72699875
-3.7987223	<s> score	-0.30103
-1.4120796	can score	-0.90309
-3.1456528	<s> munch	-0.72699875
-1.5529418	he added	-0.90309
-0.30084264	added brought	-0.90309
-1.6561307	and petty	-0.90309
-0.99855065	about petty	-0.90309
-0.6016853	petty jealousies	-0.90309
-0.6016853	petty personal	-0.90309
-3.0341895	<s> even	-0.8239087
-1.9909117	a simple	-0.8239087
-0.30084264	simple vocabulary	-0.8239087
-0.30084264	vocabulary contains	-0.8239087
-0.30084264	contains symbols	-0.8239087
-3.1456528	<s> end	-0.72699875
-2.1893785	the eastern	-0.7781512
-0.30084264	eastern coast	-0.7781512
-1.619331	for pure	-0.7781512
-1.6171944	for pleasure	-0.42596874
-0.30073977	pure pleasure	-0.7781512
-1.6584681	and excitement	-0.7781512
-3.214347	<s> dial	-0.66900676
-2.839423	<s> low	-1
-3.214347	<s> cold	-0.66900676
-3.3966093	<s> whip	-0.5228787
-1.5198281	a few	-0.6478175
-0.7775893	few bad	-0.7781512
-3.3966093	<s> ink	-0.5228787
-3.214347	<s> handle	-0.66900676
-3.3966093	<s> theyll	-0.5228787
-1.0780581	me again	-0.5228787
-3.3966093	<s> term	-0.5228787
-3.3966093	<s> wide	-0.5228787
-0.99906385	got drenched	-0.86530143
-2.1893785	the uninterrupted	-0.86530143
-3.214347	<s> pant	-0.66900676
-0.77728105	few may	-0.66900676
-0.30073977	company may	-0.42596874
-1.5511074	be hard	-0.66900676
-1.1441003	its hard	-0.30103
-3.7987223	<s> find	-0.30103
-1.5854394	to find	-0.86530143
-3.086355	<s> cable	-0.5563025
-0.7775893	said translated	-0.66900676
-3.214347	<s> weve	-0.66900676
-2.1893785	the past	-0.66900676
-3.3966093	<s> burn	-0.5228787
-1.619331	we knew	-0.66900676
-1.619331	we werent	-0.66900676
-0.30084264	werent doing	-0.66900676
-3.3966093	<s> upgrade	-0.5228787
-0.99906385	your status	-0.5228787
-1.8848456	to reflect	-0.5228787
-0.99906385	your wealth	-0.5228787
-3.3762443	<s> spring	-0.5228787
-0.30073977	fresh spring	-0.42596874
-3.5004828	<s> street	-0.42596874
-0.60147977	spring street	-0.5228787
-1.4126368	is straight	-0.60206
-0.6016853	straight ahead	-0.5228787
-0.6016853	store serves	-0.66900676
-0.30084264	serves meals	-0.66900676
-1.2026231	all disappointed	-0.66900676
