\data\
ngram 1=1119
ngram 2=2248
ngram 3=1825

\1-grams:
-3.3689651	<unk>	0
0	<s>	-1.0635056
-0.5732257	</s>	0
-3.2933645	pat	-0.30103
-2.6909614	up	-0.30103
-3.2933645	meat	-0.30103
-3.1532278	know	-0.30103
-3.2933645	air	-0.30103
-3.2933645	swarm	-0.30103
-2.7979524	no	-0.30103
-3.2933645	storm	-0.30103
-3.2933645	dug	-0.30103
-3.2933645	feet	-0.30103
-3.2933645	beat	-0.30103
-3.2933645	rake	-0.30103
-3.2933645	sip	-0.30103
-3.2933645	bit	-0.30103
-3.2933645	chair	-0.30103
-3.1532278	one	-0.30103
-3.1532278	two	-0.30103
-3.0885231	spark	-0.30103
-3.0885231	dark	-0.30103
-3.2933645	bat	-0.30103
-3.2933645	sheet	-0.30103
-3.0885231	warm	-0.30103
-3.2933645	ship	-0.30103
-3.2933645	goat	-0.30103
-3.2933645	left	-0.30103
-3.2933645	sticks	-0.30103
-3.0885231	slip	-0.30103
-3.2933645	floor	-0.30103
-3.0885231	right	-0.30103
-3.0885231	knew	-0.30103
-2.6909614	well	-0.30103
-2.6909614	he	-0.30103
-2.1592379	is	-0.30103
-3.2933645	nearly	-0.30103
-3.2933645	ninety	-0.30103
-3.1532278	three	-0.30103
-3.1532278	years	-0.30103
-3.1532278	old	-0.30103
-3.2933645	feed	-0.30103
-3.2933645	park	-0.30103
-3.1532278	down	-0.30103
-3.2933645	yes	-0.30103
-3.2933645	dressed	-0.30103
-3.0885231	himself	-0.30103
-2.2521267	in	-0.30103
-2.6051872	an	-0.30103
-3.2933645	ancient	-0.30103
-3.0885231	black	-0.30103
-3.2933645	frock	-0.30103
-3.0885231	coat	-0.30103
-3.2933645	ate	-0.30103
-3.2933645	white	-0.30103
-3.0885231	bad	-0.30103
-3.2933645	cheer	-0.30103
-3.0885231	write	-0.30103
-3.2933645	tile	-0.30103
-3.2933645	sweet	-0.30103
-3.2933645	suit	-0.30103
-3.1532278	much	-0.30103
-3.2933645	rock	-0.30103
-3.2933645	knot	-0.30103
-3.2933645	shoot	-0.30103
-2.6051872	will	-0.30103
-3.2933645	allow	-0.30103
-1.895739	a	-0.30103
-3.2933645	rare	-0.30103
-3.2933645	lilyrare	-0.30103
-3.2933645	lie	-0.30103
-3.2933645	boot	-0.30103
-3.2933645	witch	-0.30103
-3.2933645	lip	-0.30103
-3.2933645	sigh	-0.30103
-3.2933645	side	-0.30103
-3.0885231	four	-0.30103
-3.1532278	him	-0.30103
-3.0885231	sell	-0.30103
-3.0885231	five	-0.30103
-3.2933645	pit	-0.30103
-3.2933645	zero	-0.30103
-3.2933645	fat	-0.30103
-3.2933645	spit	-0.30103
-3.2933645	six	-0.30103
-3.2933645	hat	-0.30103
-3.2933645	carl	-0.30103
-3.2933645	lives	-0.30103
-3.2933645	lovely	-0.30103
-3.2933645	home	-0.30103
-3.2933645	bran	-0.30103
-3.2933645	nine	-0.30103
-2.9402308	at	-0.30103
-3.2933645	seven	-0.30103
-3.2933645	leak	-0.30103
-3.2933645	eight	-0.30103
-3.2933645	fill	-0.30103
-3.2933645	bite	-0.30103
-3.2933645	harm	-0.30103
-3.2933645	chop	-0.30103
-3.2933645	shell	-0.30103
-3.2933645	sin	-0.30103
-3.2933645	tin	-0.30103
-2.9402308	people	-0.30103
-3.0885231	who	-0.30103
-3.2933645	value	-0.30103
-3.2933645	themselves	-0.30103
-2.2880998	are	-0.30103
-3.2933645	lifes	-0.30103
-3.2933645	winners	-0.30103
-3.2933645	lock	-0.30103
-3.2933645	nut	-0.30103
-3.0885231	please	-0.30103
-3.2933645	open	-0.30103
-1.8663634	the	-0.30103
-3.2933645	window	-0.30103
-3.2933645	quickly	-0.30103
-3.2933645	zulu	-0.30103
-3.2933645	then	-0.30103
-3.2933645	wed	-0.30103
-2.7979524	really	-0.30103
-2.5335917	have	-0.30103
-3.2933645	someplace	-0.30103
-1.9439013	to	-0.30103
-3.2933645	go	-0.30103
-3.2933645	flicker	-0.30103
-3.2933645	bread	-0.30103
-2.327324	you	-0.30103
-3.2933645	want	-0.30103
-3.1532278	do	-0.30103
-3.2933645	sicker	-0.30103
-3.2933645	dice	-0.30103
-3.2933645	help	-0.30103
-3.2933645	greg	-0.30103
-3.2933645	pick	-0.30103
-3.2933645	peck	-0.30103
-2.1592379	of	-0.30103
-3.2933645	potatoes	-0.30103
-3.2933645	fork	-0.30103
-3.2933645	took	-0.30103
-2.7979524	me	-0.30103
-3.1532278	out	-0.30103
-3.1532278	day	-0.30103
-3.2933645	rest	-0.30103
-3.0885231	most	-0.30103
-3.0885231	young	-0.30103
-3.0885231	rise	-0.30103
-3.2933645	early	-0.30103
-3.1532278	every	-0.30103
-3.2933645	morning	-0.30103
-3.2933645	travel	-0.30103
-2.7979524	about	-0.30103
-3.1532278	only	-0.30103
-3.2933645	leisure	-0.30103
-2.7979524	we	-0.30103
-3.2933645	nod	-0.30103
-3.1532278	this	-0.30103
-3.1532278	good	-0.30103
-3.1532278	place	-0.30103
-3.2933645	though	-0.30103
-3.2933645	small	-0.30103
-3.0885231	nice	-0.30103
-3.2933645	liquor	-0.30103
-3.2933645	neat	-0.30103
-3.0885231	walk	-0.30103
-2.9402308	i	-0.30103
-3.2933645	called	-0.30103
-3.2933645	different	-0.30103
-3.2933645	painters	-0.30103
-3.2933645	stimulating	-0.30103
-3.2933645	discussions	-0.30103
-3.2933645	keep	-0.30103
-3.2933645	students	-0.30103
-3.2933645	attention	-0.30103
-3.2933645	celebrate	-0.30103
-2.7979524	your	-0.30103
-3.0885231	brothers	-0.30103
-3.2933645	success	-0.30103
-3.2933645	lake	-0.30103
-3.2933645	thread	-0.30103
-3.2933645	fed	-0.30103
-3.1532278	dont	-0.30103
-3.2933645	charlies	-0.30103
-3.2933645	dirty	-0.30103
-3.2933645	dishes	-0.30103
-3.2933645	sew	-0.30103
-3.2933645	sort	-0.30103
-3.2933645	catch	-0.30103
-3.2933645	goose	-0.30103
-3.1532278	played	-0.30103
-3.0885231	basketball	-0.30103
-2.9402308	there	-0.30103
-3.2933645	while	-0.30103
-3.0885231	working	-0.30103
-3.2933645	toward	-0.30103
-3.2933645	law	-0.30103
-3.2933645	degree	-0.30103
-3.2933645	coconut	-0.30103
-3.2933645	cream	-0.30103
-3.2933645	pie	-0.30103
-3.1532278	makes	-0.30103
-3.2933645	dessert	-0.30103
-3.0885231	ride	-0.30103
-3.2933645	selected	-0.30103
-3.2933645	places	-0.30103
-3.0885231	where	-0.30103
-3.2933645	families	-0.30103
-2.4183254	be	-0.30103
-3.2933645	welcome	-0.30103
-3.2933645	cakes	-0.30103
-3.2933645	bill	-0.30103
-3.2933645	accomplished	-0.30103
-3.2933645	artists	-0.30103
-3.2933645	obtain	-0.30103
-3.2933645	popularity	-0.30103
-3.0885231	short	-0.30103
-3.2933645	shin	-0.30103
-3.1532278	some	-0.30103
-3.2933645	prefer	-0.30103
-3.2933645	traditional	-0.30103
-3.2933645	steel	-0.30103
-3.2933645	kind	-0.30103
-3.2933645	cork	-0.30103
-3.2933645	weep	-0.30103
-3.2933645	biblical	-0.30103
-3.2933645	scholars	-0.30103
-3.2933645	argue	-0.30103
-3.2933645	history	-0.30103
-3.2933645	rid	-0.30103
-3.2933645	quart	-0.30103
-3.2933645	shot	-0.30103
-3.2933645	definitely	-0.30103
-3.2933645	ligament	-0.30103
-3.2933645	damage	-0.30103
-3.0885231	his	-0.30103
-3.2933645	knee	-0.30103
-3.2933645	sheep	-0.30103
-3.2933645	snort	-0.30103
-3.2933645	pork	-0.30103
-3.0885231	fact	-0.30103
-3.1532278	our	-0.30103
-3.2933645	whole	-0.30103
-3.2933645	defensive	-0.30103
-3.2933645	unit	-0.30103
-3.0885231	did	-0.30103
-3.0885231	job	-0.30103
-3.2933645	sketch	-0.30103
-3.2933645	knows	-0.30103
-3.1532278	what	-0.30103
-3.2933645	youll	-0.30103
-3.2933645	discover	-0.30103
-3.2933645	yourself	-0.30103
-3.2933645	blend	-0.30103
-3.2933645	shed	-0.30103
-3.0885231	looked	-0.30103
-3.2933645	identical	-0.30103
-3.0885231	critical	-0.30103
-3.2933645	equipment	-0.30103
-3.1532278	needs	-0.30103
-3.2933645	proper	-0.30103
-3.2933645	maintenance	-0.30103
-3.2933645	court	-0.30103
-3.2933645	see	-0.30103
-3.2933645	shop	-0.30103
-3.0885231	heat	-0.30103
-3.2933645	suddenly	-0.30103
-2.7979524	my	-0.30103
-3.2933645	reflexes	-0.30103
-3.2933645	gone	-0.30103
-3.2933645	gill	-0.30103
-3.2933645	show	-0.30103
-3.0885231	read	-0.30103
-3.2933645	results	-0.30103
-2.6051872	were	-0.30103
-3.1532278	very	-0.30103
-3.2933645	disappointing	-0.30103
-3.2933645	tug	-0.30103
-3.2933645	cash	-0.30103
-3.2933645	stretch	-0.30103
-3.2933645	steak	-0.30103
-3.2933645	ray	-0.30103
-3.2933645	fort	-0.30103
-3.2933645	lee	-0.30103
-3.2933645	hold	-0.30103
-3.2933645	ive	-0.30103
-3.2933645	kept	-0.30103
-2.4183254	it	-0.30103
-2.4721456	with	-0.30103
-3.2933645	ever	-0.30103
-3.2933645	since	-0.30103
-3.2933645	thats	-0.30103
-3.1532278	life	-0.30103
-2.7979524	all	-0.30103
-2.4183254	was	-0.30103
-3.2933645	decision	-0.30103
-3.2933645	made	-0.30103
-3.2933645	shred	-0.30103
-3.2933645	sight	-0.30103
-3.2933645	fish	-0.30103
-3.2933645	swam	-0.30103
-3.2933645	across	-0.30103
-3.2933645	pond	-0.30103
-3.2933645	she	-0.30103
-3.2933645	doesnt	-0.30103
-3.1532278	like	-0.30103
-3.2933645	hanging	-0.30103
-3.2933645	around	-0.30103
-3.2933645	tort	-0.30103
-3.2933645	meats	-0.30103
-2.1067853	and	-0.30103
-3.2933645	precious	-0.30103
-3.0885231	eat	-0.30103
-3.0885231	sport	-0.30103
-3.2933645	participate	-0.30103
-3.2933645	athletic	-0.30103
-3.2933645	activities	-0.30103
-3.2933645	trespassers	-0.30103
-2.5335917	can	-0.39794
-3.2933645	prosecuted	-0.30103
-3.2933645	fined	-0.30103
-3.2933645	etiquette	-0.30103
-3.2933645	mandates	-0.30103
-3.2933645	compliance	-0.30103
-3.2933645	existing	-0.30103
-3.2933645	regulations	-0.30103
-3.2933645	quick	-0.30103
-3.2933645	touchdown	-0.30103
-3.2933645	resulted	-0.30103
-3.0885231	little	-0.30103
-3.2933645	girls	-0.30103
-3.2933645	cut	-0.30103
-3.2933645	lacy	-0.30103
-3.2933645	valentines	-0.30103
-3.0885231	gas	-0.30103
-3.2933645	geese	-0.30103
-3.2933645	mill	-0.30103
-3.2933645	barbs	-0.30103
-3.0885231	gold	-0.30103
-3.2933645	bracelet	-0.30103
-3.2933645	graduation	-0.30103
-3.2933645	present	-0.30103
-3.2933645	reap	-0.30103
-3.2933645	dill	-0.30103
-3.2933645	lend	-0.30103
-3.2933645	foe	-0.30103
-3.2933645	asked	-0.30103
-2.327324	for	-0.30103
-3.2933645	loan	-0.30103
-2.7979524	they	-0.30103
-3.0885231	make	-0.30103
-2.7979524	any	-0.30103
-3.0885231	money	-0.30103
-3.2933645	toe	-0.30103
-3.2933645	threat	-0.30103
-3.2933645	port	-0.30103
-3.2933645	scream	-0.30103
-3.2933645	voice	-0.30103
-3.2933645	rip	-0.30103
-3.2933645	wise	-0.30103
-3.0885231	think	-0.30103
-3.0885231	im	-0.30103
-3.0885231	full	-0.30103
-3.2933645	stuff	-0.30103
-3.2933645	bend	-0.30103
-3.2933645	muck	-0.30103
-3.0885231	night	-0.30103
-3.2933645	snake	-0.30103
-3.2933645	havent	-0.30103
-3.2933645	seen	-0.30103
-2.6909614	that	-0.30103
-3.2933645	friend	-0.30103
-3.2933645	bumper	-0.30103
-3.2933645	entertaining	-0.30103
-3.2933645	ash	-0.30103
-3.0885231	fit	-0.30103
-3.2933645	sheer	-0.30103
-3.2933645	twilight	-0.30103
-2.6909614	on	-0.38021123
-3.2933645	twelfth	-0.30103
-3.2933645	chablis	-0.30103
-3.2933645	hash	-0.30103
-3.2933645	worse	-0.30103
-3.2933645	luck	-0.30103
-3.0885231	still	-0.30103
-3.0885231	come	-0.30103
-3.2933645	golfing	-0.30103
-3.2933645	fathers	-0.30103
-3.2933645	ruled	-0.30103
-3.2933645	favor	-0.30103
-3.2933645	hail	-0.30103
-3.2933645	code	-0.30103
-3.2933645	elderly	-0.30103
-3.2933645	often	-0.30103
-3.2933645	excluded	-0.30103
-3.2933645	beam	-0.30103
-3.0885231	yet	-0.30103
-3.2933645	remains	-0.30103
-3.2933645	fiercest	-0.30103
-3.2933645	competitors	-0.30103
-3.2933645	knife	-0.30103
-3.2933645	pete	-0.30103
-3.2933645	addition	-0.30103
-3.2933645	subtraction	-0.30103
-3.2933645	learned	-0.30103
-3.2933645	skills	-0.30103
-3.0885231	found	-0.30103
-3.2933645	anywhere	-0.30103
-3.2933645	gash	-0.30103
-3.2933645	pleased	-0.30103
-3.0885231	way	-0.30103
-2.9402308	things	-0.30103
-3.0885231	went	-0.30103
-3.2933645	loved	-0.30103
-3.2933645	minute	-0.30103
-3.1532278	its	-0.30103
-3.2933645	idea	-0.30103
-3.2933645	fender	-0.30103
-3.2933645	woe	-0.30103
-3.2933645	member	-0.30103
-3.2933645	beast	-0.30103
-3.2933645	suggested	-0.30103
-3.2933645	dinner	-0.30103
-3.1532278	together	-0.30103
-3.2933645	so	-0.30103
-3.1532278	if	-0.30103
-3.2933645	anybody	-0.30103
-3.2933645	solicits	-0.30103
-2.7979524	by	-0.30103
-3.0885231	phone	-0.30103
-3.0885231	sure	-0.30103
-3.2933645	mail	-0.30103
-3.2933645	dough	-0.30103
-3.2933645	above	-0.30103
-3.2933645	ambidextrous	-0.30103
-3.2933645	pickpockets	-0.30103
-3.2933645	accomplish	-0.30103
-3.1532278	more	-0.30103
-3.2933645	guess	-0.30103
-3.2933645	take	-0.30103
-3.2933645	wedding	-0.30103
-3.2933645	trip	-0.30103
-3.0885231	later	-0.30103
-3.1532278	her	-0.30103
-3.2933645	hair	-0.30103
-3.2933645	combed	-0.30103
-3.2933645	casually	-0.30103
-3.2933645	seam	-0.30103
-3.2933645	beep	-0.30103
-2.9402308	also	-0.30103
-3.0885231	quite	-0.30103
-3.2933645	vocal	-0.30103
-3.2933645	requires	-0.30103
-2.9402308	big	-0.30103
-3.2933645	investment	-0.30103
-3.2933645	pickpocket	-0.30103
-3.2933645	caught	-0.30103
-3.2933645	redhanded	-0.30103
-3.2933645	house	-0.30103
-3.2933645	mock	-0.30103
-3.2933645	dock	-0.30103
-3.0885231	sea	-0.30103
-3.2933645	grandmother	-0.30103
-3.2933645	outgrew	-0.30103
-3.2933645	upbringing	-0.30103
-3.2933645	petticoats	-0.30103
-3.2933645	sun	-0.30103
-3.2933645	died	-0.30103
-3.2933645	ember	-0.30103
-3.2933645	seat	-0.30103
-3.2933645	those	-0.30103
-3.2933645	quicker	-0.30103
-3.0885231	than	-0.30103
-3.2933645	am	-0.30103
-3.2933645	food	-0.30103
-3.2933645	reef	-0.30103
-3.2933645	fire	-0.30103
-3.2933645	straw	-0.30103
-3.2933645	blaze	-0.30103
-3.2933645	sender	-0.30103
-3.2933645	classical	-0.30103
-3.2933645	performance	-0.30103
-3.2933645	gained	-0.30103
-3.2933645	acclaim	-0.30103
-3.2933645	position	-0.30103
-3.0885231	covers	-0.30103
-3.2933645	number	-0.30103
-3.2933645	daily	-0.30103
-3.2933645	tasks	-0.30103
-3.2933645	common	-0.30103
-3.2933645	social	-0.30103
-3.2933645	director	-0.30103
-3.2933645	marriage	-0.30103
-2.6909614	from	-0.30103
-3.0885231	start	-0.30103
-3.0885231	tell	-0.30103
-3.2933645	wonderful	-0.30103
-3.2933645	renter	-0.30103
-3.2933645	row	-0.30103
-3.2933645	lender	-0.30103
-3.2933645	ape	-0.30103
-3.2933645	just	-0.30103
-3.0885231	didnt	-0.30103
-3.0885231	look	-0.30103
-3.2933645	forks	-0.30103
-3.2933645	tender	-0.30103
-3.2933645	tea	-0.30103
-3.2933645	popular	-0.30103
-3.2933645	fans	-0.30103
-3.2933645	timber	-0.30103
-3.2933645	leap	-0.30103
-3.2933645	catastrophic	-0.30103
-3.2933645	economic	-0.30103
-3.2933645	cutbacks	-0.30103
-3.2933645	neglect	-0.30103
-3.2933645	poor	-0.30103
-3.2933645	tail	-0.30103
-3.2933645	bender	-0.30103
-3.2933645	ache	-0.30103
-3.2933645	center	-0.30103
-3.2933645	mom	-0.30103
-3.2933645	strongly	-0.30103
-3.2933645	dislikes	-0.30103
-3.2933645	appetizers	-0.30103
-3.2933645	beef	-0.30103
-3.2933645	temper	-0.30103
-2.7979524	had	-0.30103
-3.2933645	desire	-0.30103
-3.2933645	change	-0.30103
-3.2933645	ways	-0.30103
-3.2933645	wax	-0.30103
-3.2933645	pet	-0.30103
-3.2933645	aid	-0.30103
-3.2933645	knock	-0.30103
-3.2933645	lies	-0.30103
-3.2933645	cheese	-0.30103
-3.2933645	hatch	-0.30103
-3.2933645	lack	-0.30103
-3.2933645	compounded	-0.30103
-3.2933645	tenants	-0.30103
-3.0885231	grievances	-0.30103
-3.2933645	bunch	-0.30103
-3.2933645	contributions	-0.30103
-3.2933645	greatly	-0.30103
-3.2933645	appreciated	-0.30103
-3.2933645	ease	-0.30103
-3.2933645	leaks	-0.30103
-3.2933645	add	-0.30103
-3.2933645	chocolate	-0.30103
-3.2933645	roses	-0.30103
-3.0885231	never	-0.30103
-3.2933645	fail	-0.30103
-2.7979524	as	-0.30103
-3.2933645	romantic	-0.30103
-3.2933645	gift	-0.30103
-3.2933645	legislature	-0.30103
-3.2933645	met	-0.30103
-3.0885231	judge	-0.30103
-3.2933645	state	-0.30103
-3.2933645	public	-0.30103
-3.2933645	education	-0.30103
-3.2933645	largest	-0.30103
-3.2933645	states	-0.30103
-3.2933645	peas	-0.30103
-3.2933645	bun	-0.30103
-3.2933645	punch	-0.30103
-3.2933645	ail	-0.30103
-3.2933645	begin	-0.30103
-3.2933645	trying	-0.30103
-3.2933645	speak	-0.30103
-3.2933645	tall	-0.30103
-3.2933645	range	-0.30103
-3.2933645	vital	-0.30103
-3.2933645	detail	-0.30103
-3.2933645	pill	-0.30103
-3.2933645	racks	-0.30103
-3.2933645	structures	-0.30103
-3.2933645	housing	-0.30103
-3.2933645	apartments	-0.30103
-3.2933645	masonry	-0.30103
-3.2933645	frame	-0.30103
-3.2933645	construction	-0.30103
-3.2933645	aches	-0.30103
-3.2933645	lit	-0.30103
-3.2933645	singers	-0.30103
-3.2933645	finger	-0.30103
-3.2933645	splinter	-0.30103
-3.2933645	now	-0.30103
-3.2933645	living	-0.30103
-3.2933645	exactly	-0.30103
-3.2933645	choose	-0.30103
-3.2933645	duck	-0.30103
-3.2933645	arm	-0.30103
-3.2933645	wanted	-0.30103
-3.2933645	actress	-0.30103
-3.0885231	fell	-0.30103
-3.2933645	academic	-0.30103
-3.2933645	aptitude	-0.30103
-3.2933645	guarantees	-0.30103
-3.2933645	diploma	-0.30103
-3.2933645	charm	-0.30103
-3.2933645	great	-0.30103
-3.2933645	meeting	-0.30103
-3.2933645	has	-0.30103
-3.2933645	prepared	-0.30103
-3.2933645	odd	-0.30103
-3.2933645	behavior	-0.30103
-3.2933645	friends	-0.30103
-3.2933645	mile	-0.30103
-3.2933645	rakes	-0.30103
-3.2933645	talked	-0.30103
-3.2933645	situation	-0.30103
-3.1532278	other	-0.30103
-3.2933645	items	-0.30103
-3.2933645	fear	-0.30103
-3.2933645	alone	-0.30103
-3.1532278	sat	-0.30103
-3.2933645	relaxed	-0.30103
-3.2933645	hall	-0.30103
-3.2933645	sake	-0.30103
-3.2933645	coming	-0.30103
-3.2933645	pockets	-0.30103
-3.2933645	sand	-0.30103
-3.2933645	hell	-0.30103
-3.0885231	them	-0.30103
-3.2933645	box	-0.30103
-3.2933645	plot	-0.30103
-3.2933645	laced	-0.30103
-3.2933645	mysterious	-0.30103
-3.2933645	incidents	-0.30103
-3.2933645	shelled	-0.30103
-3.2933645	clams	-0.30103
-3.2933645	chowder	-0.30103
-3.2933645	experience	-0.30103
-3.2933645	distress	-0.30103
-3.2933645	frustration	-0.30103
-3.2933645	obtaining	-0.30103
-3.2933645	degrees	-0.30103
-3.2933645	ticks	-0.30103
-3.2933645	prowler	-0.30103
-3.2933645	wore	-0.30103
-3.2933645	ski	-0.30103
-3.2933645	mask	-0.30103
-3.2933645	disguise	-0.30103
-3.0885231	confirmation	-0.30103
-3.0885231	such	-0.30103
-3.2933645	massive	-0.30103
-3.2933645	assaults	-0.30103
-3.2933645	independent	-0.30103
-3.2933645	sources	-0.30103
-3.2933645	chap	-0.30103
-3.2933645	lax	-0.30103
-3.0885231	score	-0.30103
-3.2933645	munch	-0.30103
-3.2933645	try	-0.30103
-3.2933645	work	-0.30103
-3.2933645	added	-0.30103
-3.2933645	brought	-0.30103
-3.0885231	petty	-0.30103
-3.2933645	jealousies	-0.30103
-3.2933645	personal	-0.30103
-3.2933645	even	-0.30103
-3.2933645	simple	-0.30103
-3.2933645	vocabulary	-0.30103
-3.2933645	contains	-0.30103
-3.2933645	symbols	-0.30103
-3.2933645	end	-0.30103
-3.2933645	eastern	-0.30103
-3.2933645	coast	-0.30103
-3.2933645	pure	-0.30103
-3.0885231	pleasure	-0.30103
-3.2933645	excitement	-0.30103
-3.2933645	cat	-0.30103
-3.2933645	dial	-0.30103
-3.2933645	low	-0.30103
-3.2933645	cold	-0.30103
-3.2933645	whip	-0.30103
-3.2933645	expect	-0.30103
-3.2933645	few	-0.30103
-3.2933645	calls	-0.30103
-3.2933645	ink	-0.30103
-3.2933645	handle	-0.30103
-3.2933645	theyll	-0.30103
-3.2933645	again	-0.30103
-3.2933645	term	-0.30103
-3.2933645	program	-0.30103
-3.2933645	wide	-0.30103
-3.1532278	got	-0.30103
-3.2933645	drenched	-0.30103
-3.2933645	uninterrupted	-0.30103
-3.2933645	rain	-0.30103
-3.2933645	pant	-0.30103
-3.0885231	win	-0.30103
-3.0885231	may	-0.30103
-3.0885231	hard	-0.30103
-3.0885231	find	-0.30103
-3.2933645	cable	-0.30103
-3.0885231	said	-0.30103
-3.2933645	translated	-0.30103
-3.2933645	weve	-0.30103
-3.2933645	done	-0.30103
-3.2933645	past	-0.30103
-3.2933645	burn	-0.30103
-3.2933645	werent	-0.30103
-3.2933645	doing	-0.30103
-3.2933645	upgrade	-0.30103
-3.2933645	status	-0.30103
-3.2933645	reflect	-0.30103
-3.2933645	wealth	-0.30103
-3.0885231	spring	-0.30103
-3.0885231	street	-0.30103
-3.2933645	straight	-0.30103
-3.2933645	ahead	-0.30103
-3.2933645	store	-0.30103
-3.2933645	serves	-0.30103
-3.2933645	meals	-0.30103
-3.2933645	disappointed	-0.30103
-3.2933645	order	-0.30103
-3.0885231	wine	-0.30103
-3.2933645	eyes	-0.30103
-3.2933645	weave	-0.30103
-3.2933645	family	-0.30103
-3.2933645	requests	-0.30103
-3.2933645	flowers	-0.30103
-3.2933645	omitted	-0.30103
-3.2933645	wart	-0.30103
-3.2933645	wack	-0.30103
-3.2933645	received	-0.30103
-3.0885231	needed	-0.30103
-3.2933645	dash	-0.30103
-3.2933645	heart	-0.30103
-3.2933645	snow	-0.30103
-3.2933645	blew	-0.30103
-3.0885231	into	-0.30103
-3.0885231	large	-0.30103
-3.2933645	drifts	-0.30103
-3.2933645	regular	-0.30103
-3.2933645	attendance	-0.30103
-3.2933645	seldom	-0.30103
-3.2933645	required	-0.30103
-3.2933645	ball	-0.30103
-3.2933645	time	-0.30103
-3.0885231	myself	-0.30103
-3.2933645	last	-0.30103
-3.2933645	shortage	-0.30103
-3.2933645	caused	-0.30103
-3.2933645	steep	-0.30103
-3.2933645	price	-0.30103
-3.2933645	increases	-0.30103
-3.2933645	both	-0.30103
-3.2933645	cars	-0.30103
-3.2933645	slightly	-0.30103
-3.2933645	damaged	-0.30103
-3.2933645	new	-0.30103
-3.2933645	highway	-0.30103
-3.2933645	empty	-0.30103
-3.2933645	staff	-0.30103
-3.2933645	deserves	-0.30103
-3.2933645	lot	-0.30103
-3.2933645	credit	-0.30103
-3.0885231	here	-0.30103
-3.0885231	under	-0.30103
-3.2933645	real	-0.30103
-3.2933645	obstacles	-0.30103
-3.2933645	hid	-0.30103
-3.2933645	why	-0.30103
-3.2933645	luke	-0.30103
-3.2933645	fold	-0.30103
-3.2933645	pink	-0.30103
-3.2933645	waste	-0.30103
-3.2933645	raisins	-0.30103
-3.2933645	outdoors	-0.30103
-3.0885231	porch	-0.30103
-3.2933645	steps	-0.30103
-3.2933645	noted	-0.30103
-3.2933645	carefully	-0.30103
-3.0885231	when	-0.30103
-3.1532278	through	-0.30103
-3.2933645	clean	-0.30103
-3.2933645	report	-0.30103
-3.2933645	sail	-0.30103
-3.2933645	wipe	-0.30103
-3.2933645	continental	-0.30103
-3.2933645	drift	-0.30103
-3.2933645	geological	-0.30103
-3.2933645	theory	-0.30103
-3.2933645	huge	-0.30103
-3.2933645	part	-0.30103
-3.2933645	porcupines	-0.30103
-3.2933645	resemble	-0.30103
-3.2933645	urchins	-0.30103
-3.2933645	challenge	-0.30103
-3.0885231	each	-0.30103
-3.2933645	generals	-0.30103
-3.2933645	intelligence	-0.30103
-3.2933645	wives	-0.30103
-3.2933645	cant	-0.30103
-3.2933645	abide	-0.30103
-3.2933645	mistakes	-0.30103
-3.2933645	own	-0.30103
-3.0885231	game	-0.30103
-3.2933645	docks	-0.30103
-3.2933645	pole	-0.30103
-3.2933645	stable	-0.30103
-3.2933645	hiring	-0.30103
-3.2933645	wife	-0.30103
-3.2933645	ones	-0.30103
-3.2933645	company	-0.30103
-3.2933645	taxaided	-0.30103
-3.2933645	retirement	-0.30103
-3.2933645	income	-0.30103
-3.2933645	must	-0.30103
-3.2933645	ready	-0.30103
-3.2933645	sacrifice	-0.30103
-3.2933645	able	-0.30103
-3.2933645	ban	-0.30103
-3.2933645	trips	-0.30103
-3.2933645	page	-0.30103
-3.2933645	accordion	-0.30103
-3.2933645	paid	-0.30103
-3.2933645	sprain	-0.30103
-3.2933645	wall	-0.30103
-3.2933645	fool	-0.30103
-3.2933645	boat	-0.30103
-3.2933645	ramp	-0.30103
-3.2933645	service	-0.30103
-3.2933645	should	-0.30103
-3.2933645	rewarded	-0.30103
-3.2933645	tips	-0.30103
-3.0885231	paint	-0.30103
-3.2933645	canteen	-0.30103
-3.2933645	fresh	-0.30103
-3.0885231	water	-0.30103
-3.2933645	shook	-0.30103
-3.2933645	beg	-0.30103
-3.2933645	mat	-0.30103
-3.2933645	sap	-0.30103
-3.2933645	pain	-0.30103
-3.2933645	hides	-0.30103
-3.2933645	mayonnaise	-0.30103
-3.2933645	fall	-0.30103
-3.2933645	mall	-0.30103
-3.2933645	feel	-0.30103
-3.2933645	seemed	-0.30103
-3.2933645	appealing	-0.30103
-3.2933645	panel	-0.30103
-3.2933645	doctors	-0.30103
-3.2933645	prescribe	-0.30103
-3.2933645	drugs	-0.30103
-3.2933645	too	-0.30103
-3.2933645	freely	-0.30103
-3.2933645	vamp	-0.30103
-3.2933645	bag	-0.30103
-3.2933645	rat	-0.30103
-3.0885231	saw	-0.30103
-3.2933645	weeks	-0.30103
-3.2933645	illegal	-0.30103
-3.2933645	postdate	-0.30103
-3.2933645	check	-0.30103
-3.2933645	space	-0.30103
-3.2933645	naval	-0.30103
-3.2933645	stall	-0.30103
-3.2933645	spade	-0.30103
-3.2933645	acting	-0.30103
-3.2933645	accident	-0.30103
-3.2933645	damp	-0.30103
-3.2933645	spray	-0.30103
-3.2933645	peach	-0.30103
-3.2933645	mabel	-0.30103
-3.2933645	told	-0.30103
-3.0885231	not	-0.30103
-3.2933645	seriously	-0.30103
-3.2933645	injured	-0.30103
-3.2933645	because	-0.30103
-3.0885231	practical	-0.30103
-3.2933645	funnel	-0.30103
-3.2933645	tap	-0.30103
-3.2933645	name	-0.30103
-3.2933645	gently	-0.30103
-3.2933645	jims	-0.30103
-3.2933645	foam	-0.30103
-3.2933645	sculpture	-0.30103
-3.2933645	maybe	-0.30103
-3.2933645	taking	-0.30103
-3.2933645	longer	-0.30103
-3.2933645	get	-0.30103
-3.2933645	squared	-0.30103
-3.2933645	away	-0.30103
-3.2933645	bankers	-0.30103
-3.2933645	expected	-0.30103
-3.2933645	reach	-0.30103
-3.2933645	file	-0.30103
-3.2933645	soon	-0.30103
-3.2933645	muttering	-0.30103
-3.2933645	walls	-0.30103
-3.2933645	telephone	-0.30103
-3.2933645	booths	-0.30103
-3.2933645	arent	-0.30103
-3.2933645	easy	-0.30103
-3.2933645	paste	-0.30103
-3.2933645	foil	-0.30103
-3.2933645	map	-0.30103
-3.2933645	gable	-0.30103
-3.2933645	bull	-0.30103
-3.2933645	crawl	-0.30103
-3.2933645	pale	-0.30103
-3.2933645	creature	-0.30103
-3.2933645	pocket	-0.30103
-3.2933645	married	-0.30103
-3.2933645	saddle	-0.30103
-3.2933645	bowl	-0.30103
-3.2933645	nap	-0.30103
-3.2933645	table	-0.30103
-3.2933645	sable	-0.30103
-3.2933645	fable	-0.30103
-3.2933645	mold	-0.30103
-3.2933645	mole	-0.30103
-3.2933645	impossible	-0.30103
-3.0885231	deal	-0.30103
-3.2933645	bureaucracy	-0.30103
-3.2933645	pace	-0.30103
-3.2933645	call	-0.30103
-3.2933645	describe	-0.30103
-3.2933645	idiotic	-0.30103
-3.2933645	predicament	-0.30103
-3.2933645	screech	-0.30103
-3.2933645	ladle	-0.30103
-3.2933645	bash	-0.30103
-3.2933645	room	-0.30103
-3.1532278	or	-0.30103
-3.2933645	portrait	-0.30103
-3.2933645	bagpipes	-0.30103
-3.2933645	bongos	-0.30103
-3.2933645	musical	-0.30103
-3.2933645	instruments	-0.30103
-3.2933645	thought	-0.30103
-3.2933645	first	-0.30103
-3.0885231	gin	-0.30103
-3.2933645	saws	-0.30103
-3.2933645	parts	-0.30103
-3.2933645	supplies	-0.30103
-3.2933645	used	-0.30103
-3.2933645	machinery	-0.30103
-3.2933645	final	-0.30103
-3.2933645	giggling	-0.30103
-3.2933645	owl	-0.30103
-3.2933645	cliffs	-0.30103
-3.2933645	display	-0.30103
-3.2933645	misplaced	-0.30103
-3.2933645	screen	-0.30103
-3.2933645	teach	-0.30103
-3.2933645	official	-0.30103
-3.2933645	deadline	-0.30103
-3.2933645	cannot	-0.30103
-3.2933645	postponed	-0.30103
-3.2933645	bog	-0.30103
-3.2933645	rattle	-0.30103
-3.0885231	sold	-0.30103
-3.2933645	bought	-0.30103
-3.2933645	bank	-0.30103
-3.2933645	shawl	-0.30103
-3.2933645	soul	-0.30103
-3.2933645	preach	-0.30103
-3.2933645	pull	-0.30103
-3.2933645	boone	-0.30103
-3.2933645	suppress	-0.30103
-3.2933645	wages	-0.30103
-3.2933645	key	-0.30103
-3.2933645	issue	-0.30103
-3.2933645	unfortunately	-0.30103
-3.2933645	demand	-0.30103
-3.2933645	broccoli	-0.30103
-3.2933645	cauliflower	-0.30103
-3.2933645	deer	-0.30103
-3.2933645	badger	-0.30103
-3.2933645	contrast	-0.30103
-3.2933645	household	-0.30103
-3.2933645	lots	-0.30103
-3.2933645	appliances	-0.30103
-3.2933645	grain	-0.30103
-3.2933645	several	-0.30103
-3.2933645	paintings	-0.30103
-3.2933645	auction	-0.30103
-3.2933645	impress	-0.30103
-3.2933645	occur	-0.30103
-3.2933645	shore	-0.30103
-3.2933645	book	-0.30103
-3.2933645	bin	-0.30103
-3.2933645	weeds	-0.30103
-3.2933645	grow	-0.30103
-3.2933645	strong	-0.30103
-3.2933645	fast	-0.30103
-3.2933645	fudge	-0.30103
-3.2933645	rust	-0.30103
-3.2933645	misprint	-0.30103
-3.2933645	provoked	-0.30103
-3.2933645	immediate	-0.30103
-3.2933645	disclaimer	-0.30103
-3.2933645	contract	-0.30103
-3.2933645	limb	-0.30103
-3.2933645	musk	-0.30103
-3.2933645	rut	-0.30103
-3.2933645	serve	-0.30103
-3.2933645	grape	-0.30103
-3.2933645	intact	-0.30103
-3.2933645	picnic	-0.30103
-3.2933645	beach	-0.30103
-3.2933645	subtract	-0.30103
-3.2933645	plant	-0.30103
-3.2933645	original	-0.30103
-3.2933645	forgery	-0.30103
-3.2933645	either	-0.30103
-3.2933645	walked	-0.30103
-3.0885231	driven	-0.30103
-3.2933645	primitive	-0.30103
-3.2933645	tribes	-0.30103
-3.2933645	upbeat	-0.30103
-3.2933645	attitude	-0.30103
-3.2933645	shut	-0.30103
-3.2933645	retract	-0.30103
-3.2933645	displayed	-0.30103
-3.2933645	lamps	-0.30103
-3.2933645	puppets	-0.30103
-3.2933645	delight	-0.30103
-3.2933645	children	-0.30103
-3.2933645	decorative	-0.30103
-3.2933645	accent	-0.30103
-3.2933645	globe	-0.30103
-3.2933645	grave	-0.30103
-3.2933645	bust	-0.30103
-3.2933645	depress	-0.30103
-3.2933645	dusk	-0.30103
-3.2933645	slim	-0.30103
-3.2933645	flying	-0.30103
-3.2933645	standby	-0.30103
-3.2933645	save	-0.30103
-3.2933645	instructions	-0.30103
-3.2933645	desperately	-0.30103
-3.2933645	need	-0.30103
-3.2933645	updating	-0.30103
-3.2933645	preserve	-0.30103
-3.2933645	converge	-0.30103
-3.2933645	booth	-0.30103
-3.2933645	railroads	-0.30103
-3.2933645	future	-0.30103
-3.2933645	west	-0.30103
-3.2933645	beauty	-0.30103
-3.2933645	surrounds	-0.30103
-3.2933645	id	-0.30103
-3.2933645	put	-0.30103
-3.2933645	weight	-0.30103
-3.2933645	lisp	-0.30103
-3.2933645	hispanic	-0.30103
-3.2933645	costumes	-0.30103
-3.2933645	colorful	-0.30103
-3.2933645	tore	-0.30103
-3.2933645	strange	-0.30103
-3.2933645	refer	-0.30103
-3.2933645	deserve	-0.30103
-3.2933645	glib	-0.30103
-3.2933645	grope	-0.30103
-3.2933645	but	-0.30103
-3.2933645	absurd	-0.30103
-3.2933645	kat	-0.30103
-3.2933645	kittens	-0.30103
-3.2933645	cement	-0.30103
-3.2933645	measured	-0.30103
-3.2933645	cubic	-0.30103
-3.2933645	yards	-0.30103
-3.2933645	grange	-0.30103
-3.2933645	lid	-0.30103
-3.2933645	could	-0.30103
-3.2933645	bus	-0.30103
-3.2933645	brain	-0.30103
-3.2933645	boast	-0.30103
-3.2933645	observe	-0.30103
-3.2933645	reserve	-0.30103
-3.2933645	slid	-0.30103
-3.2933645	list	-0.30103
-3.2933645	conserve	-0.30103
-3.2933645	repress	-0.30103
-3.2933645	scorch	-0.30103
-3.2933645	strike	-0.30103
-3.2933645	spread	-0.30103
-3.2933645	super	-0.30103
-3.2933645	cases	-0.30103
-3.2933645	advisement	-0.30103
-3.2933645	split	-0.30103
-3.2933645	hotel	-0.30103
-3.2933645	owner	-0.30103
-3.2933645	struggled	-0.30103
-3.2933645	crucified	-0.30103
-3.2933645	nailed	-0.30103
-3.2933645	yard	-0.30103
-3.2933645	loss	-0.30103
-3.2933645	ok	-0.30103
-3.2933645	actually	-0.30103
-3.2933645	owe	-0.30103
-3.2933645	lead	-0.30103
-3.2933645	jaw	-0.30103
-3.2933645	cope	-0.30103
-3.2933645	drop	-0.30103
-3.2933645	shout	-0.30103
-3.2933645	play	-0.30103
-3.2933645	weekend	-0.30103
-3.2933645	nothing	-0.30103
-3.0885231	offensive	-0.30103
-3.2933645	ignorance	-0.30103
-3.2933645	relax	-0.30103
-3.2933645	oh	-0.30103
-3.2933645	liar	-0.30103
-3.2933645	usually	-0.30103
-3.0885231	min	-0.30103
-3.2933645	tear	-0.30103
-3.2933645	paper	-0.30103
-3.2933645	innocence	-0.30103
-3.2933645	skip	-0.30103
-3.2933645	ah	-0.30103
-3.2933645	chose	-0.30103
-3.2933645	innocense	-0.30103

\2-grams:
-0.19819792	pat </s>	0
-0.52252054	up </s>	0
-0.19819792	meat </s>	0
-0.52252054	know </s>	0
-0.19819792	air </s>	0
-0.19819792	swarm </s>	0
-0.6315627	no </s>	0
-0.19819792	storm </s>	0
-0.19819792	dug </s>	0
-0.19819792	feet </s>	0
-0.19819792	beat </s>	0
-0.19819792	rake </s>	0
-0.19819792	sip </s>	0
-0.19819792	bit </s>	0
-0.19819792	chair </s>	0
-0.52252054	one </s>	0
-0.5874036	two </s>	0
-0.41614303	spark </s>	0
-0.41614303	dark </s>	0
-0.19819792	bat </s>	0
-0.19819792	sheet </s>	0
-0.41614303	warm </s>	0
-0.19819792	ship </s>	0
-0.19819792	goat </s>	0
-0.19819792	left </s>	0
-0.19819792	sticks </s>	0
-0.19819792	slip </s>	0
-0.19819792	floor </s>	0
-0.41614303	right </s>	0
-0.41614303	knew </s>	0
-0.41614303	well </s>	0
-0.77750665	he </s>	0
-0.8030217	is </s>	0
-0.52252054	three </s>	0
-0.52252054	years </s>	0
-0.41614303	old </s>	0
-0.19819792	feed </s>	0
-0.19819792	park </s>	0
-0.52252054	down </s>	0
-0.19819792	yes </s>	0
-0.19819792	coat </s>	0
-0.19819792	ate </s>	0
-0.19819792	white </s>	0
-0.41614303	bad </s>	0
-0.19819792	cheer </s>	0
-0.41614303	write </s>	0
-0.19819792	tile </s>	0
-0.19819792	sweet </s>	0
-0.19819792	suit </s>	0
-0.52252054	much </s>	0
-0.19819792	rock </s>	0
-0.19819792	knot </s>	0
-0.19819792	shoot </s>	0
-0.19819792	lie </s>	0
-0.19819792	boot </s>	0
-0.19819792	witch </s>	0
-0.19819792	lip </s>	0
-0.19819792	sigh </s>	0
-0.19819792	side </s>	0
-0.52252054	four </s>	0
-0.52252054	him </s>	0
-0.41614303	sell </s>	0
-0.41614303	five </s>	0
-0.19819792	pit </s>	0
-0.19819792	zero </s>	0
-0.19819792	fat </s>	0
-0.19819792	spit </s>	0
-0.19819792	six </s>	0
-0.19819792	hat </s>	0
-0.19819792	home </s>	0
-0.19819792	bran </s>	0
-0.19819792	nine </s>	0
-0.6315627	at </s>	0
-0.19819792	seven </s>	0
-0.19819792	leak </s>	0
-0.19819792	eight </s>	0
-0.41614303	fill </s>	0
-0.19819792	bite </s>	0
-0.19819792	harm </s>	0
-0.19819792	chop </s>	0
-0.19819792	shell </s>	0
-0.19819792	sin </s>	0
-0.19819792	tin </s>	0
-0.7713554	are </s>	0
-0.19819792	winners </s>	0
-0.19819792	lock </s>	0
-0.19819792	nut </s>	0
-0.19819792	quickly </s>	0
-0.19819792	zulu </s>	0
-0.72322476	have </s>	0
-0.73617256	to </s>	0
-0.41614303	go </s>	0
-0.19819792	flicker </s>	0
-0.19819792	bread </s>	0
-0.6882261	you </s>	0
-0.19819792	sicker </s>	0
-0.19819792	dice </s>	0
-0.7961606	of </s>	0
-0.19819792	potatoes </s>	0
-0.19819792	fork </s>	0
-0.47679883	me </s>	0
-0.52252054	out </s>	0
-0.3307629	day </s>	0
-0.19819792	rest </s>	0
-0.41614303	rise </s>	0
-0.19819792	morning </s>	0
-0.6315627	about </s>	0
-0.19819792	nod </s>	0
-0.6315627	good </s>	0
-0.19819792	small </s>	0
-0.41614303	nice </s>	0
-0.19819792	liquor </s>	0
-0.19819792	neat </s>	0
-0.41614303	walk </s>	0
-0.19819792	painters </s>	0
-0.19819792	attention </s>	0
-0.19819792	success </s>	0
-0.19819792	lake </s>	0
-0.19819792	thread </s>	0
-0.19819792	fed </s>	0
-0.52252054	dont </s>	0
-0.19819792	dishes </s>	0
-0.19819792	sew </s>	0
-0.19819792	sort </s>	0
-0.19819792	catch </s>	0
-0.19819792	goose </s>	0
-0.52252054	played </s>	0
-0.19819792	degree </s>	0
-0.19819792	dessert </s>	0
-0.41614303	ride </s>	0
-0.19819792	welcome </s>	0
-0.19819792	cakes </s>	0
-0.19819792	bill </s>	0
-0.19819792	popularity </s>	0
-0.41614303	short </s>	0
-0.19819792	shin </s>	0
-0.19819792	kind </s>	0
-0.19819792	cork </s>	0
-0.19819792	weep </s>	0
-0.19819792	history </s>	0
-0.19819792	rid </s>	0
-0.19819792	quart </s>	0
-0.19819792	shot </s>	0
-0.19819792	knee </s>	0
-0.19819792	sheep </s>	0
-0.19819792	snort </s>	0
-0.19819792	pork </s>	0
-0.41614303	job </s>	0
-0.19819792	sketch </s>	0
-0.19819792	yourself </s>	0
-0.19819792	blend </s>	0
-0.19819792	shed </s>	0
-0.19819792	identical </s>	0
-0.19819792	maintenance </s>	0
-0.19819792	court </s>	0
-0.19819792	see </s>	0
-0.19819792	shop </s>	0
-0.41614303	heat </s>	0
-0.19819792	gone </s>	0
-0.19819792	gill </s>	0
-0.19819792	show </s>	0
-0.19819792	read </s>	0
-0.19819792	disappointing </s>	0
-0.19819792	tug </s>	0
-0.19819792	cash </s>	0
-0.19819792	stretch </s>	0
-0.19819792	steak </s>	0
-0.19819792	ray </s>	0
-0.19819792	fort </s>	0
-0.19819792	lee </s>	0
-0.19819792	hold </s>	0
-0.6882261	it </s>	0
-0.72322476	with </s>	0
-0.19819792	since </s>	0
-0.52252054	life </s>	0
-0.66371197	all </s>	0
-0.78296137	was </s>	0
-0.19819792	made </s>	0
-0.19819792	shred </s>	0
-0.19819792	sight </s>	0
-0.19819792	pond </s>	0
-0.6882261	she </s>	0
-0.19819792	around </s>	0
-0.19819792	tort </s>	0
-0.19819792	meats </s>	0
-0.19819792	precious </s>	0
-0.52252054	eat </s>	0
-0.19819792	sport </s>	0
-0.19819792	activities </s>	0
-0.8044747	can </s>	0
-0.19819792	fined </s>	0
-0.19819792	regulations </s>	0
-0.19819792	resulted </s>	0
-0.19819792	valentines </s>	0
-0.41614303	gas </s>	0
-0.19819792	geese </s>	0
-0.19819792	mill </s>	0
-0.19819792	present </s>	0
-0.19819792	reap </s>	0
-0.19819792	dill </s>	0
-0.19819792	lend </s>	0
-0.19819792	foe </s>	0
-0.19819792	loan </s>	0
-0.19819792	money </s>	0
-0.19819792	toe </s>	0
-0.19819792	threat </s>	0
-0.19819792	port </s>	0
-0.19819792	voice </s>	0
-0.19819792	rip </s>	0
-0.19819792	wise </s>	0
-0.41614303	full </s>	0
-0.19819792	stuff </s>	0
-0.19819792	bend </s>	0
-0.19819792	muck </s>	0
-0.19819792	night </s>	0
-0.19819792	snake </s>	0
-0.7075647	that </s>	0
-0.19819792	bumper </s>	0
-0.19819792	ash </s>	0
-0.41614303	fit </s>	0
-0.19819792	sheer </s>	0
-0.19819792	chablis </s>	0
-0.19819792	hash </s>	0
-0.41614303	come </s>	0
-0.19819792	favor </s>	0
-0.19819792	hail </s>	0
-0.19819792	code </s>	0
-0.19819792	excluded </s>	0
-0.19819792	beam </s>	0
-0.41614303	yet </s>	0
-0.19819792	competitors </s>	0
-0.19819792	knife </s>	0
-0.19819792	pete </s>	0
-0.19819792	skills </s>	0
-0.19819792	anywhere </s>	0
-0.19819792	gash </s>	0
-0.41614303	went </s>	0
-0.19819792	idea </s>	0
-0.19819792	fender </s>	0
-0.19819792	woe </s>	0
-0.19819792	member </s>	0
-0.19819792	beast </s>	0
-0.19819792	together </s>	0
-0.41614303	phone </s>	0
-0.19819792	above </s>	0
-0.3307629	more </s>	0
-0.19819792	guess </s>	0
-0.19819792	later </s>	0
-0.19819792	casually </s>	0
-0.19819792	seam </s>	0
-0.19819792	beep </s>	0
-0.19819792	vocal </s>	0
-0.5874036	big </s>	0
-0.19819792	investment </s>	0
-0.19819792	redhanded </s>	0
-0.19819792	house </s>	0
-0.19819792	mock </s>	0
-0.19819792	dock </s>	0
-0.41614303	sea </s>	0
-0.19819792	petticoats </s>	0
-0.19819792	ember </s>	0
-0.19819792	seat </s>	0
-0.19819792	am </s>	0
-0.19819792	food </s>	0
-0.19819792	reef </s>	0
-0.19819792	blaze </s>	0
-0.19819792	sender </s>	0
-0.19819792	acclaim </s>	0
-0.19819792	director </s>	0
-0.66371197	from </s>	0
-0.19819792	start </s>	0
-0.19819792	wonderful </s>	0
-0.19819792	renter </s>	0
-0.19819792	row </s>	0
-0.19819792	lender </s>	0
-0.19819792	ape </s>	0
-0.19819792	forks </s>	0
-0.19819792	tender </s>	0
-0.19819792	tea </s>	0
-0.19819792	fans </s>	0
-0.19819792	timber </s>	0
-0.19819792	leap </s>	0
-0.19819792	poor </s>	0
-0.19819792	tail </s>	0
-0.19819792	bender </s>	0
-0.19819792	ache </s>	0
-0.19819792	center </s>	0
-0.19819792	appetizers </s>	0
-0.19819792	beef </s>	0
-0.19819792	temper </s>	0
-0.6315627	had </s>	0
-0.19819792	ways </s>	0
-0.19819792	wax </s>	0
-0.19819792	pet </s>	0
-0.19819792	aid </s>	0
-0.19819792	knock </s>	0
-0.19819792	lies </s>	0
-0.19819792	cheese </s>	0
-0.19819792	hatch </s>	0
-0.19819792	grievances </s>	0
-0.19819792	bunch </s>	0
-0.19819792	appreciated </s>	0
-0.19819792	ease </s>	0
-0.19819792	leaks </s>	0
-0.19819792	add </s>	0
-0.19819792	gift </s>	0
-0.41614303	judge </s>	0
-0.41614303	state </s>	0
-0.19819792	education </s>	0
-0.19819792	states </s>	0
-0.19819792	peas </s>	0
-0.19819792	bun </s>	0
-0.19819792	punch </s>	0
-0.19819792	ail </s>	0
-0.19819792	tall </s>	0
-0.19819792	detail </s>	0
-0.19819792	pill </s>	0
-0.19819792	racks </s>	0
-0.19819792	construction </s>	0
-0.19819792	aches </s>	0
-0.19819792	lit </s>	0
-0.19819792	splinter </s>	0
-0.41614303	now </s>	0
-0.19819792	choose </s>	0
-0.19819792	duck </s>	0
-0.19819792	arm </s>	0
-0.19819792	actress </s>	0
-0.41614303	fell </s>	0
-0.19819792	diploma </s>	0
-0.19819792	charm </s>	0
-0.19819792	meeting </s>	0
-0.19819792	friends </s>	0
-0.19819792	mile </s>	0
-0.19819792	rakes </s>	0
-0.19819792	situation </s>	0
-0.19819792	items </s>	0
-0.19819792	alone </s>	0
-0.52252054	sat </s>	0
-0.19819792	relaxed </s>	0
-0.19819792	hall </s>	0
-0.19819792	sake </s>	0
-0.19819792	sand </s>	0
-0.19819792	box </s>	0
-0.19819792	incidents </s>	0
-0.19819792	chowder </s>	0
-0.19819792	degrees </s>	0
-0.19819792	ticks </s>	0
-0.19819792	disguise </s>	0
-0.19819792	sources </s>	0
-0.19819792	chap </s>	0
-0.19819792	lax </s>	0
-0.19819792	score </s>	0
-0.19819792	munch </s>	0
-0.19819792	symbols </s>	0
-0.19819792	end </s>	0
-0.41614303	pleasure </s>	0
-0.19819792	excitement </s>	0
-0.19819792	cat </s>	0
-0.19819792	dial </s>	0
-0.19819792	low </s>	0
-0.19819792	cold </s>	0
-0.19819792	whip </s>	0
-0.41614303	expect </s>	0
-0.19819792	calls </s>	0
-0.19819792	ink </s>	0
-0.19819792	again </s>	0
-0.19819792	term </s>	0
-0.19819792	program </s>	0
-0.19819792	wide </s>	0
-0.19819792	rain </s>	0
-0.19819792	pant </s>	0
-0.41614303	win </s>	0
-0.19819792	find </s>	0
-0.41614303	cable </s>	0
-0.19819792	translated </s>	0
-0.19819792	past </s>	0
-0.19819792	burn </s>	0
-0.19819792	wealth </s>	0
-0.41614303	street </s>	0
-0.19819792	ahead </s>	0
-0.19819792	wine </s>	0
-0.19819792	eyes </s>	0
-0.19819792	weave </s>	0
-0.19819792	omitted </s>	0
-0.19819792	wart </s>	0
-0.19819792	wack </s>	0
-0.41614303	needed </s>	0
-0.19819792	dash </s>	0
-0.19819792	drifts </s>	0
-0.19819792	required </s>	0
-0.19819792	ball </s>	0
-0.41614303	myself </s>	0
-0.41614303	steep </s>	0
-0.19819792	increases </s>	0
-0.41614303	both </s>	0
-0.19819792	damaged </s>	0
-0.19819792	empty </s>	0
-0.41614303	here </s>	0
-0.19819792	obstacles </s>	0
-0.19819792	hid </s>	0
-0.19819792	why </s>	0
-0.19819792	luke </s>	0
-0.19819792	fold </s>	0
-0.19819792	pink </s>	0
-0.19819792	waste </s>	0
-0.41614303	porch </s>	0
-0.19819792	steps </s>	0
-0.19819792	carefully </s>	0
-0.52252054	when </s>	0
-0.52252054	through </s>	0
-0.19819792	report </s>	0
-0.19819792	sail </s>	0
-0.19819792	wipe </s>	0
-0.19819792	theory </s>	0
-0.19819792	urchins </s>	0
-0.41614303	each </s>	0
-0.19819792	intelligence </s>	0
-0.19819792	wives </s>	0
-0.19819792	game </s>	0
-0.19819792	docks </s>	0
-0.19819792	pole </s>	0
-0.19819792	stable </s>	0
-0.19819792	income </s>	0
-0.19819792	sacrifice </s>	0
-0.19819792	able </s>	0
-0.19819792	ban </s>	0
-0.19819792	page </s>	0
-0.19819792	accordion </s>	0
-0.19819792	paid </s>	0
-0.19819792	sprain </s>	0
-0.19819792	wall </s>	0
-0.19819792	fool </s>	0
-0.19819792	boat </s>	0
-0.19819792	ramp </s>	0
-0.19819792	tips </s>	0
-0.41614303	paint </s>	0
-0.19819792	water </s>	0
-0.19819792	beg </s>	0
-0.19819792	mat </s>	0
-0.19819792	sap </s>	0
-0.19819792	pain </s>	0
-0.19819792	mayonnaise </s>	0
-0.19819792	fall </s>	0
-0.19819792	mall </s>	0
-0.19819792	feel </s>	0
-0.19819792	panel </s>	0
-0.19819792	freely </s>	0
-0.19819792	vamp </s>	0
-0.19819792	bag </s>	0
-0.19819792	rat </s>	0
-0.19819792	check </s>	0
-0.19819792	space </s>	0
-0.19819792	naval </s>	0
-0.19819792	stall </s>	0
-0.19819792	spade </s>	0
-0.19819792	accident </s>	0
-0.19819792	damp </s>	0
-0.19819792	spray </s>	0
-0.19819792	peach </s>	0
-0.19819792	mabel </s>	0
-0.19819792	told </s>	0
-0.19819792	injured </s>	0
-0.41614303	practical </s>	0
-0.19819792	funnel </s>	0
-0.19819792	tap </s>	0
-0.19819792	expected </s>	0
-0.19819792	reach </s>	0
-0.19819792	file </s>	0
-0.19819792	walls </s>	0
-0.19819792	paste </s>	0
-0.19819792	foil </s>	0
-0.19819792	map </s>	0
-0.19819792	gable </s>	0
-0.19819792	bull </s>	0
-0.19819792	crawl </s>	0
-0.19819792	pale </s>	0
-0.19819792	creature </s>	0
-0.19819792	pocket </s>	0
-0.19819792	saddle </s>	0
-0.19819792	bowl </s>	0
-0.19819792	nap </s>	0
-0.19819792	table </s>	0
-0.19819792	sable </s>	0
-0.19819792	fable </s>	0
-0.19819792	mold </s>	0
-0.19819792	mole </s>	0
-0.19819792	bureaucracy </s>	0
-0.19819792	pace </s>	0
-0.19819792	call </s>	0
-0.19819792	predicament </s>	0
-0.19819792	screech </s>	0
-0.19819792	ladle </s>	0
-0.19819792	bash </s>	0
-0.19819792	portrait </s>	0
-0.19819792	instruments </s>	0
-0.19819792	first </s>	0
-0.19819792	machinery </s>	0
-0.19819792	final </s>	0
-0.19819792	giggling </s>	0
-0.19819792	owl </s>	0
-0.19819792	screen </s>	0
-0.19819792	teach </s>	0
-0.19819792	postponed </s>	0
-0.19819792	bog </s>	0
-0.19819792	rattle </s>	0
-0.41614303	sold </s>	0
-0.19819792	bought </s>	0
-0.19819792	bank </s>	0
-0.19819792	shawl </s>	0
-0.19819792	soul </s>	0
-0.19819792	preach </s>	0
-0.19819792	pull </s>	0
-0.19819792	boone </s>	0
-0.19819792	suppress </s>	0
-0.19819792	issue </s>	0
-0.19819792	cauliflower </s>	0
-0.19819792	badger </s>	0
-0.19819792	contrast </s>	0
-0.19819792	appliances </s>	0
-0.19819792	grain </s>	0
-0.19819792	auction </s>	0
-0.19819792	impress </s>	0
-0.19819792	occur </s>	0
-0.19819792	shore </s>	0
-0.19819792	book </s>	0
-0.19819792	bin </s>	0
-0.19819792	fast </s>	0
-0.19819792	fudge </s>	0
-0.19819792	rust </s>	0
-0.19819792	disclaimer </s>	0
-0.19819792	contract </s>	0
-0.19819792	limb </s>	0
-0.19819792	musk </s>	0
-0.19819792	rut </s>	0
-0.19819792	serve </s>	0
-0.19819792	grape </s>	0
-0.19819792	intact </s>	0
-0.19819792	beach </s>	0
-0.19819792	subtract </s>	0
-0.19819792	forgery </s>	0
-0.19819792	driven </s>	0
-0.19819792	attitude </s>	0
-0.19819792	shut </s>	0
-0.19819792	retract </s>	0
-0.19819792	accent </s>	0
-0.19819792	globe </s>	0
-0.19819792	grave </s>	0
-0.19819792	bust </s>	0
-0.19819792	depress </s>	0
-0.19819792	dusk </s>	0
-0.19819792	slim </s>	0
-0.19819792	updating </s>	0
-0.19819792	preserve </s>	0
-0.19819792	converge </s>	0
-0.19819792	booth </s>	0
-0.19819792	west </s>	0
-0.19819792	weight </s>	0
-0.19819792	lisp </s>	0
-0.19819792	colorful </s>	0
-0.19819792	tore </s>	0
-0.19819792	strange </s>	0
-0.19819792	refer </s>	0
-0.19819792	deserve </s>	0
-0.19819792	glib </s>	0
-0.19819792	grope </s>	0
-0.19819792	but </s>	0
-0.19819792	absurd </s>	0
-0.19819792	kittens </s>	0
-0.19819792	yards </s>	0
-0.19819792	grange </s>	0
-0.19819792	lid </s>	0
-0.19819792	brain </s>	0
-0.19819792	boast </s>	0
-0.19819792	observe </s>	0
-0.19819792	reserve </s>	0
-0.19819792	slid </s>	0
-0.19819792	list </s>	0
-0.19819792	conserve </s>	0
-0.19819792	repress </s>	0
-0.19819792	scorch </s>	0
-0.19819792	super </s>	0
-0.19819792	advisement </s>	0
-0.19819792	split </s>	0
-0.19819792	struggled </s>	0
-0.19819792	loss </s>	0
-0.19819792	ok </s>	0
-0.19819792	actually </s>	0
-0.19819792	owe </s>	0
-0.19819792	jaw </s>	0
-0.19819792	cope </s>	0
-0.19819792	drop </s>	0
-0.19819792	shout </s>	0
-0.19819792	weekend </s>	0
-0.19819792	ignorance </s>	0
-0.19819792	relax </s>	0
-0.19819792	oh </s>	0
-0.19819792	liar </s>	0
-0.41614303	min </s>	0
-0.19819792	paper </s>	0
-0.19819792	innocence </s>	0
-0.19819792	chose </s>	0
-0.19819792	innocense </s>	0
-2.0709689	<s> pat	-1.6690068
-2.318662	<s> up	-1.4149734
-0.6002941	warm up	-0.86530143
-0.6002941	go up	-0.66900676
-0.3001462	speak up	-0.86530143
-0.3001462	shook up	-0.30103
-0.3001462	tear up	-0.30103
-2.0709689	<s> meat	-1.6690068
-2.2187865	<s> know	-1.5228788
-1.5508437	we know	-0.90309
-0.6014501	didnt know	-0.72699875
-1.9458039	<s> air	-1.7923918
-2.1941106	<s> swarm	-1.5481846
-1.9614042	<s> no	-1.7732987
-1.2490926	have no	-0.72699875
-1.4942236	was no	-0.7781512
-0.30033898	requires no	-0.7781512
-0.99655586	had no	-0.72699875
-2.1858153	<s> storm	-1.5563025
-2.26688	<s> dug	-1.4771212
-2.0232332	<s> feet	-1.7160033
-2.0120764	<s> beat	-1.7269987
-2.1618402	<s> rake	-1.5797836
-1.9651399	<s> sip	-1.7732987
-2.228973	<s> bit	-1.5141048
-2.1246068	<s> chair	-1.6163005
-2.2462292	<s> one	-1.4960066
-0.77723664	out one	-0.90309
-0.90187097	only one	-0.86530143
-2.2187865	<s> two	-1.30103
-0.90187097	only two	-0.42596874
-0.30072492	called two	-0.86530143
-2.2007365	<s> spark	-1.3180634
-0.6013522	spark spark	-0.30103
-2.2647576	<s> dark	-1.4771212
-0.99823254	her dark	-0.8239087
-2.2111921	<s> bat	-1.5314789
-2.1391194	<s> sheet	-1.60206
-2.218086	<s> warm	-1.5228788
-1.7676529	to warm	-0.86530143
-2.1776757	<s> ship	-1.5642715
-2.36663	<s> goat	-1.3802112
-2.2768972	<s> left	-1.4673615
-2.2871509	<s> sticks	-1.4573772
-2.0696158	<s> slip	-1.6690068
-0.30067593	ah slip	-0.30103
-2.238144	<s> floor	-1.50515
-2.3170555	<s> right	-1.4259686
-0.30067593	married right	-0.42596874
-2.0696158	<s> knew	-1.6690068
-1.549973	we knew	-0.66900676
-3.5238307	<s> well	-0.30103
-0.77550507	do well	-0.90309
-0.77550507	day well	-0.86530143
-0.77550507	very well	-0.8239087
-0.6002941	went well	-0.86530143
-0.3001462	doing well	-0.66900676
-2.0116878	<s> he	-0.7836837
-1.0739049	well he	-0.30103
-0.6002941	himself he	-0.30103
-0.9955986	this he	-0.90309
-0.6002941	yet he	-0.86530143
-0.6002941	so he	-0.42596874
-2.6002471	<s> is	-1.0543576
-1.434169	he is	-0.30103
-0.29803053	travel is	-0.90309
-0.9852056	this is	-0.90309
-0.6915098	there is	-0.6532125
-0.47262976	life is	-0.86530143
-1.1255541	she is	-0.30103
-0.29803053	hair is	-0.8239087
-0.29803053	plot is	-0.86530143
-0.29803053	coast is	-0.7781512
-0.5960816	street is	-0.5228787
-0.29803053	attendance is	-0.66900676
-0.29803053	highway is	-0.66900676
-0.29803053	drift is	-0.66900676
-0.29803053	future is	-0.30103
-0.29803053	cement is	-0.30103
-0.29803053	nothing is	-0.30103
-1.6186326	is nearly	-0.30103
-0.30080906	nearly ninety	-0.30103
-2.3179355	<s> three	-1.4259686
-0.30072492	ninety three	-0.30103
-0.6014501	saw three	-0.30103
-0.77723664	three years	-0.30103
-1.3765645	for years	-0.8239087
-0.30072492	last years	-0.72699875
-2.7050042	<s> old	-0.75332767
-0.77723664	years old	-0.30103
-1.5740235	and old	-0.42596874
-2.1105635	<s> feed	-1.6300887
-2.247513	<s> park	-1.4960066
-2.3408031	<s> down	-1.4036924
-0.6014501	working down	-0.5228787
-0.77723664	sat down	-0.7781512
-1.9553642	<s> yes	-1.7829502
-1.4738187	he dressed	-0.30103
-0.30067593	dressed himself	-0.30103
-0.30067593	crucified himself	-0.30103
-2.7811627	<s> in	-0.86530143
-1.574996	is in	-0.30103
-0.5972265	himself in	-0.30103
-0.29860651	lives in	-0.42596874
-0.29860651	damage in	-0.86530143
-1.414401	it in	-0.66900676
-0.29860651	participate in	-0.86530143
-0.29860651	ruled in	-0.7781512
-0.29860651	upbringing in	-0.8239087
-0.29860651	fire in	-0.8239087
-0.29860651	mistakes in	-0.66900676
-0.29860651	sculpture in	-0.30103
-0.5972265	deal in	-0.42596874
-0.29860651	measured in	-0.30103
-3.4713717	<s> an	-0.30103
-1.432323	in an	-0.30103
-1.2456777	have an	-0.30103
-1.195581	be an	-0.75332767
-0.7749294	like an	-0.42596874
-0.5999094	tell an	-0.30103
-0.2999534	provoked an	-0.30103
-1.2023555	an ancient	-0.30103
-0.30067593	ancient black	-0.30103
-1.5731052	of black	-0.8239087
-0.60161823	black frock	-0.30103
-2.628533	<s> coat	-1.1249387
-0.30067593	frock coat	-0.30103
-2.1391194	<s> ate	-1.60206
-2.5896726	<s> white	-1.1663314
-2.2747254	<s> bad	-1.4673615
-0.7770899	few bad	-0.7781512
-2.3084147	<s> cheer	-1.4366926
-2.137537	<s> write	-1.60206
-0.7770899	through write	-0.66900676
-2.3307734	<s> tile	-1.4149734
-3.976193	<s> sweet	-0.30103
-2.2871509	<s> suit	-1.4573772
-2.2462292	<s> much	-1.4960066
-1.4429064	are much	-0.7781512
-0.77723664	through much	-0.30103
-2.238144	<s> rock	-1.50515
-2.228973	<s> knot	-1.5141048
-2.2768972	<s> shoot	-1.4673615
-3.4713717	<s> will	-0.30103
-1.4612458	he will	-0.30103
-1.6386468	i will	-0.30103
-0.2999534	families will	-0.86530143
-1.1386472	she will	-0.66900676
-1.2456777	they will	-0.86530143
-0.2999534	contributions will	-0.72699875
-1.1445837	will allow	-0.30103
-2.3133545	<s> a	-0.7647873
-1.1091027	is a	-0.79394555
-1.3760175	in a	-0.42596874
-0.5911554	write a	-0.66900676
-0.29554343	allow a	-0.30103
-0.76189524	him a	-0.42596874
-1.3760175	are a	-0.30103
-1.2082235	have a	-0.7781512
-0.29554343	pick a	-0.90309
-0.29554343	toward a	-0.86530143
-0.4689172	makes a	-0.845098
-0.5911554	did a	-0.86530143
-0.99953693	was a	-0.75332767
-1.4858179	and a	-0.30103
-1.0472559	for a	-0.71600336
-1.0524164	on a	-0.30103
-1.0472559	its a	-0.8239087
-0.29554343	take a	-0.86530143
-0.29554343	covers a	-1.1249387
-1.0472559	from a	-0.30103
-0.6853815	had a	-0.60206
-1.0472559	as a	-0.7781512
-0.29554343	wore a	-0.7781512
-0.5911554	such a	-0.5228787
-0.29554343	even a	-0.8239087
-0.5911554	expect a	-0.7781512
-0.29554343	deserves a	-0.5228787
-0.5911554	paint a	-0.42596874
-0.29554343	postdate a	-0.30103
-0.76189524	or a	-0.42596874
-1.9048455	a rare	-0.30103
-0.30080906	rare lilyrare	-0.30103
-0.30080906	lilyrare lie	-0.30103
-2.3194501	<s> boot	-1.4259686
-2.1618402	<s> witch	-1.5797836
-2.2111921	<s> lip	-1.5314789
-1.9651399	<s> sigh	-1.7732987
-2.1858153	<s> side	-1.5563025
-2.2007365	<s> four	-1.5399121
-1.8015515	the four	-0.845098
-2.1686122	<s> him	-1.5720967
-0.6014501	want him	-0.90309
-0.6014501	saw him	-0.42596874
-2.2849276	<s> sell	-1.4573772
-0.30067593	hell sell	-0.72699875
-2.3170555	<s> five	-1.4259686
-0.99823254	had five	-0.30103
-2.1391194	<s> pit	-1.60206
-2.3307734	<s> zero	-1.4149734
-2.1246068	<s> fat	-1.6163005
-2.26688	<s> spit	-1.4771212
-2.228973	<s> six	-1.5141048
-2.2570884	<s> hat	-1.4866666
-3.4530814	<s> carl	-0.42596874
-0.30080906	carl lives	-0.42596874
-1.9048455	a lovely	-0.42596874
-0.30080906	lovely home	-0.42596874
-3.776498	<s> bran	-0.30103
-2.3423998	<s> nine	-1.4036924
-2.1214259	<s> at	-1.3152704
-1.4972484	was at	-0.30103
-0.30053192	died at	-0.8239087
-0.6010644	sold at	-0.30103
-2.3084147	<s> seven	-1.4366926
-1.9802287	<s> leak	-1.7584071
-2.3307734	<s> eight	-1.4149734
-2.2768972	<s> fill	-1.1663314
-3.776498	<s> bite	-0.30103
-2.5313072	<s> harm	-1.2218487
-2.3307734	<s> chop	-1.4149734
-2.7997913	<s> shell	-0.97003675
-2.3423998	<s> sin	-1.4036924
-2.6821465	<s> tin	-1.0791812
-2.724113	<s> people	-1.0280287
-0.7766587	young people	-0.86530143
-0.30053192	elderly people	-0.7781512
-0.30053192	those people	-0.7781512
-2.905827	<s> who	-0.86530143
-0.90167546	people who	-1.0280287
-0.60161823	who value	-1.0280287
-0.30080906	value themselves	-1.0280287
-2.8632643	<s> are	-0.7781512
-0.5976087	people are	-0.7781512
-0.29879862	themselves are	-1.0280287
-1.4169165	you are	-0.66900676
-1.5177937	we are	-0.8239087
-0.29879862	reflexes are	-0.9378521
-1.5392324	and are	-0.30103
-1.2355914	they are	-0.42596874
-0.29879862	subtraction are	-0.86530143
-0.29879862	apartments are	-0.8239087
-0.29879862	bongos are	-0.42596874
-0.29879862	wages are	-0.30103
-0.29879862	costumes are	-0.30103
-1.4440747	are lifes	-1.0280287
-0.30080906	lifes winners	-1.0280287
-2.7997913	<s> lock	-0.97003675
-2.7997913	<s> nut	-0.97003675
-2.792594	<s> please	-0.97003675
-1.4422271	you please	-0.30103
-0.60161823	please open	-0.97003675
-1.6056552	<s> the	-0.7540784
-0.94330704	in the	-0.49732465
-0.9714225	at the	-0.30103
-1.3714495	are the	-0.8239087
-0.29516208	open the	-0.97003675
-1.3964782	to the	-0.6368221
-1.0667715	of the	-0.60206
-0.6844462	about the	-0.8239087
-0.8800795	only the	-0.86530143
-0.29516208	prefer the	-0.86530143
-1.2051141	with the	-0.7781512
-0.5904025	thats the	-0.30103
-1.0451071	all the	-0.5228787
-0.29516208	across the	-0.86530143
-1.3145431	for the	-0.72699875
-0.37434334	on the	-0.63984853
-0.29516208	remains the	-0.86530143
-0.9714225	by the	-0.72699875
-0.29516208	mail the	-0.8239087
-0.5904025	than the	-0.30103
-0.7607801	from the	-0.86530143
-0.29516208	neglect the	-0.7781512
-0.29516208	compounded the	-0.66900676
-0.5904025	judge the	-0.9378521
-0.29516208	housing the	-0.8239087
-0.29516208	order the	-0.66900676
-0.29516208	noted the	-0.5228787
-0.29516208	hiring the	-0.42596874
-0.29516208	hides the	-0.42596874
-0.29516208	describe the	-0.30103
-0.29516208	lamps the	-0.30103
-0.29516208	delight the	-0.30103
-2.09981	the window	-0.97003675
-0.30080906	window quickly	-0.97003675
-2.8732245	<s> zulu	-0.90309
-2.8732245	<s> then	-0.90309
-0.30080906	then wed	-0.90309
-1.4668697	he really	-0.30103
-1.608964	is really	-0.86530143
-0.30033898	wed really	-0.90309
-1.4942236	was really	-0.30103
-0.30033898	seemed really	-0.42596874
-2.9769325	<s> have	-0.72699875
-1.0716206	well have	-0.86530143
-0.9936904	really have	-0.90309
-1.7415993	to have	-0.86530143
-1.13732	you have	-1.0280287
-1.2439804	we have	-0.845098
-1.0716206	all have	-0.8239087
-0.2997607	tribes have	-0.30103
-1.2532879	have someplace	-0.90309
-2.7193985	<s> to	-0.7781512
-0.76357335	him to	-0.90309
-1.2129295	have to	-0.72699875
-0.2961161	someplace to	-0.90309
-0.59228724	want to	-0.30103
-0.2961161	greg to	-0.90309
-0.8837595	what to	-0.30103
-0.2961161	decision to	-0.86530143
-0.76357335	like to	-0.86530143
-0.2961161	scream to	-0.86530143
-0.59228724	still to	-0.7781512
-0.2961161	dough to	-0.69897
-0.2961161	common to	-0.86530143
-0.2961161	desire to	-0.72699875
-0.2961161	met to	-0.9378521
-0.2961161	trying to	-0.86530143
-0.2961161	wanted to	-0.72699875
-0.2961161	try to	-0.72699875
-0.2961161	hard to	-0.5563025
-0.2961161	status to	-0.5228787
-0.2961161	time to	-0.66900676
-0.2961161	appealing to	-0.42596874
-0.2961161	illegal to	-0.30103
-0.2961161	longer to	-0.30103
-0.2961161	muttering to	-0.42596874
-0.2961161	easy to	-0.42596874
-0.2961161	impossible to	-0.42596874
-1.4738187	to go	-0.8016324
-2.9151917	<s> flicker	-0.86530143
-2.513474	<s> bread	-1.2388821
-2.5510411	<s> you	-0.845098
-1.1320513	will you	-0.30103
-0.59799135	did you	-0.66900676
-1.2849791	can you	-0.42596874
-0.29899088	asked you	-0.86530143
-0.59799135	way you	-0.66900676
-0.47406617	if you	-0.60206
-0.59799135	sure you	-0.8239087
-0.59799135	tell you	-0.7781512
-0.7720624	when you	-0.66900676
-0.29899088	surrounds you	-0.30103
-0.29899088	lead you	-0.30103
-1.1445837	you want	-0.748188
-2.9092507	<s> do	-0.86530143
-1.769091	to do	-0.90309
-0.77723664	dont do	-0.86530143
-2.8732245	<s> sicker	-0.90309
-2.9151917	<s> dice	-0.86530143
-2.5693333	<s> help	-0.8846066
-0.60161823	help greg	-0.90309
-1.7715709	to pick	-0.90309
-1.9048455	a peck	-0.90309
-0.7692142	much of	-0.30103
-1.4069409	are of	-0.60206
-0.29803053	peck of	-0.90309
-0.7692142	out of	-0.42596874
-0.5960816	full of	-0.86530143
-0.29803053	fiercest of	-0.86530143
-0.29803053	minute of	-0.8239087
-0.29803053	number of	-0.8239087
-0.29803053	lack of	-0.66900676
-0.5960816	state of	-0.9378521
-0.29803053	largest of	-0.8239087
-0.29803053	pockets of	-0.8239087
-0.5960816	confirmation of	-0.7781512
-0.29803053	lot of	-0.5228787
-0.29803053	part of	-0.66900676
-0.29803053	name of	-0.30103
-0.29803053	lots of	-0.30103
-1.5756044	of potatoes	-0.90309
-2.3194501	<s> fork	-1.4259686
-1.4738187	he took	-0.8016324
-2.9259434	<s> me	-0.8239087
-1.7578847	to me	-0.42596874
-0.60067904	took me	-0.90309
-1.2490926	with me	-0.9378521
-0.60067904	fit me	-0.5228787
-0.99847674	me out	-0.90309
-0.90187097	things out	-0.72699875
-0.6014501	fell out	-0.42596874
-0.77723664	one day	-0.90309
-0.77723664	every day	-0.66900676
-0.30072492	twelfth day	-0.86530143
-2.8732245	<s> rest	-0.90309
-2.8271587	<s> most	-0.71600336
-2.0915093	the most	-0.86530143
-2.7605786	<s> young	-0.69897
-0.7770899	most young	-0.86530143
-2.4606507	<s> rise	-1.2863067
-0.7770899	young rise	-0.86530143
-0.60161823	rise early	-0.86530143
-0.30072492	early every	-0.86530143
-0.30072492	loved every	-0.8239087
-0.30072492	meals every	-0.66900676
-0.7774887	every morning	-0.86530143
-2.8732245	<s> travel	-0.90309
-1.608964	is about	-0.90309
-0.30033898	discover about	-0.86530143
-1.0750515	all about	-0.86530143
-0.30033898	talked about	-0.72699875
-0.30033898	brought about	-0.90309
-2.7630262	<s> only	-0.69897
-2.0945463	the only	-0.90309
-1.5002943	was only	-0.86530143
-0.90220684	only leisure	-0.90309
-1.8239249	<s> we	-0.7853298
-0.77608144	know we	-0.90309
-0.60067904	knew we	-0.66900676
-0.30033898	leisure we	-0.90309
-0.30033898	suggested we	-0.8239087
-2.8349576	<s> nod	-0.9378521
-2.5111084	<s> this	-0.81291336
-1.5740235	of this	-0.86530143
-0.30072492	play this	-0.30103
-3.735074	<s> good	-0.30103
-1.4325417	a good	-0.86530143
-0.6014501	look good	-0.8239087
-1.9014783	a place	-0.7781512
-0.99847674	good place	-0.90309
-0.30072492	gently place	-0.30103
-0.7774887	place though	-0.90309
-0.30080906	though small	-0.90309
-2.389462	<s> nice	-1.3553877
-1.8995287	a nice	-0.86530143
-2.8732245	<s> liquor	-0.90309
-2.5693333	<s> neat	-1.1856365
-2.8271587	<s> walk	-0.9378521
-0.30067593	could walk	-0.30103
-1.7406996	<s> i	-0.738898
-0.9011011	what i	-0.30103
-0.6010644	than i	-0.7781512
-1.0762012	as i	-0.64345264
-1.657704	i called	-0.86530143
-0.90220684	two different	-0.86530143
-0.30080906	different painters	-0.86530143
-2.9151917	<s> stimulating	-0.86530143
-0.30080906	stimulating discussions	-0.86530143
-0.30080906	discussions keep	-0.86530143
-0.30080906	keep students	-0.86530143
-0.30080906	students attention	-0.86530143
-0.60161823	help celebrate	-0.86530143
-0.30033898	celebrate your	-0.86530143
-0.77608144	eat your	-0.66900676
-0.30033898	guarantees your	-0.7781512
-0.30033898	upgrade your	-0.5228787
-0.30033898	reflect your	-0.5228787
-0.7770899	four brothers	-0.86530143
-0.99823254	your brothers	-0.86530143
-0.60161823	brothers success	-0.86530143
-2.9151917	<s> lake	-0.86530143
-2.8349576	<s> thread	-0.9378521
-2.9151917	<s> fed	-0.86530143
-2.9092507	<s> dont	-0.86530143
-1.6557947	i dont	-0.8239087
-0.77723664	just dont	-0.30103
-0.7774887	do charlies	-0.86530143
-0.30080906	charlies dirty	-0.86530143
-0.30080906	dirty dishes	-0.86530143
-2.405716	<s> sew	-1.3424227
-2.6821465	<s> sort	-1.0791812
-2.9151917	<s> catch	-0.86530143
-2.9151917	<s> goose	-0.86530143
-1.4725676	he played	-0.86530143
-1.5740235	and played	-0.66900676
-0.30072492	has played	-0.8239087
-3.0019689	<s> basketball	-0.7781512
-0.7770899	played basketball	-0.86530143
-2.3610916	<s> there	-1.0791812
-0.6010644	basketball there	-0.86530143
-0.7766587	sat there	-0.42596874
-0.30053192	unfortunately there	-0.30103
-0.9988963	there while	-0.86530143
-0.30067593	while working	-0.86530143
-0.30067593	credit working	-0.5228787
-0.60161823	working toward	-0.86530143
-1.9048455	a law	-0.86530143
-0.30080906	law degree	-0.86530143
-2.9151917	<s> coconut	-0.86530143
-0.30080906	coconut cream	-0.86530143
-0.30080906	cream pie	-0.86530143
-0.30072492	pie makes	-0.86530143
-1.143997	she makes	-0.42596874
-0.30072492	straw makes	-0.8239087
-0.60161823	nice dessert	-0.86530143
-2.905827	<s> ride	-0.86530143
-0.6013522	walk ride	-0.30103
-1.5523423	we selected	-0.86530143
-0.30080906	selected places	-0.86530143
-0.7770899	know where	-0.72699875
-0.30067593	places where	-0.86530143
-0.60161823	where families	-0.86530143
-2.946378	<s> be	-0.72699875
-0.83933514	will be	-0.8016324
-1.452944	to be	-0.8016324
-0.45404178	can be	-0.75696194
-0.5987575	may be	-0.66900676
-0.29937562	flowers be	-0.66900676
-0.29937562	must be	-0.42596874
-0.29937562	should be	-0.30103
-0.77320695	or be	-0.30103
-0.29937562	cannot be	-0.30103
-1.501628	be welcome	-0.86530143
-2.9151917	<s> cakes	-0.86530143
-2.379272	<s> bill	-1.3679768
-0.7774887	most accomplished	-0.86530143
-0.30080906	accomplished artists	-0.86530143
-0.30080906	artists obtain	-0.86530143
-0.30080906	obtain popularity	-0.86530143
-2.628533	<s> short	-1.1249387
-1.6158738	is short	-0.86530143
-2.9151917	<s> shin	-0.86530143
-2.9092507	<s> some	-0.86530143
-0.30072492	definitely some	-0.86530143
-1.5740235	and some	-0.42596874
-0.7774887	some prefer	-0.86530143
-2.09981	the traditional	-0.86530143
-0.30080906	traditional steel	-0.86530143
-0.30080906	steel kind	-0.86530143
-2.633453	<s> cork	-1.1249387
-2.6821465	<s> weep	-1.0791812
-2.9151917	<s> biblical	-0.86530143
-0.30080906	biblical scholars	-0.86530143
-0.30080906	scholars argue	-0.86530143
-0.30080906	argue history	-0.86530143
-2.9151917	<s> rid	-0.86530143
-2.9151917	<s> quart	-0.86530143
-2.9151917	<s> shot	-0.86530143
-1.6186326	is definitely	-0.86530143
-0.7774887	some ligament	-0.86530143
-0.30080906	ligament damage	-0.86530143
-0.96838695	in his	-0.7781512
-1.5731052	of his	-0.42596874
-0.90220684	his knee	-0.86530143
-2.9151917	<s> sheep	-0.86530143
-2.9151917	<s> snort	-0.86530143
-2.9151917	<s> pork	-0.86530143
-1.4422271	in fact	-0.86530143
-2.0915093	the fact	-0.5228787
-0.6014501	fact our	-0.86530143
-0.9528713	with our	-0.72699875
-0.30072492	obtaining our	-0.7781512
-0.90220684	our whole	-0.86530143
-0.30080906	whole defensive	-0.86530143
-0.30080906	defensive unit	-0.86530143
-3.1256301	<s> did	-0.66900676
-0.30067593	unit did	-0.86530143
-2.0915093	the job	-0.7781512
-0.99823254	good job	-0.86530143
-2.9151917	<s> sketch	-0.86530143
-0.60161823	who knows	-0.86530143
-0.30072492	knows what	-0.86530143
-0.6014501	thats what	-0.71600336
-0.6014501	sure what	-0.30103
-0.90220684	what youll	-0.86530143
-0.30080906	youll discover	-0.86530143
-0.9988963	about yourself	-0.86530143
-2.4486704	<s> blend	-1.30103
-2.9151917	<s> shed	-0.86530143
-0.6013522	brothers looked	-0.86530143
-1.4422271	it looked	-0.42596874
-0.60161823	looked identical	-0.86530143
-2.905827	<s> critical	-0.86530143
-0.30067593	gained critical	-0.90309
-0.60161823	critical equipment	-0.86530143
-0.30072492	equipment needs	-0.86530143
-0.30072492	household needs	-0.30103
-0.30072492	plant needs	-0.30103
-0.7774887	needs proper	-0.86530143
-0.30080906	proper maintenance	-0.86530143
-2.6821465	<s> court	-1.0791812
-2.4798646	<s> see	-1.2710668
-2.9151917	<s> shop	-0.86530143
-2.5274136	<s> heat	-1.2218487
-1.5731052	of heat	-0.66900676
-2.8349576	<s> suddenly	-0.9378521
-3.583508	<s> my	-0.30103
-1.0750515	up my	-0.86530143
-1.5668387	of my	-0.66900676
-0.30033898	suddenly my	-0.9378521
-0.30033898	change my	-0.72699875
-0.9988963	my reflexes	-0.9378521
-1.4440747	are gone	-0.9378521
-2.8349576	<s> gill	-0.9378521
-2.9151917	<s> show	-0.86530143
-2.8271587	<s> read	-0.9378521
-1.2982055	can read	-0.8239087
-2.09981	the results	-0.9378521
-3.0492542	<s> were	-0.66900676
-0.2999534	results were	-0.9378521
-1.2456777	they were	-0.72699875
-0.2999534	cars were	-0.5228787
-0.7749294	or were	-0.30103
-0.2999534	paintings were	-0.30103
-0.2999534	cases were	-0.30103
-0.77723664	played very	-0.8239087
-1.143997	were very	-0.9378521
-1.5002943	was very	-0.7781512
-0.7774887	very disappointing	-0.9378521
-2.9151917	<s> tug	-0.86530143
-2.4639874	<s> cash	-1.2863067
-2.9151917	<s> stretch	-0.86530143
-2.4798646	<s> steak	-1.2710668
-2.9151917	<s> ray	-0.86530143
-2.9151917	<s> fort	-0.86530143
-2.9151917	<s> lee	-0.86530143
-2.5313072	<s> hold	-1.2218487
-2.8349576	<s> ive	-0.9378521
-0.30080906	ive kept	-0.9378521
-2.1083786	<s> it	-0.91733044
-1.2406054	have it	-0.86530143
-1.4245515	you it	-0.7781512
-1.5493802	of it	-0.8239087
-0.29937562	kept it	-0.9378521
-0.5987575	confirmation it	-0.66900676
-0.29937562	handle it	-0.66900676
-0.29937562	done it	-0.66900676
-0.29937562	thought it	-0.30103
-0.29937562	nailed it	-0.30103
-3.1408749	<s> with	-0.5228787
-1.4271265	it with	-0.9378521
-0.29956815	compliance with	-0.9378521
-0.29956815	pleased with	-0.7781512
-0.29956815	popular with	-0.7781512
-0.29956815	laced with	-0.86530143
-0.29956815	disappointed with	-0.66900676
-0.29956815	canteen with	-0.42596874
-0.59914124	deal with	-0.42596874
-0.9988963	me ever	-0.9378521
-0.30080906	ever since	-0.9378521
-2.7672606	<s> thats	-0.7781512
-2.9092507	<s> life	-0.86530143
-0.90187097	what life	-0.86530143
-0.99847674	my life	-0.66900676
-2.973635	<s> all	-0.7781512
-0.99655586	really all	-0.86530143
-1.2490926	we all	-0.8016324
-1.1413138	were all	-0.66900676
-0.30033898	received all	-0.5228787
-2.9014425	<s> was	-0.7781512
-1.6262162	i was	-0.7781512
-0.9917905	there was	-0.8239087
-0.96236974	it was	-0.7781512
-1.1346776	she was	-0.38021123
-0.29937562	bracelet was	-0.86530143
-0.29937562	luck was	-0.7781512
-0.29937562	pickpocket was	-0.9378521
-0.29937562	range was	-0.72699875
-0.29937562	display was	-0.42596874
-0.7774887	one decision	-0.86530143
-1.501628	be made	-0.86530143
-2.9151917	<s> shred	-0.86530143
-2.9151917	<s> sight	-0.86530143
-2.09981	the fish	-0.86530143
-0.30080906	fish swam	-0.86530143
-0.30080906	swam across	-0.86530143
-2.09981	the pond	-0.86530143
-2.228973	<s> she	-0.69019604
-1.1445837	she doesnt	-0.86530143
-1.6557947	i like	-0.42596874
-0.6014501	looked like	-0.42596874
-0.30072492	doesnt like	-0.86530143
-1.4440747	it hanging	-0.86530143
-0.30080906	hanging around	-0.86530143
-2.6821465	<s> tort	-1.0791812
-3.0136852	<s> meats	-0.7781512
-0.7680802	down and	-0.7781512
-0.7680802	young and	-0.42596874
-0.5953201	short and	-0.86530143
-0.29764697	prosecuted and	-0.86530143
-0.29764697	addition and	-0.86530143
-0.29764697	chocolate and	-0.86530143
-0.29764697	masonry and	-0.72699875
-0.29764697	distress and	-0.7781512
-0.29764697	jealousies and	-0.90309
-0.5953201	pleasure and	-0.7781512
-0.5953201	straight and	-0.66900676
-0.29764697	heart and	-0.66900676
-0.29764697	bagpipes and	-0.42596874
-0.29764697	saws and	-0.42596874
-0.29764697	supplies and	-0.42596874
-0.29764697	broccoli and	-0.30103
-0.29764697	deer and	-0.30103
-0.29764697	strong and	-0.30103
-0.29764697	children and	-0.30103
-1.5756044	and precious	-0.86530143
-2.4764042	<s> eat	-0.97003675
-1.4422271	you eat	-0.66900676
-2.905827	<s> sport	-0.86530143
-0.30067593	entertaining sport	-0.7781512
-0.90220684	people participate	-0.86530143
-1.4440747	in athletic	-0.86530143
-0.30080906	athletic activities	-0.86530143
-2.9151917	<s> trespassers	-0.86530143
-3.250874	<s> can	-0.42596874
-1.5340043	we can	-0.90309
-1.6344637	i can	-0.60206
-0.59952515	basketball can	-0.7781512
-0.2997607	trespassers can	-0.86530143
-0.59952515	gold can	-0.7781512
-0.89803493	also can	-0.7781512
-0.2997607	standby can	-0.30103
-1.501628	be prosecuted	-0.86530143
-1.5756044	and fined	-0.86530143
-2.8349576	<s> etiquette	-0.9378521
-0.30080906	etiquette mandates	-0.9378521
-0.30080906	mandates compliance	-0.9378521
-1.2532879	with existing	-0.9378521
-0.30080906	existing regulations	-0.9378521
-1.6082766	a quick	-0.8846066
-0.60161823	quick touchdown	-0.9378521
-0.30080906	touchdown resulted	-0.9378521
-2.0915093	the little	-0.86530143
-0.6013522	still little	-0.30103
-0.60161823	little girls	-0.86530143
-0.30080906	girls cut	-0.86530143
-0.30080906	cut lacy	-0.86530143
-0.30080906	lacy valentines	-0.86530143
-2.905827	<s> gas	-0.86530143
-0.7770899	years gas	-0.72699875
-2.4195673	<s> geese	-1.3290588
-2.9151917	<s> mill	-0.86530143
-2.9151917	<s> barbs	-0.86530143
-3.0019689	<s> gold	-0.7781512
-0.30067593	barbs gold	-0.86530143
-0.60161823	gold bracelet	-0.86530143
-1.9048455	a graduation	-0.86530143
-0.30080906	graduation present	-0.86530143
-2.3423998	<s> reap	-1.4036924
-2.9151917	<s> dill	-0.86530143
-2.9151917	<s> lend	-0.86530143
-2.9151917	<s> foe	-0.86530143
-1.4738187	he asked	-0.86530143
-1.4194466	you for	-0.86530143
-0.7720624	place for	-0.7781512
-1.4194466	it for	-0.30103
-0.29899088	friend for	-0.8239087
-0.59799135	look for	-0.8239087
-0.29899088	prepared for	-0.72699875
-0.29899088	clams for	-0.72699875
-0.29899088	mask for	-0.7781512
-0.29899088	wife for	-0.42596874
-0.29899088	ready for	-0.42596874
-0.29899088	trips for	-0.42596874
-0.29899088	demand for	-0.30103
-1.9048455	a loan	-0.86530143
-2.5357172	<s> they	-0.56729794
-0.77608144	do they	-0.86530143
-0.60067904	where they	-0.72699875
-0.90033245	things they	-0.5228787
-0.30033898	because they	-0.42596874
-0.9526515	they make	-0.69897
-0.6013522	phone make	-0.8239087
-3.0272174	<s> any	-0.72699875
-1.7578847	to any	-0.86530143
-1.4375825	it any	-0.66900676
-1.3719908	for any	-0.42596874
-0.77608144	make any	-0.86530143
-0.99823254	any money	-0.86530143
-0.30067593	save money	-0.30103
-2.9151917	<s> toe	-0.86530143
-2.9151917	<s> threat	-0.86530143
-2.9151917	<s> port	-0.86530143
-1.657704	i scream	-0.86530143
-0.9988963	my voice	-0.86530143
-2.6571176	<s> rip	-1.1026623
-2.6821465	<s> wise	-1.0791812
-1.6546865	i think	-0.86530143
-0.7770899	dont think	-0.8239087
-0.6013522	think im	-0.86530143
-0.6013522	now im	-0.86530143
-2.8647141	<s> full	-0.90309
-0.6013522	im full	-0.86530143
-0.9988963	this stuff	-0.86530143
-2.9151917	<s> bend	-0.86530143
-2.9151917	<s> muck	-0.86530143
-2.905827	<s> night	-0.86530143
-0.99823254	at night	-0.8239087
-2.9151917	<s> snake	-0.86530143
-1.657704	i havent	-0.8239087
-0.30080906	havent seen	-0.8239087
-2.567933	<s> that	-0.74036264
-1.0739049	up that	-0.30103
-0.6002941	fill that	-0.42596874
-0.3001462	seen that	-0.8239087
-0.3001462	requests that	-0.66900676
-0.3001462	beauty that	-0.30103
-1.2023555	that friend	-0.8239087
-2.9616523	<s> bumper	-0.8239087
-1.2023555	an entertaining	-0.7781512
-2.9616523	<s> ash	-0.8239087
-3.0019689	<s> fit	-0.7781512
-0.6013522	never fit	-0.5228787
-2.9616523	<s> sheer	-0.8239087
-0.9988963	at twilight	-0.86530143
-0.6002941	ride on	-0.30103
-0.3001462	twilight on	-0.86530143
-0.3001462	outdoors on	-0.66900676
-0.3001462	misplaced on	-0.42596874
-0.3001462	picnic on	-0.30103
-0.3001462	put on	-0.30103
-2.09981	the twelfth	-0.86530143
-1.2532879	have chablis	-0.86530143
-2.5499043	<s> hash	-1.20412
-3.0136852	<s> worse	-0.7781512
-0.30080906	worse luck	-0.7781512
-1.6158738	is still	-0.30103
-1.4995192	was still	-0.7781512
-1.7676529	to come	-0.7781512
-1.4422271	you come	-0.72699875
-2.09981	the golfing	-0.7781512
-0.30080906	golfing fathers	-0.7781512
-0.30080906	fathers ruled	-0.7781512
-0.90220684	his favor	-0.7781512
-2.4639874	<s> hail	-1.2863067
-3.0136852	<s> code	-0.7781512
-3.0136852	<s> elderly	-0.7781512
-1.4440747	are often	-0.7781512
-0.30080906	often excluded	-0.7781512
-2.9616523	<s> beam	-0.8239087
-2.905827	<s> yet	-0.86530143
-0.7770899	eat yet	-0.66900676
-1.4738187	he remains	-0.86530143
-2.09981	the fiercest	-0.86530143
-1.5756044	of competitors	-0.86530143
-3.0136852	<s> knife	-0.7781512
-2.9616523	<s> pete	-0.8239087
-2.9151917	<s> addition	-0.86530143
-1.5756044	and subtraction	-0.86530143
-1.4440747	are learned	-0.86530143
-0.30080906	learned skills	-0.86530143
-1.4995192	be found	-0.7781512
-0.30067593	soon found	-0.42596874
-0.60161823	found anywhere	-0.7781512
-2.9616523	<s> gash	-0.8239087
-1.501628	was pleased	-0.7781512
-2.0915093	the way	-0.7781512
-0.99823254	any way	-0.66900676
-2.0827005	the things	-0.5228787
-0.6010644	way things	-0.7781512
-0.30053192	work things	-0.72699875
-0.30053192	get things	-0.30103
-0.90167546	things went	-0.7781512
-0.30067593	marriage went	-0.86530143
-1.657704	i loved	-0.8239087
-0.7774887	every minute	-0.8239087
-2.9550457	<s> its	-0.3467875
-0.6014501	think its	-0.8239087
-0.30072492	maybe its	-0.30103
-0.9988963	good idea	-0.8239087
-2.9151917	<s> fender	-0.86530143
-3.0136852	<s> woe	-0.7781512
-2.9616523	<s> member	-0.8239087
-2.9616523	<s> beast	-0.8239087
-1.1445837	she suggested	-0.8239087
-1.2532879	have dinner	-0.8239087
-0.30072492	dinner together	-0.8239087
-0.6014501	trip together	-0.30103
-0.90187097	got together	-0.42596874
-2.7997913	<s> so	-0.66900676
-0.6014501	so if	-0.8239087
-0.30072492	fear if	-0.72699875
-0.6014501	practical if	-0.30103
-0.7774887	if anybody	-0.8239087
-0.30080906	anybody solicits	-0.8239087
-0.30033898	solicits by	-0.8239087
-0.30033898	begin by	-0.86530143
-0.60067904	them by	-0.72699875
-0.30033898	rewarded by	-0.30103
-0.30033898	acting by	-0.30103
-3.4215877	<s> phone	-0.42596874
-0.99823254	by phone	-0.8239087
-0.7770899	make sure	-0.8239087
-0.6013522	not sure	-0.30103
-1.4440747	you mail	-0.8239087
-2.09981	the dough	-0.8239087
-2.09981	the above	-0.7781512
-3.0136852	<s> ambidextrous	-0.7781512
-0.30080906	ambidextrous pickpockets	-0.7781512
-0.30080906	pickpockets accomplish	-0.7781512
-1.077354	up more	-0.86530143
-0.77723664	needs more	-0.30103
-0.30072492	accomplish more	-0.7781512
-2.9616523	<s> guess	-0.8239087
-1.1445837	will take	-0.86530143
-1.9048455	a wedding	-0.86530143
-0.30080906	wedding trip	-0.64345264
-0.6013522	trip later	-0.7781512
-0.30067593	weeks later	-0.42596874
-2.4038692	<s> her	-0.86530143
-0.30072492	outgrew her	-0.8239087
-0.6014501	win her	-0.42596874
-0.60161823	dark hair	-0.8239087
-1.6186326	is combed	-0.8239087
-0.30080906	combed casually	-0.8239087
-3.1412766	<s> seam	-0.66900676
-2.9616523	<s> beep	-0.8239087
-0.9011011	old also	-0.42596874
-1.651444	i also	-0.7781512
-0.6010644	job also	-0.7781512
-1.1426533	were also	-0.30103
-1.4422271	are quite	-0.30103
-1.4995192	be quite	-0.7781512
-0.60161823	quite vocal	-0.7781512
-1.4440747	it requires	-0.7781512
-3.3898928	<s> big	-0.42596874
-0.99751526	no big	-0.7781512
-1.8938468	a big	-0.7781512
-0.99751526	by big	-0.30103
-0.90220684	big investment	-0.7781512
-1.2023555	that pickpocket	-0.9378521
-1.501628	was caught	-0.9378521
-0.30080906	caught redhanded	-0.9378521
-0.90220684	big house	-0.7781512
-3.072812	<s> mock	-0.72699875
-2.5693333	<s> dock	-1.1856365
-2.8647141	<s> sea	-0.90309
-0.30067593	resemble sea	-0.5228787
-2.9616523	<s> grandmother	-0.8239087
-0.30080906	grandmother outgrew	-0.8239087
-0.9988963	her upbringing	-0.8239087
-1.4440747	in petticoats	-0.8239087
-2.09981	the sun	-0.8239087
-0.30080906	sun died	-0.8239087
-3.0136852	<s> ember	-0.7781512
-2.5693333	<s> seat	-1.1856365
-3.0136852	<s> those	-0.7781512
-0.7774887	much quicker	-0.7781512
-0.30067593	quicker than	-0.7781512
-0.30067593	away than	-0.30103
-1.657704	i am	-0.7781512
-3.0136852	<s> food	-0.7781512
-3.0136852	<s> reef	-0.7781512
-1.9048455	a fire	-0.8239087
-1.4440747	in straw	-0.8239087
-0.60161823	quick blaze	-0.8239087
-3.0136852	<s> sender	-0.7781512
-0.9988963	her classical	-0.90309
-0.30080906	classical performance	-0.90309
-0.30080906	performance gained	-0.90309
-0.60161823	critical acclaim	-0.90309
-0.9988963	her position	-0.86530143
-0.90167546	also covers	-0.7781512
-0.30067593	position covers	-0.86530143
-1.9048455	a number	-1.1249387
-1.5756044	of daily	-0.86530143
-0.30080906	daily tasks	-0.86530143
-0.30080906	tasks common	-0.86530143
-0.9988963	any social	-0.86530143
-0.30080906	social director	-0.86530143
-2.09981	the marriage	-0.86530143
-1.0739049	well from	-0.86530143
-0.3001462	behavior from	-0.72699875
-0.3001462	coming from	-0.72699875
-0.3001462	assaults from	-0.7781512
-0.3001462	drenched from	-0.86530143
-0.3001462	original from	-0.30103
-2.0915093	the start	-0.86530143
-0.90167546	our start	-0.66900676
-1.7676529	to tell	-0.30103
-1.6546865	i tell	-0.7781512
-1.501628	was wonderful	-0.7781512
-3.0136852	<s> renter	-0.7781512
-2.5693333	<s> row	-1.1856365
-3.0136852	<s> lender	-0.7781512
-3.0136852	<s> ape	-0.7781512
-1.5523423	we just	-0.60206
-1.6546865	i didnt	-0.72699875
-0.7770899	just didnt	-0.8239087
-2.951243	<s> look	-0.8239087
-0.6013522	didnt look	-0.8239087
-2.9616523	<s> forks	-0.8239087
-3.072812	<s> tender	-0.72699875
-2.9616523	<s> tea	-0.8239087
-0.7774887	very popular	-0.7781512
-0.90220684	our fans	-0.7781512
-3.0136852	<s> timber	-0.7781512
-2.6821465	<s> leap	-1.0791812
-3.0136852	<s> catastrophic	-0.7781512
-0.30080906	catastrophic economic	-0.7781512
-0.30080906	economic cutbacks	-0.7781512
-0.30080906	cutbacks neglect	-0.7781512
-2.09981	the poor	-0.7781512
-2.7997913	<s> tail	-0.97003675
-2.9616523	<s> bender	-0.8239087
-2.4195673	<s> ache	-1.3290588
-2.9616523	<s> center	-0.8239087
-3.0136852	<s> mom	-0.7781512
-0.30080906	mom strongly	-0.7781512
-0.30080906	strongly dislikes	-0.7781512
-0.30080906	dislikes appetizers	-0.7781512
-2.9616523	<s> beef	-0.8239087
-2.9616523	<s> temper	-0.8239087
-2.6390398	<s> had	-1.1026623
-1.5440295	we had	-0.30103
-1.6471362	i had	-0.72699875
-0.30033898	finger had	-0.72699875
-0.30033898	kat had	-0.30103
-0.9988963	no desire	-0.72699875
-1.7715709	to change	-0.72699875
-0.9988963	my ways	-0.72699875
-2.5499043	<s> wax	-1.20412
-2.8349576	<s> pet	-0.9378521
-3.0136852	<s> aid	-0.7781512
-3.072812	<s> knock	-0.72699875
-3.072812	<s> lies	-0.72699875
-3.0136852	<s> cheese	-0.7781512
-2.9616523	<s> hatch	-0.8239087
-2.09981	the lack	-0.66900676
-0.60161823	heat compounded	-0.66900676
-2.09981	the tenants	-0.66900676
-0.30067593	tenants grievances	-0.66900676
-0.30067593	personal grievances	-0.90309
-2.513474	<s> bunch	-1.2388821
-0.9988963	any contributions	-0.72699875
-1.501628	be greatly	-0.72699875
-0.30080906	greatly appreciated	-0.72699875
-2.5313072	<s> ease	-1.2218487
-3.072812	<s> leaks	-0.72699875
-2.7087069	<s> add	-1.0543576
-2.9151917	<s> chocolate	-0.86530143
-1.5756044	and roses	-0.86530143
-0.30067593	roses never	-0.86530143
-0.30067593	theyll never	-0.5228787
-0.60161823	never fail	-0.64345264
-1.608964	is as	-0.30103
-0.60067904	fail as	-0.7781512
-0.30033898	exactly as	-0.86530143
-0.30033898	displayed as	-0.30103
-0.30033898	offensive as	-0.30103
-1.9048455	a romantic	-0.7781512
-0.30080906	romantic gift	-0.7781512
-2.09981	the legislature	-0.9378521
-0.30080906	legislature met	-0.9378521
-3.7126472	<s> judge	-0.30103
-1.7676529	to judge	-0.9378521
-1.8057892	the state	-0.7781512
-1.5756044	of public	-0.9378521
-0.30080906	public education	-0.9378521
-2.09981	the largest	-0.8239087
-0.7774887	four states	-0.8239087
-3.072812	<s> peas	-0.72699875
-3.072812	<s> bun	-0.72699875
-3.072812	<s> punch	-0.72699875
-3.0136852	<s> ail	-0.7781512
-2.9151917	<s> begin	-0.86530143
-0.9988963	by trying	-0.86530143
-1.7715709	to speak	-0.86530143
-2.7087069	<s> tall	-1.0543576
-3.072812	<s> range	-0.72699875
-1.9048455	a vital	-0.72699875
-0.30080906	vital detail	-0.72699875
-3.072812	<s> pill	-0.72699875
-3.072812	<s> racks	-0.72699875
-2.09981	the structures	-0.8239087
-0.30080906	structures housing	-0.8239087
-2.09981	the apartments	-0.8239087
-1.5756044	of masonry	-0.72699875
-1.5756044	and frame	-0.72699875
-0.30080906	frame construction	-0.72699875
-3.072812	<s> aches	-0.72699875
-3.0136852	<s> lit	-0.7781512
-2.09981	the singers	-0.72699875
-0.30080906	singers finger	-0.72699875
-1.9048455	a splinter	-0.72699875
-2.8349576	<s> now	-0.71600336
-0.60161823	im living	-0.86530143
-0.30080906	living exactly	-0.86530143
-1.657704	i choose	-0.7781512
-3.072812	<s> duck	-0.72699875
-3.072812	<s> arm	-0.72699875
-1.657704	i wanted	-0.72699875
-1.2023555	an actress	-0.72699875
-2.8271587	<s> fell	-0.9378521
-1.4422271	it fell	-0.42596874
-3.0136852	<s> academic	-0.7781512
-0.30080906	academic aptitude	-0.7781512
-0.30080906	aptitude guarantees	-0.7781512
-0.9988963	your diploma	-0.7781512
-3.072812	<s> charm	-0.72699875
-1.9048455	a great	-0.72699875
-0.30080906	great meeting	-0.72699875
-1.4738187	he has	-0.8239087
-1.501628	be prepared	-0.72699875
-1.377567	for odd	-0.72699875
-0.30080906	odd behavior	-0.72699875
-1.0778571	from friends	-0.72699875
-2.9616523	<s> mile	-0.8239087
-3.0136852	<s> rakes	-0.7781512
-1.5523423	we talked	-0.72699875
-2.09981	the situation	-0.72699875
-0.90187097	two other	-0.30103
-1.5740235	of other	-0.7781512
-0.77723664	makes other	-0.42596874
-0.7774887	other items	-0.7781512
-0.9988963	no fear	-0.72699875
-0.60161823	come alone	-0.72699875
-3.4329166	<s> sat	-0.42596874
-1.077354	all sat	-0.7781512
-0.77723664	just sat	-0.42596874
-1.5756044	and relaxed	-0.7781512
-2.433875	<s> hall	-1.3152704
-3.0136852	<s> sake	-0.7781512
-1.1445837	were coming	-0.72699875
-1.377567	for pockets	-0.8239087
-0.60161823	black sand	-0.8239087
-3.072812	<s> hell	-0.72699875
-0.6013522	sell them	-0.72699875
-0.7770899	like them	-0.42596874
-1.8057892	the box	-0.8239087
-2.09981	the plot	-0.86530143
-1.6186326	is laced	-0.86530143
-1.2532879	with mysterious	-0.86530143
-0.30080906	mysterious incidents	-0.86530143
-1.5523423	we shelled	-0.72699875
-0.30080906	shelled clams	-0.72699875
-2.09981	the chowder	-0.72699875
-1.5523423	we experience	-0.7781512
-0.30080906	experience distress	-0.7781512
-1.5756044	and frustration	-0.7781512
-0.30080906	frustration obtaining	-0.7781512
-0.90220684	our degrees	-0.7781512
-3.0136852	<s> ticks	-0.7781512
-2.09981	the prowler	-0.7781512
-0.30080906	prowler wore	-0.7781512
-1.9048455	a ski	-0.7781512
-0.30080906	ski mask	-0.7781512
-1.377567	for disguise	-0.7781512
-0.99823254	no confirmation	-0.7781512
-0.6013522	cable confirmation	-0.66900676
-1.6158738	is such	-0.5228787
-1.5731052	of such	-0.7781512
-0.60161823	such massive	-0.7781512
-0.30080906	massive assaults	-0.7781512
-1.0778571	from independent	-0.7781512
-0.30080906	independent sources	-0.7781512
-3.0136852	<s> chap	-0.7781512
-3.072812	<s> lax	-0.72699875
-3.7126472	<s> score	-0.30103
-1.2982055	can score	-0.90309
-3.072812	<s> munch	-0.72699875
-3.072812	<s> try	-0.72699875
-1.7715709	to work	-0.72699875
-1.4738187	he added	-0.90309
-0.30080906	added brought	-0.90309
-0.99823254	about petty	-0.90309
-1.5731052	and petty	-0.90309
-0.60161823	petty jealousies	-0.90309
-0.60161823	petty personal	-0.90309
-2.9616523	<s> even	-0.8239087
-1.9048455	a simple	-0.8239087
-0.30080906	simple vocabulary	-0.8239087
-0.30080906	vocabulary contains	-0.8239087
-0.30080906	contains symbols	-0.8239087
-3.072812	<s> end	-0.72699875
-2.09981	the eastern	-0.7781512
-0.30080906	eastern coast	-0.7781512
-1.377567	for pure	-0.7781512
-1.3759813	for pleasure	-0.42596874
-0.30067593	pure pleasure	-0.7781512
-1.5756044	and excitement	-0.7781512
-3.072812	<s> cat	-0.72699875
-3.1412766	<s> dial	-0.66900676
-2.7672606	<s> low	-1
-3.1412766	<s> cold	-0.66900676
-3.322722	<s> whip	-0.5228787
-1.4738187	to expect	-0.64345264
-1.4336826	a few	-0.6478175
-0.60161823	bad calls	-0.7781512
-3.322722	<s> ink	-0.5228787
-3.1412766	<s> handle	-0.66900676
-3.322722	<s> theyll	-0.5228787
-0.9988963	me again	-0.5228787
-3.322722	<s> term	-0.5228787
-1.9048455	a program	-0.5228787
-3.322722	<s> wide	-0.5228787
-1.5508437	we got	-0.69897
-1.6557947	i got	-0.30103
-0.90187097	also got	-0.42596874
-0.90220684	got drenched	-0.86530143
-2.09981	the uninterrupted	-0.86530143
-0.30080906	uninterrupted rain	-0.86530143
-3.1412766	<s> pant	-0.66900676
-3.1256301	<s> win	-0.66900676
-0.6013522	may win	-0.42596874
-0.7770899	few may	-0.66900676
-0.30067593	company may	-0.42596874
-1.4995192	be hard	-0.66900676
-1.0770612	its hard	-0.30103
-3.7126472	<s> find	-0.30103
-1.4718404	to find	-0.86530143
-3.0136852	<s> cable	-0.5563025
-1.6546865	i said	-0.30103
-1.4422271	it said	-0.66900676
-0.60161823	said translated	-0.66900676
-3.1412766	<s> weve	-0.66900676
-0.30080906	weve done	-0.66900676
-2.09981	the past	-0.66900676
-3.322722	<s> burn	-0.5228787
-1.5523423	we werent	-0.66900676
-0.30080906	werent doing	-0.66900676
-3.322722	<s> upgrade	-0.5228787
-0.9988963	your status	-0.5228787
-1.7715709	to reflect	-0.5228787
-0.9988963	your wealth	-0.5228787
-3.2991776	<s> spring	-0.5228787
-0.30067593	fresh spring	-0.42596874
-3.4215877	<s> street	-0.42596874
-0.6013522	spring street	-0.5228787
-1.3199048	is straight	-0.60206
-0.60161823	straight ahead	-0.5228787
-2.09981	the store	-0.66900676
-0.30080906	store serves	-0.66900676
-0.30080906	serves meals	-0.66900676
-1.0778571	all disappointed	-0.66900676
-1.1445837	will order	-0.66900676
-3.1256301	<s> wine	-0.66900676
-2.0915093	the wine	-0.66900676
-3.1412766	<s> eyes	-0.66900676
-3.322722	<s> weave	-0.5228787
-2.09981	the family	-0.66900676
-0.30080906	family requests	-0.66900676
-1.2023555	that flowers	-0.66900676
-1.501628	be omitted	-0.66900676
-3.1412766	<s> wart	-0.66900676
-3.322722	<s> wack	-0.5228787
-1.2532879	they received	-0.5228787
-1.2520963	they needed	-0.5228787
-0.99823254	any needed	-0.42596874
-3.1412766	<s> dash	-0.66900676
-0.60161823	took heart	-0.66900676
-2.09981	the snow	-0.66900676
-0.30080906	snow blew	-0.66900676
-0.90167546	got into	-0.30103
-0.30067593	blew into	-0.66900676
-1.8995287	a large	-0.30103
-0.6013522	into large	-0.66900676
-0.60161823	large drifts	-0.66900676
-3.1412766	<s> regular	-0.66900676
-0.30080906	regular attendance	-0.66900676
-1.6186326	is seldom	-0.66900676
-0.30080906	seldom required	-0.66900676
-3.0136852	<s> ball	-0.7781512
-1.501628	was time	-0.66900676
-1.0770612	up myself	-0.66900676
-0.6013522	found myself	-0.42596874
-3.072812	<s> last	-0.72699875
-0.60161823	gas shortage	-0.72699875
-0.30080906	shortage caused	-0.72699875
-0.30080906	caused steep	-0.60206
-0.60161823	steep price	-0.66900676
-0.30080906	price increases	-0.66900676
-3.1412766	<s> both	-0.44715804
-0.60161823	both cars	-0.5228787
-1.1445837	were slightly	-0.5228787
-0.30080906	slightly damaged	-0.5228787
-2.09981	the new	-0.66900676
-0.30080906	new highway	-0.66900676
-1.5756044	and empty	-0.66900676
-2.09981	the staff	-0.5228787
-0.30080906	staff deserves	-0.5228787
-1.9048455	a lot	-0.5228787
-1.5756044	of credit	-0.5228787
-0.6013522	right here	-0.42596874
-0.7770899	down here	-0.5228787
-0.90167546	also under	-0.30103
-0.6013522	here under	-0.5228787
-0.60161823	under real	-0.5228787
-0.30080906	real obstacles	-0.5228787
-3.1412766	<s> hid	-0.66900676
-3.322722	<s> why	-0.5228787
-3.322722	<s> luke	-0.5228787
-2.9151917	<s> fold	-0.86530143
-3.1412766	<s> pink	-0.66900676
-3.1412766	<s> waste	-0.66900676
-0.9988963	your raisins	-0.66900676
-0.30080906	raisins outdoors	-0.66900676
-3.7126472	<s> porch	-0.30103
-2.0915093	the porch	-0.66900676
-0.60161823	porch steps	-0.66900676
-1.4738187	he noted	-0.5228787
-0.60161823	fact carefully	-0.5228787
-3.0594127	<s> when	-0.60206
-0.7770899	when when	-0.30103
-3.210618	<s> through	-0.60206
-1.4429064	are through	-0.66900676
-0.30072492	spread through	-0.30103
-1.9048455	a clean	-0.66900676
-0.30080906	clean report	-0.66900676
-3.322722	<s> sail	-0.5228787
-3.1412766	<s> wipe	-0.66900676
-3.1412766	<s> continental	-0.66900676
-0.30080906	continental drift	-0.66900676
-1.9048455	a geological	-0.66900676
-0.30080906	geological theory	-0.66900676
-1.9048455	a huge	-0.66900676
-0.30080906	huge part	-0.66900676
-3.322722	<s> porcupines	-0.5228787
-0.30080906	porcupines resemble	-0.5228787
-0.60161823	sea urchins	-0.5228787
-3.1412766	<s> challenge	-0.66900676
-3.4215877	<s> each	-0.42596874
-0.30067593	challenge each	-0.66900676
-0.60161823	each generals	-0.66900676
-0.30080906	generals intelligence	-0.66900676
-3.072812	<s> wives	-0.72699875
-1.4738187	he cant	-0.66900676
-0.30080906	cant abide	-0.66900676
-0.30080906	abide mistakes	-0.66900676
-0.90220684	his own	-0.66900676
-2.0915093	the game	-0.30103
-0.30067593	own game	-0.66900676
-3.1412766	<s> docks	-0.66900676
-3.4530814	<s> pole	-0.42596874
-3.776498	<s> stable	-0.30103
-3.4530814	<s> hiring	-0.42596874
-2.09981	the wife	-0.42596874
-1.377567	for ones	-0.42596874
-0.30080906	ones company	-0.42596874
-0.9988963	her taxaided	-0.42596874
-0.30080906	taxaided retirement	-0.42596874
-0.30080906	retirement income	-0.42596874
-1.5523423	we must	-0.42596874
-1.501628	be ready	-0.42596874
-0.60161823	needed sacrifice	-0.42596874
-3.4530814	<s> able	-0.42596874
-3.4530814	<s> ban	-0.42596874
-0.7774887	other trips	-0.42596874
-3.4530814	<s> page	-0.42596874
-1.2023555	an accordion	-0.42596874
-3.776498	<s> paid	-0.30103
-3.4530814	<s> sprain	-0.42596874
-3.4530814	<s> wall	-0.42596874
-3.4530814	<s> fool	-0.42596874
-3.4530814	<s> boat	-0.42596874
-3.4530814	<s> ramp	-0.42596874
-0.9988963	good service	-0.30103
-0.30080906	service should	-0.30103
-1.501628	be rewarded	-0.30103
-0.90220684	big tips	-0.30103
-3.4215877	<s> paint	-0.42596874
-1.4422271	you paint	-0.42596874
-1.2023555	that canteen	-0.42596874
-1.2532879	with fresh	-0.42596874
-0.7770899	more water	-0.30103
-0.6013522	spring water	-0.42596874
-0.9988963	really shook	-0.30103
-3.776498	<s> beg	-0.30103
-3.4530814	<s> mat	-0.42596874
-3.776498	<s> sap	-0.30103
-3.2225914	<s> pain	-0.60206
-1.4738187	he hides	-0.42596874
-2.09981	the mayonnaise	-0.42596874
-3.072812	<s> fall	-0.72699875
-3.4530814	<s> mall	-0.42596874
-3.4530814	<s> feel	-0.42596874
-0.90220684	two seemed	-0.42596874
-0.9988963	really appealing	-0.42596874
-3.4530814	<s> panel	-0.42596874
-3.776498	<s> doctors	-0.30103
-0.30080906	doctors prescribe	-0.30103
-0.30080906	prescribe drugs	-0.30103
-0.30080906	drugs too	-0.30103
-0.30080906	too freely	-0.30103
-3.776498	<s> vamp	-0.30103
-3.776498	<s> bag	-0.30103
-3.776498	<s> rat	-0.30103
-1.549973	we saw	-0.30103
-1.6546865	i saw	-0.42596874
-0.7774887	few weeks	-0.42596874
-1.0778571	its illegal	-0.30103
-1.7715709	to postdate	-0.30103
-1.9048455	a check	-0.30103
-3.4530814	<s> space	-0.42596874
-3.776498	<s> naval	-0.30103
-3.776498	<s> stall	-0.30103
-3.776498	<s> spade	-0.30103
-0.60161823	into acting	-0.30103
-0.9988963	by accident	-0.30103
-3.776498	<s> damp	-0.30103
-3.4530814	<s> spray	-0.42596874
-3.4530814	<s> peach	-0.42596874
-3.776498	<s> mabel	-0.30103
-3.776498	<s> told	-0.30103
-1.6158738	is not	-0.30103
-1.4995192	was not	-0.42596874
-0.60161823	not seriously	-0.42596874
-0.30080906	seriously injured	-0.42596874
-0.60161823	them because	-0.42596874
-1.4422271	are practical	-0.42596874
-1.4995192	be practical	-0.30103
-3.4530814	<s> funnel	-0.42596874
-3.776498	<s> tap	-0.30103
-2.09981	the name	-0.30103
-3.776498	<s> gently	-0.30103
-0.7774887	place jims	-0.30103
-0.30080906	jims foam	-0.30103
-0.30080906	foam sculpture	-0.30103
-3.776498	<s> maybe	-0.30103
-1.0778571	its taking	-0.30103
-0.30080906	taking longer	-0.30103
-1.7715709	to get	-0.30103
-0.90220684	things squared	-0.30103
-0.30080906	squared away	-0.30103
-2.09981	the bankers	-0.30103
-0.30080906	bankers expected	-0.30103
-3.4530814	<s> reach	-0.42596874
-3.776498	<s> file	-0.30103
-1.657704	i soon	-0.42596874
-0.60161823	myself muttering	-0.42596874
-2.09981	the walls	-0.42596874
-0.90220684	old telephone	-0.42596874
-0.30080906	telephone booths	-0.42596874
-0.30080906	booths arent	-0.42596874
-0.30080906	arent easy	-0.42596874
-3.776498	<s> paste	-0.30103
-3.776498	<s> foil	-0.30103
-3.4530814	<s> map	-0.42596874
-3.4530814	<s> gable	-0.42596874
-3.4530814	<s> bull	-0.42596874
-3.4530814	<s> crawl	-0.42596874
-3.776498	<s> pale	-0.30103
-3.776498	<s> creature	-0.30103
-0.90220684	his pocket	-0.42596874
-0.90220684	got married	-0.42596874
-3.776498	<s> saddle	-0.30103
-3.4530814	<s> bowl	-0.42596874
-3.776498	<s> nap	-0.30103
-3.4530814	<s> table	-0.42596874
-3.776498	<s> sable	-0.30103
-3.4530814	<s> fable	-0.42596874
-3.776498	<s> mold	-0.30103
-3.776498	<s> mole	-0.30103
-1.0778571	its impossible	-0.42596874
-1.7676529	to deal	-0.42596874
-1.5731052	and deal	-0.42596874
-1.2532879	with bureaucracy	-0.42596874
-3.4530814	<s> pace	-0.42596874
-3.776498	<s> call	-0.30103
-0.60161823	please describe	-0.30103
-2.09981	the idiotic	-0.30103
-0.30080906	idiotic predicament	-0.30103
-3.4530814	<s> screech	-0.42596874
-3.4530814	<s> ladle	-0.42596874
-3.4530814	<s> bash	-0.42596874
-1.9048455	a room	-0.42596874
-0.30072492	room or	-0.42596874
-0.30072492	walked or	-0.30103
-0.30072492	bus or	-0.30103
-1.9048455	a portrait	-0.42596874
-3.4530814	<s> bagpipes	-0.42596874
-1.5756044	and bongos	-0.42596874
-1.4440747	are musical	-0.42596874
-0.30080906	musical instruments	-0.42596874
-1.657704	i thought	-0.30103
-0.9988963	at first	-0.30103
-0.7770899	make gin	-0.42596874
-0.30067593	used gin	-0.42596874
-0.60161823	gin saws	-0.42596874
-1.4440747	in parts	-0.42596874
-0.30080906	parts supplies	-0.42596874
-0.7774887	some used	-0.42596874
-0.60161823	gin machinery	-0.42596874
-3.4530814	<s> final	-0.42596874
-0.9988963	there giggling	-0.42596874
-3.776498	<s> owl	-0.30103
-3.4530814	<s> cliffs	-0.42596874
-0.30080906	cliffs display	-0.42596874
-1.501628	was misplaced	-0.42596874
-2.09981	the screen	-0.42596874
-3.4530814	<s> teach	-0.42596874
-1.2023555	an official	-0.30103
-0.30080906	official deadline	-0.30103
-0.30080906	deadline cannot	-0.30103
-1.501628	be postponed	-0.30103
-3.776498	<s> bog	-0.30103
-3.4530814	<s> rattle	-0.42596874
-3.4215877	<s> sold	-0.42596874
-1.1436555	were sold	-0.30103
-3.776498	<s> bought	-0.30103
-3.4530814	<s> bank	-0.42596874
-3.4530814	<s> shawl	-0.42596874
-3.4530814	<s> soul	-0.42596874
-3.4530814	<s> preach	-0.42596874
-3.4530814	<s> pull	-0.42596874
-3.776498	<s> boone	-0.30103
-3.776498	<s> suppress	-0.30103
-3.776498	<s> wages	-0.30103
-1.9048455	a key	-0.30103
-0.30080906	key issue	-0.30103
-3.776498	<s> unfortunately	-0.30103
-0.60161823	little demand	-0.30103
-1.377567	for broccoli	-0.30103
-1.5756044	and cauliflower	-0.30103
-0.7774887	three deer	-0.30103
-1.9048455	a badger	-0.30103
-3.776498	<s> contrast	-0.30103
-0.60161823	large household	-0.30103
-0.7774887	needs lots	-0.30103
-1.5756044	of appliances	-0.30103
-3.4530814	<s> grain	-0.42596874
-3.776498	<s> several	-0.30103
-0.30080906	several paintings	-0.30103
-2.09981	the auction	-0.30103
-3.776498	<s> impress	-0.30103
-3.776498	<s> occur	-0.30103
-3.776498	<s> shore	-0.30103
-3.776498	<s> book	-0.30103
-3.776498	<s> bin	-0.30103
-0.7774887	most weeds	-0.30103
-0.30080906	weeds grow	-0.30103
-0.30080906	grow strong	-0.30103
-1.5756044	and fast	-0.30103
-3.776498	<s> fudge	-0.30103
-3.776498	<s> rust	-0.30103
-2.09981	the misprint	-0.30103
-0.30080906	misprint provoked	-0.30103
-1.2023555	an immediate	-0.30103
-0.30080906	immediate disclaimer	-0.30103
-3.776498	<s> contract	-0.30103
-3.776498	<s> limb	-0.30103
-3.776498	<s> musk	-0.30103
-3.776498	<s> rut	-0.30103
-3.776498	<s> serve	-0.30103
-3.776498	<s> grape	-0.30103
-3.776498	<s> intact	-0.30103
-1.9048455	a picnic	-0.30103
-2.09981	the beach	-0.30103
-3.776498	<s> subtract	-0.30103
-1.2023555	that plant	-0.30103
-1.2023555	an original	-0.30103
-1.9048455	a forgery	-0.30103
-1.2532879	they either	-0.30103
-0.30080906	either walked	-0.30103
-1.4995192	be driven	-0.30103
-1.1436555	were driven	-0.30103
-3.776498	<s> primitive	-0.30103
-0.30080906	primitive tribes	-0.30103
-1.2023555	an upbeat	-0.30103
-0.30080906	upbeat attitude	-0.30103
-3.776498	<s> shut	-0.30103
-3.776498	<s> retract	-0.30103
-3.776498	<s> displayed	-0.30103
-1.0778571	as lamps	-0.30103
-2.09981	the puppets	-0.30103
-0.30080906	puppets delight	-0.30103
-2.09981	the children	-0.30103
-1.4440747	are decorative	-0.30103
-0.30080906	decorative accent	-0.30103
-3.776498	<s> globe	-0.30103
-3.776498	<s> grave	-0.30103
-3.776498	<s> bust	-0.30103
-3.776498	<s> depress	-0.30103
-3.776498	<s> dusk	-0.30103
-3.776498	<s> slim	-0.30103
-3.776498	<s> flying	-0.30103
-0.30080906	flying standby	-0.30103
-1.7715709	to save	-0.30103
-0.9988963	my instructions	-0.30103
-0.30080906	instructions desperately	-0.30103
-0.30080906	desperately need	-0.30103
-0.30080906	need updating	-0.30103
-3.776498	<s> preserve	-0.30103
-3.776498	<s> converge	-0.30103
-3.776498	<s> booth	-0.30103
-0.9988963	this railroads	-0.30103
-0.30080906	railroads future	-0.30103
-2.09981	the west	-0.30103
-1.0778571	its beauty	-0.30103
-1.2023555	that surrounds	-0.30103
-0.60161823	said id	-0.30103
-0.30080906	id put	-0.30103
-1.0780776	on weight	-0.30103
-3.776498	<s> lisp	-0.30103
-3.776498	<s> hispanic	-0.30103
-0.30080906	hispanic costumes	-0.30103
-0.60161823	quite colorful	-0.30103
-3.776498	<s> tore	-0.30103
-3.776498	<s> strange	-0.30103
-3.776498	<s> refer	-0.30103
-3.776498	<s> deserve	-0.30103
-3.776498	<s> glib	-0.30103
-3.776498	<s> grope	-0.30103
-3.776498	<s> but	-0.30103
-3.776498	<s> absurd	-0.30103
-2.09981	the kat	-0.30103
-0.60161823	five kittens	-0.30103
-3.776498	<s> cement	-0.30103
-1.6186326	is measured	-0.30103
-1.4440747	in cubic	-0.30103
-0.30080906	cubic yards	-0.30103
-3.776498	<s> grange	-0.30103
-3.776498	<s> lid	-0.30103
-1.2532879	they could	-0.30103
-1.9048455	a bus	-0.30103
-3.776498	<s> brain	-0.30103
-3.776498	<s> boast	-0.30103
-3.776498	<s> observe	-0.30103
-3.776498	<s> reserve	-0.30103
-3.776498	<s> slid	-0.30103
-3.776498	<s> list	-0.30103
-3.776498	<s> conserve	-0.30103
-3.776498	<s> repress	-0.30103
-3.776498	<s> scorch	-0.30103
-2.09981	the strike	-0.30103
-0.30080906	strike spread	-0.30103
-3.776498	<s> super	-0.30103
-0.7774887	other cases	-0.30103
-0.60161823	under advisement	-0.30103
-3.776498	<s> split	-0.30103
-2.09981	the hotel	-0.30103
-0.30080906	hotel owner	-0.30103
-0.30080906	owner struggled	-0.30103
-0.9988963	really crucified	-0.30103
-1.4738187	he nailed	-0.30103
-1.9048455	a yard	-0.30103
-0.30080906	yard loss	-0.30103
-3.976193	<s> ok	-0.30103
-0.60161823	fail actually	-0.30103
-3.322722	<s> owe	-0.5228787
-1.1445837	will lead	-0.30103
-3.776498	<s> jaw	-0.30103
-3.776498	<s> cope	-0.30103
-3.776498	<s> drop	-0.30103
-3.776498	<s> shout	-0.30103
-1.2992655	can play	-0.30103
-0.9988963	this weekend	-0.30103
-3.4530814	<s> nothing	-0.42596874
-1.6158738	is offensive	-0.30103
-1.0770612	as offensive	-0.30103
-1.0778571	as ignorance	-0.30103
-3.776498	<s> relax	-0.30103
-3.776498	<s> oh	-0.30103
-3.776498	<s> liar	-0.30103
-3.976193	<s> usually	-0.30103
-0.30067593	usually min	-0.30103
-0.6013522	min min	-0.30103
-3.776498	<s> tear	-0.30103
-1.2023555	that paper	-0.30103
-3.776498	<s> innocence	-0.30103
-3.776498	<s> skip	-0.30103
-0.30080906	skip ah	-0.30103
-1.657704	i chose	-0.30103
-1.0778571	as innocense	-0.30103

\3-grams:
-0.0034234684	<s> pat </s>
-0.011848589	<s> up </s>
-0.18700396	shook up </s>
-0.0034234684	<s> meat </s>
-0.00921399	<s> know </s>
-0.002574286	<s> air </s>
-0.004527312	<s> swarm </s>
-0.0056463988	<s> no </s>
-0.0044430415	<s> storm </s>
-0.005337136	<s> dug </s>
-0.0030710981	<s> feet </s>
-0.0029940691	<s> beat </s>
-0.0042080493	<s> rake </s>
-0.002690335	<s> sip </s>
-0.004898956	<s> bit </s>
-0.0038671608	<s> chair </s>
-0.009808843	<s> one </s>
-0.025520995	<s> two </s>
-0.021758445	<s> spark </s>
-0.35478365	spark spark </s>
-0.0090165455	<s> dark </s>
-0.0047058193	<s> bat </s>
-0.0039966707	<s> sheet </s>
-0.008106386	<s> warm </s>
-0.0043618204	<s> ship </s>
-0.006681725	<s> goat </s>
-0.0054591945	<s> left </s>
-0.0055869776	<s> sticks </s>
-0.0034234684	<s> slip </s>
-0.08788934	ah slip </s>
-0.005001618	<s> floor </s>
-0.010156895	<s> right </s>
-0.0057748137	<s> knew </s>
-0.034822963	do well </s>
-0.04213558	very well </s>
-0.061525233	doing well </s>
-0.8305605	<s> he </s>
-0.033552215	<s> is </s>
-0.011548411	<s> three </s>
-0.048158925	for years </s>
-0.12833291	<s> old </s>
-0.16002543	years old </s>
-0.0037458097	<s> feed </s>
-0.005108653	<s> park </s>
-0.012164816	<s> down </s>
-0.0026310566	<s> yes </s>
-0.012102101	<s> coat </s>
-0.08788934	frock coat </s>
